{
  "InputSize" : 1,
  "BatchSize" : 10,
  "Layers" : [ {
    "Size" : 20,
    "ActivatorType" : "Tanh",
    "GradientAdjustmentParameters" : {
      "Type" : "Momentum",
      "LearningRate" : 0.01,
      "Momentum" : 0.9
    },
    "Type" : "StandardLayer",
    "L2Regularization" : 1.0E-4,
    "Bias" : [ -0.5210008117928189, 0.25001517147674385, -0.5790733171009834, 0.6529639110612591, 0.10089637660365328, 2.7312492972698976, 0.4105962408545069, 1.0728378806769305, -1.0065226717859026, -0.16069396827301408, -0.5927548626149618, 0.4467431519656073, -0.005456732298839565, -0.15468173343344813, -1.6944500057916836, 0.5282335741029747, 0.5838375415666806, -0.16453899512547346, 0.6557801309596508, 1.8636486316849512 ],
    "Weights" : [ [ -1.600765571237833, 0.1978989402384752, 1.7955919412052013, -0.016781794595628414, -0.31796269738380445, -0.8441158551944214, -0.4524411793464441, -0.012682516576853325, 0.013122171028212146, -0.1794953506860864, 0.4343801449614767, -0.02257690323147342, -0.4128075914612883, 0.44195030415643743, -0.5240410646399289, -0.01953424217636424, -0.018182024857406012, -0.18039465505430066, 0.30232877241480893, 0.5744115194387883 ] ]
  }, {
    "Size" : 1,
    "ActivatorType" : "Tanh",
    "GradientAdjustmentParameters" : {
      "Type" : "Momentum",
      "LearningRate" : 0.01,
      "Momentum" : 0.9
    },
    "Type" : "StandardLayer",
    "L2Regularization" : 0.0,
    "Bias" : [ -2.10317147049034 ],
    "Weights" : [ [ -1.6543906645970985 ], [ 0.41255979556677336 ], [ -1.3467801813377513 ], [ -0.72815711469514 ], [ 0.21805219151002747 ], [ 2.1358523514038517 ], [ 0.5284098586315887 ], [ -1.3478082738805996 ], [ 1.2533830311290717 ], [ -0.16679754283513484 ], [ -0.6948080376937346 ], [ -0.5617980017487859 ], [ 0.0841899444336006 ], [ -0.520328318082471 ], [ -1.3354602441854153 ], [ -0.6006695378175215 ], [ -0.6674204586653579 ], [ -0.1753674943601671 ], [ 0.7803433905249963 ], [ 1.4363994474812762 ] ]
  } ]
}