{
  "InputSize" : 7,
  "BatchSize" : 32,
  "Layers" : [ {
    "Size" : 20,
    "ActivatorType" : "Tanh",
    "GradientAdjustmentParameters" : {
      "Type" : "Momentum",
      "LearningRate" : 0.01,
      "Momentum" : 0.9
    },
    "Type" : "StandardLayer",
    "L2Regularization" : 1.0E-4,
    "Bias" : [ -5.276972222099241E-12, 0.006012187925734764, 0.008052891942418216, 2.733120019370793E-4, -0.027284968915262307, 1.7934665539949397E-6, 0.006959300924072871, -0.006028005738806314, -4.620666582271071E-8, -2.4729826675191852E-9, 9.000489576192992E-5, 6.861755712000236E-4, -0.020801101316470415, -0.003502506602357741, 0.009060031150005561, 9.985800321757694E-11, -0.020986094276843528, -0.0024076495904272544, -3.077506646946572E-7, -0.002207923966877127 ],
    "Weights" : [ [ -0.28620985675669136, -0.007971783955196926, -0.0689507687342335, -0.043121109980994284, -0.07208990384272339, -0.02542889084308863, -0.010635527199951346, -0.18565105116775227, 0.2592311594850728, 0.3289296406810628, 0.2615674279273147, -0.5057995560739265, -1.3222751283415246, 0.010926362758427404, 0.10164733803663611, 0.21108536774271042, -0.8349224878626075, 0.17971694206996225, 0.1515781071761877, 1.0383069449414835 ], [ 0.13665220784375318, -0.20298125708916895, 0.30564851453050507, -0.2405848213121913, -0.39685272459427834, -0.1910867085265997, 0.04882975633485101, 0.26857177993686676, -0.33445041420678423, 0.2399803133242158, 0.030527286412167825, 0.10109073321058104, -0.435370304911734, 0.04289571422437687, 0.26107343458099586, -0.007970184739189179, -0.3401021395416059, -0.02516515462655411, -0.1309315943330476, -0.3124557292461153 ], [ -0.2269588655883731, 0.3939476850113479, -0.3475733313824866, -0.12726100624841555, -1.4857579609872935, 0.313178793638868, 0.6233037383624381, -0.21955703189131456, 0.24715867760537075, 0.05330740588356149, -0.01746357384783359, -0.5514671104506778, -2.027757289936262, 0.23793401875569667, 0.3188806636246475, 0.24494690986031062, -1.5256032144075808, 0.10226918038443347, 0.22318776293814388, 1.1495856232817452 ], [ 0.07532993642653558, -0.20521439029703908, -0.2758878794412421, 0.32484277995816757, -0.32165698936379106, 0.25798362023099974, -0.21908022112755504, 0.04850877898890551, -0.12177525126002481, -0.13929527227819308, 0.2539772776142655, -0.27783074394169643, 0.10818099590727664, -0.12520031433741421, 0.315536325915714, 0.2886481953575895, 0.23095012072597612, -0.28674660884711867, -0.09836765563365664, 0.019099617728951263 ], [ 0.13008635378669015, 0.2397036158695001, 0.16367564686014577, 0.2351183593650012, 0.2290231487322036, -0.1355030247649331, -0.2887644981267927, 0.1099671825276534, 0.15498050996211715, 0.22158236093103628, -0.023522651177256784, -0.14463496463766476, 0.18288405435705724, -0.1662083756632312, 0.046821987140083995, -0.21474774188250256, -0.29559965694257195, 0.17225322281353977, -0.2037741619870655, -0.2310868103025321 ], [ -0.24884157174631283, -0.2548713702606623, 0.30746743497722817, 0.21198762761926063, -0.1843702897697965, 0.12976902551122083, -0.18174677284622837, 0.256046184702156, 0.1990127674096587, 0.2593950934300605, 0.10072156064929311, -0.07267324882024831, -0.10056713832471555, -0.16463427488966706, 0.04015234482581686, 0.08760144013921259, 0.18731418197859426, 0.3146069093168405, 0.32175972458128105, -0.06344460045281389 ], [ -0.018294526448527793, -0.0472590596207559, 0.041823926284197455, -0.03515994794097515, 0.24614787589835901, 0.2729158176127502, 0.31332629101629916, -0.018362698046664617, 0.06274383632620259, 0.22136770358960164, -0.2997952616198477, 0.28463138981780955, -0.06664153726214417, 0.2312019109017659, -0.09912747648659444, 0.14450611942728733, -0.2849911057152255, -0.24009843213395754, -0.1709234875997753, -0.01566187349670699 ] ]
  }, {
    "Size" : 10,
    "ActivatorType" : "Tanh",
    "GradientAdjustmentParameters" : {
      "Type" : "Momentum",
      "LearningRate" : 0.01,
      "Momentum" : 0.9
    },
    "Type" : "StandardLayer",
    "L2Regularization" : 0.0,
    "Bias" : [ -0.08485720130431991, -0.1022306363665707, -0.12812597729023203, 0.09749148590398628, 0.09646891599963021, 0.09716463656377307, -0.15690193506490013, 0.022835086787407435, 0.014278235374666392, -0.32927394477632627 ],
    "Weights" : [ [ -0.16417198956875126, 0.2667298184332659, 0.1979950757707442, -0.03866280387334901, 0.31974201328190566, 0.12789481312621143, -0.10840731003791629, 0.3102565227226729, 0.21429994975676817, -0.06807537959731702 ], [ 0.0490521301774381, 0.2970458757700289, -0.20181527385714948, 0.34657683474295997, -0.09392144770775972, 0.27521824806561074, -0.23458082496378885, 0.027391130632867196, 0.297677644348934, 0.8179313698443696 ], [ 0.34671848664309673, -0.32638153611260146, 0.018929684438905945, -0.21363753808207905, 0.18757632865029167, 0.24773241066923357, -0.20620804845042506, 0.3534742007169391, 0.29426279549168066, 0.33131334996412515 ], [ 0.017606108489531334, -0.07576943441030615, 0.1385575025478572, 0.13640295485464696, -0.38868228118411846, -0.31242709744006025, 0.5817058256336329, 0.29028640881373724, -0.28121121145059846, 0.586361327979828 ], [ -0.18032346211259154, -0.12557393716074278, 0.2590302916068218, -0.4681599892069481, -0.08451651835828765, 0.2566092641726058, -0.8012919424486354, 0.0027553180492945668, 0.024053737292334634, -0.8092538784022968 ], [ 0.3553104747841523, -0.5098893628991931, -0.33903265535073324, -0.2523159446748742, 0.015659797380631477, 0.01887350155161232, 0.060225707642373214, -0.16681592625774452, -0.07674122580434399, 0.057461373225509954 ], [ 0.14073531939093656, 0.4625363476235028, 0.9287603703639179, -0.8982312738637691, -0.23331789393180427, 0.08812316638395745, 0.8782203389130862, 0.1267185259654902, 0.4100082740846572, 0.6303679315374622 ], [ 0.16601105407023461, 0.10260637007300732, 0.0370202788920924, -0.47379642648906906, -0.23706582353303055, 0.09206627155869813, -0.030838172304236265, -0.28340541780634904, 0.30713688172415754, 0.7253347442310399 ], [ -0.030375266712338443, 0.09970653189453622, -0.2851392148592068, 0.3660221210842615, 0.42586426274319084, 0.16182813581864447, -0.27869915008293245, -0.051428215241972455, -0.04711488082543468, -0.6626820584031965 ], [ 0.14852293164078254, 0.13227387057625184, -0.1854864556720042, 0.09869625905403, 0.1059055706327981, -0.015129958420442373, -0.10139925462881061, -0.009497167570208376, 0.12751047048264172, -0.12571738963037946 ], [ -0.4220302985665474, -0.45514410931723537, -0.19460560404314076, -0.16585091283341624, 0.2643377525205494, -0.30510184476858593, -0.39899455234744496, -0.40673180234838185, -0.13140603801861322, 0.10071027396378782 ], [ -0.27125877109082375, -0.027016833601551733, -0.30265055665727403, -0.1152852771672213, -0.14144515062040575, 0.14137216754671095, 0.4481429744086127, 0.14357732158656433, -0.4095516682086755, 0.2642693174716075 ], [ -0.04595337369255449, -0.35920563654831117, -0.3946672520879356, -0.010576992164126272, 0.07049909953791454, 0.5115655759360832, -0.0572144028012914, -0.2776434901893623, 0.06222439892324572, -0.28138867419282104 ], [ -0.46106507196625285, -0.4880378122303627, -0.09179511139784917, 0.22392898425258873, 0.10306196097109928, 0.018207598772435562, 0.2688401739126984, 0.2538354679941156, 0.26341280396588046, 0.1177207036267039 ], [ -0.24915147812744387, 0.5914290870147615, 0.7101595187189513, -0.3357815473575365, -0.8023483795141598, -0.4095001061380732, 0.36021310718360006, 0.45206752769080283, 0.053717397473150415, 1.1109505862177085 ], [ 0.17254765461000235, 0.017769995897522782, -0.5637703297758208, 0.019070720307019676, 0.46778266957414616, 0.2345175221038516, -0.026209767201432095, -0.0324973917331063, -0.38044855787051174, -0.2764826955586727 ], [ 0.42243268714310556, -0.455813003318169, -0.48079216528841134, 0.9140347842247406, 0.7604477025805626, -0.04433832090262421, -0.5299531100407334, -0.27058434974217926, -0.15834475578464885, -0.59431526801396 ], [ 0.09796144743482554, -0.33904433945606216, 0.0709763842175271, -0.036959443319517116, 0.15131043492356677, 0.39426321603280134, -0.3733190919366426, -0.05720469044527479, -0.3943405647891979, -0.5218752359957569 ], [ 0.271179174560076, -0.3958890875368787, -0.16771542051215263, -0.2561626140271189, 0.09464560668202109, 0.43318090965875816, -0.4548629818963672, -0.09260895327689302, -0.26895270889607015, -0.24143008255493806 ], [ 0.30700028538748225, -0.30637801577104584, -0.0767332207536736, 0.5257502563071499, -0.12445252306103818, 0.031108063008938112, -0.2419409853811147, 0.20702507772999162, 0.18617692318207535, -0.5234128278755694 ] ]
  }, {
    "Size" : 1,
    "ActivatorType" : "Identity",
    "GradientAdjustmentParameters" : {
      "Type" : "Momentum",
      "LearningRate" : 0.01,
      "Momentum" : 0.9
    },
    "Type" : "StandardLayer",
    "L2Regularization" : 0.0,
    "Bias" : [ 5.821336055945753 ],
    "Weights" : [ [ 7.744308247737496E-4 ], [ 9.481918909041336E-4 ], [ 4.5606690992269707E-4 ], [ 3.874136832305162E-4 ], [ -0.0034266400251161677 ], [ 4.930348201097301E-4 ], [ 9.191559193494313E-4 ], [ 8.82381024832576E-4 ], [ 2.080701652453524E-4 ], [ -3.795681315031343E-5 ] ]
  } ]
}