{
  "InputSize" : 7,
  "BatchSize" : 32,
  "Layers" : [ {
    "Size" : 20,
    "ActivatorType" : "Tanh",
    "GradientAdjustmentParameters" : {
      "Type" : "Momentum",
      "LearningRate" : 0.01,
      "Momentum" : 0.9
    },
    "Type" : "StandardLayer",
    "L2Regularization" : 1.0E-4,
    "Bias" : [ -2.115952867729511, 0.06471450557488591, -7.853639933206843, -1.3641829227788795, 0.29189874696684387, -10.364529254247476, 2.6468669780897933, -2.9788944231274814, -8.973421993311156, 5.733356302821059, 3.9978801573817004, 0.11965664807167442, 0.13117454945277773, -4.233149311474093, 0.5213433489147671, -0.02205689182801911, -2.408821199461561, 2.5515063341573363, -4.896689490496088, -0.589681508750506 ],
    "Weights" : [ [ 2.276554817724916, 1.12479558484787, 4.628470659591446, 0.02575723256165443, 1.3419048991509586, 3.8185543632005143, 3.6747548890496446, 0.21428605219675995, 4.502001946828062, -4.267518840222215, -2.693289030977953, 1.04878526731904, -1.8640741879400375, -1.4638148957899402, -1.0681787130132268, -2.716661220692318, 0.37477223399710075, -0.04512218863979803, 0.8739780023754667, -3.2222163623954208 ], [ -0.12232392875035503, -0.09804221853173395, -0.6534081099835316, 0.019568391933555473, 0.03774939192927555, -0.046662102751418424, -0.06916778946596545, 0.06818769407564292, -0.2780723490215675, 0.029662410513451025, -0.24038050063505367, 0.05941314086174284, -0.07276582628390431, 0.03843195958195572, 0.009351813946834755, -0.11552781579665079, -0.1475334058405427, 0.007990401318546211, 0.05920926369332153, -0.12595155807253142 ], [ -0.31822774027988526, 1.711718805434306, -8.586634828372778, -0.542984407424833, -3.1636144925835725, -1.1673946254038314, -0.9000272779703241, 0.22500229605551697, -0.8593248752923661, 1.50979841669477, 1.8541329667800357, -0.7387111578501188, 0.439498016777514, 1.631576830222962, 0.9710290671849795, 3.3048168381529566, 2.405002530235676, 0.003491881227311306, -0.947387655091208, 2.9249056627439303 ], [ 2.364851532803809, 1.7779868140407409, 3.9387736318465545, 2.8066024588934564, -0.06035522962923681, 0.41484967575726445, 0.3701533903428545, 0.5942870314421718, 0.8752369701076057, -1.399196141634903, -1.7212420308575163, 2.190858439352654, 0.269360342673827, -0.639350183801955, -1.48209392057474, 0.7853068904076818, 2.82740186735004, 2.7900560729182464, 3.3592104064773483, 0.8774864015505545 ], [ 2.777910614949195, 0.7349381552109725, 1.5081739867513473, 0.149162045765371, 0.6817682561440629, 2.58988650869087, 0.6223081598627673, 1.688164328667163, 2.990881255916498, -2.6139361083568957, -0.9283408473112887, 2.991957580428635, -0.9753589243363967, -4.273868388705287, 0.14474292048904502, -2.193392257854612, -1.0330150179289217, -0.04424900857364425, 0.16271695836198843, 0.7445031050242641 ], [ -0.3287203165785728, -0.24098327781715292, 0.006004197364338849, -0.22483951075762704, 0.0973963623448422, 0.01689584189078321, -0.19064266845141928, 0.1759110378766156, -0.2707165842547742, 0.3242472019988815, -0.20894658391227455, -0.31564456392824164, -0.17549483085792553, 0.019422774086446114, 0.09443301935896982, -0.11682516304949862, -0.5994193222656563, -0.16786644444500626, -0.22040046490818907, -0.3920330207420135 ], [ -0.36462005870613035, -0.675945188934403, -2.679617371020577, -2.2592284617409373, 0.5161828879850586, 2.149109573151965, -0.09629895257141152, 0.8223246823645438, 1.955522228188789, -0.965310770425662, 0.9927514955341579, -2.3779418801519063, -0.1059564156490873, 0.08431100976747384, -0.3955930718766354, -1.3143983773974979, -2.261982013009148, -0.333750067615697, -3.7762148397603883, -1.0646635866252316 ] ]
  }, {
    "Size" : 10,
    "ActivatorType" : "Tanh",
    "GradientAdjustmentParameters" : {
      "Type" : "Momentum",
      "LearningRate" : 0.01,
      "Momentum" : 0.9
    },
    "Type" : "StandardLayer",
    "L2Regularization" : 0.0,
    "Bias" : [ 3.726994796670884, 4.283985844453769, -2.291281911320229, -7.0343265905595835, -4.371413691152448, 1.4969501150866447, 0.15765329199757291, -1.0705910662265374, 3.5679409552056134, 7.06004253768541 ],
    "Weights" : [ [ 0.011051877218024758, -3.3701134599902405, -0.08315390071192527, -1.3824870505406448, -1.296489213142758, 0.39016935602742914, -0.7594905614004713, -0.4134635912278358, 1.6710632413690505, -1.4661391747925026 ], [ -0.5860966643703761, 1.5049180761772145, -0.5460786488407885, 3.234507873460626, -0.9990072514856843, 0.05290546023372617, -2.148598705379566, -0.9094787702369541, -0.8516149275976332, -2.7433926784445 ], [ 0.18607551385407078, -1.5741146035041325, -0.445098853059786, 0.26575758287726614, 0.33795044113052314, 0.7959868619931121, -0.3459313013097103, 1.2992159963554781, -0.15127725889703492, -0.2239937416976964 ], [ -0.20311667690113946, 1.0128517980550529, -0.5030238967959371, -0.2987312571761767, -0.496434644019099, 0.3801537619480082, -0.48577290157297703, -0.5708586567956031, -0.34199524427819256, -0.25049073636084795 ], [ -0.421601342610171, 0.28489010165730844, -0.44844539890168267, 0.7093005652819082, 1.1650592476390278, 0.5797247046714203, 0.2747519773480588, -1.0231194606963046, -0.45091925953569834, -0.694510851860097 ], [ 0.1309753265281186, -1.2589577520824493, 1.0059794330573177, 2.7610296429037673, 1.1251078732576234, 4.728933149760522, -3.9007155335364128, 0.8601368677570564, -0.9238951639137685, -1.2807796850568915 ], [ -0.31461008360889803, 3.3207626239310244, -0.6550153147432971, 4.889803662971013, -0.7203981908583239, 0.5272013861436069, -5.432252456232086, -0.5588792087681812, 0.32088598792969336, -2.0645700009630135 ], [ 1.7898042852305203, -1.0217365921569999, -2.0902461656469895, -4.046776719029713, 0.4951784854884481, 0.19574961346810638, -0.7519096192557588, -0.3934895008351815, -0.2832606567318513, -0.08130433979352628 ], [ -0.08946608888986753, 0.5328607657610693, 0.6661783672288084, 0.49671330073688513, 0.1283111283989078, 0.34542265572277214, 1.8786745583040212, -2.3067472166138048, -0.6536895946256088, -0.8767251730990883 ], [ 3.7978645968742835, -1.0236473395637231, 1.6606991088588887, -2.060793523530034, 0.35276156739773185, -0.8019193972775239, 1.2850543941399128, 0.4718815899897145, 1.3085260981110363, 0.5365261453767758 ], [ 1.9120134415599461, -1.8310615805569483, -0.9334477010552322, -1.1610595250981055, -3.0221438447787063, -0.17998639788501392, 1.3560673279442788, 1.8216245909040434, 0.5726500561944576, 0.41477695026919015 ], [ -0.5595764038626126, 0.5713112122326257, -0.1505608067980791, -1.1671579082443253, 0.9539694933161803, 0.3298920201118551, 0.8281369030095093, -0.18641297794557157, -2.573351657956182, -0.5292557177328461 ], [ -0.027489891686965914, -1.6483414223117112, 0.4481184174542105, 0.5525912784289235, -0.2612156373662934, -0.3254094368249703, -0.07523026304035042, 0.22718646370767037, 0.5307681056845371, 0.13222016596481873 ], [ -6.000805986624675, 1.569340196192546, 0.9644230358673087, 1.9818347047641662, 2.1162691685687194, -1.0609897109584514, -1.4480053156005723, 1.0259808406104967, -2.0606383741870062, -0.07165791505630494 ], [ 0.02440529545788535, 0.2544790867441627, 0.5562191932046919, 1.0250753139541773, 0.5566226832450115, -0.46352058878254, -0.2983412704683796, 0.5190427708892819, 1.0526398203624658, 0.537092569832103 ], [ -1.333713127263863, 0.15990258643742197, 0.6178750153932414, 1.415617321700467, -2.3341233679941302, -0.1646778928926682, -0.14664295297565696, 0.908777122649144, 2.286504258300398, 0.49042474298266187 ], [ 0.25278076127008775, -2.3051954464782467, 0.3769385823565307, 0.35436517223331204, 0.32082171502833906, -0.3114439025680016, -0.22779821386533575, 0.27339661894682055, -0.14240602601981886, 0.03918740183572404 ], [ 0.11466333223137745, -1.6263549281432188, -0.9929242769784473, 0.729059212587618, 0.0972130943089257, 2.7515252985623766, -0.6429845148735692, -1.5061762009912985, 1.3529512011320002, -0.5691487486679696 ], [ -0.27060286187178, -0.6324378482585618, -1.9047985103272762, -0.04860767920750289, 0.5428272882174958, 0.5929502755136231, -0.11531635935671435, -1.3620841584510244, -0.6105517924340782, -0.3954560798630248 ], [ 0.12623361037457123, 0.12744399610068652, 0.34195977024348223, -0.2754588193501208, -2.250665564958487, -0.5784856886812412, 0.0594704103154286, 0.37085813411358715, 0.6075175489105586, 0.6329777272987194 ] ]
  }, {
    "Size" : 1,
    "ActivatorType" : "Identity",
    "GradientAdjustmentParameters" : {
      "Type" : "Momentum",
      "LearningRate" : 0.01,
      "Momentum" : 0.9
    },
    "Type" : "StandardLayer",
    "L2Regularization" : 0.0,
    "Bias" : [ 15.102015758868756 ],
    "Weights" : [ [ 1.9957155604734451 ], [ 0.764827928592865 ], [ -1.1335713290730913 ], [ -1.0805789124875669 ], [ 5.057819311508144 ], [ 2.1992760499416 ], [ -1.291096114685099 ], [ -1.4260608850581438 ], [ -3.647255552517826 ], [ -3.1683152025699224 ] ]
  } ]
}