{
  "InputSize" : 7,
  "BatchSize" : 32,
  "Layers" : [ {
    "Size" : 50,
    "ActivatorType" : "Tanh",
    "GradientAdjustmentParameters" : {
      "Type" : "Momentum",
      "LearningRate" : 0.01,
      "Momentum" : 0.9
    },
    "Type" : "StandardLayer",
    "L2Regularization" : 0.001,
    "Bias" : [ -0.6282253380964125, 2.0610190410790783, -0.7759801561910281, 1.6858688943616431, -2.593200944976928, 5.33775318300325, -1.5078372493457066, -3.6550045863930003, 0.21462690795504255, -6.139472133620067, 3.4283172003952243, 0.8758593246421325, 1.0764076756244816, 0.6089256157739156, -2.4293600580048866, 3.0765513667153432, 1.0120927042011976, -1.3948432775065287, 1.739373871427492, -0.258032892204265, 0.5355373536957955, -0.9169680726502063, 5.637048871558024, 2.754724150780425, -2.1963348732783654, -3.200441289372908, -4.6799248698886835, 4.36422501290748, -5.3682549521914975, 2.2110512499083934, -1.3019680988185327, -0.8752829046989772, 0.6544573974617224, -1.0428052780522723, -5.101408276633992, 1.9418130957185469, -2.3009802469259473, -7.642083019130396, 4.079989423938943, 0.582751583194252, 2.3969040036243134, -0.23739358801240812, -5.170979585989951, 4.723647653958293, -0.20089716231945234, -5.4968335554079495, 5.667637366395674, -2.9220206000192177, 5.594562317540112, 3.70948178655894 ],
    "Weights" : [ [ 1.5508712673690779, -1.0043105150603397, -2.4087620839465504, 2.521752358708665, 2.8160537618591004, -1.3945792963417287, 1.3445078057449948, 1.9314952128239606, 1.7915248122506018, 0.727925264844262, -1.0423022744333807, -2.7341435786272292, 0.6692978623828212, 1.5299053776247928, 2.76160989217211, -3.4515217776886598, 2.7636936928050013, 0.366179793046018, -2.3194228220130206, -1.7070093151651138, -0.31178556104615446, 0.3701014703515527, -1.4435030691296198, -2.280651337973433, 2.908310191348524, 1.7171429635592317, -1.929455249602824, -1.0777758801649182, -2.0359765193820003, -0.10762621857449525, -2.9448686038224103, -1.6736918454243908, -2.3276049652444435, 0.22034395403805146, 2.9814956438341205, -1.289776832431477, 0.22417183124490378, 0.7547326396754732, -3.437535583710422, 1.0288314899593967, -0.8109393210061883, -0.786756026772285, -2.1536837422976616, -3.309633990639873, 3.0374468807062, 1.5000814283771022, -1.3722016300395607, -0.4684842253992694, -0.35927909700050836, -1.3100137920074104 ], [ -1.8452281142624192, 0.41778724511918974, -0.27031652770449244, -1.0208345079577146, -0.15756900012797756, 0.37539506762326985, 0.6188412406642031, 0.0969156252528203, 3.134123048810492, 1.047588193419255, -0.42962685339309387, -0.6871063898979602, 1.107569535877826, 0.24040305436346107, -0.50541483307753, -0.8510124870142295, -0.48476730248950123, 0.12249190368564788, -0.37844438440983375, 0.45023744850190717, -3.193024142307818, 2.184237754700294, 1.3015405024027995, -0.629961398971145, -0.8504306159458264, -0.029836213685722066, -0.03958445992160531, -0.4937499766728567, -0.0524050604520367, -0.5889140038610707, -0.5922711637705629, -0.47364330030597546, -0.2671853824223424, 0.18259332755740035, 0.12652204552028087, 0.01923625136714246, -2.0867809131105854, -1.473043488423993, -0.15983553050289098, 0.037043835148616505, 1.526820361877023, 0.01435991509558479, 0.20921955878269424, 0.4006959639340589, 0.3477598901172873, 1.2757200049195008, 0.4641207901138817, -0.18237866440757708, 0.6128425317551544, -0.45901755265275906 ], [ 1.4227275211863317, 2.2679357422691715, -0.7007124741480311, 0.9425449190487843, -1.2324776759613136, 1.7567764859162338, -1.1330320064023653, -0.19212219896770133, -1.1764964063633276, -0.05970915341777502, 1.3981147338640918, 0.690717395745501, 0.41069408195516005, -0.1373847755094133, -1.3852519315357468, 2.0847356994890496, -0.10500234567621232, -1.978993945449363, -0.9450190116939627, 0.365507007982965, -1.1576857311504398, 1.1495133641463011, -2.3556721853213247, 1.130444566451147, -1.2103952544896377, -2.465288936171926, 2.0491078139345253, -0.8601005143373059, 1.5533367956839024, -0.6686664153379083, 0.9001406393001091, 1.6259882264328156, -1.2175701592075991, -3.5601685903233933, -0.5060232203199746, 1.1768267894399929, -0.07653932589822497, -0.00928692417171507, -0.7751151958566516, -1.5224566494100782, 0.03207322155044388, 2.12084535739691, -1.7079448821688719, 0.3514249698392848, 0.018224517272880523, -0.7194970645108005, -1.0684848591645408, 1.2698441619357004, -0.23754992368211586, -0.1620055685926397 ], [ 0.31419096844811834, -2.791591276071074, 0.3197768530501429, 1.2745889813663567, 1.3663142047400105, -3.651850066485308, 3.458504481043466, 2.0550342733845177, 0.42248985932149585, 0.32349858554170724, -1.9390418715113147, -1.3701043150192191, 2.083564231670994, 3.0254300571324455, 1.3642438670175339, -2.8752528196919958, 0.6137133845370292, 1.8963411635853487, -2.031946113425676, -2.831371881670042, 1.3337285257873235, -1.644564286610324, 0.9474904246035277, -0.39354639212285963, 1.5289383884953054, 2.8123696582155384, -3.011217952287251, -0.6088317594755676, 0.4882517636138464, -1.6554736908346424, -1.3591074668459047, -0.1344509009105474, 0.7047854451660126, 1.5409662253910383, 2.367994145109743, -2.5074236680116857, 0.3612718135557009, 0.30016353400570334, -1.1210130260915907, 1.852469584353867, -0.5444237057082697, -1.0609088846323804, -0.34875572015019485, -1.4980511412566109, 0.3213228921289041, 1.2466123103086324, -1.8699006527895428, -0.8998389803666479, -1.559389174695652, -2.6987473504102257 ], [ 1.5684152143189698, 0.02766410276631103, -1.4597304023802515, -0.47820776953676086, -1.3241512362404038, -0.5885409650839921, 1.9289392882420378, 0.9817920380934853, -2.781223498580954, 1.573465686813249, 0.5400505283202539, 0.3442527519999793, 0.441262189408145, -2.4195203376858845, 1.6081600887277896, -1.2901080146147526, 0.850074745901161, 2.085084346203694, -1.9283529754470838, -1.0653019695178283, -3.6773460363168566, 0.8593319267764337, -2.142053478508898, -3.6467888708460405, -0.04099881429774806, -0.7188752661785697, 0.5400859101730784, -2.3625374315824996, -4.442668147616089, -2.4386703452192893, -0.3883555237209471, -3.994184505869225, -2.093297120910453, 1.9180469747513738, -0.10428201350697472, -1.6707025277262142, 1.2063415352147284, 1.7885211050122622, 0.31915177567996117, 0.6106750824276376, -2.3212782346185223, -2.206017286273034, -0.1389391793897836, -2.682807645942158, 1.152421458476129, 3.1234162080781376, -2.4320090435338195, -3.2574396165031296, -1.6210383140327687, -1.0716961738896116 ], [ -1.297595720805237, -0.553596139767082, -3.337602939728856, 1.562227783961646, 0.2079381444298949, -0.0558494987684093, 0.14776772188421175, -0.1890236073106874, 0.3015903433985927, 1.1068304632545873, 0.2073444308284473, 0.3428185580353428, 1.194882962500852, 0.2932090441458262, -0.24750342489819768, -0.8179310562626724, -0.2445724897736778, -0.9262762487263214, 0.6562010957582961, 0.17989878710619547, -0.24590447690023784, -3.3550178703404887, -0.08639679814181266, 0.018896868849584834, 0.4176278427266027, -1.2791935933257557, 0.1871189025996118, -0.878162515614578, -0.03056826888625847, 0.3586468469384894, 0.2748177696059169, -0.732353875967178, 0.5542629971119178, -0.4341343958145901, -0.6745761006554897, 0.8440594882184289, 1.8559603038801127, 0.4007881159594311, 0.6416622561200874, -0.7831559796605942, 1.1630408907249994, 0.16052388280099772, 0.3353329149014203, -2.1642257979489066, 0.5678551850198268, 0.6817823322423218, 0.4660231863735105, 0.1573823932400939, 1.4968544644048873, -0.9147192653886935 ], [ -1.069608676696262, 1.7161582677180445, 1.2504875366921497, -0.6019085453786004, 1.846293238606378, 4.286936013537685, -2.3772083027056694, 0.5115518501782143, 0.8682240855117874, 2.4069069186949745, 3.153702296392105, -0.11817900103999002, 0.7591505423651375, 1.1257142431907614, -0.21517338349700119, -0.46721739728378314, -0.8324683780268712, -3.193262925708867, 2.842404948402588, 0.08231109493953807, -1.9211175202078212, 0.1049057828505151, -3.8567519895004403, 1.0386567106967364, -1.8015349285340656, -1.7929618719163416, -1.9123499500441674, 1.1285335160786576, -0.4027684092400852, -2.005972603914914, 0.193782878372387, -0.4893704826165197, -0.1668865809351845, -1.0409052052045673, -1.4546176306655831, -0.38139167425373677, 0.8840989452174777, 3.092035784029771, 0.8916850385474114, 0.1695207481134138, 2.622412498848567, -0.11902734055054015, 0.7619045698602015, -1.2193906351765402, -0.5868609760698162, 2.7456570442426376, -0.39325498339019355, 0.08775355500872543, -1.5518887770677359, 2.6017074112312346 ] ]
  }, {
    "Size" : 20,
    "ActivatorType" : "Tanh",
    "GradientAdjustmentParameters" : {
      "Type" : "Momentum",
      "LearningRate" : 0.01,
      "Momentum" : 0.9
    },
    "Type" : "StandardLayer",
    "L2Regularization" : 0.001,
    "Bias" : [ 4.4817548178421465, 1.437866126959782, 2.2414586089238813, -3.7842285654146313, -3.383940054912284, -4.29047849811831, 1.221832915643226, 2.504414537931811, 2.0718274120114293, 2.111816890436375, 1.441306802279779, 1.3907824376341897, 2.147357738205331, -2.0312792428083215, 2.114082285259478, 0.690978832328418, -3.762693592336984, 2.08160320203628, 2.4321665046723764, -3.789537441178087 ],
    "Weights" : [ [ -1.4415230721925192, 0.4363368311798281, 0.577491259381463, 1.4551491931586864, 0.8970364886128854, 0.06135406166624267, -0.3826081690051832, -0.029341905105948144, -0.2188055232195919, -0.16028731793195242, 0.5067187148604197, -0.03511580665092328, -0.41957679005191084, -1.7695074591139364, 0.2211226825563117, -1.8489073886674714, 0.5397590417033864, 0.06479300086470341, -0.4494596238163928, -1.0789009106688878 ], [ -0.014506781196644253, 1.3453884857240876, -0.8658991739059381, 0.4770254595686632, 0.42475303419908667, -1.6149885283053576, -0.5588847633966529, 1.1564547494309032, 2.662474979415184, 0.1800067816927782, -0.5819326625389101, -0.44257375870877874, 0.6571111694056504, 0.7084261927360291, 0.3095904566642059, -0.214682738705304, -0.47505499749624436, -1.9959697520071429, 0.8183283989336929, 0.02767994619846348 ], [ -0.5388788681633783, 1.8058428874043202, -0.4699258062562195, 0.9945009551062765, -1.3474020881625581, -2.0247792850658457, -0.9125043537742158, -1.449298976866798, -0.3083600769404961, 1.0990182508521222, -0.7907148847348265, -0.8498387077542682, -0.22657429523636052, -0.4396082903144194, -1.056839610781137, 0.364554741093373, -0.15102440791003, -0.4232341870110948, 0.019141940995663777, 1.3460020042604592 ], [ -0.1253097233639166, -0.5591873779252581, -0.025494653686924766, -0.4839370246672453, 0.5415065700231295, -0.17481320325573466, 0.2523254126080773, -0.021518110585048246, -1.365677446302389, 0.7041697068284856, 1.0914242919924546, -0.39222455379369997, -1.4150844325484486, -0.23764743395591761, 0.13814927993830353, 0.41996191267285565, -0.10173808960546717, 1.2774114066768567, -1.0788319717568553, 0.8949678659147404 ], [ -0.33057647301212084, -0.6619784306690011, -0.059411396775481094, 0.15644181702359042, 0.6792245239198311, -0.1498451254006977, -1.0161035067380348, -0.36969789350710436, -0.3419571131941449, 0.9245670748288665, 1.454881286087608, -0.7392602432621237, 0.1668210950484018, -0.6682244791531751, -0.32253296509415363, -0.34829478287663107, 1.203192518816346, -0.6121761181897627, -0.7363993558639579, -1.3734939454792667 ], [ 0.489507139852735, 0.48121478722273286, 0.21286248911270367, -1.5650170754666064, -2.1160684387983193, -1.6546877131806559, -0.8453160728675981, 1.4789119676704343, -2.5382273878870163, -2.5763240776464675, 0.9893800414920492, -0.6118732073494257, 0.4766642128574882, -1.519458246001763, 1.923011907482976, 1.1404870748920317, -0.23324580636263656, -0.4163192229730092, 0.5819361126599393, 1.1913842208804075 ], [ -0.8368542127625491, -0.36918015255192815, -0.8253316914685082, 2.5963726289370905, 0.8329432803104085, -0.4021301958380995, 0.7673024095864117, 0.16988528168129838, -0.8796798497473081, 0.6825523930779214, -0.8204576198606451, 0.3547150040590203, -0.2895831653303454, 1.0645626921872866, 0.23252343323836333, -0.05173176705169016, 0.731550389414223, -0.9299815471691527, -1.9492038991886231, 0.8170712971089926 ], [ -0.8417072317335083, -0.9518637373588151, -1.058447781444471, 0.13742982517846292, 0.014580776396719819, 1.0162110175297365, 0.5032478887092053, -0.31244046932184627, 0.7824984086643154, 0.5417277486731669, 0.597916051853125, 0.172224933205631, -0.21936181270328492, -0.1435389498638118, 0.46189720700084136, -0.1739682213440452, -0.009297762999040034, 1.1886385026917201, -1.0845846439618096, 3.1087091264548428 ], [ 0.7384022891993505, -0.2839456270741874, -0.4405800360905723, -0.4056601387843808, -0.7149425165973617, 0.3126297399586741, -0.30044544715202487, 0.3159023388854548, -1.0058810145732706, -1.0592551291568535, -0.9742515133074683, 0.595468614129627, -0.4951516630182745, 0.5856622426789159, -0.32138163647542656, -0.1757581310453963, -0.173695712561142, -0.6184336504522555, -0.6346555590464338, -0.44903019951359785 ], [ -0.004333748847903896, -1.2359645750617398, -1.0403298733508304, -0.6462659202861886, 0.06236145138260222, 1.2552055056786304, 0.6653703876961805, -0.3712922831419201, -0.6256358932594722, 1.844725700689794, -1.856563339612232, -1.1681023603663732, -0.08690728518696447, 0.5096943347828771, 0.06928504526937584, -1.0579287659896635, -0.22585607701626118, -1.2906245061141672, -1.1584744371703286, 2.2010407283411806 ], [ 0.2035408610771936, 1.281538692566781, -0.9436609095318624, 0.19012479470740032, -1.3162956518553872, -0.07901414067807914, -0.8585286500307497, 0.4127748901139543, 1.0622583536593708, -1.0408343844322703, -1.0144340986002178, 0.3836612482863089, 0.8283295879143756, 0.8685019755627632, 1.6730377241348309, -0.8706003795298197, -1.37950153893103, -1.1094505262185628, 0.3730148659714478, -2.087306936756903 ], [ 0.6643485211558643, -0.6495316733929396, 0.15519278037713413, 1.4056294732281909, -1.3115040269774216, -0.06643969948364653, -0.6932182260751224, 0.39510711313531355, -2.2939651172724327, -0.7051657159863989, -0.3839469992043605, -0.03256676082166625, -1.1202720797245849, -0.9365981325163474, 0.0401773087954769, -1.05417776991571, -1.812133686286913, 1.1639910214142282, -0.19249241363097114, -0.4395090329346203 ], [ -0.631513641957018, 0.968927200067948, 0.368506000326636, -0.3301909365984893, 2.7688898354393663, 1.0357302666127985, 0.722179555597475, 0.18244582875107263, 0.6853218452166083, 0.3864447811163205, -0.9858231705795756, -0.03174269636578104, -1.1816611445854615, -0.4014238178922961, 0.3426086701666414, -0.37804808103642457, -1.3015114072626761, 0.8772637680705948, 1.3485865286954506, -0.030909769397242836 ], [ -0.9838531202930728, -0.37156576467908947, 0.6033318298177445, 1.2076585183370616, 2.16507264297496, 0.22241380082930498, 0.058485327961435664, -0.5752233144003314, 0.15921296978375743, -1.1694710278740716, -0.8634003222237595, -0.3430171109544743, -0.662914500783897, -1.2150549867355902, 1.1572475357845837, 0.21685009866482474, 1.6799673793034486, 1.2394839551758319, 0.774959016838243, -2.1677320637497894 ], [ -0.6854757676291116, 0.1136699799946851, 0.027088609296163496, -1.4527594614298196, 0.6629170566750912, 2.267679149226855, 0.5185523400811569, -1.7242780305172996, 0.20214554221660402, -0.25504754576784505, -1.0416393339941497, 0.03520326691610827, 0.8156578304960299, 0.08247177399327084, 0.8019492462410565, -1.4226385744618024, 0.9116870665277356, 0.14585141161089427, 0.31570625208935726, 0.6894753903065156 ], [ 0.5797641359215377, 0.37126018578525444, -0.19543899812729068, -0.1671166225994676, -0.3723402204652133, 0.3478602744458517, 0.9546303785136835, -0.6676603066023635, 0.7773307349727027, 0.6337042478764072, -0.012943041710781335, 0.14133650611253917, 1.1041004777131307, 0.1931304925879418, -0.45337958234301423, 1.1435710090076863, 0.010963899474646916, -0.6747451810532678, 1.1113582430890014, -2.053696592285213 ], [ -1.2079469823597548, 1.4035863790773768, 1.3431870869726095, 0.1758570599234715, 1.7466754755632308, 1.9808777105123683, 1.3023286536357488, -0.5914165793868958, 0.5494075859615168, 0.4657388829273396, -4.83443525969436, 0.06522731761582123, -0.711781746475749, -0.006087203934084247, 0.056835102300825446, -0.21819113281921457, 1.2301955200518995, 0.6123895201445468, -0.9613487297364485, 1.3326372810810345 ], [ -0.712980093074934, 0.462730494438646, -0.08983462473045097, 1.5037320057555759, 1.0052930037565644, -0.25902951143866165, -0.4098178572801487, -0.5872747128212843, 0.3843372525760207, -0.35950510108680445, -3.0077742656714856, -0.5107233789500737, 0.3921444808255705, 0.14937457823498435, 0.16965130979171741, -0.5611003688879762, 0.4051183949942902, 1.6887616464779323, -1.130062450798925, 0.3379905267516887 ], [ -0.5660584002284073, 2.555426094072791, -0.3388699930464437, 1.5561038371062483, -1.1035313604732706, -1.6824310657307913, 0.9125926481881872, 0.8190158866987993, -0.10481267481543974, 0.22747775244373886, 0.8124877757337381, -0.07784448275158445, -0.9701344403505731, 1.2486683783451065, -0.018339490316301586, 1.0379388450251303, 0.9890142277743924, -1.7500790473167027, 1.7436458140031306, 1.1010811959029527 ], [ 1.4547271727871716, -1.21819256940796, -0.38726723759998755, 1.2631730012277649, -2.2454546979750902, -0.672767315969764, -0.6856445255723755, 0.7827161952619719, 0.273385337085491, -0.746795898392505, 1.9854429065366526, -0.007166551458576357, -0.28003279207971915, -1.4949754405465183, -0.7813042530867638, 0.02595832213720717, 0.7495755618269225, -2.082570573419111, -0.29102858163023176, 0.49608538713193184 ], [ 0.19879706787261536, -0.013707747193851693, 0.6965667403779129, 0.3442503755378702, 0.5468759059684347, -0.8195772800532349, 0.4709143146563773, -0.09030888737011783, 2.307186259893575, 0.566653430742908, -0.6355024749699885, 0.18786421242974521, -0.9726933489865299, 0.6496878865610838, 0.009109202800001128, -1.56041442669635, -1.2644353939267419, -1.3598339973274147, -1.2437534794985388, -0.3324358634936226 ], [ 0.3436852602373906, -0.9790836381080799, 0.7083566814571584, 0.7793813141138721, 1.300884345895591, 0.2679378491854548, -0.5392987073217566, -1.424734006451273, -0.6630329953587621, -1.6410105650941982, 0.4513913170059862, 0.7625297875567532, -0.20102192750834916, -0.35843030295801365, -0.640732722644195, -0.14109470296977866, -0.6425355342552811, 1.3484614095010208, 0.35674581420904156, -1.243432705869986 ], [ 0.19211984270709723, 0.9822562569726613, -0.4247327547764941, -1.0241807512538785, -0.33206830755597794, 0.24958344254895481, -0.525313118936041, 1.7527264440114891, -1.308271360077109, -0.7638241945783409, -0.32659287068323484, -0.22727716865928627, -0.7767311179458019, -0.13545129275352824, 2.146152398805924, -0.9814192309328794, -0.19589190329677547, -0.6443416147058191, -0.5986064398261333, -1.3271492655550619 ], [ -0.14422589223696436, -1.0326855885074167, 0.32528794128587607, -0.7610761490502878, -1.8715883798047739, 0.7918626438547673, -0.27187647867801773, -0.21740854112068053, -1.7426024155138482, -0.26495847643925213, 0.23624531357927467, 0.42594509155333765, 1.3400408437588127, 0.2841526525705462, 1.3008428785623516, -0.13753809957370278, -1.2624189308622227, -1.5324956850796183, -1.278108562539499, -0.03116332113954087 ], [ -1.604748672454603, -0.20920927894518954, -0.23820810712959306, -0.32619458624919573, 0.3054887768637218, 0.8783884024583558, 0.14794403656911637, 0.06652661436303477, 1.23260534879327, -0.43904027453126093, 0.8378240320677921, -0.6038194719964446, 0.7998354087578478, -0.8504581948973311, -0.7221287404985127, -1.7738979126220604, -0.474406966490838, -1.2829581533746082, 0.562870812989766, 2.1329905574244017 ], [ -0.5570880533331286, 0.9383425391599788, -1.4382261172500916, -0.43402533511722835, 0.18700478580562196, 1.3952033912622748, 0.9501383270787608, 0.08739084563010892, -1.0940671922355056, 0.9479017151492519, 1.1897595291395098, -0.7121014780846756, -0.012943438258491724, 0.3092311944403828, -1.261833455968131, 0.4149677204011341, 2.201616705775123, 0.5051926181282957, 0.23856786453803264, -0.7401633992019039 ], [ -0.06965947052322027, 0.7156698607446266, -0.19980379832598863, -1.12156020448481, -2.5277436949671763, -2.355820346582066, -0.6824317648198484, 0.8789764340218041, 0.4344939349940708, -2.0685327138543803, -0.9906530801804002, -0.06535171922170789, 0.06641280484176135, 0.18348340153726536, 0.28951847263196145, 0.2805080264129953, 0.6611921019742911, -2.5422458801373504, -0.14069932648064998, -1.2559695009956842 ], [ 1.890701233998678, -0.1654927683742759, -0.20440236946622994, -0.09788898875439894, 0.9373758332830848, -0.5169400431441386, 0.9351641477518098, 0.065734931943302, 0.6876211701500592, 0.6195256944450133, 1.268592527244354, 1.6913363545986564, 1.6225382453563129, -0.8880504646329161, -0.6656910289112742, 0.4929063302105486, -0.2659220226178617, -0.24962800293981927, 0.49495912543761234, 0.3898277053852505 ], [ 1.7390672767979438, 1.2899896355838383, 0.3318740907958284, -0.052919070795121696, -2.303067045552169, -0.919631293062733, -1.0906867608376294, -0.30381525874291315, -0.23226062415130302, -0.43973288146900746, 2.0745691305921667, -0.14086491029473228, -0.9990707945211083, -0.6612048559861259, -0.3462002090578302, -1.5974429747119145, 0.675197400268987, -2.222183455649013, -0.34059941380087777, -1.5267431265543192 ], [ -0.3288679570181206, -0.4366548601627848, -1.887351770552807, -1.2313527789813603, 0.1502361066750193, -0.6810330384076464, -1.3895970739597303, -0.19856389360384627, 3.2375464729701666, -1.1659357202167857, -0.5800992353753995, -0.12473795552127333, -0.5996121175956542, -1.10205307849547, -0.042976113450426935, 0.3076417745666099, -0.2546776958750145, 0.24418816158130224, 1.62879597791966, -1.1523418693348688 ], [ -0.2066787478278226, -0.9069406959308965, -0.3769327823244468, 1.4716022937331505, -0.827933121380321, -1.643167812423514, -1.3607089440866798, -0.355319665038612, 1.574712410797111, -0.7447744816447808, 2.0466592363513745, -0.09595425416374541, 0.29499089612920676, -0.742283769188467, -0.05477745989721696, -0.004526410587858921, 0.03897893384684766, 0.18960955715200858, -1.1030329856739018, -1.1985079941844508 ], [ 0.7641944436198496, -1.8025830170098405, -0.05709193701760149, 1.6475428351601127, -0.25715513461651773, -1.451288676168525, -0.8480596305150135, 0.7875933674054701, 0.3271082209239835, -2.5443801157556707, -0.5013842826415279, -0.027989551387170006, 0.21879367937979124, -0.5593317593918026, -0.05571747788609118, 0.21834404042495495, -1.905534210503467, 0.2514375596027074, 0.04444276067382686, -0.8793025977101713 ], [ 0.4495283951728764, 1.0644359698303163, -0.07002199665996457, 0.9084932517030678, -0.7509877768776847, -0.3794810981250851, 0.2613351351998351, 0.429795442623575, -1.8836116880491658, 1.2756110210911678, 1.2124990922061205, 0.28929061733116335, 1.2200290003995176, -0.17833199741132183, 0.46212606993673594, 1.1130961231625967, -1.6045493532995698, 0.4037522811127236, -1.707225712977429, 0.5424747024909551 ], [ -0.05770811459280489, -1.145717662290396, 0.6450504162885321, 1.395859366998644, 0.8457361753917195, 1.8816377434806943, -0.5157536067618066, -1.0851023615925763, 0.8856540763141018, -0.6521013615696758, -2.139703991665628, -0.07120795990708283, -1.3684277588449243, 0.6752066089651829, 0.19561570132721862, -0.7159311309438753, 0.622403919235969, 0.6595503929512523, -0.126818693936734, -0.1936857860289432 ], [ 0.8957648388760651, 0.9603577651971643, -1.5403353792753351, -2.591329569902389, -0.09094024727768191, -0.16081631955963913, 0.0037196861449942217, -0.5876789336960745, 1.173998488709312, 1.1935854617580124, 0.8756296139378063, -0.4738662888387974, -1.2738820483823974, -0.2298557409095928, -1.8372029729016712, -1.3875770492645714, 0.09922301467766789, -2.044438860449752, 0.029030202693940632, -1.1796735427502123 ], [ 1.0414300219598334, -0.7991981810320836, 0.946508901210252, 0.24890021826261924, -0.5335059469688813, -1.2090516382065288, -0.22126843220370782, -0.3707487409910527, 0.8296233345966583, -0.3560747862310162, -1.746337434183785, -0.28901070584349786, 0.44427976720921014, 0.24528154055438486, -0.621965561356933, 1.6922615632235627, -1.5143440880074248, 2.3445003920200724, 0.7242294590669413, -0.38817298916213006 ], [ 1.4247107988657306, -0.25798465792366715, -0.5956772149131981, 1.7600495129110252, 0.9596537894961829, 0.16345041107689787, -0.5356592423722869, 0.701180850828816, -1.0864041727183564, -0.6854908407795794, -1.043160550207368, 1.3356175056658137, -1.3523942306371737, -0.254649606665557, -0.3861055014257699, 0.4902890710714585, 0.2850293500382298, 1.1057256469939611, -0.7717369772789753, 0.26597958736928445 ], [ -0.44764670114344207, 0.31587666755433846, -0.22189339523927537, 0.6225343141337404, 2.649887361667883, 0.5861195621158816, 0.9548526944629143, -1.4542987382111925, -0.5687109093028514, -1.0240769215239371, -0.3728917917432649, -1.505875731850802, -0.5793646751917416, 1.0033111762406492, -0.23960568020697984, -1.353734055051246, 0.3758489511022858, 0.5791441138975231, -0.6744061571882144, 1.454677850883854 ], [ 0.020799096066312268, -0.5765362147424288, -0.09636368598873542, -0.6491110736580987, 1.9125026573121526, 0.11530988032404874, -0.02452925515409478, -0.4281761048260124, 0.8112059561772803, 0.21941509802203366, -0.1976031641372723, 1.0193168953077827, 0.7365251370257739, -2.1194430241856885, 0.8833586108966482, 0.22214255287387616, 0.6269697169598261, -0.42460998546852496, 2.1239851818503377, -0.2957813908070564 ], [ -1.4971320174601352, -0.9203673375614884, -0.027276194869349197, -1.79166197282795, 1.1982807563923454, 1.2357642214449474, 1.848656872125698, 0.7803913795168429, -0.13773877163671278, 2.509590095878555, -0.9230206187655211, -0.23880092398317912, 0.29403493588974966, 0.8974103411532242, 0.24871591573503296, 0.14770589202410833, 0.22091177966705117, 0.24781055882085778, 0.11423847502502613, 1.2212113374510898 ], [ 0.24945799328610224, 0.3695041206435466, 0.9347130944850166, 0.25811257567181334, -1.2434036352671995, 0.9575834754875581, -0.19842184571068514, -1.1044791042630195, 0.626828745066859, 1.1654393079805796, 1.3371766097289943, -0.451728017008478, -0.8802297026904952, -0.4690270699161864, -0.2897243388744061, 1.049736575652493, -0.9539517069106955, -1.9373283148715499, 0.8214381845915205, 0.16369551205730565 ], [ 0.6650063628744179, 0.6633456902467186, 0.7105533532488482, -1.6124827010006106, -1.6874208000781563, -1.7841221465380477, -1.6679653537612655, 1.1210782441588252, -0.8144665882131246, -0.027361655033315564, 2.807456554328598, 0.09663722452462646, -0.4112176218393323, 0.9541509247593998, -0.09257285551027228, -2.6205833840316903, -1.7119861742088496, -0.8173423083913038, 0.8204630115411939, -1.2837620764226774 ], [ 1.6753396770002484, 0.8809963085502998, -0.21715558289526504, -0.6269482887042755, -1.5957666855189354, 0.42770612339436354, -1.1591562107028102, -0.397999735769745, 0.7003505511678377, -1.8935496833840737, 0.4511676478920454, -0.07841950105233121, -0.7381154451052776, 1.6153097203542244, -0.0548131268243174, -0.08118444134027919, 0.2031404121367646, -1.6179247613585201, 0.5090601643693446, -1.4811857934275126 ], [ 1.3552133132819333, 0.5693237807271652, 1.5761208703383713, 0.8940743673026798, 0.42945969210445906, 0.64058967793377, -0.45179775406801503, 0.5791983590440601, 1.4809224285004963, -0.7211300500493024, -0.6684548174452367, 0.6560535397734742, -0.0749513157813772, -0.5419834797425657, 0.19699930052495246, 0.3866323458098056, -1.3010327881769554, 0.9258558296681645, -0.7038139907886801, 0.7930248415491457 ], [ 0.25304791708539237, 0.131373776812658, -1.5264302276346045, 0.2676376230239851, -0.25084592087712887, 0.8400166065070429, 0.31470363695521075, -0.8547479656448764, -2.181390481651388, 1.397499599297087, -1.8501627661834636, 0.36587938802567294, 1.4604071183046037, -0.7610883078234995, 0.04023639646155733, -0.9063697935739438, 0.29788400609025417, -1.082262611198657, -0.9159144810202977, -0.8561325783713668 ], [ -0.6064549349614399, -1.816520806261801, -0.2747358187022481, 1.1022283758129954, 1.130742235537309, 0.6311643821039803, -0.7792872532203838, -0.49288342922528305, 1.9151538778284514, 1.183526393100855, 0.2878226288890986, 0.07093489063103006, 0.2708702765490832, -0.6713538686757071, -1.3127502576276713, -2.9590891593925153, -0.8015589107414417, 0.3328734583403796, -1.196710654376126, 0.22927784209235436 ], [ 0.7255203892667765, 0.3434626481137577, 1.770968890671564, 0.6690362228337114, -0.4672833171772394, -1.5204370744569071, 0.8260361052449603, 0.7207490740849768, 0.7140133723356576, -0.48919074677461805, 0.9545568764287149, -0.690777797444309, 1.4213028355701665, -0.09500491875094033, 0.21490929093541178, 1.2788735405703517, -0.2236019562842248, 0.06009644125068371, 0.10584673120782775, 0.8505791551384169 ], [ 0.09846052405488198, -0.8791628036733186, 0.3870679546609975, 0.7647711674304293, -1.7275194138991787, -0.3810806885119825, -1.7117788491258485, -0.47509724894486954, -1.1946312904413072, -1.9579703747950883, 0.4956172862467155, -0.09810980582067134, 0.08137417522430451, 0.6176038233321645, -0.12904222572618662, 0.5099751008122192, 0.5547608237149884, -1.4499932452081024, 0.742141037028976, -1.3217297868181725 ], [ -1.3247329673409736, 0.9601069633583802, 1.5166912986862386, -1.347329115549859, -0.46303152684757964, -1.3948479599582233, 0.1507098375768037, 0.09612657581115289, 3.1225240764004125, -0.6017650679333589, -0.9476874320717075, 0.9159581057611151, 0.5995901636350115, -0.30861263001569506, -0.03194824576064183, -0.22031229579362152, -0.9592348006757287, -1.2030060919890895, 1.0534842050817104, -1.8340346865612491 ], [ -0.09090892908258227, -0.18469005200460958, 0.3794171304600551, -0.9259807363352155, -0.1108130002673559, -0.8014783075041809, 0.21035590487390118, 1.4938587003078407, -2.192988404758935, -3.001983683030749, 1.0888943019966684, 0.052293404895170086, 0.745970324582138, -0.4326175266292558, 1.5855437626752735, 0.7845280204008287, -0.503996226542647, 0.4166689743771525, 0.933036225870597, -0.993303396168964 ] ]
  }, {
    "Size" : 10,
    "ActivatorType" : "Tanh",
    "GradientAdjustmentParameters" : {
      "Type" : "Momentum",
      "LearningRate" : 0.01,
      "Momentum" : 0.9
    },
    "Type" : "StandardLayer",
    "L2Regularization" : 0.001,
    "Bias" : [ 6.024223271218867, 0.769818160515549, -0.9987189736796597, -4.099968314274075, -1.3012829150213763, -0.5930115710923729, 0.37434584112016883, 0.391405856247075, -4.429203672491496, -0.18378840733054821 ],
    "Weights" : [ [ 0.35594782335895186, -1.228307266898816, 0.5398944743685646, -0.1018705840025073, -0.8428603781306024, 0.12264595959429633, -0.7460605848715872, 0.5872670630335559, -0.18076715200017185, -0.7004510293137397 ], [ -0.4630215549461031, -1.0774045719265444, 1.04379433674909, 0.039461276062995626, -0.4586609369085976, -0.27697389930005867, -0.5399332876529275, 0.23827927583723987, -1.1658245866444379, -0.5381229961871574 ], [ 0.7636576793428549, 0.13349815921846436, -0.27926684745250496, -0.15321849299961407, -0.2908826162928382, -0.44912585050917564, -0.7247162230176392, 0.938952537211228, -0.6449731600662241, -1.2296367798151693 ], [ 1.2114630666259607, -0.14338188371834085, 0.5522749725971918, 0.019252347748685797, -0.2418975805328877, -0.2730909811856527, -2.2534017448803585, 0.4917033135174835, -0.8090977139873359, 0.5462918967384439 ], [ -0.566254926952335, 0.9706160698558995, -1.6413181993730954, 0.09373782720041095, 0.13925707894633826, -0.10786416902619311, 0.14403675841568975, 0.5265132069702653, -1.4196379798250534, 0.12830945337292315 ], [ -0.16065169697733991, 0.07818177276955916, -0.8320468135530079, 0.10973306106452906, 1.571112347921826, -1.3125750055994487, -0.06581952987170965, 0.7347880240035614, -0.16631905962902177, 0.05903462511119106 ], [ 1.2297421086265392, 3.1577980064837066, -0.22031717516136676, -2.3112883129000785, -0.11653329832839937, 0.34998898336569245, 0.9032274173436252, -0.3169099409370055, 0.9668903171211283, 0.6243554920166494 ], [ -0.7752211554554088, 0.08369571194837132, -0.29163168642912024, -0.09299525466331116, -1.2105398333555286, -0.25753992929893404, -1.8056846319080067, 0.423131444550948, 0.14870728280999004, -0.7474064676917619 ], [ -2.014782146082581, -0.6577266195816031, 0.2667909450036759, 0.5617238911156544, 0.31670959422085626, 0.3287543510206796, 2.7941895511678894, -0.06698447120133921, 0.7821197054552773, -0.5195866556428935 ], [ 0.14613148322438485, 0.6822265817653331, -0.5936377233733441, -0.004775010759470184, 1.938353527974313, 0.08315158090580406, 2.8301540771537477, -0.6952719937451092, 0.29142871719646357, -0.35048022983291827 ], [ -0.3765579576040824, -0.34769111442679246, 0.39429858383258193, -0.3593287753550068, -0.5180271301394418, -0.29434244068438736, -0.3950155439867392, 0.25193031766313073, 0.6963340684882501, -0.4422338997765681 ], [ 0.25379656152116625, -0.028093849993650884, 0.5051058689187569, -0.16443140553502084, -0.10229143061179571, -0.5560657329943526, -0.39870632765428654, 0.6490010306600531, -0.5479466494401096, -0.453508215169205 ], [ -0.5985949825303277, -0.022219935021943818, 0.430892805983738, 0.35460847823219477, -0.2330122378087637, -0.32542301759492526, -1.9126247473889222, 0.6988961602721545, 1.2038206569699876, -0.45059548248814324 ], [ 0.6488000454150047, -1.2136095912057603, 0.8700548364364242, 0.21163126550156788, -0.7028674902309361, -0.6501945054190643, -1.5739319748522769, 0.6209116114212787, -0.8476001195596823, 0.5148734447818697 ], [ 0.11423266590012926, -0.2665559212169717, -0.2901973880296675, -0.1555515374231018, -0.48865324686210787, -0.9161684474888262, -0.2623595706607243, 0.329727220811729, 0.2645361471827493, -0.8162591556204187 ], [ 0.2241336042010534, -0.20523759587142723, 0.3102743617619661, -0.15336191527642845, -0.9359432118712372, -0.5755737287542777, 3.081605253335463, 0.5544151332068077, -1.2481071974806646, 0.6384529600875046 ], [ 0.17667014787653226, 0.05100735490741624, -1.0299810051189677, 0.0964560177408281, 0.6714231091879803, 0.14697168733997437, -1.4012745862929188, -0.5004120132333962, -1.667337037123214, -1.309231344166454 ], [ -2.0038105337168304, 1.1339597745928907, 0.3189799955660532, 0.3021397897116777, 0.03618039173108813, -0.5587262566979815, 2.369524672644428, -0.9993234100146562, -0.6571263841914814, -0.48177534558303586 ], [ -0.18414691973312428, 0.2736719023469909, 0.5369751766681132, -0.11028811949244242, -0.4866343261947879, -0.5607666631771331, -0.33062726882865623, 0.39387938509107456, -1.3730464606503965, -0.04924056239037493 ], [ -0.28817981187243363, 2.5375938704890664, -0.49646426569082663, 0.07129229000706777, 0.6189327492593707, 0.988952710515162, -0.48862469457978824, -0.4871608071055606, 0.2577254732427524, -1.1559307558735494 ] ]
  }, {
    "Size" : 1,
    "ActivatorType" : "Identity",
    "GradientAdjustmentParameters" : {
      "Type" : "Momentum",
      "LearningRate" : 0.01,
      "Momentum" : 0.9
    },
    "Type" : "StandardLayer",
    "L2Regularization" : 0.0,
    "Bias" : [ 11.09803623550351 ],
    "Weights" : [ [ 0.7075314697840241 ], [ 1.4718377309598714 ], [ -1.9200608081960455 ], [ -6.3099560655817655 ], [ 2.4057849442144286 ], [ 4.42426765602808 ], [ 0.8568678515260547 ], [ -3.0278470537967546 ], [ -1.4382885028574783 ], [ 4.686225767011789 ] ]
  } ]
}