{
  "InputSize" : 7,
  "BatchSize" : 32,
  "Layers" : [ {
    "Size" : 50,
    "ActivatorType" : "Tanh",
    "GradientAdjustmentParameters" : {
      "Type" : "Momentum",
      "LearningRate" : 0.01,
      "Momentum" : 0.9
    },
    "Type" : "StandardLayer",
    "L2Regularization" : 0.001,
    "Bias" : [ 0.0022655069605198087, -0.009602852091002104, 0.009866107808662195, 0.010424239550722624, -0.0015575791600177425, -0.014620157468254123, -0.00605002480048535, 0.008876334234789262, 0.005932160853187295, -0.010310290439555005, 0.022779987130909004, 0.005680019612693387, -0.0029354988132730764, 0.016218442121375975, 0.002945221819746399, 0.01687491796890103, 0.015010505003971653, 0.005775350715050041, 0.007644374484064962, 0.013844239360645546, 0.006514644729553986, -0.015027945255914613, -0.027324239177368505, -0.009766650195037195, 0.004757057232439334, -0.016463741793928822, -0.017493274693445207, -0.017055444689836816, 0.002418282763409971, -0.01644167176435819, 0.016339732867754014, -0.010858382112679862, 0.019198131935886632, 2.2142299527032504E-4, -0.04267612971186184, -0.0027627987276562173, 0.013920924333308488, 0.009707034209804146, 0.004380250319391402, 3.13304292426793E-4, -0.004330826471427548, 0.019917208668828124, 0.016145662628173334, 0.017257855632614144, -0.027202339404785773, -0.02056530075383165, 0.015297960330233602, 0.017598710267144168, -0.02513171781740459, -0.013258901321975556 ],
    "Weights" : [ [ 0.036173031965430216, 0.07642396443799666, -0.1192846503304075, -0.004419830935800828, 0.04572723221640113, -9.107216573223798E-4, -0.05010532643548064, 0.017355651821834954, -0.14758838434355973, 0.17711359730618767, -7.168723771716062E-4, -0.16177653780708426, 0.25674346561553685, 0.041533611792755463, -0.06150983054110551, -0.04329342609962138, -0.04331022721702309, 0.025970029674206155, -0.08764578094602299, 0.03426680549135315, -0.05511411641322106, 0.0655897921158878, -0.06438426560255883, -0.026745820214521526, 0.15839837919490143, 0.20278736771137898, 0.011153010440071007, -0.1988128248242921, 0.049496113828779706, 0.0032783978651148597, 0.00786174368406949, 0.12458213390086081, -0.050930067780493214, -0.012989785236290893, 0.01383944457721638, 0.03356035852505087, 0.039870167675385204, 0.01742030693558413, -0.07218122077945797, -0.027043678902374028, -0.002359371071877638, -0.02769760140622595, -0.10599089388671815, -0.24655287413619834, 0.045925539259471404, 0.4037161903211476, 0.03577134107638792, -0.38146248287670176, 0.4511162995750927, 0.017052325172807137 ], [ -0.008420348505818426, -0.03968537305622566, 0.01500704066506983, 0.019462427876475747, -0.022422218657864725, -0.0617305924935342, -0.012087761893213906, -0.04056682367290776, -0.0010192550485115023, -0.01150508644263897, 0.08612431082884295, 4.111115471924313E-4, -0.03707352534306962, -0.004494580015628878, 0.00203117707939916, -0.0027874979478490353, 0.03439979538596998, -0.01844808298766319, 0.01668406226398608, 0.001789705411309313, -0.003128304678311294, -0.002951663268995873, -5.666029739329007E-4, 0.015935635114789144, -0.017769123625620192, -0.017002137585305326, 0.022320383819349074, 0.04259479825058228, -0.00813065670350184, -0.05899618417052764, 0.018170757548561785, -0.011677047212591109, 0.04718955803536489, -0.013232339530861698, -0.055842985587799356, -0.03497330492857356, 5.012091288032699E-4, -0.05097724833279755, 0.004801852134255063, -0.016511134880359976, 0.029033742509451513, 0.02711966827306091, 0.018209134040263333, 0.03440351368112029, -0.05447489134484039, -0.04956797907941618, -0.0015959735039249943, 0.015933253705283985, -0.03324114857152708, -0.02420105839689943 ], [ 0.048522269695761885, -0.29172969391805076, -0.056331660184482726, 0.08242864199823258, -0.12324822443036985, -0.18676955540629095, -0.11090077385215019, -0.25917432891153475, -0.10016380873013121, 0.07293417573455274, 0.34873508777630785, -0.06516730309508321, 0.06267505773399916, 0.06422731549544257, -0.028672729365596405, -0.028436104988452487, 0.1131160576813796, -0.14649628914989327, -0.035328765874066304, 0.04377173503546849, -0.04316609729563884, 0.03372039739093067, -0.09088999767450895, -0.10083393726516493, 0.011282303236417348, 0.12904964669630184, 0.06102361125801271, 0.008564243350409622, 0.03473494280302904, -0.3323940806968609, 0.1071417371693775, 0.06728540652951114, 0.2188024173381169, -0.05496715988228004, -0.283203613423762, -0.15683088523591798, 0.07840987558982, -0.26396859837992537, -0.04393160911598758, -0.12792481712976578, 0.06422497275747498, 0.11823363450790811, -0.02103904658860046, -0.05597327526983402, -0.15922940202909175, 0.03421636974293381, 0.04673338925295795, -0.12534924037342646, 0.27369080943830204, -0.08132795907171185 ], [ -0.009886020525986434, -0.006693016995361683, 0.0036258627608816442, -0.003686440237855473, -0.006275205679401154, 0.0017285030974808682, -0.0025002874198816723, 0.0024451443653459542, -0.005371035350426155, -0.002772599585611711, 0.0015939213276509167, -3.1789953833436224E-4, -1.0241274305406184E-5, -0.0077068570447293054, 0.008756576113342613, -0.007109823334016276, -0.003493421299639038, -0.01082294667397003, -0.009422861601475166, 0.007499589242023981, -0.008128354497828618, -0.008254236038813978, 0.004335697063971908, 0.010004987986872493, -5.139415512694275E-4, -0.005250271096785951, -0.006916489193387354, -0.008070657067132617, 0.005949248103762306, 0.008457593422524296, -0.006488595241929128, -0.006312737258568675, -0.003818950753703502, 0.0010628145061642431, 0.00788487635305405, 0.0021738559223660357, 0.008411380490500822, -0.006799477751665743, 0.006160733005793109, -0.0019992943224375393, 0.008326441291238985, -0.003697516215740132, 0.009184949408614295, 0.001912908342009999, -0.01072284364581258, 0.005734691288095319, 0.009498970271066077, -0.003745885137340588, 0.0012640574801045228, 0.003611888001300862 ], [ 0.002043161926947618, 0.001877614444524591, 8.595940179079263E-4, -0.00654386412399314, -0.007637234486818129, -0.010153805594897774, -0.0017214271447531827, -0.011838897113661234, 0.005394339260244285, -0.0011448199794485813, -0.006133169664472225, -0.008327045271688618, 0.014927214678558811, 0.009756173834934526, 0.0034425421311239587, 0.002523494662619119, -0.005383735907761244, -4.753737630890866E-4, 0.0018224684782642232, 0.009243324301247463, 0.0045062162912238605, 0.01069648569604589, -0.007425148370073542, 0.00323504951415258, -0.009543375484044807, -0.004067505330582152, 0.006932008332659215, -4.4301434983643894E-4, 0.0039975409056188915, 0.011334451281232944, 0.009992251160587698, -0.0016269253569770803, 0.004134233998372632, 0.0011873493815234557, -8.580097864579381E-4, -0.0021441857805490207, 0.0017813541362878531, 0.001916486545465841, -0.0046468244774358625, -0.006140805679847339, -0.006858291289084991, -0.002132870166614699, -0.0035213392387962762, -0.002820340736783675, -0.0021530874391705672, -0.005839223646828784, -0.004886108870799504, -0.006372353419874852, 0.002685733289049305, 0.002539062000950461 ], [ -0.0027927491627999777, -1.7443443937003033E-4, -0.008203489959482136, -0.005211039444811713, 0.0018534683518151305, -0.0023522924400484467, -0.0087331857586843, -0.007913925387582895, -0.004235236315827901, -0.0013446875451036473, 0.010235608886354658, -0.009095918381842101, -0.010349996943757198, 0.0031783057210365293, 0.004513324322278431, 0.007669511854561331, -0.004998549796159233, 0.004153567712187655, 0.0026139201981467282, -0.007982578228887852, 0.004751953220893223, -0.00809855623842008, 0.004352462534296545, -0.0077215123063797, 0.006338743704493997, -0.003971755746077221, 0.00766731232954133, 0.006444101183107604, 0.0021287046900388107, 0.008839244900342538, 0.010266958711905548, -0.009107396680720315, 0.0031009229687955354, 0.007217939340503518, 0.008669403685494492, -0.009392204867165644, 0.007865984396782783, 0.002712623095391681, -0.009860203878051602, -0.0034744414637440024, -0.0018262685172346761, 0.010322808043370137, 0.006441576291409424, 0.009862692975469512, -0.010031925986476736, -0.008555551898895281, -0.00800118931071126, 0.006952683644109935, -0.001080724910859517, 0.00787283498957053 ], [ -0.003257148786265697, -0.0018696338812148497, 0.008158381406579769, -0.001652451607476465, 6.362713104105906E-4, -0.009079193676461745, -0.0022301739782232457, 0.002133504750406734, -0.005736759742085513, 0.006966135867715887, 0.00905422821761489, -0.006454410583561786, -0.0057072955678619, -0.004654338153633891, -0.009311367575780183, 0.009903537158137283, -0.006387059799962442, -0.009414960767788572, 0.0010765616027527283, -0.003325380701159275, 0.008040156069048386, 0.007878709470512692, 0.001748106915579536, 0.008583896689484782, 0.0034788178394210578, -0.007571344861485006, 0.0038740423099245308, 0.010744947550628124, -4.890037724081859E-4, -0.006606915936770526, 0.003783707492267692, -0.006056024857830987, 0.011183528192474475, -0.008386723968514424, -0.0023799989121982166, 0.008055259604299286, -0.0021018139643368097, 3.1436004264121596E-5, -0.0014577757814714883, 0.008643036567881584, 0.0025607781287833712, 0.007821077213666067, 0.007952480450036731, 0.005101216588597642, 0.003775375289813708, 0.004124070894772435, 0.00383721742339912, 3.2610962054741326E-5, 0.007104773889894273, 0.006322753043341938 ] ]
  }, {
    "Size" : 20,
    "ActivatorType" : "Tanh",
    "GradientAdjustmentParameters" : {
      "Type" : "Momentum",
      "LearningRate" : 0.01,
      "Momentum" : 0.9
    },
    "Type" : "StandardLayer",
    "L2Regularization" : 0.001,
    "Bias" : [ -0.06870323861225099, -0.06349092511791231, 0.025880967605694027, 0.04487113132040051, -0.24952064983102626, -0.1151878650310608, -0.022476552055980176, 0.19924792724318602, -0.10998411402861298, -0.17415782843577401, 0.10113154278968063, -0.030111699072359006, -0.052442818543757236, -0.058278396259222806, -0.04733839458861522, -0.10776974261653474, 0.027516548166133956, 0.003919795937121794, -0.1310639059038049, -0.06226401746707186 ],
    "Weights" : [ [ -0.004049051491192717, 0.006459792023909891, 0.02154454895485594, -0.002077637064080177, -0.03622585363047516, 0.013083571552469768, -0.003907986894633815, -0.023209224522352002, 0.008487794617350686, -0.0010926030957482823, -0.017874480589821322, 0.0024991668482227986, 0.015525925112701813, 0.01950467763690219, 0.005693178383446009, 0.02087988183359627, -0.005857005348059679, 0.006845422972978824, -0.012748473494910253, -0.004614605467712586 ], [ 0.10983498568840086, -0.07981237886774575, 0.0986125038627907, -0.03824689230926792, 0.0037903175419540616, 0.07359992033112991, -0.052100178604615195, 0.01735800594895385, -0.07643351876927953, -0.020660991547175316, -0.01676196857212039, 0.09862465384985457, -0.07782803387105848, -0.019585916396278664, -0.0782596891699697, 0.14940974824873185, -0.05121569855737299, -0.025495897628396234, 0.0018126094506834992, -0.0031878915122768143 ], [ 0.012170364535418888, 9.302289420092329E-4, -0.001819576178709556, 0.03110596855578936, 0.05284131574938536, 0.002326159509259968, 0.01034066231806609, 0.01912750700557266, 0.014894310924471174, 0.02002256036962132, 0.021745103873291382, 0.0236329849266552, 0.04085283438547942, 0.02794365339812641, -0.013130542128051979, 0.0011513519988481994, 5.760434423855241E-4, 0.012013581042176922, 0.015342718941386248, -0.025438960880573985 ], [ -0.028108945670748633, 0.01809370719745341, -0.0018384399457199371, -0.006416273539408989, -0.02156244266873679, 0.04026825557355111, -0.00659489750880701, 0.019108403072402344, -0.029806525071541835, 0.024489356332730295, -0.008944183757134056, -0.013243797466212931, -0.006922447844690166, -0.01092392540839081, 0.028999301928479163, 0.01713038024568713, -0.008308413131575683, 0.0044524495703517, -5.826914198821889E-4, 0.001547135515817311 ], [ 0.02454048428600401, -0.003499406542995675, -0.020255992903659002, 0.03287054358097943, 0.1022278249720781, -0.0029636859781068613, 0.01028601262040447, -0.01666783387929363, -0.02703705498939784, -0.02348682295354896, -0.0014696412205050695, 0.0015995700796419701, 0.030157150003385747, 0.02781473238597791, 0.0055200675111816006, -0.002096957974197955, 0.003062167242140646, -0.039184378022837335, 0.06971463855724898, -0.026183298611387396 ], [ 0.005349409781603108, -0.06017300276021582, 0.010439155309043133, 0.009400731233796608, -0.008068910879336547, -0.015706836072625553, 0.0072618332508877685, 0.025286390916138907, -0.009009736641266395, -0.026787729358214805, 0.04130419268406588, 0.02754163635631982, -0.029154095382584545, -0.030528250072614962, -0.03180529930382322, -0.013730057102586677, -0.03452698651530595, -0.02970737002851675, 0.0013202425789121148, -0.030072844669873824 ], [ 0.007203988418046677, -0.03786637562222157, 0.008944430917368741, -0.003234121245618159, -0.007720919136807622, 0.007348176864905465, -0.01654980584555254, 0.0484174695347191, -0.033147442331521663, -0.01832960650975669, 0.0021296260885678864, 0.029517985307797368, -0.04220562766100504, -0.01914769523871996, -0.03534394211285214, -0.025266900293786886, -0.019329588980522817, -0.010814614888016147, 0.006348292919498552, -0.005722418789819624 ], [ -8.231461963635472E-4, -0.027316767101034672, 0.03541327273161789, -0.036760115085287474, -0.04219099947379709, 0.05653363505559255, -0.011529253121576015, -0.08516817420517485, 0.003477991176385288, 0.029210626704056754, -0.030011593447542055, -9.090242372388178E-4, 0.0129200879466196, 0.026784937696897756, 0.037264555990531655, 0.0627747749840414, -0.019101330496072922, 0.007039465233543376, -0.02474583465374857, -0.0023512632925212673 ], [ -0.010910350449944022, 0.028786875848577413, -0.04207702536067158, 0.019883120390048286, 0.03575016351191425, -0.040737204374381074, -9.378145841279869E-4, 0.03261529361956377, -0.006249238869091479, 0.0028355068699363987, 0.004299581453182172, -0.02471579048958366, -0.013957464780679225, -0.01174846653937551, -0.005894512582389639, -0.04863959300127624, 0.013351841844177106, 0.013484003509467471, 0.0219157161721087, 0.023188066613142055 ], [ 0.02385573119473395, 0.038956315063805674, -0.011862382906903262, -0.04028596363513484, -0.044422574894518854, 0.06763550768691087, -0.021331645777822345, 0.007721723214685111, -0.031159381256997833, 0.007723845306085014, -0.027540309109864974, -0.020040693634085886, 0.04521318632586793, -0.004057824072454034, 0.019879793417762463, 0.045276613861645575, 0.03304349318240765, 0.04504121313994256, -0.05042897828837035, 0.009647074212801768 ], [ -0.1192180710949609, -0.0046253564059628985, -0.0379894172770045, 0.008857482040028007, -0.21875220547614097, -0.035634739664836, -0.001803978301002804, -0.010093998772910978, 0.003818873643875129, -0.04702086697149035, -0.005470991965864841, -0.011121690141517178, -0.046133322740100284, -0.08701982751634711, -0.05084795249430389, -0.06989345282243078, 0.03341732171236321, 0.1365416015865815, -0.21420951144004538, 0.04910121932820238 ], [ -0.017020667091439193, 0.021283444625650787, -0.026900283575099947, 0.01647855997400979, 0.047509484794468274, -0.02455759078226894, 0.01660280032996455, 0.013710131770077419, 0.0019606488369179006, -0.007567308269832769, 0.019509987217984106, -0.02081034472173684, 0.004205083455460198, -8.979602281233272E-5, -1.0057030542166878E-5, -0.036439927853057726, 0.015057923306839678, 0.0032974505750233787, 0.03162419248527794, 0.002362430055865754 ], [ 0.012744804337936342, 0.1119551407514849, -0.01760046110523077, -0.052270701561162196, 0.11844275746152896, 0.0539200096341244, -0.008354917983712892, -0.10095811453345792, 0.041713711175823044, 0.05721164619113295, -0.06133936296813536, -0.06647417203068387, 0.04694149398258718, 0.01732262808681495, 0.07877554506912389, 0.0844879493644777, 0.031621997347783974, 0.04295682584098595, 0.04832292174961421, 0.07955032305917377 ], [ -0.0050417570500556124, 0.010978762317946191, 0.010622858439947007, -0.008363200056498824, -0.0468534865708531, 0.015571754093446924, -0.0029085877229712664, -0.009930957812160432, -0.005168825687861247, 0.012369973802307728, -0.007160211932437856, 0.001532176323523346, 0.0034006606789164988, 0.004485721947233511, 0.016126340107988465, 0.024516590986883094, -0.0028298462623286497, 0.003749110009879422, -0.026760187340297007, -0.003940389670500922 ], [ -0.001851413889518044, -0.0013104409516952798, -0.014091469693220806, 9.82045750585631E-4, 0.03722987216944813, -0.011299366202204224, -0.005460542475700092, 0.010415252380346617, -0.0010091457813505799, 0.003503952508665029, 0.01688096475113366, -0.01802183778702722, -0.009813024118004422, -0.02290114085453839, -0.015622831439471472, -0.017701710999543808, 0.0018400607590493808, 0.004047072167545389, 0.01195903701436411, 0.005454139388816521 ], [ -9.115919995782582E-4, -0.0040542162757262615, 0.003955909612110564, 0.006617314225292809, 0.030679325980113015, -0.022731360096250423, -0.002328300817118579, 0.022216927003984362, -0.004458781874014831, -0.014202996050688832, 0.014465831041685839, 6.377947485526379E-4, -0.004665388133481309, -0.021023776975633724, -0.014092066148575744, -0.026373075234830196, -0.008801318861325368, -0.002740523672900025, 0.012011103240258095, -0.001686626751038609 ], [ 0.007652167214092608, -0.03923772720026857, 0.017519284933603236, 0.0039471286455234796, -0.09411752637200563, -0.006893991676707921, -0.0017312123735593698, 0.023554951521437686, -0.007432623879758169, -0.004003953451316454, 0.010456739785664868, 0.010045054257826187, 0.004021449724493051, 0.018609847885817113, 0.001284535322705305, -0.028736381484817587, 0.0023025661904407238, -0.010299308659000746, -0.06932006304273176, -0.0072194022236491545 ], [ -0.0016651887702926562, -0.02776215673978335, 0.022870819148563353, -0.02426206465907636, -0.03960937345460988, 0.03582759377191087, -0.001375715169827604, -0.03994117865161404, 0.0035487302081514834, 0.02080693957751497, -0.01575526199298433, 0.008816631166755549, 0.018207017686379376, 0.012543706163073891, 0.021090363833099493, 0.03611372901708405, -0.010719037916074889, -3.8055298795366174E-4, -0.035517681343814334, -0.0054232681645900735 ], [ -4.218562835297544E-4, 0.007953654762456883, -0.018511684339183092, -1.528192218232523E-4, 0.03796501803201405, -0.014232342793506087, 0.0011282336489783305, 0.011220918240770877, -0.0032109373852088332, 0.005105687998950381, -5.759699848652345E-4, -0.013005764243435995, -0.012145073788623218, -0.00629913520034514, -0.008089655781271098, -0.020205745190214393, 0.017022685988130414, 0.008490679896181753, 0.04085855757927873, 0.002600127192140586 ], [ 0.010714397172351339, -0.0038353772731297116, 0.015445340271191337, -0.0011449611908803108, -0.04419656122267929, 0.01450490972991607, -0.01204052456750204, -0.022190450753609876, -0.003969649284896169, 0.01589778580706195, -0.0028483939491644236, 0.004271180151434726, 0.017180474922358212, 0.0152286081696289, 0.016608097439451356, 0.013835551216308199, -0.010293999265437004, -0.0019172343753563513, -0.026796994397533334, 0.006037581107250627 ], [ 0.01010879669736104, 0.010861358367827848, -0.007281561082985468, -0.001297695713134684, 0.03709196586090913, -0.012171641732466197, -0.006314765979349073, 0.012695281870138249, 0.010872378511077517, -0.004823291554312647, 0.0079215539726611, -0.005996018786371803, 5.98260262442429E-4, -0.005440100634440636, -3.036298468997827E-4, -0.002977702473555572, 0.01574431068392912, -0.001336818477481225, 0.017931130530544133, 0.0027745807151395422 ], [ 0.004431283902797731, -0.007096712122517773, 0.0031526307526676643, -0.007292087757259529, -0.03816537777802676, 0.015893189250342256, -0.0027868627070119435, -0.005400760024001457, 0.01128936540145643, 0.01014050160316177, -0.006479118458854792, -0.0045342902931557755, 0.021466134261714873, 0.006031723726803002, 0.007143812302193958, 0.004521008134694499, 0.007639698608678819, 0.0015555320759193378, -0.025261783307419846, 0.010602908446345677 ], [ -0.008039222076851545, 7.430108794551471E-4, -0.018565109830481954, 0.01662546618595524, 0.035446846781503956, -0.023886537624419557, 0.006150030452987986, 0.012363102445123673, -0.009037954101757544, -0.004204155475182269, 0.018096578786779834, -0.011034507729299495, -0.0177185345733788, -0.011046732560121382, -0.015634138011641686, -0.013724137656615419, -0.0037014746801197233, -0.006196526593466752, 0.01855965713555853, 0.0015402648702423603 ], [ -0.021578331114711323, -0.02401202802621808, -0.01896371814161657, 0.01953718614876174, -0.029060780267668024, -0.03652686573214301, 9.353478449998542E-4, 0.04887623543645469, -0.026662954729539962, -0.06158644173206753, 0.020317526886471676, -0.0067503368072407135, 0.003318448992334298, -0.019518846700527278, -0.011705465036723636, -0.041846071827964036, 0.036996938236497225, 0.017146110764968577, -0.02260844846512929, -0.01313080164268705 ], [ 0.02772320805852756, -0.026895244728444626, 0.05305897019413806, -0.0013116109175476721, -0.03533972599644218, 0.0056693931732177145, 0.024311721046061534, -0.02720227996045869, 0.006056463211828762, 0.026833237722409576, 0.026878351544230267, 0.032088973753663604, -0.012465954465076139, -0.006760597490147473, 0.009311968581813731, 0.05755992560848354, -0.05728675584689709, -0.03924760503264127, 0.03736751353916088, -0.02447371544483043 ], [ -0.007577649976300042, -0.014002212686142592, 0.024133981338050024, -0.0013323268592382099, -0.08934174319303145, -0.024079744048466602, 0.00973809394346814, 0.03877692541653001, -0.056454677181295446, -0.04613803096810827, -0.005034245774646534, 0.022728548349913263, 0.0011202574203774429, 0.01766023532868751, 0.01890208979262355, -0.014541851763575947, -0.027587084025018156, -0.010903573677969342, -0.02834099720835558, 0.0044711026843791525 ], [ -0.008541699927341976, 0.010435536965113935, -0.012189664772791013, -0.011020928851674237, 0.04130712625963335, 0.003792074982700691, -0.008595310132578492, 0.012629538085023444, -0.007426815917702997, -0.015616959897717568, 0.003063460544509345, -0.026996090422706332, -0.015187827634125416, -0.004238168938024009, 0.015472482483346359, -0.011619167348539168, 0.013962439602699665, 0.0021141812947846335, 0.027624499608388847, 0.005104240103138715 ], [ -0.035532322246744734, -0.01929191651751282, -0.07554672956715094, 0.07278169207212769, 0.02652634285326554, -0.10975310185231278, 0.011380104697002149, 0.108167405144133, -0.035589800700080144, -0.07889700143680073, 0.07594707765308631, -0.015662599145714856, -0.06128315289966369, -0.055577348142993366, -0.07447883216639666, -0.10069531495597885, 0.042477169588417366, 0.002963803223997792, 0.008450502997672941, -0.03903822685715575 ], [ 0.007734951162530439, -0.004722141967029245, 0.008915979599444386, -0.009346818171581006, -0.032683378450490005, 0.012300778139767413, -0.012142285187150081, -0.018169074643597245, 0.0232990516241675, 0.004231820159071479, -0.016230285061899673, 0.0033476205551815435, 0.01256715584563863, 0.02079931595227113, 0.01935642380644296, 0.019501428643811526, 0.005387833767493379, -0.002635973420386054, -0.010511789506297994, 0.005167754563449508 ], [ -0.051572929133086504, 0.09700347608198154, -0.09754997278265562, -0.002584517886048712, 0.07923691366218448, -0.00908950869462125, -0.04964483992262557, -0.036739953342283506, -0.02169481964768254, -0.05157567370485068, -0.02823346121554775, -0.07179476070294924, 0.012128945953615704, 0.013794129792205158, 0.021277597616060375, -0.12953911928785036, 0.10055678233953975, 0.09276448478576166, -0.07589891927467816, 0.07350689615843992 ], [ 0.0074477717878846895, 0.0065759272418915654, 0.019817817777934604, -0.007338917328092268, -0.006516558815935939, 0.03734360149522507, 0.001490355884664804, -0.018132749836405553, 0.027949757414159483, 0.015404887144961521, -0.02768196253937563, -0.001977413597273909, 0.02997473600495575, 0.013777365962276755, 0.001008922579479, 0.023468205568554203, -0.014573648811295288, 6.08534592135208E-4, -0.00984188892523716, 0.011370735377650558 ], [ 0.033221590743392246, 0.006754137549899496, 0.002174503585144295, -0.03942389970269992, -0.04293895194328369, 0.036265045615818066, -0.022309212645929572, -0.015059911531977907, 6.854977440721096E-4, -0.02734295425980061, -0.024920481334260464, -0.008784454049412034, 0.019242044785018547, 0.021242710306615214, 0.020969779381423085, 0.03436425184484916, 0.022142603292630087, 0.038173175470190814, -0.01626883223092664, -0.004960833678403825 ], [ -0.03513943778843251, 0.05375419876700563, -0.04367464783844988, 0.005922811621840573, 0.060432919714574165, -0.03260627952948556, 0.01379426775501668, -0.023682988290220943, 0.08454078569667813, 0.018412875877970896, -0.03814272239449738, -0.05414813675350575, 0.030954655303724363, 0.05630829046654135, 0.012897407203146031, -0.002695839353435343, 0.034056097406815825, 0.038351093177070854, -0.03293188327360816, 0.036628205118313814 ], [ 0.02009713590360353, -0.023579515293095137, 0.01761894314703334, 0.007532398544654081, -5.3439235356819084E-5, -2.5563165377464594E-4, -0.009805465204884444, 0.024141905054970537, -0.02567008839844517, -0.025332288373549505, 0.013184972381957642, 0.01793170611632624, -0.015329993905590604, -0.004178302166472157, -0.024550922983143382, -0.012732335144323271, -0.0025676268418470187, -0.017748188528744813, 0.031362226817441455, -0.010137404862667175 ], [ 0.02612711614523483, -0.11568786238746971, 0.04198074431533447, 0.01927968038785431, -0.02713693971972688, -0.016901077020477648, -0.013954799574214909, 0.047120980471895224, -0.008618410634535318, -0.06603722971584967, 0.059825668594557055, 0.08312688692216652, -0.03996688213011411, -0.06397145432669837, -0.060550180893673006, 0.041255205873917886, -0.059501635302948594, -0.04358367483460152, -0.006205642688983802, -0.10287271273928895 ], [ -0.017935568411032755, -0.042604951738306925, 0.02961840215414128, 0.037795123947357095, 0.01060707193766512, -0.07712228193663502, 0.060784863105318325, 0.018829470060816176, 0.037054496872628, 0.02791998451245463, 0.05595784727454444, -1.0548808817432047E-4, -0.04922840354352606, -0.04442457123284428, -0.03367521701574315, -0.054126654211201664, -0.05730618556841171, -0.029970557545810537, 0.09444545216243472, -0.04045442266341014 ], [ 0.016268815425881246, 0.0040304369964434495, 0.007081949440457109, -0.005247981315369791, -0.0389317148328889, 0.019942104329096644, -0.01674518140152092, -0.03475146044684281, 0.007347642058727298, 0.01659217359521274, -0.006536094103830504, 4.3957210921037485E-4, 0.007984540002149317, 0.00596677239939202, 0.013757831438357054, 0.02112831074861873, -0.00974679750450748, -3.502750388125667E-4, -0.020297791927865155, 0.006838431757568563 ], [ 0.005612863935815318, -0.02329582086423839, 0.03420113409192455, -0.03674488265564637, -0.03484238850535965, 0.045865520567463854, -0.005333141250947026, -0.06804289902338634, 0.005143537933768917, 0.01913300559268403, -0.03623009447684445, -0.001058270407854115, 0.03310552599098577, 0.01708377681979256, 0.04545369503238097, 0.06298070778767113, -0.007890544117513667, -0.002927685285557104, -0.03205740509650272, 0.0045103894566833145 ], [ -0.013075196167340588, -0.016902813011996188, -0.008763809215252988, 0.007610768087786394, 0.02121878693324881, -0.025576845553296347, -0.00528374352643234, 0.04204883263047144, -1.5657634618627942E-4, -0.02658283969424912, 0.02089482797522754, -0.005711684093329967, -5.750191939309238E-4, -0.0330096789884621, -0.00488598893695658, -0.032687481348573806, 0.011268234911692886, -0.006738614356816538, 0.0035241302514980068, -0.010508431263090498 ], [ -0.010291593500580178, -0.025652666729311654, 0.018634610473573784, 0.02650766250610369, -0.009496299557282456, -0.0475809505423629, 0.02903073476992054, 0.028074109304592622, 0.006010613160017108, -0.007176720097093342, 0.043769785596931475, 0.00539281958831471, -0.03632166015648021, -0.01507944805558511, -0.014029514955436211, -0.03906039544487896, -0.026960445988440572, -0.011064041879221406, 0.045182185603663404, -0.02452141508144352 ], [ 0.009256019169778456, -0.004209211541363783, -0.017102602942464493, -0.006553885747939597, 0.019187917504057447, -0.029628208176635994, -0.01673765061045052, -0.007737171660427784, -0.026565223316706486, -0.01521429012850635, 0.00852983852106221, -0.021565523803155455, -0.027904417473050815, -0.0016195164932725028, 9.45002973650898E-4, -0.02904881511013365, 0.03477749731303459, -0.016940465605307535, 0.045869661268139426, 0.011235357069855496 ], [ -0.01327078926956324, 0.03871419790345381, 0.008537833876656908, -0.05274846625608602, -0.055818666241344635, 0.07342385968171855, -0.03975759659426421, -0.0021746869348246373, 0.02334503169195686, 0.08923057734500714, -0.0267547940435954, 0.026887361833126684, -7.16189909032408E-4, -0.0013016347103122381, 0.030321304690344622, 0.022455487882855684, -0.026452747046649083, 0.017371532336888314, -0.05149346541606062, 0.05775873446063119 ], [ -0.02135931240845373, 0.008782420679460196, -0.03053192498774844, 0.00536953378434124, 0.04227401031023537, 0.01444694007609175, -0.02188449087643192, 0.07266817686577313, -0.05947826413608526, -0.005660703882426756, 0.016666644851436867, -0.020266626868181335, -0.04263756996741585, -0.03738519027326137, 0.006686406027539308, 0.004206367134030025, -0.004213114945724017, 0.00873397822547201, 0.029411153490194124, -0.01728827450963642 ], [ -0.05025643035826862, 0.045235438907984704, -0.08541758309806773, 0.038192012376703395, 0.07286933424365928, -0.09073041754929885, 0.03028716439129024, -0.010596301827585737, 0.06163802925820526, 0.046040034445876954, 0.03345134503529427, -0.08278284531889638, 0.0060519906470266034, 0.006282947036974134, 0.01988579561753344, -0.0608543494605649, 0.041999950486130894, 0.023311543627436045, 0.02197535507902816, 0.0022963799363951345 ], [ 0.0830955364819781, -0.07818046154662278, 0.09375565439151357, -0.003987676205519182, -0.07672429436093645, -0.0123826004931887, -0.017436316019927903, 0.09160100161987925, -0.014435030632176585, -0.0537631487527516, -9.137629828862958E-4, 0.06819558891338043, -0.06405852853539229, -0.03422493695173676, -0.0392614338059667, 0.07670618911714167, -0.04757679174974891, -0.03617248205567956, 0.04372483414665813, -0.018282077184681167 ], [ 0.024636017294459526, -0.12286615546329169, 0.04733544317324489, -0.00635985358231743, -0.11126474458699481, -0.004093583559389773, -0.011790897659058839, 0.051523394340618055, -0.006930952368335604, -0.01882129696094128, 0.04421636756881632, 0.05429500109100829, -0.03655186905862006, -0.04477143237398279, -0.053611795805054874, 0.03277603557189516, -0.060356458237089905, -0.03157466085362359, -0.06892417588288353, -0.0792107918523767 ], [ 0.009472139087849472, 0.009353842526688628, 0.012008618844683593, -0.009397408969724949, -0.048542496795257926, 0.015114743249308287, 5.096041139107423E-4, -0.020931458425814054, 0.0019315537218224045, 0.010972466614967013, -0.005456200129592795, 0.013838641749976193, 0.014404164239171704, 0.021182966689883773, 0.004828862495407496, 0.0175273158524322, -0.006221618068455479, -0.0024279917989383326, -0.014129572121448284, -0.002455901226606483 ], [ -0.026808190542937167, 0.05499386893162954, 0.03529305887398666, -0.07794992001540987, -0.001091986926128189, 0.1086891119174199, -0.03273126547193007, -0.09922541466767439, 0.04099382701445719, 0.05134654016990697, -0.09102114209150791, -0.00949301738100446, 0.06552384052091875, 0.0757808989808118, 0.09717330719177267, 0.067605428467331, -0.004912067917881716, 0.0397417027287183, -0.06500789381551378, 0.07371092959802628 ], [ 0.012326911816583127, -0.07343707522263085, -0.059591255123203526, 0.07527660481219003, 0.031548019105749, -0.09403032593669093, 0.007321381566766871, 0.09051444690777401, -0.03528568699795397, -0.06336082414567826, 0.08024785172245653, 0.019104272865080756, -0.09485683727504002, -0.05565725747808939, -0.07593769916642808, -0.0866820153558303, 0.006884298209112715, -0.061317856088021004, 0.039441254459776816, -0.05181523227333983 ], [ -0.013557254850856768, -0.010418430820789928, -0.017328214490650567, 0.006888770878943604, 0.009622869294429081, -0.024990428958592055, -0.015571652626927564, 0.09215014840827225, -0.022558340474414823, 0.008716490642031175, 0.03613679137264892, -0.029541379841011225, -0.044298516672500086, -0.03212635413609304, -0.002701733429307011, -0.01265686762999566, 0.023746026914741317, 0.015394961953997631, -3.9041808612705854E-5, -0.0034894287237419884 ] ]
  }, {
    "Size" : 10,
    "ActivatorType" : "Tanh",
    "GradientAdjustmentParameters" : {
      "Type" : "Momentum",
      "LearningRate" : 0.01,
      "Momentum" : 0.9
    },
    "Type" : "StandardLayer",
    "L2Regularization" : 0.001,
    "Bias" : [ -0.005855048658076654, -0.00633926195512287, -0.006066865675578404, -0.004545066047629308, 0.0011911497679848793, -5.935603627395912E-4, -5.803531289404744E-4, -0.0055738158423176785, -0.004817844383710561, 0.004125118412727764 ],
    "Weights" : [ [ 0.007446427042071885, 0.010894525107060385, 0.005778110844259868, -0.0015856669782949389, -0.0030521294298311353, 0.007837285032807968, -2.621325767043986E-4, -7.934922772076859E-4, -0.0067258777168027325, -0.0031676321607215945 ], [ -0.042193617819860904, 0.02031046358113951, -0.02003971000252895, 0.04427390563490071, -0.011237776726121597, 8.860559510484888E-4, 0.004960636331661542, -0.0038350871356946726, -0.010221145623806542, 0.006532498100185944 ], [ -0.004614994765430816, -0.0021980979041435907, -0.0019113238375275973, -0.003744545177305327, -0.0033926218326395755, -0.0017176039411333417, 0.0018934211419889264, -0.0013855810320822746, 0.001579851803286661, -0.001888922679381797 ], [ 0.016293456566546273, 0.007224708168004062, 0.008992011924597107, 0.008683090963708154, -5.843609188234512E-4, -0.002475663328735958, 5.434222877353279E-4, 0.008456821374455428, 0.004813141224764546, 7.615464389791569E-4 ], [ -0.04331660529951971, -0.016123220040278306, -0.029480271300386843, 0.00884565232177856, -1.5090958670137627E-4, 3.2964224720809335E-4, 0.009976266845956023, -0.01081700605058926, -0.008459493954521523, -0.006629392537210905 ], [ -0.02455887356835352, -0.007462118284789935, -0.0035721470822472697, -0.015940144522002778, -0.005079060338639544, 0.0024635486550064934, -0.007676087964406576, 2.117076640318365E-4, 0.0021884966847341273, 0.004736810331946776 ], [ 0.0077194759415617435, -2.774167600626642E-4, 8.696253923734082E-4, -6.073077579373179E-4, -0.002794870013198272, 0.0041399079047749945, -0.0013781497484259102, 0.0072065506153216, 0.0036368987015668115, 0.0018754806447245456 ], [ 0.018784546249105683, 0.026489210857198294, 0.011467149961553305, 9.884832222095128E-4, -0.00407378105089085, 0.0011132619387994875, -0.0035408873744789448, -6.302092283283038E-4, -0.007217456082817406, -0.008203578338510908 ], [ -0.004459309375241995, -0.003519897134651758, -0.01309667250772144, -0.005476371943077592, -4.063833921016339E-4, -0.0034685075184053256, -8.608201218323619E-4, -0.0032577949650530445, -4.658094643061373E-6, 0.002888204852512662 ], [ -3.7000597290289195E-4, 0.00217800991746779, -0.007927193129851979, -0.007506513067318048, 0.008017548835071822, 0.03243090968392032, 0.007212103682915915, -0.0016845844805139897, -0.014865677492370201, -0.009113976261097341 ], [ 0.015928564225515526, 0.01377043689215771, 0.011363363179691622, 0.006654165385165688, -0.0050164945033179505, -4.0017344518305555E-4, -3.0835488396637443E-4, 0.008173761223977862, 0.0063883575415621344, 0.0013776733743563834 ], [ 0.002957639857091223, 0.005740621344714901, 0.014682357178641714, -0.005078238286022942, -0.00331383593258211, -0.0034828065777725674, -0.007781440428767022, 0.007135683397826986, 0.0030607096833859255, 0.008062461333992863 ], [ -0.02112195675050826, -0.00514418963257476, -0.007145613632199286, -0.008858801181944678, 0.0017266579934319653, 0.005465383451433022, 0.0027966231574451353, -0.00318546734906107, -0.0025337109874149807, -0.008826299241286207 ], [ -0.012480252709766507, -4.731058945520821E-4, -0.016329301648958742, -0.007329669942498736, 0.002356981656856736, 0.00954423520604206, -0.0022725388454517006, -0.0026278888700603234, -0.007141940353069919, -0.004888286721406043 ], [ -0.02043086316007492, -0.010676300727517662, -0.012158333638654113, -0.0028274153599978586, 0.0036164186229686287, 0.0013858154620005909, -0.00504425959446748, -0.0026403107196118825, -0.002899523626972538, 0.0014550744276467403 ], [ -0.018505990577758293, -0.0018097734162819507, -0.008153422012426685, -0.01591260960828392, -0.009352116227851384, -0.007921283522368911, 0.00911944634519019, -0.0018473672601911659, 0.001392873365578938, -0.010705859332813516 ], [ -0.007471539560344877, -0.002189973122215485, -0.0045674494219158385, 0.0014612386421954124, 0.0034806847205524167, -0.0016904208456040395, -0.0018856442992782258, -0.006173858881789847, -0.0032791082886382975, -0.006899932545534332 ], [ -0.016219081510087347, -0.006874364079511419, -0.006680665893629105, 0.0016104580164235998, -0.007012833510713233, -0.002477861547103254, 0.003692081279378384, -4.45317559830341E-4, 0.004957183482460716, -0.002939654416822642 ], [ -0.0470882113042726, -0.02166896740318059, -0.027756816198760085, -0.0278403139047668, 0.001631030952208911, 0.007770369248668926, -0.005683749683901371, -0.013258608659727911, -0.00913135032032744, 0.007568743130581161 ], [ -0.012129094407041897, -0.012629416165298113, -0.018321120496711918, 0.004289965349842674, 0.006404899065222958, -0.0032487111269099618, 0.0069301350087141314, -0.010168919604597803, -0.00637149649334942, -0.004527382339476291 ] ]
  }, {
    "Size" : 1,
    "ActivatorType" : "Identity",
    "GradientAdjustmentParameters" : {
      "Type" : "Momentum",
      "LearningRate" : 0.01,
      "Momentum" : 0.9
    },
    "Type" : "StandardLayer",
    "L2Regularization" : 0.0,
    "Bias" : [ 5.324763437831305 ],
    "Weights" : [ [ -5.045272561155383E-4 ], [ -2.6057749756563275E-4 ], [ -3.2299053004756405E-4 ], [ -1.7125727638869748E-4 ], [ 3.651855492273948E-5 ], [ 1.061356802202705E-4 ], [ 3.55150122212443E-5 ], [ -7.624311921824768E-5 ], [ -5.80074249563556E-5 ], [ -4.513973108822502E-5 ] ]
  } ]
}