{
  "InputSize" : 7,
  "BatchSize" : 16,
  "Layers" : [ {
    "Size" : 30,
    "ActivatorType" : "Tanh",
    "GradientAdjustmentParameters" : {
      "Type" : "Momentum",
      "LearningRate" : 0.01,
      "Momentum" : 0.9
    },
    "Type" : "StandardLayer",
    "L2Regularization" : 1.0E-4,
    "Bias" : [ 3.294382873847825, 3.4701157812321153, 5.25918427162083, -1.5085648033780512, -1.7615669509829233, -1.9908079517908772, -8.77093269705561, -1.675527201566325, -0.5012753044335403, 3.3530300281336216, 9.033308910310401, 2.914551070898626, 8.957321546427767, 9.247034780110733, 4.174284289857285, -6.677799453187212, -1.935694523684693, -12.176358005238212, -2.2351426004052635, -4.795616673218851, 0.5961669064188527, 1.6289359558095413, 4.8813312184991995, 1.8110511895953973, 2.585073956254064, 7.048992806372577, -2.1115991634722664, -4.728572419506464, -14.394684838713587, -5.535731700583767 ],
    "Weights" : [ [ -2.0977134211426383, 1.5549538957440436, -2.394572777014245, -3.232181014420561, 2.3867923478762365, 1.0087541786745262, 7.186688290126239, -6.980338833191756, -2.9155261452949723, 2.251010654303255, -4.326745764844421, -1.8379317575652472, -3.456597904317343, -3.0354173254177064, -4.308151892161403, 2.982489361298022, 0.7757772375640658, 4.016600394415043, -0.7483820169238159, -5.483686123722291, -3.038090837539463, -4.560304981842606, 2.671298126010921, -0.349885858119665, -2.223689609838426, -3.7505633542849943, -3.7770477052522615, 1.9156655983744213, 3.591816228802502, 2.39815005642399 ], [ 2.8951488854709115, 4.913407673652148, -0.559417588597979, 0.8051790345414617, -0.5221097962576534, -0.2850905237267119, 0.43860115945213035, -0.9155511527844812, -0.4962745168039295, 0.21718205855927872, 0.6450862276698295, -0.7567259180073801, 0.1870271731479376, -1.8437360404741487, 0.2583340183222035, 0.11493202044287551, -0.33226397229022875, -0.32878953086528107, 0.5368626438586492, -0.16815839661818527, -0.15089098359644412, -0.036134081935019935, -0.04873850942674179, 0.21295827685781926, -0.1704295448509371, 0.9256960502420774, 0.09898195875782308, -0.048875957993950975, -0.6122446559791489, -0.411913500010147 ], [ -2.2245254789643334, -4.486999679207869, 1.6735809786592901, -0.0908470051012607, -1.9402087586615453, -2.9019053587685826, -2.756789862567893, -1.7545027344071193, -0.07836374653467792, -2.942804675949008, 1.8989768133410905, 1.3349270580329786, 3.5765910456443466, 0.5974952136296925, 1.4229124793432748, -0.15905174300846722, -0.5616339584705863, -4.569628335288131, -0.29480030981383193, 1.7532526669604098, 3.940161914134389, 2.6881746045235455, -2.7496413838876266, 0.706427368899077, 0.3320722827568249, 0.4819186044134675, 0.03327051186117161, -0.6104775552300474, -0.19436319916056194, 6.019141596530331 ], [ -5.918236970564194, -1.824980126983157, -1.4613321596507667, -1.7798120373817696, -1.8860079782275305, 3.2196960521580555, 2.827792977964711, -1.4896583161256958, -0.6803009573393981, 1.9057173991961367, 0.39859408996325435, -5.429531175159739, -6.307519652273242, -1.6273865019950478, -3.2604637650492907, 1.9274899468017532, -3.8340889971698044, 6.082270381484525, -2.2728786026114474, 0.3512867342913264, -0.27035735526917243, -1.083671877722296, -0.5178404199056654, -3.548156745007921, -2.147188257986502, -0.4705977365532061, -2.393839021640363, 3.983336324615605, 0.9694438983095368, -0.29801068611082077 ], [ 1.9896803793931277, 1.3876360796053115, -2.8398274750093258, -8.54991983355784, 3.072448459024913, 2.308112538651098, 0.23787788462996792, -0.42818873034464827, 1.5806162590319328, 5.382260099813452, -3.073311094239608, -2.2095524909483255, -0.20118410276190524, -1.9313198351457566, -2.5665734307330754, 4.024990714723989, -0.7675478183074358, 0.16184320136293648, 0.4667969419448038, 0.24227121854394582, -3.341589055951451, -0.43592719775500527, 4.676501516286729, 0.07522045893551002, -2.7930657672223425, -2.912356818384631, -0.8829914431120545, 1.3832530092215278, 3.3634954121364022, 3.6192315211288175 ], [ -0.2676228593999096, -0.4462189750279702, -1.0206455057825417, -0.40768048536597656, -1.0264926450710024, -0.6408787123420989, -1.1365056319463462, 0.302843542598911, -0.34247283989646704, 0.011259413540905623, 0.12544000892439044, -0.3808805225293139, 0.21553590743824905, -0.24630067106805054, -0.20017570771294546, 0.33269106227545847, 0.08379588046923817, -0.36412934546645925, -0.05498714867720648, 0.3891852818654237, -0.1800929146209721, 0.2551772026410297, -0.013577144576896351, 0.2248818863871396, 0.4124805725739293, 0.07211221501116223, -0.047240697534098305, 0.30954850247323357, 0.0030755792171643934, 0.9070466931521843 ], [ -3.5356780129260357, 2.6205604711724786, -1.47453252017072, 3.5288011219460635, 4.169005137391207, -1.9080208682413802, -1.249001868723165, 1.825958801679219, 0.1267208561683572, -0.4193703466856556, -3.7826287793603, 0.7866472167624866, 6.753415371806476, -0.7336787350790713, -3.7718797485444555, -2.281787840794158, 0.6432345684665898, -6.745261022747748, -0.08664576966371779, -0.05109420852789597, -0.6738786627106278, -0.13209936075544623, 0.37216264019595147, 2.921814302004302, 0.66652978236701, -4.068330669995118, 1.7079938557233174, -3.2670081240485014, 3.7814654402861505, -0.5489634790569591 ] ]
  }, {
    "Size" : 15,
    "ActivatorType" : "Tanh",
    "GradientAdjustmentParameters" : {
      "Type" : "Momentum",
      "LearningRate" : 0.01,
      "Momentum" : 0.9
    },
    "Type" : "StandardLayer",
    "L2Regularization" : 1.0E-4,
    "Bias" : [ -2.3382141348823535, 3.414482070249781, 4.31889010527489, -5.448727279845967, -2.8795193852616046, -3.0260492336608693, -5.5235711338943805, -3.2774844563454417, 1.0431062062205967, -3.8049211810058807, 2.4915210157795165, -0.13296630189536063, 4.939044629609664, 1.0644540582740891, 3.223572535439219 ],
    "Weights" : [ [ 0.3987596089127768, -0.6012599979670963, 0.6557997607186257, -0.41592445586831356, -0.25295361091644886, -0.8892993209041147, -0.10124829172260116, -0.21513249243016355, -0.4475791138244535, -0.15240646936637342, 0.250445272311229, -0.44713321867503875, 0.5232853747398714, -1.073653466718485, -0.02937734167234926 ], [ -0.36734605477504195, -0.09770641524134312, -0.12183786785593413, 1.9663595794444124, 0.30505146449986287, -0.8035319993293133, 0.1487110840683645, 0.2701980042707022, -0.1657198728056544, -0.9895789339601994, 0.4318737459423131, 0.34975245669174193, -0.14576632382182994, -1.982546752352555, 0.09303268194054876 ], [ -0.3766463523874579, 0.32177834165659375, 0.9189877566386906, -1.7321297166541918, -0.8604515358143735, -1.5016475966956395, -0.1984349741056557, -0.13530701611980028, -1.7292546920777259, -0.5915993981170581, 0.2190742638586718, -0.781449938285014, 0.943758756840488, -0.36037605535563616, 0.6548210333975608 ], [ 0.5477806591977739, -0.323843666014652, 0.22518252556276694, 2.6881118485819604, -0.26516254017054386, -0.39109611454889115, 0.08529891959735507, 0.0747618069837579, -0.28660383959082064, -0.9275242361479226, 2.1306621667814496, -1.2811054432053388, 0.11086805447775494, -3.0018157639425156, 0.04887061657501536 ], [ -0.32998292713771044, 0.13822760647005233, 0.3833987429406569, 1.2466754401109723, 0.0717351596023705, 0.1747832881488166, 0.32419190369578166, -0.8730623384695549, 0.4130969766779445, 0.9136252008090828, -0.10653107763382616, 0.2028803681349519, -1.097384072507927, -0.4370756450137956, 0.2125235333056873 ], [ -0.6377888686701767, -0.4433798483539369, -0.24110071388971274, -1.4714505967307343, 0.5745719513154336, 0.8846092466884191, 0.7227673078233423, -1.819086862127902, 0.08371084422272221, -0.05632318998087926, -1.9209785322690944, -0.12706819735292277, -0.8138984827022415, -2.497745734175895, -0.048168819232685525 ], [ 1.5894930270690837, -0.9425848468820627, 0.037116554737744216, 0.49198064192438795, 0.8654749645862083, 1.394134642772128, 0.10606687205486981, -1.149532724738086, -1.0209127561676552, 0.2948715852426157, -4.733068929389927, -0.9636249283354298, -0.4822958017173243, -1.064062614952437, -0.12119940429005513 ], [ 0.13316614486700865, -0.6111599695857033, -0.7467244333703872, 1.3965482962644422, 0.6483252193239571, 0.6125528363860671, -0.12815089349167053, -0.9254058159498768, -0.09477701499999396, -0.10335786445091544, 2.3792062160515752, 0.49581068667361144, 0.7963765289815736, 2.8628235556772883, 0.15137182770032798 ], [ -0.6747969600462496, -0.6090283202980245, -0.68066172854132, 0.31798428138547424, -0.34918220673377925, -2.2427901639263985, -0.22569016197549438, 2.037016088137541, -1.0756992637446348, -2.1597727111421783, 1.9073830431908056, -0.678357717083842, 0.34061057879816775, -6.28309035918049, 0.1889739338429988 ], [ 0.6811166367213676, 0.6897932715417506, -3.989450724175856, 1.460029239438539, -0.5339303129847773, -0.3031181774455682, -0.3172937722836911, -0.03905951737336882, 3.0664902488355854, 0.45131431039659636, -3.290982722807895, 0.7846593115111402, 1.8042718109131288, -1.8040541957340068, 3.699674786334848 ], [ -2.593187493148636, -1.0772905969252655, 0.4880127383390431, 1.3559407379445436, -1.180152643389834, -1.4964089417781057, -0.8108982706200635, -0.9724684813563177, -3.687580191814202, -0.2041914051326827, -0.669547033283975, -1.085223889238231, 1.2079443499152729, 1.5254771223625325, 0.29886399255278207 ], [ 0.4631225550139352, -1.7497099318922895, 0.25954529710552904, 0.21701606827480527, -1.1659084464522809, 2.140786336304401, -0.8997175336017645, -0.8452094105671822, 0.16500642510064126, -0.04395244023564959, 0.39841597210635915, 0.4124576271910115, 1.7048473591817959, -0.7286899472045396, 0.9174720403551572 ], [ -1.3643449924466524, -1.4061451259451765, 0.14454313126431115, -1.5570493926558537, -0.8843835072787637, -0.7541296080336062, -0.3902462372499868, -0.4397612434489022, -0.8513836979480496, 0.5891527540834787, -0.12252929716385626, -1.151899004321216, 0.3344251023423127, 2.211770176272117, -0.04055133252291903 ], [ -1.3485634902034351, -0.921825870266643, 2.751727472025399, 0.5618437955000354, -0.17002613519061224, -1.318485134974447, -1.3138651938294228, -0.48919406480116334, -0.10627971475485906, -0.5951187000432753, 0.8323612806882412, -0.28885787234232757, 0.7345060737003095, 0.7213778020240305, 0.3093838157311541 ], [ -0.05657265140646463, -0.3581845686815343, 0.15749480903115484, -0.5125448918755197, -0.7494988634775552, -0.4204542492685156, -0.6034950141866376, -1.6545148156546652, 0.46629422763718903, 1.0781555937455123, 1.0773702701342343, 0.23843581204036046, 0.42927749244558905, 3.2344831166418047, 0.026969026370080834 ], [ -0.5974185269106576, -2.101849440801588, -1.2703552946605083, -0.7139971406820566, 0.8501744812113741, 1.0580469003960582, 0.4191713684584086, -0.28025583281560873, -0.8708807160155905, 0.4043409375288381, 0.7401499068738647, -0.7551468516471941, -0.597961822318791, 0.4766205259772548, -0.22704087701548048 ], [ 1.6919356768005673, -0.7798465918154807, 3.0232958254273483, -0.1544953194658012, 0.6767500608098277, 0.2045279798638426, -0.3063133254468906, 3.4904275103326823, -1.5921450078417778, 0.8761851223220609, 2.434756316031114, -1.9696265232743249, -1.950712009576907, 0.8974012105527539, 0.0028833450030895697 ], [ 1.0753916041289622, 2.511043245767715, -2.1727957365793245, -1.468558591889808, 0.4125568316016643, 1.3993127306413016, 1.3296042444301683, 1.7069070955666445, 0.29329074805082983, 0.7277536914178943, -1.488116056723172, 1.1990898043869735, -1.2074815603185898, -1.0718859864488104, -1.0886488218532808 ], [ 0.3505275523129605, -0.003349817536427051, 1.7676580340156782, -0.11939282833135113, -0.2267959490462759, 0.20398493364713585, -0.7443207368177093, -0.46614776240013706, -0.461469664238005, -1.6960090554502074, 0.5208524531707361, -1.4277109362774638, 0.8968325239728435, 4.578716975607808, 0.03636847109233113 ], [ 0.2871476806679575, 0.32149652742015394, 2.299565563951283, 0.5708368560367981, -0.03470444847881897, 0.9265827523003425, -0.4861221978157745, -0.13734615783467669, -0.7117307452235018, 6.0516794549228665, 1.764133658715462, -1.170320539364174, -1.1991773034358657, 5.6197182323822865, 0.5439226144719131 ], [ 0.764566744411677, -0.14815108873320645, 0.5901265364924131, 0.6220428670120158, -1.4015458000330032, 0.7933369805421518, -0.8715254467538534, -0.09382259704171639, -1.5502835603070118, 0.1445635179913154, 1.333846604350068, -1.4339039466806855, 3.778242352539531, 1.8064211803156147, -0.8676524182497007 ], [ 0.11110127592534595, 0.47397074203103373, 1.2927719568841962, -1.2830550988549976, 0.730388967728738, 0.7474616010341323, -1.2475512704798841, -0.4473929710343532, -1.0489945150064763, 0.18783218998195272, 1.2995208054800864, -0.2020291499687107, 5.968036437565448, 2.133366364389236, -0.3393279089183908 ], [ -0.6157394463386079, 0.6165330472522634, -1.6878705994943113, -2.5410974977734457, -0.2944655554817586, -0.3830054304445458, 4.580908900554533, 0.35945972853486674, 1.0353263454752049, 0.15129783368471947, -2.1427548862289547, 1.7163955625713812, 0.07882226160514978, -1.7314016824812795, 3.8878026534569776 ], [ -1.4699609867156798, -0.87088309739833, 0.4032969789460707, -0.4357005393296895, -0.49260480260409734, -0.5868535036032458, -0.4286303716341672, 0.13115084898395024, -0.2053873510736641, 0.18786235431072865, 1.2206262933151177, -0.5683269823967864, 0.8960859690356147, 1.89374911751159, 0.16466990004292448 ], [ 0.28400491958835133, -2.300381744104496, 0.9752956693533693, -2.4487340297268667, -2.6845636638998305, 0.03925915628243223, -1.2645670848791695, -1.2195166479479131, -1.1313516878824506, 0.33106244497631726, 0.3927210742115262, -0.9800286804700675, -0.6172902750874033, -1.8790637800870584, 0.869724177047381 ], [ -0.38460673559721004, -0.10889013954691337, 0.4340969342886532, -0.16918179274920028, -0.6335607936147472, 0.856102674637856, -0.6524750021776192, -0.532439420894271, -0.708190913269232, -1.156030069061108, 1.6181526762838032, 0.025294159936557245, 0.1146742329133571, 2.979145881275514, 0.6359375737004457 ], [ 0.1486517836295893, 1.0580277506795577, 1.3686243327844672, 1.5102734919811518, 2.479482603097645, 0.829179858895987, -1.4945849796012984, 1.6722501171692525, -1.2845208581846945, 2.013440833050985, 1.814388266896141, -2.0906774555719645, -1.8253281752648316, 1.3032205350862753, -0.12911416764208866 ], [ 0.2969253317251802, 0.28186896658106775, -0.6788358674994482, 0.7470227691209481, 1.1626144901175937, 3.3720056389796786, 0.7859809636089372, 1.6472470181502652, 2.9924680037249463, 0.7218161884862313, -1.3713351440659713, -0.7289307269737465, -0.9122437934655693, 0.5531711153896561, -2.101704941837057 ], [ 1.36075252338144, 0.9002826358888015, -2.121023844282053, 0.3136660187575489, 1.5591902712500423, 1.3019390776919308, 2.051099245110531, -3.023982718895202, -0.17091242158246764, 0.4639609638263812, -1.3378078989536715, 0.515499837121111, -0.5476624719805344, -0.7708375497047761, -0.16880030332868037 ], [ 0.9611691229287413, -3.4404883848227827, -0.5958329384823372, -0.12457551873524939, -0.21887247478747987, 0.05228278738424899, 0.3489905850096993, 0.7625909864721342, -1.1083881630013903, 0.40445539318356183, -4.052840835894587, -0.13797179587880473, -0.5904158487948769, -1.7009445442104545, 0.05140475602245425 ] ]
  }, {
    "Size" : 1,
    "ActivatorType" : "Identity",
    "GradientAdjustmentParameters" : {
      "Type" : "Momentum",
      "LearningRate" : 0.01,
      "Momentum" : 0.9
    },
    "Type" : "StandardLayer",
    "L2Regularization" : 0.0,
    "Bias" : [ 14.284929361407876 ],
    "Weights" : [ [ 2.9922971415779656 ], [ 0.7946743942863572 ], [ -1.4047914241617938 ], [ -0.795799576783374 ], [ 2.6967454612141353 ], [ 2.7878607634620423 ], [ 1.7645553575123485 ], [ -1.4531987169612206 ], [ 1.0357523025158313 ], [ -1.3676796552112587 ], [ -0.964218735471683 ], [ 0.8098251413535058 ], [ -2.173067069120477 ], [ -0.5478801610457752 ], [ 1.2725380750281297 ] ]
  } ]
}