{
  "InputSize" : 7,
  "BatchSize" : 32,
  "Layers" : [ {
    "Size" : 30,
    "ActivatorType" : "Relu",
    "GradientAdjustmentParameters" : {
      "Type" : "Momentum",
      "LearningRate" : 0.01,
      "Momentum" : 0.9
    },
    "Type" : "StandardLayer",
    "L2Regularization" : 0.001,
    "Bias" : [ -0.6702680909323091, -4.151807300739106, 1.1721306150191249, -2.943443147690944, -4.418638399624243, -0.5543396396044733, -1.0218694151315042, -2.9112863996441374, -0.21570807864173613, -0.7294880790262288, -2.420956888050612, 0.19208096836535724, -0.7394744108285206, -1.4272784523684923, 0.09426937729654764, -1.6945983375216482, -0.762081221525161, -1.9186188709466503, -1.2449732069786323, -1.7502486336811822, -1.703847186274805, -1.9186205165046741, -4.729427802695399, -3.432217022381787, -2.355882753890147, -0.13067491292308747, -2.2907551536270105, -5.078057195756583, -2.792726853730088, -1.3147937228449995 ],
    "Weights" : [ [ 0.6779802373513353, 1.2431962122051878, -1.5528034969785738, 0.7569460427187036, 0.29612148264764104, -0.3242419382654122, -1.6063041320986022, 1.6909800239045831, 1.072835756043866, 0.9824783807587812, 3.4058893962270966, -1.4653844839619565, -0.46626644936023093, 1.2582153554292559, 1.3198526699275859, 0.2861918966046662, 0.7548965141030376, -0.4726272353071718, 1.5662448719603874, -1.1611270002259708, 1.0917711552215397, 2.723688400168802, -0.7551005395781183, 0.2532465357118682, -1.2948076329702907, 1.2362345456537742, -1.1595797026315982, -1.211153539555116, 0.09484600730072815, -0.44580045032925764 ], [ -0.08280526977909411, -0.20887855842016048, -0.11954459640415482, -0.49243887067961417, 0.7753693839528506, -0.67376344381878, -0.02172691806558468, -0.03860429861406467, -0.15559516019514835, 0.2914757132843921, 0.06671176798227563, 0.11180469579499827, -0.5386399929220586, 0.37924368913794043, 0.1829124293416342, 0.2522108802009689, -0.27896391738550347, 0.67383266661476, -0.02542510616467932, 1.088354567472034, 0.05967525689609032, -0.4183821716677347, -0.20217095176462788, 0.18300000628460347, 0.5007373403106298, -0.0826575017280488, -0.5944493201910204, -0.44411091493064314, -0.38576593283610583, -0.44727346830498704 ], [ -0.37369670549244777, -2.023076160444078, -0.06570496149664248, 0.606436151223699, -0.1897126696914253, 0.5231337573119614, 1.0770225633741675, -0.1802192746476065, -0.5498384629149211, -1.5333831292409694, -2.2540090678718525, 1.5416625158563537, 0.12886419436122795, -1.217046104424732, -0.43366532999216706, 0.3438007346879424, 0.08757400079294475, 0.895133810975256, -0.03717214605233122, 0.4439892432239727, 0.1647093156410769, -2.85787163187661, -1.7847406253058562, 1.1297020728299991, -0.8151222968221551, -1.4105678504873227, 0.8305131960447386, -1.6176458589356313, 0.8319204510393416, -1.2166602705933662 ], [ 0.4884611898099155, 1.658702449326755, -1.698921241044787, -0.4436345001471982, 0.21981662088935935, 1.3501869578008288, 0.5935445121684014, -0.8318437568228646, -0.6739552095507719, 0.8286023263201077, 4.025854251263235E-4, -0.5118330386311795, -0.6714781227515455, 0.9829633160404243, -1.8368512762645839, 1.9118298849743944, -1.75938833383423, 1.4341856691120483, 1.3138964536312574, 0.3910492222819363, 2.112647881857351, 0.9298204907666305, 2.3530176094906823, -2.0040958470442196, -0.48358148863253986, 0.9023819203150953, 0.8765974785112135, 0.7451957529853734, 0.41087111642712854, -0.08141748263774938 ], [ 0.9367883557891453, -0.11505744544901521, -1.0037392510400598, -2.6440771653202817, -3.1749957846365495, -0.59529575094943, 1.8697041905603833, 0.5727103451979907, -1.608401737100283, 0.15720039560767488, 1.3861075622192964, -1.4744193309381646, -0.23295064966607218, 0.39196130442281524, -0.4752759584303634, 0.07083399000721344, 0.6459098398498383, 1.5611685507356414, 0.7881106870658037, 0.5694048595845974, 1.1456148020447712, 1.1599399523224982, 0.7045283196032088, 0.34904075757545217, 1.1592612953003354, 0.6698577631475714, -2.2935968130354305, 0.8052376438223066, 1.749310020835095, -0.1642582745586035 ], [ -0.07410104674407912, 0.06353706056511953, 0.05879500999321939, -0.1805929389284282, -0.4409390838848693, -0.32095129929908983, 0.04680621210869356, -0.15811824722368406, -0.07663668828477443, 0.0028629306701693806, 0.473052254831956, -0.4276433000606503, 0.07062477359557251, 0.3984566326847692, 0.3423422213239707, -0.44854815437104, -0.16255635288696638, 0.5780312242686769, -0.3678006530648599, 0.24563068974478405, 0.016225425375495976, -0.11657708754107286, 0.7543412398328135, 0.1596298005058112, 0.43620830783229464, -0.21504344670831285, 0.5754368984068504, -0.9336967416675602, -0.22907613297831422, -0.7483585044439415 ], [ 0.8278556595080488, -3.155095392060013, 0.20173023392872635, 0.7112020594222699, 0.8923315952562144, -0.9453189644687086, -1.1336892177591307, 2.4100818167035785, 0.6862920953622095, -0.9571100255556259, 0.4722868665328975, -0.2900844545793595, -0.7890381978621468, -1.0171520795549205, 0.5479469483864687, -2.2266483736426514, 0.30583413489326405, -0.40208468980866074, 0.12115545362105737, 0.8442612920388703, -0.4872388927288965, -0.642971424670951, -1.2441786276299935, -0.8716070416454601, -0.5222716832854034, -0.472995821704449, -0.015115461363274105, 1.2827540554577486, 0.7488243782337137, 1.0071825847154594 ] ]
  }, {
    "Size" : 15,
    "ActivatorType" : "Relu",
    "GradientAdjustmentParameters" : {
      "Type" : "Momentum",
      "LearningRate" : 0.01,
      "Momentum" : 0.9
    },
    "Type" : "StandardLayer",
    "L2Regularization" : 0.001,
    "Bias" : [ 1.7604446584001816, -1.4263040571007644, 0.4484211144682389, 0.4669141185951427, -3.837265380834113, 0.6159929991820048, 1.9223365714532636, -3.8322680442581083, -1.059897658674337, -0.03364637971585392, -0.5045654095178902, 0.858386595136438, 1.6287505870695578, -0.4581683678590827, 1.3314789248021204 ],
    "Weights" : [ [ 0.9292446256442458, 0.18254137635614548, 0.48291553040677726, 0.11838884824554062, -0.2798813392707472, -0.8071761083425966, -0.3850200722794825, -0.15258514132084433, -2.190130739596958, 0.180945676029633, 0.1642732567631386, 1.3238924581456442, -0.7963794065850129, -0.00872998336557437, -0.971870787510816 ], [ 0.40518053688433475, -0.011686975680699468, 0.319143846009076, -0.1466951142352997, -0.6635594214929353, 0.3963232151944053, 1.0341028557885783, -1.0252391756175576, 0.2773456648001973, -0.9812362417655479, 0.558136425601008, -0.1289106627339508, -0.687677933331636, -0.015490391333279539, -0.294472661543205 ], [ -0.4288470538319614, -1.5888098027452315, 0.4543419164957776, 0.4930342488452012, 0.775390739262756, -0.3819476231589978, -0.4788853046343346, 0.47404010966935933, -0.406007787852858, -1.7235299771722665, -2.152838274420452, -0.2998193239579773, 0.011033086822181966, -0.010733203918169306, -0.8895147963179906 ], [ -0.5732543730656773, 0.5101519249224521, -0.43837202212989207, 0.07186334318494997, -1.7101078524788165, -1.3807766585937786, -0.14794681512891952, 1.0394719282678553, 0.7711739686686818, 0.6338089850569301, 0.7274616544517859, 0.2795049121499074, 0.04614076068454218, 0.004908569854563745, -0.47502353469008923 ], [ -0.37086835385686706, 0.12369994190728514, -0.20891371495382605, -0.10791877482101196, -0.9575241794353541, 0.34176926247565165, -0.4001217051230083, 1.2844271521332804, 0.8836061756996942, -1.9426685089328564, 0.16711241524763992, -0.5395298544889598, 0.5138600298192081, 0.003704818336901048, -0.07085857735546477 ], [ 1.1901294215954543, 0.08774461173009966, -0.2967401538862108, -0.4919332394443938, 0.45179826702671044, 1.0709223534581873, -0.7069222978453026, 0.6103407444325238, 0.7113298003944005, -0.47608747196323775, -0.7078521941504378, -0.2357569817481605, 0.9189661893598424, -0.008805686506475768, 0.026845844525449847 ], [ 0.25594134524090656, -2.1231899993001453, 0.30789958700503317, 1.0078734031961807, 1.0208610528520021, -0.24809087688346423, -0.14778657654131536, -0.11683814062928534, 0.48277004717079347, -0.4600329327692797, -2.0604392922994217, 0.32432327120934357, -1.1029952425000298, -0.010695457156958806, -0.269577995644851 ], [ 0.07399048902796673, -0.29105002258193596, 1.1477601887656121, -1.728955147268114, 0.006589158743182132, 1.1691734957328035, 0.038350547578397925, -1.4552530989593002, 0.845333757919354, 0.23867327465919547, 0.86304542334608, -0.6508435235667177, -0.7274009708267194, -0.003790656079162661, 0.30860597364617715 ], [ -0.3592375682700691, 0.022946317999193097, 0.45314108477318094, 0.5304677826904137, 0.7806730835814413, 0.2955990506780803, 0.038513543329666465, -0.6186032088446773, -0.4767536637347246, 0.6356974944078682, -0.28672711448219224, -1.685336010817155, -0.32559782376577356, -0.009749982049603857, -0.06064124163926655 ], [ 0.4158738684880199, 0.024935812037505552, 0.03457180597962461, -0.6058437987233374, -0.43426499971393323, 0.08945411595929592, 0.10991865882477499, -1.3779273056201589, 0.13761574690144784, 0.450716784979968, -0.913028618418952, 0.6096212129615544, 0.22845174663765666, -0.007328632859021062, -0.2966898229456522 ], [ 0.2392864554864469, 0.5420500991497155, -1.05830935067087, -1.519983830131798, 0.0033100607960363532, -0.0030949347623705193, -0.16650287683229673, -0.011612134700490691, -0.8898188005620072, 0.3552801394924548, 0.13276538526711315, 0.593462645445571, -1.5908605728211407, -0.008103787269540651, 0.07333521948319506 ], [ -0.5440056031309095, 0.2769953188224699, -0.3352047040953517, 0.05730086976509756, 0.38576155480662755, -0.5071832437292961, -0.06304225486813315, 0.17068499418601338, 0.17861801432937924, -2.0625644154559786, -2.1674097680801623, -0.8737747355066627, 0.3822670512505603, 0.002570888505809134, -0.32989073521013007 ], [ -0.2568439799269131, -0.15551906265789098, 0.3701020323627729, -0.36483329451474333, -0.7215748810579852, 0.1286764768019722, -1.0095561130459088, 0.3656281006701709, -0.04345368727098236, 0.5065641394019482, 0.9561088166615251, 0.4407213689164747, -0.030360681010505552, 0.00907173500314042, -0.78280431082917 ], [ 0.40645758527098713, -1.5493700062832068, -0.8444541185346116, -1.4624557338749757, 0.15075142017013177, 0.7435266583069101, -0.25260489860923035, -0.19866992245176823, 1.4012453138530971, 0.45977685178275085, 0.26406798432517126, 0.07691834027531692, 0.3926579831616821, 0.006951295631682687, -0.3785789964216175 ], [ 0.08727587981798683, 0.41973931011463356, 0.37548772555188653, 0.43909659858545924, -0.045815064903494976, -0.9970847392372308, -0.7716857706239154, 0.7561104717914209, 0.6293340394151847, -0.12955686959105064, -0.3279257810516599, 0.04284146112833237, -0.29832012793298895, -0.00876238372816655, -0.22105555648795283 ], [ 0.40246187968298885, -0.39763255825426613, -0.2829665283504953, -0.132021140445264, -0.04428789104178139, 0.15542969797377773, 0.09461260595917691, 0.5371007993906568, 0.7169543682691952, 0.6105832506539332, 0.8088021478004733, -0.8942868727197857, -0.21067906492590796, -0.00224617363453668, 0.33540836250774764 ], [ -0.12628229419214207, -1.7664650481475543, -0.4487558617908437, 0.028817449928246665, -0.4713262109853268, -0.8302791300337673, -0.3280410982819332, 0.6021352290679585, -0.24959169126438646, 0.3516899117917602, -0.9821614611058671, -0.44336302373535263, 0.8767454798016291, 7.47430834706556E-4, 0.32060917067622174 ], [ 0.062018028834086726, -0.14186458745079103, -2.8637441634179295, 0.38808208365615965, 0.03652922950511147, 0.27863328119955133, 0.2696066608862503, -0.2460485125871224, 1.1331669486358593, -1.2925541469876936, 0.30745289879098964, -0.40168050514956816, -0.16920205001917388, -0.010429689532036343, 0.8967427506356296 ], [ 0.4208430475305736, 0.28345665770992295, -0.9447938277942484, -0.47263908936326926, -0.003962198359386648, -0.1618515202049264, -0.03211702287893881, -0.966604692240904, 0.025082986953009555, -1.3758370361807768, 0.16059400983914546, 1.045457221288853, -0.46781081169497474, -0.004256852750673637, 0.30509937494676925 ], [ -0.17070769633453184, -1.0525243937762108, 0.1302635355654122, -0.9710629190816007, -0.6199861704259314, 0.2600403337944634, -0.38184912010162153, -0.7207277085505329, -0.719845199410751, -0.28684804351947285, 0.4055336465562134, -0.8133658114896337, 0.3575518450547305, 0.0048053275860507495, 0.2245095032967476 ], [ 0.29215022577390004, 0.27072944120655845, -0.20504291313766648, -0.9229195236750934, 0.013361486572511964, 0.36943982366979206, 1.1009024178069347, -0.5410312493743004, 0.8028257709381986, 0.6346854388633493, -0.1460941572733428, -0.42930239871595965, -0.9670008343615228, -0.013565224306650149, 0.2425825634230104 ], [ -0.1916566393678953, 0.13735558876190537, -0.22692063656405656, -0.7457085379911977, -0.6604882929705985, 1.172249323600353, 0.08037930101916749, -0.03255865548156483, -1.0162469250113821, 0.16915038477442293, -0.12310004764232849, -0.05068852778002643, -1.6904851312097882, -0.002222791708258067, 0.8582991858530796 ], [ -0.5761428097466659, 0.18205712743422078, 0.8693739305750564, -0.0948701595632331, 1.1886106740217834, 0.6203985213898087, -0.08252721896158327, 0.6517229697114584, -0.4418067387782844, -1.1075541224361016, -1.1071570646898854, -0.017184094647928146, -0.39070794661272723, 0.009351775880136541, -0.4842847982962294 ], [ -0.6595113760733288, -0.2273652929938592, 0.7670557267963176, -0.5694015498884136, -0.4017301898816001, 0.7073783420225779, -0.5306921247157803, -0.3400674793557651, 0.10742331382295461, 0.13934400427806296, -0.894972299065316, -0.732735105221308, -0.13791336683570712, -0.004846561872769424, -0.34751859256288997 ], [ -0.3005782314617571, 2.729516848240072E-4, -1.0719780737307942, -0.32718286544014735, -0.31660695004852873, -0.24312489075019655, -0.0714006498264709, 0.29850682295251674, -0.19000031945976378, -1.269652997759706, -0.361138136112864, -1.1164045876591366, 1.0648766594541599, 0.0026122547917619716, 0.138181153717437 ], [ -0.44327328111761916, 0.5353323602107947, -1.1923331570220703, -0.20780510110996714, -1.5297480156946224, -0.4016502966234688, 0.45717766754538147, -1.1821572103032723, -2.1190496276452513, 0.389131881360834, 1.1957881460974888, 0.02911197443914307, -0.8289756813891624, 0.0018469785849366828, 0.2729333401039656 ], [ -0.45234676737504514, -1.7309193787151822, 0.314976499190004, -0.5725334003775462, -0.09703385686462812, -0.06386272342320638, -0.6136071171766828, 0.14800971478918187, 0.4594466903640827, -0.24308761765748468, -1.4990501190363243, 0.8402854101098489, 0.33559698465481486, -0.005307111471149529, 0.08938435347880234 ], [ -0.5365013960827371, -1.0398806743447877, -0.946109276052798, -0.4479098841142573, 0.4528061405791553, -2.5159440320133153, -0.21714284741969742, -1.1980866358544628, -0.4708980546953035, -0.10329943291785801, 0.3652706807675637, 0.31094924875500346, 0.4173963015133637, 0.004861202092727062, -0.07203487994688074 ], [ -0.2822672124755198, -1.508021805816867, -0.8956955988272511, -1.0760716575948397, -0.008545033692102091, -0.9801734042377173, 0.933581430852607, 9.618248936880884E-4, -0.8823884315201149, 0.774828309747217, 0.5544091388806893, -0.38723026370175795, 1.5743674575222664, 0.003285822865285064, 0.2890916784285326 ], [ 0.28661683518084685, 1.3850122923534354, -0.6083504554286763, 0.49459658697061515, -0.18283565370576663, -1.6405263704314421, 0.02441193455176981, 0.297825477634543, 0.10418191538283154, -0.9220255661162962, -0.8619399237040615, -1.1959061941493419, 0.04924852447261401, -0.0073195709122043755, 0.2351736307185607 ] ]
  }, {
    "Size" : 1,
    "ActivatorType" : "Identity",
    "GradientAdjustmentParameters" : {
      "Type" : "Momentum",
      "LearningRate" : 0.01,
      "Momentum" : 0.9
    },
    "Type" : "StandardLayer",
    "L2Regularization" : 0.0,
    "Bias" : [ 4.305834578681425 ],
    "Weights" : [ [ 0.781643137820332 ], [ 0.41367722520004513 ], [ -0.44405329833927537 ], [ -0.5222095208981938 ], [ 0.41240464674487426 ], [ 0.49582060559968666 ], [ 0.7409122424764266 ], [ 0.36766891260908013 ], [ -0.47266864366244127 ], [ 0.41722909892880394 ], [ 0.5569947572905503 ], [ 0.6860343905399269 ], [ -0.5072237327752086 ], [ -0.260983294577695 ], [ 0.5450981789741749 ] ]
  } ]
}