{
  "InputSize" : 7,
  "BatchSize" : 32,
  "Layers" : [ {
    "Size" : 10,
    "ActivatorType" : "Tanh",
    "GradientAdjustmentParameters" : {
      "Type" : "Momentum",
      "LearningRate" : 0.01,
      "Momentum" : 0.9
    },
    "Type" : "StandardLayer",
    "L2Regularization" : 1.0E-4,
    "Bias" : [ -2.6352681914745695, -2.491725546197126, 4.149415651220289, -3.5390582282597163, -4.054121705721538, 4.855293408444813, -1.8700228035108057, 1.292619977321499, 1.0268290201608877E-4, -0.39408910031532113 ],
    "Weights" : [ [ 1.8805999867317449, 2.691281147762711, -1.7784716539519358, -2.0243978548968498, 1.12095262049836, -3.5863835604968815, 0.7487920304035852, -1.9391257729303093, 1.8750948443463777, 1.5009329327923595 ], [ -0.07395696130480468, 0.008791735689568047, -0.014494814966496242, -0.033260607396813024, -0.013891456030526848, 0.00978885100315481, -0.07756820219215, -0.015200537611466834, 0.04777444452013176, 0.03216353313405639 ], [ -1.1511206101482458, -2.527515911138202, 1.337470657895784, 0.5151037015512345, -1.0027445895363045, 3.876413263466684, -0.578338998532402, 0.8463207853856305, -0.7595052473570421, -1.3564221891403367 ], [ -0.48259188793955526, 0.9105146379052672, 0.7324920570436597, 0.8185449674720908, 0.2626648397535112, -0.7858969644879112, -0.3150385508808466, 1.028297166229568, 0.12616994531347459, 1.1329325245126403 ], [ 0.7303651002852118, 0.9952643802371087, -1.6801582422694556, 0.833603975594079, -1.370465685486466, -0.9121034717184571, 2.0207240840021945, 0.859291109592231, 0.08758662599722171, 1.110205979231025 ], [ 0.13650809603942854, -0.08680304775118455, -0.018310019668587172, -0.020338703780052206, -0.0134211518993315, -0.10338780700712184, -0.09657441839214413, -0.008309876156115838, 0.07983674077857833, 0.0076942567013947236 ], [ 1.357472070209106, -0.21511765522362827, 0.44020700671311774, -0.0757356807741012, 0.32650251023192073, 0.24288712810060406, -0.9606060965890673, -0.5095109378979678, 0.21940936011556372, -0.21511627296978975 ] ]
  }, {
    "Size" : 1,
    "ActivatorType" : "Identity",
    "GradientAdjustmentParameters" : {
      "Type" : "Momentum",
      "LearningRate" : 0.01,
      "Momentum" : 0.9
    },
    "Type" : "StandardLayer",
    "L2Regularization" : 0.0,
    "Bias" : [ 9.075022330585663 ],
    "Weights" : [ [ 4.430874654799014 ], [ 3.9187816710857177 ], [ 1.8037012023693446 ], [ -2.115028473215513 ], [ -4.239989081016711 ], [ -5.5475551347807075 ], [ -0.4918655436214541 ], [ 1.2456054012580096 ], [ 1.1650383453599906 ], [ 2.640225727374052 ] ]
  } ]
}