{
  "InputSize" : 7,
  "BatchSize" : 32,
  "Layers" : [ {
    "Size" : 15,
    "ActivatorType" : "Tanh",
    "GradientAdjustmentParameters" : {
      "Type" : "Momentum",
      "LearningRate" : 0.01,
      "Momentum" : 0.9
    },
    "Type" : "StandardLayer",
    "L2Regularization" : 0.001,
    "Bias" : [ -4.108400364542335, 2.623165639279893, -0.5409934646805586, -0.08201220243504297, 0.402863841198021, 8.672557730869793, -2.040054980886735, -3.2506550505527603, -1.323330768419963, -4.710688255213273, 3.4977445775319276, -5.7156963378703685, -1.262634953774304, -5.016010838125398, -2.4170833619005023 ],
    "Weights" : [ [ 1.6961471530316774, -1.7331524539538181, -1.0483411686580737, -1.6571442925766233, -2.0777272082205176, -2.2359013581047273, 1.7409060279463602, -2.237935436421364, 2.6292244873775656, 3.7873874160738352, -3.58163643287106, 2.4594113738546257, -0.7199878488760916, 1.9771109406211562, 2.7861444132106814 ], [ -0.07334772847165891, 0.05340407191957073, -0.05685837828444112, -0.013392126164175032, -0.0059850044291104975, -0.10175404913348308, -0.0021152437542635506, -0.0480595533249322, -0.010973542012658696, -0.06713566844852123, -0.020171785594189504, 0.0472578440796069, 0.011219952376929587, 0.152338245488177, 0.06971956812842785 ], [ -1.4751333663167459, 1.1309349073231545, 1.0124150518473345, 0.2508511106228666, 1.5036640489713753, 1.6152611642743913, -0.8817765794265011, 1.0894964793657513, -1.310368686815301, -3.3503878918961365, 4.776025476380594, -1.5977202821054561, 0.22966444428171798, -0.669777819915735, -2.1095049617691717 ], [ 0.3758203385691954, 1.6794071551415393, -0.7309900983943388, -0.4208290484754266, -1.5662695501668338, -0.7517040597298094, -0.3830558043166262, 0.9290202347103148, -1.4328727750116617, 1.162036778637357, -0.42738266866230556, 1.3039977310507107, -0.5302901729611125, -0.1557561772411552, 1.5177711001436855 ], [ -1.555892131935648, -0.9076786705897648, -1.761653208036899, -0.340685311390595, -1.3441853847394671, 2.6307936867064248, 1.1917278238404345, 0.6664310364628989, -0.5003664213760507, 1.3597155136242025, -0.20510991163183742, 0.9407947693658699, 1.5542107166320434, 1.3879025466291521, 1.5073888250469298 ], [ -0.017055812177436666, -0.03464691016610808, 0.026088024530663743, -0.0018216115883758043, 0.08076159093222424, -0.059457223476280636, 0.05913257224025062, -0.07920723997164246, 0.07608157229917975, 0.021825675768344995, -0.11748406119529715, 0.059654153735162016, -0.021964990418045054, 0.09267474835166369, -0.1377219707392827 ], [ 0.4008669053575656, -0.4036528802986285, 0.13499180847862666, 0.13419970182050994, 0.16636526254933778, -0.0713247569271795, 1.4296192540910606, -0.02405100899709368, 0.6898071537756673, 0.07785830575966037, 0.6319693914266433, -0.3293389515063804, -0.15177757407830292, 1.5049361698267816, -0.3093781275355576 ] ]
  }, {
    "Size" : 1,
    "ActivatorType" : "Identity",
    "GradientAdjustmentParameters" : {
      "Type" : "Momentum",
      "LearningRate" : 0.01,
      "Momentum" : 0.9
    },
    "Type" : "StandardLayer",
    "L2Regularization" : 0.0,
    "Bias" : [ 8.7257478348053 ],
    "Weights" : [ [ -1.9699521164444431 ], [ 1.041821683350714 ], [ -1.078642376686739 ], [ -0.738141971346459 ], [ -1.599836059400359 ], [ 4.806956957152871 ], [ 1.7010241000446147 ], [ -2.0578574819330515 ], [ -0.7269391423275078 ], [ 2.9445841798428147 ], [ -1.8963063676273706 ], [ 3.9523129565434 ], [ -0.7939164470842931 ], [ 2.8273852159844504 ], [ 2.285872686163311 ] ]
  } ]
}