{
  "InputSize" : 7,
  "BatchSize" : 16,
  "Layers" : [ {
    "Size" : 30,
    "ActivatorType" : "Relu",
    "GradientAdjustmentParameters" : {
      "Type" : "Momentum",
      "LearningRate" : 0.01,
      "Momentum" : 0.9
    },
    "Type" : "StandardLayer",
    "L2Regularization" : 1.0E-4,
    "Bias" : [ -8.09353470394644, -2.03970677876178, -7.132547908778449, -0.21373345217162762, -7.057150352684336, -0.37705503874296287, -1.4714471614369806, -3.464090959419141, 1.5072058775794688, -8.818132213942064, -8.085333906873453, 1.383977098149756, -11.08206986899302, -3.729262035037556, -0.6896308254490376, -4.887053340444387, -1.532907285991003, -2.8352150523400863, -0.781737666761492, -0.4459664363792187, -8.653834394598311, -5.679574391286455, -7.924697376229052, -6.3579250592108805, -7.619643387798016, 4.644049202396362, -8.50520340818435, -6.748439815448516, -8.647595390457106, 0.4044234113355459 ],
    "Weights" : [ [ -1.2032877150934582, -0.3606273113086368, 4.680733223830978, 1.878489618072769, 0.47403917088022823, 0.2957548336129081, -0.6639810675223952, 5.7933166579022854, -1.3781205729283263, 3.5889776109244984, 1.8850531723322532, -0.5857081336702298, 0.17236539808845475, -2.2170456391898896, 0.03738460490599163, 0.7684210906941857, 0.3210893520346379, 0.04411428502685971, -0.017753170901299534, -0.06766845137025863, 0.804455078806006, -2.2791014650746573, 3.7133580370165284, 0.6015723747649417, 1.7840965175311791, -2.778558039716688, 3.959473170365029, -3.8308994367189593, 1.8796309721135898, -2.6819876901502675 ], [ 0.08423800513586759, -0.1852983797821053, 0.026236625941525607, 0.22050710300077955, -0.03266839658290912, -0.050747058408244575, -0.08659868132924486, -0.07988206632654452, -0.1418264669041584, -0.19297226937901002, 0.0029861699037067634, 0.12298280067818379, 4.71287579812403, -0.08562234645122958, 0.01652853947225028, -0.020747246305565004, -0.18596450315643626, 0.1363306845792661, 0.02089916297984102, 0.0029743631155435836, -0.2944589262052297, 4.126707221841529, -0.4903963288363666, 0.07121603524587036, -0.05408946759496237, 0.006132608024043939, 0.07792347422242804, -0.20187915266678685, 0.24380934609545393, 0.21672080858124498 ], [ 0.7883174008624902, 0.5888906711902002, -2.6440077103079025, -0.8407506203630882, 0.26556076180928895, 0.27536589157679814, -1.814563320501236, -7.577271419083458, 0.5679155897186302, -4.047304591666369, -1.7877687267732887, 0.7356802283977745, -1.147275564741265, 1.3040811317831889, -0.02455213253738708, -0.49753597031416025, -0.1926606759214299, 0.09460483862110965, -0.013165493021855915, 0.04961964105548691, -1.2174405302755158, 0.5986700323168552, -3.1840131269915424, -0.7266016702011241, -1.7727794522053109, 1.3016668197397883, -2.969542010949959, -2.2604091304255656, -1.4692225831082872, 1.1710221530190659 ], [ -4.076998296178858, -0.7306340265788107, 1.5192732825286013, -2.4858210971904784, 0.2464711516115369, -0.35665163214126405, -0.062403342248031186, 0.6702607925964084, -3.0370424477199727, -0.07673897286435821, -0.015663450377411337, -1.469887742501785, 2.4261501461865294, -4.259475210125538, 0.03215385760441567, -0.3154308209918483, -3.751126805635528, -1.1094736437629562, -0.003681361500501037, 0.022591602823950847, 0.04679623918032285, 0.0903411892209336, -0.27266860979896757, 0.0858755277552511, 0.4963755877960379, -1.5396925098442844, 0.07962187221423983, -0.0950486420798074, -2.1471045464877037, -0.41219529721671005 ], [ -6.805081702859921, -3.62017471983179, 2.593916601542773, -1.510679194922128, 0.31538368464472777, -2.0902914183806, 1.0950921814607737, 0.38706508805232087, -1.2447603163331065, 1.1321386059828937, 1.8272317416270236, -0.40094843867916397, 0.3409927763139344, -2.288895833857772, 0.021233005107053084, 0.1584862173646547, -0.5511044569502196, 2.6212227999804765, 0.025755824172041097, -0.0020031855288602214, 0.0023559455928592564, 0.03775319700801008, 1.696171569439577, 0.5022007028881759, 0.507252148521912, -1.860394579135305, 1.5217990410362603, 0.2705227077515639, -6.777725450015977, -1.510036422757273 ], [ 0.11731017631022174, 0.08757643554717273, 0.11545775391488032, -0.04303029927382544, 0.012875789001684292, 0.21333118771196216, -0.07086699777685798, -0.13250582316025256, 0.1860468772895466, -0.19645495744953845, 0.10523724468989802, 0.18527848324378496, -0.8182872120476953, 0.05680089078422761, -0.007894176807877391, -0.012063652267468573, -0.09661523886101729, 0.03700801934246076, 0.0033299645894853095, 0.008733275412088863, -0.3514778973069208, -1.0470213185615147, 0.2938107421637892, 0.17309184242635398, -0.22480874110775065, 0.13397504111673708, -0.19299194389674604, 0.2573965896974004, 0.4368846176061277, -0.3603773405156588 ], [ 2.325539155800138, 0.8521430150850188, 1.3776185983770128, 0.5539578724234924, 0.2736910364960896, 0.6216834841258143, 0.5471169315742808, -1.0442889801934196, 0.8056473108587597, 0.40465763417057465, -0.27677328669665496, 1.507627857767892, -3.055762581834126, 0.3086381531872112, -0.0221108272829938, 0.583915298860714, 0.38852936441290753, -0.6612382093981177, -0.044224870160554514, -0.04729353586114148, -0.18949282987051438, -1.6049281131503814, 0.026087146839023783, -0.17061168713455646, -0.4471335309095584, -0.45652222609268817, -0.13014389684504174, 0.06744107966319504, 1.8236204131936042, 0.4254232161511182 ] ]
  }, {
    "Size" : 15,
    "ActivatorType" : "Relu",
    "GradientAdjustmentParameters" : {
      "Type" : "Momentum",
      "LearningRate" : 0.01,
      "Momentum" : 0.9
    },
    "Type" : "StandardLayer",
    "L2Regularization" : 1.0E-4,
    "Bias" : [ -6.386481037564944, -3.77407313621467, -1.1315088509620355, 1.0514590207734482, -3.7862519460214075, -0.45289354851131247, -1.2327374483123075, -0.5527985449214117, 3.001339870970215, 5.188329069788753, -4.223623892031592, 1.9218821650710995, -2.639067790778029, -1.357257531853571, -2.41540024982663 ],
    "Weights" : [ [ -0.8489282504517472, -1.0011825292025516, -0.1052953282479169, -3.1015550424001956, -1.3917786122618316, -0.03567794198572273, -0.10560877995021001, -0.06889695760978458, -0.1668440811057413, -0.1894081210554194, -0.4927657837188726, -1.3175020783965659, -1.3775381898927272, -1.6384737348520793, -1.531759297028899 ], [ -0.4667165555253925, 0.41587818327887893, -0.09267915788538152, -0.21682673763085378, -1.0286160328537526, -0.15279877983947543, -0.03838726369152772, 0.004735533061388013, -0.38938402274083056, -0.38107741254893124, 0.5081372729132769, -2.269151145833809, -1.4698699128828152, -0.42990153871659775, 0.9028307420592985 ], [ 0.05383706905937637, -0.21266322165787105, -0.021174060099986843, 0.5099450670142519, -0.15356914663464197, -0.06439662508908901, -0.08280244128008629, -0.10741165071900542, 0.5470112330045954, 0.2749337467070913, -0.6908194995116063, 0.9303063585709268, -0.8889511598004493, 0.12889447180634064, -1.459593020053742 ], [ 0.5864720267735278, -0.01803845616353832, -0.27006592104914323, -0.5963168367850933, -1.2310042118291793, -0.11065549335284175, 0.008902561672340792, -0.06331399310802659, -0.30430282280892934, -0.3128552637736136, 0.584936137457341, -1.2527610421202686, -0.28191088014805116, -0.29604133156425777, 0.042216505687590715 ], [ -0.03216308493150706, -0.14328277325305275, 0.47925194899089774, -0.0753933584343212, -0.08420745328285263, 0.12374313379486591, -0.05054225657760595, -0.04152526639332372, -0.03649831837280227, -0.010368927695819643, -0.09558325812202172, 0.1399335813078132, -0.2843164126201061, -0.27320464988058674, -0.1248258657979339 ], [ 0.5445293151247361, -1.7038985915197382, 0.07038174429438446, -0.32324516322473307, 0.5054820367149039, -0.08682024176779447, 0.045419092414889145, -0.02797537202575777, -0.21822252404284198, -0.2835872001568378, 0.5310097275380196, -0.8858395314010866, -0.3194222506926514, -0.53359875861214, -0.25712126508307803 ], [ -0.4917732578310011, -2.2135533786700523, -0.10903726609992395, -0.5335645405791922, 0.050197358298627454, -0.029779560686250806, -0.1252239751482269, -0.11072510909846224, -0.3986107354316167, -0.23995763679142074, 0.537944562038531, -0.25488192176157853, -1.1211080537003477, -1.457040407314752, -0.1229681110886055 ], [ 1.088573311008206, 0.20743502999807967, -0.4982857116113128, 0.27641207637960835, -0.11904110243086405, -0.19846913195633425, 0.05342965201842621, -0.03244140298030509, 0.27565194822232586, 0.806964627299628, -1.851779022988179, -0.37800803070527406, -1.7488055290457054, -0.5920058051282117, -0.562568160109396 ], [ 0.3475264785962483, -0.6994857036100823, -0.3394958363627842, -0.3415880736989446, -1.1703206583425685, -0.1018904135239962, 0.10657584169804077, 0.008400637783211578, -2.57023292625076, -0.5505708737282274, 0.7604145638489254, -0.7162135094285906, 0.1260641209558967, -2.5737912137761487, -0.732048763342445 ], [ 0.22783403589721957, 0.2872672628779121, -0.25253755170832337, -0.2778888586561964, 0.18061327011584802, -0.13388212247179174, -0.24434130802004375, -0.06060993496179332, -0.009789622872525687, -0.14050770682146504, -1.7070842881408013, -0.14579649176397286, -0.8457537433628287, 0.234118341968451, -1.7804283760327322 ], [ -0.13302221137937936, 0.20326588861171063, 0.048401795485932056, -0.733213575789305, 0.21554970799360806, -0.11989898516980516, -0.2840133470642274, -0.09241192663482617, 0.23435571551657736, -0.2307375694652703, -0.38615303183033745, -0.4202209570325369, -1.0258931160920255, -0.026067242986271968, -0.40863130935211794 ], [ -0.4293845983603588, -1.3460094193447647, -0.06928289279548976, 1.5324560900911888, -1.9248037080402989, -0.06223178617238521, -0.09425624723988095, -0.0026207671000943017, -0.9256731020433527, -0.5638959394767832, 0.05605295989241605, -0.703868647884803, 0.23535248533620967, 1.7916701936766175, 0.3641637874055151 ], [ -0.11811348532981455, -0.04174223292337927, -0.1122256894452541, 0.9807670452779605, -1.7201917527376707, -0.16637227704685187, -0.16383916726753664, -0.110023304197867, 0.3343832297759062, 0.23785311102957943, -0.856293333620548, 0.31777193539993176, 0.2529361764840855, -1.3153611058315584, -1.5496825906441003 ], [ -0.32347468155390185, -0.43160333353260655, -0.020519391928224023, -0.5611209844168475, 0.2146199720710833, -0.041659305279457826, -0.03717133760682207, 0.016781372598795967, -0.18365526058243442, -0.3433781621816147, -0.8217420280297361, -0.30167547929063676, -1.13822601498749, -0.16442078013159964, -3.776397450212003 ], [ 0.012065144776828416, 0.011599074401825716, 0.07221342954284685, 0.023235067676383062, 0.0719356171812833, -0.04619328888324564, 0.009959831194259021, -0.013136037235104136, -0.04234942491561292, -0.0473009459798527, -0.0849964324240741, -0.008705322617647929, -0.08070996129743925, 0.004490224006126731, -0.026212727559108497 ], [ -0.16807441789972033, -0.10837003284918723, 0.056117596746982294, -0.07772106516279359, -0.1309601607463025, 0.01649314630848694, -0.12511940631719207, -0.036045939091061414, -0.09657295824609985, 0.020227234820284566, -0.08037114609908377, 0.10102699671792892, -0.13818493683834587, -0.13446346392590444, 0.06954154949956991 ], [ -1.9639236916740315, -0.8086775339487591, -0.07438972348838235, -0.7894930936845218, -0.9296979063638382, -0.011881986191796565, 0.033695973591959416, -0.07853575903453466, -1.268324926445057, -0.24999736425173003, 0.0783957040534246, -1.5506958542638958, 1.1910891428734534, -0.5730185090567278, 0.6387329782039228 ], [ -0.21356608148907075, -0.6905463835215769, -0.24468698147325427, -0.15013987021717312, -0.02366086991676826, -0.07422087451549667, -0.005122300563140828, -0.006981477149227581, -0.06626325046788972, -0.31432067994288676, 0.4214329614772509, -0.8281400612916053, -0.19224216001933725, -1.6892724106762234, 0.3509594520522921 ], [ 0.04960329443938847, -0.08976394496728347, -0.08799069072102211, -0.1300726527135086, 0.08637439175840833, -0.07904812232267482, 0.013491935476078028, 0.012306717499796466, -0.08409104874872149, -0.04682467101607019, -0.03584301037266385, -0.06938094243668415, 0.09003591387661261, -0.041729741985364076, 0.055851348397369355 ], [ 0.01853667158056064, -0.04949365989842363, 0.08932310104127661, 0.030140138410307476, 0.0731719774480906, 0.03251101397267274, 0.038891447013101585, 0.03720205748718616, -0.01875115320074975, 0.04850158764741822, -0.06531414460435624, -0.06515158299875466, -0.055633416105295756, -0.08827450494501707, 0.0593341721833785 ], [ 0.05773875256960248, 0.017324185897131743, -0.3385810934526995, -0.2523034965694229, -0.11692374045228159, -0.022986177365429034, 0.027805861025012417, 0.026287701045919234, 0.04511526171552524, -0.17963704848674825, -0.7714772362801685, -0.3532376337138208, 0.0024399567491098723, -0.0961448289389449, 0.08222088588316011 ], [ -0.24688669068696356, -3.4046591953266865, -0.023050216333289138, -0.5855298079676121, -0.19603656232865754, -0.08123714916359127, -0.016613187964338975, -0.12023474464318198, -0.3299108535746727, -0.04366448704538422, 0.07941672856137838, -1.9226657193808334, -0.41267499728204166, -2.16626228036282, 0.3238163789018589 ], [ 0.539783847835224, -0.08725970289091585, -0.028268644359139474, -0.4232507156383949, 0.44055530918799274, -0.08249742939902617, -0.005538045045347765, 0.02409645827398249, -0.018277054253702664, -0.16407082878410384, -1.354843323780953, -0.04650985663584906, -0.8933936090621054, 0.0364525723695761, 0.06188466117943154 ], [ 0.036296422341391445, -0.08357341403497445, -0.1009755954941024, -0.07076885432497486, -0.1179530072159879, -0.02426586142070502, -0.028882722143493068, -0.03758078569364636, -0.010468555923233609, 0.08826696023113866, -0.17433968660042992, -0.08733267362949569, -0.17254073142516443, -0.1653326419093642, -0.02999679722550456 ], [ -0.21437879044604594, 0.20520521176679082, -0.10929530343656844, -0.24382350418061968, -0.31989870573893747, 0.021142367011274643, -0.14846697337594272, -0.07463402917406811, 0.1680289977441508, -0.0028591402316709533, -0.09270867435531321, 0.10580822638646441, -0.007127178544814353, 0.07964716987380926, -0.43347358857178037 ], [ -0.6586092054699132, -0.2599986141324884, -0.05609183200570365, -0.7742527064400352, -0.6156369200458456, 0.009247754357043511, -0.080876116245258, 0.020604159912880383, -0.7037804109632938, -0.6768122059855921, 0.7042821510452513, -5.122521935938186, 0.4246596989325706, -2.290189231142533, 0.12334549897653425 ], [ 0.268487891991625, 0.0017120605321205174, -0.14824204131533353, -0.5591676450564905, -0.6210416016541892, -0.15242754757758506, -0.04395017394394058, -0.07718798051436182, 0.20532189249958893, -0.1436525440348697, -1.2841634239428827, 0.2925927204571181, -1.204239071550837, 0.07123607190175157, -0.7605984539950429 ], [ -0.18074156709083394, 1.031483426511016, -0.06319588565990426, -0.3918917574372121, 0.40953161734089544, -0.036343407626813214, 0.04588585580782103, -0.061522890500379804, -1.5868390831272505, -0.5040480527201491, 0.11870050132207362, -0.09967763061568144, -0.8795430641506696, -1.0356111696111887, -2.1779226250424504 ], [ 2.443031351939701, -0.2292613193445569, -0.06678274365366856, -1.7167614463364107, 1.5068721498049322, 0.1055094433830589, 0.015060532235609565, -0.12481215981903185, -1.437279617793294, -0.5572752256528974, -0.09208723977383122, -0.7244695284290432, -0.19843777378549657, -0.5234803473353756, 1.3040044167949318 ], [ -1.1393919500097056, 2.2131755251018395, -0.16047383147418007, -0.9614869029365349, 2.3266910506558323, -0.12216541516109512, -0.0879122040694526, 0.02104675234844613, -0.4129170444975898, -0.0522639464847338, 0.15957731604245365, -1.3035017196807663, 0.42661051498474084, -2.9417966587865365, 0.62430943499596 ] ]
  }, {
    "Size" : 1,
    "ActivatorType" : "Identity",
    "GradientAdjustmentParameters" : {
      "Type" : "Momentum",
      "LearningRate" : 0.01,
      "Momentum" : 0.9
    },
    "Type" : "StandardLayer",
    "L2Regularization" : 0.0,
    "Bias" : [ 3.9880301010842345 ],
    "Weights" : [ [ -0.5247023299086323 ], [ 0.08570309412709237 ], [ -0.19118574876443858 ], [ 0.6634114978091596 ], [ -0.4013310350667206 ], [ 0.03684527939551646 ], [ -0.11052672877318363 ], [ -0.0976523267845529 ], [ 1.0750729242977557 ], [ 1.2095283086314026 ], [ -0.44287210770274865 ], [ 1.1248837755352672 ], [ -0.2691277202066024 ], [ 0.6087396947379955 ], [ -0.3631957802324569 ] ]
  } ]
}