{
  "InputSize" : 7,
  "BatchSize" : 32,
  "Layers" : [ {
    "Size" : 7,
    "ActivatorType" : "Tanh",
    "GradientAdjustmentParameters" : {
      "Type" : "Momentum",
      "LearningRate" : 0.01,
      "Momentum" : 0.9
    },
    "Type" : "StandardLayer",
    "L2Regularization" : 1.0E-4,
    "Bias" : [ 3.6677092168841656, -3.2133051287302785, -3.8028298767396573, 0.7290428294581728, 3.34740578521004, 2.869098140901819, -0.917303677611591 ],
    "Weights" : [ [ -3.1969224436826313, 1.1814118523877193, 1.1526626050223714, -1.6737194405921714, -2.0684280308005345, 2.197563085434439, 1.6996384876328343 ], [ 1.0410811902654242E-5, -0.049861513383356496, -0.044479388953542635, 0.0030546781381572572, 0.024801337916442616, -0.0175036140947305, 0.10047821993873139 ], [ 3.869152926734122, -0.9663303892562879, -0.9264830107622858, 1.1648853536104513, 1.1625825869320745, -1.336028571408318, -1.8851158688711944 ], [ -0.8435952297360692, -0.44119209805772036, 0.26628906469756186, -0.2545899834604557, 0.21396706539460617, -0.9189411624795985, 1.0314325076054067 ], [ -0.6107415953094318, 1.4676573534874031, -1.400590792465511, -1.0115889083102356, -1.0322349974381242, -1.0906658342408457, 0.6819873277197737 ], [ 0.08274218934680133, -0.021112774277558664, 0.01866577514694761, -0.00763278509309466, 0.0671553753452727, 0.040150661273876856, 0.06138801910154778 ], [ 0.44331039977137127, -0.43739917528333, 0.2605934754311685, -0.7502337186797243, -1.1196030782821942, -0.033078005345023725, -0.4477172067170433 ] ]
  }, {
    "Size" : 1,
    "ActivatorType" : "Identity",
    "GradientAdjustmentParameters" : {
      "Type" : "Momentum",
      "LearningRate" : 0.01,
      "Momentum" : 0.9
    },
    "Type" : "StandardLayer",
    "L2Regularization" : 0.0,
    "Bias" : [ 8.27340588021025 ],
    "Weights" : [ [ -4.662390488814209 ], [ -1.6150339551364867 ], [ -4.956606482108803 ], [ -3.4328522164611726 ], [ -5.883480053481036 ], [ 3.0133731592671618 ], [ 2.8826776530725193 ] ]
  } ]
}