{
  "InputSize" : 7,
  "BatchSize" : 32,
  "Layers" : [ {
    "Size" : 30,
    "ActivatorType" : "Relu",
    "GradientAdjustmentParameters" : {
      "Type" : "Momentum",
      "LearningRate" : 0.01,
      "Momentum" : 0.9
    },
    "Type" : "StandardLayer",
    "L2Regularization" : 1.0E-4,
    "Bias" : [ 1.5988936570541865, -7.154594501607248, -2.8886265280579293, 5.300315029958804, -2.390841320689977, -2.120237647233003, -4.618505031919256, -3.3118635624085915, -0.6194519612405812, -7.132366572942538, -1.4710448527087188, -6.100194194526516, -6.098468062966113, -5.9826635147001745, -6.123759565206638, -5.882340609301822, -3.0650531200477564, -2.830543513567072, -3.8276166343798343, -7.75826032228108, -3.289365052591422, -3.5261817961403272, -1.616129684929638, -0.4366904452587864, -0.5098639356643478, -6.761340020221098, -2.1770023660166555, 3.1357923700442583, -0.2283716579912109, -2.9159786754170405 ],
    "Weights" : [ [ -3.675599115159575, 2.6282041530945013, -2.3690561684931493, -2.3920999660646416, -5.189025316637135, -3.422159566859742, 1.3694571775880677, 0.21391735912066256, -2.527386315753948, 5.802439541914888, 2.305709654451691, 2.149877835971654, 1.8522410635132613, -1.6987394984560817, 1.0577700575972449, 1.2021974077304025, 0.0708935556365727, -1.873957455127578, 1.1996570164298996, 0.5130946675325456, 0.29206127908260665, 0.7973236366728546, 1.4291932174173876, 0.9538247500784001, 0.9960948163369123, 3.47124080887625, 0.4854330530688065, -1.5575989842812952, -1.8076270190921868, -0.9410995125560703 ], [ 0.23504337966715727, 0.11658286877021673, 0.09775254754823615, 0.1373410089997968, 0.5637242122530177, -1.0972324836064902, -0.3155559785377583, -0.1211115347132639, 0.21641152873240488, -0.0015911604115790296, 0.23130760887826415, -0.19517317869801176, -0.004345415761230881, -1.104802843205189, -0.15484080538641823, -0.14166302115555507, -0.19113859461418328, -1.0898429260423963, -0.03930136055559081, 0.20512294523893157, -1.8186028353417667, 0.23262602187089854, 0.2390892127509816, 0.10528823380630425, -0.4268950094010566, 0.2563024945692012, -0.40827062564618355, -0.13483908941665368, 0.03663817534561562, 0.0745454270160486 ], [ 0.09173867233006108, -0.5523191141095761, 2.697183143795787, 1.003872440855337, 0.24175023065949944, -0.8065008460778706, -0.5888214428897832, 0.42462027836764343, 1.500510729202518, -4.795870371997583, -2.885679122105197, -2.770125699366493, -1.6684086676393546, -0.825550768515811, -0.24020731322099168, -0.9059982362122423, 1.0376892528671147, 0.09837359419677782, -1.0480518986215153, 0.7120641599380408, -3.1053108423873668, -0.8836406480719333, -1.0518226310228869, 0.674243920166836, -0.2742294543075278, -4.149525164555377, -0.12894225846310658, 0.491749585542544, 0.8409009882914713, -1.2105548081931656 ], [ -2.8842550580781663, 0.05392334180383987, -1.7702297079317937, -2.4761202412488967, -1.7173919916439162, -0.03235541823224784, 0.3814093497695923, 0.4955540155858729, -5.3984248119099245, 1.762217740839707, 0.47956698586365554, 4.249091577164239, 0.3303079404453469, 0.3115462298408109, 0.39990304580739405, 0.4226951131031186, -0.21144285394179094, -0.6219319606875665, 0.3943449540595546, 2.254568362882079, -1.310221262820574, 0.3478627862607005, -1.4973185649100182, -1.6403853044341383, -1.9823672770572487, 0.8896331163124311, 0.0997066175105669, -3.1234966201810757, -0.8805273700939871, 1.0714664717790559 ], [ -1.877472556584085, 1.7278236059657275, -7.358610124791715, -1.9208449107762418, -2.3992189609779477, -1.5341962643144806, 0.005773748534831093, 0.37902919929084267, -3.004117518211329, 2.393614638712537, -0.22560768324272887, 0.030018103288170405, 0.8544227378828045, -3.387869528132269, 0.7073893970398228, 0.9840373662753031, -3.4539011889034157, -1.927427716089307, 0.4321383477100926, 3.258728093180329, 0.8279040386344932, 0.40684634288305693, 0.6331790784303419, -1.6363588838029772, 0.41915038112101294, -0.05121944370277694, -0.026685733980287042, -2.3664342965883347, 1.5566282864676735, 1.5236732089277287 ], [ -0.08208022212666251, 0.5531260305733522, 0.1463407353658446, 0.06466708385219276, -0.06639166631994715, 0.4844598670877658, -0.1575989238320087, -8.174705018510117E-4, -0.21881390544035906, 0.09543505217833471, -0.11659325840832287, -0.009166609175499418, -0.23543280253239704, 1.5388175981829915, 0.01156729774001744, -0.03849768387592213, -0.21889199155217182, -1.1094775053683856, -0.009734289425968906, 0.568323612667667, -0.5824630154782539, -0.05236586634638794, 0.06753747137315737, 0.4125704032789623, -0.44327013383355146, 0.177101767104326, 0.07607891046390129, 0.20354271075502728, 0.13902729302469713, -0.09503689583687701 ], [ 1.7151999593031972, 1.8137825266066547, 0.2552839515270683, 0.7909348522767157, 0.7431328772280347, -0.1940014188829646, -0.27380569952213324, -0.534262335864196, -0.35291543747570553, 0.052656364553667595, -1.5889433979443308, -5.197178904850545, -0.3178572039407826, -3.5254934476183584, 0.6205422420162408, -0.775442797460074, 1.8600929729924187, -2.9287874190348626, -0.5497889402431816, -1.6867940296090924, 1.2809885867972235, -0.12114674692998224, 2.928800208161282, -1.126087377415356, 0.046424002507782246, -3.1972071507272246, -0.08176944377938068, 0.7990005745607295, -0.8499575613743365, 0.042605639427521345 ] ]
  }, {
    "Size" : 20,
    "ActivatorType" : "Relu",
    "GradientAdjustmentParameters" : {
      "Type" : "Momentum",
      "LearningRate" : 0.01,
      "Momentum" : 0.9
    },
    "Type" : "StandardLayer",
    "L2Regularization" : 1.0E-4,
    "Bias" : [ 0.6090098681487651, -1.543824352915587, 0.8734817785325492, -0.4877301410774945, 2.5277445534243705, -1.5089022283517142, -2.037870698679315, -0.7043532706420929, -3.250871784922078, 0.5992416311920642, -4.015877256452054, -4.848565780954486, -4.606319902173161, 1.0689717048397567, -3.5883361712499178, -3.7835448927991573, -3.0661843670403544, -2.594981897438811, -0.56413884791169, -7.524119048579378 ],
    "Weights" : [ [ -0.7120566633581452, -0.15651862553761253, -2.5694396755464495, 0.04745199087596495, -3.319040212246698, -0.1560956746170701, 0.6136351882663114, -1.3742046175847558, 0.13411190276402546, -0.08003299977035676, -0.4687110639075546, -1.6855702495942089, 1.26987898969024, -0.9123515099301308, 0.6651596579301787, 0.9050273467749484, -0.19954802096390623, -0.5179772553797206, 2.015943649780141, 0.26237222882211336 ], [ 0.13748412782439123, -0.9076379761908685, -0.17436570222409672, 0.1933903347340624, 0.34842099237256596, -0.6951092707948039, -0.19747629852279697, -2.2808308970769304, -0.7576884051487859, -0.13042262862544104, -0.2832158344833514, -0.202969460433998, -0.20839633749341005, 0.1660895272085949, 0.4246818365014088, -1.8541214650302267, -1.4405072319312529, -0.38066533148651566, -0.36278923947503355, 0.8859113173705064 ], [ 0.0028718041960559396, -0.13954870321533736, -1.2849204461334214, 0.1569481161471716, -0.3620926421262989, 0.7490972396014437, -1.3965126367861265, -1.9756191554403317, -0.22174979492915964, -0.583166830194123, -0.27990711921728345, 1.7711608198533266, 1.9796140257916999, -0.6069957419347521, -1.2683633571679058, 0.8198171085586782, 0.1532948072158542, -0.8417273700781706, -0.5454027265441874, -0.4237446898162806 ], [ -1.1790590399530068, -0.5668187503324396, -0.13333539039204276, -0.22857469715467002, -1.0584504946975102, 0.13646483307199642, 0.20558982397871228, 0.6784156059954537, -0.3231233110254347, -0.03209988176492549, -1.0997214144750544, -0.14625792664021153, 0.38118316466686225, -0.4754452020512921, -0.3686842543040589, -0.03778439645881788, 1.1823740724444372, -0.9495802310836193, -0.4176550344171826, 0.8334736362898003 ], [ -0.303049258227476, -0.8808570841214145, -0.1540151381149335, -0.38371276090559314, -0.6537657953530253, 1.4328724807364344, -1.7232094007585528, 1.5370489309389452, -1.5610879660396206, -1.8595345804582748, -1.2500996326456526, 0.5852599925916318, -0.26936924363042036, 0.0013273274083500121, -0.17836257799474148, 0.48874889830498636, -0.8357166820860016, -0.2962678656293021, -0.28132775737687093, -1.109521243939863 ], [ -1.8248963417272728, 0.22486773594741988, -2.318390821232602, 0.07205493165518723, 0.16556568772846778, -1.391451227148909, 0.8508299473852977, 0.21566853680341314, -0.6527217438174918, 0.0729887088659664, 1.6033682918604304, 0.12338799636221029, -0.5795891949178836, -3.1354966774991087, 0.8283453030371905, 0.7253756100274128, 0.6958758970545453, -0.31924553725752025, -1.7018436046660763, 0.409217641542071 ], [ 0.27297013253382374, 0.012177607630845829, -0.01698279384541659, -0.10928918943516869, -0.2931798643930546, -0.2351384327446905, -0.33874922070499713, -0.6441576805647966, 0.024665685506611572, 0.08649756599957589, -0.1346611374437121, -0.5165454099491275, 0.02291794513514145, -0.24450029420151292, 0.09595432765316915, 0.31732421969352537, -0.28930733463477576, 0.02686978892546255, 0.05915044491181659, 0.13986262740009853 ], [ -0.013138458702094138, -0.12199346579258237, 0.6295417531759622, 0.13092145068720754, -0.3718047005564298, -0.680293052283701, -0.18726252994681933, -0.3226206029720044, 0.03510359470976913, -0.4594873323109066, -0.1074510131767314, -0.19881682129670708, -0.31628051320075756, -0.24777600910659203, 0.9988501811919325, -0.05788002244060256, -0.3433961112351279, -0.15310911317196976, -0.262569937517544, -0.15318731788549692 ], [ -0.8076468814454956, 0.18152737990470694, -0.2930678667151017, -0.18961814618505995, -2.323171980536958, 0.7727214068209629, -0.06639366231644163, -4.317348444845571, -0.42621631181587877, 0.7626996132997559, -0.6255243389500995, -0.1538318588424247, -2.3521669648273176, -0.1866593059471889, 0.045937245071536216, -1.9506057482593828, -0.42276267412684043, -0.11746444925962088, -2.2515684785636796, -0.5119685624457072 ], [ 0.713689874104226, -1.1248214397310652, -0.5689920421269451, -0.326537368574004, 0.5804178369312927, 0.2697546913986877, -1.7608054445582897, -1.7300298165775772, -0.42906290800399455, -0.33834670557795604, -0.36265695501793493, -0.9098158107666563, -0.7174618164117128, 0.6458024490713974, 0.41776185695573015, 0.631120174271849, -1.7646604533121364, -0.2994610194348259, -1.3782813441886141, -0.7118977023900267 ], [ -1.226053837624866, 0.37419200633615296, -0.39336038557149644, 0.04335972057179104, 0.8140273101788226, -1.7091338115171317, 0.7904444393412553, -0.5195908017770163, -0.7075788860808866, -0.3549759264863803, 0.7267621605973859, 0.3666496155119892, 0.7546304136145151, -0.14832022089561708, 0.5889650925174736, -0.017303295012083456, -0.8396477788669996, 0.28786894589487455, 1.400434277089799, 0.9953709260927449 ], [ -0.14039665485939215, -4.709960553620189, -0.5803356248305213, -0.17153674747369813, 0.10212126825445103, -0.2104911909842198, 0.5110195873928326, -3.24040998299318, -2.0542094009024914, -1.2686192129825478, 0.5889400608488398, 0.337954905518482, -1.4158720399958113, 0.08941106342548309, -1.3837598463093264, -1.5796526783802243, -0.08896356649009657, 0.6343078848598851, -1.3634871396453467, -4.41789623139393 ], [ -0.07528925192302598, -1.6421000176235176, -0.7082535312556762, -0.07700556854122721, -0.2491153739279342, -0.5386595098301648, -1.900892745611986, -0.11630212338717899, 0.02839399856873342, -0.40252341462168606, 0.056572854105670194, -0.22228535577569986, -0.2627789475387497, -0.08605800965214913, -0.8409403580013923, -0.05192716060133831, -0.0714624757554023, 0.003378517386324321, -0.21522688881687246, -0.47629410140468664 ], [ 0.03910012150518585, 1.1254501203024567, 0.06186092107807426, 0.13794579557732606, 0.913086481533727, -2.423052226233264, 0.36113220594591033, 3.1639012634013937, 0.08375900391783994, 1.0740985091565856, 1.4485305798203392, -0.5114355713484163, -0.7706216818864315, 0.057982507875034985, 0.16700430882958953, -0.6151566861966623, -0.21996754495778903, 0.08916939749151859, 0.5689131514727555, 1.8968877638428385 ], [ -0.4493527537484849, 0.10969449624032229, -0.7127875625344567, -0.26215859540080555, -0.3293535821506975, -0.11910847278848767, -0.6232034198950154, -0.3744454923595636, -0.43782474810854244, 0.06305797347059482, -0.3582129884709554, 0.08775404968925081, -0.09370760021743896, 0.06390230496218609, -0.10127581898934733, -0.16783756544430464, -0.04000545670420474, 0.1920681903255572, -0.0319957142930956, -0.09787098454311241 ], [ -0.06933923738412306, -0.07926046668210172, 0.077757450266379, -0.256642008524614, -0.27143467698780605, -0.15471335756982205, -1.0041701310623878, -0.16947604759373938, -0.45750707682886205, -0.4900865826958015, -0.2677347861140415, -0.09600327292023081, 0.04379009058240983, -0.177810969957152, -0.8371844136683378, 0.015254962806541497, -0.7258548688140777, -0.11283864159730025, -0.47087268404188404, -0.1500106609812129 ], [ -0.2453614114035912, -0.354556947382884, 0.4542517772702881, -0.2708884942276094, -0.5453860017543629, -0.1487239472376379, 1.6411016208756963, 0.19370457681221784, -0.013961272008915847, -1.7538417438904441, -0.2361049670393181, 0.02785451412439945, -3.625525109503557, -0.6813033269996988, -0.12507739941790733, 0.8968032452684824, 0.456477223406933, -0.6253564102027076, 0.263403193272327, 0.7000219522780102 ], [ 0.6941280251969351, 0.7619644365713809, -0.811479676718998, -0.2690645749065524, 1.182509000332899, -0.5633023891644795, 0.7186375368231201, -0.11336232968538507, -0.21413462608604797, 0.6272655811230413, 1.2641944671575185, -0.5861226530953444, -2.688519210301409, -0.11178115818157411, -0.04050326362292872, 0.04284522111624541, -0.13473249531047807, -0.11447794695051405, 2.4282751542460503, 0.6501818423674223 ], [ -0.13794418671649486, -0.4412494470664072, -0.08666646527900203, -0.10990631645165194, -0.3430682462934717, -0.0963659971334194, -0.4044092337292675, 0.04270447923558383, -0.029433312528968157, -0.314829510642663, 0.1567158952065208, 0.07874472723171369, -0.0738041305013485, -0.17368973768692195, -0.21170288004242252, 0.19328722268869508, -0.19623627873955132, 0.11003618699660636, -0.11157476613816963, 0.09318364372623497 ], [ -0.7646904440482187, 0.9419737435849859, 0.9184628646086845, -0.19508249896416033, 0.7013294751424809, -0.18127913692881942, -0.22916226539521117, -0.9767691624214352, -0.28622426377665494, 0.029530589272451044, -0.49472488832628475, -0.03264742099468456, -0.05853562024624403, -1.2500149275230448, -0.09998883844771368, 0.22020803564222718, 0.8866178445449622, 0.9497600971832849, -0.8733729313843345, -0.20671010181642033 ], [ 0.09330372407748679, -0.5938214448383893, 0.4119281174557523, -0.274242092251471, -0.08921823240163959, 0.9834289225503579, -1.8086376959800428, 0.411708783727089, -0.7466021553299009, -0.25426027911420745, 0.8649582723105212, 0.5008039674519296, 0.930052941029955, -1.240657442170058, -0.05870628228683494, -0.6990193634931314, -0.5318417359384745, -0.6115515837172639, 0.1881885987434355, -0.828391646533377 ], [ 2.7961118927978307E-4, -0.44172291225068183, -0.2925197245691566, -0.1223680972153477, -0.12124004258975986, -0.24153092258089673, -0.6622897843455519, -0.35320461941980963, -0.14701682949169265, -0.053631576432961736, -0.29799938570470735, -0.3587307273679267, -0.18231984283776972, -0.10126061790596837, -0.26154470670752433, -0.2303261840429682, 0.036346301116840465, 0.013530729904678572, 0.044973467708528565, -0.4145111482864319 ], [ -0.19723333788997302, -0.3075740579149679, 0.6400474265088777, -0.1529062416780394, -0.23863691631136671, -1.4269491022968441, -1.2826908681399365, -0.15618674482541592, -1.733903375784789, -0.6874128780335077, -0.754165152918973, 0.34322077707614856, -1.0278612201615716, 0.669463550641976, 0.3455739223224483, -0.44929799663212, -0.7107864926331854, -0.7404403073321341, -0.380643980914215, -1.0070613923044571 ], [ -3.0761157983114362, -2.075799725756683, -0.21295708934862678, 0.13025864126396375, -0.39565682056674983, 0.335002342047977, 1.3081586775999157, -0.04601762846915775, -0.5605882972937263, -2.5810751912989973, 0.03179324531086491, 0.029842841324374553, 0.16139915865988003, -1.527427862236566, 0.05235265536692706, -3.025196145968831, 0.4172765723508265, -1.0604169549315765, -0.9485261938067842, -0.1403473606981605 ], [ -0.18427630612882503, -0.52853544632339, 0.2834504981112931, -0.1355625225008145, -0.4017543834000385, 0.2464011954280164, -2.5245966977646037, 0.6007176524555075, -0.36357444193317195, -1.4893273986248117, -1.1329222176563147, -0.6287839255512925, 1.4924879991553974, -0.20585020604176194, 0.4703902592742905, -0.0202846238904156, 0.10088745214326816, 0.04254207747837452, -0.9853970408058433, 0.8209717150210724 ], [ 1.428805618453875, 0.5616815273878482, 0.0023709433634862666, -0.10863254736390697, 0.5330604891801395, 0.20154789231453155, -0.3352056013481176, -0.08155817601670433, -0.2095540683144265, 0.0590049036866674, 0.007633793720378762, -0.3007789428185992, -0.33946970803431337, -2.0985873052522375, 1.8392954593553459, -0.17769653705607313, -0.11788032762085376, 0.12037824693552161, 1.0924790978488874, 2.645896198378263 ], [ -0.010124915708204738, -0.15773989339394565, 0.1313018878969536, 0.15682521327462431, -0.3439401872951992, 0.02787532278709058, 0.1033156207294642, -0.10778487878000989, 0.0027850676146282958, -0.0889220009164936, 0.10358031511432561, -0.04884842643820224, -0.044241930787406604, 0.0038649661824695005, -0.2318003352606422, 0.09268000585545597, -0.10887390614162251, 0.36419907233932675, 0.08574805415201793, -0.2293733067907432 ], [ -0.8514530014047395, -0.37211336426627417, -1.4766761660863024, -0.2154737777921395, -0.7542256256739277, 0.47762509862293634, -0.6011210359604362, -0.41432759570579714, -0.7296490516510729, -0.3651442346001972, -1.949389411580053, 0.06779099009208578, -1.1300044389101358, -0.6073950825339287, 1.0338706040970027, -0.7031468842033678, 0.37370390325101077, -0.6476557182143494, -0.3265106701955152, 1.1852615603266128 ], [ 0.9769162160029681, 1.2122407689798296, -0.42351250438539767, 0.10325871410295673, -0.4274204456563439, 0.5124329713046472, -0.5603260112826061, -0.4345222310082176, 0.8729482794406677, -2.68423845738948, 1.0733896083409409, -0.18373327118781682, -0.33835679056433565, -1.1748376545867127, 0.6507196503089936, 0.6993391190861076, 0.18353662692325282, -1.4512887274077788, -0.22516622107614348, -1.8657559285243328 ], [ 0.24334582047291778, -2.8545522107762946, -0.9506609107015596, -0.11904098377945829, -0.4601815211931646, -0.5597179742049778, 1.1083534427358477, -0.21740804446350442, 1.4905853613857118, 0.09408084338187253, -0.19491372378633406, -0.2605751156493673, 0.19131011368802286, -0.13952801260755696, -0.711006461537084, 0.8024793554433857, 0.5332977300431296, -0.3568580610072334, -1.3772139046611525, -1.0510657484022743 ] ]
  }, {
    "Size" : 10,
    "ActivatorType" : "Relu",
    "GradientAdjustmentParameters" : {
      "Type" : "Momentum",
      "LearningRate" : 0.01,
      "Momentum" : 0.9
    },
    "Type" : "StandardLayer",
    "L2Regularization" : 1.0E-4,
    "Bias" : [ -0.11736631841793754, -2.2455397318930657, 1.948599395741552, -0.0080066980831231, 2.3560715766581306, -0.038648899208644644, -0.44154730949554033, 4.519406962708961, 0.3619844157990471, 1.7690672270019012 ],
    "Weights" : [ [ -0.5627655662849396, -0.40214402421522866, -1.2908038034667166, -0.30873348754112595, 0.9388426202648297, 0.013374589042072059, 0.1257549068318219, -0.7059407486043726, 0.9335879610556178, -0.4276554184130803 ], [ -0.13631917873807578, -0.6237185966167742, -0.014636505095540263, -0.8996624918327274, 0.07879086035950288, -1.2467219096959632, -0.3372004181183861, -1.1079448645626426, -0.8440884378685093, -0.9250299973602688 ], [ 0.9320088854351913, -1.6528244885410617, -2.0033224396160874, -0.15975633569526465, 1.4259226482379237, -0.7535251701589415, 0.7479074650780272, -2.1547278527896117, 0.5749614443089038, 0.08244125788818296 ], [ 0.08140366151169465, 0.19547474594459677, -0.01981759711519243, -0.2428078661212111, 0.13466617887354426, 0.02048080766119958, -0.06387530854104684, -0.09291520826792107, 0.02835542411164642, -0.19822084176498256 ], [ -1.3284901089375736, -0.10327181865329825, -1.597016414746945, -0.8604555540624296, 1.2399558206290857, -1.1816566860597997, -1.2436817014823867, -0.4454150866796831, -2.2897920821182987, -0.934071814919519 ], [ 0.20779297676479927, -0.7149488022006124, -0.2688884124592745, -0.3507069170928708, -0.32953977271960583, -0.37264938667120895, -1.5587084324855178, -0.4727800398710822, -0.2396593511109478, -2.170807558952885 ], [ -1.342887279376016, 0.7183637091494577, -2.2385335525299, -1.486019713547461, -0.15910746420427205, -1.398405441602853, 0.09041288119801205, 0.41989645414677046, -0.6937242411896756, -2.7177807223906183 ], [ -2.5117640645383474, 1.4221565189141059, -2.0614258251181976, -1.0858587223741725, -0.2175893025779149, -0.9827489296084523, -0.05831442073073364, 0.15343265347777277, -1.0301253644979012, -1.7258906879694007 ], [ -0.1858915659468031, -0.09953298172385673, -1.3321980953628538, 0.11862848691059222, -0.8186124116876417, -0.28838698384321443, -0.07934053007299084, 0.7710240852303694, -0.6861979633361321, -0.4693211274887942 ], [ -0.4174825298421439, -0.8975520088804951, -0.5211810777681201, -0.28395641992023063, -0.043272402436805135, -0.5302443156853618, -0.2793716849536161, 0.7480085633609896, 1.1507283462734963, -0.27275852872919937 ], [ -0.057192991174403435, 0.6607134546020206, -0.263965910451966, 0.2032778981321236, -0.8679421806144352, 0.20204957964939788, -0.25035359289693654, 0.10846811044385289, -0.723018379656721, 0.02891823556150903 ], [ -0.03767627522734433, 1.2190160551757068, -0.15305650441918509, -0.0968763000415647, 0.12378691765190461, -0.05844452116749651, 0.8038092166718985, -0.40732549978767735, 0.4971927334723606, -0.6842082021356243 ], [ -0.545109263255057, -0.02011737689867858, -0.1728237156412412, -0.25396500965290836, -0.2784819615467861, -0.1913844672240373, -0.2457283762127175, -0.3782823453502858, -0.9596086262476368, -0.6522566293704152 ], [ -0.6849234385804703, -0.5564947558524012, -1.4862400326078604, -0.12416913280538557, 0.10642007206842419, 0.34588792247614175, -2.5880723303799558, 1.3489488941829806, -0.11005226695144131, -0.5649761701267573 ], [ 0.15416138952718295, 0.060434135887233065, -0.4080717495220982, -0.4137312169068929, -0.34261929186776335, -0.25608754053767263, -0.13046330068912643, -0.2574377153310051, -0.8694364636457653, -0.845297143218309 ], [ 0.016628681230396184, 0.26184097737929474, -0.28750473906371055, -0.9519233910065038, -0.6006696063173866, -0.9463260512856693, -0.5323137021273657, -0.24601714642372582, 0.4420415768397131, -2.0114430822926095 ], [ 0.1550041086892595, -0.8554266912141936, -0.48875960577675087, -1.0049704207384458, -0.6003219095222225, -0.9030601681398234, -0.6124604749510505, -0.22936764156947595, -0.24546609908619263, -3.438707520846677 ], [ -0.2688316691560859, -0.19147068322471789, -0.12445193891671279, 0.08030073650892794, -0.39798092695859166, 0.1272572790367341, 0.0017247362021740183, -0.19710973377250926, -0.2815139467235776, -0.1337812735570597 ], [ -0.7436660269127354, -0.9864845011383606, -0.41662089048461426, -0.21955009823177254, -0.49229382905363994, -0.1426617901977256, 0.15441875972383123, -0.05573633593715999, -0.059377383962049536, -2.391855763704075 ], [ 0.1718763783272407, -2.2146246057496155, -0.2583762674714045, -0.4445232405043985, -0.3441837458047143, -0.4143795075459735, -0.5948483593938073, -0.37123112077712317, 0.2180991684908156, -0.8503485191733472 ] ]
  }, {
    "Size" : 1,
    "ActivatorType" : "Identity",
    "GradientAdjustmentParameters" : {
      "Type" : "Momentum",
      "LearningRate" : 0.01,
      "Momentum" : 0.9
    },
    "Type" : "StandardLayer",
    "L2Regularization" : 0.0,
    "Bias" : [ 2.047959107506572 ],
    "Weights" : [ [ -0.2602704138208475 ], [ -0.39345262406971837 ], [ -0.6685071136691477 ], [ 1.6038007345850525 ], [ 1.7153596587031459 ], [ 2.008955490914668 ], [ -0.6427011595261231 ], [ 0.8231366355179336 ], [ -0.1453566375738763 ], [ 0.7791767094849363 ] ]
  } ]
}