{
  "InputSize" : 7,
  "BatchSize" : 32,
  "Layers" : [ {
    "Size" : 15,
    "ActivatorType" : "Relu",
    "GradientAdjustmentParameters" : {
      "Type" : "Momentum",
      "LearningRate" : 0.01,
      "Momentum" : 0.9
    },
    "Type" : "StandardLayer",
    "L2Regularization" : 0.001,
    "Bias" : [ -4.16225857605565, -3.073697553157729, -8.234657426933522, -0.6147340565891782, -2.90327355801693, -5.064455647915368, -1.2887839431562564, -3.545830191676398, -3.112962727168975, 1.0149951043746792, 0.30080187650553447, 0.24878139743254754, 0.8026504845963375, -1.9660984032609612, 0.3545022231080417 ],
    "Weights" : [ [ -2.0064956474063003, 1.0845931899426147, 2.80527447934085, 2.462385226284198, 2.2240974137538934, 2.3042842446674348, 0.053704469930225034, 3.48778923494229, -0.5325147933307648, -1.2943819203158067, 1.9741129831017454, 1.3278714743216107, 2.3309863136201465, 5.075599987709729, 2.2689506711103014 ], [ -0.03672421706744561, -0.13411606005670187, 0.05228392568244766, -0.2229991926946563, 0.04623975714592514, -0.04390912105777895, -0.020446792080736506, -0.07435413956895583, -0.021817596034895848, 0.02320956472173323, 0.014707887484036775, -0.11621043843431987, 0.05564388605740546, 0.015519792324601383, 0.016356067556756334 ], [ 0.3581315522595719, 0.06758583652346396, -2.1413742323697202, -1.728681172410669, -0.6975127278915797, -0.41659096932928397, 0.11092397896818712, -4.817219618390237, 0.45599629865245994, 0.10525847602802745, -2.0367513122581844, -0.4187553467602299, -2.0283222290496186, -6.2167380073415766, -1.3336034303780626 ], [ 2.2290124837215646, 0.1515063802963091, 0.8219754639678245, -6.157738495164424E-4, 0.45628530600759454, 0.8490254254267392, 0.37962145831172345, 1.3027391927457843, -1.495569000981354, -0.9486613042714627, 1.5332538823847726, -1.467433429434387, -0.030466879451117198, 0.5068905984265377, 0.5712897240069457 ], [ 2.388436960339747, 2.580994082517819, -3.993235090960671, 1.2403688340050578, 1.9952509238461507, 2.332845947374513, -2.498027442953089, 0.22635614841340346, -3.0341911257986593, 0.1041521984144209, 0.9579413229447739, -1.31261974193874, 0.4038511545341985, 0.611506393765954, 1.5084401445306672 ], [ -0.11103224954929908, -0.05435750114269594, 0.08576275880427257, 0.04826375877826573, -0.04989058832021504, 0.29478533790862704, -0.012970723410364768, -0.05077788367545935, -0.018314061095977635, -0.017653633026301484, -0.1355925384354251, 0.0598804783256176, 0.11181008334410003, 0.05821575639376967, -0.05573931081726498 ], [ 0.03447815546947737, -0.8512391148003587, 0.5320844940815923, 1.0312502672911499, 1.3957488104695321, 1.0147760819792389, 0.38688414458188475, -1.5085355126452724, 0.7631281505747279, 0.363993746779143, -0.6740221050848838, 0.2727879897887468, 0.6559422156296951, -0.1613809541558508, 0.8482246149323319 ] ]
  }, {
    "Size" : 1,
    "ActivatorType" : "Identity",
    "GradientAdjustmentParameters" : {
      "Type" : "Momentum",
      "LearningRate" : 0.01,
      "Momentum" : 0.9
    },
    "Type" : "StandardLayer",
    "L2Regularization" : 0.0,
    "Bias" : [ 3.703155051061585 ],
    "Weights" : [ [ -0.8707278398219851 ], [ -0.6322344367104679 ], [ -1.303567184184728 ], [ 0.6513395537546337 ], [ 0.8322618547891606 ], [ 0.7955359883957153 ], [ -0.7934012575085062 ], [ 0.8026370382475673 ], [ 0.7627547567235806 ], [ -0.712083593009472 ], [ 0.9180177274188089 ], [ -0.6655904476246706 ], [ 0.7064727329555385 ], [ 0.9500326096635417 ], [ 0.9673969066323754 ] ]
  } ]
}