{
  "InputSize" : 7,
  "BatchSize" : 16,
  "Layers" : [ {
    "Size" : 20,
    "ActivatorType" : "Relu",
    "GradientAdjustmentParameters" : {
      "Type" : "Momentum",
      "LearningRate" : 0.01,
      "Momentum" : 0.9
    },
    "Type" : "StandardLayer",
    "L2Regularization" : 1.0E-4,
    "Bias" : [ -4.2894566849929125, -3.6062339693174867, -4.48102117001094, -88.90780873622614, -1.8690274423698578, -2.3442543085423253, -191.93444766189504, -4.777481163057483, -2.9251614063368736, -3.278248015029227, -4.06730550492528, -2.205299305981569, -4.161439589106802, -4.716741011697111, -3.834198212853103, -14.67204241085631, -4.630457963327146, -2.8750394248408817, -2.1548247285855697, -2.30240456888506 ],
    "Weights" : [ [ 0.9199856525410384, 0.39585422597831066, 0.19375825954882064, 20.920767768523646, -0.1583089900865327, -0.06458496703369408, 151.32866363405626, -0.06620764959113531, -0.10370094253570045, 0.01586803690568038, 0.6061282547748211, -0.5382524717226844, 0.8567138309819218, 0.3565954629858052, 0.6503180911616164, 2.086413784602583, -0.0662705936961751, 0.04301455368480006, 0.1139895142609651, 0.5854615588834504 ], [ -0.05545167243063758, -0.009907179434280948, 0.030460843405372813, 1.380350707502402, -0.02197562750130623, 0.04486981855650918, 26.129847131012067, 0.026859109000065017, -0.026058907316630436, 0.028985472993307053, 0.0682290902192711, 0.0023510481619500173, -0.00111275842185012, -0.004536671599508345, -0.01570868467987291, -0.09310567697070875, -0.2360004564798054, 0.049970347055874685, -0.025637793632231332, -0.008950324637819296 ], [ -1.1466784322900916, -0.45199759640476866, -0.33289017505972696, -11.31967566537949, 0.16280248156733604, 0.001403890983311813, -87.69367123787603, -0.2469111155444757, 0.07499916944335108, 0.008540151169120633, -0.7106295406100847, 0.43811941400653576, -0.7843703434371879, -0.4422353357845463, -0.7414639788069042, -2.25812618535309, -0.025866582294166798, 0.03980475362415219, -0.0646823887152119, -0.6261209213109133 ], [ 0.04002342826747634, -0.1791498217143585, -0.06873306408429357, 12.727432500288781, 0.08919548053244991, 0.05534347220587405, 134.51151979298055, -0.03169784309472539, -0.18256460038207983, -0.14893607509476184, 0.007623784118596172, 0.08593395441686309, -0.243155521961449, -0.13881586481785785, -0.3172233971769265, 0.8982695871504869, -0.39531442986382626, 0.07727894461700321, 0.10117993250869485, -0.4270500310555383 ], [ 0.1523162453503673, -0.4420163378276848, 0.4748991211307366, 15.453319224303286, 0.21676129662939536, 0.1904507030599356, 110.92760268460509, 0.6198366076607158, -0.30649296373501306, -0.30105311155116576, 0.2058308258805413, 0.10681383343133491, 0.3154030534683294, -0.522650234605399, -0.43961771949579503, 1.3564713561794375, -0.05882676812450211, 0.13301086520938502, 0.05297409067105842, -0.14748566810156197 ], [ 0.03965883795613974, -0.011454991668036422, -0.025468614655294226, 4.650499675525038, -0.012339121442930014, -0.019904715182347606, -37.676907246047385, -4.7234508598518197E-4, 0.005069111780467723, 0.015978126745775208, 0.07840395809089222, -0.11248159560537896, -0.04899327151274202, 0.016576761050264947, 0.012962945092934592, 0.2131672131619784, 0.1363050713706021, -0.06095254678580949, 0.017854832871322966, 0.02575702267296957 ], [ -0.04112284032064353, 0.1423233452145714, 0.02722154928488781, 1.0644166005814413, -0.05382681463774404, -0.17519757422744284, -51.66849351026327, 0.0961065884080242, 0.11476572469682741, 0.06978908660895983, 0.09900140081492276, -0.027911242571097027, 0.2802497227384042, 0.17605339830465716, 0.27123363335055667, -0.008152231457492028, 1.6202324132959015E-4, -0.24073431482348953, -0.2006908443204329, 0.28001687856388136 ] ]
  }, {
    "Size" : 10,
    "ActivatorType" : "Relu",
    "GradientAdjustmentParameters" : {
      "Type" : "Momentum",
      "LearningRate" : 0.01,
      "Momentum" : 0.9
    },
    "Type" : "StandardLayer",
    "L2Regularization" : 1.0E-4,
    "Bias" : [ -0.5726312177219157, -0.9551582687039286, -4.4300521473244805, 2.4774339084208807, -0.557209377579464, -0.08372658513950787, -2.5438748922450696, -0.7449702792552908, -0.38119630753794803, 2.5167760766077323 ],
    "Weights" : [ [ -0.1961036493677115, -0.7157535672232402, -0.28499408076812344, -0.03735563083611445, -0.4761581392965911, -0.199756778165265, -0.17508281314818472, -0.4377457227223954, 0.5976501529050646, -0.2320428206259462 ], [ -0.0489831607782387, -0.42846307512878024, -0.30394419685449187, -0.08337720973461546, -0.2278541641769911, -0.29350466343837084, 0.05500401004117605, -0.2670351011041573, 0.16933965425221262, 0.10136030015788991 ], [ -0.007014946629493619, -0.2982199826218506, -0.04669198454780133, 0.12288106952378687, -0.09938409058563064, -0.12991733880932554, 0.0712618031821803, -1.9122388040093843, -0.5830724262614384, 0.04616221101047658 ], [ -0.23838554000779164, -0.3985775866516104, -4.449240095977762, -15.185696907605747, -0.18185214855625909, -0.2393326820769014, -0.5119895238977785, -4.748865341300002, -0.24014963054674035, -11.044008699440404 ], [ -0.13237184694306847, -0.542260827282568, -0.2672134173098453, -5.746554970462994E-4, -0.16378988049949703, -0.17461780404153107, -0.3127444702537395, -0.1657193863981161, -0.10799167847802967, -2.618242630639887E-4 ], [ -0.13360363017925453, -0.5635737455552198, -0.19848089391776474, 0.14873605649736504, -0.20681571408680333, -0.20044194713970806, -0.21187392063529484, -0.217250800560643, 0.04197061712155784, -0.08153158808646681 ], [ -0.37915875370032015, -1.0481514135763688, -0.6899335737795055, -76.73844122787234, -0.4409790823162353, -0.293378027404976, -0.12707266999474182, -162.9788410790371, -0.09029520346486515, -52.4294398104381 ], [ -0.12857518108119165, -0.3782966725734074, -0.21312395391938443, 0.0135515491944136, -0.2324188123073004, -0.16611063728190703, -0.048649605491109256, -3.840715524804645, -0.23706113698947046, -0.14186065598414677 ], [ -0.08858909970488923, 0.19077712347289125, 0.028398821349091014, -0.0184901696711547, -0.03339712942676635, -0.07385153422040666, -0.11546082079213904, -0.39696174149020985, -0.1284448490105161, 0.09336675942401923 ], [ 0.018694240204897038, 0.14382853397383244, -0.10047003541595992, 0.1241954523250413, -0.0035762017527181176, -0.037505372781316534, -0.07598373915522498, -0.4078606494452394, -0.08171753024900352, -0.1667299393501629 ], [ 0.0025871763951395106, -0.23579011554069143, -0.33914689186697355, -0.012490270241579515, -0.16800614373632386, -0.10010430200159615, -0.21792212309205206, -2.2552567969196935, -0.14869458586891796, 0.1971833669487927 ], [ -0.0627124580601449, -0.07585652228495211, -0.4078332388796497, 0.013120235705614488, -0.036122168751664886, -0.16824394895138814, -0.31942595246242617, -0.26652999097775515, -0.0038249993708786415, 0.04927593059469956 ], [ -0.20550221156671425, -0.2807269636206084, -0.4454614653517566, -0.22138440395278844, -0.04817001222401489, -0.14085452808983484, 0.0220590963610821, -1.5756550435842058, -0.231783319161879, -0.2815784475132899 ], [ -0.1498378335331827, -0.4625673495433963, -0.20326560038219949, 0.018443541838755576, -0.16470132490378353, -0.18563625053747584, -0.21156779462725497, -0.20174771350312806, -0.11556009648029797, 0.027584056098482367 ], [ -0.2733970450561933, -0.4431272967255287, -0.1743351687585601, -0.21144285363535822, -0.11767179225728784, -0.26123593518511284, -7.778405094751756E-4, -0.26405972839004166, 0.08250621746725642, 0.2679938087676174 ], [ -0.12092742157092946, -0.19917566496921055, -0.029305511591583153, -4.067112507816128, -0.11726806343290623, -0.1353639008272612, -0.44576031641572217, -4.687893894252568, -0.15805765910306283, -1.5011177847367714 ], [ -0.0783944508854319, -0.37353129444725597, -0.023017936963383678, 0.007110119875913961, -0.05050269341634856, -0.25022279235962963, -0.15146825590585952, -0.12840481125757774, -0.09686635781503632, -0.08081001642817524 ], [ -0.40898294225866155, -1.1602035545862175, -0.15270916109778082, -0.278103451314963, -0.5791961594509659, -0.5208548617306511, -0.004232338160021179, -0.0397201369312746, -0.10755605837973907, 0.01838920010339186 ], [ -0.2272768797504194, -0.4592435930751033, 0.116984405933648, -0.18203907045880555, -0.18219583083934127, -0.2291841752109268, -0.09620462855485908, -0.08374777943145362, -0.02446729522845847, -0.24251035511814426 ], [ -0.0033315461526606522, -0.19954432270264685, -0.38731891864203577, -0.10448424612982768, -0.16521809873331228, -0.006398305769375717, -0.39996252993085124, -0.1382334373333494, -0.014928571788562358, -0.014639132060694572 ] ]
  }, {
    "Size" : 1,
    "ActivatorType" : "Identity",
    "GradientAdjustmentParameters" : {
      "Type" : "Momentum",
      "LearningRate" : 0.01,
      "Momentum" : 0.9
    },
    "Type" : "StandardLayer",
    "L2Regularization" : 0.0,
    "Bias" : [ 15.536818597642602 ],
    "Weights" : [ [ -1.8735035456920297 ], [ -5.615368923887241 ], [ -1.4244731864616769 ], [ -2.478355039940532 ], [ -0.7590440122459612 ], [ -1.5664083189056808 ], [ -0.7683115286851097 ], [ 1.1218671628142227 ], [ -0.09007791086744786 ], [ -2.5173140881368754 ] ]
  } ]
}