{
  "InputSize" : 7,
  "BatchSize" : 16,
  "Layers" : [ {
    "Size" : 50,
    "ActivatorType" : "Relu",
    "GradientAdjustmentParameters" : {
      "Type" : "Momentum",
      "LearningRate" : 0.01,
      "Momentum" : 0.9
    },
    "Type" : "StandardLayer",
    "L2Regularization" : 1.0E-4,
    "Bias" : [ -1.07711791129384, -2.451766586750819, -1.3266570492764336, 10.881107232273502, -0.7988090580092747, -1.97580523743724, 55.664697566127266, -43.699378578109595, 13.813027770349212, -2.0675817257859834, -4.575630069328545, -10.786372777199709, 14.794949673601069, -32.23605835593452, -2.6862755914404683, 11.310750591393205, -3.307340737264494, -59.97473558743922, -1.7220604508914987, 13.638929748962877, 12.895053399089207, 53.39993336512661, -0.7354758764783723, 26.717644342289578, -1.3694110172662877, -0.15666886467550217, -1.458137413826689, 16.52821497889694, 25.430966595339825, -4.553334993923914, -107.42165905024213, 6.66989346106588, -1.061366702086161, -1.5498779650964594, -7.614906489126174, -0.6011782663998252, -2.9518239624778584, -16.061196410083884, -3.180191260271739, -12.355198996664308, 21.19396731290304, -8.883091118267693, 92.71013508737352, 11.231725854572765, -2.478742072958644, 49.55237758368991, 76.30120146906518, -0.4654257963993102, -2.065124787341935, 51.25003445571748 ],
    "Weights" : [ [ 0.0334493657849224, -2.1318837758846336, -0.6864592322396048, 4.146078508926975, 0.04697640814332661, 0.08398993750346165, 3.6417566603961546, -4.541996446925186, 0.5186971570812408, -0.12052611314595078, 0.15990878025671384, 0.006043409278112443, 0.9255283691023695, 3.48430277944538, 0.08415546193965001, 15.857834005882538, 0.04282314116333988, -7.433891789860236, 0.04418535311898093, 7.16565715383998, -0.8310985019168678, 28.05831470162048, 0.16820373871114533, 0.837268035444853, 0.02927321448292193, -0.008506959307061171, 0.015229862821118326, 0.8625153128739962, 1.3608701699517585, 0.22685682049203348, -4.1646337399846844, 11.064165388996308, 0.04839501082881712, 0.03318083350435974, -0.10572121023426824, 0.04031267330007357, 0.029212077409845022, 0.48109213279094204, -0.03173053011182171, -3.482213794116042, 2.9500880872386137, 0.5371927652794142, 2.267058087134787, 6.617031481823495, 0.09606780430647231, 23.122570796789567, 3.644777679195405, -0.011466931976794104, 0.04111965113736364, 3.195137333435796 ], [ -0.04724205717256009, 1.1676915818824092, 0.03613563979102475, -0.508094546087681, -0.0076484950079893305, -0.12681509242661182, 21.00326563815725, -5.3726478166473495, 5.223213978405193, -0.010209484093214403, -0.2571159681619638, -0.36528621975154385, 5.107275999585201, -7.527788553028921, -0.1554003804400104, 1.9493387887216618, -0.08398833614417006, -27.949950896707257, 0.03520269686620292, -2.1932513014079005, 5.258391875408005, -11.396314287197658, -0.06866069370350275, 12.9458824502804, -0.11021396334512958, 0.21472196925230666, -0.07930837627741677, 6.093315186188923, 9.737767752063354, 0.2902580480294459, -14.656222841804992, -0.07622012445434712, -0.01889897090770387, -0.06795153639523122, 0.3997706196654816, -0.004192141167480484, -0.19935248292065536, 0.8182816715905504, -0.1834684173647279, -1.90040612195667, -8.667030155907957, 0.26623458062723115, 29.533874013103766, -2.4005800688548473, -0.06405552401813568, -5.7516992196058645, 26.928883786478192, -0.03472309311511671, -0.1622092169337653, 23.072668352236846 ], [ -0.010862504872371906, -2.244241229878079, -0.6482813996285808, -1.063351348267116, -0.06206039910729687, -0.02522316892280447, 15.812339581917358, 5.256576923667322, 4.192509984747823, 0.1564365285691489, -0.3779268260575399, 0.0876376848866987, 3.930172653854566, 8.819944158028125, -0.10750979571644215, -2.923901339128082, -0.186991199730726, -29.825147356920212, -0.07921195177386184, -1.9267838988534889, 3.436072867892826, -12.106128160183749, -0.30065281660298, 9.001454212365008, -0.09440363436538543, 0.46535986357233106, 0.009309619536541629, 4.96199996695977, 7.07863554385023, 0.30809558048026514, 15.846968715449119, -3.4125990866646725, -0.033950599108175425, -0.01201086301597286, 1.0771936603650176, -0.04841181728395783, -0.15888375553081438, 0.11182714072340265, -0.05293681236119823, -0.4027701940849496, -17.58096232978484, -0.3620160965708223, 21.251448700098162, -2.3155339497710776, -0.0886556214092639, -5.067061219299537, 20.92976353549359, 0.01285121020663202, -0.07810358827267692, 18.357601041597082 ], [ -0.021306059565432703, -2.2339858297071675, -1.332502722366985, 6.7371679925100425, -0.06312456009925484, 0.034313516281339614, -24.337416957545642, -6.328763638620296, -6.652723293470612, -0.059989946504676823, 0.042310073066775575, -1.2616615455145237, -6.267206117189008, -5.41551022823874, -0.08119134540876285, 21.905452143049004, -0.2772569568755489, 23.85235523431674, 0.11933573419879756, 10.031778102505825, -8.476345494732346, 44.75998047510288, 0.41941879512934105, -15.405368771216834, 0.008377806887569391, -0.6282847208976325, -0.06565565977190677, -7.42208885671691, -11.115655855886208, 0.3946746378669997, -9.534411321485047, 16.56479053619787, -0.02129549150838829, 0.015143713214384461, -1.3893629366360474, -0.019991800391424685, 0.023724571172865565, -1.1846615182816358, -0.1568640778336393, -5.473486969976231, 27.584072498620728, 0.04420555108007234, -36.620641443915815, 10.150543916289104, -0.12041194956834904, 30.21655652865899, -31.400780507801006, 0.03175724688990116, -0.10638433950667123, -28.723283930915297 ], [ -9.328526599417297E-4, 1.6877493909686296, 0.548170006560968, 0.531702354522212, 0.039095510065248, 0.015284886614454827, -13.623971875355226, 1.0632325561596672, -3.355377180632944, 0.045618725037846745, 0.18960507562295498, -0.15407884337242567, -3.1418070428184692, 2.1134279083927097, 0.06296942925248827, -2.5315910817874374, 0.03709607095213138, 28.03943126678282, 0.07390813495051812, 0.4707119932563591, -6.308319159816114, 3.575759821048692, 0.1300509522553191, -10.040839465379216, 0.04615754305210132, -1.0567054660331103, 0.02280706083931833, -4.726284979174951, -6.201371948690362, -0.21009009224856887, -1.1991436962557094, 2.241055002781721, 0.03413426258090958, 0.029224250153774875, -0.9147858209740226, -0.0739367662394741, 0.1656663188408743, 0.6509004538873836, 0.060660900585896384, 3.3210446627138546, 14.580170973442694, 0.9093012790485983, -27.62941279197538, 0.59634307615672, 0.011199913202572204, 0.4994091620724239, -20.367732939533553, 0.029840226816667963, 0.031106639392069868, -18.04979727147251 ], [ -0.03757934453480357, -2.4552072900263915, -1.272840817464191, 4.776746313784499, -0.004114204509750618, -0.08865692603240856, -12.802613642079077, 0.023627725613771633, -3.5196521593490537, 0.04172637041967365, 0.028786933288957397, -1.085363657035621, -3.2667121875716854, 7.502367464713578, -0.10265351894455915, 5.36665749323612, -0.1123211175449295, 10.888116392993672, 0.03705903199050812, 6.1007006217033535, -5.341221980082555, 26.2820887892822, 0.2024964658037599, -8.065790486443406, -0.017253336997436825, -0.7364511858113458, -0.05578609948033507, -3.684616018033409, -6.110063698420318, -0.16879390722667392, 5.187437306683978, 8.459115787106706, -0.026606583778612535, 0.027448659134985825, -0.9806481636476206, 0.006964127907097656, 0.0035538030959900413, -1.2663813144677685, -0.09338586223553451, -2.2551185368976734, 15.51151075825661, -0.01630354380258781, -16.862329823644053, 5.861688715958995, -0.0036687423374702805, 18.86448668173598, -13.608119459640012, -0.005295656873965164, -0.14006927427554158, -14.443325265831142 ], [ 0.011916390275329085, -2.185807391685495, -1.1598649255275346, 1.3655528664744068, -0.013183325261861245, -0.0727046051712272, -16.055061699726995, 8.347684315950195, -3.278204208656265, 0.2065543636865585, -0.30632223870036956, -0.22028110654055688, -4.231266368992643, 2.4551189697252447, -0.12888955277780426, -0.17919958051358725, 0.021096835886498716, 0.022129438565886048, -0.09270472835259708, 0.36374389044590905, -6.504329774788451, 1.463879633610522, 0.06820436965870473, -9.06928962332869, -0.0024605613923972783, -0.0500842612737493, -0.046845510893592214, -4.162997449827995, -7.336266544358986, 0.35615991396654595, 21.929386841202206, -0.5594634472272761, -0.028349329379010465, -0.0784864566340512, 0.09129885963536538, -0.01991975350654989, -0.05073855118302024, -0.44481371510052914, -0.14279317141055947, -3.7038937269367316, 9.85976261889656, -0.5558682954119405, -20.886628933093554, 0.8390515498898038, -0.005058239446430782, 0.4539897213690253, -17.563103493452804, -0.04482268593674753, -0.008575683585944953, -16.186794489899434 ] ]
  }, {
    "Size" : 30,
    "ActivatorType" : "Relu",
    "GradientAdjustmentParameters" : {
      "Type" : "Momentum",
      "LearningRate" : 0.01,
      "Momentum" : 0.9
    },
    "Type" : "StandardLayer",
    "L2Regularization" : 1.0E-4,
    "Bias" : [ -2.4118672514463912, -0.30738090068512675, 0.6491754379481298, -6.520475604194308, -0.9262641323584162, -0.8385888238581531, -0.7117305984069041, -0.4097458267432527, -3.663504023991984, -2.7349367567618756, -0.5620776036895708, 0.010191305559246728, -0.48512810872461537, -0.3527964197953481, -0.7312580038329465, -3.4749852958571497, -1.8807085225575126, -3.3901742790691243, 2.211637709422759, -1.2123628927359673, -0.9085920635522189, -0.11027309307062395, -0.45225831518841364, -0.960437812028033, -0.5005261355947842, -29.222218743355278, -0.773800192686961, -1.1400704447856014, -0.008140039783967254, -0.33791074760130946 ],
    "Weights" : [ [ 0.013078133960502808, -0.027821656792200514, 0.04685967281020462, 0.04164415046892286, -0.0018444010428561892, -0.0382302942616877, -0.0020678202655743058, -0.05489966700026682, 0.007564180553880763, -0.05454660295189055, 0.031201796756585347, 0.047408269283557854, 0.023330783103827298, 0.03533019909960151, 0.01998054567178369, -0.0637400185362315, -0.02245120099594322, 0.08721825168460541, -0.023070078536734633, -0.015792422710308653, -0.03654130087669964, -0.02158791469705791, 0.003391971100610891, -0.06971709136676572, 0.012916813292345224, 0.022110815959771702, 0.01157677023640039, -0.0016816739968624666, -0.03621410409474941, 0.08038206324941514 ], [ -0.050015187267688395, -0.05209690202563786, -0.1017288145758047, -0.09531552274040454, -0.2550519511139706, -0.04038551793654676, -0.02787529382248799, -0.0066146979232878335, -0.028140615005539653, -0.04783637178638055, 0.0061583827201901675, -0.06906250459109904, -0.08757706386493541, -0.06979282751537222, -0.010267333447845087, -20.274222183539763, -0.1123739757694922, -0.0065726826567849145, -5.118457641194132, -0.2167697291797454, -0.009081411690893307, -0.7649908070347147, -1.3108203886427503, -0.07643689551351192, -0.08386566495497194, -5.762709980087085, -0.18165390875251597, -0.049403375015933046, -0.010079885074748074, -0.038882940092176486 ], [ -0.18363576204603582, 0.020252090823063465, 0.022240618635256795, -0.15417323292541915, -0.04287937119247403, -0.14461138723801284, 0.0263405525500285, -0.07492844191470918, 0.006540716964141082, -0.13560324433280468, -0.03807556472932457, -0.040723389552840494, 0.05200950816260815, 0.026358681797366598, -0.034023494540250186, -6.404747277438456, -0.11576448090186778, 0.055102418079256824, -1.7688347373249285, -0.02226001290422209, -0.14536237406756258, 2.5548959262178424E-4, -0.1145936402017528, -0.08864095890010104, 0.0157185842956958, -0.05065993397660081, -0.07451955003703611, -0.05343444291859854, 0.017611368991459635, -0.006831870964587095 ], [ -27.29197429175595, -0.11533912564679116, -0.13790840140978275, 0.08368510135814688, -0.15053059703305482, 0.012138335396885002, -0.0458137346282866, -0.003885838258979114, -2.489518407669923, -0.19738751426207143, -0.054646374612305426, -0.03295188825471317, -0.04263247866826478, 0.04631344840077456, -0.02838707196774419, 0.009854678832469162, -0.029695628707762375, -0.34047986775739975, -1.5298395914806884, 0.004100282246213164, -0.007783135046330174, -0.1903081823546014, -0.0860232179033779, -0.015521880072698512, 0.044063044174546304, -87.80813740574288, 0.017655266506399016, -0.08308026294170943, -0.10036596051718852, -0.06313693428813244 ], [ -0.1447052928844419, 0.03697705792275668, -0.023401511972624623, -0.08403233339593252, 0.07395590892590954, 0.02318997302362167, 0.10818130445824654, 0.034449572649346054, -0.07881672131966518, -0.04204445737936398, 0.014901528823879979, 0.04553787496705334, 0.03473117793188156, 0.02954074860973084, -0.0632146757260367, -0.03793372068397999, -0.017010685361598877, 0.03967657451196311, -0.09887370659477587, -0.00894892087584145, 0.030277583464397642, -0.026276526466996988, 0.004249987096220741, -0.02251957006371877, -0.048078858541810834, -0.038255229820973354, 0.08159678755590165, -0.03292577742684729, 0.008455633139490736, -0.03160021922555097 ], [ -0.036167889771804386, 0.027215445253557017, 0.024860426597085115, -0.055460927429201036, 0.010136345995143858, -0.04012010286517441, 0.12432629853820681, 0.015807393390300736, -0.028416969726968735, 0.03167221446307184, -0.08278324635926963, 4.1702255361974176E-4, 0.01465016914593627, 0.018913185654274457, 0.003875674972412646, -0.03458555803182261, -0.03457917315171003, 0.12257179989614299, -0.009035836271954588, -0.018016585129294636, 0.022603443718294373, -0.05004818204337304, -0.045936461888388125, -0.018366056088095644, -0.05338059772903202, 0.03561011631413292, 0.058441991711483336, 0.03536993953574562, 0.02839771764634846, 0.028967674421823644 ], [ -10.877925657758132, -0.05258704726173804, -0.005987334280011579, -4.669286441986201, -0.12486294269632245, -0.13368100590603046, 0.013202373519081264, -7.745476226782779E-4, -0.2275099403237179, -0.03540426077651148, -0.058459262487954314, -0.0618972122868308, -0.034519753139449126, -0.09252874835024974, -0.06415114212902799, -54.92126878428729, -0.05504136451475238, -0.12970931998247992, -30.06325222151326, 0.01978895614699439, -0.10643589308775347, -0.11058844342680048, -0.6622070718533631, 0.011171967803452936, 0.02344497360671959, -23.076026567150624, 0.027390036171631375, -0.07530254993979241, 0.00701671905822847, -0.8646590501723777 ], [ -0.07662986481560863, -0.05093458424194533, -0.15879463028041424, -1.3343048711272738, -0.4735659689666214, -0.1386456400747419, -0.24800537612278595, -0.011861200373129733, -9.982611666393671, -0.28767180824418614, -0.007894239783680812, -0.1676362594646818, -0.015619768388183485, -0.13252782661838497, -0.05767840890658646, -0.08424419805247582, -0.13867509530619201, -2.9737519310758747, -4.625073110276567, -0.2807651148834885, -0.11777346004775617, -0.47072870134845896, -0.46886186608192093, -0.059081269837164274, -0.013427783758378607, -0.145843581930732, -0.140310828304797, -0.14456418062071388, -0.08330805258616769, -0.03941814653183706 ], [ -2.3549884055636032, 0.013346611622725803, -0.0910170517658315, -0.30277471240378, -0.18926877076800358, 0.05135271571305781, 0.006630397722373714, -0.015394152429644014, -0.10623074718060999, -0.04144826791427586, -0.061508029342910144, -0.0833523951486952, 0.010845402907229261, -0.05155342276835941, -0.001597710212264922, -11.041211437512887, -0.040559360493065987, -0.029636180947039438, -8.475975329049, 0.07254447753570209, -0.05565435563543051, -0.15167242125474922, -0.23231008954159985, -0.20773795159821412, 0.029512821278618574, -4.109807144494253, -0.02247554337952146, 0.006166676662012987, -0.04305093542393383, -0.016612820944106835 ], [ 0.019416605889380066, -0.08437065260949966, -0.1518103377385062, -0.03673155964335585, -0.1532558267554609, 0.02444170499968701, -0.11044264055442721, 0.02822741973031057, -0.3746891043157228, -0.08449885228705765, -0.054715306458934326, -0.04407592124441437, -0.0768764066883975, -6.082211994583448E-4, -0.047224026605517035, -0.05598286207140744, -0.022458922483410384, -0.17926257769194956, 0.819898046424072, -0.02063462914456443, -0.005632983802801055, -0.32723043013224573, -0.3070857802762858, -0.14564121866463803, -0.0020628458354635245, -0.023551756916661393, -0.009696296634015186, -0.1105275796348187, 0.01319913039328292, -0.030084935459709906 ], [ -0.12334285396377614, -0.06352153667043653, -0.06979614258793553, -0.06300320370547517, -0.02275215705052241, 1.5374000444569902E-4, 0.06418076906227327, -0.024697062721835368, -0.0480553664095759, 0.09759011819746315, -0.03340052983452271, 0.018395576354209586, -0.003055344635221442, -0.012203227286449654, -0.027016557245196533, -0.009247604057355885, 0.08118677708041827, 1.1318561802319604, -0.0663321966745426, -0.08376384657590266, -0.041303035468219944, -0.843477831877165, -1.513561421731435, 0.09967008541354967, 0.03747552988177365, -0.030237350687200886, -0.05342146683284538, -0.16682746987212432, -0.03744773470371843, -0.031937884414411866 ], [ -0.3863621233053931, -0.08310332006062753, -0.07288027181916772, -0.573015497042476, -0.18669900643611642, -0.06581913896491261, 0.061695711284549246, 0.0033546270068893374, -0.2623022555664042, 0.02587506252966632, -0.06924459398777524, -0.03657257543326537, -0.07095976567281582, -0.06514369266236814, -0.06953379326909236, 0.004340134552443807, -0.17309477760878203, -0.6731554070788242, -0.7359092009144326, -0.08619005729847773, -0.09432018820006226, -2.2219563000834333, -2.9090102146074157, -0.10054365564323706, -0.06538809372156272, -0.06897496768000262, -0.1901035151064879, -0.0377160242795607, 0.01703680127874001, -0.004138956771523308 ], [ -2.5009338048869427, -8.083877586059616E-4, -0.060280159849157446, -0.6509560217634622, -0.04431594116376158, -0.004697178989571338, -0.046681768622946034, -0.03231069672482212, -0.17196838484354535, -0.03558021776000112, -0.010182815783165041, -0.029987659342142776, 0.021175671972132375, 0.014513755398853837, -0.06019064207189958, -13.917242409120135, -0.022497163289644125, -0.09859724501968939, -7.5315493917912955, -0.05529862781689335, -0.014052253585307132, -0.051765076694405124, -0.18373302552711115, -0.03708609238389652, -0.06307018553092252, -6.94289396052393, 0.011441791488464418, -0.05304381983439244, 0.006753178917689871, -0.256040974193432 ], [ -0.7769918985285204, -0.03133104852631507, -0.0265359325534644, -3.6009395126515575, -0.1293962189055731, -0.026481491836269255, 0.01540681225974361, -0.03438949306547902, -0.06789950741552421, -0.032175010943928294, -0.0762708283635766, -0.045131864583121836, -0.017191052913714314, -0.04696453423257164, 0.014835186428056485, -2.9828363274648453, -0.04121157005971797, -0.6872797183702276, -3.7285038715153487, -0.09406993572309069, 0.029153508546616674, -0.18411761280643513, -0.31102512782734176, -0.030214664454889184, 0.005603360082621833, -0.38197796997894673, 0.047469089963289565, -0.0072302732454120975, -0.01501002480305936, -0.04080428992200794 ], [ -0.29372738652898506, -0.06957057164995532, 0.044609839205495536, -0.28241698899827, 0.02624293931816067, 0.012829942878898323, 0.1500401423192001, -0.04290412731238589, -0.05698876556510943, -0.08137267704477096, -0.045723378754212854, -0.046213398887303206, -0.048381596059506225, -0.013220150153647746, -0.017636593219165102, 0.01984558693159433, -0.048257604974878264, 0.047785337734405915, -0.3232507398979499, -0.05144448229154523, -0.04171758375086224, -0.022157770852736083, -0.06537000917353859, -0.014547751049505354, -0.09636923315113426, -0.00948129815240486, -0.07646015859320879, -0.05176059776345187, 0.08558641112714965, -0.06421189222579013 ], [ -63.80343935873817, -0.282663302128255, -0.07409706345889, -14.536442907188771, -0.08098558970623981, 0.01590447418552605, -0.036246381910300385, 0.005194508673232394, -0.4747088710140038, -0.06604991786456348, -0.036983112229698814, -0.06261449877161239, -0.03156308257645635, -0.050319180742192327, -0.013380962491525759, -0.07219185692945278, -0.12972696285729482, -0.5221098326337097, -3.491155426955866, -0.12183895267006169, -0.04834993451822865, -0.3637102025982834, 0.2169482652933234, -0.005315667241096474, 0.003381815677008271, -0.050570952074085775, -0.06375390408737427, -0.07133711072479247, -0.16002682297423335, -0.7658230219166327 ], [ -0.17792622700292657, -0.045905404992063574, -0.2286305094514202, -0.2118822207184446, 0.1796977044281865, -0.01196412479155599, -0.0751067347146658, -0.005300822140884174, -0.04352491265483655, 0.21727411179879716, -0.02779941764917118, -0.28475434884787215, -0.04638481742366063, 0.0013485220960875281, -0.047464656323475116, -0.04598042807355328, -0.17566363124214762, -0.26021360025213647, -0.21025957352469388, 0.0030546985250981457, -0.25218171001649836, -0.307009261438041, -0.07485855332905186, -0.024074294534714238, 0.013341134866231926, -0.03751426877276402, -0.08970729544170392, -0.43490320914412306, -0.07051470967215939, -0.08529404793756672 ], [ -18.286977127544997, -0.09524689770493382, -0.0978065382025093, -8.823806717774728, -0.08579000482875404, -0.08567430701896929, -0.046231190814470025, -0.056952947916809375, -0.4774587624144098, -0.2414792844167033, -0.08058151128593465, -0.09773170814313246, -0.011209575207883012, -0.16184191323872335, -0.05753525152129676, -85.58567062595866, -0.20738382122574525, -1.6726266310882558, 23.792060995332083, -0.253591956726593, -0.16401680178705713, -0.7072602639767761, -1.0870134451362996, -0.12072660763490378, -0.018662816794517003, -30.030850481980682, -0.2820422298659333, -0.23099413741131228, -0.1763410584434096, 0.0065540936902816265 ], [ -0.11220363772861489, 0.009198772781087546, -0.05119721345141972, -0.09010458243584338, -0.04481504367506901, 0.011242726863350257, -0.02699817263166532, -0.04485904977980335, -0.023311117101518595, 0.1971546655564374, 0.0035071803635325386, -0.03949192660390363, -0.02862652498154386, 0.0054965346870171254, -0.04618577104112214, 0.04941849949056414, -0.030849429203068615, 0.10190187902290723, -0.09711264964778692, 0.057841918686368385, 6.195606660609824E-4, -0.028710681992027993, -0.028706494193066957, -0.04876970070524227, 0.02221067060705205, 0.019045343429123545, 0.007080984379655395, 0.015153493356472347, 0.046248883240464375, -0.03203546014572734 ], [ -38.26872979718701, -0.08638056651922399, -0.0077071875028397446, 0.038692679020469675, -0.03026472635140781, 0.05941983654300505, 0.04428934374391149, -0.07504111109443659, -0.0374498121510426, 0.01724848721194838, 0.02403985244792705, -0.05024855071319445, -0.005870803590753866, 0.010867902371106885, -0.0018476699468785648, -0.5401092836645792, -0.012186196534733637, 0.09695297124307008, -3.488373990166962, 0.05017050031516134, 0.03782074944505252, 0.006902027096297932, -0.10181787554291716, -0.04258733109210989, -0.029419115062000525, -0.46103929680690214, -0.016946758319689274, 0.0462894753414564, -0.11637515133734352, -0.14357468257279657 ], [ -0.2763700199910407, -0.06126079321687038, -0.07297933743016692, -1.6417488028661464, -0.30706958965017866, -0.01807016664469676, -0.0917323766971754, -0.03570118514253211, -0.8975734164877294, -0.03498599815700616, -0.055039534491247745, -0.0711336422033716, -0.030535292646182915, -0.007356755037603869, -0.03408089810766951, -14.079964024662438, -0.026848890670834284, -0.3214939909685928, -7.141628309664546, -0.2318771364715566, -0.08228024602693701, -0.10680693770343494, -0.2272720581983002, -0.08954452096135028, -0.017380435064867267, -110.52548551436409, -0.503881909829876, -0.7261464500928023, -0.08341161136360807, -0.2105111660941054 ], [ -161.270151282148, -0.44816640797216134, -0.003052611732637267, 0.012549375605977357, -0.08461738506698407, -0.039462033971529926, -0.16620783180472237, -0.03049593196921519, -0.010160794924413073, -0.1670166162293783, -0.014305920435915742, -0.17733736306808132, -0.01071522062975695, -0.06877398463683448, -0.024008489767125992, -4.452698868126822, -0.11815841914467143, -0.021133721065083502, -12.25157915203943, -0.17110409776431507, -0.04381118172600213, 0.0432429933975977, -0.30110114162509294, -0.06846096541720882, -0.042613563617028005, -1.6510810102560063, -0.08307262378297538, -0.08438926799671136, -0.31511723107193296, -0.40845869179961575 ], [ -0.5835053474895996, -0.02148205966583037, -0.013198838343912124, 0.060956225847985615, -0.04930233161731898, 0.035429653723512776, 0.0224238241545951, 0.024432446334390137, -0.05001896915272075, 0.03786927024036644, 0.03334050817126349, -0.01176296605014859, -0.006696809172492265, -0.08364915001914335, -0.017092349909672216, 0.023777794506655424, 0.05153083713005213, -0.01953868871827673, 0.19762011599394785, 0.001291020215797736, 0.011189039846473365, 0.06478882757720605, -0.013744580261968798, 0.07117592857338871, -0.04358406191888756, 0.023052268256921776, -0.0244033045085476, -0.007534618330299097, 0.047278062276155254, 0.00923418390055899 ], [ -3.3789400703310806, -0.06271394122561513, -0.1080548434613174, -2.2416417546658973, -0.33258735791911026, -0.06913337392372458, -0.13128326102179594, -0.04056831097678913, -2.425813482393477, -0.38605817170684853, -0.0064182149928759015, -0.11849794310075071, -0.06281408969258949, -0.056785411701146704, -0.11426582944048304, -11.226850175405573, -0.25709139796441927, -0.585770492368486, -17.269067305557854, -0.027219059973916222, -0.14124768152492914, -0.45565821116051125, -0.33171761561493424, -0.07996746788026823, -0.07483314046937325, -187.80870353663883, -0.02239831553968135, -0.21103659014598403, -0.04234896868365708, -0.4727437355695557 ], [ -0.11502893170632415, 0.030508028756432364, 0.02811939821764917, -0.1857831078368314, 0.07129090277534987, -0.08607492528409595, 0.0709400684629939, 0.035122402709393895, 0.0523518752255921, 0.013065078538264328, -0.005050635830794697, -0.01720674087566287, 0.025826222277298617, 0.05153355186686384, -0.05037739393053427, -0.04325900992454178, 0.03407127752781584, -0.026512942877457583, -0.11498179514073172, 0.0062647757866188605, 0.012956510997370198, 0.019757764029814086, -0.048871176195719374, -0.0455355997811759, -0.043726174025375104, -0.02744018845901577, -0.02656405939631902, 0.008989094922650839, 0.081154368011031, -0.03027833566603867 ], [ -0.10236157274828353, -0.04752546806327973, -0.09759451339410809, -0.30833025628145383, -0.16101425827071006, 0.006018578660248248, -0.06795423387458963, 0.03781928480022877, -0.684227280064811, -0.036653834887543126, 0.01864864274075399, -0.159592725970912, -0.04659840785960854, -0.050947807548974405, -0.10284243515362738, -0.022273627605146902, 0.015308315629900883, -0.7138861402160932, -1.1728434352027903, -0.4811709597319807, -0.022907260031382794, -0.8720130378843882, -0.5731732423913893, -0.07249070997972429, -0.027432190911198192, -1.5778750484784099, -0.016262259144366756, -0.026789232722415957, -0.08411619989876684, -0.017399024939935528 ], [ -0.150954055062582, -0.062360447318026105, -0.06910679095810854, -0.2787160035451689, 0.1044109641328998, -0.014767594680356088, 0.050530440075271736, -0.07592048452379592, 0.03882572464423206, -0.10425889449618643, 0.00897073579631828, 0.029225294423544622, -0.03442315201515269, -0.0534589678372205, -0.04753925418322321, 0.04059151412918953, 0.0053839513997938964, 0.1729482139007907, -0.36681950463262386, -0.019527161900580042, -0.012313580163268062, 0.020944779522514036, -0.03703921652922021, -0.02442578590589052, 0.04452305057205001, -0.04245538206302961, -0.08675607499755579, -0.022989328575706694, 0.0720454875193581, -0.06006784810344505 ], [ -2.820206517093134, -0.04069551289316841, -0.09041969899655637, -0.222916718985614, -0.10581892767600545, -0.03361384594482298, -0.08793120975068516, -0.04743107839055115, -0.1445578599008105, -0.07679575086621256, -0.07452395646550933, 0.05493434406404656, 0.0056056585133630295, 0.019270298156961824, -0.052094202792605966, -11.131237946946689, -0.06823845500054633, -0.2565975604427998, -8.939968613908029, -0.007872422694486219, -0.04282239231151927, 0.0317859985577528, -0.2678433268931472, -0.08500003873851923, 0.03094125964728937, -15.13956800511096, 0.01154315796079908, 0.006411401540405765, -0.07570383920030636, -0.36919480380585185 ], [ -4.70504496112729, -0.01822492089680114, -0.016501737046750484, -0.6252974483701728, -0.2234372785402858, -0.04507932790222531, -0.08438988763523494, -0.017468812949254005, -0.21059862557766956, -0.2334142051983506, -0.040401806027752014, -0.1087117929542278, 0.03676299596892148, 0.046654869140610386, -0.10071536640624391, -22.787727341185445, -0.21616606818688552, -0.07017421800945967, -13.232155496704857, -0.011480357756545746, -0.13298714790148486, -0.04104994771463054, -0.3102106951614909, -0.07673787653163058, -0.01208012296476063, -12.190440507620574, -0.08149697580584161, 0.026768824397806694, 0.04324687752622431, -0.3549290132965309 ], [ -0.1352056998719205, -0.03617418736774401, -0.13900262222054247, -0.1410457712465711, -0.3338950598158059, -0.15767841362133897, -0.1164456829061516, -7.548931170959902E-4, -0.20921418085891302, -0.4765258027329939, -0.016714702906445084, -0.3026002250529876, 0.01422527446848665, -0.048014945148682285, -0.03577564360788427, 0.03774313138136269, -0.22319326833446468, -0.2001392831662989, 0.5324651009064403, 0.013857077512153388, -0.10476620613241545, 0.08803343418867488, -0.12444794491458219, -0.16832259289786963, -0.044224645764996816, -29.84861759419788, -0.022372938660624626, -0.18319252820953663, -0.01195113127094643, 0.009195455811111577 ], [ -2.2225426447874455, -0.09620564470048999, -0.17370536584849092, -1.9743154748568739, -0.5371233212649278, -0.07382202433626914, -0.20684426398959893, -0.012480298125925273, -3.8486373967524403, -0.4145452438423322, -0.0485315006642869, -0.30028364020300363, -0.06685230772560403, 0.0026163390366307506, -0.11734424036011733, -0.07372346518486758, -0.18486052943905962, -6.275046948026126, -1.8203577043719534, -0.4405993113466136, -0.14384483952742289, -0.84538071148371, -0.8662596969187734, -0.2904653509371187, -0.021169633039641925, -0.1631732135584631, -0.14614498559235853, -0.18252221721861933, -0.17106212829482287, -0.09731742641477432 ], [ -48.79746429202738, -0.17296748110471397, -0.1686512446902637, -0.17043252244670914, -0.7066707142829506, -0.06028826972929421, -0.14098534477791863, -0.05765977236949941, -2.3934486461715974, -0.18291451594677002, -0.10431383154359092, -0.23905954657574952, -0.011386104317761046, -0.05069785207736252, 0.01049945010931313, -0.08241887615940803, -0.15108834296819615, -1.1314162667566945, -6.047119542586917, -0.6150662282133051, -0.05509489357908422, -0.539621098940312, -0.7417678649246002, -0.2582690696652105, -0.04444418288864304, -505.5809483167164, -0.19401809984312532, -0.20044629069925646, -0.12173774329746753, -0.06483440004421598 ], [ -0.06738918011339375, -0.009232673857445639, -0.013987054997749361, -0.17364473565899916, -0.06022595051468908, -0.040781040081387616, -0.12795820725656334, -0.05046947564180197, -0.036896454588507106, 0.02435026674223864, -0.045809285262747024, 0.043631224035037, -0.014760315634920675, -0.017174103386465786, -0.05862452204763113, -0.03163479778423589, -0.043134889135093814, -0.11650383690216735, -0.04134136453590446, -0.05016806355751245, -0.06155243681932235, -0.010868211299072329, 0.018100093495343045, -0.030167980045613316, -0.01412187979137819, -0.057366723067244565, 0.015945056503498745, 0.05293648578021106, -0.05189515305180987, 0.04652561520460323 ], [ -0.057581598637633846, -0.029937096508682873, 0.019450571122876757, -0.11311427603868096, -0.06163428136367131, -0.017937792502579146, 0.01696194488887088, 0.03362828811465853, 0.013384232831928347, -0.04154151540482837, 0.009360800245007034, -0.08676133816519599, 0.007326614718040963, -0.05274665145287572, -0.04370121985376607, -0.029364120430810565, -0.005691360281368749, 0.04081434849236864, -0.07913785412170948, -0.050770344259024075, -0.06034404392146556, 0.010879994276703343, -0.011735549202858428, -7.805001937366424E-4, -0.015513857035029359, 0.02575143751739636, -0.08726838749648436, -0.01300296054053201, -0.015593989352647513, -0.07389453521279647 ], [ -0.07032754413132354, 0.007039259538393178, -0.0923780530883202, -0.43473714547733316, -0.0796217075607151, -0.0706218230056973, -0.1236309531931515, -0.0794196235895726, -0.5918463807785532, -0.0589234329694973, -0.05493978162806321, 0.0018177313372575452, 0.017675457333950772, -0.05810388088309021, -0.10361025181538115, 0.015956866391615764, 0.031504519539615264, -1.376611170549694, -0.9184926820226538, -0.10147259375234692, -0.03654177695067764, -0.2393955274440846, -0.22366757858782388, -0.06524874473936043, -0.002581140847289993, -0.012348426138173007, -0.022217947703071544, -0.0913265210555679, -0.054671926167282926, -0.08235688536673488 ], [ -0.026996791475510856, 0.03014350945352475, -0.024058747289700803, -0.12868447536911296, -0.0330766139602952, 0.019279515631562678, -0.05728348031014684, 0.04106320951579426, -0.04240686100426058, -0.02455842186017432, -0.07223162601417887, 0.05857580461889258, -0.019880235426437146, 0.058804768017882716, -0.0466531976024627, -0.013472796563485314, 0.06055317219401762, -0.004804340170368363, -0.08499753113218993, -9.69310745769862E-4, -0.056842166383532726, -0.029533477566939404, 0.0035218023942197364, -0.08773009529706643, -0.044243680946783735, -0.02999474459780802, -0.026564884186552267, 0.027511567265088643, -0.0174035814473665, 1.6140146535317183E-4 ], [ -0.30365194906285137, -0.04766537655336263, -0.02840643227017368, -0.35316878742807745, 0.03444571436229898, -0.06510580290563762, 0.3040184176048422, -0.028684551573999927, 0.02153928528702511, 0.1171984568602182, -0.07712436307595798, 0.011755193196856513, -0.078718141440816, -0.0026659909702393607, -0.021885522681851215, -0.0174721747064913, -0.05523212955272513, -0.03383283319603289, -0.30853195029717534, -0.0894714578357597, -0.02656592378205775, 0.006969395461411137, -0.008549678716879188, -0.05570004929518749, -3.122149023907535E-4, 0.013618143809787306, 0.031033827001704473, -0.0354033289368244, 0.07496443918222513, -0.10377605636110507 ], [ -0.06117719574792677, -0.04496849463709939, -0.08380495727756548, -0.06351228114164242, 0.0861520639799557, 0.0745143276157798, -0.055817806404956045, -0.022807066164586467, -0.04338294830419718, -0.008703797205532982, -0.03753291476711758, -0.05593312270968123, -0.15066698354313499, 0.014852615559731185, -0.03182946127255624, -0.03966959452466743, -0.10130598592600394, -0.3098087299475551, -0.2461026984026876, -0.18334533456775143, 0.041671534418676194, -1.5162998302079187, -2.387812310261822, 0.11243639344185005, 0.015450225151920984, 0.016442078846796954, -0.0429585648197296, 0.011476813014325467, -0.042828836476202774, 0.01495658303948365 ], [ -0.26573679216116564, 0.03687932742704929, -0.04089844519378349, -0.29004187607784176, 0.07333510899350937, 0.0010723687400693808, 0.1309863184543772, -0.05927314962776786, -0.06672817337615095, -0.17658934851951535, -0.0944975459653678, -0.0818330512600379, -0.03947373134261071, -0.029150913139327043, -0.052815793504103696, -0.10068050629475771, -0.001178632281198058, 0.11540719428295354, -0.41421504139231574, -0.005631446384211265, -0.15356826922528907, -0.028708180521286278, -0.01210098018594966, -0.0012947107754529919, 0.021519459656456345, -0.04951676088462974, -0.0632305799953632, 0.02234378466090873, 0.019162543420182827, 0.00767166220076194 ], [ -0.09904247759709105, -0.0498056886839959, -0.13336447445727992, -4.734034456486195, -0.549847952876804, -0.005343302251491411, -0.06694325172858148, -0.06827474881803591, -0.12249875758662976, -0.1581027242760111, -0.02483574985181433, -0.05287810095698322, -0.014732635416762264, -0.040608738558919, -0.05273319838761258, -40.23636032196376, -0.3287008934065387, -0.13479592857641903, -6.226003879826973, -0.3771152087077465, 0.016084619452906592, -1.6897173768120302, -2.2842478830719077, -0.1597719738436489, -0.0010195532693897773, -3.6872477879524137, -0.037015816687875146, -0.14371437828062592, -0.08335341792703703, -0.0901639931584056 ], [ -78.48180813059616, -0.21034202132891205, 0.004879648158761238, -0.7270806789012204, -0.056821148261854304, -0.014042816427769169, -0.07314372794467752, 0.013475117342215197, -0.11914595594734625, -0.009657612423161975, -0.018236593951229226, -0.003053341689859958, 0.006006308474454103, 0.016970776829169622, -0.10720245413868823, 0.5103876308379981, -0.01154776118331725, -0.3561542034726843, 9.938744718921606, -0.08790591014293941, -0.0037770001557380396, -0.17941087409210477, -0.2236068663696646, -0.05712802308608481, -0.09305266310589429, 0.024937225706122567, -0.11565602079760963, -0.08141600294944569, -0.2718859047423467, -0.2147294456242115 ], [ -0.15283849674813677, -0.0028128992946237353, -0.25360824671778126, -0.2054962293744301, 0.47849447819527396, -0.20213064586765064, -0.08576384166401736, -0.009368879955311696, 0.21199044118734478, 0.052843692115216896, 0.0054474256390015146, -0.07688486978247233, -0.1070775833185303, -0.08790613208843957, -0.039383363122612224, -0.008301460973838824, -0.010362170554786053, 0.029673907292248218, -0.020105250434980678, -0.22954822819655119, -0.08240567056846967, 0.07202706298301091, -0.036281379204859944, 0.13471650218796033, -0.0533537644829185, -0.057614283878551345, -0.18764727121189945, -0.4654558782298973, -0.040818214248498734, -0.023877804329308156 ], [ -12.939852058666217, -0.1646918399913164, -0.2563106132124306, -2.526410761780474, -0.24316104494259083, -0.06557750713426978, -0.13337414482899748, -0.033975003802647535, -0.49175758704659694, -0.27659535584047434, -0.0722899394010228, -0.17519184418062195, -0.07842830878281379, -0.059563884697230764, -0.09414195428202514, -46.42871755576988, -0.303662701655624, -1.9286345560090703, -55.20042408864328, -0.807467697183235, -0.10781741024344824, -0.9853523552886553, -1.1809430020151699, -0.2598279579205348, -0.020042699876138825, -52.00342095080623, -0.18059350719021872, -0.18836830612847913, -0.1315878452997048, -0.7470949265916254 ], [ -36.28133617213736, -0.10471271443784039, -0.054186911213315626, -0.09275703180641756, 1.6014228469130796E-4, 0.00895465613206192, 0.004984187382919314, -0.011822702512683214, -0.06295842669581155, -0.07318490352835563, -0.007804585247005284, -0.0711387732497822, 0.015988221768759265, 0.03504073641100251, -0.045772515040476795, -0.0010013694137089248, -0.04855729221108966, -0.008270530099579362, -2.592562728067534, -0.025643927600951858, -0.013721355086232996, -0.04838002189901749, -0.006757703500189667, -0.0862939095316539, 0.002771276357550483, -3.814883576733486, 0.02444450134059865, -0.03856879168122899, -0.10890971503564088, -0.06905054557311209 ], [ -0.018435488371839878, 0.037970857549194756, -0.030879454410945934, 0.042020473151555694, 0.23904546931693754, 0.06007955402986148, 0.06732179016745128, -0.053331265555113, 0.03282767756507238, 0.16592139522024676, -0.013674930343987094, -0.11713288454537647, 0.016305213302662224, -0.025781177665434377, 0.03694810343120404, -0.004146049404486964, -0.04669040594862393, 0.027715620881301906, -0.047692810119361294, -0.09890965131045071, 0.0027644198454297533, -0.18560183809166284, 0.03344690645094951, -0.020594346953422604, -0.02794760888466656, -0.004896274074203888, -0.058850548419224075, -0.11394837856614574, -0.039728116970827496, -0.022031960432110205 ], [ -121.4538986686395, -0.357656806104761, 0.005470742254271786, 0.03344712505391625, -0.3771596465670854, -0.031043313090388307, -0.04018218006705733, -0.021394826156221975, 0.02833869404660925, -0.09214882943414054, -0.049646320896574433, -0.02522466579658973, -0.06341633847910115, -0.0634612377278757, -0.10406981028391951, -3.7563293779514524, -0.23521462544605495, -0.617838529200546, -12.809003396616056, 0.05931893898661338, -0.06393193415320196, -0.7732122242864743, -0.029459659109990672, -0.06079720818184176, -0.044697149147452514, 0.017421486429266036, -0.045458706261107276, -0.025900071409244965, -0.2379892615504519, -0.5504965812611787 ], [ -14.604853257124827, -0.13481781164684828, -0.124218087413861, -0.64311338204657, -0.3108530499359193, -0.29305642633580575, -0.23282327914448175, -0.010661652624896299, -5.043961414869354, -0.4650600208899041, -0.010453699175113287, -0.31043160693521027, -0.07270379126582766, -0.09127221678502213, -0.02324343869125464, -48.64380188684018, -0.2671988944086549, -1.0053854726973992, -44.65299421192164, 0.0032940973557058083, -0.1137565429799104, -0.6268772271152577, -1.0157492278936007, -0.08575825249735637, -0.051936162921101064, -138.54646384285138, -0.23038198966117332, -0.28458413207310257, -0.2632148313470652, -0.39229377743562144 ], [ 0.046605637587694856, -0.08082549175042805, -0.05696139742975174, -0.09441914357908847, 0.03686211386748945, -6.848629654957437E-4, 0.02760826362003758, 0.0451983336041905, 0.05434317326466737, -0.021891548136250334, -0.030192039711608956, 0.0019016659126363175, 0.0026512920415652755, 0.0023475349203929013, 0.02138058955796468, -0.0229422849773684, -0.04192136557810946, -0.05636052662170399, -0.04247362382404201, 0.042140677979710654, -0.005011031127571067, 0.02072401983706113, 0.009258407428882856, -0.030829951838885917, 0.03152947689758757, -0.01060779849171893, 0.041460528986476695, 0.04350529900001023, 0.0591208759608899, 0.046119528234822474 ], [ -0.137092252741315, 0.024633154553558502, 0.07003468176756673, -0.19173920361013266, 0.009556226312867601, -0.062288108466379485, 0.03211252308075141, -0.07837948149085722, -0.03780949624165187, -0.12915862663890723, -0.0557896261793778, -0.04158282958120523, -0.053357771287173505, 0.013727623303623352, -0.032974367115043444, -0.004003189202101916, 0.03722559493392069, 0.07012214215462544, -0.1328089793376992, -0.010395045281890026, -0.026528624745185376, 0.03201306201573473, -0.09772043586139927, 0.015422655006741356, -0.06692016918386917, 0.014583054432761618, -0.010710654880570889, -0.11668981852560038, 0.0316958980031107, -0.06347426659344929 ], [ -8.016850174310376, -0.031806056911480356, -0.044262047108191524, -5.1158525330703855, -0.2535611144037132, -0.08724561422176288, -0.05168859337548697, 0.02329286575838492, -1.4542022601960294, -0.08678874123565605, -0.025983473957169986, -0.19969817795050973, 0.04424007111224604, -0.05908566363971843, 0.007716725486212976, -37.051767321317094, -0.1390218479180955, -0.4605732430393122, -33.92787082130204, -0.2723223753065522, -0.06521638243652832, -0.3350028689721346, -0.8638327845731545, -0.06940513931157791, -0.012775879457251045, -180.23053675269105, -0.009143555044568541, -0.11182961848456299, -0.2553607518981145, -0.741090518759016 ] ]
  }, {
    "Size" : 15,
    "ActivatorType" : "Relu",
    "GradientAdjustmentParameters" : {
      "Type" : "Momentum",
      "LearningRate" : 0.01,
      "Momentum" : 0.9
    },
    "Type" : "StandardLayer",
    "L2Regularization" : 1.0E-4,
    "Bias" : [ -2.443828252470965, -5.712921661470393, -91.76508291687624, -0.38009725388263477, -4.150480624208065, -2.6764848985258127, -0.8412143422988968, -0.5273348334448481, -3.951569193463976, -6.431105514479321, -8.641818608686581, -9.83427314416479, -6.013419026570323, -1.423560991173936, -0.8415003374811951 ],
    "Weights" : [ [ -0.05062219109751075, -220.86495171468533, -0.02865238831806733, -0.0489736550476678, -0.2258627223086163, -0.027914508930605892, -0.01971406610436935, -0.08506992513613103, 506.6288176603929, -0.699981410148856, -539.2197078836722, -0.04311317710547051, -0.10348084386094565, -0.006972432544128958, -0.08839150248351309 ], [ -0.11259512546883349, -0.06211066976684077, -0.11143280498109523, -0.1195216175933851, 0.07346549909318595, 0.041481491834206914, -0.06858939684582945, -0.010309011516537526, -0.00366395083829541, -0.002560355566505071, 0.02090307289091717, 0.02224528930967202, -0.04939134166674181, 0.07584426831946475, -0.012345660223521614 ], [ 0.011555048605184502, 0.04566181262072693, 0.015878335272795665, 4.682060094718737E-4, -0.01769813983126118, 0.003628341540445965, -0.035675829635670134, -0.1345770563455007, 0.07825585083444422, -0.014544044340369015, 0.08782363074712676, -0.13763415251976246, -0.02435228840117089, -0.07347461234313432, -0.05316457601258815 ], [ -0.006900367242904558, -10.813943514618682, 0.028046262649706426, -0.044334596288835695, -0.22011250333043442, -0.08675646379108365, -0.03399336395274935, -0.11174595443774989, -1.1399586481065702, -0.655065959473773, -0.11102545820162808, -0.12362312397066139, -0.10701954669747737, -0.04194825068039021, -0.07225790017157223 ], [ -0.05558613125563759, -0.30437256409812824, -0.11391380277024911, -0.06368077788742105, -0.35368405241799294, -0.018144660764491203, -0.14044903711519816, -0.05513881635431071, -0.7051804056202416, -0.11069054843054078, -0.07722379969281194, -0.2617668453029976, -0.08657195758884742, -0.04333535701541846, -0.023484428208886847 ], [ 0.03796514355674845, -0.12686936791552755, -0.08120550198761055, 0.024283882677082976, -0.09656813639288164, -0.09635098742515391, -0.062311540287075466, 0.027925029737330166, 0.01062235632492226, -0.04883124202983603, -0.06158541488813823, -0.061260668219242025, -0.06854913165964449, -0.06793201100919108, -0.028477428678197775 ], [ -0.05374909309313436, -0.35845782677169336, -0.09002750952455854, -0.045478121689082204, -0.07280526384084193, -0.0516359843066357, -0.11421925746318254, -0.5173568142964405, -0.04460216770933278, -0.33302179808407656, -0.07758775608143181, 0.10906127813702149, -0.0985713510875431, -0.0282158913129514, -0.09276459006920397 ], [ -0.012244056804594797, 0.022369239064365942, -0.010991345143626558, -0.06324042821990623, -0.07335902594336602, -0.08725784868760812, -0.0404292711343469, -0.0334847468191994, 0.038526052621220094, 0.11009524254832834, -0.04036321405221909, 0.06822416223813844, -0.039887804437378264, 0.002602995487791382, 0.06158509325709449 ], [ -0.17705889457734983, -0.3464109629203709, -0.04582012874211208, -0.032614473676335666, -0.47432431645656337, -0.06711356466970309, -0.034670139805299226, -0.47675665215007995, 0.008471564907478817, -16.602610583101537, -0.03445819434783095, -0.9463557403834599, -0.6082282108249683, -0.029311860973168402, -0.0901847746505559 ], [ -0.08047180788359806, -0.2363177798528599, 0.052825899881079906, -0.029868038160601983, -0.4459672342538343, -0.06959282762585695, 0.08480548144045459, 0.07547542973074843, -0.1323191029598357, -0.0742027124511377, -0.21772143623059256, -0.43076849041893045, -0.17185850553482168, -0.020404331777274458, -0.1851255034014578 ], [ -0.014986552443948448, -0.2478084331745087, -0.09279041592549069, -0.03552214257043672, 0.021345324802484782, 0.06642778294027642, 0.07733083223062562, -0.09828254283577507, -0.07157366983356193, -0.03132356175418443, -0.045808684950485616, -0.15648061244524758, 0.0647155175794647, 0.06067913779045458, 0.022089718216627457 ], [ -0.174553040868523, -0.009690926669689329, -0.0724773631748614, -0.07808160786246662, -0.09968272877288362, -0.06402182940557957, 0.015915652113210138, -0.16076065643963472, -0.03949402720960608, -0.004836750990694668, -0.07336275956011629, -0.08092593668158449, -0.05928927410755346, -0.011064401254112866, 0.08688135298009604 ], [ 0.02062832108173308, -0.04961368359671073, 0.002969814832976657, 0.004147630013115263, -0.04783443211756849, 0.001342419510149726, -0.009636837183568784, -0.026863444174312044, 0.03136725748379038, -0.05435786135923954, 0.013787277072704935, 0.05641526454338351, -0.006744558576006034, -0.022650875102707194, 0.06329046616877895 ], [ 0.03889648591974697, 0.05966925965082643, 0.03523147862845238, 0.0640604294782515, 0.0600054191207294, 0.06304338457394032, 0.0610756164214564, 0.011188621023024047, -0.08506927654317588, 0.044472490122584744, -0.03219162562224147, -0.09646122082451197, 0.05163627414732457, 0.017437272954589217, -0.017328160074231724 ], [ -0.06771145460949386, -0.1719062051133526, 7.903855436959647E-4, -0.07546091595074275, 0.030580536547689795, -0.0575040585581394, 0.04756260095040993, -0.031992044557079054, -0.003280288248100836, -0.06967574774917809, 0.03159314852961142, -0.07969683930204988, -0.2858446303445812, -0.024040362098153387, -0.06213862563075895 ], [ -0.02393300050160109, -0.09240565948421753, 0.03180345323415876, -0.057811244208737705, -0.09326059488271436, 0.019146191248861626, -0.01676392438275822, -0.015562607637232755, -0.501560021686409, -0.01655859552469993, 1.1292421136551263, -23.90568681100456, -0.10004454075823017, -0.09920138272205437, -0.03992745166853386 ], [ -0.05621813735517647, -0.09849821599606645, -0.7452986977732482, -0.10074384520943412, -0.2695929935611527, -0.07595767621684028, -0.14650950511994898, 0.05602462144481739, -0.013943151332322745, -0.10549761156790488, -0.057485519698811244, -0.1682502590018955, -0.1493893913353422, 0.09301259004346984, -0.07454666089808028 ], [ -0.06392773221784179, -1.3022332810453108, -4.704236829877417, -0.0975530816156415, -0.3299515081185738, -0.6797462063178903, -0.017895014254859436, -1.2908625524212811, -0.029051370173668253, -0.35050533787399524, -3.900634266640349, -0.6067007704275162, -0.15694299912135626, -0.09155084311847139, -0.14278180005488736 ], [ -0.21868426461897958, -3.400129213025825, -0.07057002054895287, -0.14500585033513289, -0.4538406051839618, -0.18785614772535655, -0.15165290132871467, -1.621186453927039, -0.3577841769772442, -0.9319563610275612, -0.577525428394544, -1.4092809125929995, -0.41695173775093375, -0.09381447711697191, -0.11010305927803626 ], [ 0.0036750354931965206, -1.2820170637593955, 0.6934012546902856, -0.0016985885691009975, -0.08076055959816325, -0.08898490891090667, -0.053440276489406004, -0.006171707011159255, 0.5329211444402775, -0.0779703284428602, -0.09124127400813532, -0.8075757491665264, -0.017204058108460065, -0.06911170352831182, -0.31486878525307005 ], [ -0.19268420234272662, -0.12600467973008775, 0.005322721295217339, -0.03954616942665156, -0.10843074442188103, -0.03333452396529689, -0.10383700948330436, -0.03338172301179421, -0.03876494329112132, -0.02412979805819593, -0.05014066860578864, 0.05470500617319353, -0.2779327795635298, 0.07036701086943363, 0.03448650492316982 ], [ -0.04062682680249004, -1.2943247553683206, -42.38543168910732, -0.005362579690672903, -0.08355310900746739, -0.03114507222076149, -0.0768403711324818, -0.1302553341022896, -0.5121303562181332, -4.73093867245984, -0.12465494922756215, -0.2994104597951078, -0.06980538111942647, -0.0062976266737337465, -0.04580300318142382 ], [ -0.04787861116413575, -0.24138285911156931, -7.025834460398186, -0.0391404254679835, -0.06359830866683856, -0.029105981603042137, -0.06681748917531208, -0.7865655790695939, -0.1416628228358352, -1.2470962827429992, -0.4511391007887165, -0.2442144230155226, -0.036506502295576504, -0.08111061730807959, -0.03712389735405973 ], [ -0.10179456748270377, -0.0531389770384305, -0.02050262126489678, -0.08465829706766106, 0.019792727644792698, -0.05190297211369848, 0.02925645450988779, -0.004181173309566013, -0.010577378231935173, -0.06468900041768018, -0.09642811117862628, -0.14607957683661243, -0.1463305107870241, 7.498178676580188E-4, 0.032668609291224115 ], [ -0.07157748002767349, -0.09425205110111648, 0.034430769872099524, 0.012433952793978197, -0.03236120043797991, -0.0714919089594744, 0.015953183742928655, -0.08788833045807072, -0.03402523971517348, -0.0370590714707711, -0.06860773771064436, 0.051143236702303946, -0.15428593373434102, -0.08510112517889719, 0.02871510139133961 ], [ -10.758227088340368, -0.05393000351910473, -482.1695171958788, -0.030398127170243285, -19.396438260700652, -7.739843665750128, 1.808631466071429, 2.103453431726707, -0.03916445570548728, 0.061767965297647644, 25.915769843373905, -11.736849656950618, -26.310693178286776, 1.4214748543547286, 0.6998740168789946 ], [ -0.01663926116020385, -0.2689006471609819, -0.06554803813098313, -0.03860682892686931, -0.14594754321939568, -0.08645083491070883, -0.012415474137193757, -0.06586923498776132, 0.045067805417556214, -0.0823151739650782, 0.03647821355325136, -0.1636486772798096, -0.2350940369025636, 0.018772921195095923, -0.094679010927704 ], [ -0.1453680478534438, 0.6228508847830632, -0.10106271985676572, -0.019596562504001085, -0.060905424057570684, -0.04020358022008034, -0.45806943524993965, -0.19242203926287646, -0.03823840382246308, -0.07690451295192666, -0.005452799757632887, -0.31207506381608224, -0.013524267741201882, -0.03549977751345792, -0.008988519965914642 ], [ -0.006663464054444311, -0.10574175233147864, -6.876340625017438E-4, 0.052643676147202154, -0.008334615525723798, -0.026153286666462033, -0.08216865708430708, -0.29743934403006334, -0.07875585012472075, -0.09492582997309394, 0.028682089284765937, -0.002541719321676077, -0.026673363189198007, -0.02953340858011481, -0.07924221574556908 ], [ -0.039624352448281476, 0.18334339815042247, -0.08537390148684118, -0.010321759017460951, 0.061764716452294, -0.9145602282381552, -0.10110551459320109, -0.07922213765944118, -0.07740949636542292, -0.09701278618134224, 0.08239897970708426, -0.07352041749572562, -0.20057507437786276, -0.9712267873101538, -0.028327112781230936 ] ]
  }, {
    "Size" : 1,
    "ActivatorType" : "Identity",
    "GradientAdjustmentParameters" : {
      "Type" : "Momentum",
      "LearningRate" : 0.01,
      "Momentum" : 0.9
    },
    "Type" : "StandardLayer",
    "L2Regularization" : 0.0,
    "Bias" : [ 5.742864239243853 ],
    "Weights" : [ [ 12.350130842618404 ], [ 35.16647685707917 ], [ -38.440380863601376 ], [ -0.7475462636404281 ], [ 6.18684532118506 ], [ 10.378319055445864 ], [ 5.3000030471540285 ], [ 10.60895267871716 ], [ 27.717143046352085 ], [ 14.04875926798501 ], [ 135.33850944760047 ], [ 12.44509360196387 ], [ 8.193881268280943 ], [ 10.628594795413758 ], [ 0.6028069960827813 ] ]
  } ]
}