{
  "InputSize" : 7,
  "BatchSize" : 16,
  "Layers" : [ {
    "Size" : 30,
    "ActivatorType" : "Relu",
    "GradientAdjustmentParameters" : {
      "Type" : "Momentum",
      "LearningRate" : 0.01,
      "Momentum" : 0.9
    },
    "Type" : "StandardLayer",
    "L2Regularization" : 0.001,
    "Bias" : [ -1.4517517218942622, -1.3888074540859745, -2.948165597425197, -1.7699328708258812, -2.091626979570871, 0.13857189773134637, -0.6959367725945743, 0.024859280691668754, -1.8015073326483313, -2.622912256829582, 0.5758544433870354, -2.3194531686811812, -1.6409677905749067, 1.6093512180910534, -2.1023486696427796, 0.5154161087247842, -0.5829238242268381, -0.4452493999894072, -2.401940078842256, -1.638104823851076, -2.8781716418976564, -2.0361366559438765, -0.6803354067345038, 0.7564231500462641, -0.6761256116226556, -0.8326088350307231, -2.9952146030572817, -1.8534096997502973, 0.011330037889091678, 0.46204611812988233 ],
    "Weights" : [ [ 2.215014622592822E-7, -1.9042501589363436E-6, 8.760605498881997E-7, -1.351463302565011E-6, -2.264501615393405E-6, -1.9763077823804877E-6, -5.912185041460291E-7, -2.101060967680513E-6, -1.6049684354012565E-6, 2.817402680831728E-7, -3.175086547147401E-6, 1.604977393227852E-7, 7.116062087338914E-7, -4.005867453556641E-6, 3.617044015941989E-7, -2.3766828216201363E-7, -7.700928629425181E-8, -2.167734039497074E-7, 6.490177207223533E-7, -3.4498873580485614E-7, 1.0125298175038439E-6, 3.5763086237417925E-7, -9.82743236856502E-8, -1.7586475492679794E-6, -3.6676982364764895E-7, -2.063352942677594E-6, 1.0649462832158247E-7, -5.101262376944227E-7, -7.515805864116221E-7, -2.3535153409359284E-6 ], [ 2.9032352559055174E-7, 1.2434839176579813E-7, 6.696252726969234E-7, -6.795969165701779E-7, 1.2697307496526462E-6, 9.421436351786761E-8, -2.7698138876026405E-7, -1.6010720749078945E-6, -3.6096767765377833E-7, -3.1955423820934096E-7, -7.093984666152801E-7, -3.257610370001581E-7, 7.174243971913232E-7, 2.1874302167490123E-7, -3.4989926615938414E-7, -2.415268164569291E-6, 5.142437809479051E-8, 1.3466529182958443E-7, -4.087690131653833E-7, 3.7936883094487317E-7, 1.14629856901996E-6, -1.1289576396345255E-7, 1.2685732795212335E-7, -7.645323352705704E-7, -1.6676907116834533E-7, 1.2320859730329562E-6, -3.4045431791331338E-9, -4.3348897942840014E-8, -3.5746630326571E-9, 1.8169330886420507E-7 ], [ -1.112926789903045E-6, -3.5909993121570827E-6, -1.293053532889236E-6, -9.078575992205447E-7, 2.364526539993748E-6, -4.44449033128123E-8, -6.012636371902187E-7, 2.9597372155154563E-7, -1.4139000059505804E-6, -6.496035935224523E-7, 1.5374010154937345E-6, -6.764248761792267E-7, -1.3071747641452552E-6, -1.4677588562326738E-6, -6.323742133987765E-8, 5.982309896685057E-8, -2.0205124383896818E-7, 1.2886462733354287E-7, 5.7795930152450076E-8, -2.9109313704104255E-7, -1.2672112048470197E-6, 1.0991553206152155E-7, -2.672848803730851E-7, 4.929157885609811E-7, -5.473536269085993E-9, -9.167923287782487E-7, -4.865967370050343E-7, -1.1306302812883832E-6, 5.790835878555624E-7, -2.2508736819192543E-7 ], [ 5.386508494755669E-7, 7.964080083826993E-6, -1.3873718292858518E-7, -7.200514563342327E-8, -8.78262942206944E-6, -2.966503097272337E-6, -2.498416770295213E-7, -4.218320570486946E-6, -6.388658320764647E-7, 2.64311346018501E-8, -6.100119065520644E-6, -8.596380782199422E-7, 4.695431389223499E-7, -2.5068857004872535E-6, 2.1176730460280215E-7, 1.4929896636761053E-6, -1.5591497401637795E-8, -2.077646550604774E-8, -1.8522670364074025E-7, 2.582894885668942E-7, 1.0409243308201147E-6, 2.361147733577876E-8, -6.876310945678433E-8, -3.1158454058623682E-6, -2.4205603982261715E-8, -2.6289007733607836E-6, 1.1680730905019552E-7, 4.208251822203857E-7, -1.4347997306385803E-6, -2.7669569788797533E-6 ], [ -4.4557116437075704E-7, 2.254710795161509E-6, 1.0364626044247536E-6, 3.8240800715781687E-7, -5.372607197919477E-6, -1.51587578160252E-6, -2.426490861946626E-7, -2.7688297371862645E-6, 2.6681856173338047E-7, 8.958848538816408E-7, -4.128495117250092E-7, -6.486657078665033E-7, -4.286083874342045E-7, -1.0508756169744725E-6, 2.2055284875763959E-7, -5.74036504858049E-6, -6.992106245268654E-8, -9.082802678690813E-8, 6.429320257161273E-7, -4.675566020223065E-7, -5.743912467475278E-7, 6.76835987137373E-7, -5.30027446803218E-8, -1.7041058675933226E-6, -1.3813766323208098E-7, -1.9157658699052225E-6, 1.0563081170100321E-6, 5.166562332747764E-7, 4.709515627247125E-7, -1.904139201792862E-6 ], [ -2.6165700882311223E-7, -4.2779319389659985E-6, 7.214417656328741E-7, 1.8227476552474986E-7, 5.664071688190532E-6, 1.776375488077287E-6, 9.95327396113634E-8, -1.517868464643315E-6, 5.19569796699346E-7, -2.2852191341357772E-7, 4.873514082908582E-7, -6.00154549147251E-8, 2.2779048082427926E-7, -1.1170004596707518E-6, -3.23845386065429E-8, 8.22633304094328E-7, -8.596204162579906E-8, -1.8569301362932554E-7, -8.686193368193169E-8, 2.097271527328757E-7, 1.0040160981275123E-6, -2.611395059618656E-7, -1.4654650627009515E-7, -1.9090900182583823E-7, 2.910485982546368E-8, -1.5403763432411521E-6, -3.574529887970339E-8, 1.3030865150587482E-7, 4.083483758430706E-7, 7.677101401553382E-7 ], [ -9.44058106446505E-7, 4.0844740875814315E-6, -2.7141878485691517E-6, -8.306562079803421E-7, -1.447160725875472E-6, -6.825172064419055E-7, -1.7458910672020087E-8, -4.0130770739988847E-7, -3.1214434982151183E-7, -9.182949213438446E-7, -1.3614877450402742E-6, -8.824725719838437E-7, -1.580342796673761E-6, 8.823461914884544E-7, -4.335166151742102E-7, 1.899404788913209E-6, -1.4812560842381568E-7, -2.2161890144956682E-9, 1.9299197633674258E-7, -4.3539140222238134E-7, -2.3714718353185937E-6, -1.0784441402370339E-7, -8.480677558652703E-8, -1.0524357157298366E-6, -3.408843112327567E-7, -2.038067324607773E-6, -3.459255587150885E-7, -1.7823522915734163E-7, 8.710374603083661E-8, 4.1426169611253125E-7 ] ]
  }, {
    "Size" : 20,
    "ActivatorType" : "Relu",
    "GradientAdjustmentParameters" : {
      "Type" : "Momentum",
      "LearningRate" : 0.01,
      "Momentum" : 0.9
    },
    "Type" : "StandardLayer",
    "L2Regularization" : 0.001,
    "Bias" : [ -3.7310702489179928, -1.2708999593800054, -0.37315608597946576, -0.2090933916459687, -0.2715371482673211, -0.7623469721038563, -0.382560468468847, -0.39129860158933893, -0.5235632642606699, 0.108369840306252, -0.2763681798483601, -0.9260991047559356, -1.6003470805066087, -0.14483214984113973, -0.28596418658693623, -0.38422343100485024, -2.7247245641408675, -2.9130671670032844, -3.7144538493245562, -0.4456840933237486 ],
    "Weights" : [ [ -5.097615953480581E-7, -1.5370289664039666E-6, -1.2648318843563476E-7, 5.271518977496254E-8, -9.823491223822725E-7, -2.60883387259869E-7, -3.5384018994753515E-7, -8.916184562636798E-7, -5.663149494598716E-7, 1.1534360043619455E-8, -3.453890580581904E-7, -1.1043264571381715E-6, 2.417723094695226E-7, -4.149685961808275E-8, -3.1535047640304285E-7, -8.244738175993163E-8, -3.0563987215678727E-7, 3.6673677061830366E-7, 3.9986570950787666E-7, -1.5640688148361674E-7 ], [ -7.257394405662823E-7, -5.519278072711658E-7, -2.423794551713241E-9, -1.8974754435839467E-7, -4.132716371794929E-7, -3.670387684001926E-7, -1.471300549058097E-7, -2.1909609875303813E-7, -2.1550632195871736E-7, 9.293358040019857E-6, -2.695655537228677E-7, -1.0179717285223637E-6, -1.9678734813974584E-6, -2.6831155143381953E-7, -2.7699838176632768E-8, -1.3227730730909067E-6, -6.898872597168923E-6, -6.694155383300125E-6, -3.02869058255172E-6, 2.6246058812488754E-8 ], [ -1.9388777148657295E-6, -1.4900266106994297E-7, -2.428046067407218E-7, -4.932019456240748E-9, -1.1216829219568331E-7, -3.334620402456594E-7, -3.744689150098931E-7, -2.927874977287373E-7, -2.0289471970661894E-8, -2.2181245473691016E-5, -5.328886297081215E-7, 8.48831957413829E-8, -1.776960927570145E-6, -2.2770331239368972E-7, -2.492966303863771E-7, -3.5648317800297564E-7, -3.389076875679247E-6, -1.2222975059035807E-6, -7.841588161406374E-6, -4.9990773416352975E-8 ], [ 5.348863857814646E-7, -1.5629407673282124E-6, -1.1975774082061075E-7, -3.5419995235565266E-8, -2.8472337475891704E-7, -1.2091803007244533E-7, 1.2817852663504932E-7, -5.4833011817803E-7, -5.349087570197932E-7, -6.695837933803862E-7, -7.768335250941135E-7, -1.263259017743226E-6, -4.2981172274017504E-7, 2.9473687216809145E-7, -3.091111468395581E-7, -5.131039216858162E-7, 1.6419845282674952E-7, -4.621098367549825E-7, -1.73299901908391E-7, -7.056877211186211E-7 ], [ 1.1316143418167703E-6, -5.361044180054741E-7, -1.402736152287733E-8, -1.3921985822734143E-7, -4.3012462023686225E-7, -9.162376772113985E-9, -3.3413972570434856E-7, -2.8105827646057686E-7, -1.083545990963925E-7, -1.0169033351255592E-6, -2.5494993165053514E-8, -4.967247054183855E-7, 1.7252102897542767E-8, -2.1574873790944824E-7, -5.347998622479906E-8, -1.0409039418525758E-6, -5.453660812046568E-7, -2.07519476420877E-6, -6.89589303154217E-7, -9.354200860059159E-8 ], [ 7.936961150660839E-7, -1.0763943409242415E-6, -3.0233188607544374E-7, -3.564461789887289E-7, -2.970225458954262E-7, -8.738200128253598E-8, -5.347885011385249E-7, -2.2551577439567706E-7, -6.141831805271098E-7, -3.890376766386731E-8, -1.628982918238873E-7, -2.9907919902736277E-7, -6.197223524466915E-7, -3.063136492048131E-7, -1.1548515695821038E-7, 8.078083078268223E-8, 1.6841501241441856E-6, -1.857515679403667E-7, -1.870386798751486E-7, -3.609374800686905E-7 ], [ 3.748474183603973E-7, -1.5135386595051028E-7, 7.366835011615296E-8, -3.458164145550171E-7, 1.0810375128881187E-7, -1.097275991064355E-7, -3.929799706923568E-7, -3.549790948391633E-7, -2.2781060342891177E-7, -1.0104805247776611E-7, 7.733534996094966E-8, -3.6433161287258534E-7, -3.9115299633805574E-7, 1.0148025895933982E-7, -8.529721594460413E-9, -6.745905198992303E-8, 2.0890697547577806E-7, -1.6776756601637395E-7, 1.436156974518822E-7, -1.5812854299130127E-7 ], [ 1.362355062861641E-7, -1.422771369862468E-7, 7.356012718167379E-8, 9.885639645772063E-8, -2.0109147098096383E-7, -6.997089296701537E-8, -3.197198284684417E-7, -4.20845681893404E-7, -1.4849446998396727E-7, -6.680124258907816E-7, -2.7302138372896336E-7, -1.6122800314173715E-7, -6.964940131835496E-7, -3.5502010393993363E-7, -2.1739507624543161E-7, -8.80350866471835E-7, 8.17198396766856E-7, -3.27619905557809E-7, -6.715200460274835E-7, -9.97358439513743E-8 ], [ 7.811862035982799E-7, -1.2209333890387222E-6, -3.653898405866855E-7, -2.655443413246743E-7, -8.178573016725039E-8, 7.78255162159395E-8, -2.6902908016966554E-7, -4.63925139248611E-7, -1.5076308899252993E-7, -9.549529559299895E-7, -4.6497861221448454E-7, -1.023850385387569E-6, -3.38387611356111E-7, 1.503984683956911E-7, -7.843124260992713E-8, -6.205821351981961E-8, 3.3843502692671864E-7, -2.3230657410758333E-7, -5.273819326773608E-7, -2.901970632437531E-7 ], [ 3.028394857980664E-7, -5.263602160003432E-7, -1.580983520237211E-7, -3.2393236933170195E-7, -1.6816113385348758E-7, -1.7573543878673673E-9, -2.850725088226992E-7, -4.631150904436541E-7, -3.4936738803507067E-7, -8.50994904711222E-7, 6.198299268304229E-8, -2.8847154944063776E-7, -6.61953243428059E-7, -1.151355532676595E-7, 3.3628738870318722E-9, -6.808922670073471E-8, 6.644075637487888E-8, -6.059703336614473E-7, -3.967999545834957E-7, 2.6215925657247546E-8 ], [ 1.767526273816868E-6, -3.9624383002268225E-7, 1.3509986353471183E-7, -1.2397115699285168E-7, -3.268082001634152E-8, -4.604969389501116E-7, 1.096212229129891E-8, -3.4886928252144784E-7, 1.5522105557211194E-7, -1.2876539738802176E-6, 6.276156308960306E-7, -1.0256215198987071E-8, -1.0340945180584167E-6, -2.847771760765297E-7, -1.4169948332248845E-7, 1.6522455429612637E-6, 1.3091870162341064E-6, -5.696927508932219E-7, -1.652269799335791E-6, -8.722156784038669E-8 ], [ 1.4761504194313543E-7, -6.909135528349202E-7, -1.1353876804534269E-7, 4.0175379979853106E-9, -2.2447065437699431E-7, 3.448596357566238E-8, -4.272421590149653E-9, -4.748420043570572E-7, -4.4249264811285503E-7, -5.0115543204770116E-8, -3.1140593656218205E-7, -6.922758880552082E-7, 7.178836203383727E-8, -2.6075919089905447E-7, -1.3134266009936212E-7, -4.210587332624287E-7, -4.0129314379285845E-7, -9.54618701224005E-7, 9.040495862262192E-8, -2.959251583560067E-7 ], [ -9.95017530858596E-7, -6.529047576326394E-7, -3.7866541052012647E-7, -3.409886549405146E-9, 3.8695831970958196E-8, -6.663110388629231E-7, -5.432098821381882E-7, -6.098283705171887E-8, -3.14836384970916E-7, -6.491747490720757E-7, -3.951535023341746E-7, -7.97347834821933E-7, -4.0030386387751003E-7, -1.3999229185576525E-7, -3.656177827404748E-7, -3.3120192389496394E-7, -2.6403928686397014E-7, -7.352271599758739E-7, -7.190974411632986E-8, -2.599831069042E-9 ], [ 3.927513545071058E-7, -6.263027206757986E-7, -2.4588602703884115E-7, -3.2402567880342834E-7, -3.4250639761640374E-7, -4.828454724822734E-7, -3.4348362083473843E-7, -4.305454514841244E-7, -3.7909391826271326E-7, -1.6690893778923712E-6, 8.044540609132122E-8, -8.635075043720176E-7, -6.775238869913949E-7, -1.0538101107945338E-7, -1.0550226123753921E-7, -2.6984806541435088E-8, 1.920841599553811E-6, -9.70564334490694E-7, -1.4309228733505554E-6, -2.1666821849940514E-8 ], [ -3.541286625323626E-7, -1.003238430829151E-6, -3.5566328742767886E-7, -2.8121129741891513E-7, -5.239639724056723E-7, 2.825671206622046E-7, 7.138815255900033E-8, -4.984435274469943E-7, -2.5941482319346613E-7, -4.26214075989867E-7, -5.528373060118535E-7, -6.480142238331941E-7, 2.3902439883264477E-7, 1.7599430763704666E-7, 1.0186240347023912E-7, -3.891744657589726E-7, 1.7875833454908012E-7, -4.774489772348251E-7, -2.573733460540407E-7, -1.7822563244540673E-7 ], [ -5.070120802577049E-7, -2.2898903914734733E-7, -3.32701544251571E-8, 3.3260022608587245E-8, -1.5206737483257318E-7, -3.0537404785247456E-7, -1.4121632402923195E-7, 6.240864836460183E-8, -1.641646762808747E-7, -4.056129999267198E-6, 1.755867101653037E-7, -4.772741419553997E-7, -2.1521478881880397E-7, -1.7512364024264526E-7, -2.4204969259737355E-7, -1.6979169612751353E-7, 1.4190006530307357E-6, -5.134636624176612E-7, -1.488846563063735E-6, -4.2444407125548325E-7 ], [ -1.3190583313959867E-7, -6.957056006766042E-8, -2.4666563753732136E-7, -1.1863197430696748E-7, 2.739655592318653E-7, 1.8794130389432366E-7, -2.381432745859588E-7, -2.774083450839047E-7, 3.0254910488202295E-8, 9.235196800029082E-8, 2.006196506820839E-7, -1.0752252589799216E-7, 4.478191050439068E-8, -4.23131191566707E-8, 2.1485119142255705E-7, -3.822186191166079E-7, 2.1569194644212204E-7, -1.5765870473559804E-8, 2.558011267587691E-7, -1.2689065929380045E-7 ], [ 4.869502942796005E-8, -3.3030822780684883E-7, -2.3566745967094278E-7, -2.1870666294418992E-7, 6.269666185433717E-8, 1.483877945719437E-7, 8.657621879145739E-8, -1.7860747598544367E-7, -4.6805869395494675E-8, -9.038384187759621E-8, -3.4374216751310535E-7, -1.851464084708888E-7, 6.151453814688033E-8, -6.468032340242696E-8, -1.0189694853085967E-7, 2.8311304266406337E-7, -1.63418089214036E-7, 4.069276021258733E-8, -1.1129678494462663E-7, -2.3026288129711022E-7 ], [ -4.5743358117991976E-7, -1.0718221918797172E-6, -3.1584911098796926E-8, -3.4348330707252517E-7, -2.8969838165464197E-7, -6.161525396466648E-8, -4.541126419448497E-7, -2.4539587011549656E-7, -3.3020527344357183E-7, -3.65141164334475E-7, -6.545350601009438E-7, -6.768336262834906E-7, -4.4265957188936453E-7, -4.2631519536386043E-7, -3.857332717477715E-7, -3.872869044212064E-7, 1.2896664201048112E-7, -3.4511504789382616E-7, -2.8437257452053446E-6, 1.6477647442227028E-8 ], [ 5.197218133449034E-7, -6.112593450970529E-7, -4.406938755417486E-7, -1.894945535029977E-7, 4.692982587856279E-8, -1.7091470512476002E-7, 4.933840074207455E-9, -1.722244665940759E-7, -8.488548944173431E-7, -3.6830614819891277E-7, -1.778046422130309E-7, -5.476650138428679E-7, -4.93693818600381E-7, -3.4630705556044633E-7, -3.234085622688287E-7, -2.928451416533534E-7, -1.9158157347122625E-7, -3.022670766990227E-7, -3.302066600394083E-8, -2.1455247822550517E-7 ], [ -2.119337135773604E-6, -3.9101967605118494E-7, -2.2568993936976048E-7, 8.408195371880404E-8, -4.4876138969997703E-7, 2.5610859457875414E-8, -1.475354236697179E-7, -5.074493530270235E-7, 8.62748565012917E-8, 1.2314488779911309E-7, -4.779688574138179E-7, -1.804165642553303E-7, -8.744151786375694E-7, 4.518510399725213E-8, -1.4115117707374067E-7, -1.914921500104196E-8, -2.1519381586266354E-7, -1.1870878567260083E-6, -4.396036741433686E-8, -2.2219649886588977E-7 ], [ -5.550545299756286E-7, -2.3146394146481021E-7, -2.1571223841687863E-7, 1.5217870266837724E-7, -1.6967493057437847E-7, -7.896992507667715E-8, 2.074275955128703E-7, 9.575662185764095E-8, -4.913826542789241E-7, -6.656114389178053E-8, -1.8492998999932065E-7, -2.2343991331134747E-7, -2.9113437404322867E-7, 1.3319745318605868E-7, -1.5584506585106776E-7, -5.62241929502541E-7, -3.1982729816726335E-7, -2.810179308719806E-7, -1.5877465401434862E-6, -2.6353373954303334E-7 ], [ -6.65679215275232E-8, -5.254544513812773E-7, -1.54097416318568E-8, 2.109391902735472E-7, -4.749826612538788E-8, -3.360635921023872E-7, -7.390112359804242E-8, -3.7080534664198483E-7, -7.375190996537201E-7, -1.3691546546614184E-9, -1.8638384839386018E-8, -3.2777340661706006E-7, -2.5354398585844643E-7, 3.015389499289109E-7, -9.099993493907895E-8, -2.92622690887096E-7, -2.6987514394561624E-7, -3.012581695956695E-7, -1.551390821639294E-7, -2.8091427333551016E-7 ], [ 1.1952627396202226E-6, -5.069145402528198E-7, -7.58058608903876E-8, -8.653025608507576E-8, 1.9082853413231607E-7, -1.2830902223274786E-7, -2.2361686344661222E-7, -2.8918981850112977E-7, -2.4609330053618854E-7, -1.0995625368945418E-7, 3.996364682437067E-7, -2.5748469086308297E-7, -6.298142125930127E-7, -1.7671551360230685E-7, 1.6850177990311418E-7, 2.9310495828866304E-7, 1.496034802817697E-6, 4.455296290127946E-8, -3.2456284990520775E-7, -2.0760742525435483E-7 ], [ -2.383605669741311E-7, -1.0041802689260645E-7, 2.510146621719045E-7, 9.763734663648605E-8, -3.42997267986231E-8, -1.5588103650579714E-7, -3.3497905767827E-7, -4.5538769501008716E-8, -1.5752564214630488E-7, 4.882549075344691E-8, -2.2862675682084397E-7, -1.495040850981322E-7, -2.0609410042294243E-7, -1.3458399500855246E-7, 3.7160992701751574E-9, -5.885255728284926E-8, -3.3752766264231384E-7, -1.4791652402311487E-7, -1.3686577241437998E-7, -3.713197795377618E-7 ], [ -8.621257481496767E-7, -5.159502644002211E-7, 1.3491567866426297E-7, -4.106939216004032E-8, 2.2956991626173844E-7, -9.869168581826067E-8, -2.8157533087674004E-7, 8.27541176170983E-9, -3.529372264647303E-7, -3.565977810186134E-7, -3.248530856407949E-7, -5.831101403389237E-7, -3.409913000793318E-7, -2.4125431757449407E-7, 1.6846276420998596E-7, -2.734964199155785E-7, 1.7517193746237616E-7, -6.03665937537379E-8, -9.325458214249168E-7, -5.388206211769258E-7 ], [ -1.9974937401791704E-6, -7.41702724946785E-7, -4.498431521872889E-7, 1.7142568181631645E-8, -2.387043845471245E-7, -1.0605719805223521E-7, -3.336438488508924E-7, -2.613445432171591E-7, -4.270845883978197E-8, -3.797168435940436E-8, -3.698924681742936E-7, -1.4115681672094107E-7, 1.0160392120194927E-7, 2.9004783452214738E-8, -2.5947366853755437E-7, -7.365764463176081E-7, -4.138196278720603E-7, -5.277913230397589E-7, -5.07732821006067E-6, -2.5000741049795974E-7 ], [ -1.041669130185031E-7, -1.6432383061761554E-6, -4.862160007232919E-7, 1.4278962292947853E-7, -7.166006165934157E-7, -2.081226497849532E-7, -1.285837874666333E-7, -7.752901128678215E-7, -6.271168479137446E-7, -4.5442944365642286E-7, -4.76845450970229E-7, -1.4115154025710759E-6, -1.9299409927048094E-7, -4.395990679570586E-7, -3.282244968954496E-7, -4.518112731630824E-8, 1.8884578628478416E-7, -5.803191280827443E-7, -7.388281820468177E-7, -4.2944855378650785E-7 ], [ 7.011113189964527E-7, -4.99960524244185E-7, -4.938033944958903E-7, 2.663566674128392E-8, -3.1968327493120344E-7, 1.2117934564331333E-7, 2.7397997518788026E-7, -1.603713004466318E-7, -5.465495904187645E-7, -4.3755444973559024E-7, 1.1785193860398066E-7, 2.18778560569322E-8, -1.6254100502844638E-7, 3.500851307683913E-7, -3.232435577663641E-7, 7.817440725134012E-9, 3.715569728392016E-7, -3.9111878509080904E-7, 1.0146301145338766E-7, -7.776458263224705E-8 ], [ 2.664859932934915E-7, -8.303870893147901E-7, 6.001647623709757E-9, -2.011977517997645E-7, -2.6965308868531537E-7, -2.15249345473012E-7, -3.60473372763921E-7, -4.601444508098172E-8, -2.0960588488175106E-7, -1.722962764516009E-7, -4.0849497582012453E-7, -6.004325157816257E-7, 2.212878201634851E-7, -5.9577401519313806E-8, -2.9671233236323817E-7, -2.1392536108497023E-7, 9.757316119861378E-7, -2.7782262717949855E-7, -1.1436727033954942E-6, -5.899453992689333E-7 ] ]
  }, {
    "Size" : 10,
    "ActivatorType" : "Relu",
    "GradientAdjustmentParameters" : {
      "Type" : "Momentum",
      "LearningRate" : 0.01,
      "Momentum" : 0.9
    },
    "Type" : "StandardLayer",
    "L2Regularization" : 0.001,
    "Bias" : [ -1.4655860438487527, -0.3608726699513422, -0.6118582925604086, -0.9554988613323493, -0.7553057963279758, -3.694489137834049, -0.37296714341057613, -0.29086565782044, -0.6813816654842955, -0.8729073054056524 ],
    "Weights" : [ [ -9.561119965693005E-7, -2.748767325698058E-7, -1.0886285164471713E-7, -4.940657964071167E-7, -2.551025334403017E-7, -3.3263985648267405E-6, -4.3897499534168174E-7, -3.655478455812313E-7, -7.304163942999823E-7, -1.6623976198469528E-6 ], [ -2.0519558115306144E-6, 1.267571941754878E-8, 2.681030246205253E-7, -1.662143704845448E-6, -2.3861160017135717E-6, -5.930522042552243E-8, -9.722325757376085E-9, -2.697343993483998E-7, -1.2398052628967879E-6, 8.799321067512124E-10 ], [ 1.9141795579374872E-7, 2.041242594518095E-7, 1.5411184123652532E-7, -4.7363463250102635E-7, -2.777945795671662E-7, 4.54778241711799E-7, -4.096082206663713E-7, 1.9443639711103357E-7, -3.693790379066268E-7, -9.338597891938688E-8 ], [ 2.3266126535349266E-7, 1.0714378119053314E-7, 4.5401332993204745E-7, 3.061031157712132E-7, -3.639194665097858E-7, 2.5736138020540328E-8, 4.143417239306537E-7, -2.8019758497772977E-7, -1.423611240751028E-7, -3.2681813386008463E-7 ], [ -4.5309564607055216E-7, -4.7540502472036944E-7, -1.6112389814947014E-7, -2.237303089217932E-7, -4.597624551537314E-7, -2.160024941197338E-7, -2.4908010478905615E-7, -1.2952622422966196E-7, -5.619683075074232E-7, -5.697812149144541E-7 ], [ 5.660748362608514E-8, -6.92579356303165E-8, -3.395072661154561E-7, -1.0059332266116529E-7, 3.034240699667374E-7, -4.9198500529472495E-8, -1.3435306575177439E-8, -3.5620339194379957E-7, 4.2258440472562253E-7, -9.969045681934874E-8 ], [ -1.0067235184083992E-7, -2.8181413930372504E-7, -2.736441789984091E-7, -4.4040052690171464E-8, 2.81692845590567E-7, -4.5318269019505904E-7, 1.623966377857487E-7, -1.4813891661380818E-7, 3.6992446210225224E-7, 1.4872780654188588E-7 ], [ -1.7593027864605909E-6, -6.894312393654501E-9, -2.054893342290961E-7, -1.106930166706294E-6, -1.4034986020833095E-6, 2.8378078386581744E-7, 1.0993214066986468E-7, -4.920646955094701E-8, -8.432710740715254E-7, -5.040468462523215E-7 ], [ -1.2484380414169556E-6, 2.83857075159478E-7, 4.2183242421084044E-7, -1.3098812989943185E-6, -1.3336062447840235E-6, 1.8099389695275317E-7, 1.7373565637001203E-7, -2.657815862651596E-7, -7.993150195538097E-7, -6.585820398245116E-7 ], [ -5.589365099475577E-7, -7.50768994884297E-8, -7.66436037416257E-8, -7.650376713945761E-7, -4.527199703004189E-7, -2.1388218090601292E-5, -1.4147141649416255E-7, -4.2827435044182113E-7, -6.025557736828422E-7, -6.675345265397741E-8 ], [ -2.594247852224708E-7, -2.8322344685839253E-7, -1.391511372323514E-7, 2.076073262485419E-7, -1.628113809164524E-7, -4.600533515472235E-7, -1.2781546750371295E-7, -1.5859109968324362E-7, -3.3629358954361796E-7, -6.084964709510743E-9 ], [ -2.353780401425141E-6, -4.33817555683975E-7, -4.060750326250119E-7, -1.8106920651730128E-6, -2.271574505197463E-6, -3.5363933531610857E-7, -4.0781803670460645E-7, 9.820735785801217E-8, -1.112348023019843E-6, -2.998621774364565E-7 ], [ -1.7514590057394445E-7, -1.9142505458372962E-7, -2.000548816789662E-8, -1.3373875040817853E-7, -4.2136672554807166E-7, -1.6885092790516545E-6, -2.0925222143871254E-7, -5.819522679902417E-8, 8.083208685186395E-8, -3.875888916748122E-7 ], [ -1.6575627546657363E-7, -3.3580899351194877E-7, -3.858974014994448E-7, -3.0433577050492586E-7, -3.162961014254372E-7, 6.857698731656202E-8, -7.986627839214641E-8, 3.4747691505412426E-7, -2.505782061821002E-7, -3.672839573282011E-7 ], [ 4.7935390800830077E-8, 5.683190486682614E-9, -2.6225388391884447E-7, 2.7445097492282092E-8, 1.2279271494862275E-7, -1.0769103558240752E-7, -2.6891881162121606E-7, 7.10567251278484E-8, 2.5528803114446434E-7, 1.3849106528995694E-7 ], [ -3.8450250447879343E-7, 4.003142128916637E-8, -1.2881085942891932E-7, -8.8735527929694E-7, -5.095935563474792E-7, 1.746433770930246E-7, 1.2899697635727343E-7, 7.784421002406284E-8, -7.171224547708357E-7, -1.8234204140812773E-7 ], [ -4.6055087762461886E-7, -6.322491508303913E-8, -2.1285891865313073E-7, -3.51802300441532E-7, -1.1462172639097002E-7, -7.174470405027827E-6, -1.1111914216709881E-7, -4.2038572749774926E-7, -8.631204579376399E-9, -1.8454886091367646E-7 ], [ -6.112722498736747E-7, -8.994084840753431E-7, -4.3646564097108595E-7, -3.56185612957554E-7, -4.4787864441765476E-7, -1.5638354306154567E-5, -1.0180626312647624E-7, -3.6587643710885383E-7, 2.079578236721311E-8, -3.526689968460818E-8 ], [ -1.0806571808578472E-7, -3.21044941433792E-7, -2.7423902192832857E-7, 1.0071689061022255E-8, -4.5759835619818214E-7, -7.847639851638246E-6, -3.343095505993818E-7, -4.973716216905969E-7, 2.0359660333778603E-8, -4.635411067102113E-7 ], [ -9.971049883267676E-7, -5.109844463787448E-7, -1.1229481195436918E-7, -5.994524773600218E-7, -1.145933989125956E-6, -7.368700633589429E-7, -1.2401959239240394E-7, 4.017889239779554E-7, -4.036753976138999E-7, -2.5966947926531614E-7 ] ]
  }, {
    "Size" : 1,
    "ActivatorType" : "Identity",
    "GradientAdjustmentParameters" : {
      "Type" : "Momentum",
      "LearningRate" : 0.01,
      "Momentum" : 0.9
    },
    "Type" : "StandardLayer",
    "L2Regularization" : 0.0,
    "Bias" : [ 5.385315182037482 ],
    "Weights" : [ [ -2.9971759758878544 ], [ -1.0536945041529822 ], [ 0.28209285199007816 ], [ -2.378634294150701 ], [ -4.824042791643941 ], [ -1.0776002375283038 ], [ -0.1178094452209881 ], [ -0.5910853994156168 ], [ -2.581657477371695 ], [ -1.8557825978226696 ] ]
  } ]
}