{
  "InputSize" : 7,
  "BatchSize" : 16,
  "Layers" : [ {
    "Size" : 7,
    "ActivatorType" : "Relu",
    "GradientAdjustmentParameters" : {
      "Type" : "Momentum",
      "LearningRate" : 0.01,
      "Momentum" : 0.9
    },
    "Type" : "StandardLayer",
    "L2Regularization" : 1.0E-4,
    "Bias" : [ -3.5038097063253475, -2.5644901694126343, 2.01266269472516, 1.2785147528161767, -3.148613155430665, -4.5547016856057825, -0.28782843580280726 ],
    "Weights" : [ [ 8.03353038280402, -3.4012030663163544, -2.592201511304523, -0.6331142684632872, 2.691031808866998, 4.599700686807928, 4.395008717669097 ], [ -0.0020511491578622918, -0.15275025555229463, -0.094837262400566, -0.03337154471328769, 0.1238060869288705, 0.051411983861169186, -0.04216312420379026 ], [ -10.65608710018899, 2.6575116252761255, 1.5484678766212827, 0.8320403600412957, -0.7795925288762919, -3.5468942588624697, -3.716822268998698 ], [ 0.24263569495089912, -1.5299549898109788, -0.2300741124680725, -0.8329451191575573, -0.5692123509274216, 1.0579267492698992, 0.9764402922035137 ], [ 0.7411495465586803, -2.193582290908638, 1.0951139265738064, -2.7748953554554947, 2.1296574421644165, 2.243167873628714, 2.2353493297425158 ], [ 0.010828037369727655, -0.07966241128520095, -0.07422192152283394, 0.051907713833332765, 0.007412145784722964, 0.17871784509890365, 0.0036032444584676564 ], [ -0.5790875114775457, -0.37335292795017605, -0.5112048829359103, -0.05878618166018203, 2.8125057918022183, 1.0106953702734691, 0.8525614556252687 ] ]
  }, {
    "Size" : 1,
    "ActivatorType" : "Identity",
    "GradientAdjustmentParameters" : {
      "Type" : "Momentum",
      "LearningRate" : 0.01,
      "Momentum" : 0.9
    },
    "Type" : "StandardLayer",
    "L2Regularization" : 0.0,
    "Bias" : [ 7.025382913545701 ],
    "Weights" : [ [ 0.8103273203461504 ], [ 0.8100566834730722 ], [ -1.0070617430885234 ], [ -1.1306625841483395 ], [ 0.7972374395615707 ], [ 0.819932411859874 ], [ 1.1470095023051599 ] ]
  } ]
}