{
  "InputSize" : 7,
  "BatchSize" : 32,
  "Layers" : [ {
    "Size" : 15,
    "ActivatorType" : "Relu",
    "GradientAdjustmentParameters" : {
      "Type" : "Momentum",
      "LearningRate" : 0.01,
      "Momentum" : 0.9
    },
    "Type" : "StandardLayer",
    "L2Regularization" : 1.0E-4,
    "Bias" : [ -1.1213417773536662, -1.8542065453622856, -4.370892875261366, -2.7780821137113936, -11.12867323218235, 0.7815834406233663, -4.395981688005978, -3.264629730567424, 0.26252064450872786, 0.2813600681249759, -2.7178064427115887, 0.19047652647699725, -3.7313541129502488, -1.1306376290551738, 1.2082201376524118 ],
    "Weights" : [ [ 1.1897633632235887, 4.261965294513845, 2.988182632254121, 3.1064143348583477, 4.421556786878473, 1.3787376088174992, 5.718985385560695, -4.01770094622845, 2.9484168219656723, 0.6174530671680729, -0.7151730684402325, 2.2094288353158418, 0.7466988004040155, 3.5421280032239095, -1.2812681334905556 ], [ 0.1142485771929085, 0.006314142533862447, 3.768818581005353E-4, -0.06931576525038788, 0.08414781112453863, -0.05347915960285154, -0.07375840245387492, 0.07791221738559112, -0.08143911796437658, -0.04730692884562274, -0.0948844424981838, -0.001679174840008043, -0.15798123032736144, 0.012007277917586746, -0.03961918105888488 ], [ -0.21375734436651556, -5.143686068878883, -1.3171938382037354, -2.2027277768474405, -3.351715539423663, -1.2349984803808094, -7.878606804511139, 2.325688566521995, -2.2911164858395168, -0.5285944664839927, 0.18455711569651256, -2.167340206469407, -1.8282435357788112, -4.2380398321894175, 0.8119298441923055 ], [ -0.15171544291087427, 0.5508912751862468, -0.5078635409666179, 1.0863800526284462, 1.3751859370020734, 0.3256571684067916, 0.8349283900853208, 2.239014088511587, 0.6270617496255996, -0.8701208056307834, -2.76580089956599, 1.1190591292654153, 1.3424365021684528, 0.35953779187741886, -1.172850472549072 ], [ 1.499314484227607, 0.4240226127657326, 2.4903817503543393, 0.8862493472868028, -4.868585658572715, 1.3085345273412299, 0.2350845493932131, 2.0917013514524005, 1.524180403401646, -2.286153453120933, -1.7144244596960885, 0.8633631368195996, -0.225498337773823, 0.4051131279363776, 0.7337433061946973 ], [ 0.09204130887029054, 0.11194731084958998, 0.16027605520298063, 0.10138543452677275, 0.1962242492929668, -0.032378931084511356, 0.05463450261237979, -0.013724544973575835, -0.06580893676982984, -0.006426612067664637, -0.019162747425142065, -0.08878579860186189, -0.3353379843390081, 0.015076285034347827, -0.1082700553407339 ], [ 1.5390604559272774, -0.042308036203827455, 2.5560442358748863, 0.5697898531753318, 0.5264519555840929, 0.13385262406370838, -0.9149828730434303, 0.5498674074334801, 1.027987389738293, 0.5887272796935151, 0.6726870693769356, -0.3517774420912351, -2.7014456926046866, -0.27646025025880366, -0.20789755155240663 ] ]
  }, {
    "Size" : 1,
    "ActivatorType" : "Identity",
    "GradientAdjustmentParameters" : {
      "Type" : "Momentum",
      "LearningRate" : 0.01,
      "Momentum" : 0.9
    },
    "Type" : "StandardLayer",
    "L2Regularization" : 0.0,
    "Bias" : [ 4.090189212265555 ],
    "Weights" : [ [ 0.632515085585043 ], [ 0.6381605387348616 ], [ 0.7093072963716378 ], [ 0.6745220162453432 ], [ -1.0354604512716015 ], [ 0.7323792697522593 ], [ 0.6344447397446495 ], [ -0.9400924635573589 ], [ 1.0510640350073155 ], [ -0.8515973266149971 ], [ 0.5891481905261456 ], [ 0.7937433349687752 ], [ 0.3504321750652107 ], [ 0.5568433507540724 ], [ -0.7979404393888129 ] ]
  } ]
}