{
  "InputSize" : 7,
  "BatchSize" : 32,
  "Layers" : [ {
    "Size" : 30,
    "ActivatorType" : "Relu",
    "GradientAdjustmentParameters" : {
      "Type" : "Momentum",
      "LearningRate" : 0.01,
      "Momentum" : 0.9
    },
    "Type" : "StandardLayer",
    "L2Regularization" : 1.0E-4,
    "Bias" : [ -1.0212742792847653, -0.7111959970050002, -2.147026498049211, -3.3034710906513687, -1.7359630454992414, -2.055161147634719, -1.2662598753175562, 2.417281255624111, -0.12771411816494319, -5.493080042524378, -0.21425142297148367, -2.994202715353502, -6.6704390499231145, -2.2364752507042884, -4.094523513471197, -1.9062666147002947, -2.7983881648432467, -8.392986353688526, -0.2654182536444869, -1.0647946564886939, 0.5546881110380729, -1.1697235108451862, -5.220007548626605, -1.1050595954710982, -1.7317021745434757, -0.7509148265669737, -2.3636188283253405, -1.7824151541602684, -3.7879780178195386, -0.5877886673797084 ],
    "Weights" : [ [ 0.3777374757100767, 0.22283111466913563, 2.565723232148365, -2.699990457621814, 2.6683571281213982, -0.14250700356933016, 1.4540099453987467, -3.622050302434395, 1.0637742523298275, 1.5105877366682772, 0.6695872270615291, -0.9046186025113584, -3.5014800345416703, 2.6319438789975007, 0.774860919608971, 1.569500779992988, -0.3609669532149597, -1.6434136903397942, 1.217328621384699, -0.9268524646276692, -1.162698617899303, 2.3448881380260915, 2.436779742236091, 0.354058400670957, 0.6644434627529929, -0.2302028630123201, 0.6829772095202447, 2.238951837122062, -0.394995065282925, -0.6905430093698028 ], [ 0.014229254351664517, -0.3736961736115186, -0.6910325513965583, 0.3839465405005185, -0.2370945954104793, -0.06859887311064918, 0.13597853293731127, 0.06503162336049208, -0.17833889776181533, 0.055114086906716, -0.15489845566437727, 0.7620666777322811, 0.20948749658340582, -0.219507631668529, -0.43994175534039487, -0.06777203929834907, -0.31758911906834414, 0.3402024270163971, -0.05002333945284086, -0.4642860048765735, -0.1913159263925089, 0.31350537713218984, -0.02020494778773812, -0.010128717631850876, 0.20820766599692916, -0.017005336165763576, 0.2999141403988741, 3.3619529055305835E-4, 0.20575304604904487, 0.2713723550708708 ], [ 0.09248076077947703, -0.08873125259635514, -2.3300169566616615, 1.4030862747235908, -2.877145040603316, 1.266822936688596, -0.6706321020858166, 2.8307113826560926, -0.2899132364306903, 0.2301691989915251, 0.2763246410212397, -1.260035607487, -1.3051217624425826, -1.9882158923584996, -1.5552081501875648, -0.2798395940149072, -0.2107259937441533, 3.342064156332278, -1.6716833650088367, -0.6931839865681411, -0.2874348220583094, -2.3240423208880348, -2.7041045155336763, -0.11099537320419925, -0.8820490478994535, -0.7501673144087095, -0.867844743430964, -1.1935363817306455, 1.6898234222309978, -1.445125727461248 ], [ -0.9105658165562583, -0.6610549216120032, 0.5356922096819974, 2.010215391788767, 0.35864622063036017, 0.6670460085430904, -0.8040020963816163, -1.0118086611161654, -1.9663078413446327, 0.4342738931299783, -1.9091208154903345, -3.5094202871476097, 0.2293288319367658, 0.8514730386856221, 0.4608677394774574, 1.7387098809846684, 1.0611492079673603, -0.1615111349354331, 0.059060990127773105, 0.3798906519822786, -2.4295688181205395, -0.015454014053359427, 3.0635420187592906, 2.2181436389639084, 1.6092810561701383, -0.9261281124544204, 1.7459408682457243, 0.4593813181538623, -1.2638203078455053, -1.9054738751779952 ], [ -3.2105290808569396, 0.02679154097014242, -0.07331984060287526, 1.746096733810381, 1.5669835933039702, 1.3596748096937066, 0.7657391083063829, -1.763088979716631, -0.3678730498603729, 1.0779886201070168, -0.04625152880074769, 0.12111014013642332, 0.5820963556538288, 1.3956504251103496, -0.10592396524408466, 1.3376116355405654, -1.6274873095976077, -6.651924748292993, 0.06828303410944615, 0.6304146010593974, -1.1315235571173246, -0.01930093234645939, -0.18548645976256264, 0.3245336000885311, 0.7390464642119581, 1.8523998214810504, -0.4642548832137501, 0.9107132934586263, 0.7620294143682004, -0.7059205852179019 ], [ 0.12422008811377418, 0.4374074462130961, -0.5829923127181066, 0.11470850806060819, -0.251775661667687, 0.2891775728957561, -0.157998100528742, -0.05525053116056168, -0.5749880709665935, -0.00933552913928209, 0.3994278231892847, 0.38832404856605335, 0.4301942059962272, 0.27548705598667766, -0.27462240768815577, -0.2673049464731487, -0.1814926302485535, 0.13018036176323547, -0.38780107265709646, 0.042335621228031674, 0.1450153241367191, 0.1957144195809474, -0.34620473307565086, -0.0839506317704001, 0.20023746273230575, -0.017220742820550444, 0.4017842477841038, 0.3145547653968626, 0.046790129313845095, -0.23568839554571397 ], [ 0.9225658470806904, 1.3437662669828745, -0.619971982080873, -0.3319021991516042, 0.41731017570732154, 0.5206075684808196, 1.8679123161565134, -0.6293601305027551, 0.63670204321735, 2.2887569718410807, 0.5713654621860423, -0.09846136885120249, 0.6204336985176285, 0.5310068574737821, -3.1530402937625137, -0.3106224635780619, 0.6851472827940109, 0.41168565287716097, -0.34928679519712946, -0.27687533560389227, 0.37010321591826606, 0.8408310959447495, -3.4180060515675166, -1.6572335906407558, -1.7800831928315173, 0.2105520603354292, -2.998972794017308, -0.019384635039048373, -1.8147879316490847, 1.8304166873088865 ] ]
  }, {
    "Size" : 15,
    "ActivatorType" : "Relu",
    "GradientAdjustmentParameters" : {
      "Type" : "Momentum",
      "LearningRate" : 0.01,
      "Momentum" : 0.9
    },
    "Type" : "StandardLayer",
    "L2Regularization" : 1.0E-4,
    "Bias" : [ 1.9646681336458198, 1.4291138109301726, -0.8008841920976484, -0.3336943379938109, 3.168015582862007, -3.0565763981937746, -1.1498500468574038, 1.513748598084511, 1.156018496473882, 1.188835378719852, -1.101807679483089, 0.8958007612807461, 1.5496955248892317, -1.5342800414842381, -0.5518582512340294 ],
    "Weights" : [ [ -0.28186242128331856, -0.38117658455300896, -0.7336113372484916, -0.5125057455770669, -0.1741962952211881, 1.0955982392204653, -0.9933591721186352, -0.7022881238212589, -0.02569122624999666, -0.054976679609858865, -0.27861538428971866, -0.4654515268127638, -0.2069627246235763, -1.2292847732281016, -0.11263101840513698 ], [ 0.22377352270751893, -0.35406130342567893, -0.1885363180274114, 0.32860771430564417, 0.26294071175534867, -0.14155480528889475, -0.4379665903036962, 0.6313873000970098, 0.012096486087412744, -0.8143640351479132, 2.2196328175548046, -0.2457531332474092, 0.007526946019742526, -1.256758918174994, -0.14474562619593426 ], [ -0.4459356285028587, -2.5762200078619406, -1.4805235922138118, 1.042367572594663, -0.37486912962220026, 0.47599687470775215, -0.4121636199638778, 0.530055041700185, -0.3217555732864341, 0.20200424302036607, -0.8704350609583572, 1.7228069248291435, -0.4198948804352666, -0.5426268421753878, 0.049707804546640054 ], [ 0.07121839334150741, -0.9791528474322957, 0.3931014371970458, -3.318489863908875, 0.10571705721003362, 1.7820930253210074, -0.6497681241793649, -0.1077344848568817, -2.8247557224160884, -1.2004930772453593, 1.4522784784463305, 0.3762228625822998, 0.7803006274941144, 1.006464162989891, -0.21217014404891588 ], [ 0.44418664919796363, 0.5719819121098444, 1.2905481510686998, 0.29721962041651434, -0.9861343737252186, -1.2901001254999538, -0.16295247594264137, 0.21804338735209466, 1.0595537936602284, 0.3624185531926561, 0.10378915345389897, 0.22881825165480355, 0.7929092995228053, -2.023016368263411, 0.003890182613713645 ], [ -1.0427497053475545, 0.019761406929409156, -0.2582010893393803, -0.4829350077743657, 0.2843628093557604, 1.2005404302026195, -0.7025768420906672, -0.2887357761146078, -0.23581197067745888, 1.3350579743209203, -0.6912720696307357, 0.301884964067179, 0.33361417687510464, 0.6551260585017399, -0.08856346369581279 ], [ 0.5322400379911499, 0.5525467876381124, -1.7511867956821279, 0.4004326075649286, -0.6708055034327441, -0.9858074056806783, 0.22307067969057096, -0.5793606480100264, -1.8091221706028067, 0.45787131295977884, -2.869890821864897, -1.0045307656267408, 0.7167201769953614, -0.14785527118059635, -0.006730899676415719 ], [ -0.8148177602702497, -3.871982757240662, 0.1300584619019898, -0.4018841698182991, -0.24922636389066274, 0.7272845349332612, 0.38603816064179364, -0.05955128544553083, 0.05907449779803083, -0.5179286906790245, 0.3929277646149031, -0.06985251505004128, -0.379616114754897, -1.181401643558358, -0.12549157836029126 ], [ 0.30459614730713724, -1.4771624054554684, 0.07564894697575925, 0.1714756926592816, -0.5114069286298976, -0.13094738958023325, -2.3443443544185785, -0.23513057108745186, 0.14686746601094022, 0.025464862293342112, 1.06842764950178, -1.7196010622337046, -0.031533427693504396, -0.9140840903515894, 0.08260176552074439 ], [ -0.1663197524856173, -0.09548789097897936, -0.11266987552466431, -0.8162209607643316, 0.7484778874806243, 0.2963049631329666, -0.4431902544333149, 1.5430746956841324, -0.12210468691965949, 0.06428926101477342, -0.22554709714018206, 0.3752596136045631, -0.5321742035507528, -0.1405909926635676, -0.14179115618982027 ], [ -0.056112968012487205, -0.23273414094302083, -0.2628400194423049, -0.7805303681402825, -0.2678362479369868, -0.09503801665776336, 0.9050448921824207, -0.22822046422917236, 0.05172657793776317, -0.24554850845594048, -1.867560864694308, -2.179239302989453, -0.011595714987628524, 0.0037754721081187945, -0.14605781822744382 ], [ -3.776283018271391, -0.010143558864479802, 0.5261424657668449, 1.7729922352339982, -0.23589141553741444, 0.1738238072800193, -0.45964459497218135, -0.38668093904956924, -0.36976094739123466, -0.08553035168706305, -0.19950611376212132, -0.18025120974190134, 0.554946781181856, 0.5112230774230708, 0.041983853477946524 ], [ -0.5672555331692127, -2.0547519174718882, 0.06301080906667145, -0.12129430470265777, -0.6153737840660566, -0.2865510511097058, 1.1816594698979643, 0.07030366687067298, 0.46539945811981126, -0.9870332145155124, -0.8012757592316657, -0.33996344856201655, -0.5805028728097942, 1.192740053239394, 0.018069592028331624 ], [ 1.5086658135988247, 0.5490867604018081, -4.305439359977997, -0.4054728808712307, 0.5171408986724724, 0.4035312135754768, -0.041369056966323585, 0.214826418772282, -2.241206902373282, -0.227127877522263, -0.578848708999456, 0.028158093720602118, -0.5414078553066144, -0.791612014165407, -0.20079829013348216 ], [ 0.06571266670698736, 1.0287015184560304, -0.44246251181251195, 0.30249866815314946, 0.06616265158087369, -0.7542796693399845, -0.9935558985503767, 0.15033426065738373, -0.6038947306471271, -0.2866687816289105, 1.4592253644265623, 0.7150675637665712, 0.4582004482120077, -0.6457967401339398, 0.042709741523066065 ], [ -0.336153062798429, 0.09684860053710305, -3.0845515232448415, 0.6503177650623788, 0.765658170537425, -1.2861839418330498, -0.29320299699747865, 0.3886926553245689, -0.18057811839838345, 0.433337673104424, -0.09404942362326206, -0.3072480555835562, 0.5301130825082369, -1.8461359282931802, -0.3885292116318523 ], [ 0.30173471353351305, 0.7013526650292762, 1.4252106910634694, -2.211281968246739, -0.8003763141284479, 0.3708948070402703, -0.06874961941466864, 1.0390141410069151, -0.0645727767990377, -0.7401958781246786, 1.5487679723869614, -0.7313649052204458, 1.0527270622536462, 0.09301881625781111, -0.10115426934145985 ], [ -1.566910002504696, -0.4671441223784329, 0.47544503402867866, -1.9074325377277188, -0.4428449934954168, -0.11097556732004833, -1.4710210038502203, 0.05835259635083064, -0.37640952048562026, -0.8624554747367191, -0.7215005265060834, -0.5663454351600935, -1.2328002206636084, -0.1871562354462653, -0.005570317955829759 ], [ -0.015253773434176771, -0.29772337980356317, 0.8462682231208104, -0.8005185339766345, 0.8964623467315356, 0.4479030271124079, -0.242616429998428, 0.291621759427621, -0.23299655505410952, 0.09775888223393578, 0.7545943448894299, -0.44061369969549324, 0.12240448690716153, 0.3532453149284045, -0.05811425302813118 ], [ -0.20941033513062263, -0.055487806909825084, -0.11087152211557173, -1.1088523555821905, -0.3730014924826282, -0.5028644876933388, -1.7876678850579553, 0.5931274816288814, 0.07408814992231896, -0.37374425128954947, 0.7453191001262444, 0.34496150749177706, -0.47127270513206315, -1.1454704214255376, -0.05442824882176714 ], [ -0.12375329050478638, -0.9309368629272224, -0.12690604916677006, -0.4546968208220822, -0.5582223863758267, -1.2101987307257231, -0.7361748978858529, -0.2939610289343895, 0.6441834846324038, 0.5504779496302805, -0.5494422911447467, -0.5721891331380663, -0.7328124899373498, -1.0943595116204476, 0.05445698179817416 ], [ -1.024710758175795, -0.14161063727320672, -0.7687068183744536, 0.4295061278649253, 0.719965073862934, 0.6951834346940995, 0.968255945285588, -0.10958553785123999, -2.6946436789791726, -0.5500500793753982, -0.19550258404485327, 1.4870755682996073, 0.36926926142069805, -1.0547611944690698, -0.33158614980059403 ], [ -0.39508887099308077, 2.438655613860507, -0.5725146829804458, 0.37174765733744325, 1.0975812165868382, -0.013305917203238699, -1.821357420273484, 0.1857867026841531, -0.9754605351750242, -0.21044017289358846, 0.6179315642203694, -1.1645805766092916, -0.41426996973693025, -1.3718553601194396, -0.26674198943701627 ], [ -0.4103252233000407, 0.21260111446903943, -1.2989449050027881, 0.7516880520253488, -0.24937281973681724, 0.20309344569585774, -3.950808538768265, -1.7749632635944275, -3.904581493046084, 1.0130634172190336, -0.5934472334872581, 0.40688561806976603, 0.559217547945757, 0.21162086547587142, -0.11292065711301526 ], [ 0.4323871499013583, 0.2985331481303608, -0.13040947044705642, 0.08443815306837016, -0.1087749111936587, -0.3100982039387647, -3.7816115255912948, 0.43101668882900773, -2.880680690756026, 0.6483991604991708, -0.4257121996181972, 0.2938416698001404, -1.15858658144218, 0.4430666501927733, 0.1394424868091466 ], [ -0.10499545866453862, -0.6213425241727357, 0.520036790134264, -2.7512981525794493, 0.14178718219507289, 1.1650006161378132, -0.8081306651967538, -0.08327709171667236, -0.351269888283356, -0.3334965504480583, -0.4440952456068026, -0.48089464240618507, -0.042696880172956704, 1.2818741186122804, -0.05972436276539204 ], [ -0.6488536214476602, -0.5086275345238987, -0.5077372633349206, 0.26430217687664437, -0.7543518690273328, -0.49052682636736483, 2.2073695189590032, 0.4637084488951267, 0.8337290814797047, 0.3381627176538597, -5.327704813047147, 0.18288119061370722, 0.5497927726659434, 0.754079313605366, -0.36725506461879004 ], [ 1.1052678185182259, -1.0951456897003236, -1.5793045354290094, -0.1837278753061318, -1.0311779563152013, -0.6254767317410411, -0.3714719556358217, 0.505108815887738, -2.639451370608906, 0.1656943540531554, -1.7099532614960222, 0.5212950031578454, 0.40618587466103023, 0.9732181247369123, -0.16959372288143687 ], [ -0.08277831054761087, 1.0460307306607495, 0.3140975670891586, -0.051200975237103145, -0.21335913732784947, -0.23800187307614415, -0.31841822919054324, -0.3714513586824436, 0.10761637955962447, -1.252366723850667, -0.4033974913294366, 1.714238485512789, -0.05198097059158189, -0.9967141534555974, 0.13093621479815087 ], [ 0.13351499228149852, -0.4736117549131092, -0.1753439416014138, -1.2681826256735074, -0.19543790219293572, -0.04935526922183765, 0.4776202224891781, -0.41629917696063473, -0.019827120483545988, -0.7484161484164389, -1.9549110670407484, -0.12379816651907326, -1.1681985009426226, -0.18368791166014886, 0.061251983907609 ] ]
  }, {
    "Size" : 1,
    "ActivatorType" : "Identity",
    "GradientAdjustmentParameters" : {
      "Type" : "Momentum",
      "LearningRate" : 0.01,
      "Momentum" : 0.9
    },
    "Type" : "StandardLayer",
    "L2Regularization" : 0.0,
    "Bias" : [ 2.4281501017622693 ],
    "Weights" : [ [ 0.7960604630859878 ], [ 0.4338176181699776 ], [ -0.28822678771668764 ], [ 0.5369811435677877 ], [ 0.6336236892142718 ], [ -0.28955155296882934 ], [ 0.6930646826153289 ], [ 0.37768362058344923 ], [ -0.3229569831299184 ], [ 0.7668064244633763 ], [ -0.4898986700265172 ], [ 0.6177688165106804 ], [ 0.8131310261016035 ], [ 0.47010669222253226 ], [ -0.3913089836631642 ] ]
  } ]
}