{
  "InputSize" : 7,
  "BatchSize" : 16,
  "Layers" : [ {
    "Size" : 50,
    "ActivatorType" : "Tanh",
    "GradientAdjustmentParameters" : {
      "Type" : "Momentum",
      "LearningRate" : 0.01,
      "Momentum" : 0.9
    },
    "Type" : "StandardLayer",
    "L2Regularization" : 1.0E-4,
    "Bias" : [ -3.7765401963218657, 0.9076357640349773, -2.1825758578382963, -8.177460866194208, 5.853554111792136, 1.9743516388194877, 7.266714081208113, -3.64563570121957, 1.901799942765682, 4.619364067263989, 1.2218367537483577, -9.776905553058022, -0.01826891984688274, 1.6381608508958883, -5.852848223325313, 0.6710856846794327, -7.138434896397165, -9.411139379991084, -9.728462064353417, -1.859818323509073, 4.70324759476261, 11.548403332811295, -8.318146120090727, 2.9885316207840873, -2.807455901584995, 0.2533999823031323, -3.9240988453887744, -7.650756446861598, -10.157349736655915, 5.186145400506999, 2.8455664213704175, 2.9583414611350647, -3.4164290561385107, 4.729259354042195, 3.9416955858126594, -0.7119989635669565, 4.859220870656506, -3.2650583115191028, 4.7514421936240545, -3.4993184850057486, -6.7814599403094835, 1.4406468684032967, 6.839366566223903, 8.545813997030068, -2.2315627823679005, -4.069781518037506, -4.019225990774278, 0.44936088793096857, -3.634017660566568, -3.1252987326042314 ],
    "Weights" : [ [ 3.3785016145757405, 4.382487935138499, 4.443888588051865, 3.9049950147136476, -3.3000669928890023, -2.9537459066581695, -0.8638230410677814, -0.4005331730511727, 2.626363594975176, 1.8534882567233155, 2.961322653152397, 3.5826831181751446, -3.1917901505629804, 3.902207580853398, -1.6541554395399032, 6.436445477895606, 4.368240304206413, 2.5791536996409734, 2.6224285162397516, 1.044149083182758, -3.166893328318087, -1.6472295554653231, -5.744227441521629, -1.8290432160898846, -5.548906963158478, -5.873510040575476, 2.915924304898573, 2.5697023485743617, 2.7716165253124987, 2.9239131121422623, -0.0020753646496468004, 3.229470516628824, 4.724745341569393, -4.620080787510138, -1.800809916408619, 1.9926576924914792, -3.7522397366807305, 1.3179915482267186, -4.015843579931794, 1.15916123135269, 3.6331666441856756, -0.1543007651267329, -2.4392836450247612, -4.487607457162876, 0.5717930090985531, 5.012367583458435, 2.450820751796364E-4, -4.1505774557652995, 3.977669065569012, -1.5299866121836116 ], [ -0.05243584985664817, -0.4019890119348123, 0.42468658415272437, 0.19112798714695187, 0.8073659716550307, 0.6337206961732881, 0.0483537242739664, -2.5624914741425853, 0.3811850685223138, -1.672968304067003, 0.2440094492745217, -0.24705230795609068, 1.3555407166276727, 0.13001612874785223, -0.4466657888504035, 0.933897192133866, -0.31170634816069187, -2.535955884919075, 0.6137619767441217, 0.6645554973316459, 0.275983003771051, -1.4761863414343568, 0.22733667750778702, 0.3069456224355906, 0.03007801226835324, -2.802438896274788, 0.09027659021729242, 0.8171902087510852, -0.5366800418265796, -0.5967279419269214, 0.6567141534302154, -0.3216725652700302, 1.4296863166930909, -2.053941564447521, 1.7228825616328582, -0.18317920050698033, 0.35962667946731103, -5.039035682213606, 0.908676734685903, 0.42470852557572836, 0.5477867826816629, 0.29615837376361176, 0.9205803900797638, -0.523681321020976, -0.31687053605057686, 1.1276028679172538, -1.0897147063532173, 0.19630659552585777, -1.5675742547743547, 4.327149279721795 ], [ -0.6490844577306474, -3.1935585767567427, -2.187570800671583, 0.49170320911458343, 1.3995211275241544, 0.6642988055890702, -1.8810492313655924, -0.5715888920029336, -5.463488652697869, 1.6002651148302587, -0.4512121965615125, -4.991164176451437, 0.015510619312304097, -2.2165240447973575, 0.46930169671968314, -1.358804555698499, -4.723643965308626, 1.2058964726483217, -0.25740565020235323, -0.07717639217835777, 0.2338495689803792, -0.7526509303243412, -0.7834440752420777, 5.091615166393641, -0.6725559977223583, 3.1553782379008584, -4.139872516891688, -4.629715414852913, 0.6053738058981087, -3.8281379088162026, -0.5287835970983353, -0.49256259918644574, -2.555177010202486, -0.829250961537129, 0.12940850457546926, 1.0214998008990777, -0.8109622082507194, -2.2466377918504197, 1.946991005847065, -1.27528858886273, -1.654274570374152, -2.0099000483488703, -0.9026980918619102, -2.5108104925483876, 3.2327824896851522, -4.586497720878393, -1.4869815834212354, 2.157743634882461, 0.4921935952431816, -1.4803131852919855 ], [ 0.37740654075662017, 3.990010965875874, 0.9965461228272045, 1.9274747694919634, -0.8048198096621629, 0.17634291947558509, -0.7339478348249979, 0.6525405448114334, 0.21811358502671352, -2.576114052064571, 0.7963960100260975, 5.507824981798258, -0.5241473478325464, 2.5267391722825767, -0.12499186763226959, 2.7562893150723666, 3.452491372070489, 0.9618293327274012, 1.8295461319261135, 2.996095320969535, -0.26630034130941943, -1.131655591850066, -0.23000266346968345, -4.140518037523217, -2.6524070943734874, 0.042705168479664636, 2.5395795108910737, 4.144205713481876, 2.3074433016671283, 0.33304295781353455, 3.6493191862731478, 4.505774229652806, 0.6963975843128034, -2.172937307253163, -5.76507395798862, 0.30016737887824707, -1.5430012935636677, 2.563440525496681, -3.2352798545045425, 5.912289855226737, 1.7158207265821286, 5.6197078169889805, 1.6468461441509588, -2.4086538747009416, -4.58255593991035, 2.2327291529973334, 5.4825292239424375, -3.71989821553326, 3.062389141096013, -0.6484317491176494 ], [ 3.3522986214213795, 1.8041191572297788, -2.0739582574782505, 1.146826564891676, -2.6218986592251197, 2.1420635272031165, -3.910255070102798, -2.922707079402811, 3.913929842202331, -3.983221848098628, 5.2455292274102705, -0.08977410707830787, -4.010645069760114, 6.169383410962329, -5.118601975432836, -3.9968668689364963, 0.6860468985673674, 2.6046597432706924, 5.065078641304436, 2.5117153422746106, -4.434066452508626, -3.301364452371233, 0.11266159342782937, -2.95163341095456, -0.9497529877871772, -3.582370058642528, 4.307276124805462, 2.3000124997562894, 2.4406692410207182, 5.122506377075721, 0.2864748619004912, -0.22826801255299908, 3.808172573680631, 0.8011639283940202, 1.9705041249434765, 1.335477531344927, 1.96507210087031, 0.6286632632091514, -1.496221655368713, 0.42091697650570054, 3.692424847173835, 1.9134686017678995, -0.43594174193751556, -1.1921489186803222, -2.195105839293921, 1.0446507608273394, 0.536113007741957, 0.6266768189143567, 1.0711603485330081, 0.13405888665251664 ], [ -0.9177925192660318, -0.32526755931712587, -0.545758403663823, -0.9242894006288408, 0.46599298490606, -1.3567854970741346, 0.45446204654331007, -3.207505024453638, -0.047693962815803126, 0.6039773980047136, 0.3432380239525874, 0.06605484028021802, 1.7175829632338442, -0.7761012993678251, 0.2530672671804818, -1.1453302087948751, -0.5600494649563895, -1.2938080706350152, 1.6577979352768841, -0.1478448904988021, 0.214954690253801, 1.2467540650683062, 0.5078225425219074, 1.629084966604001, -0.11369382130717882, -0.16742403663107966, 0.36459678872307694, 1.2695504659085861, 0.5952437765655874, 0.4082766819834549, 0.5627527135946399, 0.3944607458907577, 0.8610545699237755, -3.2487565065039195, 1.291344794987248, 0.6015069489892789, 1.9527326372337614, -1.8640333573449328, -1.1580732021067368, 0.062206295739365085, 0.8255065003446365, -2.20326195836937, -0.14197535213893453, -0.599044337044618, -0.46752867933005526, 0.05755795363642711, -0.05876499788753772, -0.8472835408919666, -0.3506688416469869, -6.757144525161742 ], [ -0.4955279912025325, -0.2425325128060539, 1.1450448876562471, 2.143596974701927, -0.8985172257862192, -3.2779804157783454, -3.76981772842134, -2.57097071906099, 1.1920281475096621, -2.7766769896942676, -1.5854640240186286, -6.816390040117851, 1.2567214603933654, -0.4602179247104734, 1.0547005363030728, 1.6930341305575742, -3.1390595702195068, 0.6971294870755674, 1.2231578034886479, 1.870695028731979, -4.224957517079928, -3.402918900811982, 0.180748442400382, 3.3151919737901347, 2.9225055450903614, -0.33358209895440266, 0.11149532322563777, -3.3918910267220186, 1.2332511180259893, 0.5417038283468935, -0.0982499059567375, -0.10142177255426404, -0.3276823194703513, 2.078904473674505, 5.328227732880325, 1.6722588166652268, 0.4834232292746284, 2.191571411270383, 3.1132380903142662, -3.7844525735364813, -1.604593371811562, -0.8940531744426347, -4.861285682257537, 2.803910175317522, 0.5900532491332421, -2.7970293295459, -5.284422954492987, 0.39423367953444893, 0.10954855495316333, -0.005956351592825612 ] ]
  }, {
    "Size" : 30,
    "ActivatorType" : "Tanh",
    "GradientAdjustmentParameters" : {
      "Type" : "Momentum",
      "LearningRate" : 0.01,
      "Momentum" : 0.9
    },
    "Type" : "StandardLayer",
    "L2Regularization" : 1.0E-4,
    "Bias" : [ -3.6165979712911835, 1.4029669901976236, 1.4041813353357002, 0.2674946183926993, 3.199622570870494, 1.5082791589468278, -3.5859689404725863, 0.8812831371149649, 3.7026246740779563, -1.337103013306101, -2.2713252857846036, 4.122679863740396, 1.5027900679751711, 2.681176147744361, 1.853284982831868, 1.9512672401640554, 2.5143029823123784, 1.2766474053795012, 0.6335138389554248, 4.69537893448336, 6.239438801470394, 1.8479166289569278, -0.8305968695716487, -0.8633618888186437, 2.8426126542105328, -2.0353159927261717, 0.5428081657091429, -1.9124239179540865, 1.2862688016892387, 0.5872047104268432 ],
    "Weights" : [ [ 1.7645179412407412, 1.889593344518173, -0.18321095837746432, -2.0842882566212753, -1.450233973517115, -1.5228370340804547, 0.34089181528541124, 4.695612866691744, -1.6832218649667514, -0.6777966400066345, 2.0749981814870035, 2.701146401166849, -0.6601503841925478, -0.44473017890156497, -2.3750040276321918, 0.6242534274395644, -3.5475948253876517, 1.5865332797119016, 1.0812205809628155, -1.2211069559807894, -0.13501853584284262, 1.4639935650244578, 0.07965570031121652, 0.9960489144231087, -1.636309191135779, -0.489049848020521, -1.8791651107987268, 2.0712802597100723, -1.3045168180260283, 1.254351915434598 ], [ -2.9626164950290743, 2.7555973014201247, 0.1932442706587843, -3.703416949396783, -3.326429733901853, -2.8109678569997123, 3.2244451048503033, -0.5504853372195172, 2.5979508445321375, -3.585221103381643, -0.7311462919930802, 1.1798813641526094, 0.45252551892798315, 0.7332927471338189, -0.23047901684758762, 0.4042017895998073, 2.1301622241962614, -2.3057444159734755, 4.095346510571185, -0.5844923833973271, 0.07479771323870127, -0.8771967229962299, -0.2865007657891792, -0.9517821958386949, 0.8421462000511122, -1.022341944506538, 1.6476336627401322, 1.4187049311877493, 0.3866488114598918, -2.4998231835408578 ], [ -0.5200504501732552, 0.22432286146408842, -0.22132832550528214, 0.8782501092075526, -0.9102232208040502, -1.4858632232341318, 1.4547934376995142, -1.0818853808819315, 0.6860276054558752, -0.8909122795635711, 0.8211685195568567, -2.73875793869472, -1.1076981811381155, -1.4234033673549271, -1.1948744864867429, 1.352751343295732, 0.6080462027946936, 1.2233596241278788, -0.7437768349346042, 1.4912738750651238, -1.7575690880306458, -2.891200148501714, 0.3428771145110425, 0.6117047326520663, -2.311893814233284, 2.2108918405395426, 1.7041932222395146, 0.35399438369838887, -0.8219979998560212, 0.5511752041705088 ], [ 0.35301141502793126, 1.4271375843038998, 0.2191681033041645, 1.4716872170607662, 0.5766757358713548, 0.4396045997657094, 0.27026398837404453, -1.8856446295977176, -2.6360554141590993, 1.3471428730218187, 0.9588670983638418, 0.06115085832126256, -0.541349406918963, -0.6418450087671933, -0.8170454723063796, 0.07827959082057127, -0.5970237308280628, 2.9637913880386653, 1.1351033330137008, -2.5376572480904707, -1.9650551014474011, -0.3200947451587524, 0.6938065887902457, 1.9075049194008569, -0.7897395486068376, 0.8086465844476084, -0.6736847957904676, -0.5077734194962448, -0.37684328920171595, 0.741805199572723 ], [ -0.011031767271938626, 2.1443202150404908, 0.9615809047449484, -2.0033443071677985, 1.4089830494302875, 3.1258371936566007, -0.2704988724430373, 2.416637526212475, 1.7934842424918533, -0.5458953128276852, -0.7478012491944397, -0.20975236797152624, 0.9422227939557957, 0.9849990115639279, 1.7220325730890738, -0.3783301913511042, 0.5143700872928586, -0.024897352259573558, -0.07683778333735736, 3.20786437883123, 1.2828118747569457, 1.4913832737455102, -0.689122283909555, -0.07296264324101605, -0.677730165569663, -0.5113286007727901, 0.3458819273679091, -1.5959885397463478, 0.9655831733432713, -0.35072598130114535 ], [ -1.368180952202411, 1.0862395545149557, -1.7474872349925676, -3.215470644414439, 2.3065430012160286, 1.159831101289104, 0.49530276972123694, -1.59416468586877, -1.6265691610423156, 5.056090790575382, 0.42070766845275326, 1.1425538073346388, 0.2308832352636643, 0.5224765801465172, 1.0942392261857958, 1.2480877619922643, 0.8265843305637378, -0.8353828426559032, 1.5352271177551897, -0.3956082594459029, -1.3851518133286946, -0.04802349145305282, 1.7210047820210728, -0.3390515842610437, 1.4844161179620858, -0.9924627402774171, -1.6049429820502186, -1.6477365607077437, -0.40105615221905594, -1.5113749629449975 ], [ -1.1734823388327547, 1.7897933482980002, 0.04236797343283281, 1.1784358203455731, -0.5880981021560683, 1.4225167277404636, 0.41393351557345076, -0.22607292049348723, -0.48150753256755074, 0.5343322981253351, 0.5431676623838871, 1.594891733612549, -1.6039649310489275, -0.22689519510968803, -1.1693291765878577, -0.29351324142220414, 0.4449772644712769, 1.6101548062426598, -1.2900796062336168, 2.5676511825208204, -1.3414033673369432, 1.2027191691040016, -0.9807971456907073, -1.9562259152952086, 1.1503010760803851, -1.8132941451738462, 0.7253460706673909, -2.2976182576684674, 0.3584535513579381, -1.4915552894126 ], [ 2.1072015792697663, -2.213672369694046, -3.0656601291964702, 0.5188689555083322, 1.42742652993103, 1.9483438458182223, 2.3460918426025326, 0.7303189813509268, 3.591303895778192, 0.18617926543937297, -0.9652031266199067, 0.8111116636415021, -0.6542792428483266, -1.4370111165847537, -1.2396569826932686, -0.9663325385740408, -1.1828484547630895, 0.908986937990703, 1.743481291419509, 0.9279765608407953, 1.0525152285796648, -2.67234824881884, 0.4982299985813488, 1.066155989532468, 0.7664264007055464, 0.3464904612799922, -0.307683926360159, 0.54480196150451, 0.1506402039918707, 1.4923790521880387 ], [ -0.260978788657023, 0.8006257456073721, 0.20759411208044357, 1.5315144239050744, -4.171235363948772, -2.0627486305081364, 0.7753387322316057, 0.6290694467655209, 0.24271694974555605, 0.5500531563594441, -1.5210740039196162, 0.11405288063320675, 0.8593827277272755, -0.5717140098025151, 1.304339305543108, 2.143630322280561, -2.806276819872297, -3.2422869539098382, 2.364525581385586, -3.3080583057289012, -1.22290316432237, 0.2414294885735927, 0.12888539219946474, -1.5034540393544822, -3.0050861064463312, -0.8351331100907785, -1.9491029980331758, 1.5577706595794676, 0.4699126574623574, -1.003122442583012 ], [ 0.1602259249164852, 2.7031738902404445, 1.1149963795343498, 3.870762234469776, -1.6971374772058347, 0.07935576891159808, -1.6074466629846336, 0.9752108697022458, 0.37988982638549673, 1.5865329132705253, -2.081992737829603, -0.5321586149671004, 0.18843216815850436, -0.1360223205030318, 1.255627062854195, -0.1331515020712567, -2.351548016457434, 2.1731148250173153, -0.4358590157995795, -0.650346330617494, -0.07338398624702065, 0.02897454207943753, 1.0614232909171868, -0.805040881247167, 2.001461828190366, -0.42162329660453657, -0.5832580054909053, -3.2233840052482186, 2.2709712639717163, 0.2182257838242828 ], [ 1.023821525687731, -1.409475871317161, 0.16640289516540024, -0.3883083141911408, -0.4738013025375577, -2.6432291757366224, 3.0933447402038734, 1.8155509887748975, 0.016985590294760596, 0.5034343935974221, 0.5577382781178002, -2.62747904898402, 0.4900069607128335, -2.192060053987532, -1.6502760661332951, 0.045686458445343275, 1.3042438273867802, -3.0755246675791885, -0.11722407902718383, -1.3336443186817233, -0.7817210134409253, -1.7607313505293205, 0.5572188692696146, 0.8323821561898742, 0.7576967829443897, 0.1325531631276525, -2.1854151892395572, 3.3427923353486375, 0.5029096595859294, 0.21553521390331176 ], [ 1.3359298582958647, 0.958944794384841, 0.1580979488375395, -0.7425619157651911, -4.253359204719627, -3.705268714722178, -0.5283802195277787, 2.5527540278960164, -1.5938841234341259, -3.194795250337481, 0.7849288431348473, -2.3442419504304217, 0.062232585310751404, -0.3580287483036786, 1.4763448079721315, 0.6234385911853145, -0.8127244408140784, -0.18929779779300507, 2.8943884337975607, 1.0949343309984056, -0.23148792675986374, -1.4192032487483286, 2.3008431787438806, 2.3543904262490676, 0.5723283491418325, 1.178329987156991, -1.666093930279643, 2.5378057875175286, -1.0709116912836456, 0.0675833937495242 ], [ -2.2534119146749023, -1.4364254929889615, -0.19305070320266554, 0.27232774730424864, 2.396423810069661, 1.4511006755942446, 0.3457035106709079, 1.921298775442501, -0.565992792757709, 0.6658552922319597, -1.7015377384940595, -0.44549524988528244, 1.2570971213105469, 1.4612314634488506, -2.3041174765090644, -0.9459376612618321, 0.560581870856816, -1.0323831966934365, -3.9326235850354228, 1.962227932264156, 2.332383540423799, 0.6552162508613886, -0.5149753009088881, -0.7418451893930202, -0.5962810624613639, -0.6315874951457796, 0.6849348962274083, -0.6599276320994208, -1.9160482178831444, 0.6349812988581828 ], [ -1.5910258669657793, 0.26846952568240556, 0.17036014991830567, -1.811758423220975, -2.9714943149518547, -1.8603897166068366, 2.545126540455996, 4.409237325567693, 1.4592678830950019, -1.9342868808203515, -1.500993570076997, 1.0507204069326666, 0.39329526264803516, 0.615632075264715, 0.45743263294599934, -0.5558471242962774, -0.9720447538739052, -0.9206374899268547, -1.7125337838549386, -0.7521494217238842, 0.05707310841523478, 1.449550728201535, -0.16166447820846452, -1.106401224788731, -0.6297869387970222, -1.6791907328859694, -0.11623119828342048, 1.3066130359770722, 0.3025643686825918, -0.2307153439087888 ], [ 0.7853906627024541, 1.646644789321579, -0.21959501738749593, 3.9513217289384737, 2.720671311349862, 2.912985047258557, -0.018582156908866942, -4.572668262679849, -4.476136696127277, -0.34958576733059277, 2.1215632987023336, 0.7212947512891675, -0.3979478708137736, 0.05025094184366426, 0.15581088432054332, -0.25175412322072527, 0.9545914365560503, 1.8487627211344375, -6.21414750701654, 1.1086412984179173, 2.7243851001602075, -0.24103730732415551, 0.11783405383911545, 0.12136359568828518, -0.02488793555230311, -0.8978709757346445, 3.0911951143200076, -2.7668301299283744, -0.4393509562045394, -0.1157443055647059 ], [ 0.8198652301401856, 0.43430473508709433, 0.06734145018854945, 1.782380242155235, 1.8785523004861848, 1.0911736060005195, 1.2651721659307746, 1.8221640520888995, -0.8701657566218889, -2.1668149546475015, 1.4880390090806386, -2.737276235747292, 0.5329956782447961, -2.323451805541778, -0.30629646882665773, 0.3043947231838491, -1.8993124266488206, 2.818240188845262, 2.5498957877958657, 0.967616200254137, -1.9791609682732751, 0.37530962552704383, 0.8749583957217781, 1.6179471147640223, 0.6186324548580397, 0.14390735909529084, 0.6643690733728344, 1.8506295201550778, -1.313593571374997, 0.878737604183134 ], [ 2.1639595004993115, -3.574589808985086, -1.198514984584389, -0.5902696085111472, -3.0075989737346953, -1.8930667335031506, 1.524716748849729, 3.4286137656623885, 0.19150251190790973, -1.5807166980630587, 1.1792595459362494, -0.31114427505843306, -1.6213233388968955, -1.4419334495498581, -0.519668001738957, -2.11688469137366, -0.10591012497804549, 0.9914879970952258, -0.9910369011402236, -1.0060015066715728, -0.41514122405972326, 0.3369875245764414, 1.1717139086297719, 1.197684962654603, 1.078224373688674, 1.2781978482320582, -2.5703886411995462, 1.4666331709584453, -0.2980956058758447, -0.407191257070401 ], [ -0.519942472811801, 0.4299370749071935, -0.381918061658818, -1.3635543901519074, 1.8122080918221002, -1.6711698295183992, 0.12896253476356723, 0.9342515616274008, -2.0284406566849227, -0.07441613455952388, 0.017336372597599223, -0.8162664918473301, -0.9529842029525402, -1.4266736063495324, 0.22580930503681604, 0.0053018694228869085, -0.4498680403523748, -0.7771214477501744, 0.4599576183165871, -0.23775214871455672, 1.3494239466054914, -1.2708624630877927, 1.1060328572995428, 0.6614239531217717, -0.7743659810917215, -1.7787208783951467, -0.2338381511583978, 0.25788484195632505, -0.25165248835834997, 2.6002439246271094 ], [ -0.9711065827354644, -0.34978733555809916, -0.31497692217067974, -0.750190316472501, 3.224782846542675, 1.1678351390123614, -0.42574825402679023, 1.4241782273019032, -1.050440402151691, 0.10899687070562483, 1.48261409850682, -2.9218150709731705, -0.7767704962479164, -0.8978644586821298, -0.10070754621159365, -0.10325991746120698, -1.2191402902994695, 2.602526650926992, 0.558482851920755, 0.4384147143581962, 0.3263277065953712, -1.291805859652909, 1.2376299047791788, -1.0559697190675184, -0.2477190187399711, 0.7163825499109763, -2.271645119256978, 2.5899168973819893, -1.4828061667164085, 2.1640032616641713 ], [ -0.2749644479608454, -0.39315881414570714, 0.19823035291823063, -3.66446714902705, -0.92007231605891, -2.0839922231198047, -0.320743565917106, -0.059639302437226364, -0.4247640599921144, -3.5397018365085375, 1.170432297072215, -3.4960451411754114, -1.342567280399354, -0.7495930876718648, -2.4583106183180914, -0.1475282383312179, -2.6467808852073333, -0.09094202609986954, -1.8990254096442674, -1.0750792483343818, 1.7434381774802759, 2.962207842561006, -0.20583586774491883, -0.17062728693839305, 1.801534875381576, -0.3938048063922022, -2.5872923449558027, 1.3234679821989381, 0.02462937574230345, -0.832049952757493 ], [ -2.8223125573011285, -0.623934708024329, -0.15640649675376525, 2.051391130942769, 1.6678092246632776, -2.2846854541535464, -2.4427705909147157, -0.44891725182863096, 1.709143583330232, -1.2413185329206917, -1.7578229484055474, -0.4635797561649195, 0.07131691103594119, 0.9916226226470825, -0.8066348655285583, -0.38877072971360066, -0.290784104618672, 2.4483373750453548, -2.137626107091258, 1.8880467381083885, 5.084341079984015, -0.34852643914631365, 0.9185925974216914, 0.014441058333284379, 1.4277978087066752, -0.16389803753074522, -0.4194723751203835, 0.35090264041218505, 1.0780300608116509, -1.4912498135061827 ], [ -0.42680102694618505, -2.9673774069730037, 1.2209136682923905, -0.6427478340668585, 1.473423967721343, 2.0789955997402534, -1.257328874761596, -1.3924307065952501, -0.9198100805528973, -0.757586301658554, 0.09110399052427066, 3.5781071325549947, 0.591156035665943, 1.590697514780087, 0.6200433909971773, 2.2530365625586377, -0.3315999101723461, 1.660007690673951, 0.22175607876340012, 1.6789090658495869, 3.0063761229677275, 1.6124154181641155, -2.422832422551469, -1.193116787083708, 0.10627348174027143, 1.7965197596220512, 2.0602727042475983, -1.1135235468089417, -1.133030400075625, -1.4407146378601374 ], [ -0.7908017640800391, -0.471948430066749, -0.21804637853470069, 1.8021485100679304, 2.363769618645691, 2.2678408273442026, -4.492526352324786, -2.5960958555755047, 0.2900190225592665, 2.8092906826945785, 0.5369036312078193, 1.928072257855761, -0.49052614958437624, -0.646068984110066, -1.306328878938083, 0.00589203935347264, -1.0270839084704284, 0.13895054975088564, -0.5516819730531952, -1.652259937099808, 1.7058745721078497, -1.942465148828293, 0.2592066545697344, 0.36187661278647676, -0.8439977097970507, 0.1357045866508563, 4.4306464848814855, -2.9153268657876823, -0.4568496045410135, 2.4702679648614736 ], [ -0.9349607069239138, 2.7091129993102814, -0.4459486961207714, 0.5076238695533887, 1.909368534709685, 1.1865324180643368, 1.905559347380164, -0.5828682807302373, 0.23765849948317957, 4.9293177304978135, -1.4573438110277632, 2.196968589640924, 1.2956586645364794, -0.32170203847960477, 0.07703452255522888, -0.3036701636790492, 0.7758731971001875, 0.7674600161173165, 1.2930462936142595, 0.0983959522729894, 1.9982409610651786, 1.3177612000127616, -0.2653952212572711, -0.4140570340073896, -0.4614547869560849, -0.5670378809266983, 2.868106665554227, -0.40698132046639685, -0.7718631222384023, -1.7675096576382727 ], [ -1.7402930428420886, -2.8692358752338802, -0.23862907137666275, 3.3789560164502777, 0.03311025208995613, 3.4290041567784724, 1.6764507968039604, 0.12544129432896148, 4.077978929500892, 2.906097750671978, -1.0439303830113866, 1.593074020574906, -0.4406871690945595, 0.6513263583140672, -0.17621172566270418, -0.2745670802737952, 0.28268728569027685, 2.7992159865316992, -2.2097916473711505, 3.359860056136685, 0.8648281977239456, 0.5737942081844307, 0.1373980429318501, 0.27695014673580637, -1.0148005963748785, 0.9625896115223781, 0.811927035555819, -0.08267026795986127, -0.3707857485882839, -0.4559580422290745 ], [ -0.5192843471653693, -2.040594396313531, -0.10845446546219999, -1.0887637023036034, 2.147837721300896, 1.2771436915810472, -2.8571678060022663, 1.1221656887491231, -2.486250148964697, 3.751468260184553, -2.1664084576987106, -0.12901878400070485, -0.5631295126219481, 1.112970588726217, 0.5292599640752659, -0.6708965043502654, 3.2935903292626714, 0.39617362260227235, 0.9550168441359229, -0.6455836411576055, -0.8057430666131773, 0.5233083961708364, -0.3374142779564625, 0.08969114061833479, 0.7184455747915789, -0.11350560896953145, 0.4217319296360232, -0.6455167221814109, 1.3519528210910803, 0.2674933944928851 ], [ 1.3492062719561617, -1.2105441329016537, 0.05914231577110711, 2.220371222216747, 0.6105080868174684, -0.005828626498633988, 2.454988567401898, 0.29216729518668755, -0.6953387975676578, -0.8070884370227162, 0.7003476957684425, -0.548014509946548, 1.0628837687188453, -2.2206476652610903, -4.30120741681845, 1.2577339135810675, -1.809240600586086, 0.4659846494628309, -0.3475843705842311, -2.909574008361834, -1.2446142938662312, 1.1860758106511842, 2.342409444630094, 2.344358528968644, -0.008418233821140347, -0.3287139983051078, 0.7650133606591957, 0.9030955895351723, -0.6301910606509905, 1.4581220047744754 ], [ 0.014302333010015886, -2.1584669293415986, -2.8442822725580035, -1.3131503241250617, 1.6851038792767568, -0.7892157982450663, -1.2056727559291323, -0.9714083483727843, -1.2281954474645744, 0.7206417938132429, 0.2856765184454041, 0.7632417158233941, -0.3674497797443945, -0.8662178681166931, -2.200608646932372, -2.2061057908951813, -1.4005352202925871, 1.1650177908758068, 3.4102576931985458, 1.798477213563928, 2.4298613006098906, -0.9436945041404095, 1.537848684067449, -1.0435602301651217, -2.579939503993506, 1.5286005353947267, -1.5497504938490818, 1.638344700498491, -0.9963357448723662, 0.5942118587935113 ], [ 0.9189049197391246, -1.2973070000896627, -2.209554759593631, -0.9170539830197091, -2.219626361209977, -1.5252546114879941, 1.8794191350944316, 0.3118659293034797, -0.9127157905445324, 0.359942247854542, 0.3178272505943627, -2.5568020547586823, -1.1633379730699218, -2.6694389846346276, -1.4459361333359178, -0.2953978003168615, -0.04639887241553724, -0.9232931427968027, -0.04651064222944197, -0.62848254055051, -1.5285554825499097, -1.0253930935013935, 1.6570187152909932, 1.399127692510937, -1.5376396986284289, -0.21417033062732915, -0.7406592009484216, 3.245369968353058, 0.22689635763616345, 1.243705259880056 ], [ -0.41213842750492913, 1.4380044314430624, 0.18764004973404041, -3.668992612245193, -0.8076644894985937, -3.23541146692217, -0.5267984395605089, 3.8820621342028416, 0.9477828145974263, -0.13216620304653637, 0.6737870551687439, 0.10948930600350376, 0.4780965791560536, 0.6754128649117225, 0.4637137689979781, 1.1463890021517753, -0.5976088551198109, -1.514780708638681, 4.139083367736116, -0.37388094261056265, -0.8289042432642911, -1.2741916619515155, -0.27540423169116257, -0.8387947725455774, 0.4939974453667461, -1.671648461123159, -2.2754552113146636, 0.1715232488071363, 0.2719258521502555, -0.2750313029098825 ], [ 0.891536719593235, 0.3219556700473903, 0.26103905109686004, -0.22370550291970956, -1.350034366523085, -1.3939150027302583, -0.12305383244028395, 4.906931170428668, -0.2562271832873088, -0.07265318590204671, -0.13153087953299986, 0.8214684160220346, 0.47347617129916825, -1.7230797617381275, 0.37567309049667286, 0.020096078396722932, -1.6527698825521673, -4.101167807866653, 3.9596591288928527, -0.1693367395434081, -0.5041339920918665, -1.014317454018753, 0.34776380847793364, -0.008034916426678147, 0.2772627650535056, -0.7343653266420392, -1.4825386462671732, 1.6179045330727586, 0.27689624516405537, -0.18913941428786965 ], [ -3.404825670474956, 0.08010338568980152, 0.15118911142240257, 0.15772342189497365, -3.8163914033355684, -0.8418086405156707, 1.2840242713538914, 0.16178041513992497, -0.8277389458854232, -0.8353705124078272, -1.6355147434461372, 1.1742338675727944, 0.36296129279165157, 0.7198631963723533, 0.8793890367038666, 1.2039672836722994, -1.7921947437651078, -4.875069168440057, 4.092406182653805, -1.1444125847359026, -0.20903124678049, 1.4826945254513129, -0.28066633809530683, -0.22997905135693242, 0.7980610599601263, -1.3840795916285735, -1.3391344982405005, -0.5244503380946092, 0.33680846575141427, -0.4677810774556936 ], [ 0.04450509414852011, -2.2522782781632293, 0.03608614827889123, 2.2272778088568876, -0.14878255862630801, -3.8440499839468956, -0.577019471517014, 2.5489206956848713, 2.2343294280812365, 0.29022377104703223, -1.3239678102493326, -0.7228690824471379, 0.11354159680001445, -2.120405523705783, -0.6076097015956441, 0.22811780118863198, -0.9086198193394355, -0.49928999774808125, 0.13770745396458806, -0.2693312878004449, -2.305367565938465, 0.6662035487000542, -1.3252652300092163, 0.35138179113331813, -1.295760412644416, 0.9937551313875658, -1.139850523870617, -0.49103243994421514, 0.5617842517300354, 0.7248843035007093 ], [ 2.3897533027523843, -0.017135346339896638, -0.011674953403849248, -0.3144196295344187, 1.4942925780393623, 1.7048463706854, -1.6871925774238314, -2.742525167732262, 0.3932841096135372, -0.42883020240852365, -1.3778285273475348, 0.18682218930195202, 0.5491736021338411, -0.0035055615422714846, -0.9565961297977214, 0.4629700565790079, -1.1831998780420652, -1.8164151656547358, 2.2526608081161066, 2.211802487919166, 0.24453913304301653, 0.5411075360708599, 0.5671418184535933, -1.8448589588569728, 2.2100829027353295, 0.10206728370855282, -2.212698637583808, -1.2515611866504521, 0.31873522003380717, 1.6875574652691103 ], [ -0.8242205861529033, -1.9205614558522386, -1.631058373997739, 1.1190583116381982, 0.521628854787905, 0.7185803026536426, -1.4207754647061805, 0.707392780996993, -1.5673460514783821, 2.1764076827803414, -3.102126872345408, -0.15450201363181384, -3.542340555766792, -2.2839630307532404, -1.8543853783663338, 0.5212628835675336, 0.1288035555221941, 1.7067490602794255, 0.9785442061880392, 1.2530919552952393, 2.4573916578321295, 1.8746714508464635, 0.1992661772393426, -1.0927641674565702, 3.1741860449429575, -0.1438618796976689, 0.7072162859030986, -1.3839536320571983, 1.1460029648328016, 0.9788006357626878 ], [ -0.8697849228132724, -3.9664509342135172, 0.1369936671794163, -0.5217733982236222, -0.35220589202555863, -0.05433047911416945, 0.618231319548504, 1.9133723700332765, -1.1743930004179222, -2.001693881048253, -0.9637435368974855, -0.405554439043057, -0.1342654340625878, -0.1494690690692745, 0.8553290068083559, -0.018106486706103098, -0.038401709587596256, -0.3485206672970359, 3.4390195228742915, 0.13311886839439774, -1.0017359637311731, 0.15223429782446832, 0.704477879421249, 0.41393858022492863, -1.1668955537016745, -0.38447644920497315, -3.260031161286216, 1.2820636007554873, 0.30316350491783134, 0.5917713975216307 ], [ 0.013893344324625296, -1.3124426690134814, -1.2316840334131034, -2.807344512348253, 0.6246405438747963, -2.240344877071557, -0.7882899011786322, 1.1344444663845876, -1.7247315715316747, 0.9028420685358647, -1.581709535027818, -0.916898280808673, 0.03164094365455874, 0.8505453544941831, 3.234933107993432, 0.19675961349365245, 0.006577541977589691, -2.1421541301083296, 1.469254822498582, 2.3235173841886794, 0.7606502708541895, 1.331342532770846, -0.5003651871634245, 1.0389979066381705, -0.9880056466349255, -0.8504005510198319, 0.8155735367880639, 0.5150722439388287, 1.8586424217386432, -0.11008697439578514 ], [ 0.48218955626823135, -1.425566658829848, -1.7069408349104918, -2.2584518502635853, 0.15026825709075126, -2.110449543864223, 0.98779970905863, 0.12582116015675862, -0.29259098462424044, 1.374313552571465, -0.6285613611372951, -0.6055282480100295, -0.4552049501505061, 0.46336478486761923, 1.1129626162535702, -0.4865415834766296, 0.597945420168998, -0.38691092888505246, -2.317137013297059, -1.3420113746151867, 1.153275272956279, -0.9089760628083949, 0.9738693363636942, -2.6292834739417956, -0.8693610042070198, -1.570920158507809, -2.0398298857857164, 0.8957581343351121, -1.7422794243815725, -2.399010730780662 ], [ -2.0240217518231516, 1.349154629737916, -0.871231312253577, 1.1457477225566457, -1.5659321732981182, -0.21441880116307116, 1.1621347855760629, 1.8587198104587712, 2.958583057926619, 1.360123392402528, -0.8294038054166333, -0.43744529292341156, 0.9265503497583896, 0.0960440710727234, -0.6627547417619752, -0.2828571439387781, -0.20316988554140344, 0.8299974691359616, 4.30527494569706, 0.26385913409625894, -0.7926889582023307, -2.1142016470441596, -1.163620027006369, -0.4662697930521144, 0.8534926728621837, -0.48393942055235833, 1.86033762063949, -1.0273326323849012, 0.4784284313830973, 0.7328869543985941 ], [ 1.0464051739468478, -0.6838404337625649, -0.5830337063585893, -3.5903560419708165, -2.623968883209683, -0.7855213469965443, 2.1624358738584317, -0.08309325318864609, 0.19213039805647714, 1.2203105523252786, 3.0615453687144254, -0.29138615926542805, -1.2148926833506044, 0.6918743579858335, -0.6243663739355645, -0.5031119491329584, -2.8745560444393194, 0.8840669302478327, 2.6535575449530757, -0.7920247623681291, -3.836795793465816, 0.45367761640955817, 1.2328720933096045, -0.09997420636967945, -1.7269875214337214, -0.06791162102564953, -1.098651708085549, 2.0554869890518517, 0.539603257037788, -0.6833058535836135 ], [ 1.195146069175273, 1.1098642811893091, -1.7889775525629519, 1.0086676939495733, -0.10337347185928764, -0.4338241500238273, 3.3057009252814527, 0.04782415808077523, -0.5854460062139556, 2.5918923144192254, 0.24666487542945334, -0.6382854650589009, -0.604095924915278, -2.189266984503868, -1.1188903315429881, 0.02681628211012168, -1.2837476990496168, -2.087099195789121, -0.47748952572470077, -0.5612046035855566, -0.5164131627506923, -1.937551558621918, 1.0752397601624513, 0.3158904781240557, -1.481179503584844, 0.3934455060643689, 1.5371139563030047, 0.8429231682558989, -0.9920302526120215, 0.9701350659990183 ], [ 0.8704635592644476, -1.2878006595462022, 0.1601144286124086, 1.15887792547359, -0.14247389483190528, -1.2469912310063016, -1.4433378267526895, 1.587102437599789, 0.965204346587831, -0.6265852166610496, 2.3878013755063225, -0.8674354237142281, 0.7115700905920137, -1.508173008517231, -0.2755930295862345, -0.02780622028942765, -0.7299155419244698, -3.15898731854833, -0.4438990714983078, -2.9020302191428784, -1.77171801620916, 1.3567887457404046, -0.49479651368375227, -1.6870116264543449, -2.7765000189399855, -0.6474215643388382, -1.9438619245450703, 0.6879330886357502, 0.13581845899852307, -0.3861222365745406 ], [ 1.6228015026762879, 1.9919569753428261, 3.2228293682146423, -1.0325024356136743, 2.580089540875509, 3.017515252520272, -0.5696997243107599, 3.0052485537956373, -0.8988189123083314, 1.507956521776795, -0.8121990287194963, 0.46471056728256943, 0.5726759407604958, 0.424282845841451, 0.24192121795205826, 1.1855396936427967, 2.045290881031904, 1.9056803454842761, -1.023079794459494, -1.5855386502668471, -2.9075966891541003, -1.1973509846223227, 0.015319648766455852, -0.3424848286980991, 1.102402116430501, -1.260876995705957, 2.263942743187508, -0.8425375011583599, -0.19221638743302294, -0.6551297634858578 ], [ -0.5769638417258909, -0.6814231599693334, 1.9113620067281931, -0.6030884769929933, -1.482606283054724, -2.019834297707257, 0.7409472822166615, 0.2569072686691077, -1.393832802901556, 0.8720570027764746, 1.7665732338339355, -1.8130950968599706, 1.1635700389896486, 1.2690909061351392, 1.8754389083165226, 1.3625605430269363, 3.542171665069318, -2.555789821984315, 2.4309780203729696, 2.0069480287949983, 0.7114608129195734, -0.527650407652012, -0.8606360973762208, 1.0854001993485645, 1.102034085677008, 0.7580326892857787, -0.6707813634907581, 0.273868810801575, 0.17209973584806731, -1.0973149170558694 ], [ -6.114445473064637, 1.02725702048547, -0.006203893656943841, 1.0573727084409694, 2.189124525202125, 2.4100125664640344, -3.0756651996740065, -2.873779103964377, -1.112686669976555, -3.1659267784092173, -2.0807586223780303, 2.566017134850773, -0.5776521324741706, 1.1210392053243008, -0.4659199651476053, 0.8585218369567809, 3.890683095665896, -0.5280100140693202, -1.1535234544802588, 3.8176417292355973, 0.11584986923739139, 0.9910457976926604, -0.6773788637817223, -0.8012239556639555, 0.13483318881362236, -1.4599484926707278, 0.8256776629294672, 0.12620918459849267, 0.15637618991258648, -1.7927601796012453 ], [ -0.540298328052224, 0.5470519547573731, 0.07260678835383984, -3.2908877008924113, 0.3878569867905618, -1.6752455232831582, -1.0265938907957186, 3.132488502543886, 0.9118885308967959, -0.13133464332195216, 0.05800049464856798, 0.3889532988328166, -1.6932683453503827, -1.7600723270848202, -0.01322578853955385, -0.07150110451589516, -0.04641560805226084, -1.549959793022414, 1.6877633077476646, -1.3018162284477743, -0.8481192333535301, -0.2894646589746664, 1.1068783920991054, 0.7071591081135369, 0.605719893827519, 0.9902587592597946, -1.5225330566496456, 0.7727993482480253, -0.10064609734131054, -1.926257425605441 ], [ -1.0080242498120273, -0.2648855090452456, -0.3426938558348537, 2.7415218802956853, -0.1245813116560907, 0.6730379734336929, 4.395987286992901, 2.7069380479259, 1.488961151158746, 0.22502862187493164, 0.34938202771097365, -0.5181945648741625, -1.0371053625395492, -1.4442406679164892, -2.0076396425037877, -1.202536645995081, -0.3960517503444461, -1.4878588490523044, -0.32069273017561745, -3.112227972119288, 1.1748771861310787, -0.38986843578554314, -0.820309485333376, -0.11430090777597751, -0.22069202214505335, 0.8207294267277243, 0.4535624538182459, -0.03281913237495441, -0.1460718218236692, 1.5959347032656663 ], [ -1.451238201476527, 2.956430447499477, -0.23160648987824364, -0.44189858527101206, 2.010927856427255, 2.8410805389166462, 1.5006628314207182, -2.8031349413385556, -0.3093641461413714, 1.573521896659449, 2.4615699645732776, 1.6821739628173675, -0.06615302504357279, 2.0254341748022373, -0.16740686217227096, 0.767825665687357, -0.38477101516074735, -0.03793190073382706, -0.45417982996272904, 1.111649715894314, 3.622526019106526, -0.5480264158326351, 1.0060845436586978, 0.36668491295884176, -0.0012313521242702475, -0.1817299356075548, 4.554486288697575, -1.2169492236463786, -0.35021491276301764, 1.516724321067229 ], [ 0.23406079174566807, -2.2959430600869073, 0.026470603330409744, -1.5569269767186407, -2.5195670885312573, 0.3675587505940007, 3.690701392276649, 3.1805215134166427, 1.4693430101052363, 0.23453963559773996, -0.2621931903540451, -0.40023253158858446, 0.26941229124832544, -1.4603663290603575, -1.9486676693017917, 0.036440374080487364, -0.7716077233313128, 1.4610490578140403, 1.065063148926251, -3.349763340517492, -1.1243293589298404, 0.36446934528036434, 0.01908550885202256, 0.4307087091886857, -0.2026049611580852, -0.1569773176418372, -0.42573946139549246, -0.6522250869987968, 0.24980190486302598, -0.31095803137352623 ], [ 0.6925275065048832, -2.682025556369112, 0.405613322863847, -0.0011841872685966744, -0.2872642993266867, 0.19729729654343103, -2.5673557360028294, 1.2878467381091787, -1.4485553540783804, 1.3988691118897336, -1.1787990692530161, 0.5197123376631507, 0.8050198430745042, 0.39317283885617454, -0.10547248086627034, 1.1992562628943677, 0.10349699897856282, -1.8891601304319956, -1.477295218857669, -0.11512495528578792, -0.7091708883217209, -0.33981629324766677, -0.8395260412934727, 0.46386465953628225, 0.8071664579457744, 1.1823192409933765, 0.4947509896100159, -1.415783992479947, 0.5682853165268181, 1.5027421462838668 ] ]
  }, {
    "Size" : 15,
    "ActivatorType" : "Tanh",
    "GradientAdjustmentParameters" : {
      "Type" : "Momentum",
      "LearningRate" : 0.01,
      "Momentum" : 0.9
    },
    "Type" : "StandardLayer",
    "L2Regularization" : 1.0E-4,
    "Bias" : [ -0.8302120260907857, 0.21376542942130472, -0.3914592446112414, 2.615265812077354, -0.11660805997919235, 1.1354819940190843, -1.1807642986650673, 0.8008530583878677, -4.189241125528092, 0.0015504441040835376, 3.3471811453533773, 2.578089993161268, -7.547715637611244E-4, -0.017762910318295737, 0.2315096384809186 ],
    "Weights" : [ [ 1.59287101128279, -0.7062092834567439, -0.7352266973617911, 1.636352761706057, 0.7056952793948915, 0.23550112725092887, 0.07560052577975408, 1.0466480589488112, 0.46109558195876293, -0.7457704634101623, -0.03405027303540802, 0.3521848018115971, -0.5010262913189267, 0.1567741896780853, 0.5780655125495643 ], [ -1.9056175048415984, 0.19772837670823787, 0.7235351775792362, 0.4281495342193494, 0.8447061548258687, -0.7320602244907505, -1.1348386517722453, 0.4920930306894034, 0.21258517166658264, 0.5604987849003426, 0.3955454271310814, -0.08979324362099211, -0.19484950320186636, -0.07365816344568919, -0.7173629970313663 ], [ -0.33246791043739016, 0.5249418015683999, 0.8593037628287454, 0.6834739222332809, -0.505369071807707, 0.8922411146438727, -1.1040395605454405, 0.03722038837135951, -0.17750863531889507, -0.02353970211034323, 0.6124009375606944, 0.08293261813689551, 0.6054393403540745, 1.1368323733910741, -0.15327628253179423 ], [ 1.1537835352418273, 0.23106493622287047, 0.10570119466987549, -0.44147607317219095, 0.20362004376737544, -2.2078839350450563, -1.5837615682911712, -0.29601861512551675, -1.1147758201597986, -0.07467710112072265, -0.011570309835216369, -1.2404044269136802, 1.242404726227732, -0.14189974653130438, -0.5648786356203161 ], [ 1.6262792648647533, 1.2761024089599309, -0.027193561737224658, -3.1948560695379222, 0.027508671001095577, 1.7444101694179721, -2.1112044957761356, 0.5768552696184008, -0.43452829119776293, 0.081719792913626, 0.5349052336977609, 0.1615786809871142, 1.130408828863266, -0.4373687796111923, -0.16136626476053045 ], [ -1.6436803171204628, 1.3717101005131642, 0.031254925022459884, -1.2557462108192745, 0.3676344589304995, -0.03218703155725027, -0.7959508317478222, -0.7468578669985757, -1.055227754731909, 0.07738183800961002, -0.32811932947912414, -0.0021053815030436895, 0.8194021124529977, -0.8226450878738063, -0.002647156783575124 ], [ -0.5995709050976566, -0.5749563934769667, 0.1758413790961637, 1.5474146175270436, -0.23642458676333822, 0.08117568115258134, 0.10484284675724939, -0.7453831525071926, -0.9012751722717255, -0.6684997886274736, -0.07081914479445368, -0.40299005052679976, -1.1011457179906254, -0.6406447660165066, -0.06660298966216124 ], [ -1.4962337289856062, -0.9727171457375469, 0.10738111096131843, 1.1083415178351044, -0.03637851299749436, 2.061318400541157, -1.6453452222549685, 2.0605786427124633, -0.7100519154719758, 0.07135397009773119, 0.13019803890247766, 0.9340594558421513, -0.6369557612521152, -0.2650010888973863, -0.007122595300674592 ], [ 2.188468871996796, -0.9037441407266585, 0.63337132961328, 2.0196151320800135, -0.12182964458828244, 0.1273227217403867, 0.779459118230127, -2.0274747141690552, -0.5795902698619475, 0.7745937704859959, 0.3799836590868419, 0.730605012656141, 2.1712595398931787, -0.8544003622135948, -0.8865196085045886 ], [ 1.7752445604337739, 0.7733269025373707, 0.047293155763137855, -0.23705835190085858, -0.13575571839548287, -0.8291057926401716, -0.9489581917513262, -2.427395662308023, 0.9098797433720713, 0.011130421042283917, -0.051573290192897275, -0.03547752576612069, 0.5499257537759453, 0.013107288326442394, 0.103398736350389 ], [ 1.238455805211969, 0.3957791396088762, -1.3768167771671922, 1.7943951381086571, 0.7015348860584293, -0.32826803520974357, -1.0591588030011407, -0.7502540973497229, 0.08304551849470322, -0.6665176264114904, -0.5281704218073424, 0.2411742980732831, 0.4689981216907347, 0.7923762109258407, 0.5344717118295014 ], [ 1.130457514137406, 0.9315237495697796, 0.5389599704678334, 2.357364411779004, -0.5055218274415538, -0.5043854075711186, 0.28764274110688653, -1.0262032801771108, -0.15377917110425118, 0.5486957150050744, -0.16063475134005792, 0.03319793900870047, -0.4286513730466247, -1.2987896059516333, -0.8315769974062001 ], [ -0.18896647973511774, 0.6847723903057701, 0.793984761828117, -0.15568064281303945, -0.5504297403592394, 1.0642448992473572, -0.6693136549435341, -1.2580374823691578, -0.18831266819185827, 0.7254234938473675, 0.5602004770541126, 0.23181192288738278, 0.30172157292874313, 2.016384045293749, -0.24676141894882148 ], [ -0.3773816823454001, 0.8283634492634343, 0.5068328414141169, -1.385512244766242, 0.12932159421404907, 0.06974268952356558, -0.22421657175388043, -0.22462011272875382, 0.01914623208353355, 1.2049272009340461, 0.33609904398537044, 0.05034763684632621, -0.27389330005163337, -0.22762737731203933, -1.0320582828280114 ], [ 0.6471566315385415, -1.2774970230107117, 0.8343427302855572, 1.781881385350976, -0.3885274873361289, 0.29885805296428997, -0.4721854948900209, 0.2388363015653427, 0.9729729058293953, 0.8431900457883528, 0.23429267755291489, 0.10083347868595438, -1.919147695923219, 0.9026466929628219, -1.9835758493394113 ], [ -1.9221929175494863, 0.01568401548186326, 0.2097053549761368, -0.8021868658970887, -0.1237429122926841, 0.8794684017010468, -1.5195060411058383, 0.2400757870202859, -0.2907677280626654, -0.5653861645182523, 0.2402156665361223, 1.150959519273313, 0.3535954085312341, 0.6089551178203886, 0.21795118620929224 ], [ 1.5540850825484318, 0.6312677248415537, -0.21548650014984505, 1.8847441535752185, 0.07548471735768555, 0.3286712392488613, -0.397659041857851, -0.5219333454391906, -0.399254208857259, -0.4032032667634004, -0.29691648520851227, 0.061744949519429645, 1.3593417522240965, -0.4836072705750699, -1.0930671340070441 ], [ 2.0275051068691856, 0.6225449244910458, -0.030005214572711447, -0.8369459676751004, 0.3385794890706025, 1.701944790324873, -0.049902133567607074, 0.31701989369154226, 0.6938532231600653, 0.07628128159254051, -0.32264947884686096, -0.9521381819621249, 0.7589790104202111, 0.31084287619869694, -1.159032348748068 ], [ -1.5118320529801335, -1.7662781408196895, 0.04054832933272336, 1.2549686492448908, 0.0251443867134101, 0.21925280097216804, 0.7177282581836213, -0.20345410833501956, 0.4424604180501557, 0.03549088695076144, 0.8786762871206718, 0.1625653116441722, -0.27397278158017424, -0.46370516687372465, 0.5799316118735187 ], [ 1.1697633978074435, 1.514569510847326, 0.14781711715929344, 3.0575499211911055, 0.11971863345547945, 0.2672867114429947, 0.0962202934684421, -1.1474722536693247, 0.011675247562464307, 1.6000474787590075, -0.17092821295400534, -0.06650936867275772, -0.6677258003322891, -1.3058857316405308, -0.18940741552920243 ], [ -1.5133012075013093, 0.5075258709586074, 0.1279322090926828, 3.0821367173198313, 0.12367100450537241, -0.8809158332538728, -0.5624242549337215, -0.7219326041632204, 0.5350540747673161, 0.3267231790266291, -0.5366290622886983, 1.286095646214582, 0.6362275527237959, -0.27823820500824675, -0.9075016093594998 ], [ 1.6004099883762946, -0.377062300546994, 0.6427699902398444, -0.4749589694967243, -0.7403446532572473, 0.858898677555968, 1.3666993594310117, -0.41934998916797467, -0.7745271885624608, 0.8163400718258034, -0.9621814920621051, -0.6254606146795597, -0.8512652944602382, 1.343256210678063, -0.6941236987675143 ], [ -0.48171406173384623, -0.2248885152347192, -0.9333097334815584, 0.5916746999065743, 1.7463658492306582, -0.4318237020627342, 0.571294878487841, -1.115488602469965, 0.03459952871343042, -0.6335227645471736, -0.1393467386776308, -0.1459221806352456, 0.4349068589247394, -0.3109967203147558, 1.1982200511044607 ], [ -2.087419124558676, -1.212339757785628, -0.5915975176877386, -1.95289503025535, 0.07254653118883317, -0.6717962664924988, 1.3992192239130037, 0.7084816377999272, -0.15466941066408654, -0.17127026777409535, 0.24347552390648258, 0.28422046514317034, -0.8100021359849106, 0.1749261591208816, -1.3624028306949523 ], [ 0.6330141470376688, 2.0625316930804485, 1.0963566394979192, -2.5269891215957445, -0.052579305024060344, 0.23522947744059153, 0.11582241079138351, -0.654951690741817, -0.15187088785917255, 0.5144703537085046, 0.244180598012036, 0.09979172251972389, -0.6636257977153367, 0.2601590934071868, -0.3543062738399418 ], [ 2.4256634381927484, -1.0828721683231317, 0.6004715764986512, 2.1072082192341512, 0.6734855558152207, -0.5608196266093981, 0.8600029811060961, 0.8044721918551145, 0.027267047638784465, -1.159987371348096, 0.6143696357038916, -0.8623013351161682, 1.2734219737725048, 0.008453389079863644, 1.0606031932721867 ], [ 0.4768785625972716, 1.9257039491478487, -0.04820510790793097, -0.4013178222999027, 0.34142392717832665, 0.007804676878143085, 1.2544418558740338, 0.7607840337016037, 1.431429453200926, -0.015208748645486237, 0.013296782602453861, -0.3222760533538235, 0.5602808423649681, 0.9809106920625005, -0.9248808945879633 ], [ 0.31702469463755817, -0.05016569846016049, -0.00879055103222066, -0.03409229938806313, -0.16442291498601883, -0.1869365573951649, -0.8158517074702909, 1.2392015540601549, 0.2709910651995018, -0.504732976622887, -0.13741610104375385, -0.1042724989605534, -0.20160724828345739, -0.7188210059188994, 0.2191867460504222 ], [ 0.25771558896554625, 0.3888985580944143, 0.3357000077252128, -0.08471994702371374, -0.3784462786963674, 0.8210335583976108, -1.1259888412312296, -0.573075050586399, -0.16089656057850132, -0.7916299303666007, -0.4015377364327258, -0.11265870387161243, 0.7294095782063377, 0.36775725073557525, 0.9397324074583386 ], [ -1.2136197852219754, -0.04787532026701674, 0.1011580952735564, 0.7946304703165973, 0.34141558349029144, -0.5907450918569657, 0.28777605151311997, -0.4135774495976976, 0.44079670128402115, -0.8506850857388221, -0.3175782110789039, -0.24793248892705852, -0.5913258285258095, -1.2884217818449835, 0.8684214782192106 ] ]
  }, {
    "Size" : 1,
    "ActivatorType" : "Identity",
    "GradientAdjustmentParameters" : {
      "Type" : "Momentum",
      "LearningRate" : 0.01,
      "Momentum" : 0.9
    },
    "Type" : "StandardLayer",
    "L2Regularization" : 0.0,
    "Bias" : [ 8.514362182785572 ],
    "Weights" : [ [ -0.8764648299659397 ], [ -1.5466427095823359 ], [ -1.6678277494110463 ], [ 0.5548031067911876 ], [ 2.2005663681481598 ], [ -2.98150277113114 ], [ 1.5511970113629017 ], [ 1.6517224942376632 ], [ -3.5833246331022206 ], [ -1.5024791448014834 ], [ 5.328875298007307 ], [ 2.3636315015154707 ], [ -1.1760139464652608 ], [ -1.5735848919274955 ], [ 1.4959718541489853 ] ]
  } ]
}