{
  "InputSize" : 7,
  "BatchSize" : 32,
  "Layers" : [ {
    "Size" : 30,
    "ActivatorType" : "Tanh",
    "GradientAdjustmentParameters" : {
      "Type" : "Momentum",
      "LearningRate" : 0.01,
      "Momentum" : 0.9
    },
    "Type" : "StandardLayer",
    "L2Regularization" : 0.001,
    "Bias" : [ -1.1661504074716453, -2.042306169823412, -9.095008576585437, 5.75006204949475, 4.731263343244579, -1.6097665168479853, -4.470063503608041, -1.121780938088478, -1.2540622722737782, -1.9334330516736296, 0.8101825335446318, 5.702571913209017, -3.7844793096522378, -2.768693004419506, 1.5499489772239077, 4.24107227962622, -5.091482579044138, 0.19958207912381587, -1.9365294478629802, 2.180976002630709, 0.9586688289451232, 1.9938418460895098, 0.3936531182257943, -0.6439056385158133, -6.399209228550635, 2.660951324143277, -1.8509568886013676, -2.143851301611115, 0.7045975271971527, 3.78816783430127 ],
    "Weights" : [ [ 0.2933512713891485, 1.8493709279327113, 3.3689913412838055, -1.4165059203682575, -3.7122762999642074, -0.5112562488098382, -0.0724924932757259, 0.8956551729102893, 0.3770618571471204, -2.193061311531007, -3.8558070074472437, -1.8453661755918205, -0.09268500472494874, -3.4560416739147986, 0.4697730936333015, -0.36193216667853373, 3.4692228876706337, 1.885632088453111, -0.3537797157280179, -2.0726789846126095, 2.5287137515999376, -1.8571824748014263, 1.375915530075849, 1.3652234471515428, 1.6343413068788182, -3.09853993678966, 1.3758005788250067, -1.07005728880402, -1.7740973219094822, -0.5134767461883192 ], [ -0.9379220694984151, 0.6459527376847234, -0.8772304784359727, 0.013634705783542192, -0.23235619122656653, -0.3174939937950819, 0.04257950708831707, -1.1484153267276775, -0.1388011859151965, 1.1030504204090337, 0.1299859340832642, 0.23394826035928465, -0.5639472649202731, -0.10216350781007455, -0.06424274899979537, 0.31349208279702956, -0.14864549508016955, 0.15737605596443094, -0.12749284309301978, 0.45487619246944644, 0.3228431505565581, 0.2510908626051532, -0.2801711144947832, -0.07709215312535234, 1.4755872224955748, -0.0407971648196513, -2.265447245752619, -0.001918116355227354, 0.1728717578390111, -1.6850150529072176 ], [ 1.5229776193511821, -0.918191224522904, 0.642784321074409, -1.7478577848297072, 0.1684967411704588, 0.8172305344131509, -1.0469175920647165, 1.3035588879828008, -0.22116631307220674, -1.6649695627511805, -0.9255356699179332, 2.1050780985069255, 0.4014319510894858, -0.08112492586288224, 0.21639605443417756, -1.0034575388022582, 0.02167915809338093, -2.2795490785973542, -0.3421901946729895, -1.684106723008854, -1.3282457274590092, 2.4193591859115036, 0.6261062175767675, -2.7055421510139337, 1.3176649344118923, 2.7464055920735535, 0.5251109630058468, 0.8281318892865155, -0.07235936767654795, 0.03941825559403114 ], [ 0.1375099950570725, 1.185380977562618, 1.4660726007963365, -1.827585798518161, -1.9168278015580003, -2.5592773181948516, 2.2247569620826853, -1.1815010169391749, 3.1292327293511732, 1.812374938424265, -1.9068573547399446, -3.2992645725033967, 3.5304574604991665, -0.5118692666458704, 0.32774499635955673, -0.6810307854552297, 1.5806686908721446, 1.6550962637980378, 3.09893597349654, -1.820610267011352, 0.5537268407596212, -1.6602921972633844, 0.9990096506000019, 1.1384787500951044, 2.6070810681497734, -1.5501946663037323, 0.7219703898050878, -0.8738249434209701, -1.3906409259015302, 0.1313615926301875 ], [ 3.7952198643084327, 0.44514908599398456, 1.4110361625901544, -0.512460762756649, 0.6485515487264775, -0.4864050001494416, 1.938754953985774, 2.8551640782428627, 1.0912013739445643, 2.690298200680333, -0.7637924740571521, -0.2822799528074416, 0.43897516498100014, -1.0115686088561693, -0.4694020095412067, -2.1914939718812367, 2.3081318208881343, 2.6863671169270407, -0.26097378874695837, 0.7830827080822371, -0.7792867504360509, -2.5188922345544045, 1.1416114755252644, 1.2529481439093118, 0.9714069496644361, -0.018539405086190834, -1.1368755247943274, -3.102062517678787, -1.6825588640330016, -2.790818892055108 ], [ -0.3015583624945454, 0.32913168830520145, -0.04472417652837369, 1.3033662588603108, 0.30258342234842445, -0.18372036217627133, -0.5609183345699317, -2.2178331055404548, -0.23822381666025452, 0.6098222573588021, 0.3369389075688967, 0.37671973483907156, -0.4097047511364337, 0.21028052098657712, -2.1227805547601606, 0.08919490269896034, 0.07346606033863524, 0.10173815736199339, -0.13724382786559144, 0.08387959841979865, -0.001268443952817175, 0.3544517212445563, 0.39566013674924494, 0.1068316311873264, 1.0111035983443195, -0.4166817567098228, 0.28421875815225767, 0.0827849664796348, -0.04771904946983924, -1.913178159358538 ], [ 2.3421169302349503, -0.018966832287576382, -0.11738293678645038, -0.9747348984598653, -1.2490311549154036, -0.21738082385981147, 0.8433707269918775, 1.3465360270586324, 0.1380230636717426, 1.9113399956019768, 0.1791635147356145, 3.9257588254584626, 0.9948246161022077, -0.40700383778867144, -2.560668661022543, -1.0408727431169256, -0.9727769555429839, 0.1464910410366057, -2.8798781702207976, 1.10978035255731, 0.520625428223423, -0.13941497246708587, -0.9123853993769145, -1.8592739912517406, -1.6655861255280735, 1.700681000030262, -0.6609255858937839, 0.6940493766500501, -0.9486317329519534, -0.45898378117058264 ] ]
  }, {
    "Size" : 20,
    "ActivatorType" : "Tanh",
    "GradientAdjustmentParameters" : {
      "Type" : "Momentum",
      "LearningRate" : 0.01,
      "Momentum" : 0.9
    },
    "Type" : "StandardLayer",
    "L2Regularization" : 0.001,
    "Bias" : [ -0.8004195480524977, 2.1646334342398443, -1.1656712754711105, -0.06363436103545206, 4.767906338285387, 1.7688044254209825, 1.8361438467933464, 2.6077233328480927, -3.9991893157475604, 1.8484009076648733, 3.5258581091032535, -3.2065874943650723, -2.759454475853341, 2.497561323415982, -2.748639495516735, 3.0520879121923934, -0.8048771619521382, 1.7469155882762417, 1.1474972183865588, 4.086474052924665 ],
    "Weights" : [ [ 1.45934343081366, -1.0878178943515064, -1.0332020693944564, -0.24862521076774927, -1.9001438695008455, -1.0472543571203947, -2.170386012224191, 0.3257728547302616, 1.245650423247399, 0.25913526456400027, -0.3948173087046761, 0.0763914107898431, -0.005292347140226468, -1.4985866294842924, 0.8650605695423395, 0.48105734546067846, -0.04376517844584342, -0.7766980559201364, -0.5195509096248766, -0.14690988542239772 ], [ -0.9011202590449725, -0.01752914175672889, 1.1844654851054637, 1.1933165480512893, 0.2712926587677912, -1.4765934410649126, -1.8152582500471204, -0.8248653577863228, -0.4024930881460179, -1.1747571090936917, -0.4189154831497594, 0.7058101070224673, -0.3621031625095416, 0.04508025879268513, -0.03356903051515402, -0.47056921561888104, -0.6774034123694672, 0.14646207253109644, -0.20330059350277807, -0.09020031767854461 ], [ -3.0093884382464484, -1.9112580546303741, 0.48642705410446346, 1.4318406041466671, -1.206062810376258, 2.134726002997473, -1.4470801771133701, -0.21609624350851772, -1.038186363330202, 0.47718039693959796, -1.2571369900513583, 2.1736733374033634, 0.3127505166203734, -0.41764246910449543, 0.452802112332536, -0.35360486911792255, 0.40731055838053476, -2.0972564914024523, 1.0534984221067496, -0.014270940597542041 ], [ -0.5857243696952876, 0.37690901710512864, -1.0177855827930902, -2.739906350423893, 0.23181976661492315, 0.1285778196332947, 1.4844283355561245, 0.5730505408936472, -1.111095568174502, 0.4351566083011834, 0.29345390086942824, 2.064434058779561, 1.1390409202198672, -0.5673744968651359, -0.4827587580518007, -0.7806410107875177, -0.5520848049846705, 2.5393941185613533, -0.9081577829742328, -0.9141575407220944 ], [ 1.3953312088087853, 0.23870077220833152, 0.6729288463819163, 1.013686807825427, -0.08117086645642409, -0.9069033857488946, 1.7172935080696743, 0.5427059301242452, 2.9435942567038325, -0.4220701310653297, 0.67245433033734, -0.7714872822872999, 0.1934955765959436, 0.5881054468837897, -1.4347035776137333, -0.28244462538536014, -2.015677957975608, 0.7748605323396599, 0.7251427563671241, 0.7441312929130964 ], [ -1.499750313319095, -0.21602691874822338, 0.09735319622429407, -0.5831083166318347, 1.126614098018495, 0.966641875916755, -0.12598240818992076, -2.8643331785114126, 0.4563893349694107, 1.9379142376038596, 1.2233115950963385, -0.31568613957831715, 1.1794695800783621, 0.3209772624354311, 0.39309667807730453, -0.5388865311961388, -0.749403774558413, -0.7623761984712406, -1.9916231589339932, 2.723931595478806 ], [ 0.29173689272849906, -0.47606610329874915, -0.630764058404055, 0.964285349688, -1.4279987686536002, 1.254643597511023, -2.242427671829416, 0.2552644548095058, 0.2988599137359731, -0.6150129223501234, -0.8509744179476791, -1.0537875844153777, -0.4956592268973195, -0.21569922209467324, 2.0273783661768343, -0.5995211937816541, 0.5456847712482843, -1.7395515458133912, 0.03385146244346665, -0.604708331524167 ], [ -0.7823827020340242, -0.31202227804870825, 0.23979681394051014, 0.7802198520732885, -0.09777843317159761, -0.7100754317125815, 1.3394857475562163, -0.25240983725330696, 1.9811613440617013, 0.21624857780424062, -0.6380570989822286, 0.012655358255802066, -0.06972818067700526, -0.3697383209214182, 0.6107776397595537, 0.28272199820843297, 0.2538701744962076, -0.9057677109511644, 0.5211639808985112, -0.14422067222558582 ], [ 0.670509556339751, -0.06531240953581391, -1.617918280655452, 1.9459799850180135, -1.79180954575837, -0.556119240624087, 0.307463176416028, 1.5990278159540539, 0.400926516548477, -1.4787276162748686, -0.8533636316702974, 1.5193508120138628, -0.3740664734780958, 0.0333776853622057, 0.5921219516751334, -1.4858462088105782, 0.7323384458287142, -2.3292704069422134, 0.13022301082960455, 0.30320594883896335 ], [ -0.5324580595876837, -0.7529244717545526, 1.1062647526708203, 0.11394161264084982, 0.4232381808941876, 0.2792587952544772, -1.8397219043805948, 0.727251982717595, 0.058824324047486394, -0.48505751175660755, -0.11199496771626487, 0.8369731688300315, 0.01452286859497908, -0.668084350027523, -0.48887438127596095, -0.2908911344456997, -0.4019178139457826, -0.48043620464695996, -1.19690993303239, 2.229488366513815 ], [ 0.4285345219782346, -0.21570563239733664, -0.7792871178278109, -1.9115851592943363, 0.49536920057769646, 1.4097418049667378, -0.6949667860133362, -1.252040458865613, 1.6074829671747226, 2.5005277172173694, 0.9671626759117166, 1.2296978336397362, -1.2659641825345886, -0.9992342814242647, 0.2121483259728666, 1.642536370127282, -1.152508092659794, -0.16097788709867644, 0.23758987353842775, 0.8752282810165306 ], [ -0.09698084380439452, 2.0701686083358437, -0.822952338444747, -0.6983244599284081, 1.3339762678732823, -2.7473196009028844, -1.3451725407536383, -0.999903550784563, 1.8248537824600277, 1.3679322656618573, -0.346425200333705, -1.7821340002258634, -1.9697969446351715, 1.0624582817046684, 0.21318107751942686, 0.20797034204426895, -0.36590885249673455, 0.6938676973952864, -0.07417201238781726, 1.8584197666419173 ], [ 2.3855478525457645, 0.06081246857075585, 0.5630668474389389, 0.08122456841917698, -1.418310935327725, 0.7334567529960738, 0.7997398036706931, -1.85233967316973, -0.38886120436475563, -1.1021879639119587, 0.6421141965970422, 0.45016655228567937, 0.7930923491727426, 0.16927929624625765, 0.3278276957901779, -0.6712320687857014, -0.6979274451817169, 1.1868487294673082, -1.1617235255162712, -1.8548507294666972 ], [ 1.0727124384217255, -0.23874519842993938, -1.6811808677861142, -0.09819043261870397, 0.1218938430699538, -1.4715391140132015, -2.620233756117316, -1.3638676679101545, 0.535912217522623, 0.7622635231472967, 2.503980842072461, -0.22146820224595198, 1.9598769778825282, 3.110783489480963, 0.4452978970123598, -0.03778594911608955, -1.7641305875471098, -0.18184322280394458, -0.49988597792168815, -0.4067601852735487 ], [ -0.5003211711277309, 1.2021917487070062, 1.1052524195507625, -0.43169011285114883, 1.471617067531193, -1.2401108961739722, -0.3062364081124544, 0.25464524357196083, 0.030751294777258742, 0.052091623743168176, -0.09078749093555641, 1.0449759847011075, -0.5714652718356937, -0.3010461755138777, -0.3024404757776896, -1.4283241833716425, -0.5428051405833149, -1.2431302023678665, -1.1095693576346932, 1.8494649264633092 ], [ -0.16563285719769458, 0.47517347790925485, -3.3089953036955877, 0.11346329378421809, 0.7224866265205154, 0.9610484605858604, 2.703499864814358, -0.6613368855854833, -0.19958546482670356, -0.2533485259453368, -0.35312280206019014, -0.4002529069388581, -1.7376370386638844, 1.1001236322385315, -0.5001414158638051, 1.4978050821941002, -1.8811157292730398, -1.1600279809306702, 0.4294451969901555, -0.414093399430078 ], [ -1.1676987301233643, -0.07301180813537902, 0.5756053219270199, 1.1710645318471202, -2.5891291759487434, -0.9415012675118019, 2.2375282583116145, 1.7769083239044323, 1.9238462414500581, -1.6232033236622028, -0.4929128455037518, -1.721935913191526, -0.06877170223579257, -2.5076323114808607, 1.6994488595300787, -2.7333913648197137, -1.0985085393345817, 0.010836914524892818, -0.8235187517861992, -1.5929104759302175 ], [ 2.3234399635236302, 0.24830222551954664, -1.0895867761788365, 2.198133778963171, -0.2674416082826385, -1.5280009982588587, -0.062197672583269574, 1.7801520799391386, -0.3183306996497346, 1.2814885719548832, -0.600538372299798, 0.1846552072442184, -0.5929072533711598, -0.9225606595491301, -0.48076309993908045, 1.31699722872838, 2.735869257059187, 0.19204376767402564, 0.926009645208551, -1.0982448102418827 ], [ 0.5438491069285254, -0.5712577645483209, 1.2096328162596848, 0.07663327294872607, 0.9855848056304961, 0.793255437221638, -0.531518788761481, -0.2761404157788053, -2.4297696245982006, -0.2247770038611892, -0.9835540204294646, -0.8207134993295273, 1.7714947567168813, 0.01647041889346723, 0.3602501288827987, -0.9590216534760909, 1.7624502166020661, 0.6868988396358577, 1.919113010964239, -1.4527461800373314 ], [ -1.1233402243570971, 2.3239314497952233, 0.20120103924107252, -0.5763844435212664, 1.2774542351219125, 0.5196718898756646, 0.01657598230808657, 1.0727341147188185, 2.0942104639085715, 0.07333845327764923, 0.9076104416262676, 1.0214507980808525, -0.09475009801586567, -0.39206467715093385, 0.028187645468760625, 1.0935543295238734, -0.34498178568855525, 0.6789155966818604, 0.5214684605425188, -0.626404280317674 ], [ -2.952093287556921, 0.20636236718792178, 0.5693006416056252, -1.5802374146004732, -2.4607940642020285, 0.5886254583665551, 0.33525012324519116, 0.522035678898925, -0.3189007044822398, 1.3502034557202942, -1.5237446721908035, 1.2426114399145425, 1.4478626833631498, -1.197578319022197, -0.31948870131032914, -0.7682672696267109, 2.7984164218871497, 0.2116545807188341, 1.2338156558518882, 0.8327177680731572 ], [ 0.5409166594651161, -0.1645006881871588, -0.4709762455138287, 0.057564452407959835, 1.9280796352468768, 0.9877627088353299, -0.9606650320130886, 0.28276277688483537, -0.7002885571883181, 1.9591081569988804, 1.9363550521194162, -0.3358454826535483, -0.22523162523819412, -0.3839302127534116, -2.578213984424328, -2.0114022745418807, -1.1183314572004104, -0.3261229059704527, 0.3069899103993825, 1.6747750859634163 ], [ -1.0742622072715515, 0.2611130082454282, -0.6784580510738952, 0.7952235998577198, 0.6427821052301907, -1.3199232665282885, 1.6162850974195713, 0.20862227595967647, -0.2182489316277721, 0.7605906060805291, -0.5971615547069826, 0.587454959525821, -2.4824678339826023, -1.8243170231236294, -0.23373243684659648, 0.8428486984210268, 1.2575535101612116, 1.7202739443220159, 0.37688133045007477, -1.5405779770645767 ], [ -0.48983274093817614, 0.45295380809216074, 1.2689329192431853, 1.0877487102403232, -0.7294959739449655, -0.1409364826545237, -0.10033401626481017, 1.6379228707494269, 2.1667016864286373, -0.8920463371368713, -0.24624421665952267, 0.9511158018369505, 1.1665234401463125, 0.14792495173134382, -0.4779958174998474, -1.2074421162106497, 1.51058351325999, -0.9824849894727558, -0.3467859710145589, -0.7837085555806983 ], [ -1.6760573338572553, -1.0640196945838452, -1.3134048937498801, 2.147006592806074, -1.3421688140146724, 0.5102772402331913, -0.18700098580655902, 0.6257051734088145, 1.8414798751568524, -0.9779658649920299, 0.9083083723026725, -0.6602564072310121, 0.993678181686203, -2.1694969777280084, 2.248180029138773, 1.6363429766213262, -0.33070253543165457, -0.6712701515853758, -0.06326467543694027, 2.1827548208707834 ], [ -0.5089658893106374, 1.7942791059576584, 0.44293951151019784, -0.28512684476578276, 1.2272680743681765, -1.2730846600078527, -0.8094663240645505, 0.867914893018687, 1.557221728756844, 0.6556603479487778, 0.537191609101239, -0.42625324015108834, -2.931642329825763, 1.6998686609292506, -0.16342273293865214, 0.1733741597139004, -0.19669600059446712, 0.31864117013134113, -0.5349208485682393, -0.8813446633204746 ], [ -0.5506647345953687, 0.47667582198329056, 0.739381864639672, 0.030481555639570116, 1.3094388008952942, 1.008734028014914, 0.8035727971586707, 0.07001925850402088, 0.24665904374590003, -0.35991256582797204, -0.35137532866256943, 0.1615494025183463, 0.2410261655840853, 0.04349374296521866, 0.027384244052100506, 0.390205482500188, -0.2114751492959546, -0.34323521946009394, 0.3331189230422186, 1.367532671349406 ], [ -1.0605108687876914, -0.20383190028373888, -2.020836715806399, -0.8176780410744093, -0.5354179791697878, -0.10335083792357666, 0.07770893036257513, -1.9961150691595384, -0.2865477133921288, -1.7304702518958182, 1.3450954831676083, -2.171448558692221, -0.9659255254944675, 2.487547202993781, 0.25087692951934015, 0.05939042938065281, -1.3551197329349904, -0.5681234038891937, -1.2114410742598554, 0.44529976559154777 ], [ 0.14176371540750532, -0.22816925525645446, -0.49566202267939297, -1.6241540095593712, 0.05345667914964938, 0.5517192622225958, -1.2788589920587583, -0.43573447813483096, 1.9397604484120639, -1.271686563793615, -1.1285472576525837, -1.5395557171085645, 0.5943847162040645, -0.13340534697001155, 0.4164633430477403, -0.200262906652438, 0.32312033578053445, 0.6078263864416189, -1.1817480482267788, 1.2051111230237057 ], [ 1.267894011273578, 0.5330549954048386, 1.8442391997497434, -0.5201471395723216, 0.7766476811615873, 1.1427371482929876, 0.4300244729023931, -0.2583594987604096, 0.1577186362031987, -0.8960944944671877, 0.6333289563711676, 0.18934702649105187, 0.19732382859905423, -1.0923009620591524, -0.8215295429950356, 2.3617042765907, 0.19024809761006345, -0.7860377241899756, -0.00419877785411216, 2.3547493522114564 ] ]
  }, {
    "Size" : 10,
    "ActivatorType" : "Tanh",
    "GradientAdjustmentParameters" : {
      "Type" : "Momentum",
      "LearningRate" : 0.01,
      "Momentum" : 0.9
    },
    "Type" : "StandardLayer",
    "L2Regularization" : 0.001,
    "Bias" : [ -0.42856895215967694, -2.419086111798346, 0.12933220723498076, 3.3297576608729202, 3.724123193484862, 3.0693371858406615, 1.956850636672169, -1.2627021999137586, 0.040197047415922275, 0.3442380208934898 ],
    "Weights" : [ [ 0.013022894264743509, -0.1433018432839279, -0.4593854275025139, 0.16240543112190203, -0.05237208825393946, 0.3924130662604092, 0.03657368258229492, -0.5297861658908982, -0.8026195593595097, 0.24492311998000582 ], [ 0.20014894639078168, -1.8908394824892607, -0.18171399905115965, 0.22070473535875376, 0.14736148761787082, 0.24858430197306608, 0.8748486225516457, -1.0585014118275324, -0.031091666310525675, 0.05308470007692752 ], [ 0.3209330991812043, 0.028008977802280493, -0.5717521086507181, -0.13566085023821162, 2.24797589596958, 0.39330866520499547, 0.6024578868585555, 0.5385252371434927, -0.37464375740220673, 0.284506434285958 ], [ 0.4103365649988948, 0.38643999402972473, -1.1202854586608235, 0.559004533123223, -0.3154142054566068, 0.563141576496921, -0.018293970591435327, -0.30440319825716755, -0.9810707872308695, 1.1621195474297175 ], [ -0.6679648491091492, -0.4796435351268342, 1.6276106136016533, 0.24628660943878208, 0.32814313992498445, -0.10759983000631802, 0.03689481739458348, -1.1633185718703363, -0.2310057239240759, -0.5963856324693613 ], [ -0.4406129981767272, 0.25282206747103153, 0.6000174433293401, 0.2879745198788176, -0.6378326602862061, -0.35187786806166577, -0.3247889872332756, -0.36603379888042215, 0.4522727263998675, -0.6326687645055054 ], [ 1.4296212937185273, -0.6351014387160122, -0.7195236886338972, -0.38533509423198686, 0.17318047358836028, 0.5515269129881866, 0.8266315664003637, -0.2825258121171097, -0.26202590290815875, -0.1503043841863746 ], [ 0.4651599076527101, 0.0029518696031203217, -1.477426528685176, 0.3806485942835438, 1.2074686421212886, 0.8592078896604628, 0.018377323234931655, 0.7393629840335569, -1.7572859776793404, 0.32466435741966687 ], [ -0.170068199288292, -0.2315917486542935, 0.5444211743299169, -1.0556193843314587, 0.13320914819814367, -0.3329877923168042, 0.1374349514955528, -0.5129944818425702, 0.7294066603816173, -0.0025969519658584333 ], [ -0.07749406921812284, 1.0276510220206734, -0.21089466905853974, -1.0284422498040664, -0.060150232388535334, 2.0571261977547373, -8.07477139254301E-4, -0.8506962316772264, -1.183968842007134, -0.3198322214123184 ], [ -2.286361224500908, 0.9922864693007614, 0.6538335338947091, 1.6589676822349877, -0.9093984797304882, 0.0718123652440776, 0.03591421912007059, -0.10788066552567557, 1.4617685451029898, 0.3132340335997169 ], [ 0.6449632021145814, -0.34654240648827206, -0.8520276948281004, -0.8072630199368759, -0.41024942471221865, 2.40544470216482, 0.1257339999206348, -0.001387578768413779, -0.4373552433511503, 0.26158317171267254 ], [ 1.0227975625061878, -2.0758156942923636, -1.0283203435310027, 0.09871963915726321, -0.16662283801239655, 0.7245314669717896, -0.3423282870630151, 0.21996890714920467, -0.29270634324732564, 1.4988892307070845 ], [ -0.6791415965421507, 1.3477569156120173, 0.612329106506712, 0.47861971133571585, -0.09133746613577362, -0.15839773478585933, 0.006466431820016074, 0.2797127434729701, 0.49982343702327425, -0.5020459812560071 ], [ 1.200749739976645, 0.01770642306406125, 0.1489999765775649, 0.035903034596247864, 0.06859951310726921, 0.15852811891486188, -1.046655982573751, 0.4065377455448597, -0.0031563246070523904, 1.3132377420684425 ], [ -0.344049083494137, -0.16327997147292284, 0.24156034409592758, -1.2447577908495844, -0.06635552712913599, -0.6720698303011329, 0.731035707542295, -0.3254373625386658, 0.30189258407100167, -0.5121261097442187 ], [ 0.025493047276487078, 1.4278998247697532, -2.205525033360498, 1.86267129951747, -0.23610252310756813, 1.2647469531334836, -0.019068987098487405, -0.7385598919275557, -0.6277456493455451, -0.6944970632624681 ], [ -1.2166906814797112, -1.1229944556915752, 0.8422220369712633, 0.3384999797160993, 0.732140755604675, -1.1575158028053338, 1.05603222868423, -0.17564078840808975, 0.49668347410869607, -0.4307824678047164 ], [ -0.5575988226309041, -1.0315912103378773, 0.7219935932407924, 1.421672508373629, -0.23468475067771521, 1.0266237470598691, 0.004617869376730137, 0.3696288464318547, -0.7520663643904154, 1.0427651722856532 ], [ -0.5517303904450588, 0.0440653158770762, 0.7026419247873861, 1.5905687891183755, 0.6471285053284018, -0.4327895798351314, -0.1972866109200566, 0.15317045385769298, 0.4574950963277164, -0.08700628791094418 ] ]
  }, {
    "Size" : 1,
    "ActivatorType" : "Identity",
    "GradientAdjustmentParameters" : {
      "Type" : "Momentum",
      "LearningRate" : 0.01,
      "Momentum" : 0.9
    },
    "Type" : "StandardLayer",
    "L2Regularization" : 0.0,
    "Bias" : [ 10.139804953960066 ],
    "Weights" : [ [ 2.15492705552534 ], [ -2.4794686858072783 ], [ -1.59314790425615 ], [ 1.0641036157938328 ], [ 5.770597158034363 ], [ 1.076678908682059 ], [ -5.220161989584654 ], [ 3.749455874153994 ], [ -1.403162782696602 ], [ 2.7519758394571934 ] ]
  } ]
}