{
  "InputSize" : 7,
  "BatchSize" : 32,
  "Layers" : [ {
    "Size" : 7,
    "ActivatorType" : "Tanh",
    "GradientAdjustmentParameters" : {
      "Type" : "Momentum",
      "LearningRate" : 0.01,
      "Momentum" : 0.9
    },
    "Type" : "StandardLayer",
    "L2Regularization" : 0.001,
    "Bias" : [ 0.5343037520197594, 2.135640740974825, -2.5071282997657955, 3.8284974074273603, -0.8818158458932214, 2.688733194120399, -1.4497589978976515 ],
    "Weights" : [ [ 0.6018710404933835, -1.6239911481547264, -1.960097332505799, -2.0010508768936868, -0.7700918656970406, -2.93265184239845, 1.7216586546297548 ], [ 0.12263072352883736, 0.0549500520267299, -0.021476996000418327, -0.023897641779961343, 0.020415535528349404, 0.008130120488983948, 0.02950067911864204 ], [ -0.4485508836913447, 1.1353318649255588, 0.8978488899941984, 1.2213006639001651, 0.41044852994936765, 3.474937391577088, -1.0729823118589499 ], [ 1.0120960428487298, 1.4437040646877646, 0.7454157453459973, -0.29472427171003407, -0.16628624322631802, -0.40973327624734357, 0.6994570060620766 ], [ 1.591550171560646, -0.8254204219804552, 0.8191701689599307, -1.363294590969467, 1.4818468139981784, -0.46835355387595884, 1.5080942113992537 ], [ -0.12933174612905227, 0.03675099561506186, -0.046543951738819894, -0.011148129681530703, -0.0368955458548861, 0.07035393994152137, -0.06016778944222616 ], [ -0.24533302440315782, -0.2892451587376444, -0.1641823389322022, -0.7321972426857023, -0.13119325752448557, 0.49073538772431113, 0.4222331563164436 ] ]
  }, {
    "Size" : 1,
    "ActivatorType" : "Identity",
    "GradientAdjustmentParameters" : {
      "Type" : "Momentum",
      "LearningRate" : 0.01,
      "Momentum" : 0.9
    },
    "Type" : "StandardLayer",
    "L2Regularization" : 0.0,
    "Bias" : [ 12.20917266511721 ],
    "Weights" : [ [ 2.5753511326936156 ], [ 1.412271723880476 ], [ -2.383939958067146 ], [ -6.559484039573311 ], [ -1.647591361919713 ], [ -3.6626498756286625 ], [ 3.78317609426 ] ]
  } ]
}