{
  "InputSize" : 7,
  "BatchSize" : 32,
  "Layers" : [ {
    "Size" : 15,
    "ActivatorType" : "Tanh",
    "GradientAdjustmentParameters" : {
      "Type" : "Momentum",
      "LearningRate" : 0.01,
      "Momentum" : 0.9
    },
    "Type" : "StandardLayer",
    "L2Regularization" : 1.0E-4,
    "Bias" : [ -0.0871119625734694, -0.8657924685059584, -2.7195045873514854, -5.041844521574413, 4.231404515396519, -0.5491651885129429, -0.7785686500870941, -3.1769283340167878, -5.659531569890562, -2.0795100497218937, -2.1266138228574674, 2.988877534562484, -6.015486940469367, -3.363536777656853, 8.484789030619686 ],
    "Weights" : [ [ -0.9981362793779998, 2.508441473246263, 3.029025944600352, 1.7120040172985023, 2.7901875657467547, -0.7692171555340179, 2.238183584864884, 4.3432205303116564, 4.684278088023271, -0.5439402769914813, -2.2456296186299256, 1.363201053148807, 3.234689979300084, 2.8111350803585027, -3.6523084418949865 ], [ -0.04854185991855536, -0.006444438375709372, -0.014333462499435373, 0.05371785747758455, 0.00853963841733332, -0.03212048782828046, 0.052877685584468044, -0.012714910045616527, -0.00839089775053669, -0.02607513436300529, 0.05589516306653742, 0.0761206395318691, 0.04925794096275965, 0.012172408898089277, 0.012460622744587235 ], [ 0.8437902974212467, -1.7280621835375163, -2.3739821722805203, -1.4453253870868448, -1.8054174215355252, 0.25174942400809996, -2.3006044199133626, -5.296316385912111, -5.968495127897487, 0.7321409969893836, 1.2279830543889125, -1.1204849954842206, -1.8602314857444937, -1.7045246350011765, 2.2469296471058273 ], [ -0.846716775893631, 0.4103243575902569, -2.401848298579159, 0.20278952408608839, -1.0325465531054032, -0.6366900562187948, 1.618105615230462, 0.794866945173912, 1.1049278701135936, -0.5506809266523824, 1.0997575344888688, -0.6444890601924737, 0.3413781333682602, 0.5030825436209957, -0.04173932635350014 ], [ -1.9194305424158047, 1.6826485193230616, 0.4746649122449721, -1.717172128409825, -0.9148324648470796, 1.2849347289450317, 1.022983797736982, 0.859264409532832, 0.5648816802264162, -2.4912270916437977, 0.979390783462854, -2.356556577587198, 2.334804643048768, 2.299048568470026, -2.2102027089132834 ], [ -0.046973562874941636, 0.03442953009934603, 0.0690015171809172, 0.08263393720011376, 0.1042933028907816, -0.020379869365669736, -0.10679804229860058, -0.06270283465721639, 0.04237899364733252, -0.043408001752104804, -0.03871653821864281, 0.03415440436673104, 0.03576498286796253, 0.029157593332842444, -0.10225802584879909 ], [ -0.04098252743060098, 1.1018070035169767, 1.2512675614138933, 0.26280689864006196, -0.3683023995410252, 0.012348730518964152, -0.8413019255925211, -0.41787371689328034, -0.8298371937307293, 0.1605168032893063, 0.03123231426523459, 1.0205452491824234, 1.51224101546948, 1.2164397747099693, -1.8364965651119178 ] ]
  }, {
    "Size" : 1,
    "ActivatorType" : "Identity",
    "GradientAdjustmentParameters" : {
      "Type" : "Momentum",
      "LearningRate" : 0.01,
      "Momentum" : 0.9
    },
    "Type" : "StandardLayer",
    "L2Regularization" : 0.0,
    "Bias" : [ 9.317829846876926 ],
    "Weights" : [ [ -1.0002860981119086 ], [ 1.685626459368772 ], [ -1.3940970209833012 ], [ -4.205302141345521 ], [ 2.287212901129123 ], [ -0.8102623222609376 ], [ 1.1073854544954562 ], [ 2.033653786031373 ], [ 2.7803132138482325 ], [ -0.7054906896229765 ], [ -1.0172215749618068 ], [ 0.682982542828502 ], [ 2.8842881574987502 ], [ 2.3044603948640354 ], [ -4.238049048730495 ] ]
  } ]
}