{
  "InputSize" : 7,
  "BatchSize" : 32,
  "Layers" : [ {
    "Size" : 20,
    "ActivatorType" : "Tanh",
    "GradientAdjustmentParameters" : {
      "Type" : "Momentum",
      "LearningRate" : 0.01,
      "Momentum" : 0.9
    },
    "Type" : "StandardLayer",
    "L2Regularization" : 0.001,
    "Bias" : [ -1.4314422901340198, -3.883289925272793, -2.9721814466708274, -0.9367899246667762, -2.907364958815608, 0.8900979702026542, 2.2618401976246214, 5.988066380469896, 0.7270613466326848, -3.502900764142736, 4.03709390557381, -2.979277643141235, 0.4892300685949368, 9.892953070600994, -5.0778828384355235, 3.734239852305188, 1.063578885145685, 1.945321163457692, 2.3210468728944957, 1.3811151772715489 ],
    "Weights" : [ [ 3.0839695268787244, 2.034441390732747, 0.12478309165026504, 1.76590181902494, 1.6228717144329023, -1.7813831465698702, -0.7696437379587152, -2.655472684401109, 2.3579707997918984, 2.308495602664522, 4.277788662436804, 4.163138739100852, 0.5281285962176508, -4.23451823005207, 1.7408519473108992, 2.2676614937505617, 1.4335813614434645, 0.24072912855360307, -1.696025950299485, 1.5626264635535931 ], [ -0.09140860379910394, -0.2463314371881311, -0.0477306252347314, -0.06300112524045569, 0.028672572797617323, -0.028982985390388735, 0.04051093185845825, -0.04369659393003601, 0.12092702495384848, -0.19380160638967028, 0.11815341600717856, 0.21212216365590753, -0.14117070041737126, 0.03273010622604187, -0.010376590696976344, -0.05973298522164279, -0.28260262563679045, -0.05205308273603319, -0.08921528378548527, -0.011429930904558697 ], [ -1.7924598452753475, 3.0261792354711106, 0.8719338751093114, -2.6832549278746, 0.3745032264799399, 2.063161542051938, 1.4906004261832264, 0.6839709069767083, -0.3613997264313069, -1.1136303929653102, -1.2481250455235489, -3.8124443839288538, 0.7432842209322652, 1.5622273027534845, -2.340664572289732, -2.578382024558654, -0.5041969620281933, 0.35488823209057685, 0.39696765135657347, -1.7726320736787915 ], [ 1.0630611224823956, 0.9364261380199934, -0.8118683983958686, 0.15619308682042413, 2.436973965304815, -0.6542600206355985, -2.2405220671896604, -0.6204472070717575, 0.16135697851261013, 1.3142925417367406, 0.04311113261052435, 0.11903952559895012, -1.2070263669392185, 0.11239693457577526, 2.8029103308205494, 0.7272571201525216, 0.47844730450129275, 0.3616974854687694, -0.4833370069742251, 1.399569040344362 ], [ 1.389245205904613, 2.3496979643922202, -3.0038031534711838, 1.2875791310309492, -0.8015934402034037, -0.4786007359480464, -0.5383995336776152, -2.0890603994427543, 0.29710898327243956, 1.8933558085949265, 0.29009596793595177, 0.2390017261247827, -1.5924714053983913, -2.1176428297585206, 0.3607190715679318, 4.203483934421938, 1.6599767821716174, -1.9130918725415222, -1.3524024909337116, 1.099592453313138 ], [ -0.055847551252933524, 0.14269152511449829, -0.02666664856165985, -0.3171003548915261, 0.09693710122142743, -0.00865990189409647, 0.11643169187228031, 0.04893478288576474, 0.12752317734459614, -0.04524797101562936, -0.07977330674118896, 0.16344713643365008, -0.2180744137038167, -0.02769516999674754, -0.12265900919511986, 0.024847554782844023, 0.08386926721347567, 0.08381550629924579, -0.03533408266171754, 0.06919734963216945 ], [ 0.16487096764706816, -0.19911221920932912, 1.7440581092592027, 0.5530711232193521, -0.8181843227741791, -0.7550370841093352, 1.5992648203547828, -1.7796951906850027, -0.1360534659235404, -1.6602978379077775, -0.009311776124191427, 0.34279912902155957, 0.7128827372800953, -2.7801889426474395, -3.2329585771438705, -0.23721262554710876, -1.0713702166809906, 0.12903133108338727, -1.3242375772101989, 0.41446954219513354 ] ]
  }, {
    "Size" : 10,
    "ActivatorType" : "Tanh",
    "GradientAdjustmentParameters" : {
      "Type" : "Momentum",
      "LearningRate" : 0.01,
      "Momentum" : 0.9
    },
    "Type" : "StandardLayer",
    "L2Regularization" : 0.001,
    "Bias" : [ -3.226472731303349, 3.08863634815402, -3.480466432300163, 2.4117106462416262, 4.603513767434614, -4.914524035955421, -3.8148656219238513, -0.054533674529294786, 2.3971697559879117, 1.864423221358697 ],
    "Weights" : [ [ 1.7031578816965185, 0.9193280907063794, 0.6968369750761796, 1.6116714498692581, 2.868127161084523, -1.2231945994786786, -1.616874311824504, 0.35105215646765436, -0.01024465132534917, -0.2603585545260513 ], [ 0.36016423427586824, -0.2550645441250373, 0.2753226362093095, -0.11364435387815569, 0.36615080809015793, -0.9648983969373249, 0.1696795332689135, -0.3713864370513393, 0.10783199347210268, -0.2784346222953345 ], [ -0.4031315552734654, -0.37606259259455666, -0.4559462053776432, 1.211452435856159, 0.7638035361051483, -0.35721676462613966, -0.07985585056715741, -0.20875359602498778, -1.0885700069353963, 0.30161064457951764 ], [ 0.4726791919614757, 0.013985373200024931, 0.21284249784049222, 0.16443324152931418, -0.5344874749573214, -0.24375474629453583, -0.05261177352957843, 0.6047690383177351, 0.5608348396125467, -0.4799622213734462 ], [ 0.17772009137109354, -0.5564234182484756, 0.11687845548846122, -0.8599770912604018, 0.913426828625567, 0.24275007307592533, 0.5290042031246805, -0.7870563766001586, -0.27200024218086716, -0.36379767248238915 ], [ -0.611375343851318, 0.6276996913549217, -0.5342258069533047, -0.2479918950618774, 0.3305956982580652, 1.260826461813891, 0.33721114306684685, -0.5104508917665098, 0.4630908423934242, 0.6304781953197651 ], [ -0.6493087664658569, -1.1866199835979927, -0.4596872830149836, 0.025283636030639624, 0.6517676538579694, 0.7140132365024826, 1.1872310674738669, -0.5002346447072583, 0.8943757248043191, 0.42048881062083204 ], [ -0.6449623887122052, 0.35129210151079443, -0.6569895547028292, 1.0833995641107979, 0.17330291805365025, 0.14884712737226788, -0.44738497281058615, -3.101014699555979, 0.27273183295524656, 0.6972660834084766 ], [ 0.5833436014863265, -1.7476935499788597, 0.5333764264544636, -0.7220864537654054, -1.6415059469298998, -1.418807566131803, -1.0154344867491913, 0.6970739001209333, 0.06676305076485342, -1.4434397889581745 ], [ 0.24678686122874435, -0.3593641838081317, 0.7764926338754221, -0.537026667992861, 1.3351789272880734, -0.16230482682892827, 0.7681846729960633, -0.8128573487946664, 0.33778474192023494, -0.32058767573567754 ], [ -0.23426942603891965, -1.284559506169252, 2.2464346890890874, 0.02186857028033063, 0.17851900579709765, -2.1371090070773406, -0.4082701850647066, 0.7815127363900374, -0.012908593015812111, 0.3116761119863949 ], [ 0.4974534822686927, 0.16459583483696086, 0.1860271628792759, -1.3007165661041944, -0.016478486144030694, -2.3566140243144975, 0.7639901513794738, 0.5987669093608863, -0.08866900748366426, -0.47955087174743666 ], [ -0.17151934354994738, 0.0785731786615187, -0.24260058954665048, 1.5030782382881096, 0.17367997991606027, 0.618070005685768, 0.26767928976435507, -0.1452145046176336, -0.6626071459588665, 0.3384504971331828 ], [ -1.6744535829900844, 3.370612082705114, -2.153844903536008, 1.3286658132295064, 0.5266819110235226, -0.4724493674175359, -0.5397379190283643, -0.5261522032958837, 0.024868268083488215, 1.33985710184331 ], [ 0.34836355530619184, 3.092658583485172, 0.15881802968035094, -0.8322662633588157, -0.7381494487867997, -1.4429542802456723, -1.7884357884206745, 0.6525334166115, -0.1127760752089041, -0.6493808015182931 ], [ 0.9163763935839059, 1.3227277019238575, 1.9391273855924638, 0.8063549232466042, 0.5495308730194712, 0.7139327272000843, -0.4090250076627951, 1.9624084975156697, 1.5650936915623634, -0.23963961789415003 ], [ 0.8791045619510396, -0.8566817761190828, 0.39283541190258137, 0.8399175449821965, 0.7890710081978547, -0.31013775013399864, -0.12466785936393313, 0.24416796399212767, -0.29549151230348986, 1.3677170953467737 ], [ 0.2960634612410785, 0.20701824100204677, 0.4535858066369182, 0.04160515616201039, 0.452539750428838, -0.13615216062671628, -0.22852719296193416, 0.4111350060413432, 0.21850188726003253, -0.027484103279946107 ], [ -0.5798375373157514, -1.4812206802889845, -0.3969911047060388, -1.5088309275701204, 0.7869455209465519, 0.22612044099891412, 3.029419409723911, -0.822360159177838, 0.8290776899639055, 0.5282925437167587 ], [ 0.003025839253336466, 1.4389655419464153, 1.2099924761571617, -0.5995429443480293, 0.012188565370805478, 1.5699352066480965, -1.2279212999187679, 1.6945829699175108, -0.21486974199992104, 0.35172512605909445 ] ]
  }, {
    "Size" : 1,
    "ActivatorType" : "Identity",
    "GradientAdjustmentParameters" : {
      "Type" : "Momentum",
      "LearningRate" : 0.01,
      "Momentum" : 0.9
    },
    "Type" : "StandardLayer",
    "L2Regularization" : 0.0,
    "Bias" : [ 10.213121235468025 ],
    "Weights" : [ [ 3.138006816678988 ], [ 1.058522867056762 ], [ 2.5632878378735953 ], [ -4.888600201769616 ], [ 5.734640553110114 ], [ -1.0687238090209052 ], [ -0.9196361441164658 ], [ 1.526181925959239 ], [ 1.8785769865352724 ], [ -3.7228052741656046 ] ]
  } ]
}