{
  "InputSize" : 7,
  "BatchSize" : 32,
  "Layers" : [ {
    "Size" : 7,
    "ActivatorType" : "Relu",
    "GradientAdjustmentParameters" : {
      "Type" : "Momentum",
      "LearningRate" : 0.01,
      "Momentum" : 0.9
    },
    "Type" : "StandardLayer",
    "L2Regularization" : 0.001,
    "Bias" : [ -3.6340875840927236, -2.5010635236021335, -0.6507640813538271, 2.042891012384981, -7.9567017265787285, -0.19590325453469887, -3.1090829384069467 ],
    "Weights" : [ [ 2.7033674127735705, 6.603450899437623, -0.7332355475973326, 1.122627306951745, 3.5490263583012283, 4.159069043791351, -3.1932379595429503 ], [ 0.07594916840135747, -0.008056977234907866, 0.03526961481123608, -0.00735928071967094, -0.03658851737465662, -0.09348394632808361, 0.04657719673916395 ], [ -0.5358983034326648, -8.317426304834804, 0.6690020550154205, -0.6001823935113019, -2.864025839760988, -3.606544983803358, 1.2478192629758436 ], [ 0.3392895957567015, 0.46740331333742474, 0.3765870004986504, 1.6579590205503563, 0.8576523656804341, 0.37159678058949897, 2.0063797323189583 ], [ 2.4583973432251085, 0.6412606287943833, 2.4850225094997165, 1.7715095931617073, -3.963941332032482, 1.8523347286360259, 1.9604702281277115 ], [ 0.14791218386182267, 0.06544952639562995, -0.08014038505941716, -0.06830425056683993, 0.10812106928130147, 0.03783062324733507, -0.10205604948917527 ], [ 2.0609902940071003, -0.3982987605993474, -0.7221107531929412, -0.31482671155854647, 0.8354658726824651, 1.2024763267163405, 0.374491763857618 ] ]
  }, {
    "Size" : 1,
    "ActivatorType" : "Identity",
    "GradientAdjustmentParameters" : {
      "Type" : "Momentum",
      "LearningRate" : 0.01,
      "Momentum" : 0.9
    },
    "Type" : "StandardLayer",
    "L2Regularization" : 0.0,
    "Bias" : [ 0.9609996322333516 ],
    "Weights" : [ [ 1.0537611476119026 ], [ 1.207513418627699 ], [ -0.7755157069622304 ], [ 1.2963029690796635 ], [ -1.2687521528685366 ], [ 1.165145816147468 ], [ -0.9596879673034546 ] ]
  } ]
}