{
  "InputSize" : 7,
  "BatchSize" : 32,
  "Layers" : [ {
    "Size" : 50,
    "ActivatorType" : "Tanh",
    "GradientAdjustmentParameters" : {
      "Type" : "Momentum",
      "LearningRate" : 0.01,
      "Momentum" : 0.9
    },
    "Type" : "StandardLayer",
    "L2Regularization" : 1.0E-4,
    "Bias" : [ -2.9835061654616473, 1.174875310705519, -3.669899380322988, 1.5960006771850155, 1.0111753741369456, 1.3506462015641247, -1.845661023196609, -0.7943437540161685, 0.8644641262624853, -1.4727512734861337, 1.1784116163514846, -2.5587820569299473, 1.7443899554551248, -2.806219361474735, 0.8652710757374722, -1.3199048062637722, -0.059321575683976994, 2.3657797301604093, -0.7065133461417066, -1.9457176724532428, 1.7928000974353453, -2.2139622996869974, 2.625318332956673, 4.219778990187109, -3.7968191740491317, -1.178499018999071, 2.6740638352379906, 5.556218525268777, 1.0357164629247024, -4.428187931788672, 0.6431396113262933, -2.041931769304766, -4.377137874137422, -3.8122966734744175, 0.5369407767455171, -2.4675597309005326, 0.25939829309639567, -0.757082632701729, 1.7499407903639443, 0.3316190791214685, -1.6580785656624075, -6.100074018798722, 3.688955833186452, -6.87796980129066, 0.18940103937110933, 7.217867087509902, 3.6403996458310015, 4.893059426224034, 1.453527894533462, -4.668397661953516 ],
    "Weights" : [ [ 1.8844153857190045, -0.47976069494911044, 0.6577985674001469, 0.80094450643985, -0.2865124351369051, 2.04786794327797, -1.3975507585147526, 3.872191344203617, -2.514685066085673, -4.099335602789774, -1.315376144551722, 2.261429898048999, 1.9280086106717909, -0.2630837864314043, -4.399951729016222, 1.7292899460651416, -2.2610187281990806, -3.3403236580421463, 4.246675687275734, -2.3245065688841775, -0.8824711346528928, 1.8810220815255123, -2.239421381368313, -1.0273450264352049, 3.2385018818140696, 0.153378337896897, -1.3153400839120712, 0.7721011429166659, 1.1723304372955703, 1.3018502354163664, 0.4072288212923378, -2.307679428856307, 3.4328874508940106, 3.1127177887262008, 0.04608925664012137, -0.11786670664074897, -1.4814088429089338, -3.681183600359617, 3.362921407081827, -1.050787944961855, 1.1110986294043768, 3.0716112683933265, 2.10020505109537, 2.68096177324026, -1.666952713474468, -3.4369277532678932, -2.516710085328569, -1.404386222858599, -0.24859920226854243, 2.9388311106428278 ], [ -0.023969608205689844, -0.5166212739772114, -1.2101425131609558, -0.2525434960995035, -1.0658598863918851, -0.017097918603546584, -0.6818218423920755, 8.612165971255345E-4, -0.12326567120251729, 0.12471478654704031, 0.33164363304383293, -0.7989462049497073, -0.26339879199235094, 2.5560979149934138, -1.6052854646057777, -0.9191580715535047, -0.5375893362400215, -1.0594520096534106, -0.04644933553917286, -0.94106815049714, -1.8331389108059954, 0.18623439206565165, 1.0060593053451763, -0.4567060730504297, 0.168383983756307, -2.3734083316217767, 3.4054685168476113, -1.0055391667758675, -1.2358395651628105, 0.021637719092864674, -0.829726534931743, 0.42262455326134735, -0.2687312217029597, 0.5804980703782322, 0.4580964905355224, -0.59346969050812, -0.2607553893530171, 0.16105441646242732, 0.15297060441806679, 1.5302708797952889, -0.5487224774463296, -0.11625359901252862, -0.19498890245545564, 0.244531020192893, 2.9488240982347134, 0.6333132872372293, -1.1224337635268942, 0.5233466660645728, 0.48925670398572224, -0.18442005944676268 ], [ -1.2417528553067467, 2.5951057293069892, -2.005334130673136, 0.8379019006831283, 1.6751597519971415, -1.5567422175112444, 2.3671623337072107, 0.039920644575114496, 3.3698242394695552, 1.7791314553195023, 4.291321475182025, -0.6231199709260902, -2.600884206569346, 0.28545559715976604, 1.2102202581388612, 1.4967064776131282, 2.9199721570040893, -0.062155531022097525, -1.7136758631414886, -1.220338423348887, -1.118557783873257, -1.1870901288343703, -1.7030146390081922, 0.07022711153363603, -0.2710501437830001, -0.1594126971613167, -0.9451260681905026, 1.9552685100402343, -0.189021254786054, 0.505370929012553, -1.280693563316548, 0.5492246692521726, -1.7068448805445569, -2.070751441434869, 1.6665462433340001, 0.4222538860996478, 0.977679712831903, 0.7238180791763795, 0.330022053661603, 0.43526676586038326, -1.6098497678938493, -0.05370210012049541, 2.016844994418134, -1.3767325834660715, -2.916216402421191, -0.17919596917798722, -0.1853903330217093, 3.4737572388895233, 2.8146043998683474, -1.2030628245623858 ], [ 1.9762355984222997, -3.5837458705295124, -1.0644248258695872, 1.9360903406891807, 0.020474669899947378, 2.7636436422489457, -1.7814840057774688, 1.4497261086964233, -0.6464963133399375, -0.27136839329440665, -0.23472388109270959, 1.6662985236588927, 0.6941131377935393, 1.490362411593185, -2.3018092097370553, 1.3504732203774794, -2.2840388725631433, -0.9608000344517541, 1.021661384762608, -1.9971726118079316, -3.053229359786158, 1.1238737956286198, 1.2106398897585373, -2.16519148123988, 1.382944619324832, 1.5890838131487528, -2.405025785097618, -2.6427513005781815, 2.3019695086405365, 1.4716216947219296, -1.1178163229491307, -2.5738203663334756, 1.7551544273211461, -0.6043144743029224, -1.9961763125407046, -2.162392672971342, -3.350603671969647, -0.7757196744856387, 2.0488496504113343, -2.714235525859892, 1.772027327364226, -0.39518542124471295, 0.6431541204294092, 0.7447415524088254, 0.008276356940441069, 0.10229448267773047, -1.152749368623413, -3.62008012531329, -5.262334140361526, 2.0762667202883724 ], [ 3.541299911116757, 0.1312044923328126, 2.7637121770520685, 3.163018987720314, 2.39024934384546, 1.5591198002227513, 0.48301032983283654, -0.27275486790298065, -2.924947533648654, 1.9801893955850736, 1.4468866289312001, 2.76584537472598, 3.17692631610728, 0.499725796923421, -1.4300476803453115, 1.5488704959300381, -0.9589182842884434, -3.6223312593159624, -2.2626093898233384, 0.5724647939187011, -0.9436871027617025, 1.268325572904167, -3.4154233261042752, -1.6547417527896557, -2.405337159982665, -0.26872040876029185, 1.571416065241606, -4.114035358378584, -2.1902700560451134, 0.0997071073070885, -0.1013324925233583, -0.308578668594769, 0.3318896494196671, 2.076374469205023, -3.1667741776083225, -4.015896260126204, 1.2795948415175928, -2.9634819782888666, 0.4509730671791243, -0.9356190375078126, -1.714786751689391, 3.209575833775623, 1.0381425465917895, 2.6866871471861344, 5.139698850702891, -1.170940181418867, 0.46754284477342406, -1.0964170286975157, -1.9518637908021121, 2.719953043739433 ], [ 0.29341240446700934, -0.7275711783040638, -0.15586282026832451, 0.04738895646946846, 1.7787689439295467, 0.18362420058937012, -0.2913542781732615, 0.047026897571447394, 0.5629379179798671, -2.1130144943473144, -0.3209170763493968, -1.1010379976012594, -0.4007057998658642, 0.7611561867198599, 2.14880278704495, -1.164011599472879, 1.7329695648546286, 0.5853601563201922, 0.8122019509476607, 1.3312041718143854, 1.1782055912292133, 1.035091297946252, -1.3017578092086153, 0.2343425975096124, 0.8012560978636561, -1.3062868006076764, -1.1707279102677273, -0.3840055564935378, 0.9211882606875695, 1.55976004663873, -4.292839619644249, 0.16864749335011198, -0.24735689318636284, 1.6035386618028495, -0.5444918522544612, -0.21282450776028014, 0.249442372876105, -0.9959263161786736, 0.704791317003448, -1.2911824549488324, -1.0605576898687432, 0.3728580221634158, -0.7918280438982525, -0.9210835799066304, 0.1655731357539226, 0.38519924865687766, 1.876144935097555, 0.36815019798626325, 1.4765939056368897, -0.32386561590348123 ], [ -1.5654253398131313, 1.8613593686064271, 2.8921621796384502, -2.710304480548474, 2.290028046889267, 1.1590688210368842, 0.18477926141205409, -1.4923298595765635, -1.5395849292528534, 3.9860677296438727, 0.7425499626884071, -2.000326077897686, -0.25943290859590074, -0.5267820588589739, -1.4716372190471947, -0.3848930753938026, -0.8859966415363879, -0.08749305135853343, 1.401890672690673, 1.0652684963872276, 3.7958025083160183, -2.247679909712737, -1.0628919539282473, 1.7526274693966648, 0.6639129926544961, 0.752571125373409, -3.6830777264584222, -1.9068436280878829, -1.7476501586200222, 0.9581996106319527, -3.7136938273962565, -0.2746933592888842, -1.5280930055748778, 0.5501608820632711, 0.8670090077311564, 0.873258375603211, 1.3494365308794323, 0.20068197025572598, -1.5171200527213797, 0.06574528541900831, -1.3194491602105272, 2.9939272990942154, -0.10212374267079188, 1.7049476285734178, 2.2543354101307007, -1.9890066388059813, -0.716934777136175, 2.711629469822358, 3.5204488876428255, 1.0321241896582345 ] ]
  }, {
    "Size" : 30,
    "ActivatorType" : "Tanh",
    "GradientAdjustmentParameters" : {
      "Type" : "Momentum",
      "LearningRate" : 0.01,
      "Momentum" : 0.9
    },
    "Type" : "StandardLayer",
    "L2Regularization" : 1.0E-4,
    "Bias" : [ 1.3464918322661876, -1.2259754749828942, -2.7905831872213835, 1.7955642292405563, -0.7559921442962796, 1.2444118841172143, -0.0029056337747174967, 1.084422753724492, 0.09094090405173057, -1.291446040891188, 0.8055475774085966, 5.184353193850006, 2.4598053759569747, 0.3826417659673752, -1.7974897783406807, 1.0282143184770431, -0.6057826660760438, 2.645866325735154, 0.9210507067990608, 0.5322699122323266, 1.5675451941118377, 1.8510698656765543, -0.1747338522677001, -1.107066478675485, -0.3250987050918738, 0.6496891565828498, -0.3696208284081975, -4.260576465008573, -4.888453817313436, -0.5143360415617545 ],
    "Weights" : [ [ -1.428204870973065, -0.24098812886583726, -0.6557708936762534, -1.2888094409310649, -0.08091078972784092, 0.27013183455460293, -0.4019584962915259, -0.5450575071438538, 0.5425711010874609, -1.0241462289326, 3.7704109665992642, -0.5887861239859026, -0.8291901209815451, -0.5426967983370182, 0.8482613410326965, -0.9016480844225727, 1.0046464386104161, -0.8192973145099784, 0.10876132177360286, -0.2574242527952665, -1.2102859055594999, -0.7396465655085321, 2.5748601676737963, 1.8861075977759179, -0.5613935413380904, -0.41404756177185625, 2.605986516674104, 1.6971678164713737, 2.5279116252476936, -0.7900686444733563 ], [ 0.09676736985716394, 1.966983064134623, -3.1773626398471237, 0.5271568174171078, -0.20223562474061033, 2.849959420827279, -0.7513818686797196, 1.957771442373901, 0.9480460747765678, -0.6233740716240499, -1.6828810790581221, 2.3792740044291127, 0.1324345910371876, 0.036775734887025166, 1.7737835772018666, 0.27064899078037435, -0.14927712263821188, -1.6336605514245777, 2.0025195181782793, 0.4192312916988799, 1.349260689121915, -3.985077693774181, -1.4350525116774409, -0.3469378556035058, 1.2434631665807399, 2.099041974485573, 3.2764418257609007, -2.708359201520602, 0.6421919270680322, -0.9164758113466305 ], [ -0.39367580459624024, 0.35084867449753226, -1.271954759883845, 0.40654541136128397, 0.5321020040316937, -0.35617324991231464, 1.7285220556420275, 0.5745688565509378, -1.1041214834960698, 1.2847337173332565, 1.5473841858174224, 1.013901087320916, -0.11739426814683335, 1.2939985151183668, 0.9456504042370889, 0.6103538245268267, 0.27928439280792705, 0.5974535980031831, -0.2249325991912097, -0.6767151248590626, -1.0097182681499404, 1.2989359677099017, 1.4008738843988473, -0.8587322197054739, 0.917068477725634, 1.2436167747295401, 2.800328127448473, 1.0026174683046705, -0.26970283851335275, 1.7335603088674456 ], [ -0.7657366643327549, 1.3834500940569618, -0.679557036800832, 1.3645314791760497, -0.6948020589141409, -0.49035817796412584, 1.3279662665001837, -0.1798089060452171, -1.8684937956514824, 0.7234914647337441, 3.2458548909667084, -2.6488362154037017, 2.4359697502921778, -4.282030633773452, 0.8605095271243667, -0.7574176746271929, 1.3621625710513439, -0.7063168852832614, -2.142048526511363, 2.770278225462253, 0.3873839525931543, -1.0031219288725024, 0.9343492161709676, 0.4613923331605795, 0.8675562641371063, -1.1914301887223824, 0.2446877682619309, -0.5754439859369553, 0.19194765995510266, 0.13566945195432495 ], [ 0.26019967995026544, 0.23282583479776547, -0.2171057280291213, -0.3905394314251791, -1.2377364674392766, -0.12001959959634144, 0.5993503235150454, 0.11032686335322117, -1.2944094685975043, -0.4429713656380074, 0.6481671897982261, 0.929596333092666, 0.14558382360218866, -1.3659424671092366, -0.5202851798961257, -1.5738185612313171, -0.42491814724243415, -0.11690692329094064, 0.6004400443270647, -0.661818649557358, -2.044006602667429, -0.7619512601611171, -1.0219627373083398, 0.8329003927543952, 1.433218611289081, 1.8358103534318488, -0.47334874065311766, -0.4941456814464821, -2.236719377660663, -0.6964574022731442 ], [ 1.7292127225866156, 0.511864750954367, -0.35532321842094433, 0.8679646381087962, -0.5575349249819732, -1.0635944158339934, 4.99083942467612, 0.9241840271434096, 0.2723037286459409, -1.1009279540631836, 0.8670228795895308, -3.224487279137623, -1.0882081883555634, 6.536376089182305, 1.0528935076287786, -1.5283127097799927, -3.190500148332089, 1.1667741432457852, -0.7510601577571183, -0.26116561237805475, 0.7274176819659437, -2.5781209137020276, -0.5063814571140064, -1.0155669196894215, -0.9039599130684554, 0.3885938420921231, -0.09351867881715899, -1.9135045971216251, -0.3340862878820321, 0.6926414199785516 ], [ -0.29520133898240997, -0.271678406389567, -1.2299201176227168, -2.0745119003739187, -0.6382450410714237, 1.0227322951370272, -6.982872700394735E-5, -0.0916726802822161, 0.6174476007549983, 2.146801658001359, 0.448330737333293, 3.1047421931059156, -0.9445291730226643, -1.8574636941027427, -1.087316399497198, -2.1144096064436355, 4.221384933023631, -2.9209713942766298, 1.666947588204863, 1.9794047111967854, -0.11370539950093803, 1.8698267064255711, -2.110973055996836, -2.622034844695256, -2.1423276218672385, -0.5908938230559276, 2.0075477859068145, 1.2016855793692098, 1.096433176038649, -0.8680460711414182 ], [ -1.046536177730899, 1.7710640080724904, 0.2976802734217329, -1.0262018780812194, 1.3411736414171767, -2.071875340448963, -1.4721302265298666, -1.5802508409945505E-4, 0.546834265447455, -0.2677624312876205, 2.86742692898367, -1.571084786022157, -0.06056084090702441, -2.24659928788555, 1.2934983469461163, -0.5280298811497939, -0.8761704059899712, -0.4611106143563356, -2.6791803822601072, 0.0464436413434989, 0.42962037220241134, 1.3459498167822967, 0.038421575200163975, 2.638898409427759, -1.3509184252424455, -1.5436527485597322, -0.21738222654937703, 1.1208740152456438, 0.9876082697978986, -0.888842426947402 ], [ -0.9148934625420037, 1.2337944340217466, -0.6648656494402435, -3.177955288836433, 1.6628344006587095, 1.5308753447097954, 0.10106590081500759, -0.6682499329458255, -0.19531287490395796, -0.02293108984510133, -0.3739876168259018, 2.5442206678175814, 0.05469932012319986, 1.3248689679627925, -1.0123035292871077, 2.788179634301182, 0.7045795711628827, -0.6123600050270036, 1.9295507111952686, 0.2476497187526759, 2.64073639165522, 3.527611350713303, -0.5383755085314964, -0.7335951604506903, 1.268864054359748, 0.8982094059574431, 0.0032640248986560714, 2.0844429551019115, 1.1128250251550205, 0.04590822432489029 ], [ -0.6015353678021272, 1.0738727454747314, 0.4740113169109496, 0.6551515742488042, -0.8680466864261973, -0.278784003791821, -1.6460075456743373, 0.09304143891382506, -1.3432727276541403, 1.017391022531968, -1.3513072412468838, -2.50050071324983, -0.5577330256986792, 1.156508042917739, 0.005181169772593872, -0.9520277344618209, 0.1856253574430435, 0.2814726769904736, 0.3729027938406131, -0.15266733736296376, 0.07256407986425782, -0.00489054649003575, 0.8924479465683287, -0.7886137351163672, 0.9483911427390517, -0.04307055386900414, 2.4155854811138466, -1.8737609905828883, -4.048271519162599, 0.6639819601934961 ], [ -1.2794964220278295, -0.9286064842411055, -0.5692906326351164, -0.6847208050325443, -0.2375201806549781, 1.7970320495494119, 1.2011435907087802, 0.48286757716113105, -1.5376556569004447, -0.36336021144183667, 2.480541038537212, -1.7659082354914122, -0.5328655796468533, -2.4570900695965223, -0.21547761054330994, 2.0363791556143847, 0.9656168086167476, -0.7102345072774742, 1.837610225106792, -0.6813013254538569, -0.02625479651701652, -0.7271482596961966, -0.5335080665630286, 0.5734257511094105, 1.6634006052476373, 1.3927633099905967, -2.155535495441254, 0.9184933045198522, 1.4604018535551633, 1.5724202782727594 ], [ -0.21515074934195905, 0.6433938824956608, 0.33066904246259277, -1.625741169105529, -0.4728645435449599, 1.2579719304260186, -0.12154497418621547, -1.3061095983471658, -0.15290778922289722, 0.5714465926371189, 0.8650926807908657, -0.1878909895025498, -0.8988032513827682, 1.312482339958236, -0.3851694048472345, -0.30115189324791475, -0.5405309119296099, 0.866696497075913, -2.125159037286549, -0.7787015476259522, -0.6231788237553116, 0.47316873080263916, 1.144286827800583, 0.6959099982024296, 1.5074617586977361, -1.4147494867247212, -2.2058900098952385, -1.2804803332178993, 1.0052991811819063, 0.4158319725083847 ], [ -1.7637358455882004, -0.34060047528132975, -0.5751354914502249, 0.7160085695507988, -4.494284449832899, -3.0878010319440348, 0.38679672898391576, 0.6546329236713924, 0.820387626140919, -0.31011094242283527, 2.253763440519102, -2.4024059896121046, 1.2600206478868965, -4.0933736237095175, -0.15778329120311047, -0.41217098056192536, 1.7022150300328167, 2.040077818944879, -3.9628504402846767, 1.8278157945966282, 0.18335827830554924, -1.3821607586399822, 0.2473014748503002, -0.14829136256594788, -2.209303037020369, 0.6682454614164315, 0.3816859891162893, -0.9952645659873415, -2.255419720226854, 0.03897980633741668 ], [ 0.14663670050777927, -1.3076182254374862, -1.1954698781301143, 1.2192629163039124, 1.185910787479971, 0.8841694013677175, 1.22593702636012, -0.714551399931405, 0.817720401257282, 0.34470929152473057, -2.4455623449599035, -0.1275117521791669, -0.18489600698817787, 1.9431907259608707, -1.406918375554905, -1.1688504934129085, 1.135197043199126, 2.012360198740022, 0.5384904988814491, -0.7713184557120965, -0.3727169001562871, -1.8399933837144153, 0.3502630530422873, 2.0382105612010935, 0.9044890224487622, -0.24765246627546555, 3.1524593200439743, 0.8720518591312864, 0.423588524215891, 1.2975341807725642 ], [ 0.684931243636482, -0.134366782399099, -1.2831504004813594, 0.6110089031052925, -0.3591069176991837, 1.3822275086147513, -0.5436772702207953, -0.14894158204605412, 1.1540423186514042, -0.695018811173059, 1.5210923079183725, 1.2873099889723743, 1.3124114060393217, -0.7950805097391584, -0.3366345743373131, 0.40655444325630397, 0.06900100781937979, 0.36305173233304167, 1.114220411335525, 0.6189317835442472, 1.6222134038781917, -0.06889170771993586, 0.5838334148910107, 0.0892287044737297, 1.3693825424186885, -0.13179675834086785, -0.4506694967268936, -0.14174773369418256, 1.6167128649498428, -0.7952459631777586 ], [ -0.09182243795320987, 0.5849172337119438, -0.5074407690279392, -2.2807092589331655, 0.5164753903802547, 1.604902071741464, 0.002537118693215332, -1.4349279781880033, 0.29875741744583423, -1.0066285300126183, 0.972892020972573, -2.4228976171876244, 1.3852237081586936, 0.40402936968778275, 2.6989604858049656, -0.6332389029727102, 1.2526594702518226, -0.4233667203184622, -0.9376170798220496, 0.10718712941812047, -0.02297588909010618, -2.104260644642845, -2.466742431322061, 1.0971538498064413, -1.9204467128135567, -1.8672620475538417, 0.7199764914610446, -0.6704591960127354, 0.2745483259346297, 1.1900165125827629 ], [ -0.6983033614834805, -1.697569014485775, 2.3571045082259343, -2.37111135086941, 0.11291545881912492, 1.759488352504336, -1.7185313464740315, -0.8386065001510478, 0.6812892980607379, 0.5259137432467916, -0.3007567070231399, 0.054835255624450144, -1.0592691385177928, -0.29305209404069116, -0.12444302398695517, 0.8454724203980944, -0.2810579041822786, -0.1400508748175311, 1.8346753566713216, 2.534391014844673, -0.2600304743861817, 1.68893549304136, -2.915192487506831, 0.5795598632690953, -1.9327600931089632, 0.04299377606819179, 1.8244542092124192, 0.6798601988029553, 1.218422308863078, -0.2639590207220917 ], [ -0.31623258129330156, -0.140135023706903, -0.34366102676733407, 0.022196794181430925, -0.8518817265542357, -0.07809760514838211, 0.6623354457340901, 0.29913297219699597, -1.1780628285486663, -1.4358236614116222, -0.15308658251514176, 0.43757086436658565, -1.6061808971922162, 2.029714098412802, 0.9306866079279756, -0.09879038041206636, -1.5803837593810406, -1.005900823540449, 1.7784635204290062, 2.0952644225822676, 2.0362415160424843, 2.918991737947862, -0.806576099357122, -0.5257212818358241, 0.7895493596625639, -0.2978986432719605, 0.6079039401187799, -0.07653704979567111, -1.5408471730914308, -0.3654902370479204 ], [ -2.812906779093907, 0.7088076674009434, 0.19565726793230898, -1.6338391541088304, -1.0030442999298368, -2.03658740000278, -4.651909790311373E-4, -0.480053957768463, 1.0935966064270448, 0.8412878412754264, -2.1868649671036966, -2.1923142104782074, 1.3806581836174991, -1.3350174262751253, 1.6548371098206587, 1.1654336135625578, -4.141798187977114, -0.7678151966554534, 0.4948359282290987, 0.28013976489908293, -1.0250060934524403, -1.7719409349944566, -1.031762261665514, -0.1726063573436571, 0.945175319337929, 0.5019030379882149, 0.19001900179361195, 1.2393270227270812, -0.3804291710605766, 2.5004888175520668 ], [ 1.519378926417619, -0.8219831477289241, -0.484511401438595, 1.0501518345841396, 0.6118295409180233, 2.0183154808059096, -1.4746226744976436, -0.32119762707974087, 0.7388080466462277, 1.6371866978165628, -1.496581216318435, -0.9514068654028118, 0.4988794043298447, 2.3268905124532973, 1.2431910307398184, 0.48153290281746663, 0.5090888433917716, 0.9447720415793963, 1.470704946872556, -1.0438427142615951, -0.0011976909858895832, 0.9783731060641243, -1.620605424539736, -1.7363151330072042, -0.8109759425380743, -0.3941612807563286, 0.41629910076295945, -4.183662432749609, 1.045200695202124, 1.103190110352392 ], [ 0.10402292510495163, -2.003668235640271, -0.24555995691149388, 0.5770284641746756, 1.1456157340701207, -1.3331823314102162, -0.12096509899849274, 0.5392320788672738, -1.6668665296706648, -0.5196363963685569, -1.1090383829545198, -0.2747133234742851, -0.7270585104620265, -0.5326973025531119, -0.6777809254499446, 1.1949436494327077, -0.6272217048006025, 0.4687858075765093, 2.7082009525060604, -1.2490277009549047, -0.16358100179682858, 1.0974579285667234, -0.15643495053011683, -0.3617438802370999, 1.2720779522357721, 0.8864776951144445, -1.1959304403365323, 0.6256952533630051, -0.6270171823378573, 1.207370798586825 ], [ -1.7075510768310997, 2.165811753018658, 0.35595209331206484, -2.52857699040013, -1.305916826318916, -1.4276389115557437, -0.3485347860242983, -1.7458264638321888, 2.0586529939789124, -1.6005219507114645, 2.3687790057433595, -0.19020447893658127, 0.0879940804950174, -0.09051112503034726, 1.1997632845790929, 2.011312768366828, -0.007043795116719745, 0.3977796338342339, -0.9284775668337857, 2.431488064695964, -2.2073594299639203, -0.1698154395347521, 0.2888483822603201, 1.7424420820270035, -0.9264851804248985, -2.6521394527625195, 1.2804934452520584, 3.1778561473707714, 1.8194358500451846, -0.35194779722166564 ], [ 1.0722507579715097, -1.028329637817323, -1.3349341004133786, 0.3126735594976715, 0.32825889100590894, 2.7185827662592974, 1.258334345138304, -0.8688780286012429, 1.4042708735034708, -0.48635078115389563, 0.9019233392827363, 1.790210331905184, 1.3163977906648454, -1.979644608428135, -0.5409577566219632, 0.35231754470418325, 0.286116239758344, 1.0642876635069174, -1.4499223388903257, 1.3884765037133788, 1.0894933422946182, 1.486761398663264, 1.692047404519401, -0.04733601944211228, 0.7194460703937452, 0.88795916000578, -2.097382911708249, 1.8539981651282327, 0.45550377663227853, -0.37950892630455363 ], [ 3.1878813520878415, -0.7437884687784682, -1.0599307922382362, 0.5179621237395996, 0.1195840379873305, 1.9903436772071552, 0.24878918406281114, 0.8705559642138476, -1.9716945049810095, -1.7169129575579154, 0.33005491388607067, 3.3106748249913993, -0.559191780309943, 1.1787830861443618, -0.8101165516251904, 1.0668938366233467, -1.1871749547671047, 0.8531292283615177, 3.5537816335519716, 0.859542475004437, 1.5727113738456264, 2.04908299005567, 0.5180617899609863, -1.3459910588703206, -1.2098426603257662, -0.43502252136131725, -1.353495362387386, 0.6302350152005975, -1.5526367246752149, -0.3923268674421653 ], [ -0.9134946034839185, 0.30474707376337573, 0.8084896028148418, -0.8523013964424794, 1.106770772242357, -2.473538344112832, 0.1580369054230661, 0.11332160636917141, 1.1577434758878091, 1.0860494099762963, -1.4475132631242686, 0.6544768428853557, -1.9497584943439865, -0.3857420650510404, 1.2861416901346376, -2.0489950894618, 0.5577067602384286, -1.4091685336364, 0.94029325454507, 2.2636299612821933, -1.4570136622879135, 1.0341380390440909, 0.18409516683646554, 1.5617341266791738, -0.8762313887262287, -0.6872071711972114, -0.3857493393352807, 0.02464901642802655, 0.3681041397958039, 0.6575051305283178 ], [ -0.9365890719524418, -0.7466746147477547, -0.0590929574126187, 0.6453122603540086, -0.4513313524079708, -0.8442954273556263, -0.11398990118205778, -0.1465862114875888, -0.4561512005558662, 0.28190998416309077, -0.7301487138783556, -1.5429196843574606, -2.454760632665416, 1.4500953343627931, -0.18719773559826472, 0.6080843859335607, 0.2857917316040023, 0.45326849375106215, 1.3376944512705349, -0.5736749104387231, 0.03842094477528457, -0.9429736744987884, -0.22509475794056913, 0.658860465535207, -1.2732008690149141, 0.518470224935986, 0.99282511619318, 0.8869507001195209, -0.47285510602206, 0.21137715563845746 ], [ -0.0226615249689375, -2.6941538450836267, 1.0361743301290878, 0.12248693331347525, -0.25172667873108845, -0.6239756153667277, 0.08247583364805432, 0.7268255493169332, 0.6321553290046644, 1.2888414103020285, 3.6032721043761615, 1.0943011830386824, 0.9139347315871379, -0.6597054025523355, -0.9964309809162413, 1.6909010074358528, -0.5698271292591306, 0.9158541429607426, 0.6210820167394157, 0.059508540568346195, 1.090623199672007, -0.05519035923370219, 0.35794372923577533, -0.5759965648613548, -1.8348754674357028, -0.8952025128611544, -0.47501754090234255, 0.19336491035944034, -1.0596679302611718, 1.1323759430563265 ], [ -0.1047381616690971, -2.697511791078764, -0.13107689931681502, -2.087571614646782, -0.7375123079160503, 0.16312080840991128, -0.6050269159089237, -0.4180507887308059, -0.7495931600830029, -2.2014496758123547, 0.5440361070604481, 0.31636705382324576, 1.4408840185640246, 0.45833083363249666, -0.7330962159310144, -0.6962610230503201, -2.1565416207000214, -0.2518841989178449, -1.6485137675993022, -0.23972405021319, 1.1589005041337015, 0.65235130645856, -1.229541767281937, -0.11221637661303337, -1.5593920062719677, 0.6644631250306199, -3.3011614009244794, 2.0172162862071503, 0.10636176892215737, 0.2934424742569275 ], [ -0.3599071455085826, -1.090842721920108, 1.0104226027752803, 1.596277941436127, -0.24412294663044812, 0.643148890634459, 0.8062980019991415, 0.6262984877321812, 0.4687467895052955, 0.8182835447820951, -0.42116619685971746, -0.16197431216688826, 0.8887687472834478, -0.32220524686434204, 0.0932758268543492, 1.394445325319609, -0.5868792955218386, 0.2686056916958633, -1.8159638165742282, 0.3644993434827384, -0.3703953473497629, 1.2491958705342157, 2.16570508930871, -2.0879631533539125, -0.5913502070156953, -0.48120624909604276, 0.6374343956389064, 3.44114801753476, -2.0453808711592507, -0.5106837755919893 ], [ -0.2519999230204298, 0.3570993150069305, 0.9562606927563929, -1.261738359416591, -0.2391527692481436, 0.03727752610605149, -1.181237644722024, -0.518566371534897, -0.46883219925767344, 0.5258639932057998, 1.7520498285012953, -2.5652318279496313, -2.484116568518488, 2.081103537948987, 0.5523499384243113, 0.8979640109614968, -0.5934772739851123, -1.2386457302095137, 0.5993896964008428, -1.1101438781448658, 0.49503005327952665, -2.92758276659867, -0.5306043930120036, 2.0031995518881542, 0.5827086766884917, 1.2967400541443648, -0.14737025382230304, 0.4579371302947655, 3.6182141859760515, 2.1747528004256442 ], [ -0.6163941135403245, 0.8341245533332392, -0.7315260117731841, 1.0846176007310815, -0.3984705409607079, -2.0092993518928224, -0.6470315679181363, -0.33838762300087916, 1.5554277593601236, 1.085141477755049, -0.4055874706761376, 0.3953247179914806, 0.00935506662577199, 1.3174514797214443, 0.032805870550177856, 0.3150450881703648, 1.300661281908698, 0.461388761676477, 1.5494048796791935, 1.1370307336471672, -0.03060292744372298, 0.3054353717701681, -0.3759124438472725, -1.3494625799172004, -0.7381348458463768, -0.5472309146989947, 1.088117760483861, -0.15151834288741187, -0.11579515629427913, 1.277417695644406 ], [ -0.6640149094815931, -3.438188276908522, 1.2827197675952828, 0.48639656089834293, 1.9154993697309288, 2.465898359716504, -1.7141023742010733, -0.8142853633855761, 0.7878425289640777, -0.4921226594220896, -1.3327517552034598, 2.0249414191072828, 0.6397866563788732, 1.108000643323354, 0.7958487824612411, 0.5850355898629803, 2.0009810618204336, 0.6981631549808863, 0.5735240240118947, 0.816309147048833, -0.7540382283164421, 3.358043321542503, -2.0918064042708155, -0.3497573786406318, 0.6458947472320442, -1.090000893166514, -0.14229035715852023, -0.9826085868344935, 2.981165927277509, 1.380995502001686 ], [ -2.0958122214658284, 0.3129644013618089, 1.8671601759308782, -0.13524955174363007, 0.3530031840144192, -1.8320704084197938, -0.7019169248146785, -1.2328437075755665, 1.6784888279826131, 0.16886621551735237, -0.17582172348269642, -2.0085780628870813, -3.503151026284035, 1.318465953780189, -0.19314105959271327, -0.9685525534986987, 0.5196572300227388, -0.4445222665065251, -0.6666279229269656, 1.3471803504864432, -1.529017231330749, 1.7480211242566541, 2.229186985317439, 0.9708632229756997, 1.0212387426774077, -0.12440303615483826, 1.4203012189300503, 0.5003028809431882, -2.3200110612744314, 0.3604098443860411 ], [ -0.5611700302990469, 0.6380432632352367, -1.237799941664558, 0.3273053399407263, 2.009407158234001, -0.3330353554490857, -0.07789423056654377, -1.2882243792213075, 1.6919175158676425, 0.4416557555752262, 0.23840721936603904, -2.534914963756678, 0.1386859584221388, 1.4801919589716945, -0.891818911624908, -2.7849988379130743, 1.2926743932428388, -0.18067097520534275, -1.1756460259093493, -1.5021833531526598, -0.8030105765509755, -0.8325692668892952, -0.9351948701258265, 1.3234367992192595, -1.124882116602973, -0.8924007566889879, 2.1994293948286576, 0.3781032010207009, 1.8961115061710987, -1.6671609419066336 ], [ 0.8215153918754834, 2.53028599814674, -1.2716711120820088, -1.3401878306424868, -0.13119971457997695, 0.9560374095616028, -2.771939763869073, 0.9993637645182306, -0.7994256411805989, 0.8071716010058511, -1.4565477024993683, 0.9243553486941025, -1.362608096563034, 0.4884181738287583, 0.1073488295632936, 0.01813031639204467, -1.376102051458701, -0.39168678181865824, 3.5537094776773053, 0.4370231309205948, -1.0383244955450963, -0.11534101613965196, -1.3119776986111917, -0.07319141298812197, 2.577339945854294, 1.768208695788645, -0.5670921967434922, -2.2567668204104594, 0.559721746934421, 0.7728055541771466 ], [ -1.088235797624461, 0.42407657393804027, -0.9978060070560253, -1.6579121333503353, 3.076208370239638, 2.6468268294336776, -2.3232870979296334, -0.8495529619907302, 0.2437622152963107, 1.0394786027258118, -1.2245520188894379, 1.961236474640534, -2.868765225879527, 2.1564158077686564, -1.3945015786145352, 0.49027609130188965, -1.627206386070791, -1.8118678980921952, -1.114656041103012, 1.134283911579534, -0.6251343618493445, 2.313787044518493, 0.4659210427119374, 1.5897353443078968, -0.036677721876734765, 0.33716179070169877, -0.08451735078359324, 1.5037414944251908, 0.576510060533976, 1.4746828991114966 ], [ 0.49387836259851264, -1.0764479202153217, -0.37318913328000575, -2.04483083289272, 0.8141523420607278, -2.31117186591494, -0.3086030822996912, 0.2849340848081528, 0.1969512588896513, -0.14960705677050914, -1.9522413284324085, -0.9675286176295821, 1.834849552201301, 4.603433155107245, 0.767410666369605, 2.2323713204101114, -0.1981086365754866, -0.5834108408149032, 3.790772292951355, -0.937127080246634, -1.427517698516402, 2.011288328434778, -1.340292090420819, 1.925245785142253, -2.1499184700604856, 1.6103103666241327, 0.058775629970941067, -0.8379393031055398, -1.3478441620546533, 0.4109106643468246 ], [ -0.04211879369080142, -0.15470835422908366, -3.2152579863426145, 0.7611081047707786, 0.12005277857177667, 1.6990580673682008, -1.2727320738873216, -0.02512402480394162, 1.4389422313776403, -1.1251723346604425, -3.322321440929652, 2.4200082179403872, -1.8218735911817918, 2.6761027076304305, -0.599263307664135, -0.12942420735807902, 0.9419891306277551, 0.9665838033606761, 1.7728922172392667, 2.074893617933408, -0.3516199957469913, 1.7278966565709524, 0.298900007590386, 0.5497645621118431, 1.6147803119111617, 0.33035122244038484, 1.4664149465669403, -2.0377173842772294, -2.42802266357148, -0.4309077217251941 ], [ -0.16337687178073218, 4.381294666395142, -1.0229995516996422, -1.7364415601704006, -3.4829650273703687, -3.4878384364296666, 1.1087085888208743, 0.753320689233518, -0.04124117251450264, 0.1289443454777368, -1.9698453289788354, -1.2727744647651564, 0.7295600349288739, -1.422046310293771, -0.5037403807837789, -2.2140056205109304, -3.3279770330637652, -1.7765367149605422, -2.3102565582844057, -0.5815959386413624, 0.785922000018641, -0.21024856564163708, 2.5225212005423905, 0.4531297615136038, 0.8095653270338855, -0.43349352703894517, -2.16953831074108, 1.424407795342804, 2.1495642215523096, -1.827413890502353 ], [ 2.0873817372071, -1.8306851697888686, 0.5438376313283608, -1.2668519223022547, -0.1916953162278108, 2.8998776164664037, 1.6290439610855558, -0.7173547876352718, 1.3558340601296788, -0.4587659079962069, 0.4677007658606097, 1.1752369414334816, 0.9596935166786963, -2.2909529152403802, 2.5246649279989097, 1.8894452485660538, -1.6588596965551856, -1.5341357514710128, -0.08238611037172758, 2.94970968886721, -1.0336894764230704, 1.1159189466264736, 1.9401307250661535, -0.5638372401787995, -4.631545418871145, -0.9208139988608256, -0.7534265085409537, -0.9504358768324889, 0.819365656958401, 1.656224264755952 ], [ -1.6671256502164817, -0.235687565217165, 2.1736568545430655, -0.9877273301175089, 0.5762802238453254, 0.5873411612370081, 0.9517691178405584, -1.1580539984351879, 2.3170060653500557, 1.4869374159911255, 1.9239858949458353, -1.5013022208230282, -0.5163575453837894, 1.9065750894059872, 0.5389870520326139, -1.9914464144957202, -2.1948142601487683, -0.20398618073626765, 1.5651298344413613, -0.9807433456475214, -0.1034804596867102, 1.0534360898899022, -2.0774069317234303, 0.342010306222366, 1.5948445706958356, -1.471190689217813, 0.015474095871108798, -1.0813930822067037, 0.9996927227458363, 1.2173895222854447 ], [ -1.268448543806651, 1.6188644045192215, -0.12169886742772462, -0.45691096172741186, -0.7269673810852112, -1.6317015428637875, -1.0528812613601448, -2.044193631842295, 0.17526431533758452, 1.5223072538985456, 2.3739430343629855, -1.0817847722654828, 2.0832041025161376, 0.5054283726958501, 0.23823024012879335, -0.8354953479091778, 3.012389912687046, -0.02960237321381496, -3.0608813290081534, -1.7915323285738372, -0.4244620722285451, -2.559541884885111, 2.415726891801565, 0.34747597320632323, 1.0259690373444628, 0.9986103269397736, -1.5795940111621618, 1.1481896716044007, 0.5693397705311375, 1.123680076753676 ], [ 0.31814828469425566, 0.8161908888065593, 3.5237275252577733, -2.5121167470818913, 0.6226065812446339, -1.330215117007994, 1.7092858149974521, 0.3374245693782945, -1.8594681713364956, 0.28437120271445887, 0.43089927860209165, -2.250189447404158, 1.3220621062610662, -2.974927396228621, -1.040462259597877, -1.9647206300553886, -3.280044888779583, -2.176523531556651, -1.5394374357367258, -0.21789606468872558, 0.7989287347572667, -1.1670100912770354, -0.7555637716010863, 0.5540381847235922, 3.3217102832391228, 2.3913725981839726, -2.0926880561536847, 3.8013719365441125, 1.6487623058089425, -0.8656056498411135 ], [ -0.9207662875779307, 2.422998714145435, 1.1097297105337574, 0.017947109424516865, 0.04775856416841954, -0.7722985999516979, -0.2808507638163277, -1.1521965928034, -0.8677739318157873, 1.85246067459201, 0.9087335584992157, 1.7523375061995308, -0.6323575166697957, 0.7636398922230401, 1.9909228053574426, -1.001469171454418, -0.2860403901303865, -0.1976747869207285, -0.9368444708884552, -0.13341744931175964, -0.5479335068171605, -1.0522855841636856, 1.7016604184434634, 1.402350650856847, -2.1253959384185697, 0.6129870100633342, 2.8383908625652525, -1.097483772108152, 0.7594732604271184, 2.0832930409616934 ], [ -2.019544922132127, -0.9841605297439641, 0.9902436237876379, 0.7742641942397835, -0.7193888526986989, -1.771518376940121, -0.13835836955603714, 0.4529619740197693, -0.36522582727991165, 0.9793379188206243, 2.3670103726523326, 0.5873180232338681, -1.2612598515440105, 0.0865741272856099, 0.44527934673445585, -1.4495791205356399, 1.8597422580032932, -0.7746207110369834, -2.6784999206274516, 0.3788861849732816, -0.05429285348797556, -1.3257388524842386, -0.6930812544299007, -0.11663597530433403, -0.24695851252273404, 0.4304779989186105, 1.0721301165619967, -1.705003784662546, -1.7270183033247486, 1.0879387752896683 ], [ 0.45049592684375167, 0.16659637817959969, -3.0723816146441774, 1.4013753947636012, -0.7838127121795869, 1.22100290479858, -0.6602431500895929, 2.0009196968822813, -3.6051902933578748, -1.2044992227000038, -1.1836106061858187, 0.5836716335374593, 0.2704288126857124, 4.255957827585768E-4, -2.2787584505551552, 2.187902447303766, -0.5347840521853294, 0.41052612141458494, -1.1401351554713286, 1.8069724313487447, 1.6309089161792216, 1.1996781161579688, -1.8138823306642324, 0.7480198624156996, -2.7555999319695355, 1.317573597196522, 0.6203144262350491, -0.8563777498722528, -1.3963085773654669, -0.7867644835030339 ], [ 0.3602288234345094, -0.7115896938688502, 0.0926959972972315, 1.5628533324605978, -0.040974479783855586, -0.33293263994395256, 2.643211194503526, -1.7288100605418468, -0.2852207421540628, 2.1580580871909283, 0.8421815217751444, -1.0740537109904476, 1.59969482259673, -1.694856513688224, -0.5980620593801702, 2.4531349854566784, -2.2608799869811884, 0.7252849542567239, -0.5859526343623496, 4.3404978336739335, 1.5790566120860783, 0.02457418390568287, 0.38583590306834264, 1.2210004586401801, -2.768865023461356, 1.826820330648931, -0.7895875219721099, 0.9603975416549533, 0.021077751556841745, -0.5668294674331753 ], [ 0.24372429838452345, -1.068645664452044, 0.02567077126222232, -2.6728449600548516, -0.28410705126897107, -0.005559320483471818, -3.6472843994975586, 0.5583359456855013, -4.438381882490294, 1.6121321569830882, 0.7015538632040719, 1.3368904780336186, 1.7684795689686779, -0.8549858837607563, 0.09741808329147363, -0.6051394366219531, -1.2302552867320384, -1.465045463601051, -0.10782245290880899, -0.9210133576088656, 0.5872986882209774, -0.7765047477654466, -2.8297582931545877, -0.4051196146802114, -2.3369228681777026, 1.0567535045635905, -0.16487257414247652, -2.7618186801073703, -0.4829032929888243, -0.04627032631911565 ], [ 1.1426343788307176, -0.8001673694857343, -1.3470132518355389, -0.40614720062460385, 0.44713882231332425, 1.4655615348243152, -1.188608596091222, 0.6157084996516662, -0.6276448849082708, 2.0886535600335985, -0.707339881323439, 2.1316074693013816, 0.3585049173654583, -0.2573401262427257, 0.6778478409558725, 0.19222747134511634, 0.5278134973967801, 0.10348362264550336, 1.0544003327323312, -2.181711884484756, -0.37162770539272905, -0.2698962379513276, 0.15108387835716744, -0.08756665675053805, -1.9872921188066537, -0.3941574294400132, -3.8381088745122693, 0.8230448789906246, 0.6317349764215666, 1.5110639124679002 ], [ -2.6849317031620705, -1.633987015856079, 0.9609804313510576, 1.6241590687566458, 1.7752824742477555, 1.1092290874663802, -0.7212957047800699, 1.534801955528717, -0.8595120792852857, -0.801578453262328, -1.7567212743479141, -3.9292823634265077, -0.8672647126289241, 3.5785467314993618, 1.5160898231351068, -1.3626699137600322, 0.4355957365547201, -0.4211941689108047, -1.0040526184454512, -1.6998968494215616, -0.7155071305873231, 1.6688207001351196, -0.007203755028001008, 3.4414803919447263, 3.128874995300546, -0.971941776202682, 0.012049417574349599, -0.42068260332257124, -2.313067728872286, 2.4027543728364567 ] ]
  }, {
    "Size" : 15,
    "ActivatorType" : "Tanh",
    "GradientAdjustmentParameters" : {
      "Type" : "Momentum",
      "LearningRate" : 0.01,
      "Momentum" : 0.9
    },
    "Type" : "StandardLayer",
    "L2Regularization" : 1.0E-4,
    "Bias" : [ 1.8076954138616077, -5.188476309110474, -1.8679352758822894, -0.7751134775946645, 6.53600041678846, 1.6720940608595678, 1.1026702627004554, 0.08766090179362851, -2.0404394143485196, 0.43109590772859213, 0.4788173265962538, 0.2097097872537393, 0.6087795811166993, 0.6943567224397844, -2.8099626629399514 ],
    "Weights" : [ [ 0.4776876547304878, 0.921353048624136, -0.04589386598572233, -0.5816468804894173, -0.10192938659968319, -0.1035542357025326, -0.17776041265032325, 0.7995476143990371, 0.4834500707556386, -0.4846514842109984, 1.1054965247212496, 0.40801577086932506, 1.5410885166234427, 2.2011458242407103, -0.9418185563657846 ], [ -1.105749333347613, -1.4804168793843546, 0.5102752682847012, 0.9884664547237816, -1.68161085662843, 1.0645113951422196, 0.5815249129701322, 0.04515882733744246, 0.422242137709797, 1.1931965303564984, -1.5039269278287783, -0.12436068751063545, -0.7755289637847429, -0.6532819002863305, -1.573195260311267 ], [ -1.7623022015441474, 1.044719232558722, 0.3341873582358975, 0.5135767582103696, 0.7189832932599145, -1.2370195678843119, 0.5281999407645913, -1.1013197028680208, 0.6447186845016054, 2.32590462887921, 0.16957944495573968, -0.21879966270590762, -1.3967236268959888, 0.12451858484906153, 0.2112348484150218 ], [ -3.6310739080209906, -0.5781090467257837, 0.6455779726793387, 0.36572835719421865, -1.7283275643180824, -0.08135567221613661, 3.127616101473657, -0.30902117863580525, -0.04520349794111151, 1.3510534065880575, 0.1614757024386025, -0.38044317467838695, -1.1400149842633596, -0.2587841850629298, -0.7411212939756858 ], [ -2.033943908969348, -2.129054491908461, 0.7655369362080806, 0.39795398667946513, -0.6990943516472967, -0.7565312589197422, -1.8189977451487946, -0.5851666219238159, 1.2583205719953894, -0.24221368881291813, -0.2845155966486011, -0.45599737644901517, 0.5807515873364707, 0.24076979947048407, 2.00957575362501 ], [ 0.12305011772440676, 1.6813256569223867, 0.5051151729218134, 0.5600879056480733, 0.13585068775657796, -0.8682012296059346, -2.749198079761775, 0.004434935296507779, 1.0932893950881506, -1.5967337881163841, -0.8622263473371139, -0.25056068122117764, -0.7366087102101452, 0.40611952232286824, -1.500820984863182 ], [ -0.7795119852655458, -1.7108635810558595, -1.1025363812919922, 0.9545536632890455, 0.47925560763252006, 1.0929812451002108, 2.3916619287208527, 0.07352250219571818, -0.3490140982830148, 2.758643276117429, 0.6216389547385525, 0.6472003330543836, -0.23827874967360121, -0.012009800091146577, 0.14690920192814172 ], [ 1.4977751500037362, 0.9448180358715114, -0.2617367617257445, -0.5469965749805904, 0.18316632890497178, 0.2814880077107618, -0.654897918808862, 0.3480804002843273, 1.9966850353382148, -0.7767888378135109, -0.6714881256859987, 1.1025429339714654, 1.3280150678776335, -0.20102486109601386, 1.6312026668478905 ], [ 2.1675205016581574, 1.637597462913388, 0.5762237362914449, 0.8171216983970473, -0.42014625082100127, -0.211669546754475, -0.18811547988320834, -0.34304438690449834, -1.2004461450645432, 1.4555995660270598, -1.0013388282028852, -0.16705955582234688, -0.5685220876346598, -1.5248295268272636, -0.6638862189520489 ], [ -1.2643907586207899, 1.871526743531578, 0.6014523966552972, 0.5303940795468259, 0.18776041590348116, -1.5791312972433476, -0.8447896559460583, -0.4622044498022554, 0.6928768506719298, 0.8936451395774914, -0.6546320418044222, -1.29108124086469, -0.03585198515072979, 0.610289938688039, 0.6944731297107302 ], [ -1.6603344062743877, 1.189974758374008, -1.4990005773144888, 0.6345229997423155, -0.6906378704810429, 0.5670957466955092, 0.7344756969582116, 0.3703581735614335, -0.15955899356177977, -0.9812153136708687, -0.29625122597514425, 0.042602684629315817, -0.5063476994305033, -1.0345660773499181, -2.2044226144994843 ], [ -3.1342842547705687, -2.355129733569508, 0.23012164077374783, 0.8972642541141077, -1.3863892479122415, -1.4884407971685472, 1.077474195312898, 0.4335605052608193, 0.8988893491828618, -1.385279952439653, -0.22724504418466437, -0.18414199216623828, 0.8291133550167601, 0.5364283838398641, -0.10727630503652114 ], [ 2.020886618868273, -2.0331632303858203, -0.41831926693935073, 0.5147784813595614, -1.4419680066094336, 1.5984214655681652, 1.2380257728265174, 1.432051684117536, -0.7985167533802032, 2.4095793025134338, -0.9726950296506921, 0.8352853748902087, -1.4489397819544425, -0.340697623674324, 0.4876617754799064 ], [ -2.259499355478384, 0.6097605352372952, 0.06802712225576675, 0.3542514895400939, -0.7088751711452863, 2.9175849816708253, -1.1331705298153016, 0.1253262400228438, 0.6139346501576574, 0.498225168015104, 0.4919935231053326, 0.02869120845609965, 0.8994837812204306, 1.4589909712846096, 1.415754019668176 ], [ -3.01048765615186, -0.2653208507459877, 0.7267352354557267, 0.840169734519847, 0.322924521976521, -0.42568093276437646, -2.0521252348175008, -0.3601011037640714, 1.3595658915803894, 1.8354000682598246, -0.5650486085282665, -0.007232173468893294, -1.5214902322268609, 0.32796228828846724, 0.5762693003874261 ], [ -3.2656837338427804, 1.2268481914189775, 0.12410539438330633, -0.8840169362395107, 0.7113379736205965, 0.06664488643600805, -0.18558971056692275, -0.2178416403750389, 0.21896711988170872, -0.08332996214080816, 0.7645705612525135, 0.13686208715168394, -0.8321457903370524, 1.1556463551520733, 0.7362779019976536 ], [ 1.5258733517674903, -0.9626815845924503, 0.12383977873091663, 0.6502125977239916, 0.5411316700059777, -0.6668814785705732, -2.271599471787132, 0.06512373294898624, 0.01941140797332596, 0.6337298913112739, 0.4259851168476471, -0.4061816990590806, -1.0076716782001502, 1.663199576363416, 2.569401477209219 ], [ -5.823154814239615, 1.371261181372333, 0.4917971010206442, 0.40715725928840923, 1.014666142112033, 1.9544543062898814, 0.9546911899852281, 0.16216541077088636, 0.7329775799739948, 1.0259316240336862, -0.44795761816646873, 0.12694239157974552, 0.3070364418072647, -0.21618547002137423, -0.2348326271408604 ], [ -2.8771580927962197, 1.3253711451331969, 0.7605758857653325, 0.4935848911212403, -1.0894987153745563, -1.5821338443949693, -1.3872933706292456, 0.19838025401864964, -0.854590769376079, -1.0022701615224223, -0.24656150124419263, -0.21894141003661238, 0.5862946163833154, 0.3781915221046963, -0.03682013184892196 ], [ -3.4972811356298523, -0.5907642898536556, -0.011840546309762499, 0.041224389087090474, -1.9057480258308674, -1.2869234801113918, -2.096940849576593, -0.04832329269797916, -1.4033941631518458, -0.11799639608067194, 0.4924248723279058, -0.29663184680535865, 1.5044912688058265, -0.6215274108068083, -0.3295492404296451 ], [ -1.4155806193269627, 0.7379780371902238, -0.2330249893214031, -0.570096128803158, -0.43636218637067853, 0.020214194228535882, 0.38009714555615226, 1.356929577238498, 0.5515340452149358, 0.08188227479172826, 1.4120972130531593, 1.544495003773892, 0.0022347168681854206, -0.8302654167083349, -0.1185425381086774 ], [ -1.7486907290748432, 0.5571169533753548, -0.07500865769299021, -1.1862888036369894, 1.5176967254761036, -1.8762145129215255, -1.9319060888246826, 0.4990123074073914, 1.1458327584576389, -1.7345552879560568, 0.3435853754241995, -0.11599322688488303, 0.8183052359416496, 0.021240626377547145, -1.6175062102940514 ], [ -0.45340912002549805, 1.616277974019039, 2.2203938262228076, 0.046395534336143004, -0.5864807147234339, -1.2922096629461295, 2.201998708437692, -1.6393625858923468, 0.3884476136285364, 1.2916785033596987, -1.1297134466283696, -0.16765540112014798, -0.10820363277507353, -0.8629669163065682, -0.029347163766851637 ], [ -1.0576239962926042, 1.1449662138959678, 0.07730470243066888, 1.0222054473016482, -0.01425083002867225, -0.6042140232979718, 4.378270057588182, 1.0553496090300496, 1.837283751907128, -0.1817003601695872, -0.7068854096565533, -0.1099122503090699, -1.444769129521601, -0.08526526751548091, -0.3983786150361339 ], [ -1.4394595605525735, 0.07301960004347897, -0.27374712093252224, 0.4462433601078706, -0.8780356967545014, -0.49797367761827144, 1.424316406932896, 0.18040969106748986, -1.10747016664768, 0.5530509666763475, -1.2989342523330085, -0.9286232342933646, -0.8343375814474717, -0.07523087746919331, 0.2590767290337195 ], [ -0.27632274243324606, -0.07302392456933042, -1.180031779994795, -0.22642879288920298, 0.11774964999184122, -1.08524179698202, -2.408035000032987, 0.6484192783200705, -0.9776457439681928, 1.8125281535947997, 0.8756771536651408, 0.31983551607704397, 0.47774654590819987, 1.1324376068711153, -1.838901241859973 ], [ -2.5757381404238546, 0.4338781159082133, 0.5704470699157693, 0.3052612570647512, 0.3706495067095829, -0.25102972150970365, -1.8575675565348946, -0.8067790841470129, 0.1813029621528283, -1.4324032376769196, 0.8497187172925172, -0.3110533681242213, 1.6683298545810377, -0.26252865254804114, -1.0984709475037517 ], [ 2.7344207829814438, -1.755335282234219, -0.3131046313089249, 0.11350985653551, -0.2758437282276485, -0.20343920840507476, -0.2790664550690946, -0.8110871886746102, 0.22606939156065975, -0.23675497955342975, -1.0153848625261201, -0.05845653141161183, -0.5650282542803441, -0.3421705660700342, 0.4812536754322492 ], [ -0.5150172770845387, -2.554324765122336, 0.8667932246837818, 0.7105653159347952, 0.14066710351915623, -1.7166677393669176, -1.5023446411886472, -0.9160298395150362, 1.042655441176161, -1.286918955951919, 0.3937473136684615, -0.3529766074429749, 1.241083970785117, -0.397105469981981, -0.8884273018291446 ], [ 2.0209946291186025, -0.10938420981226805, 0.6396051491844632, 0.21368329510941864, -1.7894278217364032, -0.6298798923021813, 1.0402352087099456, -0.7624479017673491, -0.29677050785610815, 0.8208536674368719, -1.084091076819725, 0.44437909898353783, 0.3622004311323346, -1.5241942982031433, -1.6840038024788073 ] ]
  }, {
    "Size" : 1,
    "ActivatorType" : "Identity",
    "GradientAdjustmentParameters" : {
      "Type" : "Momentum",
      "LearningRate" : 0.01,
      "Momentum" : 0.9
    },
    "Type" : "StandardLayer",
    "L2Regularization" : 0.0,
    "Bias" : [ 10.787825289687309 ],
    "Weights" : [ [ 0.7557866709384353 ], [ -0.786990018070808 ], [ 3.541794587502591 ], [ 2.673097309133516 ], [ 5.496323472663494 ], [ 1.0823514587322038 ], [ 0.9246908878474764 ], [ -2.477079640266175 ], [ -1.3962374670806124 ], [ 1.174994970448638 ], [ -1.2283050233501505 ], [ -2.9982549966341474 ], [ -1.3943584199280488 ], [ -1.3114147257703659 ], [ -0.7962557429081483 ] ]
  } ]
}