{
  "InputSize" : 7,
  "BatchSize" : 16,
  "Layers" : [ {
    "Size" : 10,
    "ActivatorType" : "Tanh",
    "GradientAdjustmentParameters" : {
      "Type" : "Momentum",
      "LearningRate" : 0.01,
      "Momentum" : 0.9
    },
    "Type" : "StandardLayer",
    "L2Regularization" : 0.001,
    "Bias" : [ 3.3572932529984603, 3.17650580693679, 1.5975466808326126, -5.6491518136475465, 3.201477235789628, 1.7274456485940932, -10.822406545133342, -7.152649952609641, -4.647456439535833, 0.6744573903071972 ],
    "Weights" : [ [ 2.1878073910971785, -3.911938650935905, -2.4035919855890646, 1.6072911359471374, -2.625289670858396, 0.7836431786161205, 3.5751203619203378, 4.386742809540708, 3.3874475040219316, 0.8199634347351122 ], [ -0.007827446747275112, -0.054985552016276015, 0.15967254524347607, -0.1240936755160845, 0.04700057681864586, 0.08409566227301762, 0.13963422534966097, 0.1471652034654482, 0.05437100675050338, 0.02293883091349591 ], [ -1.085489388130676, 4.889103743400225, 1.4433904564088489, -1.1300504085488994, 1.4715557371166612, -0.3369986219926978, -1.3586991267926594, -3.148429884866969, -1.9208745529292108, -0.4824347596234465 ], [ -1.021827993165076, -0.3472401066850689, -1.3431716668995484, 0.41663571112230663, 2.1282516726029383, 0.06184601629572151, 1.3946121584407458, 0.6328665358261274, 1.4498016774662645, 1.4148356895657548 ], [ -0.9501686574719479, -0.388704445734247, -1.9925971125565298, -1.9189499995163664, -0.8389346376724719, -1.947876786689365, 2.481312447976987, 2.3923436818869863, 2.676144807266123, 1.7705076894545368 ], [ 0.07182958796549466, 0.07549602697743538, 0.007553284337897795, 0.2768588997704376, -0.08900749849977198, -0.07255227441608321, 0.09779463974054232, -0.008501190127068736, 0.04210661418799342, -0.012211886162632933 ], [ 0.013993880535783387, 0.5859180321074624, -0.34393755774566687, 0.15930588123715356, -0.8254108576190982, 0.3568965467772058, 0.9906683939287046, 1.4615338340864013, 0.515126531499619, -0.25440152066709787 ] ]
  }, {
    "Size" : 1,
    "ActivatorType" : "Identity",
    "GradientAdjustmentParameters" : {
      "Type" : "Momentum",
      "LearningRate" : 0.01,
      "Momentum" : 0.9
    },
    "Type" : "StandardLayer",
    "L2Regularization" : 0.0,
    "Bias" : [ 10.541136243870845 ],
    "Weights" : [ [ 2.036067613988159 ], [ -2.8492671165545986 ], [ -2.4456471459679534 ], [ -3.7922740117763083 ], [ 1.3110750531967141 ], [ 1.230318943018213 ], [ 4.517021476848826 ], [ 3.6262033007214907 ], [ 2.605682928947864 ], [ 1.922453350554975 ] ]
  } ]
}