{
  "InputSize" : 7,
  "BatchSize" : 16,
  "Layers" : [ {
    "Size" : 20,
    "ActivatorType" : "Relu",
    "GradientAdjustmentParameters" : {
      "Type" : "Momentum",
      "LearningRate" : 0.01,
      "Momentum" : 0.9
    },
    "Type" : "StandardLayer",
    "L2Regularization" : 0.001,
    "Bias" : [ -4.430533832342674, -7.8296029127517395, -2.717372829215855, -3.8219260048361807, -8.171062987212785, -7.956078097593615, -6.061364554478971, -0.9042478807534977, -8.853676204829304, -8.920008847411076, -2.695042870481812, -8.41397294152033, 12.913945080920302, 2.016294956158477, -8.065822252264015, -2.0050569941270493, -3.8020415783743244, -6.168641101252211, -8.190798189742049, -1.833045379958802 ],
    "Weights" : [ [ 3.414842882222423E-6, 0.0018758274738259462, 4.4058655584606415E-7, -1.3233002100296796, 0.006929053139758754, 2.9256207006103767, 1.1764344944760667, 0.06730266885628014, 1.0869565033290793, 0.02523230590540305, -0.05430291209752366, 0.047128252334905724, -1.4979587377239485, 0.4938265153876546, 0.12089914662454937, -5.922609288139019, 2.7602974923611167E-6, 8.759241865343269E-5, 0.5549971188002021, -4.094049921574188 ], [ -1.0871471263382647E-7, -4.364221935221172E-5, 7.57142941643678E-7, -0.1490562487669522, 1.5137815020101373E-6, -0.5237963160573057, -0.02201003291448232, 0.14176650402911156, 0.06825149321431308, -0.0014621574824430056, -0.19836797486670404, -0.0012048574049164072, 0.11212261144380745, 0.06667116012218383, -0.005169815978553149, -0.3763060090752532, -4.2100884127106633E-7, -1.726055318891725E-5, -0.19796461196772494, 0.42593224109579697 ], [ -2.830323619007871E-6, -0.0026185714750307227, -5.44538120434678E-7, 2.172520591002591, -0.006828847475890522, -3.399186153225079, -1.960601585316755, 1.7008721932450923, -0.9966872824264525, -0.01556629644839633, 1.376508686954593, -0.038622613428326964, 1.7598778941920685, 0.8945557202606035, -0.10088511479312551, 2.4516575320544742, -3.875126271304624E-6, -4.032905858993184E-5, -0.5370630779606007, 0.15802949825480758 ], [ 3.652267124037615E-8, -5.344273599220015E-4, 5.464091085109566E-7, -1.929301161917039, -5.959441246633372E-4, 0.26421663859255934, -0.0890418138969264, -3.824845300857528, -0.12283299962216707, -0.0017441890994139568, -1.0590003844970972, 0.002470087865733623, 0.03529110630299009, -3.1107377541258954, 0.004116713228991643, -6.1939014772576035, -1.615581597064177E-6, 3.0793435318470176E-5, 0.09177784515623558, -1.1137166211883736 ], [ 3.210589099693763E-7, 3.07729142871347E-4, 9.152042327226505E-7, -3.653751424417562, 0.00256688084643384, 1.27614657000971, -0.04676343539537357, 0.6080004594183166, 0.37216734861719053, 0.008418064795794659, -5.938961713337444, 0.012421948411743886, 0.5142102961592344, -1.9493781798270562, 0.04238927053971161, -4.221925251492145, 1.1469988876516026E-6, 2.7870464639813945E-5, 0.18034033841395583, -0.5050510118414562 ], [ 3.456957188792582E-7, -2.2470636840461568E-4, -4.1094962861261206E-7, 0.1270882844581706, 0.0010323739542822845, 0.10455682365686367, 0.040331210633740566, 1.1455191752283078, 0.02409125551532398, 4.0936236951625345E-4, 0.8393864557069454, 0.0016723402877498995, -0.11360169587659309, 0.2851586373063711, 0.011936744011486635, -0.24897116304134442, -3.6458392048312253E-7, -5.326673017074683E-6, 0.10420828527149101, 0.8000856635733288 ], [ -1.4550866352931202E-6, -0.0010188575009261226, 8.647365023500415E-8, 1.003256647650089, -0.0016229488189866933, -0.3565119805226087, -0.35155939312037277, -0.37674626338950745, 0.029842927768748254, -0.006395059803070018, 2.4323403407965016, -0.004178425363057863, 2.93086206632209, 1.2519160110660665, -1.2955074608359622E-4, 1.288242760825206, -9.258730302941587E-8, -3.37223701672732E-5, -0.0789367518068938, -0.27254571240236874 ] ]
  }, {
    "Size" : 10,
    "ActivatorType" : "Relu",
    "GradientAdjustmentParameters" : {
      "Type" : "Momentum",
      "LearningRate" : 0.01,
      "Momentum" : 0.9
    },
    "Type" : "StandardLayer",
    "L2Regularization" : 0.001,
    "Bias" : [ -10.8228213610881, -9.935113384393416, 2.1440859165913815, -1.533109626033927, -0.26484365184973635, -0.02180811660073892, -7.502835288066401, -1.126751081577612, -0.11036503680981126, 10.599046356846154 ],
    "Weights" : [ [ -2.8704645613099984E-6, 1.283924638408808E-6, 1.790629915823213E-6, -8.361130710981926E-7, -9.997562907196229E-8, 8.380295459927524E-7, -9.574530630179698E-7, -4.674549742768557E-7, 5.643573294414291E-7, 1.6544933469753949E-6 ], [ 3.0056790704733265E-4, 2.8727490980795647E-4, -7.907822257888712E-4, -2.0032004902217516E-6, -3.340502443460926E-7, -4.515187029376525E-4, 1.0051488881206596E-4, -4.059167034322831E-7, -3.7130836601382357E-4, -8.963659920941762E-4 ], [ 7.322858732525886E-8, -6.505459160767752E-8, -1.1953103431516905E-7, 3.2210588602541255E-7, 1.8017910346795938E-7, -3.9903175676817E-7, -5.096837218275076E-7, -4.847861864467675E-7, -6.377687387692294E-7, -1.5211457788062115E-7 ], [ -0.6665469261616044, -0.8796563652650641, -0.007874331635929042, -0.011641489570169469, 1.0511873683678562E-7, -9.874361618489556E-4, -1.1843433681739208, -7.311470514697682E-8, -8.21399140153847E-7, -0.6290143584739283 ], [ 0.0014531144436235896, 8.197012364612086E-4, 1.3139693839669798E-4, 7.292099109550319E-5, -2.6990954308426146E-7, -1.2107289569861061E-4, 1.80606107881256E-5, -5.297973211991506E-7, -0.0040575180041755, -0.0018644453078777053 ], [ -0.8882122374662438, -1.1569189684537842, -0.5936956419347206, -0.046696640693487036, 4.363776773316483E-9, -0.06803022253678277, 0.2805676087319545, 5.966246990076276E-8, -3.0690908674151494E-7, -0.6029860928741109 ], [ -0.7439913683489183, 0.10435093486021839, -0.3603155427928525, -0.008829247548116084, 1.0280015817798408E-7, -1.0807114237111484, -0.03523708583783569, -3.632154371384509E-8, -2.4899608480560778E-5, -0.39387074012238493 ], [ 0.24877284638344874, 0.028494351967063018, -1.2610779527578568, -6.86880063655281E-5, -2.078054752460901E-7, -0.4966063170069043, 0.1568201961025157, 2.5107072173968315E-9, -0.0017068301341129088, -1.6995172664763654 ], [ -0.6546422743399394, 0.0882878298986254, -0.5143306589221668, 0.0068312197628057104, -2.8001511663450953E-7, -0.056213029043308806, -0.5236464998890077, -4.949759953663243E-7, -7.369331676360055E-4, -0.9920728117908734 ], [ -0.0044062744753130614, 0.002209893259821766, -0.002509262147108881, -6.573821155875818E-4, -3.0800720264196095E-7, -0.0018592491462521914, -0.005073917429365744, -1.6558396433099748E-7, -9.04497853773222E-4, -0.00915654430477715 ], [ -0.09164995647808756, 0.5137868690235555, -0.9691020380912322, -0.03623697104532722, 7.620861216029611E-8, -0.17107503522656556, 0.50111750629609, 3.3203681672881046E-8, -8.631471483493879E-4, -1.2234864915185475 ], [ -0.01967773492732979, 0.003433583860711217, -0.003875180324168809, -0.01273924470962904, -5.063338465851613E-9, -0.001184696260435278, -0.02242644830376099, -4.307666417320607E-7, -3.3065047501630406E-4, -0.00289506157723882 ], [ -0.10626018731340439, -0.3613341071489305, -3.3900687326647057, -0.007585286417719261, -3.265310371743029E-7, -0.2704199345733377, 0.04594720964439372, -1.3475790594350004E-7, -0.0018320122489189263, -4.184582692860271 ], [ -0.42704273939221277, -0.6715764248983261, -1.380573957885929, -0.037622802286774754, -1.6495908740775056E-7, -0.8550270579185397, -1.2042609115021725, -7.930745462156837E-8, -0.0015393192568030427, -1.825108580627479 ], [ -0.01907902222533297, 0.009202605918995894, 0.011319027485206551, -0.0073650418924549295, -2.626014916055993E-7, -0.006971473473912704, -0.005402074856113497, -4.7306057555317884E-7, -0.00137529854100476, -0.013929826851954543 ], [ -0.1905649556554068, -0.49033388992111154, -4.056837358389485, -2.776130604285823E-4, -4.915949205753009E-7, -0.31528748976027526, -0.08338041030432115, -9.745054322466108E-7, -0.004592967554654687, -4.846232375088722 ], [ 4.769131350384021E-7, -1.21685961492166E-6, 1.0186432203678304E-6, 4.0449767383347357E-7, -4.4855752017406944E-7, 8.819280136526793E-7, 6.214684082943961E-7, -4.234586340084627E-7, 2.603722326772397E-6, 1.1256995658968454E-6 ], [ -9.851496516535961E-6, -1.8807999639253418E-5, 1.5872075855594755E-5, -2.0083371548402425E-7, 1.5059111315326014E-7, 1.0764714994449539E-5, -6.904712686282392E-8, -4.025481472714117E-8, 2.556916430787534E-6, 4.555809040639763E-6 ], [ -0.07171483551347656, -0.018541010645590553, -0.03155317316776956, -0.06525086782948353, 6.742689050501574E-8, -0.10236605942418199, -0.021787958940861198, -6.608602083789322E-8, -0.001077808613201159, -0.22283158013619186 ], [ 0.09417458218944255, 0.3585567627192257, -1.684353813626664, -0.003081962969688752, 1.0423842881232715E-7, -0.2595373802056371, 0.10026060796705183, -5.016303065360005E-7, -9.657473421961026E-4, -0.7039106066353921 ] ]
  }, {
    "Size" : 1,
    "ActivatorType" : "Identity",
    "GradientAdjustmentParameters" : {
      "Type" : "Momentum",
      "LearningRate" : 0.01,
      "Momentum" : 0.9
    },
    "Type" : "StandardLayer",
    "L2Regularization" : 0.0,
    "Bias" : [ 5.1790890925483355 ],
    "Weights" : [ [ 0.1671773773150358 ], [ 2.6370806483051217 ], [ 2.72225601562646 ], [ -0.19633309356901119 ], [ -0.6093623825548059 ], [ 2.0084520178615075 ], [ 0.12189826566384501 ], [ 0.319606090752535 ], [ -0.6300025543350218 ], [ 5.045046578154078 ] ]
  } ]
}