{
  "InputSize" : 7,
  "BatchSize" : 16,
  "Layers" : [ {
    "Size" : 10,
    "ActivatorType" : "Tanh",
    "GradientAdjustmentParameters" : {
      "Type" : "Momentum",
      "LearningRate" : 0.01,
      "Momentum" : 0.9
    },
    "Type" : "StandardLayer",
    "L2Regularization" : 1.0E-4,
    "Bias" : [ 0.215912853428594, 5.006325451237802, -1.919094588555674, -4.047970693670239, -6.326760369515849, 3.407035409332483, -4.89186010873794, -10.205713521576046, 3.120776409082681, 0.5384107366337468 ],
    "Weights" : [ [ -2.0149429935067533, 3.5277092920360924, 0.2995199883732555, 2.5459560746386423, 4.041135924823769, -4.644204171905766, 1.8767436076008588, 3.751607752533679, -3.304866472452651, -4.278343298874693 ], [ -0.0017072589842086518, 0.07340456481829938, -0.08701227790457455, -0.08645319356539989, 0.12509625104046038, -0.059595715183448486, 0.033985501570953584, 0.14293900203686502, 0.11020131854511145, -0.05782362297699421 ], [ 1.2824472259796864, -1.9652864426195542, -2.67273524540483, -1.9538424386676208, -1.9755429292804172, 6.108220991961012, -1.4459783727477207, -1.1949136088555408, 1.7671856915939084, 5.995629642500555 ], [ -1.0019724381304156, -1.1353580635216176, -0.9547949939897867, -1.9036107046442303, 0.6883803165744548, -0.21704455146342694, -0.11421552240221411, 1.337323716926531, -0.9222376923975301, 1.1353779326100644 ], [ -1.4364024832619662, -1.4664108005154777, 1.235173140547626, 2.0141692756216174, 2.335903266371444, -0.5194605401225216, -1.774056132459815, 2.3559810972837862, -2.0526234310768228, -1.279837513633206 ], [ 0.022298618660552147, 0.11556500482116774, 0.09047295308717493, 0.06027841308629166, -0.004754588931681885, 0.05557108083500792, 0.16607989829216685, 0.02341390920492409, -0.012132756298690758, -0.11975000156673699 ], [ -0.4190288669464561, -0.02355097351915852, 0.9890698244304883, 0.7191517765601925, 1.291409308833048, 0.23650053750960187, 0.6645211382748418, 0.9537191544411275, -0.8935823431342409, -1.3615727075225867 ] ]
  }, {
    "Size" : 1,
    "ActivatorType" : "Identity",
    "GradientAdjustmentParameters" : {
      "Type" : "Momentum",
      "LearningRate" : 0.01,
      "Momentum" : 0.9
    },
    "Type" : "StandardLayer",
    "L2Regularization" : 0.0,
    "Bias" : [ 10.005957478147918 ],
    "Weights" : [ [ -2.397610425470159 ], [ 2.230087064761969 ], [ -1.3385451504797055 ], [ -1.3605786790919625 ], [ 3.5608239800156145 ], [ -2.723739632837046 ], [ -3.4652749271514485 ], [ 4.62682271388907 ], [ -2.6241800036342506 ], [ -1.3582175351351438 ] ]
  } ]
}