{
  "InputSize" : 7,
  "BatchSize" : 16,
  "Layers" : [ {
    "Size" : 7,
    "ActivatorType" : "Relu",
    "GradientAdjustmentParameters" : {
      "Type" : "Momentum",
      "LearningRate" : 0.01,
      "Momentum" : 0.9
    },
    "Type" : "StandardLayer",
    "L2Regularization" : 0.001,
    "Bias" : [ 0.46119755245286226, -3.532871469030927, -2.74619392569245, -6.130044460018155, 1.590114490076869, -3.2911325323803706, -0.38939896087718995 ],
    "Weights" : [ [ 2.524853764460779, 6.772672922084538, -1.152504020781359, 4.1186944587899, 4.766424667792138, 4.2274321996811315, 3.806034459561139 ], [ 0.034815284220066266, 0.12174976919590279, -0.07991971249321853, -0.06557171866983817, -0.025055473924482347, 0.010965520850380044, 0.004087378471189741 ], [ -2.4143927320185483, -8.449405342127054, 2.5302434498684243, -3.4715162811604783, -3.3241231768356645, -2.012722291424218, -1.9043964391334915 ], [ 1.891011160074774, 0.7053525764877016, -0.05146536715139197, 0.5967131826035761, -0.3689780982535447, -0.2970539711044919, -1.795367193585447 ], [ 1.1371317739075633, 0.39262024115679683, -1.5972968933827851, -3.600798995050622, 0.9214355395442178, 2.36238857620158, -0.9417088753615445 ], [ -0.06440842946708114, 0.12700758717441213, -0.13333185948847964, 0.25754013509823465, 0.15767544337863898, 0.12607033038960747, 0.11822890658529113 ], [ -0.6346600661036592, -0.4426847567234444, -1.1662242174754485, 1.1876406132552861, 1.2770842927870931, 2.6529301120093387, 0.6076921988800111 ] ]
  }, {
    "Size" : 1,
    "ActivatorType" : "Identity",
    "GradientAdjustmentParameters" : {
      "Type" : "Momentum",
      "LearningRate" : 0.01,
      "Momentum" : 0.9
    },
    "Type" : "StandardLayer",
    "L2Regularization" : 0.0,
    "Bias" : [ 1.3389825334972334 ],
    "Weights" : [ [ 1.1511933888297363 ], [ 1.2269124124338266 ], [ 0.6066031132726454 ], [ -1.136567073205074 ], [ 1.3389375984652627 ], [ 1.0428885421721021 ], [ -0.8904654370780457 ] ]
  } ]
}