{
  "InputSize" : 7,
  "BatchSize" : 32,
  "Layers" : [ {
    "Size" : 50,
    "ActivatorType" : "Relu",
    "GradientAdjustmentParameters" : {
      "Type" : "Momentum",
      "LearningRate" : 0.01,
      "Momentum" : 0.9
    },
    "Type" : "StandardLayer",
    "L2Regularization" : 1.0E-4,
    "Bias" : [ -8.304944080835364, -5.594632765243586, 1.728674942247188, -3.2925251082518114, -3.0747273650954803, -1.9945591739661714, -4.571072092285185, -2.785448101968746, 0.9189284149894473, -5.6648530915493325, -5.089708848332967, -4.754727459117263, -3.2152400481050427, -2.452653456195007, -5.2454525089965465, -5.939150195728991, -5.284883508741466, -1.81596320858894, -0.02617130820052864, -1.1625990645485977, -4.902685845598342, -4.418686934162685, -0.9911477105214249, -0.8068816749323314, -5.552726970637798, -0.4838488291327671, -3.0226952575115256, -2.3619632602730913, -1.1196485547586164, -2.723623302950682, -4.561163865056276, -0.5630670609705074, -3.2010431372213803, -0.6237401469283912, -4.366543998626374, -2.2739907662758876, -5.06683446578448, -6.754064503660876, -3.8852099180085147, -4.174409926858674, -5.8583055803516935, -6.98964444610923, -6.932764524561531, -1.6564939029061552, -1.8964186326246681, -3.989851028387253, 2.4185645411829637, 2.123947829425415, -4.4074485881838195, -2.079160449592195 ],
    "Weights" : [ [ 0.7100099747351338, -1.3777145145555214, -1.0697011702240349, 1.4506396521931957, -0.4629671063174326, 2.5736482086505896, 1.5850557900313265, -1.1008096931917077, -3.2845117051385087, -0.38710962492294587, -1.0102259415506885, 3.3012884336562665, -2.190955251799687, -1.1095655758698082, -4.849343306895155, 1.539742671008206, 1.1763929385431628, -2.139042411706038, -0.951776636202395, -0.17306643884970815, -1.8193450067509502, -2.367862578317273, -1.1912319479797957, 0.19806253537487176, 2.312222581159109, 0.44302379441117784, 3.118338297251641, -1.174858240616475, -0.4983555017055722, 3.064134221377132, 1.2071701245903408, 0.4429313454007477, 3.6591129239055005, 0.3874923923628193, -0.7701287813295525, 1.299181114068732, -0.3658919139041611, 0.1315307494949811, -2.4113191866963923, 1.4354986976628483, 2.6332331148625494, 0.9986224920395643, 0.9924191663485986, 0.38372869602360865, -2.453504645028726, 0.5511580700775979, -1.8057772938068086, -0.8264589109601185, 2.4002908152343467, 1.8317529955152638 ], [ -0.3529677557253584, 0.22478032755805855, 0.09370019407061841, -0.13342861057351996, 0.5073400982013027, 0.15845724414128715, 0.5232772427055746, 1.66998956410074, -0.27866222436034094, 0.365102322565603, 2.0791653950800204, 1.02153625998391, 1.735666962343895, -0.6727495566463767, 0.4070902850343221, -2.532145727974534, 1.33962295821447, -0.4685820652304204, -0.10715686740340039, 0.9536371117536805, -0.16943163918592924, 0.2000716401322795, 0.22263779700639838, 0.6785541680562762, -0.7441757404074494, -0.0018748041391936998, 0.028504460867741808, -0.40424076867860254, -0.3723164603159214, -0.3730927429828029, -1.085394310284987, -1.1701153149915209, -0.10492938040605135, 0.5090180037804861, 0.7780228951211634, -0.32970313444591487, 0.18277727038412261, 0.7909631256208153, -0.8523291678952108, -0.6632734831493412, 0.4515217194569287, -3.486918641536421, 1.440010686617049, 1.1341300945794108, -1.3893170420530085, 2.1899667984323217, 0.3021033807811476, 0.03013480180656709, 0.23979150691571188, -0.3387040695274609 ], [ -0.04963803043174258, 3.0430086029778427, -1.3624751516046032, 0.9669831565110953, -3.726874707387911, -2.108741320149097, -0.2163414773384113, -0.027537522125752556, 3.9495314671462, 2.8462762031631823, 0.8169816850025261, -0.7058086377150636, -1.9579446984232238, 0.15271487812532397, -0.32603197746912643, 0.20828366179860547, -0.197184915928416, 2.0974175568000444, 0.19897918017950533, -1.964281623649765, 1.8194120704969974, 2.540079698491067, -1.1710825058786531, -0.9296268591995706, -0.7615113684691328, 1.4755978103342444, -2.5693208974751247, 1.5991269637355292, 0.27472856723720146, -1.8612303839898408, -1.3996560419457231, 0.43059451825105044, -2.3141188507967843, 1.123369567349832, -0.23245783195311448, 0.8408947436876039, -1.2826860460334153, -0.6963803994036272, 2.521774070640181, -0.42576075901431715, -2.8355807558742137, -0.6573410757006986, 1.2175560853030505, -0.43778356860819173, -0.10177268016704116, -0.6530740158629835, 0.6025190060158647, 0.4552064715341745, -2.8618343830880186, -2.415752066928158 ], [ -1.2194588453170687, -0.22763364996252533, -2.9951560595958977, -0.2631413556687542, -0.22351806584576586, 1.0760872732530669, 1.5427526775967682, -2.7387373347199437, -0.6807561607852284, -2.345364011311221, -1.9842415991308338, 0.4743394345352133, -0.8568313707497578, -0.21839171625681728, 1.3058715683863842, 0.9821577492420802, -0.8322585708911918, 2.0972999350452124, -0.6382870026568039, 0.4567555038622489, -0.04744772961228331, -0.35120647338178584, -1.0212849216125712, 1.667940936317748, 0.4609957031289875, -0.9550002418599659, 1.883667881842415, -1.547204859629133, 2.073497817991329, 0.8905099562467192, 1.8262055865846416, -2.0817595998069534, -0.3776859513549762, -0.791100975086577, 0.7248953973022719, -0.5573814052062177, -0.18466494632514452, 0.5715727901771588, 0.387938043670792, 1.793563004922822, 3.585572114309271, 1.3154325245325718, 2.1984154838265964, -2.1590732674925657, 0.5520318415781064, -0.455594336973991, -3.973016807558236, -1.0987892629618485, 2.786515759363096, 0.5629151552819015 ], [ -6.5315049526799465, 2.5176841828561325, -0.5248755609557743, -3.5277419777188026, -0.49707407293497924, 0.7368117799616476, 2.5191788295823287, 1.9067538016847978, -2.518122111291025, 0.2039327150664781, -0.08697625966406669, 0.9841542194573953, -2.054845111844861, 2.761288524586607, 0.04101761018944353, 1.5450344936002054, 1.75348954891465, -1.1948952486399447, -2.8480659055210626, -0.4802746277989449, 1.7963049851756492, -0.5052367472776834, 0.614367313058221, -0.1742730398467904, -0.1511552720333468, -0.030707948856876135, 0.5563825560483904, 2.4484136285655724, -0.5711096222378947, 0.8731524388661405, 0.5647098334645902, -0.2789048615305991, 1.71771506609312, -0.6419477315479395, 2.8703459256511956, 0.10592437035007889, -0.838373852719442, -4.698307639291739, 2.852095083544955, 2.169886854619321, 1.119406574123789, -1.0695256978307137, -0.6499955531021915, -0.8196472733984166, 0.1900356252310328, 0.18189435696001408, -1.7472449223757, -2.0849484523721054, -0.30943016354438163, 1.124128616791475 ], [ -0.7082841545668802, 0.1920066085839347, 0.15152238176307498, 0.5833951124903568, 1.2577949886532562, -0.15058912097600544, 0.5193278924215347, -0.8417999799825336, -0.13058373728096492, 0.6026520999283377, -1.4170889981577477, 0.3887674942580603, 0.42730329812363593, 0.3810100966022706, 0.677063046790389, 0.16481609038978248, -2.4121657122536693, -0.23083997152838115, -0.3097274972976015, 0.04933893282052231, 2.174368930855147, -1.9346412985770869, -1.166914530879597, -0.28270079023654066, 1.6868344781149593, 0.3477584767852514, 0.5532608210558889, 0.48207482186623024, -0.923745895685705, -0.6591493197828643, -0.39143653455628585, -1.0270205127251504, 0.2972206293277148, -1.0825229248052255, 1.0384304878943165, -0.31806329816856993, 3.3794840259232166, -0.5045410651722048, -0.7787161564262739, -0.5738937109076996, -0.4295051739489622, -0.9304730000797582, -0.9945046536362459, 0.4286510006091805, -0.403641321697157, 2.0821677371540774, 0.29974044425356605, 0.1140394644059162, 0.1479753205784531, -0.18294324637487955 ], [ 1.9762448535207426, -0.16083547457452563, 1.1301044936707842, 0.07830841510858294, 0.4457548678697678, 0.508586885174478, 0.42992563538534745, 0.19974118198206425, -0.7620276181502305, -3.2316049686037984, 0.3572375573440515, 0.03977956736757414, 1.7835498278279043, -0.30781781926224283, -1.2123487586920298, 0.40900156905121415, 0.9715621771657471, -4.345274570686235, 1.338612422148358, 0.3655973788420863, 1.7220927692895722, 2.72133872946983, 0.6520236831060228, -2.0004685787999654, 1.55789438422371, -0.48839432188134135, -1.4001981377087676, -0.7509199759894496, -2.0912912543969226, -1.2615628644601056, 0.23866513949186993, -0.11687116221249456, 0.9868222628449442, -0.26291741879207664, 0.4870964240289288, 1.7626795153040058, -1.615983573862784, -1.104365637067203, 0.4726586388793583, -0.18979496438590696, -3.2888680485288604, -2.564908096442697, 0.9576948685679663, 3.4507814449129826, -0.004488763462811431, -0.7572292981850376, 0.8037389823726718, 0.3061601365130863, -4.013389306748573, -1.6309576089902054 ] ]
  }, {
    "Size" : 30,
    "ActivatorType" : "Relu",
    "GradientAdjustmentParameters" : {
      "Type" : "Momentum",
      "LearningRate" : 0.01,
      "Momentum" : 0.9
    },
    "Type" : "StandardLayer",
    "L2Regularization" : 1.0E-4,
    "Bias" : [ -1.906459715388801, -1.9790499951183826, -1.7047902863600588, -1.4888787755902426, -0.48848751350398223, -3.9041310291215554, -0.26552826985647676, -0.5325267771724953, -0.5545471196628967, 0.27684501982227705, -0.5639652393641517, -2.121855581362767, -1.0281680103365294, -5.681015150966851, -1.9863379651861794, -2.8653533415581585, -1.0402449954484612, 0.9837925983760623, -8.897730441206711, -0.09345024798022475, 2.355698605106465, 1.1239853989203745, -0.6652334683496096, -3.281519281946186, -4.1938419171390615, 1.4131550589853112, -0.5057585843485884, 0.20946194750139296, -0.06395660120202068, -1.7912569655443469 ],
    "Weights" : [ [ -1.0037712623948878, -0.2648279010076598, -0.308083757356511, -0.7171786695659271, 0.03898553498945794, -0.33735586621311686, 0.08128024359081944, -1.3030287428104408, 0.07930816576630477, -1.2041823508439076, 0.3770186450819565, -0.6566628640788672, 1.1658104419204456, 0.042853278879895026, -0.2636027395235512, -0.2734377112300455, -1.1061833288064398, -0.25060613585574365, 0.630064309931113, -0.3296156438060513, 0.2402406520000677, 0.03478683850805431, -1.237367443285016, -0.19355800227271572, 1.309454154070932, -0.14539856615227906, 0.8824311030484494, -1.6562064664592169, 1.9888416804713949, 0.13255117494244245 ], [ -0.23923294833056147, -0.1864645918116132, 0.4787058259384136, -1.4602619247443966, 0.8919327667646303, 0.03171863016324894, -0.28807991872518507, -0.09232530747996634, -0.24735826835279143, 0.7955611237119904, -0.5013234139648243, 0.039060172895598044, -0.5646050180009935, 1.5074921160284616, -0.9926683545250048, 0.02536537402314191, 0.03335933232033635, 1.289032474967117, -1.0365512147615754, 0.6690205953160603, -0.43175542649547816, -1.4804392465104215, 0.11457636627730267, -0.9891219013030307, -1.0108376126807677, 0.9368335503584034, 1.2653838924113137, -0.3165636762508325, -1.4760509567262141, 0.6004463450043853 ], [ -0.49498939842362644, -1.2554606739693694, -0.6340390457154538, -0.6781524252799929, -1.575187296532071, 0.5656404339533089, -0.11616626538321669, -0.5574387043595138, -0.1759393047249011, 0.6738499659794197, -0.8259376422149253, -0.6211467426629594, -1.7882550268670558, 1.0447302796642137, 0.8711220538593, 0.3399876989619439, 0.5133508591541425, -1.1792419808324321, 0.6429193160775108, -1.7650051338427648, 0.08492460105551543, -1.806364596270989, 0.5654687427940124, -1.7300403587924191, 0.4943476568592738, -1.4589297661415341, -3.457901752513647, -2.041522256543594, 0.40705296649313494, -1.0260349535827835 ], [ 0.6799589717582953, -3.2565699547301956, -0.5317710396006674, -0.8952881249552652, -1.461903597991796, -0.8572285159979627, 0.8275775412582035, 0.16475772358544052, -0.2171305598933356, 0.7118431534791692, 0.29410561546677016, -0.2088594977318965, -0.36250492074015433, 0.12889434377259842, -1.8162420696725055, -1.582561778061743, 0.45148498406578885, -0.35988901006010404, 0.25798210420774764, 0.0363716274523418, 0.039461707867718146, -2.2827185035622484, 0.07342450712368603, -0.08082724423598339, 0.7445074922622258, -0.11221061458977086, -0.9564970062477718, 1.6611646410606689, -0.4185425430424963, -0.6698763086538 ], [ 0.15161637570516354, -0.21978448780794188, -0.14493047096883283, -0.11295411571791106, -0.024908921373799634, 0.011696138947443003, -0.2704299409755711, -0.31506563244080255, 0.05284723435301512, -0.6190828154652408, 0.18879065645107632, -0.41075341326106, 0.36082971505383066, 0.9198004851310718, -0.6573181126334636, -1.2721812966673884, 0.09621392900114101, 0.050308618941583685, 0.24239198007614515, -1.9379516252686992, 0.3462757662104154, -1.0199428396034058, -3.607381596183785, -0.20695223684422265, 0.8366574759488726, -1.5574624096529297, 1.6811578952348007, -0.4134125572350303, 0.5785519997225309, -0.007683437919854934 ], [ -1.5380623049644007, 0.13452928863188326, -0.07793951086237771, -0.5581141794425684, 0.7918425403449699, -0.5296816808192387, -0.5146705141350252, -0.32366276768542357, -0.14875755130638996, -0.9087088703810626, -0.1723833575723186, -1.1645326915394072, 0.3150666876865103, -0.23728675900759474, 0.4545190928846005, 0.38984522061881716, -0.990313532850983, 0.10039665972465237, 0.09975803638328962, 0.4575028686726296, -0.3356879804925282, -0.6492550597973268, -0.7944710786871018, 0.44972518418091667, -1.6858585795307888, -0.8663424749280557, 0.5325795681722713, -0.2580243241202297, -0.6915683755173804, -0.706713033290263 ], [ -0.0030371833209686147, 0.16405015218579874, -0.44250513140197234, 0.07680167804649102, -0.47244440219302897, -1.4013032378687862, 0.20131559259965717, -0.411339239547119, -0.0919101337463784, -0.9477127663446796, -0.2783175073342438, -0.7984034038827136, -0.7090539017073192, -0.30325841218417265, 0.021557164463613283, 0.657072422797784, -2.0669525808360447, -0.7813390224544147, -0.10007459433517515, 0.6504166494513902, -0.6724769014621547, -0.515005541439734, -1.5579528936391456, 0.3447646924939557, -0.5568851901606614, -0.4746621051925178, -0.031142828681351993, -0.6327431758155259, -0.4900850631062155, 0.8171692701828036 ], [ 0.9529114048404801, 0.3687473684873286, -0.6828972513069058, -0.1975542045957388, -0.23920699326089592, -0.4916057469264677, -1.8484788863350254, -2.6491462605069525, 0.042486508437214174, 0.3350032248299917, 0.6773504607083263, 0.4214317530984661, -0.549058690155352, 1.1469140589808582, -1.0572219956128561, -0.2817479006296723, -0.3779353032984709, -0.17550922204094413, -0.6992663935684217, -3.0621721050800135, -0.3115689691180002, -0.12546565437857377, 0.8388185612358015, -1.3506898058856196, 0.07220799184820517, -0.03297759551242342, -2.5065782948829463, 1.2278839034985891, 0.09777790481317561, 0.892759563365758 ], [ 0.20563140002487812, -0.7048857797538175, -0.20634272112779128, -0.34543150383936133, 0.016390167731596076, -0.22083569032457923, -1.0477018713583124, -0.29126059467847354, 0.033238005416399825, 0.36740241736123797, -0.6557779938903481, 0.42927399603626865, -1.184392898230805, -0.03702624442330914, -0.1792483445874517, 0.7458469217876514, 0.07489067779558262, -1.0271051556605575, 1.2721407186514617, 0.1841806192628831, -1.365014860869306, -0.01231691957078042, -1.7124572737050903, -1.0534492024994941, 0.6659479915690149, -0.006133499080085738, 0.035316501742094344, -1.5588836768569736, 0.2411878616500104, -1.176033095830946 ], [ -1.081890434298865, -0.5910835365719751, 0.7880887987823386, -0.1547882684307297, -0.18335773031247446, -0.7042879505137535, -0.09381842149416078, 1.2428050283257286, 0.0021708244708562464, 0.9093363370922848, 0.08279838844240567, -1.3881293240814385, 0.09777918411525538, -1.172233775733983, -1.361589641991147, -0.9535038504547222, -0.3139484710254533, -0.4725302077296455, -0.18451637793357883, 0.872257581450965, -0.46841680656366974, -1.4616706286694174, -0.09509321756248237, -0.1615852744083406, 0.7221747620374015, -1.1698873329605968, -0.6329740849823093, -1.73459899765343, -0.7066378195290782, -2.3632233365727515 ], [ 0.7368194535416697, 0.6665441328684495, 0.012688235691172266, -0.13358357728802062, -0.09697725825054412, 0.3787039356865612, -0.1602592350415756, -0.049650889209464394, 0.13743341741631787, 0.7307484096086033, -0.8016020960231839, -0.7105762642992436, -0.03475178040668162, 2.555252767745987, 0.2927458967632882, -0.7176839526339712, 1.0396878290205922, 0.019399259172073448, 1.346582883696516, 0.008330197308732884, -1.1458535855357292, -0.21482170855726956, 0.5269434867570951, -0.07337630844782612, -1.8965239075159734, 0.15953271430964208, 0.09834436437341545, 0.03713691121688075, 0.7766722497026162, 0.9121845504431622 ], [ -0.3274414137700707, 0.9303207884387161, -0.1759825571008519, -0.5591960757780423, -2.0465592370506624, -0.3485862572954398, 0.015231607697301353, 0.05814305211014432, 0.08689646047017277, -8.305509779539984E-4, 0.11780578995336762, -0.478818230812751, -2.303062547963628, -0.418959733646562, 0.6092655868625944, 0.9127397190787886, -1.2718116511854018, -0.6685894313778619, -0.17413817335431164, -0.5076007581912543, -0.0862373494037038, -0.6153177349532233, -0.44120027572400494, -1.3643247813487303, -0.3713866775327656, -0.48110858134444173, -0.8640705152825086, 0.2479854754036477, -1.8847123139994637, -0.3382553165692261 ], [ -0.9402034104377465, 0.007180698221319644, -0.812925423784884, 1.6614654722772948, -1.0290866052480963, -0.4791508617052914, -0.41426814063961, -0.6178106885312629, 0.12263394517245815, 0.5999638481302907, 0.3104682119674636, -0.02088278538042863, -1.3507845375733352, 0.5869969195747275, -1.9556274921992485, 0.07853826045136907, -0.03527381188679577, -4.058708576821336, 0.6219024912230826, 0.8683031053901819, -0.2417329405657278, 0.013825344298509118, 0.6535413345829257, 0.05079318175933029, -0.6092359408085088, -0.6937391843816966, -2.4629558039131747, 0.4281788893559804, -1.1240554441403108, 0.09838572860056043 ], [ -0.5000383262542335, -1.3630908539041735, -0.5832451913652558, 0.14906027569401267, -2.401620756206943, -0.6115257627469897, -0.21401959952328464, 1.2792026974845645, 0.04200377813368043, 0.24907938731461532, 0.12659782180083276, -0.4568043144158932, -2.434114319699671, 0.6074557247434601, -0.03413374541551293, -0.23946430049349712, -0.11455177328837085, 0.052272562782285086, -0.2932534368093167, -0.2524967517512509, -0.5092407416523247, 0.13592656614395915, 0.36740038859288526, -0.95738065383925, -0.2980565154541915, 0.5712200135863394, 1.3036434152731946, 1.0070854077831373, 0.5306483361930113, -0.6467486442613182 ], [ -0.23719229142220954, -0.021618514966179937, -1.3592192529894054, -0.7982832997790054, -0.25956017589522407, -1.1270495530241318, -0.9167673650670587, -0.17031192375792129, -0.15376777229159244, -1.1248644574616748, 0.8359469028827011, -0.753495653799939, -0.2897284901497541, 0.27423054030215266, -0.12266564377728659, -1.6065629132245924, 1.3033465713860102, 0.5294641535266148, 0.701585342727919, -1.2557571857711824, 0.19128493881789, 0.070715787188774, -0.7697484913849791, -1.3334297181148467, -0.20491371986679144, 1.7285372300685977, -1.9789038823254388, -0.2730322296116688, -0.9170567339796092, 0.6244969004142117 ], [ 1.5536824163102896, 0.3237546504901312, 0.03541906639773954, -0.4420509868952929, -3.176600009791847, 0.5350980476936742, -0.4009282272950074, 0.5806592226070435, -0.06097813881035681, -0.8181003330397567, -0.36267559431386726, 1.9632943800863072, -1.197483965754933, 0.22800357024046458, -0.7723492315814274, 0.8804400443377045, 0.6753749630548624, -0.2583332636361462, -0.20201005602888447, 0.03496294228584183, -0.10987087893482364, -1.7955877210574789, -0.41030718305342845, 0.16174611056865634, -2.787680227929437, -0.7481351496161338, 1.7309642918638797, -0.18787397523430427, 0.05182142703153094, -0.6707257359714429 ], [ 1.270450746022919, 0.5200588328182216, 0.45297164104582927, -0.3265369504820477, -0.3992460004136605, 1.114940095514103, 0.050457612652835666, 1.246598013572142, -0.1632268332740935, 0.13311232463377556, 0.06795748162246577, -0.7781174585677008, -1.4265356358164825, -1.3954204022271623, -0.15066886419254513, -0.22627551524308565, -0.6059482048337871, 1.0268529575895684, -0.4197469741456145, 0.040763581468302765, -1.2647167196955154, -0.3699536334891717, -1.1782887549312786, -0.084250082331048, -0.0026608484725237675, 0.9622379203967479, 1.3715866264549215, -0.707794307236817, -1.2790371670528937, -2.804450837245541 ], [ 1.3512994681311825, 0.25161080590885965, -0.09070842734937722, -0.8424427213685527, -1.579528344265202, -1.510742739782953, 0.6828628396946244, 1.883879267163419, -0.21681412768212435, -0.25854220855130816, 0.5972699137249144, 1.5746883740833701, -0.09223189059495053, -0.8266317679479039, 0.07063456154763202, 0.3673942662107146, 0.4432572445754932, 0.12819388644990523, 0.7139789431636087, 0.16936554045742175, -0.43997737419931354, -1.5279564057659147, -1.823074028406867, 0.24431806622614224, -1.0872421562281307, 0.10786414155284241, 1.2010037705418868, 0.5277502143879996, 1.3323202054156, 1.104975336628584 ], [ -2.018355911154693, 0.03345077869909281, -0.5342462548218597, -1.617856782859715, -0.8316569926973876, -2.2379024237154677, -0.900568564186552, 0.5161962071864811, -0.21852742175980563, 0.03517030053817399, 0.5406667537884573, 1.2600688402572757, 0.636656036623576, -1.4680359552682318, 0.04283875376918719, -1.856836601605653, 0.02028473266405743, -1.9054527085614714, 0.2364678490636164, -1.551366262117838, -0.37087581440504175, -1.1683636064855067, 1.5375482887056964, -0.4316724363887523, 0.05298842744229507, -1.246416934431661, -1.0315046130883552, -0.8186586924934788, 0.28994388143319183, -1.1816877240951598 ], [ 0.8154881820932256, -0.8466657429885437, 0.2252532296241564, 0.28115534572462053, 0.31377884665841826, 0.6607992556421453, -0.5563522878196964, 0.6083422615190975, -0.023494471787407708, -0.20041902146756377, 0.17290416557078767, 0.7330549756244545, 1.4776447880147239, -0.7571812447169654, -0.8482458002205898, 0.2605242870904084, 0.13632368302769485, 0.7546450960478693, -1.7730708233910677, -0.38690517888214093, -0.30051655758630513, -2.4513167066620296, -0.8626968568037681, -0.5576803082761292, 0.40933765999719934, -2.738283713053616, -0.22461223668407712, -0.0911548814897878, 0.6823267648953033, -1.165524227905047 ], [ 0.47490925457557315, -0.18524765230359277, 0.19954197883141123, 0.5191795987598209, 1.428486066018305, 0.07678463449000339, -0.24754865944052837, -2.1915277924347913, -0.0012806469907237724, -0.1872650028707517, 0.3865508222024327, -0.2724620419270732, 0.832966318630413, 0.9878868863959767, 0.36028227258453105, -0.905232319361751, -0.3745850445957532, -2.4339329310495055, -0.33810935053625235, -0.11945903353956785, 0.33873570366553674, -0.9763589065916399, -0.39336369008772903, 0.7888831229484952, -0.3314635923594396, -0.034718643549312964, -1.5428308743375252, 0.40734805735481605, 0.47193043690114467, -0.42494708992491786 ], [ 0.14274708449749987, -1.5131146407836369, -0.9195308375712925, -0.4766280605023578, -0.48506011576210184, 0.472717751448457, 0.07584852307235972, -1.361990706705591, -0.06265459071624113, 0.705573673301951, -0.4829426077167753, 1.2343539005222748, 1.306253981170984, -0.844649149584451, 0.5615309940483676, -0.5038594997023387, -0.13521144607080413, -0.8970377185818194, -0.5614139060805445, -0.7350781703904804, 0.3342067477200637, -0.8239769567038269, 1.3409716387465187, 0.4170082183800138, -0.7814048924333575, -0.31585935956553896, -0.3735919242640119, 0.6691259662475075, 0.867798547188169, 1.5296060836965926 ], [ -0.905643639623662, -0.5689826910124316, -2.19861718704899, -1.2484052876529224, 0.5332026828409145, -2.1138671501311967, -0.8969340072213576, -0.6798374244506775, 0.0018762800186668026, 0.07036957829196312, 0.7810263418123555, -0.7537674762356098, 0.10655343872428794, 1.0016092122142881, -1.7868525509262523, 0.6929526939733185, -0.11616598409873169, 0.6735987618151079, 0.5662381453883903, -0.5678000390586047, -0.13358497364082317, 0.11150741409664103, 0.6517015090157094, -0.5230275138613754, -0.49529461574335665, 0.3364984589881662, 0.46810855847317684, 0.8300553006338738, 0.6190917368514357, -4.3381423370933865 ], [ 1.020684818649082, -3.774986523338416, 0.1265602422448674, -0.43497913350403195, -0.8195360072048243, -0.1482216312256029, -0.011352160609324128, 0.403579888132168, -0.08712031239378822, -0.2291567013562217, -0.06281809154529681, -0.2811336998792489, 0.07442315173083248, -1.6625957173262247, -1.2468523166331122, 0.45161779691686355, -0.5257406218151115, -1.2757006961378894, -0.4062306523494305, -0.06358754496609809, -0.090849129447727, -0.257970209145174, 0.11889006535447365, -0.15147524535629123, -0.8982966969291132, -2.291456493442863, 0.5506603238722804, -0.2762730476655626, 0.17835874728996418, 0.47316581626674475 ], [ -0.4418367462646377, 0.3515121475630826, -0.12474884376866241, 0.4762517702254882, -2.208248974390559, 0.023222991701917148, 0.020574005627869294, -0.0950085747319825, 0.07548538801598043, -0.2449099482367164, 0.023824130462711528, 0.8178331194390941, -0.9780142469406018, 0.4351930541301882, 1.3018747503623622, -0.39893056551286976, -0.17372600213168501, -0.6969853831911212, 0.36510447933996387, -0.15921702845354624, -0.93944395614543, 0.24231135950492075, 0.12048178511513144, -0.9090029672479321, 0.9084376479364239, 1.103391793320427, -0.7392499554185572, -0.16970130270788963, -0.6011397173440458, -2.1080369919708666 ], [ 0.3537354279131929, -2.1866638811331596, -0.8674114521926207, -0.5698017803423684, -0.4593286586859019, -0.5897872552221813, -0.03249733434416671, -1.2059707154762154, -0.09321078089636095, -0.029474138106425535, 0.051887829558380366, 0.40892937336085416, -1.834979437101488, 1.5315128157877482, 0.8864506907614123, -0.19929127937803093, 0.2712306514575497, -0.037253808905744076, 0.37337786406809015, -0.6833728716496242, 0.06152861893103766, -1.2567112214146143, -0.4446675239175719, -0.1050245936658422, -1.1994131786922209, 0.7289346807854238, 0.32343748005554296, -0.21912931114030895, 1.195999343304605, 0.4352074182318307 ], [ -0.28890394176158773, 0.16275106094951888, 0.18022546760102875, -0.6123688618729701, 0.5696259453669302, -0.27498888142706257, -0.37342963825392683, -3.1067585201648846, 0.10442532653756816, -0.06992254409395765, -0.363826265777553, -1.840171219331243, -1.0353903745019026, -0.15343500174266342, -0.9025157510664132, 0.31625071530607435, -1.2550607004963759, 0.3333813301851915, -1.3607478625151725, 0.6136763736175683, -0.537310039330273, 0.42934314893968467, -0.6517492818792099, 1.0526294234702631, 0.5046096584727673, 0.07127457222003872, 0.07462935172126589, 0.05086112149219287, -1.4937835456576383, -0.5930481370645365 ], [ -0.18606564922534236, -0.11683853985006236, -0.7200891972430263, -0.5347553192801159, -0.8387037998636464, -2.1167883083768455, -0.33342477299945833, -0.810429138678348, -0.02375813114958153, -0.5007259710877879, 0.7982889324786694, 0.006686693788215448, -0.325956104432363, 0.34605420374680146, 0.28698649499838547, 0.686564195162203, 0.5825212346891643, -0.41467887359595307, 0.5142485865748551, -1.3126781018963316, 0.5214027535093039, -0.05640498446746588, -3.1754728588796635, -0.3072725450944581, 0.4997446887913631, -0.34606780282909255, -0.6955681013292396, 0.9204452800654646, -0.32304596443044764, 0.04367846350551058 ], [ -0.39578282831531947, 0.10757507000305247, -0.4189733110190365, -0.22872967200762712, 0.5902849896344561, 0.8212217419446434, -0.4499949861032442, -0.12901166223819388, -0.11142560002802586, 0.030819733187940786, 0.024590056711216002, -1.2511486864797472, -1.220788419962262, 0.22333668672409426, 0.27231033345853045, 0.6865443393449595, -0.44264671663794053, -0.8100650601746535, -0.2370395556714763, -0.18283113873495357, -0.6539039889717266, -0.8296250306057327, 0.5326217713739793, -0.8151158672961448, -1.2289453039352742, -1.025681482738354, -0.8097475282989812, -1.23285265996026, 0.41127415411735513, 0.32435065050991246 ], [ 0.8834536057416223, -0.03235519156087604, -0.4556697672909999, -0.5494425125425173, -0.8907461469200387, 0.7030845925826025, -0.32053557836657165, -2.4067375411175336, -0.06481937766843332, -0.2665415942120025, -0.5051744804371583, -0.4387042906231697, 1.5432638758210333, 0.1761223276132848, -0.2311907613213238, 0.0016377296030076868, -1.0700600888969876, -0.3959162917437114, 0.4613623457088423, 0.29583381317968543, -0.6154386039542757, 1.401497296316012, -1.7529478202942208, -1.9459151592546307, -1.7274015031156478, -0.4624961225413311, -2.120405098279368, 0.06094500768278048, -0.4854306171871336, 0.2130523776102312 ], [ 0.5711415622280531, -0.9075149974865828, -0.15500954804737666, -0.7072943711454749, 0.06340500626852837, 0.5071781381373058, -0.4891147889268444, 0.06045454139632773, 0.05741241911685328, -0.7217385818153317, -0.14657518956531712, 1.1970480277850966, 0.2312812172081482, -0.47575756401325114, 1.0482624576487913, -0.9378970297494378, 0.9870051550113481, -1.2482533276281411, -0.626782531278108, -0.10678565681066896, -1.3109040613294376, -0.6888339660900872, -1.1416132413862738, -1.0063755480229941, -1.5121846173385025, -1.2114249732670443, -0.8462534925037597, -0.7034856022750177, -1.394127449290723, 0.33789524360369444 ], [ -0.7697876345203493, 1.5451178910388856, 0.30454195360042496, -0.7901952310032189, -0.19059146776804692, 1.030773115685426, -1.9659344834688073, 0.5038107780997295, 0.07580984375500284, 0.8692404271025861, 0.37163161713742976, -1.180630457769615, -0.47383343180781773, -0.46458389415849705, -0.6077013717800257, 0.11836824525658904, 0.5252318373108742, -0.5178632398179966, 0.031066965813583057, -1.101717903106837, 0.23027734123170254, -3.4507475333856843, -0.3519483947413661, -0.8364974216263067, 0.4043989005997092, 0.002675433747827559, -1.2652244989093937, -0.21986059586765394, -1.1121255595941137, -0.26788955692542726 ], [ -1.079103611792342, 0.31240814905719827, 0.06559296229649005, -0.08623494477066336, -1.0645753821350266, -0.6203491071743094, -0.21163196793051428, 0.7639172775495572, -0.0867677546154481, -0.23909168277104806, -0.5116109006552622, -1.096475947047631, -0.24550984620573, 0.2057244245791997, 0.17176155525188452, -0.11773653064082114, -2.4392600078717948, 0.027491675062113936, -0.13658918904268066, 0.4011325059063836, -0.3662771488290741, -0.268108500829938, -1.3387262761810312, -0.17780378340528455, -1.2471647831479862, 0.31505194016897137, 0.2964659771088625, 0.7184496740388777, -1.4274399759714378, 1.0706582057702259 ], [ -0.22947113850538414, 1.3333324578685668, -0.3630990463123969, 0.14516708543394663, -1.7393531595097256, 0.2673479676966136, -0.6908923461344326, -0.6784685350168458, 7.134730301280809E-4, -0.2636589861809361, -0.16626777797973535, -0.6346449211159597, -0.47531605636502716, -1.1267245015306202, -0.3566192385152614, 0.15623280119878125, 0.9201185417465202, -1.5189554691212193, 0.26884772610440527, -0.2113372885379679, 1.3635290838368044, -0.571507552205179, 0.049242930949378684, -1.8167843008711742, 0.5376009093433615, -0.8323551287508159, -1.3632189764610407, 0.40761546409149785, -0.20813348621288374, -1.2221893840474327 ], [ -0.9722263620798278, 0.1854303324550786, 0.2107791115923485, 0.09567772552368674, 0.590078853859964, -0.5540378635364434, 0.027369163381171617, 0.1634623703057334, 0.014569967815088774, -0.6642396581526149, -0.36433731148481524, -0.2886747078715987, -2.541638339762878, -0.5159588088761272, -0.3496413315046033, -1.2195103569756909, -0.6683622461622206, 0.1868927566744305, -0.2936357864458991, -0.3856004409969864, 0.6642618984508274, 0.8487945702625197, 0.690438903690166, 0.8497786803608169, 0.7060375874794983, -0.8167508156773013, -0.20690167079424612, -0.8467365210206265, -0.5019257048747817, -0.5556928403375107 ], [ 0.56084582382714, -1.4097340344054403, -0.32398370729172055, -0.214226722050556, -3.1734266360925467, -1.1996946909673183, -0.12795514239929928, -0.48033647547459996, -0.18592792257720853, -0.7651041807770512, 0.4658104083369897, -1.2043709153850883, -0.11975798005531185, -3.0034081169737714, 0.7237930892185787, 0.18462459875859139, -1.0464725537653399, -0.05997642126362408, -0.7626137400739037, -0.05062738559849433, -0.44442784567375165, -0.20256210094972124, 0.3751286483543663, 0.5129107728322903, -0.6340599589090519, 0.454295796444325, -0.29823151321918745, 0.44835784148926483, 0.02712358450287012, -1.5212118566227646 ], [ -0.6810777332902986, 0.020489288802497407, -0.14193349336097058, 1.7511490375140149, 0.06327853280052949, 0.45493600565347736, -0.40753529723046167, 0.07411558337555252, -0.06839492162603558, 0.699119128024772, -1.3266727253134896, -0.195980017588279, -0.23431852284028368, -0.2677431873383391, 0.20094849435039192, -1.0953882287706114, 0.11888230110386042, 0.46753153898041366, 0.3452226922183896, 2.0375021358562053, 0.07771659802805118, 0.1586904671365195, -0.18457865388055997, -0.01344979072646759, 0.0960371344490493, -2.155410875475875, 0.3301590665950886, -0.8941747577610579, 0.10826947685587865, -0.18890201678078822 ], [ 0.19228252501062376, -0.04858954486375897, -0.17350393633669772, 0.47672783090144577, 0.086071879133522, -0.1748529985103204, 0.0564218112009053, 0.936378427537734, -0.0663745267369172, 1.3697729700620078, 0.5470743452537227, 0.8097443505240535, 0.16505354196936542, 0.16667501180760996, -0.17880267344250522, -0.37757625197220585, 0.1630606969591765, -0.2797270307268844, 1.0423732271414032, -0.11481504618534728, -0.14266857043951772, -0.21165036400672602, -0.12299705933739168, 0.01376122733039273, 0.9989742914602514, -0.08329814451286928, 2.0401374101708023, 0.13351878943843853, -0.8263145664967512, -0.1905688615685554 ], [ -0.009746333341035893, -0.09740518387454289, -1.70857400880404, -1.7753321042054553, -1.5084843222303277, 0.5552754600082211, -0.11567420872095538, 0.08531434798694455, -0.09270793967295733, -0.5129812220876766, 0.5761261712620936, -0.08899728107482276, -0.290154302218178, 0.4785662776834575, 0.5304800683290642, -0.31791493791922154, -0.3662186852134482, -0.016705004805583037, 0.3075339668659905, -1.0485294304164319, -0.025961578650167065, -1.0463593965776044, 0.7482898520653111, 1.2889708216792142, -1.4343771328072346, 0.0951105224872347, -0.22627539767041938, 0.11567567763759835, 0.17685131379196758, -1.6587452137761054 ], [ -0.5184314048932299, -0.18903879623427056, -0.14790515175894517, 0.28474333353468767, 0.598645242509914, 0.84668928179206, -0.35403987956648986, 0.19861414705132038, -0.2890315260187661, 0.05909242285830935, -0.8334620372464796, -0.6693518091722912, 1.18052751161658, -0.08567453514687699, 0.22529453812782602, 0.3558455531788406, -0.697957233164852, -0.8176972476059052, 0.006232076314502384, 0.42609889283870006, -0.00963901549925227, -0.9367616552978143, -1.0858679246014156, 0.31616635013783434, -0.13480959630397035, -2.7459869537492496, -0.33462189619505545, 0.3681300984626961, -0.11907607783525595, 0.4998862388331906 ], [ -1.2201791932307633, -2.0274548425223786, -0.18770221285161398, -0.20905013047038684, -0.7302207239689055, 0.07560168377546612, 0.6894126512385934, 1.1172945330608073, 0.07468748211602007, -1.2304194083107654, -1.0149070579724866, 0.6556591150581875, -1.4957400819573505, -0.20284422410824274, 0.5745496761647843, -0.645187649756996, -2.616675941217992, -1.3566482275303553, -0.11940845431737886, 0.3673534453883654, -0.217573498548443, -0.5242474614039262, -1.4240399536530903, 0.3880515762904468, 1.0266667746519447, -1.5277464572287869, 0.44563524631618956, -1.0918649615684977, -0.9593608183263402, -0.04434718671407425 ], [ 0.9151865469345287, 0.6462914642678367, 0.10549733422966136, 0.7944315173660661, -0.29330030517908595, -1.1306621170974864, 0.8345942352084721, 0.5334504528201054, -0.20817239738352333, -0.18249018685485074, -0.2442009301912707, -0.20847693706782022, -1.8705371520123606, 0.1627843939520589, -1.5010771604914968, -0.7203802297494427, 0.6461408921989629, 0.03809250639593045, 0.4175514765013795, 0.33167421389666274, 0.6205183790426737, 1.5913013074480553, 0.0032762959927072257, 0.03465669886360051, 1.0491693790920604, 0.9786038876071884, 1.7940204007423632, 0.7430781607371252, -0.431780991528661, -2.8594672499123996 ], [ -0.040028595181750316, -2.1153239002948254, 0.3372761815878003, -0.3712178981382392, 0.09956262970911989, -0.2858757263735948, 0.28409749609221263, -2.1526137572831745, -0.0564773503354103, 0.1849022613628356, -0.10864251191172045, 0.8347088484038143, -0.9885610982132087, -0.004719637932709989, 0.13405295755255422, -0.7614874323306725, 0.6876478989465995, -0.9912098105879344, 2.3686335368724616, 0.40230805143585996, -0.7971759589982191, 0.4035219726426546, -0.5552881512942455, -0.0135813561861987, 0.8677943014997704, 0.161409334932563, -0.9087249914528273, -0.0012080155024414394, -1.5669653697291868, -1.9772443304987846 ], [ 0.5380517594519905, 0.5026985093632437, -0.04045765523342918, -1.367872075506133, -0.036440558619045035, -0.3194564392112038, -0.03079804785101506, -1.6327748409672007, -0.04337699378910572, -0.02347763036001194, 0.3092192029718408, -1.0257083549687862, 0.2689416101375505, 0.4093945484047174, 1.0946101330946478, -0.694679118368602, -0.09866463808502007, 1.2712302528388113, -0.42353535851728347, -0.6777459857846545, 0.5563774661876651, -3.2507342855367027, -0.8151362031540864, 0.755153676076211, -0.6300098368862125, -1.4258033652682043, 1.0866381489768946, -0.15679721919662803, 0.3810005714724744, 1.0343937011434634 ], [ 1.4966402570629276, -0.11997492038360852, -0.19871845735638333, 0.9818066268253723, -0.8873586820592777, 0.0888511902535824, 0.04052326971733329, -0.5628582931914897, -0.12206172972111834, -0.5696854600826355, -0.15214723209103848, 0.09322079231484331, 0.32516363339627996, -0.9104895106800202, -2.330208811258285, -0.4104048796868364, 0.8653878778305834, -0.0015128103767775175, 0.05219277628075683, -0.6609836906313985, 0.0484499216110514, 0.08460136999783638, -2.0767275666289895, 0.8156822512599441, 0.3310837756739771, 1.1563789750675106, -2.0279220537652134, -0.5065889868482284, -0.42116634276698, -0.2531088077184342 ], [ 0.37031310678538554, 0.7084100880725126, 0.022599265234526805, 0.0782920685039834, 0.8370329081665931, 0.029570438678558728, -1.363755706499189, -0.17392193346548498, 0.09964247217784189, 0.5168044605965767, -0.18892577992705292, 0.6426884896668963, 0.08248736064997648, 1.0798583179591241, -0.7390900650785681, -0.211560632667488, 0.6073745679002098, 0.2353129509538592, -0.3369130519969188, -0.6640463990231413, 0.052138340689895826, 0.5570585208514076, 0.8442359804124994, -2.3001275701638453, -0.4080103210768812, 0.021775990387219786, 0.8521846510796441, 0.8768372327830124, -0.6241064529585785, 0.5000993821414274 ], [ -0.40919109145261623, 0.3355560341750755, -0.7211461284043547, -0.7626813006734884, -0.046134555877521445, -0.38755948145165603, 0.5893610956814908, -1.7501094784772337, 0.032271077133592584, 0.011930139419970018, 0.44404890652982437, -0.7763145344432186, 0.6852789010910207, -1.0801797503927664, -1.2452665995237504, -1.4986841643943332, 0.49611230966736397, -3.7736952799816224, 0.29322187279642414, -1.2814278541549495, -0.31398280014251756, 0.4347334157154384, -1.4076344234013447, -1.7680363136042645, 1.24075180303618, 0.11612583589064068, -2.689003434079618, -1.0494587008964524, -0.08024328272304755, 1.4028199363926352 ], [ -0.8776323009144319, -0.2334159374147062, -0.4378350871542848, -0.2893444130911486, -1.6099030526446858, 1.2933884356492298, -2.249561248505788, 0.0663697529182618, -0.004838214595257789, 0.3429560019718545, 0.5624041323065498, 0.9488560406261328, 0.008130665064037222, -0.6454111244451134, -0.5119099054818569, -0.7299951543057382, 0.1737959190940409, 0.22605840407941463, -0.6912653313264632, -1.0593549698806966, 0.3712203677133023, 0.40445712893564023, -1.48964957310742, -0.9470900291026807, 0.44165034574179424, -0.6169312085496464, 0.8984220324034571, -0.773988476045016, 0.06766901944785468, -0.7521101694015729 ], [ 0.8474649903206621, -0.8636325958005229, 0.30184957660817713, 1.0212548262338723, 1.1211777351975478, -0.112392635766131, -1.0237549102147026, 1.44621751615284, -0.06108788599920813, -0.7108657101380152, 0.007742478017608955, 0.5235022737522691, -1.5205320727951317, -0.018297113699439312, 1.0656147995106109, 1.3298842650477765, -0.618612632191398, -0.4321345896248618, -3.095967523463449, -0.21726974557447445, 0.6323446751574178, -0.3769972804613324, -0.3406518375726152, -0.014502366840977207, -0.3444649879766485, 1.1531972736566911, -0.02288849305237, -0.12570861177648948, 0.5509459045235073, 1.0877219464455268 ], [ 0.12085308763613807, -1.563485771027979, 0.2688207376064823, -0.5508749493035293, 1.0576783658624365, 0.5315404117530429, -0.335842391427147, 0.1647980957453739, 0.0553767268234367, -0.5398535094310617, 0.5138394649753153, -2.639705974140795, -3.4643154330415236, -1.928692523495179, 0.3967422473310403, 0.4408434525387453, -0.8998911154165996, -0.6815980789487105, 1.2591917585864612, -0.44168985607294936, -0.2200496988697665, -0.24055610561024998, 0.656956117072353, -0.4416257760267355, 0.4502693278168531, -0.5725549614299053, -0.9416328696792531, -1.5288248020411834, 0.19238070449694744, -0.004090419212579037 ] ]
  }, {
    "Size" : 15,
    "ActivatorType" : "Relu",
    "GradientAdjustmentParameters" : {
      "Type" : "Momentum",
      "LearningRate" : 0.01,
      "Momentum" : 0.9
    },
    "Type" : "StandardLayer",
    "L2Regularization" : 1.0E-4,
    "Bias" : [ 0.3769873002379953, 3.14664510392493, 0.2103739882384357, 3.1170737479986332, -3.472349988344178, 3.776873837115774, -3.2167015170613853, 0.07874858639640199, 1.751295176180925, -1.0094799504488, 2.366920290896813, -0.12275918110843102, 3.681349219233801, 4.617698508922663, 2.1175200586821994 ],
    "Weights" : [ [ 0.25175295428954947, -0.470591296930119, 0.39696451597463667, -0.6565542114205112, -1.155215632136049, 0.325074766366165, -1.5338431913246096, 0.4408608212320477, -0.2177572040115432, -1.8488408524718396, -1.0895048048486031, -0.40226442793862854, -0.5389223387267054, 0.531609418203365, -1.1122233524604241 ], [ -0.30313402443143167, 0.484148512856626, 0.6034656541834696, -0.19089310698199624, -0.40031405522594776, -0.25878128849393883, 1.223819015903426, -0.5114774415040156, -0.2602028262880507, 0.2304826804462312, 0.26272625691361395, 0.059466262231164316, 0.8971860085347899, -0.10477488864738012, 0.7548177264384459 ], [ -0.5966994684160023, -0.19045372758783854, -2.0192486290618605, -0.20254815909115934, -0.09361909696558773, -0.4913111266232983, 1.0129869744906945, -0.11770794277012814, -0.22547896798449416, -0.7837695006301203, -0.02702529568988133, -0.10380872299146128, 0.10286592110558863, -0.11924272473031275, -0.07033796883416316 ], [ 0.7359460607194938, 0.14437784821412242, -1.6370728155036594, -0.2721499776155755, -0.4353886735688596, -0.47982288865755957, -1.8228276083964912, 0.17966763858088078, 0.24124346253732692, -0.3224603794856262, -0.3693953143028497, -1.1936101515992243, -0.42710672700077557, 0.543650278512373, -1.5464628494917088 ], [ 0.653629205731821, 0.3195722723139916, 0.12230570283320209, -1.1028264366412508, -0.14280956860828853, 0.8492120798178213, 0.35285999986412303, -2.9274358587541367, 0.6235139058330048, -0.8035454594563467, 0.0847769461333575, 0.40461208900663415, 0.02423288198871216, -0.7245665356606502, -0.4824711833128048 ], [ 0.7212267780311151, 0.9903540547501063, 0.5057676995947311, -1.4504556939864088, -0.17036826776812988, -0.02587101300091423, 1.9480085614519667, 0.020950859392922645, 0.20566403334923075, -0.777179292543514, 1.2222502240544268, -0.39325743116266465, -0.872515131559438, -1.1611195965601198, 0.5541867957705384 ], [ 0.4171392903504081, -0.31292598570656105, -0.08324922162225327, -1.3110107209710924, -1.1194426447120083, -0.7500847391414227, -0.4996591892081421, -0.22516607277139594, -1.0019882279768846, -1.9037496556504645, -0.23465139788036468, -0.13040102457336716, -0.46844432414167303, 0.06716943387928637, -0.07687297832921927 ], [ -0.242304339397618, -0.6498658213921065, 1.8642606040040126, 0.022964017041053195, 1.283801048795298, 0.5685916049232381, -0.8528031218649661, -0.13017838797916806, 0.2478720068728019, -1.0933763690621687, -0.39657451968430474, -0.9752909347507606, 0.5009711568378047, 0.5322184651593196, -0.0980846579911159 ], [ 0.09383294309541113, 0.16265427674415264, -0.2309880417883079, -0.11162095503010332, -0.140015022825179, -0.2158791849171555, -0.10847525876278881, -0.1859402463034417, -0.006306388951909779, 0.09695167245107265, -0.18797539867505147, -0.23693335958399256, 0.03523288274253015, 0.0329609578811867, -0.14764969639032155 ], [ -1.4680849721814098, -4.065851651108515, -0.18268904426080482, -0.9355641055304428, -1.3154597740225704, -1.1890277224395511, 0.11896905108268421, -0.4545174944419014, -0.9119573316140487, -0.9880470750808824, -0.3102700909519291, -0.24101594235950333, -0.26879094472686793, -0.020671793760443646, -0.07588990522715201 ], [ 0.3181680130105742, -1.4068969287230335, -1.274288279198072, -0.53827544237707, 0.32419525781779396, -0.4374795417309395, 0.10865337706457832, -1.0534613376227717, -0.6599173601531819, 0.7045657148282285, -4.562295727655591, -1.7107889491981625, 0.10959365418788736, -0.27436442241350056, -0.4172993291003754 ], [ -0.3662376089896327, -2.294279219477747, -2.8246546231701797, -1.2433616536832508, -0.25356336545232055, -0.759512563175135, 0.27004450344894393, -0.46911572240429017, 1.3040198835755326, 0.06420518956823719, -0.37494473904223735, 0.03516961464190732, -0.6357769494890946, -0.15216920224872943, 0.20855986525443854 ], [ -0.204953920838407, -0.3205681941338573, 1.2349807785860758, 0.06634062359891725, 0.06673224745373924, -0.34371394354502294, -0.8456537990733003, 0.7915231312989821, -0.33246794924911915, 0.355300412826454, 1.2450122890155333, -0.6294442241912147, 1.3721461982384249, -0.008449993109227883, -0.6022433865329299 ], [ -1.5145580915922177, -0.4019919238749102, 0.9895942530691851, -0.13047892707134423, 0.783765216033222, -0.3360876793975061, 0.046534694536857435, 1.1659807721560345, 0.8880201742637533, -0.0736863323100674, -0.6388894964663459, -0.4521429847258001, -0.5828950302887645, -0.08444283789334554, -0.28565576249440316 ], [ -0.13177030422120406, -0.34933181566547444, 0.28148756043051026, -0.9398039806058013, 0.2780527080526973, -0.31847377428921886, 0.5251915493605083, 0.19356573150470968, -0.09050983382974125, -0.5305950593973449, 0.3442900202950511, -0.507774619846469, 0.3002621310149663, 0.15613985736182495, 0.9216426842905134 ], [ -0.15694038458723417, 0.11938306598149706, 0.11974517334129801, -0.14438628473368412, -0.9385701883381743, 0.7383780550046525, -0.791357928142834, -0.23723379294305935, -1.743282736463365, -1.3845798088387775, -0.5329987972396867, -0.44604746805522805, 0.4716630344357529, -0.17460295851457205, 0.1343885799705187 ], [ -0.09294407565096927, -0.28837105553393977, -0.7068226630550847, -0.40044701301031116, -1.2464270431822986, -0.22134266246178555, 0.33913555927716044, -0.8568959025970407, 0.1986600101283491, -0.5079557573650679, 0.2114183422784259, -0.12076432409261502, -0.646979450278769, -0.316921410335613, -1.7673556254600638 ], [ 1.3098480105630537, -0.27460130163248836, 2.7185337124639912, 0.3030009740202817, -0.09246428513670757, 0.9263981742146387, 0.5377251735896752, 0.15679431043394185, -2.0711583008971, -0.7832561227156075, -1.347201926293279, 0.1471894794567515, -0.6871153974493969, 0.178788000651594, 1.292154367836277 ], [ 0.3981230997218362, -0.010178665133335584, -0.03374581265391493, -0.1270747250568309, -0.04984381643276084, -0.1456660246869604, -0.5901446211895987, 0.019873312654015127, 0.8548293791855816, -1.4027910632495952, -0.21686896030094702, -0.33098697468042804, -1.2260098802660586, -1.8266680101193062, -0.13015052864128762 ], [ 0.5957000528684645, 0.24295370073612801, -1.6611692099694866, -2.3262393341687777, -0.6023007843864325, 0.1978828625378113, -1.1094495175397145, 0.6633449552438071, -1.812835752369333, 0.25655067471035986, 0.34285294085213297, -1.0874952989958449, -0.0130993745631132, 0.11295443873582742, 0.1718600625843582 ], [ 0.507134622911807, -0.6140234183056577, -0.3986413060932966, -1.114290471970536, 0.18264833933738475, -0.876660522610124, -0.6841647955468485, 0.013488379298608483, -1.4914593117063388, -0.1905327794750082, -0.9872396302200217, -0.9182723035122249, -0.09145669416904036, 0.2606681333421326, -0.14505859292855716 ], [ -2.521661265232003, -0.21859954090955006, -0.46464454316561, -0.9318874043230556, -0.0919848317672796, 0.8401128219887359, 0.6531892940302131, 1.5607209522018406, 2.1196139165198353, 2.2386904689270235, 0.12243392321994685, -0.030846370299385705, -0.2625216675692925, -2.215161805771287, -0.8726375280263824 ], [ -0.37561707253396887, 1.4345917773955712, 1.9215691504946255, 0.07436280316993318, 1.428542994416638, -0.047643381201408826, -2.0895911236273266, 0.6786537237611406, -0.8086004894314127, 0.2429978401537199, 0.4091966096541264, 0.3684028053710425, 0.9376790263043254, 0.57357050984297, -0.018377680655452963 ], [ -0.3054401455027859, 0.16275867124494575, -1.6156695164239965, -0.6180002338544354, -0.26687821349194607, -0.3878081988339989, -0.6032607829007886, 0.22761326488174558, -0.43345718283729184, 0.20108388707985067, -0.4453884175564842, 0.15897948768610187, 0.5354790146738223, 0.04193831143320215, 1.0740634977808718 ], [ -0.3813533723557265, 0.0019958310112131376, 0.4412635587011124, -0.9708712881692604, -0.5785996892233417, -2.520629825756315, 0.25909945364562775, -0.403956052737773, -0.2588516651951452, 6.940799522621758E-4, -1.7865148174147922, -0.1676181983398272, -0.6168546157886837, -0.47102857212969307, -0.32125837660687395 ], [ 0.4667711194927029, 0.08729269497242821, -1.140064741873187, 0.4202039442081712, -0.10158345570189492, -0.7474015732295758, 1.6171493315019334, 1.2556498048410385, 0.1619995183751691, -1.0928805359534848, -2.652328599552455, -0.06104910360313922, 0.8346719559372763, -1.0641396483930066, -0.9238372323328148 ], [ -1.9431141736317812, 0.11059605219888993, -1.6774856705368089, -1.083149572423541, -1.4793421589133358, 0.7912457368607485, 0.7731032284658108, 0.7539528514525186, -0.1570659168778805, -0.634645515763039, 0.31401770889150155, -1.0833145677884415, -0.8011584931033748, -0.23121415760183173, -1.2387330492427235 ], [ -0.5112834118503184, -0.4183593547732174, -0.1870394022181071, -2.1755149553358293, 1.0664178326773335, -0.09290748041683759, -0.26554916710096543, 0.33555765068802845, 0.1652586198055865, -1.3510615543368656, -1.1560741787034725, 0.8824243054747816, -0.4425601338386704, -0.3291474498866107, 1.5691201051925938 ], [ 0.40208442190004623, -1.7267447546694676, -0.5999651183754088, -1.4754712771053489, -1.8171418794244707, -0.747839898182098, 0.27425998303162336, -0.1754282614816901, -1.8310589320298694, -0.03269810516743011, 0.18335454567520715, -0.17727953880374012, -0.571664489412349, -0.1451736796012492, -0.33733341980255555 ], [ -0.5604772617591447, -0.8353926710624854, 0.4480908150912118, -1.04381708017829, 0.8987870036357679, 0.06540553714144849, -2.4449323103870433, -1.1497198212758202, 0.5490006594347023, -0.8878924408032896, -0.39248501014639775, -0.1728404957158709, -0.0717126039537459, 0.6825154425418165, 0.6235963341565381 ] ]
  }, {
    "Size" : 1,
    "ActivatorType" : "Identity",
    "GradientAdjustmentParameters" : {
      "Type" : "Momentum",
      "LearningRate" : 0.01,
      "Momentum" : 0.9
    },
    "Type" : "StandardLayer",
    "L2Regularization" : 0.0,
    "Bias" : [ 1.8387446854002758 ],
    "Weights" : [ [ 0.3584865025139291 ], [ 0.779296426829782 ], [ -0.665750524973668 ], [ -0.8486313325065789 ], [ -0.6873177182637306 ], [ 1.0197068190616363 ], [ -0.20745249013594178 ], [ 0.5449380416204312 ], [ 0.4070406759369196 ], [ -0.2570475271456771 ], [ 0.6720880535233927 ], [ -0.9685671819017384 ], [ 0.7530888672992256 ], [ 0.6254021648878456 ], [ 0.7314401614701432 ] ]
  } ]
}