{
  "InputSize" : 7,
  "BatchSize" : 32,
  "Layers" : [ {
    "Size" : 10,
    "ActivatorType" : "Relu",
    "GradientAdjustmentParameters" : {
      "Type" : "Momentum",
      "LearningRate" : 0.01,
      "Momentum" : 0.9
    },
    "Type" : "StandardLayer",
    "L2Regularization" : 0.001,
    "Bias" : [ -0.25283471223477877, 0.9997816146108153, -4.099128569978383, -2.2307948883756348, 0.3529281448776696, -3.842438259300823, -3.008250553352763, 0.9288658674351431, 0.161984220087835, -8.554628545891742 ],
    "Weights" : [ [ 2.493798359798964, -0.3076728526522506, 3.340152977425124, 0.30856072279202934, 2.923112312417787, -3.196193846487318, 6.38134788589797, -1.4785795530496522, 3.177447026151529, 3.729722694497932 ], [ -0.002472129520148796, -0.13651027755263279, 0.004441208411338391, -0.10367859685037317, -0.025331453366345538, 0.10438237248381169, 0.01592408061583308, -0.01900956952228389, 0.0784524744727487, 0.027322996319560804 ], [ -1.4971645614057636, -0.17125019812745318, -1.3913668074741459, -0.3979568537222786, -1.9127084726047368, 1.5396902411396196, -8.127713353751641, 0.9654131274510832, -3.1282844328853883, -2.854620657962016 ], [ -2.252234208933498, -1.0060662049708213, 0.351628533465525, -2.872549939346974, 0.48163095483535845, 2.1671114990343625, 0.4587765915314885, -0.5727516359541514, 1.1367330213470006, 0.8218072381851939 ], [ -0.959309611119474, -1.8984958830806606, 2.6030156020312343, -1.7400354996606942, 1.7358281941223195, 2.2124398746043523, 0.6828374929310109, 1.1397584666610021, 1.1168182880421766, -3.7408653536720946 ], [ 0.07626351227744307, 0.05328928364718481, 0.12321635815113824, 0.037581822371231643, 0.031475087228405696, -0.13971176692852638, 0.07209642876937096, -0.06461407578821765, -0.16323483885547915, 0.1583861862140886 ], [ 0.7426770563993127, 0.8442896955256329, 2.082744051233893, 1.0751235641928465, 1.2629888496935946, 0.24281709686957306, -0.22606384701811053, -0.4546562247809312, -0.3410329976790878, 0.786311074535404 ] ]
  }, {
    "Size" : 1,
    "ActivatorType" : "Identity",
    "GradientAdjustmentParameters" : {
      "Type" : "Momentum",
      "LearningRate" : 0.01,
      "Momentum" : 0.9
    },
    "Type" : "StandardLayer",
    "L2Regularization" : 0.0,
    "Bias" : [ 4.8139639445287425 ],
    "Weights" : [ [ -0.6691095743231583 ], [ -0.8951201837744912 ], [ 1.0084302342275144 ], [ 0.7404609799876163 ], [ 1.2187909733773683 ], [ -0.8845731641518928 ], [ 1.1717160490806007 ], [ -0.8195833640135582 ], [ 1.1059966446984668 ], [ -1.3085275710197737 ] ]
  } ]
}