{
  "InputSize" : 7,
  "BatchSize" : 32,
  "Layers" : [ {
    "Size" : 50,
    "ActivatorType" : "Relu",
    "GradientAdjustmentParameters" : {
      "Type" : "Momentum",
      "LearningRate" : 0.01,
      "Momentum" : 0.9
    },
    "Type" : "StandardLayer",
    "L2Regularization" : 0.001,
    "Bias" : [ -2.3175563692576695, -2.0284395163513396, -2.585789179431808, -4.5167380722464054, -3.4702611054767893, -2.0428771307455094, -2.2283483639414845, -3.7282205696513615, -3.5068329469276276, -1.143242175394474, -5.3172421287056215, -8.328039470645322, 3.6616349213885098, -5.210456124057716, -3.2615336196226843, -1.9791878056915333, -2.6789734350450796, -3.3001310656382725, -0.5261704770705047, -2.1822110095272773, -4.748846019440232, -1.2194094244773444, 0.12027997326200222, -4.103371059638468, 0.7216177659067244, -6.54439659119178, 0.17271347090705352, -3.079859391874863, -1.3194630708738562, -2.4088559010284305, -2.1845113811726935, -1.9114207750841803, -3.194555982473655, -3.729796832260972, -3.05333597835946, -4.62762029856842, -2.003274055717214, 1.2359346627144305, -2.9350633500222427, -0.8297148681337491, -1.931280130754725, 0.4528173570482082, -1.5110066352948017, -2.7161919663574547, -2.454193327468078, -2.346440467845218, -2.769429513739152, -1.8906124664116506, -1.8489602291330103, 0.2783511869670277 ],
    "Weights" : [ [ -1.4840850743633227, 1.6853130387298412, -1.2818635923573143, -0.18644859085695253, -0.8058698112027727, -2.225218023798809, 1.2324450647053304, 1.7261354289735444, -1.0681089844984226, 0.9325657036808294, 1.460366754733773, 2.9497625066423505, -1.7757074472083727, 0.1396762007846907, 0.006355736159049409, 0.7428671534489727, 1.0023899421761033, 2.4275292088899167, -2.7102722432655235, 1.0882482520663876, 1.5849377963832534, 0.9773280082786637, -1.5665252650475574, 0.18635644951701974, -1.4631785057478046, -1.1791109572696739, -0.2179647139743687, -1.3773806460622056, -1.6672241538883488, -1.5547576812198505, 2.765288333113654, -0.9791723325840004, 1.1113185357701192, 0.8100652500105242, 1.24132790902659, -2.177941316660934, -0.4669972579645254, -0.6059371440805474, 0.6911721566869339, -1.275040421158754, -0.9020077604031005, 1.780028114825516, -2.1185728030127433, -0.871176608335035, 0.8964055939688886, 1.790280128364452, 1.2522221532908284, 0.0726160688570835, 0.12827462598089198, -0.9049466467573443 ], [ 0.15809193016037684, 1.150189418831237, -2.214670134897224, -0.402975613718821, 0.8212660419184572, 1.0423604502200046, -2.083619381629141, 0.7927604910363665, -0.28043749883727953, 0.510019177515356, -0.2697683353635818, -1.0154745410903494, 0.0712997459027627, 1.2002451590417889, 0.27546951169687856, -0.8519801359377361, 0.2766284584701321, 0.005026449212095192, 0.31552841805733817, -0.4129765419434194, 1.2912655415810266, -0.25446905970616907, 5.375235865364737E-4, -0.8409222611324751, -0.39028384313293857, 0.22937513600776507, -0.8667603010024946, -1.2652052679559511, -0.9891549627586742, -0.25127603846731483, -0.10106905483922701, 1.6680594101900665, 0.5038913087161332, -0.902876542176877, -0.21859856971692831, -1.0519932036377744, -0.08715142757457345, 0.34945678869439034, 0.899247128836228, 0.7746559078002081, -0.6141722371387405, -0.07485001152478732, 0.5272979897492197, -0.34421499919190535, 0.32794689456987447, -0.07983416764689114, -0.13336461657861579, -0.6198566271040586, 0.09960417619964033, 0.47972375399031597 ], [ -2.915653417124883, -3.2058567192729606, -0.213824552755894, 1.3920038437096798, 0.0284787402455448, -0.426797819662489, -0.7335239413020171, -0.01990860307332864, -1.5039142497456983, 1.1580137922961242, -2.426915432059066, 1.5051253198181478, 0.4291859317878363, -0.9194687535047384, 1.217742063403378, -1.4931098493515542, -0.26242799402131234, -1.8468647479301348, -0.34427571678292107, -0.0666393255251013, -0.166851493490819, 1.086575284615699, 1.036916705425759, -1.1560944189660622, 0.32266904906175586, -0.0625543407665172, 0.1527502685783134, -0.07601190788456341, -1.9156935326510067, 2.276018706992043, -1.383622293703488, 1.1228712334097688, -0.9017107064702886, -2.052609768665676, -0.3524810748804301, -0.8200977052881956, -0.7690616729787646, 1.5455298366301236, -0.3742414255297623, -0.6094842992408241, 2.2654573849574686, -1.3739781100421562, -1.9487812795953239, 1.8177017988014752, -0.39339526514304024, -1.5743107863341093, 0.5339243472521877, -0.11173785007590234, -0.16825235845658593, -0.20561522299228005 ], [ -2.2680026388658647, 0.7381313127373796, 0.20657004357411718, -1.2255164224291797, 0.5888372494279, 0.5304022934670034, -0.16001102209294013, 0.5375836215767468, 1.90115257507036, -1.7646278943908704, 1.0189274585810366, 2.1408928490417534, -2.9349155445478554, -0.6222934440240359, 1.57400630271358, 1.3939759592448584, 0.3446450549340616, 1.6433866759053297, -2.000094956732265, -0.07825293086624555, 0.729920489549308, -1.4300263170249912, -0.35652782618590656, -0.34526957941589076, -2.020102888807582, 0.004592920289723097, -1.5106836728904431, -0.3635533850205172, -0.6764757451281731, -0.29868379195623024, 0.20975705181201712, -2.362979446474077, 1.6959015867605527, -0.730174474399761, 1.9523860133194477, 0.9531008512279994, -1.216983653781281, -0.7220374756227196, -0.6359376463848224, -0.12540368524857023, -3.698844489105518, -2.3572833175104457, 0.19627822078939752, -1.9777176879797542, 2.132798559385094, 1.3724279923404386, 0.5367102839027453, 0.29669911317227066, 2.361517849509584, -2.1213997079058524 ], [ -0.11516207605739212, -1.0913972550862805, 0.07755787029860356, -3.599473694305773, 2.237620808806764, 0.5489547361295696, -0.33856138170907835, 1.3494475644814112, 0.9193724161871615, -1.9391087154475837, -0.31643056592948343, 1.1822134353971683, -2.074614898218633, -3.9948221590272395, 1.8995951710408387, -0.8122498866027651, 0.4497553954610624, 0.6986953483634106, -0.8813350956272532, 2.0522420139896393, 1.2588631167815505, 0.4195477930082799, -2.510736384123324, -3.022243597955253, 0.020000539948251767, 1.3807203736304878, 0.2892196130650915, 2.7268546571804335, -0.8505381099368823, -0.24179630897935475, 1.0363051052534495, 0.11612041666559199, 0.8042839949265947, -0.8819437124661829, 1.5009022603849766, 1.00787740286745, 1.0545159958706873, -2.1605297366244813, 0.8426508011631966, 0.03602509103424041, -0.13232793012352378, -0.2131169686515615, -0.9708513769993445, -4.806640862528896, -0.19563600885314536, 0.8977240352394001, 1.2537964338659184, -2.190177739812267, 0.6886847194323417, 0.8546084990451194 ], [ 0.6802724122611565, 0.43658018153488953, 0.21114277971712547, -0.20552315108885927, 1.1218722287661487, -1.6497505967247537, -0.06075173412752504, -0.2521642310819846, 0.20151112850790018, -0.19863232903913408, 0.7772795863115148, -0.16066119315418584, 0.1552543019058466, -0.4033470555412353, 1.017094115080741, -0.006731913590874493, -1.5253320727249458, 0.2617148161364195, 0.4069044064082984, 0.012441384976129583, 0.7044780522285856, 0.006941602325884347, -0.21348374421487884, 0.1556606726589551, -0.887451866528754, 1.646411021558963, 0.6279241915001926, -0.31665889409796916, 0.3796509697366206, -0.2476174389483825, 0.15367359160147162, 0.5234025921301868, -0.20419105584616232, -1.187759351977958, -0.15687916292066165, -0.32371961229637947, 1.9276240435465681, 0.2038062326938955, -0.978707923759325, 0.1898693016788152, -0.16862262588146323, -0.3310077423704499, -0.0994763954634116, 0.11849827170722992, -0.6031170620138526, 0.48886987117957825, 0.6069849176731584, 1.1165732131357013, -0.45978112423410517, 0.45629093427333356 ], [ 0.6496704149630843, -1.2597274407929722, -1.8285148409427443, 0.7589564223309243, 0.28141427839632044, -0.8688540984766941, -1.0764732650034965, 0.40425435990994607, -1.2815587448115409, -0.5172478174657943, -3.4569987516363274, -0.6679202434703713, 0.5651677602654331, 1.5754444922658093, -1.4267018959274824, -1.2929533736094838, -1.6995711047962865, -0.5132019999327676, 2.113240285411383, 0.7558664149489761, 0.7852390243672814, -0.04376042799244662, 1.017971001396669, 1.8205682064472377, 0.5587480664952603, 2.968596436286096, -0.2841205130351097, -0.08469559282274593, 0.1516277169927439, 2.348255113824687, -0.09913873099091344, -0.5281126923004008, 0.45874567736646243, -2.0488957888744155, -0.5458089066908783, 0.3832650833835071, -0.3241609648359966, -0.2633781750455358, 2.3483326803031668, 1.317741971889241, -0.5409823642141812, 0.4302731681382047, -1.3385437257455233, 0.17054177834008452, -2.642546337103066, -2.2545329978874276, -1.822271471793749, -0.4379103725945236, -2.9368904764533634, 0.2600683317079367 ] ]
  }, {
    "Size" : 30,
    "ActivatorType" : "Relu",
    "GradientAdjustmentParameters" : {
      "Type" : "Momentum",
      "LearningRate" : 0.01,
      "Momentum" : 0.9
    },
    "Type" : "StandardLayer",
    "L2Regularization" : 0.001,
    "Bias" : [ 0.28541851992105277, -0.5920497608465745, -0.456801950159433, -1.8796632541049643, -3.306398308669556, 0.9402248102665065, 0.31753797399127137, -0.19630428898870061, -0.41792302292877875, -3.6309038069369213, 1.139035183170253, -1.0891743233043898, -4.208905064976928, -2.3940243533239998, -1.7769617628137204, -0.964691185353139, -3.461335907932327, -1.6008560563084377, -1.176952940494688, -0.17780960543430627, -0.7118979512352462, 0.5196119486103602, 0.13857972711024086, -0.5598356222331206, 1.1030957269003905, -0.550424055220674, -2.3051114489789053, 0.221770319148593, 0.1441770993772659, -0.29827477106298145 ],
    "Weights" : [ [ -0.45899130096017127, -0.004570996829617488, -0.1345606861344345, -0.009632461135495261, 2.2858412824876804, -1.7694307113424748, -0.011593364196753284, 0.5720174307525814, 0.007973141646009953, 1.2939235410201042, 0.008383130941402476, -0.4975262201390636, 0.5086214803526019, -0.001628673327180048, 0.5060333420896469, 0.21416697982700494, -0.1388517953237815, 0.10716095374582614, -0.037952435446592034, 0.011274361942134815, 0.001756117003904714, 0.002998658756093364, -1.2344571642185216, -0.0018527531625610182, 0.15540182358888902, -0.00549874896834227, 0.27622026114879045, -0.3536423546124744, 0.08075030680172332, -0.06476315182371746 ], [ 0.6221669357329931, -1.4359326312377252, 1.25818662407694, -1.1166715049539901, -0.26897621169720737, -0.47717937917366166, -0.3653702777708925, 0.13663549253812876, 5.922791603398649E-4, 0.2720327352114439, 0.11506207503139386, -0.7461604181333791, 1.9177380690740367, -0.017835664688356023, -1.444269748615366, -0.44075047205611156, -0.9869972906008861, -0.355344919049488, 0.27933882749969474, 0.47399786532240934, 0.0034355200701667137, 0.4600033904126706, -0.5934762119936821, -0.006620940885651764, 0.7641604305033528, -0.004307903173356821, -0.4044954135605742, -0.053554418380788345, 0.07158356070813719, -0.7553007541049555 ], [ -0.5843458411390454, -0.7866748502681097, -0.3139176344992875, 0.054371091092346224, -0.6770121002975535, 0.22879963583410148, 0.3488224771268222, 0.09500615489577967, 0.008259123167235346, -0.5244098124603513, -0.9762375280561838, 0.06350003188844185, -1.9561850597365378, -0.0032916934648393958, 1.2712310995564287, -0.06573278876042517, 0.34454671657830627, 0.37222461764597836, 0.43018711322093056, -0.9219137835875316, -0.001286823584341696, 0.25829656554117303, 0.6616914336509458, -0.0048575024268744165, 0.7022146839518952, 0.0030638265745185603, 0.8166644988575044, -0.8751856915667836, -0.03425948200976586, -0.33083938603921775 ], [ -0.992717460868611, -0.7827413172320173, -0.11722761558480688, 0.05717734586003073, -0.20512598311255242, -0.06440070016438407, -0.009492105414458062, 0.004635214327460959, -0.007082531785565201, -0.37664573093198944, -0.007847605473414114, 1.5513524828528653, 0.6439679879837099, -1.511995214418955E-5, 0.6031030239607892, -0.0024529971376456433, -0.3868179679296759, -0.4200528130350922, -0.20136030485326312, -0.007229737307039467, -0.00907033936887059, -0.0076362070603186024, -0.06512906825999974, -0.005445821002268679, 0.0066174238422511324, -0.015056340614819868, 0.6064396335997873, -2.0251435998556464, -0.23084600253704257, -0.21642924970653127 ], [ 1.0242426035597745, -0.3007290928377691, 0.16346928173129618, 0.5241783168426537, -1.357392729568338, 0.23801591447629852, -0.06302113775685768, -0.05777422216009556, 9.746654323779717E-4, 0.44960922496447014, 0.6563816835073467, 0.48597206066736653, 0.46247584208914416, 0.025638879114862272, -0.7575706432113977, -0.39938100857185393, -0.09340283834217854, -0.6591864181909062, -1.3235110738349292, -1.0223762447507778, -0.006389053343327694, -0.9975159332082348, -0.003743651533585162, -0.0030925291814987424, -0.057857060344775404, 2.3094035770124792E-4, -0.23778911093645805, -0.4923829911482761, -0.09136741887998914, 0.3288787006290646 ], [ 0.8720241851207672, 0.4372295155451394, 0.07797282334363405, 0.6431532613190581, -1.1274489445637812, -0.4346793138040838, -0.6844026300490302, 0.016312335689434646, 9.734578981424955E-4, 1.090740672192291, -0.0393806436584651, 0.21030160434063735, 0.8647275344376749, -0.005484664824844393, -0.15923141373497177, -0.5498511801566761, 0.42894739309752206, -0.1480742513217644, 0.3104354177576958, -1.0750794047374053, 0.002233400351816425, -0.29699874145643324, -2.7080026146537093, -0.003569209407657697, -1.7055071530350885, -0.0010409642107658205, -0.9440708606515356, -0.07228948523953475, 0.44484306960559655, -0.6387789159656643 ], [ 0.14524269199908008, -0.5977561980096011, 0.9417828993898143, 1.458189989157413, 0.019497583504081425, -0.3559890011596326, 0.2209832053433272, 0.5777848026252446, 9.529127041048689E-4, 0.47823308094914296, 0.002565090035852779, -0.1317126047428526, 0.9189013133485779, -5.00683053831315E-4, 0.3450027324648888, 1.1295076386035747, 0.5904604720740725, -1.803697713180537, 0.5227097462897642, 0.021974314795441076, -0.001748928212892923, 0.102260320772174, -0.17260708243515507, -1.588913139468036E-4, -0.47470610095989685, 0.007913541511157902, -0.4022776185220648, 0.5977118097166938, -0.030516604220816094, -0.021327198348102303 ], [ 0.7421489143138624, 0.20285547648907865, -0.24243022010723964, 0.569329029910855, 0.19310336085568733, -0.2385802982045894, 0.21056087038873797, 0.6139971135437957, 6.24229535667033E-4, -0.17442073414616044, 1.0130982393325882, 0.15417463753683036, 0.7320017901848556, 0.02094037811186717, -0.25303783546876646, 0.6486969724679135, 0.11135156843251742, -1.0086047240467109, -0.24505237269383015, 0.14684705239389675, -7.423534137022322E-4, -0.630556779958681, 0.012505578944077191, -0.003996256953728077, -0.08875395876931802, -6.379099469642724E-4, -1.105315248486576, -1.481237030889846, 0.16730519492400406, 0.12684951518727722 ], [ 0.006612675610196112, 0.032664735562537336, 0.27670017205076913, -0.3842088337384597, 0.5572095256021549, 0.516962652461683, -0.0975976368838682, -0.05243022691183293, -0.010166476607504521, -0.565370159216204, -0.3252248553106247, -2.0512034535343986, -0.9956216081939595, -0.1370968680311132, -0.7473447367695172, 0.05632171664767786, 1.1466447555912367, -0.45748767892531267, -1.8947548206869695, -0.10748782808033655, 2.3743934974914337E-4, 0.2531548806135926, -0.36489572519863267, 6.852369076111673E-4, 0.3683672332202386, -0.0058874464183833715, -1.0978263407331228, 0.0029629077250030063, 0.12201392915091858, -0.35698355118027086 ], [ 0.7427670172169191, -0.2783614162400941, -0.37256235982441105, -0.7356871694453334, -0.3035473906586315, -0.7929918295385333, -0.0610863610024643, 0.06622147253979707, 0.0016336519619310752, -0.3622370120748649, 0.57977130286877, 0.010670805036415203, 0.13996405715478472, -0.007900412714371884, -1.7450521050997345, -0.5390863059532814, -1.332775576104574, 1.2692273753597527, 0.2833681539482058, -0.03686433180155071, 0.004656383457713131, -0.054053180229525884, -0.5461118206852854, 0.0037479732069383292, 0.4910566427600997, -0.009881843572434955, 0.5912086202184779, 0.40313737278712786, -1.0012768454333916, -0.5795937535401066 ], [ 0.28334067620710085, -0.0029763535210925564, 0.43392384683698126, 0.01364967057194535, -0.9972126434994134, 0.09339662012978502, -1.104704090850974, 0.32078232060242273, 0.0070337438567097095, -0.3402009782523635, -0.7068444377166937, 0.07407972033172346, -1.5708896635217757, -0.002335505622149829, -0.06326810402744648, -0.2223764532221476, 0.6082136970855022, -2.0470025529865103, 0.17071584429689143, 1.1598931711334588, -0.0043236786200961125, -0.3461448030087022, 0.3663191950871036, 0.0013968976002488108, -1.3677418038201392, 0.005579181741140816, -0.36931925782201985, 0.7764193360416171, 1.2708603967263674, 0.5169902067883664 ], [ 0.707009822881809, -0.5276702661030025, 0.5315387965019576, 0.6215108495959151, 0.006449892986523807, 0.3829557944834048, 0.9100492449489709, -0.02216428327772561, 0.008583329810359287, 0.6368239132285662, -0.406015594542473, -0.4468863561707055, -0.7786802968891838, -0.13251615405303188, -0.10075206912235037, 0.1804107288111925, -0.005195902484837363, 0.5589528237791662, 0.9575049008831823, -0.42876546305521207, -0.004896664489604574, -0.4536261850165783, 0.09970873031401849, -0.004504966512051529, -0.22963538203297768, 0.01031265797215903, -0.418735441968213, -1.385203268115832, 0.20410509271285376, -0.29278010062337095 ], [ -0.6196638223962433, 0.016546218848444958, 0.042228625665633276, -1.157841258695225, 0.8381533288595222, -0.5945224993649064, -1.3477354284943712, -1.1523633697281181, -0.0039010895413774897, 0.5726497113620532, -1.775961859752426, 0.9288660924895124, -1.093567404347033, -0.014376471243600303, 0.8147043372660953, 0.590621231852118, -0.2347120116621977, 0.42649327678489274, -0.4679261407012808, -1.485472966290072, 2.0385157982813034E-4, -0.28590041800352467, 0.32995124429699607, -0.0016821810276263108, -0.6406526026421513, -0.017834729301143215, 0.8797826160606692, 0.8379699763848543, -1.7037631352210076, -0.15848022567956935 ], [ -0.1473576563456195, 0.9410269917234763, -0.11424028720157864, -0.39316450829090405, -0.6697902435538886, 0.011622661951542476, -0.3167562645696748, -0.08711867250973172, -0.006765643145732941, 0.8219738635556799, 0.74812014840026, 0.5179670398134226, 1.1818491557837298, -0.010898937894540457, -0.4388931301804988, -3.4512887074309324E-4, 0.81911718949727, 0.30808810007422516, -0.014377079366293215, -0.009832595694139178, 0.002542949064561698, -0.33417582041871785, -0.3666783152089256, -0.004304025026662946, -0.5788145859161629, -0.004009437160842341, 0.26982849965211353, 0.6649238353275412, -1.7674063193790384, -1.367614612790399 ], [ -0.3020477173093687, 0.8898910537761232, 0.8326774363676657, 0.6813642931895995, 0.0660299992707215, -0.1845381380980022, -0.4558640990845541, -0.9119563143491555, -0.003362905052519146, -0.6972258652229976, -0.7371980621416574, -0.1926530934374632, -0.9473003741590136, 0.03873803478270977, -0.9282940428058686, -0.49008840311851504, 0.8033711005914451, -0.16445335636558128, -0.3077365299680203, 0.15968108485700097, 6.40843799662065E-5, 0.6377190551769943, -0.05486950398101627, -0.003582224744396175, -0.17134033588064376, -0.005137361270049489, -0.32853316180829906, -0.4463614932553679, 0.4880957510582426, 0.15960422247831657 ], [ 0.8545118826599778, 0.41931921495872104, -0.05009607143766607, 0.29284071679817236, -0.11694403009654676, -0.22607343038446281, -0.7941499304475765, -0.9816647577407024, -0.008870539197862745, -0.018304647799396178, 0.13990768524350752, -0.3398398605152686, -0.3225677087638571, -0.14004726814415971, -0.5286646722041776, -1.0760867558683842, -0.3597476916142232, -0.2410683688542068, 0.16996798643515035, 0.014437721839274352, -0.007259278490316557, 0.30628420277550583, 0.24794840699421083, 0.005282790491060077, -0.5781609795221775, -0.006145697743386752, -1.192233431267254, -0.41022758911904067, -0.14694791264322432, -0.8993660064480131 ], [ 0.20920055631400186, 0.16691476170352226, -0.17656545625358624, 0.48593350551013365, -0.36634457264312814, 0.13895990098798622, -0.8514558153541106, 0.6200749930046466, 0.00645284544536915, -0.9485059041645179, 0.5491165497880753, 0.7818143330494444, -0.8535163945943983, -0.004047578222873904, -0.08810434737125136, 0.7579498644985522, -0.28191501750811726, 0.11526470345550063, 0.0029004777214023942, 0.24419703205738075, 0.002451695270693603, -0.0017315587222517745, 1.000713793151386, 3.1109763303528286E-4, -0.31598566009612195, -0.0019388333886076713, 0.35175382790988885, -0.08673441594619116, 0.45297557576179165, -0.07716958093322572 ], [ -1.3404715346201603, 0.04006729293969618, 0.12177258691163714, -0.3777099448911041, -0.002823256796349068, -0.915543722951913, 0.14705421214839093, 0.122878949715262, -0.0034947714747588857, 0.37823187625282917, -0.1698087426628327, 0.05334471416335555, -0.47837556270094, 0.005915171336464426, -0.06884807007817778, -0.12926663955695394, 0.2065124886658448, 0.39436704784196974, 0.39759358928999755, 0.0013342940117578956, -0.00939556236290576, 0.8563593624205698, 0.213995060245718, 0.002095507856941596, -0.36249588028854157, -0.012379774187775241, 0.009634109759557875, -1.3441614639873325, 0.35342976433802076, -1.0303471970706266 ], [ 2.0162227863544593, -0.9958940555472128, -1.385573097008226, -0.005302187173608603, 0.31743299441999984, -1.347951407848258, 0.0050974850351482555, -0.6453368310589406, -0.0019596027342872243, -0.05133462212176161, -0.11965421836296046, 0.23149887750895376, 0.5987798189730189, -0.004634414334719026, -0.7096677526682479, -0.294561246667779, 0.45782242585045935, 0.5907807429714826, 0.02217003529320581, -0.016763114280401472, 0.003502196049357631, -1.062109602723007, -2.0171653242349157, 5.844264652327804E-4, 0.7954641521084163, -0.004482791268791508, 0.15488515607560766, -1.0017115212155019, 0.0988280090400481, -0.8445822228446037 ], [ -0.4481728753421566, 0.38161960860740457, -0.0659710486525653, 0.11849284773656085, -2.5353449353984754, -0.7121364422191453, -0.10299182308170739, -0.9092498140833436, -0.0014649046633332262, 0.015235717910012119, -0.279536931393945, -0.5079392772719628, 0.008185965650940515, -0.2288099058461565, -0.45699687489232277, -0.5067033208047019, -0.40104743159415757, -0.2105704882774057, -0.6006998921370333, -0.39267280412611916, 0.0027512548592261332, 0.4672555602514161, 0.17239816976410133, -0.008746969733938804, -0.5836530985691196, 0.0014077913542074457, -0.12942216345242705, -0.9008562320489398, -0.03482133847011946, -0.8792217896999555 ], [ 0.0373202548939839, 0.12259253686465847, 0.39059590361407936, 0.5491803984946043, 0.001484738275902973, -1.609681193012027, 0.4897971088457778, 0.29635429817080555, -0.006361443426200978, 0.3270370549988393, -0.11016810407114584, -0.310313115752189, -0.023923344968009783, 0.06287735704582292, -0.0019701316281173745, -0.08241205293463513, 0.3691763348223812, 0.47827545840705554, 0.5040779634482229, 0.1359839772374333, 1.5972742251507596E-4, 0.3315964746391657, -0.20804636427251033, 0.0036582839855728807, -6.184506163059845E-5, -0.0010992978104419576, -1.678466329993549, -0.7387256887040395, -0.4084655225343795, -1.646657899422679 ], [ -0.03285231253772267, -1.0799386797684623, -0.21543899008377543, 0.5174418619366543, -0.6723025176405043, -0.40837978819693194, -0.015077059394878417, -0.8732692724887894, -1.728275124003312E-4, -1.1094948838971483, -0.049134778294954676, -0.2273534375137082, 0.0031122147538028373, -0.008609771848693762, -1.8108569586355965, 0.8719357231089684, 0.21535967350094867, -0.2751672064239733, 0.6501309430373162, -0.47926316323948986, -0.00344750110043393, 0.31091932118208787, -0.45981807848679784, -0.009389913499888061, 0.3957298171238109, -8.059636338390309E-4, -0.10603462015742311, 0.8644724780570895, -0.11091182785677783, 0.8587841992745037 ], [ -0.17249893890070192, 0.586634358524096, 0.09952376863062136, 0.19700006777154389, -0.33906756522455284, -0.2077609262396688, -0.7728077113542384, -0.9861598799558811, -0.0031238032985346988, 0.6151221582298767, -0.6174970947313498, 0.21358335056770686, 0.3947811250370466, -0.014860672567524826, -0.6533248036779689, -1.6611576221882034, 0.23967577764548537, 0.3140739823970834, -1.359586018642072, -0.5825881391765844, 3.82972265114541E-5, -1.023750373336764, -0.025960382828473575, 0.0021739688134139916, -1.2157692332961096, -0.011602477759695072, -0.5834629957234906, 0.27927412494426423, -0.2740746590830557, 0.48373578196762945 ], [ -0.21739889618287989, -0.4285845614448764, -0.9123996572456918, 0.3903907022030304, -0.28644367382741814, -1.273763629233706, -0.02319690665381014, 0.19406751839790684, -0.006854283333300422, 0.7461599687529245, -0.9527646500226851, 0.6922444023329346, 0.09350060211620968, -0.01058148038034822, 0.0473030343081199, -0.8892710550434052, 0.6381117255505595, -0.2833088902134035, -1.49412959651908, -0.0105984044739634, -0.004962051667913442, 0.07926440393522367, -0.3812905580138278, 0.0011446538847785614, -0.6542266007234272, -0.001413633421472047, 0.8100031015895408, 0.025170395773899616, 0.5247387189093636, 0.3175700583293864 ], [ -0.7882854095312543, -0.8718023409839263, -1.3111589285028968, 0.15876898398123748, 0.6884568563439645, 0.18083166278841561, -1.6435285561155224, 0.6291072259745467, -0.006890970287818413, 0.2338550263220855, -0.16317419427036978, -0.36269385557288863, 0.6944955622593896, -0.003105283262934306, -1.9267380651248012, 0.4904431009421349, -0.8757576423304371, 0.4895005710881887, -0.19844178068770263, -1.0139271814721484, -0.002966084037727187, -0.5709535301841109, 0.08150550077748346, -0.008462712355700992, -0.21250100265523264, 0.0013658928826507015, 0.8706793682376265, 0.16649807807367253, -0.11394640102667998, -0.6168593676184674 ], [ -1.018049865801179, 0.1703885404758507, -0.3132542233348534, -0.6867395791167266, -2.4425656396858892, -0.31307520557942314, 0.09598969381358724, -0.4114749269281803, -0.004516346203694407, 0.18019165408567892, -1.056468186115794, 0.7070354994550478, 0.0020937184691490794, 0.07159095288649195, 0.007209418731186738, -0.3389591538786106, -0.2997888409544974, -0.3777917941522783, 0.16739119996270932, -0.011909647306355365, -0.008023974361944098, 0.8045600332427034, 0.3547333514931816, 0.006294257468839053, 0.1522208551410683, -0.006452255303484879, -1.0254190108055479, -0.21371405267091728, 0.6155558995815226, -0.14636798267101347 ], [ 1.1914825264357345, -1.1496531597181243, -0.2427715874429232, -0.1884930090386901, 0.2818852274550612, -0.011579036519426964, -1.2199721119085165, 0.8572015296537027, -0.006492687865820061, -0.4871721823664265, -0.19548541962913832, 0.38930594906931015, 0.6761396586337564, -0.014248374251721414, -0.8002744372098859, -0.603058853046101, -0.5999949478276367, 0.11292380036765706, -0.9535156287214266, 0.6357289532131011, -0.010081113516975366, -0.06444581324879159, 0.09420648563208976, -0.0038047849673615297, -0.14832198792156823, -0.009988072944987351, 0.3063538321925481, 0.041035222628224635, -0.0017431205417958134, -0.448381402288539 ], [ 1.2760903476939636, -0.1383439777338309, 0.9728673424074135, -0.877416357311726, -0.5042109649302409, -0.12960844313312755, -1.291766304529937, 0.4842574311119131, -0.012537962855240172, 0.5244131336232258, -0.7667602460826626, 0.7784757602774707, -0.458448723155104, -0.006050313174139499, -0.20984646214682454, -0.7722627391759694, 0.32501163117014115, 0.0039050490374624974, -0.09790494967298558, 0.6542718942400877, -0.008224399272316042, -0.462548854849086, -0.2380684215538057, -7.911170609877195E-4, -0.5403223104356989, -0.012087623713426058, -1.2976266575989484, 0.10660747136265994, 0.36396831461665724, -0.49259558039277646 ], [ -0.7303693282499485, -0.7170921985318801, -0.7043951115012411, -0.09122237399784282, -0.2905347087597847, 0.3144566062012054, -0.456786205607865, -0.004215766955449795, -0.005217307864484228, 0.6828903391862655, 0.7482003104561995, -0.13077162445717494, 1.1914085316000247, -0.004457094018408128, 0.17790914102402333, 0.792136431864746, 0.9595114677690224, -0.08556716018436668, -0.48336914953231147, 0.16651480321490453, 0.002996901469442471, -1.1056454603864634, -1.5847305120849964, -0.001518674871431377, 0.1590624665514082, -0.003527199536867229, -0.5889397528640603, 0.6286345285837381, -0.4081861518376394, 0.4277777440633465 ], [ -1.5348380024486157, 0.05062042665819355, 0.130663952131531, 0.36925433333332436, -0.7341168177658947, 0.2111862458393311, 0.29701916441705434, -0.451485068236564, -0.0030247976110718998, 0.45696659245501314, -0.44512111437297214, -1.5150804150559012, -1.4865522400122335, -0.01627206296907014, -0.13260110359536112, 0.6421849075300293, -0.5799462707436948, -0.4771894963818916, -0.25575037012278096, -0.1125930697214146, -5.734783983368194E-4, -0.0991305771786905, 0.3601454113131146, -0.00835667765497513, 0.2295789659690555, -0.017552768180988977, 0.028041710069102988, 0.29548808367047147, -0.7215899432910295, -2.0043907692595124 ], [ -0.2217302824459095, 0.23155184511144264, -0.1118799613223106, 0.11905432127876515, -1.6955493223032965, 0.2833600746743009, 0.013391200992699945, -0.020461624080758106, -0.0059305889702903885, -0.4113298806780355, 0.08520239103360266, -0.549673849279815, -0.1800959836018363, 0.009800021580584371, 0.16955906418449807, -0.7808437052008357, -0.25809972885946597, -0.4657786273987543, 0.13386677507104902, 0.033003348531211854, -0.010371055399834723, 0.019485774759041518, 0.4557834991898638, 0.0032671102536603277, -0.832793771562795, -0.0013408400343736223, -1.1436728086932546, -1.2560147796313568, 0.16762809014936111, 0.45802421274321814 ], [ 0.5300476364791344, -0.03100089631192147, 0.012393545558890981, -0.7542168148474088, -0.24553768265159792, 0.29090655293491946, -0.981427203470807, 1.4057679206330176, 0.0026231241036049316, 0.398603403421281, 0.09714150519335184, 0.4567368797343071, 0.7955799865922689, 5.143383860955014E-4, 0.611087709626121, -1.6660081018989092, 0.778514389151339, 0.4054498619914685, -0.15208181777629778, -0.25287747568644336, 6.089945159057296E-5, -0.5467219367303815, 0.16529062010360415, 0.002586754177096096, -0.7207508423720526, -3.733383574976753E-4, -0.8237210383393061, 0.16163091701503798, 0.11834760922497885, -0.43439009229622666 ], [ 0.35042002514497766, 0.29578513577387333, -0.2563675975760461, -0.3695937802521734, 0.0024903684477512993, 0.39635003451638084, 0.5643243169169401, -0.8878985415100407, 0.003488779417411529, -1.4133216782680171, 0.1226166408404277, -0.016099439586339786, -0.46151722684847435, -0.003085681704185309, -0.07136824709408322, 0.3626283998677716, -0.3535599828040533, -1.2539344091956957, 0.1307628371615217, -0.7697951380471661, -0.008974012926752657, -0.15515923864424255, 0.1413033547996339, 0.0058535163016467575, -1.7061496343854128, -0.0034535981739548176, -0.6380499214365006, -0.09678227256736652, -0.05745753384000286, -0.5079789992473461 ], [ 0.7538162805685339, 0.007499220382657716, -0.0325510946160625, -1.5224074057670902, 0.35887832348604143, 0.4150667676280369, -0.2171920789229803, -0.7851781300517189, -0.002636729941760088, -0.8906252035079913, 0.10458204817207131, -0.6104252972540317, -0.22726404043929135, 0.004431489055035059, -0.3807640771045759, -1.0064053149946732, -1.3352953104202434, 1.4077777834589207, -0.14849601487956365, -0.4057450774693151, 0.0038258125551864273, 7.002025963650214E-5, -0.5388353425867798, -0.009719064674791228, -0.20762517497977886, 0.005227265000542491, 0.774848238960751, -0.1911189007133649, 0.9554947314588251, -0.6341642383014012 ], [ -1.1697777648466883, 0.3404956675433159, 0.199110750738638, -0.35839422662036463, -0.008782318706596027, -0.3925138340448732, 0.132471748602883, -0.7941412545299146, 0.0035944946572710537, -0.09198820337560626, -0.037208131731227764, 0.1072702576412432, -0.6227145788004544, -0.013361940641364839, -0.4214836670031192, 0.4796773770798299, 0.20984670155560198, -0.3866217406887735, -0.2688925595782854, -0.33744188068591213, -0.007015694467104082, -0.26240129206844826, 0.5093102591485357, -0.0014983129121325706, -1.3015166964063787, -0.0029504962108297377, -0.008479648505541898, -0.5726338757309618, 0.39385276074530046, -0.9482260051821431 ], [ -0.20327833405811002, -0.43761410551214336, -0.8087935269979949, -0.0697987911185514, -0.20255988175795606, 0.05777530968720542, -1.361992926400517, 0.3050697794501084, 0.004192065640136572, -0.2926569544691203, -0.3845309237498231, -0.01059484268179421, 0.3382870898452494, -0.009105539448843354, -0.6405206718048376, -0.18533669137898526, -0.44240347788527346, 0.2633123820762217, -0.3002858777141982, -0.03157480539973142, -0.0059621660939060545, -1.9459442850299908, 0.6628178694179548, 2.510130375739571E-4, 0.6049230237592907, 0.002676563587270331, -0.2637557515182184, 0.055916166122862, 0.0991642554821353, -0.07381722350159452 ], [ -0.0796555254595865, -2.09570745029647, -0.23028245014116727, 0.1453584154515483, -0.46259704360680226, 0.12717424930025067, 0.4286064605419979, 0.28587953408265776, 0.002006887050854711, -0.13987289298637975, 0.3405213624838407, -0.1765383047249928, 0.8748330641274962, -0.008728574532433203, 0.04368713560296759, -0.4924310997250431, -0.20677628377206245, 0.5252834201896442, -0.24566429085118646, -0.2386021637387947, 0.002807817124314131, -1.278561174798389, -0.327119748453115, -4.6562104668557695E-4, -0.6063197807848133, -5.536984921573311E-4, -0.41816300812580676, 0.4332490373151851, -0.16512019552900387, 0.171810455912963 ], [ 0.4238567014605979, -0.878390118313416, -1.1246243379336045, -0.1937941069482151, 0.38249836059926456, 0.15091111719288222, -0.36245176691778047, -0.14317972518353786, -0.006860133225035066, 1.0869426958330815, -0.03665105619526574, -0.14077704108112327, -0.7352277509661221, -0.019531252295628153, -0.8406683772121298, -2.9952513695799174, -0.236962731598262, 0.011079623805197518, -0.40188956317433855, -0.9974400977489101, -0.005743523351061585, -0.09346771765025554, -0.4994634038635953, -0.004056411692624937, -1.0758356187786584, -0.01558872960181933, 0.5670873295367358, -0.6893081479943509, -0.11306956815631503, 0.7809449789396731 ], [ -0.3381726885995978, -0.6120745180605012, 0.6865978252584747, 0.6719828352303903, 0.04375709031310941, 0.48234309981631157, 0.35583863952510275, -0.28005384699292996, -0.0010281940673967066, -1.0001496769800753, -1.0399581273120304, 0.49996044192487993, 0.10157783874111373, -0.03886181812138937, 6.2158264456536E-4, -0.583757687593365, 0.6209589658049945, 0.29861748456037734, -0.7748360965082924, -0.7109190112327267, -0.004638329319133495, 1.0438773567881139, -0.17714676014061165, -0.00946477238806921, 0.34870986240986457, -0.0027561120826217283, -0.9611745796639406, 0.2865548362692601, 0.45437092204609913, 0.693933648307872 ], [ -0.7902911886619399, -0.2173598442161258, 0.10047509503165113, -0.5320591984697004, -0.3637084513109337, 0.28149878585254245, 0.17142712677623154, 1.332907304017259, -0.0041108008108995415, -1.1176359111287801, -0.4079900771619234, -1.198453499642696, -7.139370653297381E-4, -0.03787781823589462, -0.8128768065030714, 0.7539886715457104, 0.1541610949567756, 0.6144005284244697, 0.7435727584138251, -0.18526961082811777, -0.009376029097202322, -0.4166297505668026, -0.6942195786114198, 2.0529957857225433E-4, -1.0033335781713049, -0.004085065921609382, 0.5181496352364409, 0.3541028142623456, -0.7430835694834759, 0.13538453524667043 ], [ -1.956689853635986, -0.005140823688277137, 0.3173048072601144, -1.496172150104547, 0.7118833072646198, -0.2928424565284514, -0.8751774337637902, 0.11044279046836741, -0.004383019812233994, 0.8158475236236207, -0.6929214648776597, 0.7851639312348849, 1.054646885540997, 0.0018133537320572362, 0.77652047222875, -0.2500640984393115, -0.3578775288054546, 0.7534350799665267, -0.41045741264800933, -0.6374823101369218, -0.0014112475442022699, -0.2550567317176863, -1.0938791474557286, -0.014423403793884685, -0.8473280963483782, -0.005246155716931275, -0.4185810595014427, -0.28399268165651914, -1.3157305045481384, 0.6863162037375108 ], [ -0.2911755907588744, 0.6102302659138135, 0.16622257578526653, -0.5604055270625676, -0.3279467983593862, -0.4034549039369807, -0.5266467335947764, 0.009136311530441922, -0.013371796648069076, 0.9447940278682793, -0.8030871881141576, -0.28448694023380394, -0.012913224177649268, -0.01788203641796593, 0.05498649386226212, -0.5062739223495962, 0.21882964329425142, -1.3332248634708719, -0.02476814025383506, -0.44896438891560897, -0.004473491106163345, -0.45965573207680077, -0.6027492439431075, -0.009733238570606439, -0.5079885842452289, -9.905121879181015E-4, -0.1258672185439804, -0.2758832937047428, -0.08125510789399173, -0.8192193208666106 ], [ -1.1314654853991974, -0.4821057138964103, -1.021935263200742, 0.08765929366044085, -1.0508925190781742, -0.7618419665557238, -0.6521384619983612, -1.8618269206167357, -0.008537225326762895, -0.590761751812986, -0.7306132221313306, 0.36046477425309065, -0.5989470046577342, -0.007286463409897914, -0.27925877580346153, -0.7247695970338177, 0.5286686388127624, 0.46467243954524207, -0.14018518599357677, -1.2563978633091502, -0.0016011527788004235, -0.04483160985342645, 0.8650783236885238, -0.002604090515303071, 0.8506802746350473, -0.008614968847461775, 0.37344332364382526, 0.24822087379204924, -1.2669511561072104, -1.1154263230196513 ], [ -1.1711316840318597, -0.568401836906942, 0.07620341273855116, 0.2702320343560231, -2.7060383857188453, -0.06674355945015328, -0.004564803136780752, -0.12802979696356306, -0.0010483331539351596, 0.3500512545341323, -1.4828671503853252, 0.4653776102203527, 1.382356649706381, -0.009926455000103262, 1.0531928118820182, 0.003904035530215762, -0.5758034343585942, -0.08862977409489421, -0.06622089396118808, -0.01702865850220553, -0.003317690047860448, 0.0013912017161963504, 0.183241579369026, -0.011817150619319924, 0.761215691751892, -0.004574053516779248, 0.301036223594339, 0.5168350428335039, -1.5837187357374394, -2.3112141806097304 ], [ -0.44675392601784086, -0.3178704972237111, 0.44002796504433395, 0.5257457295806931, 0.7374536194329043, 0.5154412044383183, 0.19369961260022753, 0.5222878110688731, -0.005469931721656754, -0.40753852963328474, -0.004598352058682452, 0.10552989440906738, -1.0661378038512688, -0.027011757126930686, -0.29167391652240815, 0.7539948594709821, -0.15888696181518625, -0.6177731276983229, -0.1193667765719441, 0.8799778124411258, 5.988810240634436E-4, -0.34515497155673225, -0.5319420054805271, -3.718495287203342E-4, -0.24033005668309793, -0.006635625581290306, -1.1410743013936782, 0.5437975174703218, 0.6433557973201806, -1.3854479002244926 ], [ -0.7472912241780014, -0.16375959124182332, -0.3376846728691832, -0.31649767891612735, 0.6319961745386772, 0.501395090642302, 0.535071161984803, -0.11668912134977971, 5.382841955310721E-4, -0.35250762251360157, 0.5903965624392987, 0.019323537300439137, -1.2661504702708248, -0.04487472749558951, 1.0051427688306531, -0.24980534884836145, -0.8229367061938974, -0.49684289462857695, 0.4335320201764939, 0.04454304481056132, -0.015991065507909664, -0.42956929665320626, 0.22516251141490368, -0.005415500338213454, -0.14235114250528566, 0.0049871150175005334, -3.064655061870347, -0.7598243604890274, 0.05592009561974858, 0.7678832031406259 ], [ 0.444302269877464, -1.8200153591965214, -0.2461758016317865, -1.053406868956574, 0.7621457034533958, 0.21779199601015245, 0.35469566534045616, -0.8511905682768266, 0.005655227595770065, 0.5723975843880111, -0.7757402486761862, 0.6037674200630254, 0.19511043481761903, -0.023491419903040756, -0.868824086419077, -0.5406232951992113, -0.20874328598682024, -0.06832870656552634, -0.05984643296602695, -0.6315600997230182, 5.030965059738854E-4, -0.166781712168096, -0.14993259173166187, 0.004786938914996367, -0.4645890930440957, 2.96344924811567E-4, 0.7279115125268268, -0.27760354407292936, 0.6257777635537122, 0.0777374691990505 ], [ 0.30305674240344627, -0.27408971477751237, -0.11486509251418263, 0.29654713573783686, 0.9892627916448183, 0.623732436990084, -0.6900955797148478, 0.6263377841879717, 0.0015756261563066348, -0.017010672457918118, -0.10501338393389445, 0.3481628633353255, 0.012504477745940904, -3.3530399538904946E-4, -0.5859102850196339, 0.5317396075020737, -0.10714941024363171, 0.7969387226104386, 0.895385469044311, -0.9057491432341671, -0.007929025601105498, -0.9422599043528608, -0.8170007508631965, -0.009063425510425825, 0.7605763873316389, -0.006637837977913696, -0.14339955262052004, 0.10380383507518948, 0.40210317707971505, 0.6336474471281435 ], [ -0.4720951296073991, 0.08341563645460577, -0.02630791960329602, 0.04230327096369466, -1.4822159468363796, 0.6080326287188477, 0.8090174290941866, -0.0936804677544346, -0.0042621483624067785, -0.4779002622347703, -0.3402516787906804, -0.7533698917723889, -0.02297361409951135, -0.1485953687847483, 1.0093402496916817, 0.15064620140005977, -0.5725980137561141, 0.4371687897158639, 0.8994339001543183, 0.4749365307858683, -0.002256208562133704, -0.09889036399143847, 0.11660366565933936, -0.006252948309915596, 0.8610774993323063, -0.008740927811160027, -0.8631829868335518, -0.40825519350068096, -1.0671773778012417, -0.26298602743561206 ], [ -0.24186079275881447, -0.6622900396341852, -0.34593467546321316, -0.5020095910750868, 0.4530441615430378, -0.6757145842016866, -1.171493391319425, 0.2427788980207877, 0.0031603770204613516, -0.6023823854857662, 0.1349290432993242, -0.03901151464350533, 0.4798131213657976, -0.03346082188836635, 0.06340890531980699, 0.12762927973576924, 0.5801503669069833, 0.0017247050982921491, -0.28082693611725984, -0.5950650341649364, 0.003919655727357708, -1.796909840526335, 0.12222513146888654, -0.007034805051728555, -0.3197480463800061, 7.558864950940309E-4, 0.30281332881654777, 0.2855991409485863, -0.30124607689256855, -1.6759738148901335 ] ]
  }, {
    "Size" : 15,
    "ActivatorType" : "Relu",
    "GradientAdjustmentParameters" : {
      "Type" : "Momentum",
      "LearningRate" : 0.01,
      "Momentum" : 0.9
    },
    "Type" : "StandardLayer",
    "L2Regularization" : 0.001,
    "Bias" : [ 2.27578288749349, 2.826974844713735, -1.0935071902197635, -0.5231587076468421, 3.3053501837439168, 0.11432528083295546, 1.5932458771780529, -4.687568390353945, -2.312546064604018, 1.483147769910437, 2.4028016579279927, 1.1048292811295959, 3.126455780370236, 3.6200620046684695, -2.142504624253613 ],
    "Weights" : [ [ -1.202341823825254, 0.0077126210232236, -0.5645158111559293, -0.010684985153739734, 0.27873587778266506, 0.2765605001702334, -0.3212531343136583, -0.003114441010048399, -0.9829821708504941, 0.5498128523758726, -0.2159633436317981, -1.2054768006590397, -0.8782413726507281, 0.44646481993359116, -0.6988231056097153 ], [ -0.3541993961947198, 0.5686085070078967, -0.22555397123589419, 0.0025983460952508954, 0.15217369233285305, -0.22642172569961383, -0.12216106635384148, 0.9395478898451548, -0.2737402349512887, -0.7296716886830378, 0.5653721032514822, 0.4957081941175058, -0.06771257746214453, 0.4314222822872229, 0.603520817475323 ], [ -0.5823934291804684, -0.2409519342559603, -1.2499911437360143, 0.0026168993513748435, 0.4591341861721999, 0.16055509987553762, 0.3334020208671625, -0.6101904568657387, 0.24794077268228143, -0.2612170265986528, 0.5953078246737471, -0.10565880579312927, -0.9993289242762546, -0.4052936226017308, 0.24417453936746766 ], [ 0.4241573026084607, -0.6271921783293543, 0.30270876103461436, 0.002204004717293526, 0.08183287090118141, 1.6418045021688723, 0.0650413956122799, -0.1759703291087691, 0.7552993852269039, 0.360012347282424, -0.32507449415347933, 0.14711053947630862, -1.575588906839285, -0.8799601064151434, 0.6531980105297405 ], [ 0.04405574971975996, -1.0999573342911448, 0.5520976484546614, -0.012741971006566035, -1.5249630412174744, 0.6541169888089274, -1.0527957445374392, 0.2534052669062559, 0.19523614664066163, -0.4749872988229584, 0.17623456518333527, -0.9490808535814539, -0.8691584305301951, -0.1486898733527729, 0.06587685360528477 ], [ -0.6773120826299941, 0.2687390020171046, 0.5069697883706006, -0.004230599220671389, -0.35511535801235083, -0.7833396596969251, -0.10315300905389306, 0.7580751469899637, -0.03267090468705721, -0.06138619161055651, 0.909569393234516, -0.6596754999556058, -1.496809127576889, -1.0785081409800246, 0.01795368029100352 ], [ 0.561546335327753, 0.2945989387351252, -0.05928215990112501, -0.010202689347207734, 0.10602305136037193, -0.08646004538691823, -0.19373934175038973, 0.11941546440921019, 0.20085971793439045, 0.0662046922195873, 0.4999899573612754, -0.08972623425616091, -2.473716306291117, -0.2033803766130518, 0.24329974906993726 ], [ -1.156599284011267, 0.2883716440660869, -0.2700455303517715, -0.00833513349240127, -0.8286603084273435, -0.201273801361543, -0.23345348723358486, -0.7805541587764473, 0.05767649649199758, -0.4781711792362875, -0.3098054976901102, 0.6321050447405753, -0.11619800262341264, 0.1300003804905953, 0.8908928266845549 ], [ -0.0038421060149050686, -0.004689756816393046, 0.00630006731442976, -0.004503182610247949, -0.009582394986817308, -0.008983640260460382, 0.005367787764730757, 6.064745178089241E-4, -0.003365390300413603, 0.0021575086256880862, 0.012556261183391716, -0.011910228606255463, 0.003608265382456176, 0.010089433405176795, -0.007636879167878766 ], [ 0.3461200882985201, 0.43041455548326635, -0.8861320631677219, 7.525487828876855E-4, -0.6500607793033589, -1.8556627302166602, -0.4476155025953141, 0.21691053663579296, 0.2206859890214663, -1.182209209395261, -1.4585689562710031, -0.05708969823352081, 0.48186649346943344, -0.2533680347247793, 0.2588834483279304 ], [ 0.41305882209923733, -0.04917001513203201, -0.45039867777333586, -0.009917759129831795, -0.2509133265602324, -0.3352307901687521, 0.2268075204408706, 0.8304023015140837, -0.4839637243242962, -2.4334821597023817, 0.2621552398297765, 0.41230999650959294, -0.031675390501918886, -0.268080695170545, -0.05118657309314163 ], [ -0.6566287431387076, -0.9572907549990527, -0.49220667919806216, 1.6762808287209828E-4, -0.02416986164469247, -0.18730562704865228, 0.22658636986556033, -0.6794950164455338, 0.2502408653878615, -0.7236686782116044, -0.9890614224415726, -0.5206447693372768, -0.7984396262092219, -0.30770556550869016, 0.12260043651448535 ], [ -0.9490091865090451, -1.051378653727453, -0.15908273860130334, -0.01213297913923574, -0.0076151540119240675, 0.2914455342116379, -0.8681680296974786, -0.43828784332300025, -0.10035708010848847, -0.16177093841302764, -0.02329399057642356, 0.3836406874401301, -0.6292246806753866, -0.5224005112257583, -1.6519749720385362 ], [ -0.036269132167423696, -0.04313715695370228, -0.012807303492696603, -0.00864854462728154, -0.025910241303611442, -0.03327128969399177, -0.036439532165328706, -0.024477887610271837, 0.006898425777836936, -0.038218881440635684, -0.05215669077814331, -0.02403043605022084, -0.005268573053006268, -0.02868777750535439, -0.009643209196350295 ], [ -1.3313409472565063, 0.16063163040541867, -0.7264622558087968, 0.003838702488324232, -0.644687988332876, -0.2904417383762768, 0.5804550464750844, -0.41750148125176634, -1.540329670017674, -0.8167512577608629, -0.6781273678737239, -0.4706882046199714, -0.15396970446759278, -0.7408571758225605, 0.13142992201802084 ], [ -0.30173688140780913, 0.4285899513752726, -0.18900803724689658, 0.006735775361522131, -0.8132327778013774, 0.21006850601604457, 1.0161385167163413, -0.29826958049432284, 0.303793100956692, -0.8086303113222886, -0.015928720381823788, -0.9143432225989961, 0.03892559086306272, 0.6313995927220168, 0.6074093522433992 ], [ -0.42945166202729324, -0.16044929504081903, -1.6038045560509906, 5.517104582854746E-4, -0.18137242588124383, -0.9148036606543486, -0.47105509416242136, -0.5466402555234822, 0.3874040625521933, -0.22786237130566808, -0.4525515186907157, -0.3065072671735883, -0.28666083497936784, -0.22143395005464517, -1.3466393170432827 ], [ -1.4582413820688376, -0.6476073689467423, -1.2013925436718622, -0.0034276361938716804, -0.37548938495778084, -0.36210935850847026, -0.8913651515848954, 0.2423100100542406, -0.05367493021740167, -0.818563286989148, -1.2125193468706552, 0.4986413450708764, -0.6423347077343183, -0.15388395462586607, -0.05748664984396747 ], [ -0.01169156155011795, 0.39844279324975834, -1.220250175039185, -0.007142304266826196, -0.3656590275837427, -0.5524063874720585, 0.5421572892677256, 0.06049730983397118, 0.13011741914965474, 0.03217086192437399, -0.2988660954251926, 0.007565734208159437, -0.7528484567547762, 0.839919649835412, -0.5987422015168796 ], [ -0.04854420998294906, -0.03078432868035036, 0.5237590155535297, -0.010004757393162492, 0.5837452337942776, -0.12135504047943546, 0.3286702878203802, 0.6760879022004936, 0.046390749878878326, -0.3098205233632501, 0.16580885111895338, 0.10826755740334824, -0.41817256870039654, 0.4664133429055489, -0.04756462361891818 ], [ -0.0015610251749864255, -0.008981614350857902, 8.058361172169458E-4, 0.005065596649223741, 0.007652389394187004, 0.0020834494286903513, -0.006086990419150679, 0.0015495109080925192, -0.00470818339883318, -0.0023232507204163553, -0.008150057747858727, -6.419396080417865E-4, -0.01151180601823277, -0.0056938604352733116, 0.008344246285861924 ], [ -0.6772439263653125, 0.8460193368391834, 0.19395405391464238, 0.004163958999218521, -0.14444808637793793, -0.1617309270545672, 0.7823974468923558, -1.023171494447037, 0.28050148236920563, -0.3304000270185595, -0.41230233718905746, -0.23239716113158201, -0.82527415266917, 0.18589707795271185, 0.09172828796413648 ], [ 0.337875919704574, -0.2961167377149737, 0.9326654637423879, 0.004034919214667954, 0.49346226205327326, -0.5250496233290025, 0.6920671748445547, 1.1263162165099627, 0.3040649155968097, 0.20477912790298586, 0.09999263284539267, -0.0073010629379153084, -0.09019960060913293, 0.2929288778677314, 0.022045731386323316 ], [ 0.005094070624395525, -0.005977418862411179, -0.008283294562164702, 0.004549111527264334, -0.003357603020399528, 0.0016399820067789844, -0.016381521607482536, 0.003450054233339194, 0.0059455891093631585, -0.01198865878572903, -0.004980654951132185, -0.0018207638781404878, -0.0014300260346691894, -0.002261386561429711, 0.005285674173034086 ], [ -1.4589966632065612, -0.1300732233125632, 0.9869680340650219, -0.0016635086798942017, 0.6549309203720363, 0.2782500924933143, -0.2969788900172421, 1.0050871268142698, -0.3318033640346535, 0.015241762512358445, -0.6269991750128407, -0.18909693517047987, -0.3401647038608933, -0.4895643128553073, 0.6052154194977734 ], [ 0.0025155019151250953, 0.013203225039047565, 2.1815578207491073E-4, -0.005081322414949527, 0.004852328972712435, 0.0031625155866454183, 0.008943542543797194, 0.0039470049622029, -0.0017044236433637074, -0.0022126284908140703, 0.008117109873579952, 0.011144352894499289, -0.005580598235358821, 6.214320933519254E-4, -0.006670889096903441 ], [ -1.8415353113803377, -0.535662594428686, 0.7116553058483648, -6.877496595085642E-4, 0.19287151465125416, -0.5053227946980052, -1.800390517476793, -0.23484175649947264, -0.034768320675851394, 1.1956935578931214, -0.9309464354666649, -1.9900814414617733, -1.1905702341241682, -0.3827293204131066, 0.06775979877665829 ], [ -1.5903016650258626, -0.5019095193864951, -0.17054717372113123, -0.005064316298372819, -0.23276916991670013, -0.7838455128708578, -0.48438921031711857, 0.3102646427382882, 0.34250771595612045, -1.3060741016352695, -1.1533015846788488, -0.36877018717077364, -1.1494712149083872, 0.38460680400287584, 0.09474215274421317 ], [ 0.9354777031312458, 0.47884947786902243, -1.304578353707971, -0.004142860636059495, -0.4738880601516459, -0.19883896443411475, -0.0019017969042473852, -0.07461708745651174, -0.24269203038516116, -1.724698039873132, -0.10577298351288653, 0.19364515217097555, -0.4773410343796806, -0.703361349371157, -0.41658408478897835 ], [ -0.3840811080165605, 0.5559714542912874, -0.08097965284643811, 0.0037002133562966453, -1.260630052658656, 1.239131695660548, -0.20894692470584583, -0.16173905194591057, -1.3014143826572122, -0.20434428325887063, -1.0499282824799736, 0.17318453736511563, 0.3746141985918612, 0.5346873590373716, -0.45167379678935543 ] ]
  }, {
    "Size" : 1,
    "ActivatorType" : "Identity",
    "GradientAdjustmentParameters" : {
      "Type" : "Momentum",
      "LearningRate" : 0.01,
      "Momentum" : 0.9
    },
    "Type" : "StandardLayer",
    "L2Regularization" : 0.0,
    "Bias" : [ 1.7152003271275647 ],
    "Weights" : [ [ 0.9427064836239293 ], [ 0.9480867537361755 ], [ 0.9056995371478039 ], [ -0.06081194165416638 ], [ 0.723138861424515 ], [ 0.8301015554425416 ], [ 0.807752687422067 ], [ -0.45573453943417125 ], [ -0.16283660115508192 ], [ -0.9205111778308368 ], [ 1.0244411868748973 ], [ 0.36550835509771484 ], [ -1.0295947596094162 ], [ 0.5668377754777718 ], [ -0.12874563119359508 ] ]
  } ]
}