{
  "InputSize" : 7,
  "BatchSize" : 32,
  "Layers" : [ {
    "Size" : 7,
    "ActivatorType" : "Relu",
    "GradientAdjustmentParameters" : {
      "Type" : "Momentum",
      "LearningRate" : 0.01,
      "Momentum" : 0.9
    },
    "Type" : "StandardLayer",
    "L2Regularization" : 1.0E-4,
    "Bias" : [ -3.3406000419486235, 0.1846358871867652, -4.3050402307088875, -3.371706166630345, -3.0317009853001418, 1.8779338512244386, -8.987153207913797 ],
    "Weights" : [ [ 7.809067323211141, 4.168153935696396, 1.8479549345566961, 3.0283495346709075, 4.567122700269972, 2.5442224067053134, 3.879118652770342 ], [ -0.04088493925710078, -0.046274056432593955, 0.023568238871069153, -0.03000325840445475, 0.04723231649265145, 0.042363979339491466, -0.05601257372957129 ], [ -10.205718185584967, -3.1735600853699464, 1.050385039908466, -0.8830021913786539, -3.656820458656296, -1.8372980168965731, -0.7101607346471357 ], [ 0.22264273168436183, 0.7632063138146763, 1.363309769481011, -0.6641108796302101, 0.8815850918376533, 0.8171339476603653, -4.374401572172594 ], [ 0.5362420391081202, 1.3995586723536, -3.604300365055718, 2.1680983833341267, 1.3916463193941824, 0.8977799318427147, -4.66010945409829 ], [ 0.0033368924787432392, 0.02190061014248467, 0.028727168700442948, 0.11561799351708928, 0.16884031301637506, 0.11671944508471409, 0.2339048984479016 ], [ -0.6582732984360599, 0.8441092156103602, -0.34096905311655745, 2.860979846676961, 0.7940582921195676, 0.38184933834863866, 2.641929785558805 ] ]
  }, {
    "Size" : 1,
    "ActivatorType" : "Identity",
    "GradientAdjustmentParameters" : {
      "Type" : "Momentum",
      "LearningRate" : 0.01,
      "Momentum" : 0.9
    },
    "Type" : "StandardLayer",
    "L2Regularization" : 0.0,
    "Bias" : [ 0.9451971078796965 ],
    "Weights" : [ [ 0.9092427636707966 ], [ 1.1966120689577622 ], [ -1.125399229917384 ], [ 0.8799704854222977 ], [ 0.8144626537132177 ], [ 1.1401729993787795 ], [ 0.9154447867950345 ] ]
  } ]
}