{
  "InputSize" : 7,
  "BatchSize" : 32,
  "Layers" : [ {
    "Size" : 20,
    "ActivatorType" : "Tanh",
    "GradientAdjustmentParameters" : {
      "Type" : "Momentum",
      "LearningRate" : 0.01,
      "Momentum" : 0.9
    },
    "Type" : "StandardLayer",
    "L2Regularization" : 1.0E-4,
    "Bias" : [ -0.048628125546094116, 4.079268484495073, 2.5254239802796667, 3.099466728056212, -0.2643236132784387, 12.042598454275165, -1.9352114510930813, -4.409758249504217, -4.314363755455909, -3.5863062582139054, -0.48492669433661767, -1.502035390795218, -3.8644887838791337, 1.5653750275240466, -0.1385694237625919, -1.3152371043222546, -1.5571108947961017, 5.874266731293174, -2.967496483522412, 5.377109847501032 ],
    "Weights" : [ [ 0.9511109815334937, -1.9908580691867293, 1.7102880324906058, 2.0900088710134974, -1.7366031718190478, -3.455773974032154, 2.7257904335119925, 3.100007141021443, 3.519179149364573, 3.963746477026292, -0.9080796922203683, 3.1542366584742534, 5.286141022902483, -1.858323344468819, 3.2423579521463926, -0.33935616216753106, -0.02153595602967886, -3.2387104380479474, -5.3582686851605725, -3.348967876162614 ], [ -0.1047342969886818, -0.11957035533968063, -0.004503711750160566, -0.008565142671850762, -0.02824496087167207, -0.11919659472835939, 0.06604894235343484, -0.06175442247816159, 0.8260161335423968, 0.013767900775769067, 0.0012818802878918054, -0.01774282951990738, 0.025352099272324014, -0.003130424026100514, 0.14653584509699205, -0.05716499303630042, -0.12925071034458804, 0.05852602327366136, -0.018404905232330293, -0.03650736849040692 ], [ -2.5461492367679326, 0.45405225233347374, -3.0404463945294986, -2.6741550844728597, -0.33860020104294297, -0.22140230044289658, -1.4780034593670945, -2.976259384351068, -3.368022330082614, -1.4354237192378319, -0.03212550338568096, -2.3709865664996514, -4.683737977648049, 2.913010410253425, -3.9314600404848594, -0.012155636447705145, 0.6637208993622246, 2.067080450948365, 2.3771588239817145, 4.501014956388103 ], [ 1.1851268674473365, -0.48940742341198656, -3.9387096529242616, -0.2998436184229379, -0.5361648543445281, -0.9635748398296642, 0.4060287871888628, 1.6292690568372277, 4.144108683237323, -0.2558206801516433, -1.4869036299857101, 1.8374884983622277, -0.6924329213072075, 3.0653376280943867, -1.1907649072922541, 2.771276294329384, -1.2398853928174118, -1.1033194273085671, 0.2877408977025141, -1.8322876848777834 ], [ 1.4906476652564982, -1.4328570063974164, -1.423782039180249, 3.297560470649411, -0.069651814460873, -2.8727995244298383, 1.380765906679332, 1.0998150684769885, 2.380414483952867, 3.5330009036032304, -0.33916635429902176, 1.702767831028907, -0.006690915435851636, 2.729311538651672, 2.3453919093845097, 0.1224519598667683, 0.3898181924510381, -1.7809628599974052, -0.2812581509756634, -0.330264751345017 ], [ 0.06390431067639361, -0.18312444727700597, -0.2681964141289801, -0.08599611309163872, -0.0467575645683509, -0.290554404763602, 0.12115392626413418, -0.4910778167808703, 0.6242629060879132, -0.34584657198610663, 0.017152624001608087, -0.17090816221993446, 0.0029279999170529754, -0.1064878821431599, -0.022065458911851788, -0.20134797646535985, -0.21047118919771668, 0.22502451632469217, 0.09300521330875187, 0.0888235702972031 ], [ -0.15236458013757911, -1.1725927913322656, 4.009105178136361, 0.8253030478819513, 0.4007056221324525, -2.3486105801507184, 1.809729222911504, 2.333422457799984, -4.125264778515129, 0.37862839913627455, -0.09909958152354269, 0.11938905476156739, 1.7068735669702684, -3.2416913636601588, 1.9704515021433677, -2.1428385849129374, -0.09331861815125371, -0.6358214338117752, -0.7941760461456214, 2.0290509077718295 ] ]
  }, {
    "Size" : 10,
    "ActivatorType" : "Tanh",
    "GradientAdjustmentParameters" : {
      "Type" : "Momentum",
      "LearningRate" : 0.01,
      "Momentum" : 0.9
    },
    "Type" : "StandardLayer",
    "L2Regularization" : 1.0E-4,
    "Bias" : [ -3.63137920010509, -2.7284744944360377, -4.955076583154747, 1.084910796699766, -3.2528144458597867, 2.1397071748861936, -2.5314524026656833, 3.7899906695067873, 3.7884453215164786, -1.3546555901957638 ],
    "Weights" : [ [ 0.15628282907325336, -0.39801962896924226, 0.8879678325830419, -0.2139748236288144, 2.506857704638979, 0.3532684277071147, 2.1001148011303576, -0.27772487438902876, 0.09872376728262071, -0.03640392583435359 ], [ -1.7141600218938697, 1.954543472686072, -0.7478742752032367, 1.0810651955016328, -1.9543865166686583, -0.8755450839698843, -0.9736410307231871, 2.5928871179474884, -0.6316926892958722, -2.2486128461175565 ], [ 1.3986482435933008, -0.20559462744839938, -0.7184402736093357, -0.2550512363022032, -0.42456668592125063, 0.4509861891341325, -0.46030181006779003, -3.15016849746432, -0.539025955392178, -0.26898752231574635 ], [ -0.08541317555498495, -0.7922681291775138, -0.9227124403858744, -0.3359884924268717, -2.1647400812817215, 1.7650994988539508, -0.424954706806151, 2.133585096510242, 0.7511533588681251, -0.8413107658986064 ], [ 3.1291359819040485, 0.4266505958964883, -1.8788916371846724, 0.531492792000278, -5.39302804240189, -0.7139054382531932, -1.7850995916051007, 0.14873248096847388, -0.7368410538468371, -0.28903695835339144 ], [ -0.6622736015375623, -1.0085654336812635, -1.4614015135041751, 2.428803233146921, -0.8161822108424673, -0.13063624553525185, -0.7017770906958606, 0.28651538902589346, -2.15044966547262, -0.06381794324938192 ], [ -0.2648157902271751, -0.5038809676299258, 0.37070760424089977, -1.0540237635161778, -1.9149806406758016, 0.3667619509392092, -0.6973197578521984, -0.052555193867157665, -0.5983381433886448, -1.0359663111085502 ], [ -0.5977764350808772, 0.6709128588419307, 0.45911643016899806, 0.10420012414721956, -0.06299003936795691, -0.45200353958474343, -0.02128421226191607, -0.06661835984804959, 0.40233243718028083, -2.493968313051057 ], [ 1.4720662185201085, -0.41243522491075535, -0.20211217398611084, -0.15521841686025667, 1.7179918420555893, 0.8032917099968128, -0.004685101512459287, -1.131655527498078, -0.14074504564471318, 0.952155734018065 ], [ 0.27723884380428054, -0.4239508368190763, 0.04359328154492472, 0.2738329543481424, 2.0994868330115115, 0.27996798976774734, 0.6833959282450455, 0.25461925962913484, 0.32632692846812655, 0.4600361620311306 ], [ -0.6063283842985678, 0.700973593607742, 0.7227708902189037, 0.554338726528344, 1.8530417323949695, -1.1195661701390323, -0.027350657137159683, 0.15792829813511639, -0.4866117863380586, 0.6893418005246232 ], [ 1.5311376260476848, -1.183347782814462, 0.9088314599575767, -1.204321739657889, -2.3017941346979955, 0.5520483832736642, -1.0059674133315113, 0.04924752908148589, 1.1161328289338703, -0.6932052642581034 ], [ 0.2686754061541816, 1.1336628699265932, 0.4957233910766968, -0.5987535815541959, 1.0298608571806378, 0.24420729049613543, 0.3814570020924044, -0.0979447106916301, -0.1061700605155371, -1.881959382330038 ], [ 0.5165274127341376, -0.19887026541390543, 3.8025172615207836, -0.49158721019405416, -2.0451694494296255, 0.07943287479139802, -0.06812307074255221, 3.1103667133196207, 0.935811512323435, -0.20701024363718268 ], [ -0.3284421432187189, -0.495452621278673, 0.9425312955780589, -0.7472383768669889, -1.5478217580866558, 0.4875864959263102, -0.9005749032129142, 1.303595743499608, 0.1338320830177445, 0.6835921463644293 ], [ -0.5880873785596114, -0.5401600119743277, 0.5088358076240762, -0.2612266875808892, -0.06358604671077318, 0.4890067230100878, 0.2826098033652028, -0.38555679958533595, 0.6157399881944953, -1.006401532051802 ], [ -0.37466140071385434, 0.778501635367116, -0.7089824128958445, -0.3481990856816943, 0.714034785187411, -0.4185335523472853, -1.7488619981603113, 0.24286989114679952, -1.1315370088750802, -0.07310042326774965 ], [ -2.5227836302309172, -1.6047748168499294, -0.9399644685543, -1.310421727767742, -3.1673751256084692, -1.8897157544087007, -0.8567737072227197, 2.37098556113967, -5.905598440339079, -2.883238758062848 ], [ 6.35741372421529, 0.5570961011406752, 0.029002018426435634, 0.9908725809756903, 1.486525582582223, -0.6123624511763236, 1.0885198946647705, 0.2695791620841377, -0.7815391310987102, -0.0474132908072988 ], [ -0.7708253065879072, 4.05194009427856, -0.5985310210359123, 0.6865377390927572, -0.827892840587999, -1.905238965909837, -0.6648559262460773, 1.0695165154331976, -0.6144641116218421, -0.6593589883345976 ] ]
  }, {
    "Size" : 1,
    "ActivatorType" : "Identity",
    "GradientAdjustmentParameters" : {
      "Type" : "Momentum",
      "LearningRate" : 0.01,
      "Momentum" : 0.9
    },
    "Type" : "StandardLayer",
    "L2Regularization" : 0.0,
    "Bias" : [ 14.652977525981742 ],
    "Weights" : [ [ -0.8518548216891777 ], [ -1.446696110192592 ], [ 2.538549762732794 ], [ -1.8396116236979476 ], [ 4.993848536609701 ], [ 1.6994739878147296 ], [ 3.2778312935350904 ], [ 2.6646347067102214 ], [ 2.117999251793014 ], [ -0.9779046201420923 ] ]
  } ]
}