{
  "InputSize" : 7,
  "BatchSize" : 32,
  "Layers" : [ {
    "Size" : 30,
    "ActivatorType" : "Tanh",
    "GradientAdjustmentParameters" : {
      "Type" : "Momentum",
      "LearningRate" : 0.01,
      "Momentum" : 0.9
    },
    "Type" : "StandardLayer",
    "L2Regularization" : 1.0E-4,
    "Bias" : [ 3.3656228201218243, 2.0908425529016412, -0.7297591384331074, -3.314411181851355, 10.073417929092933, 7.715220804056335, -3.7038376615274418, 2.3242854528278696, -3.471519556438381, -5.437355019400051, 0.20401118304195173, -0.2698543028916913, 0.11104418543040148, 3.4032268124395073, -2.585958050468497, -1.957371549838838, -5.051863333022307, 3.7421457079778873, 5.966530769554892, 4.678417810785674, 0.8902757376954239, 2.191071496481278, 3.6693479193026, 0.9259000801730951, 0.5533306233353368, 5.2495936044157085, 3.4001129692133887, -0.1746537321406517, -2.5508955316877913, 3.455169207698418 ],
    "Weights" : [ [ 0.876792805388698, 0.34495139582794054, 1.3653013080779244, 2.0121518830363923, -4.746979147773739, -2.9171061192210903, 2.583793399457358, -1.9977326777425133, -0.11272518332404678, 3.3168686166942885, 2.3612258459045625, 1.6446460552547735, 1.9228368687594357, -3.7423451230299705, -0.4563491610020208, 0.6741745908608314, -0.6492181214519612, 4.35113223134899, -0.4899973000545629, -3.540956586804215, 1.9979800830935421, -2.2575662396272955, -2.8594513503466845, -3.92294842216572, -2.9860326895129843, -1.8886154071501526, -5.449400944997185, -0.5234345267476989, 2.1902013103049627, 3.6049136923923797 ], [ 0.0371611386772975, 0.042832402385125375, 0.10782369885726543, -0.1506599100314493, -0.01923893438614742, -0.19109004748889907, -0.03329740434189313, -0.027158311597785204, -0.4607321790698161, -0.5771575311165417, -0.09459510598742635, -1.8522401765615977, -0.5365816474388209, -1.079319974141931, -0.45317061758815763, -0.22515891506932387, -0.8190334036441373, 0.002717746249521067, -0.12524202692543387, -1.0755303944257213, 0.01808399769960457, -0.060295180338085265, 0.1092275866592444, -0.025989616330968027, 0.0014452782992646455, -0.21374891664703638, -0.2517772401217361, -0.2802052859785964, -0.08718845538997033, -0.4113206907626928 ], [ -1.1445167619555814, -0.25980448756849844, 5.7464282714922215, -2.4688295370906763, 2.4650607595289955, 3.6383533927472977, 0.0060298724685437, 1.5804656740046874, -0.009927483277941195, -0.28898071473430514, -1.5712288233999208, -1.272843099252183, -0.10589585016815764, 4.035659555120387, -0.6228161776356933, -2.260445065412016, 6.561590203275712, -1.7026811896437544, -0.9661162087803296, 4.689904993411075, 0.19878296293912262, 1.1049574229716508, 1.1960110972144482, 1.960519995090787, 3.7296423362647673, -0.17703707614936814, 5.615801036016984, -0.01841344078991828, -3.805530595847038, -1.1332528013060408 ], [ 0.8850683224182627, 2.7833125482345036, 3.9436522899012436, 2.0912530865689063, -1.15736553265565, -3.3778807929650956, 1.1200096831042576, -1.780116310198961, 0.7506744810226063, -0.9420607021542121, 0.5635091506363441, 0.026779056879074534, 5.8251869267292635, -1.6308352084515352, 0.6198395585066397, 3.2307514690040455, 0.4966353010898015, -0.6103921616316502, -2.057994609677346, -2.608525046718065, 0.07533036050857544, -0.07491493769807328, -2.48719435377576, -3.050962540673436, 0.05276035199711901, -2.091533119086328, -1.097808033271737, -3.5254329602152543, 1.5499341034964726, 2.0599622060936125 ], [ 3.5789865055232664, 0.46793802200318235, -2.9826054375480764, 0.5639794792433498, -2.719311681776957, -0.6063592745929283, 3.745687486869867, -0.9539504395107129, 2.2853305363159744, 2.8070725231558495, 2.858929336066273, -0.10692209093381214, 1.1177075380815706, -2.6089402727073585, -0.7398010801225859, 1.6850500039626362, 1.148262674326677, -0.3079368820524982, -2.004915084915, -2.212406591583687, -0.3468034563416033, 0.5876426591185907, -1.946861199473121, -1.9578886900746209, -2.870285654644123, -3.1405266944123347, 1.356691094095064, -1.1958353225141836, 0.9343884825287144, -3.8793984152295593 ], [ 0.024519821123324455, 0.17001497552059078, -1.4275220446747252, 0.03487049679071568, -0.26288650783448814, -0.23979957961923215, -0.5657664746042291, -0.2573373540817505, -0.9078568985074348, 0.17590528078508552, 0.04140777738113027, 1.150837486873662, 1.7861787908762239, 0.661753923544498, -0.4392643188379402, -0.36003081300609624, -0.8888102281010076, 0.0014165596597654122, -0.07062457739506914, -0.7317272494566659, 0.1250312317953283, 0.09254915245898622, 0.5256969793939961, 0.23415811464285025, -0.15309879620952216, 0.048229321067672776, 0.3714884058040301, 0.7935623610977495, -1.4387491001574844, -0.45414901605211305 ], [ -0.31847759206360887, -0.24021349191802266, -4.890281900081291, -1.8098870040063675, -1.135199731569112, 3.4674579290560317, -1.492701442934304, -0.28066314682374777, 3.1127477608926886, 3.579115031768836, -0.8701789434548469, -4.322423240029979, 0.08407676317063498, -2.237956130984954, 3.1076115411975413, -1.6516284764707256, 1.6939693434601368, 0.6122304501353489, -0.26020016922549416, 3.7273893994883194, -0.3961478135126919, -1.4595301811973538, 0.7066332467881463, 0.15913046728224478, -1.4452706753499112, -0.09418667938362629, -0.42644373983632566, -0.2467301811114878, -2.373759163958493, 0.18450683094864384 ] ]
  }, {
    "Size" : 15,
    "ActivatorType" : "Tanh",
    "GradientAdjustmentParameters" : {
      "Type" : "Momentum",
      "LearningRate" : 0.01,
      "Momentum" : 0.9
    },
    "Type" : "StandardLayer",
    "L2Regularization" : 1.0E-4,
    "Bias" : [ -1.9532180500523575, 2.939300974487447, -0.8883547080446615, 5.513100219612905, 4.085133568469332, -2.7013622341946233, 4.904357933817639, -3.3350852827418325, -0.1860336659362858, 8.213772469695986, 5.487413879290186, 2.3073544143406757, -1.695118455455152, -2.317714181464357, 2.6449822899799194 ],
    "Weights" : [ [ -0.38111746238395194, 3.7771726672327484, 0.2623106541917672, -0.5254468010466686, 2.065300916667521, -0.17388685819159638, -0.09161101123689733, 1.167851308552991, -0.1471812154049596, 3.8358517123326665, 0.11509433060779754, 1.5471315819819151, -1.1080803704663593, 0.06868070147209154, 1.3898363409254537 ], [ 1.4075859492352465, -0.24247179898359633, 0.10294192430193184, 0.828734779043292, 0.39178293719496776, -0.5384890491962149, 0.7709570547497339, 2.1524812276864687, 1.085879689061337, -1.1958734169992706, 0.10727808733630216, 1.2311174894721337, -1.5166109032734691, -0.9955336586878434, 2.0977816331240056 ], [ -0.30479326611020285, 0.08180366040961586, 0.3164721717782142, 2.563709035421163, -0.43724121180015274, -0.010119277002476898, 0.12573628226374908, -0.12565157973364255, -1.8434172077316682, 3.8050058359978354, 0.53911286298677, 0.44202073898340954, 0.11273246249512207, 0.8617094550108432, -0.19517468166566893 ], [ 0.8144931948092218, -1.047923500542453, 0.9290143750212436, -0.680453694922934, -0.8352853958524049, -0.8852928277327979, 0.605971542845135, 0.6262069034956739, -0.17121936159477247, 1.953276420641976, -2.5589196100139198, -0.27782866218311225, -2.008428977844904, -0.35756161172626844, 0.6071968267145087 ], [ -2.406582116090686, 0.46911797320322846, -1.0905836049577067, 2.114652281711204, 1.054490958302178, -0.7064676043403372, 4.610683493572852, -3.744420472707179, 3.274895592172768, 0.6799754306731568, 3.0521731247577626, 4.967809156010777, -0.7838314787610775, -1.9929395489753985, 0.8143677459239148 ], [ -0.8373480402632119, -0.6709435803787803, -0.7945300630858241, -0.2734943801867088, -1.2884126245867, 0.24012867305894212, 0.9603446793761847, -0.3622754997041563, -2.0928485514003143, -0.4752201404472091, -1.9724231373635248, 0.9647945134407231, 0.8155311360366009, -0.9785236641844759, -1.7303149347952271 ], [ 0.33257913885858004, 1.2686669498303893, 0.6730605591546079, 0.7093371317695286, -0.12429421059779254, 0.5481195613738501, -1.0120080603465456, 0.396154297852922, 1.5626997802857305, 2.6752718997010407, 4.873058567097863, -1.8770176942819765, -0.29762145684735947, -0.14605780417309067, 0.3578451463455501 ], [ -0.2672667272580086, 0.6635420607929783, -2.5769148318933026, 1.985150832052949, 0.013220790246725806, 0.8333933533060277, -4.471255931821564, -0.013792134218887355, 1.69377844518544, 1.7144092731071885, 0.46294070115666586, 0.2536551273086405, -0.2529342372435025, 1.0048735174319088, -0.45686855037795804 ], [ 0.009199097052709186, 1.011186213976707, -0.0013008072429062365, 0.8609438294239329, 0.01369916772909063, 0.21715302856202173, -0.7884174178458137, -0.07270987608135673, -1.2122521369938737, 0.9924168599130637, -1.7700937797090042, 1.433303281388392, -0.2604757743899377, 0.9462204953189501, 0.2759712547444801 ], [ 0.12022711082885079, -0.3110277818807525, 0.9558255662895919, 3.00533964564729, 0.11382608356481853, -0.0534335185326916, -0.5225147800418538, 0.07575314078419089, 0.14687298729402595, 2.841541958515521, 1.2069352759330523, -2.2278840471483385, -0.0706268168066292, -2.3075704565784134, 0.38166567256955436 ], [ 0.2821143474014587, 1.7852971620186617, 0.4362751004454469, 0.2042192198020013, 6.115489212512281, 0.15910124816570204, 0.694808393206934, 0.7306080191171758, -0.29960513506940756, -3.0823409203762018, 0.9777633590758382, 1.1337211913751069, -0.5424113864960614, 0.6211623262385401, 0.31777079990447954 ], [ -0.0501684879124573, 0.11143266073729123, -0.44636011070902054, -0.5064227028621269, -1.7183472948796026, -0.5234206993008569, -0.7498677629788921, 0.12646758510460432, -0.19964505143429562, 1.4457028983076674, -0.5852907856518548, -0.3499616036346382, 0.39682811847035976, 2.117262746761776, -0.25465880494242604 ], [ 0.1805451863984132, 0.14731991127366484, 0.64984518947841, -0.4018461656737342, -0.7521828892170411, -0.6492044717348184, -0.4726530227398219, -0.04310724777503785, -2.2566525775538087, -3.4880354906318436, 0.026509202952343453, 1.0208738083987046, 0.10314608974140792, -1.2198667876807991, 0.02707255650311437 ], [ 0.3565449482786251, 0.3543346285415802, 0.41312605766887617, 0.5435759684660348, -0.013418240852838189, 0.5570880131202446, 1.0748030658850727, -0.15705193166468687, 3.1723689104903525, 2.546635639957183, 1.169288264290747, -0.18723601754232963, -0.15484242135185758, -0.029448779988167927, 0.40839962809419517 ], [ -0.2301553826967295, 0.10493460601842684, 0.23194101089089716, -0.684240257741953, -1.2983343722082687, -0.8460318335525845, -0.5711877898131255, 0.21574330583161705, 0.4642782607487948, -3.6726466052024342, 0.6731450658641787, -0.04842024124337741, 0.35923568007175205, 0.8503158974337424, -0.21567674849571336 ], [ 0.32593650270932745, 0.0035088073971062126, 0.1914678045501158, 0.15295906738924742, -1.536215050028505, 0.03812153136281591, -1.2596354165933035, 0.2227450538178198, -1.4234422418306882, -2.6107018443836747, 0.2175985333504807, -0.19840823619226247, -0.6162212441962265, 3.6693898834293637, -0.2635740447426763 ], [ 0.3796772224440948, 0.032582429258446045, 0.3674855194708754, -2.2800144087125105, -0.8085483061251428, 0.39839529008924435, 0.4251808416959312, -0.13154429119577518, -4.807111883506279, -0.8756449505477659, -1.61461884086076, -0.9439839186914268, -0.08971238309212536, -0.7736541017702403, -0.3594050869131399 ], [ 1.0315215745004926, 0.16172973661542372, -0.02009422074898368, -0.7935842893036833, -3.6756082118182674, -0.1787730490661026, -0.4329941768786133, 0.8427849676534649, -3.414471198863229, 1.8579509552651097, 1.4872971407679583, 1.4564383742485345, -1.2733074225301648, -2.373089175249248, 1.0871448153904497 ], [ -0.7039247768878987, 2.652335550512737, -0.16139979766914342, 0.5501761433082268, 0.6357668936316074, 2.945255055373551, -1.1108298633650993, -0.34593260958965655, 4.484041940395265, -1.7252656931605197, 1.3314746875293713, 2.495256255827889, -0.10074791334856587, -2.1782139028397838, -4.241229211012738 ], [ -0.14304640980303387, 0.09519923028479339, -0.3209705817194488, -0.2560052681841381, 1.7993385654608889, 0.007449241960856031, 0.9038759833039919, -0.24357595303880553, -1.3275767061850359, 2.5044012980172483, 0.5933865949815088, 0.16144926312502783, 0.36653855755314435, -0.46162065195899715, -0.626966380284414 ], [ 0.5808218177922873, -0.30108898862618055, 0.8744831926937902, 3.023422935355872, 1.0610349728919761, 0.36922469977795247, -0.4518946940183399, 0.2934393706398503, -2.3716852783857147, 2.4087213364166473, 3.615716271769992, -2.051756326666574, -0.9120943090910505, 2.0575387680372423, 0.5839275590285041 ], [ -0.4326458529140231, -0.024408322066111345, -0.019508581963683092, -0.06200810204835631, 0.7963644586156559, -0.08043283103221806, -4.781118807674798, -0.6052883907970338, -0.5123625484060286, 0.8444272277592735, 1.9735875937048701, 0.8479304568223887, -0.6142396063534994, -0.7784978310984484, 0.6553107443044226 ], [ -1.215289237421301, 0.26081564325166384, 1.0494569534245257, -0.8466448772613218, 1.007877587155959, -0.4566486983450039, 1.600494561876735, -0.18862368165606846, -0.20862834161649105, 0.08794469975479802, -0.13089137084641095, -0.3893146939992639, 0.853010282034867, -1.3866860992279122, -1.5750990370574252 ], [ 0.6134417283635976, 0.8076806976239063, 2.188239017890766, -1.5954213175353853, 0.34142916715822247, 0.6281654936408508, -1.7393475579446434, -3.785866844594666, -0.8656122195289854, 0.5046895352436607, -1.2584521386756427, -0.896620722540607, 0.39910452467006796, 0.20501580262849184, -0.6673763456113445 ], [ -1.6746748335984443, -0.6621699258574214, 0.39779209172155383, -0.006319066173102147, -2.0026523415977553, -0.18670909946561554, 1.6359610720314322, -0.42939538083091344, 0.22653576556053454, 0.6459719253574299, -0.7554844077714596, -0.8013488835566273, 0.9303583960806755, 1.5379415167182202, -0.5064833841412405 ], [ -0.5184877127843192, 1.4865168403690425, -0.171998227450852, 1.655755909531651, 0.5295623129409347, 0.3644525924231854, 1.572281729441221, -0.6444189237609714, 0.3682715489635926, -6.63511768080413, -2.1585097717171036, -0.16346920101389878, 0.795740336683887, -0.5267833099966202, 0.14890700904258639 ], [ -0.5823866003347502, -0.24369867468674142, 0.04696789018977114, -0.46902912828568866, -0.26860194043082997, -0.5565228559399913, -0.3439751565113956, -0.0451167280141492, 0.8186011357993956, 0.4841437609774758, 1.786017357657288, 0.09180358455736023, 0.41633647054458905, -1.6589410175318935, -0.12095931307449992 ], [ -0.13434591746263141, -0.6212090213144771, 0.24878402927066334, -0.07700104808774884, 1.1307462449135148, 0.7314452158203306, -1.922572600771979, 0.2748270211355829, 3.417406944892292, 2.345653506149345, 1.2671854998216636, -1.0154142139655273, 0.02098076121237654, 1.8583689646384196, -0.03935315940397207 ], [ 0.012728010712039169, -0.12278059340339069, 0.3314638187745961, -0.3033194439561979, 0.47683387742396177, -0.5648402066631965, 1.2550575887410778, 0.12345150965622861, 0.40063642889233414, -3.716525519610475, -1.1243080513451156, 0.33063846574613026, -0.21212065277393904, 2.1449922293644637, 0.23684215765531108 ], [ 0.17722385955921194, 0.14190288336969903, -0.06685528068930481, -0.26023286973746407, 4.448271918277239, 0.5012312475389311, -1.3590609244648015, 0.7191066992698436, 1.4110920053186373, -0.3830781857094542, 1.491251120841566, 0.7635914931368564, -0.459300740196141, 0.618067488831999, 0.3134092358832492 ] ]
  }, {
    "Size" : 1,
    "ActivatorType" : "Identity",
    "GradientAdjustmentParameters" : {
      "Type" : "Momentum",
      "LearningRate" : 0.01,
      "Momentum" : 0.9
    },
    "Type" : "StandardLayer",
    "L2Regularization" : 0.0,
    "Bias" : [ 11.878977706511531 ],
    "Weights" : [ [ 2.5255063971190697 ], [ 2.3113983895547086 ], [ 3.056619730385477 ], [ 2.0659109027489584 ], [ 0.8276745829950555 ], [ -1.2075107656774362 ], [ 0.9742117866453636 ], [ 2.2413434873266294 ], [ -0.8130377840939267 ], [ 0.4400845551374963 ], [ 0.7566465218363673 ], [ -4.342369552930339 ], [ -1.1379355697326743 ], [ 1.3914881285861747 ], [ 1.469765351245755 ] ]
  } ]
}