{
  "InputSize" : 7,
  "BatchSize" : 32,
  "Layers" : [ {
    "Size" : 50,
    "ActivatorType" : "Tanh",
    "GradientAdjustmentParameters" : {
      "Type" : "Momentum",
      "LearningRate" : 0.01,
      "Momentum" : 0.9
    },
    "Type" : "StandardLayer",
    "L2Regularization" : 0.001,
    "Bias" : [ 1.227661683179639, 4.010019494962945, -1.4650683032926206, 0.3136311293934438, -3.895653253202256, -4.401193027510935, 3.0145094797358425, -3.3823542645341056, 4.889543165339948, 0.31468378227187593, 3.6601223556494507, -0.508775509675721, 2.157823976708484, 0.31961760984674387, 0.09493286026045845, 3.5672899357557806, -1.6355085265545937, -4.269023398314575, 2.362773052468312, -3.646998609462061, 0.6021165801592798, 2.4091936496185933, 2.4954607893481677, -0.6135197911602748, 0.30835759835580095, 0.22407806866322613, 1.2082911288947162, -6.202468217088449, -1.0591519752296308, 2.9299298477439857, -0.6254926873051319, -1.4726529446369314, -4.856049887909037, 1.5339262276409869, 0.6857463616890546, 6.020590681455024, 0.6594843646362847, 3.9155117439982052, -2.458717608465923, -2.973651634540529, 2.5896353141831034, -2.5947265213115775, 4.830386236701746, -0.0401809556589673, -0.11280543452916106, -3.57554199696748, -0.31624105000785696, -2.0407013796558715, 2.2842016131398535, 2.8734100637188504 ],
    "Weights" : [ [ -1.5416312280619495, 3.2219463049566177, 1.3093110731927544, 1.5775087607868512, 2.8805309036029874, -0.7078971270476945, -0.3850867043356314, 1.6723379566366097, -0.13094976194131638, 1.6209352349704316, -2.0349693846184658, -0.4463658802295378, 0.9805610185939913, 0.30421690883778857, -2.054049073309606, -2.429048184901871, -2.7449572960780975, 1.6269264028318497, -1.9480512441415876, 1.0324872101863813, 0.9341064233043831, -0.9413662045065635, 0.7395012057218163, -1.154517326331425, -0.5636639792000522, 0.9898243705808206, -0.6800459472123562, 1.5808099733908532, 1.1718931094990073, -1.7734924672297327, -0.44915012284367095, 1.589326170020177, -0.9509300936177922, 2.839253479569108, 1.2177416556664955, -1.1423749159902434, -0.8340629532068335, 0.743327459177735, 3.4827621863352882, 2.240346901548432, 0.8248065675690744, -4.479721039372463, -3.446049948070775, 1.9233818021339752, -1.6483008794198035, -0.4389857911552663, 1.5360815370447252, -0.15806507201499748, -2.6953950661775226, -3.241034082668817 ], [ -2.370583426117439, -0.5823494310291256, 0.4071765848558947, 1.5156443824913066, 0.06027502516490289, -0.9902028549903997, -0.27469545161503284, 0.7401852143421885, 1.0235515294337942, 1.362664566420138, -0.12408340080969406, 0.27248943798591635, -2.143026492645638, 1.345218154820707, -0.751666375421696, -0.003034276789396921, 0.24641538277519204, 0.22602828228675975, 0.8100701345834435, 1.327003728347757, -1.114982474005533, 0.16708842126318033, 0.5170107858075313, 0.6632836088606429, -0.06099681714795184, -0.0074738423469039965, 0.9263113138261825, -0.3097076043703146, 0.9565747274567218, -0.3615088143120155, -1.579643613256448, -0.2338082840599765, -0.015114253096700905, 0.13128226244230332, 0.2115469024558732, 0.49431994825892284, -0.9536631001405406, 0.41468421047139364, -0.2911539648228765, 0.4862887102647319, -0.004104381695262109, 0.3768916322377027, 0.13984340764406739, -0.046547003712604194, -0.6017494961422721, 0.1913724836258801, -0.4432339199556489, -0.059005641664388694, -0.019096778242611828, -0.2683063100574642 ], [ 0.39922732681194684, 0.7037050561444153, -2.517348234169666, 1.4793914088227873, 1.3790628644237524, -0.9999690518060887, -0.48461055600334724, -0.20051705057007913, -1.8164043226714384, 1.5517707096306503, 2.2377393356320012, 2.67252347522184, 0.8318300202177299, 0.9218695056399082, -0.5583537518435839, 1.3652605682294485, -1.3710626964405244, -2.79739074325474, 0.48308576132376585, 0.016621194669971452, 0.4134257839271348, 0.7054312448133737, -0.8073727616920816, 0.47565581496665055, -0.06909531953661503, -0.025508878552305488, -0.3310939865649138, 2.31876444050817, 2.0452379973908097, -0.8175019908986921, -0.2489990892753162, -1.232459077758338, 0.8835987055940333, 0.5837352192411117, -0.3691481721181533, 0.40671369608995445, 0.8220069826871712, 0.9093635616946543, -1.3594866404997403, -0.7584292555289561, -0.6932942569329213, -0.2190265823191686, -1.1836172794426527, -2.119077295545632, 0.46460278848211867, -0.4989520544787295, -1.3746575486155688, 0.18651137311604907, -0.9985914722295081, -0.3122606137308407 ], [ -0.47052598645463645, 1.3767701846568143, 2.33742551742074, 0.08152041567597106, 0.6637304608527586, 0.8228279278085161, -1.2454422523689095, -0.015262623472155117, -1.3715149019259645, 0.18323671263223368, -2.4654849633451277, -1.1445504531521629, 0.4489754276201734, -0.1542346470250934, -1.5200282642711427, -1.7944100332956898, -1.0781380956727864, 2.100465269465281, -1.271046681430611, 0.7776919415199478, -1.021893785773522, -3.0505103915437948, 3.17162624990293, -3.517994607443316, -2.6071784203422586, 1.1113019855545407, -0.029004545951703674, 1.9036824171624385, -4.148750943308778, -0.46635012363259243, -0.3380541273942163, 1.4332318064133969, -0.23301631849946736, 0.7570118276217467, 1.0776083902619102, -1.2426492893840435, -2.4639257363761704, -3.6497156966097317, 1.2023571644322584, 1.7520253024996797, 0.8123459440302389, -1.4772739032824969, -1.4636807241980896, 1.569997157205583, -0.7429634711029695, 2.618975857787866, 3.1251648826094147, 2.0877857814326433, -0.5654886010928319, 0.07385195850094772 ], [ 0.383130658862762, 0.6089944321240496, 0.1820280794519895, 2.801547930106996, -0.0939701126972871, 2.344975989827175, -2.415584560277572, 3.2993310586791074, -1.5078607605578935, -0.49143240738267085, -0.9807032931359757, -2.0358566597984518, -2.2474881255636148, -1.742690694706415, 1.1108965383090597, -0.13176130832565344, -0.9098285693209789, 0.1581704108273229, -1.4459616557694395, 2.0159072961664464, 0.8503846176925997, -1.4817805500701535, 0.146564060044742, -1.1085759396244526, 0.299985065065689, 2.808205114667256, -1.5350208360823685, 1.0490013393358797, 2.25039047053819, -0.23513149819745213, -0.5186435800586642, -1.799979698340625, -3.85703733413007, -3.76635723150524, 2.6597397558121725, -2.098830962234909, 0.24260862683740358, -3.5697636713442558, -0.016576255899657964, 1.7293454790498395, 3.6927213986243124, -7.478541113931864E-4, 1.8930954397473148, 2.67077655474414, 1.2541146636999057, 2.001404219522173, 2.318056807955593, -0.5456121984533674, 0.30726450049312787, -3.1794269741642505 ], [ -0.40959201411730733, 0.11179106756935178, -1.04851477466622, 0.6412671773785599, 0.5987946546081461, 1.1097772363082765, -0.06304167258534019, -0.34435096712898045, 1.487600252183137, -1.9357582283304056, -0.3928437467751743, 0.16578492050818794, 0.2633668488222272, 1.3269431651378083, -1.1207269085039102, -0.7749140582666024, 0.18223725355768405, -0.7097700227173944, -0.9273026987035691, 1.2097241099950051, -1.54086174707312, 0.13800400345033015, 0.06718337266103314, 0.2736097771869173, -0.03449775779331089, 0.4234468914322364, 0.9073844122469554, 0.7741679377033135, -0.3379036429858146, -0.6816754329474256, 1.3055088771696506, -0.5737988383514385, -0.11449695164125487, -1.4643115565051583, -1.5163334289482724, 0.7307312113606927, 1.7622508759893905, 0.9272010315314425, 0.8404235447803691, -0.7371607174400381, -0.020224274665592734, -1.291126563046396, 1.0266194161587125, 0.20568752160246798, 1.1063349818621908, 1.4969502028915107, -0.046642437402438425, 0.23037655176673807, 0.411009945527232, 1.4634321209287908 ], [ 1.8816713455024296, -1.5021261130692476, -2.636515302347539, 0.08607679582599029, -0.2867099626634154, 2.4848642644739223, -1.0243767810623157, 0.12878394954582478, -2.0307774572800645, -0.2518493430861707, 3.26312469707933, 0.3057015072763783, -3.055072605060949, 2.112439293114584, 0.1610801185646573, 0.37616641344532903, -1.28406455491259, -2.840641698602259, 2.6866064039958095, -0.5379034790483128, 0.9075870458206705, 1.4528421851708397, 0.4058005826773792, 1.0076892080095592, 0.18953679249008754, -0.9003399684039383, -1.6342890251768316, -0.41088427553486523, -0.1401234253114795, -1.3049074454092828, 1.966584799596239, -1.1553746749787654, 0.7375437272709621, 0.924877677181801, -0.73388958579316, -1.297430444458983, 0.1731300513216817, 2.757035666596909, -0.7111978849162153, 0.8648273999521773, -0.8803915778296353, 1.464262233083118, -0.8634632407398741, 0.4570210997293749, 1.9410091510319707, -1.8529254521611733, -3.198494098256327, 2.1546765464264555, 1.3069340581964233, 0.9778475801153275 ] ]
  }, {
    "Size" : 30,
    "ActivatorType" : "Tanh",
    "GradientAdjustmentParameters" : {
      "Type" : "Momentum",
      "LearningRate" : 0.01,
      "Momentum" : 0.9
    },
    "Type" : "StandardLayer",
    "L2Regularization" : 0.001,
    "Bias" : [ -1.0461464070456545, 0.10648278202275198, 2.2665360303889552, -1.169862843124976, 0.29824737719586936, 0.2861456569793144, -1.1124376859988403, -2.050244086532727, 0.47427487460880713, -1.7153612461045398, 1.0492171142783486, -0.5182052724130194, 0.11355021152127036, -1.4925539469622044, 1.8087964836990231, -4.054640908028364, -2.419263725504228, -0.11498736969365457, 0.6964523660206352, 2.503556791471833, 1.6522574321051529, 1.9422171936489274, -1.8741162853688411, 2.03983899643726, -2.3147154788360678, -2.0632511092551744, 0.4049947999214323, -1.1227931178855237, -0.36528799405948936, -1.1542173876692048 ],
    "Weights" : [ [ -0.013618927648214405, 0.37124269969238366, -0.04996078996162401, -0.04815090398962007, 0.2979385638329599, -0.5485208937203258, 1.4683573303699775, -0.1093549748573121, -0.2278159067252569, -0.6072931572339673, -0.5536318077582417, 0.5376529567426537, -0.7613341858580387, 0.10399111526340543, -0.25308521366781406, -0.9660036052705465, 0.04254138350751097, -1.184468598290422, -0.5625288541998574, 0.5890582074963847, -0.16158042979601017, -0.2103601878506889, 1.5106604546593054, -0.20262629887002911, -0.7977247704375552, -0.49512112992108054, -0.32301368470527864, 0.4995051032957621, 2.0316536138337127, -0.4046524268255912 ], [ 0.17120951961152933, -1.577497079844332, -0.438750279297462, 1.2283329550738857, 1.8908494833578446, -0.3854726088711852, 0.6330310292987077, -0.09749799999708936, 0.710379637181795, -0.1300875624917067, 0.0952092908059474, -1.4009538837601647, -0.4897565664902727, 0.44185271976094953, 0.7804787489609899, 0.34659809471397546, 0.5286612040999868, 1.2888556573312404, 0.4322394490231005, 0.07643815479644353, -1.2840569904885342, 0.6798761044664168, -0.6273053002939442, 0.13236061758223308, 0.6776788974928531, 0.30541489039614605, 1.72355693549583, -0.09177493732875908, 0.6891477801144832, -0.4475338652917845 ], [ 1.0200233502627558, 0.8879403655502722, -0.044750816902403366, 0.8753866078050961, 0.2226705872250327, 0.11197843529080305, 0.8458465508290584, 0.33360332949363786, -0.46519434672457816, 0.043176243572238454, -0.1662476756703096, 0.8755453713914143, 0.9135556954117703, 1.307970627227793, -0.10613196813585168, 1.4460789864126224, -0.48514903512826485, -0.7633093351460231, -1.1303321571670553, 0.23364824305265383, 0.0027907805760226684, 0.3333577941905409, 0.3728798524246452, 0.4140231317216593, -0.6161040520501682, -0.20745537268267936, 0.22213786494510804, -1.845621198439057, 0.2988205269904444, 0.18040896522191913 ], [ 0.47979390010885814, -0.8026480987110401, 0.14540351675192248, 0.6755017859442325, 0.14620256562019313, 0.02142968102880291, -1.073939923658417, 0.22065670479431923, 0.966706521609343, 0.6848737439136077, -0.509760169520795, -0.5782587878898784, 0.4048224421243394, 0.6974752145260271, -0.296020484265966, 1.3534673565787798, 1.262632028498099, 0.49706632638219084, -0.24708716609106765, -0.7597594636877268, 1.2373376712866802, -1.2850121717719327, 0.24842827750492483, -0.7060219851186316, 0.5895057230864231, 0.6679481149047014, 1.6388357112115555, -1.1409574791201278, 0.9467057988286741, -0.9390334133697719 ], [ 0.8722208082913607, -0.13225790603459503, -2.1531477915126245, -0.2971185814321745, 0.6867745148335133, -0.6954401696272526, 0.6049999203045565, -0.5257004035362539, -0.44061173361987305, -0.08544460505369472, 0.1732736625796412, 0.46196468946920205, 0.06659966253995205, -0.02939495692951184, 0.6759735977314768, 0.4402578700531341, -1.1375170084491908, 0.06463129428390024, -0.16349951726660966, -0.6397416017467437, 0.11857342739183445, 0.42106050559051283, 0.4730434166109647, -0.7521272222265265, 1.5907585526702224, -0.05750764429986249, 0.037076794090472834, 1.4447671294827493, 0.8920612671014558, -0.6932004995542669 ], [ 0.7599893738395549, 0.4631474536294009, -0.6927804338100757, -0.5471857419573557, -1.1598437857397825, -1.6282636969706914, -0.547597666966487, 1.3266177876795926, 0.7757223191894268, 1.2430827882213948, -0.13852663994658984, 0.9246917821136674, -0.5791392648394426, 1.344001373248344, -0.4704546902701792, -0.34822913297810815, 0.5874990232520128, -0.8542304232324014, 0.852081334320719, -0.5488899340328658, -0.08033372691075144, 0.3780840718286513, -0.6547444969029864, -0.5030367041213674, 0.4868304910499279, 0.963205843305874, -1.0471166957183722, -0.1845159453699938, 0.2188249352899347, 1.0206834461842775 ], [ -0.32809878520115016, -0.7348890192627551, 1.2581370256977298, -0.2336725160777375, -2.332906548938337, 0.7115209332128233, -0.39768865225958405, -0.00758728560500153, 0.9438779002952596, -0.8761507440041086, 0.6785336415559982, 0.27404957588449547, 0.2845587320996853, -0.5589727995063201, 0.9921190332381654, -2.0367455157910084, 1.2627323773671322, 0.2371583060056535, 0.31667504640211114, -0.2743857727666595, 1.0496758314402674, 0.16243939652313658, -0.8598405249661207, 0.45637027357576465, -1.6380699870405924, -1.0034772661327873, -0.40837769776792404, 0.8162342839774969, 0.11151838984457532, -1.2680488546562703 ], [ -0.8743675534235961, -1.5003418965863542, -1.4666573419233435, 0.19820051599188404, 1.7525704139455154, 0.7367076344952896, 0.8804921818678209, 0.9693749327813764, 1.2701641713617213, 0.8711058951902791, -0.20002251025914705, 0.5232947059811142, 1.0303530112637174, -1.0178829530066607, 0.12891443616884524, -1.2255631003169702, 1.2208207269113276, -0.6279188721292769, 1.576068242476512, -0.9129346475883559, 0.1903169763848258, 0.07732557732141311, -0.15165541248798142, -2.0051789298174953, -0.006249195339992758, 1.274975878642416, -1.1602756603777133, 2.8405562838631786, 0.5902565637305582, 0.45531017913832966 ], [ -0.8483424263019236, 0.26946605810892277, 0.40739535553140765, -1.4592812021013497, -1.1455279775019376, 0.691358743794364, -1.5598881964719669, -0.5867224395054397, 0.3028699121631596, -1.152243166842409, 0.8884542224280497, 0.6606870512676409, -0.14331616094286262, -0.6161626491425758, -1.7414098396842177, 0.9133750482483249, 0.5541624892374587, 0.8286220901516823, 1.4473387533823132, 0.9142605209668861, -0.16736814136016417, 0.39093623254868987, 0.40218897739226656, -0.1358994726885089, 0.09464961462591966, 0.12575216893850322, 1.7101592153299279, 0.4331034419801917, -0.5488514654973579, 0.63874360882113 ], [ -0.587825779543353, 0.26190926541806, 0.24757011561973352, 0.33836144375541266, -0.41264531371623847, -1.4585980019379314, 0.4335123820362799, -1.1997339554765598, -0.5899919756034004, -0.4843780712300386, 1.368668836241225, -0.14509879813743984, 0.09056344910397202, -0.40703665759391855, 1.0051622241538554, -0.7435409680179147, 0.604839609028196, -0.6155189228245519, -0.680466329966285, -0.23063666327664, 0.3253054859368947, -0.19755035786978792, 0.3492219731078295, -1.0366950481675206, 0.26695213820736513, 0.6078150983511652, 0.547664297740091, 0.013533361710245023, 0.4790088789679784, 0.4629350683501241 ], [ -1.0920491128150327, -1.2432687786792607, 0.15208343757187626, -1.6730143481364328, 0.8718704779716785, 1.0084736211741765, 1.6365948244840471, 0.8012221712736125, 0.8496012817649543, -1.050777325832564, 1.574180193213534, -1.9068149029189312, -0.5398162587269045, 0.03438970967497831, -0.7262638395292468, -0.8326924501307227, -1.76119957076821, -0.33186959575093544, 0.8906959628491407, -0.054749493610709125, 0.7367329151154063, -0.06532267080537435, 2.2542750549485193, -0.8816511219480389, 0.1532648221976334, -0.6285132539619785, -0.7806140483690597, 1.4462127560295164, -0.41783335551791556, -1.3972335657983197 ], [ -0.6575801796290137, -1.3926777108654487, 2.665381668665013, -0.5805930194632929, -0.13855024070143987, 0.823943208350853, -1.5839225443557239, 0.24104335164107912, 0.41541604856765457, -0.7026732017794389, 0.5905343191968466, -0.5895534962447402, 0.1779329634824919, -1.173061158455913, -0.4539928891932675, -0.15867305182904734, 0.36503844790918877, 0.8680534034041546, -0.31671727442580555, 0.6854232641104305, 0.3656713065130094, 0.48068721031272427, 1.043771385873413, -0.13662673136125955, 0.10009232831898289, 0.3941227659092344, 0.197384834357127, 0.40273080500098724, 2.1085644429971184, -0.13869516366064974 ], [ 0.023142544728562368, 0.06896571841262844, 0.5420534179858877, -0.12935365432886273, 0.5338105354444015, 1.0961942612858795, -1.3506693519151085, -1.2102551751319335, -0.16062215726578644, -1.2488154192521672, 0.4869933771864254, 0.41616267732363976, 0.30970004258479655, 1.2530140674551704, 0.9085884497889549, 0.5394764849337894, -2.157856103534768, 0.2708756750492635, 0.01517171651858214, -0.5591545089479539, 1.6083199495974825, 1.0964827495481377, 1.6718487482233604, 1.49573291466949, 1.2836911325099096, -0.22650682081551116, 1.2781753222363288, 2.03751767917695, 0.5336388666898322, -0.004510975867655499 ], [ 0.4076521317040907, -0.744647553744669, 0.4283678082313956, -0.47130300309522566, -0.49680926642718803, -1.3366631258523218, 0.6271325370935739, -0.018473310476058297, -0.3646265138479083, 0.259813656698463, -1.3403553757500049, -0.1537357993691888, -1.2593484141096787, -0.7802768945501799, -0.8414666723609295, 1.3618568081776357, 0.08925261280142527, 0.9585606853936178, 1.3986465105456547, 0.05773949411369352, -0.4377533687143446, 1.3725891135991453, -0.09107759786947425, -0.085907733447953, 0.6952915342754074, -0.3039741664473079, 0.7004524569334036, -0.17884394994255975, 1.4022967292418376, -0.6597850252095346 ], [ 1.0510343712775585, 0.17658040760227595, 0.23268915126543854, 0.3547767453122812, -1.446188548148632, -1.1397511636892577, 1.7614084762009778, 0.9407519629593295, -0.5753417650993162, -0.13799840147767864, -0.6430636604528107, 0.424929598094263, 0.19477022969733532, 0.37612007194166697, -0.9005277688922432, -1.41976228756357, -2.1209511891831108, -0.25543480433992866, 0.9081439822259946, 0.44254621811717393, -1.4774547041141548, -0.16252166289052616, 0.9337621278757537, 0.5513237677235786, -0.9769029715781841, 0.6237280577962157, -2.0672529994641544, 0.5576181932462431, 0.5851533362540219, -0.07966765740811672 ], [ -0.5098345086193917, -0.7404015115689693, 1.5566757128419837, -1.3765711960454707, 0.8550911688868721, 0.6247916283205477, 1.5102080152404207, -0.2818505999267023, 0.665276241620681, -0.8372594484825857, 0.4773713587289356, -0.3032513682735131, -0.9784493494051452, -1.7107365394811582, -0.4706693749751934, 1.0512723866768265, -0.21769746824931233, 0.13347470070414225, 0.7975477166481729, 1.3147096933881617, -1.6151087475611479, 0.4103324886941811, 0.19203058415780588, 1.656579823568185, -0.5485303133115358, 0.6635447264289187, 0.12969092174754474, 1.3358140989484713, 0.6612767448944992, -0.38907517514469775 ], [ -0.4235556132522782, 0.21341621670598773, 0.5436902890082935, -1.1161783548250257, -0.9119966395208846, -0.4389654554010272, -2.5558273802555567, 0.09800425640528361, 0.2299929702793858, -0.7442073218789628, -0.9284637373297444, 0.5847490497687902, 0.9878196209451339, -1.4774316399314504, -1.2090161261062788, 0.11425834693186003, 0.6287273553366436, -1.5217112948057356, -0.6894631349185829, 0.6351196291308792, -0.2456983940406733, -0.6914775059520063, -0.9436524703670863, -0.22799606803562683, 0.41989998137442675, 1.0911053913737503, 0.6292013701258815, 0.580737193041155, 0.3932553042150917, -1.6132458846188074 ], [ 1.1294256102159463, 1.5194511746793407, -0.769708512695944, -0.1701793869179509, -0.824776781443171, 0.7139119019655489, 1.6923287342771764, 0.26456086743895274, -0.8492114627807152, 1.3334175697337536, -1.2226694957351354, 1.7390958054528445, 0.29539367574389386, 0.3834474164117698, -0.05797545881146254, 0.12490356971765663, -0.5297072845211944, -0.49629231248325517, 1.0795519598296623, 0.1322065838080238, 0.7573622298035583, -0.06424224516258825, -0.5825363692777049, -0.979436189202018, -0.5901352802331545, 0.1143086432938914, 0.2508724531231564, -1.5227171768296557, 1.377444377205159, 1.5605882869550647 ], [ -0.38485442832390204, -0.6674016926175154, -0.41630051595722806, 0.9553680650955068, 0.5891934746577022, -0.3707538097193636, -0.5442687121788048, 0.13292293046785622, 0.2820196671904387, 1.7039618540511015, 1.312452062984964, -0.9840484203507662, 0.9718736787448601, -1.3836055344268634, -0.27609472506701305, -2.046845595513784, -0.5164227388687018, -0.14020282738778833, 1.6366235583621649, 0.036687146331574536, 0.9632196534589361, 0.7001388980269957, 0.31673272324199075, 1.6250860391442676, 1.0726337840827265, -1.54337799140195, -0.7036500571106704, 0.4864722987608841, 0.9842620133252606, 0.5207593956751345 ], [ 0.1768373109782398, 1.5863826279825228, -0.49689885128138495, 1.4420635214672204, 0.7453957891982087, -0.00756937539667198, 0.7827290307457787, -0.09836825145259949, -0.44357195561555596, -0.12472263332616672, -1.658478657723619, -0.7718134986403171, 0.7709582448130735, 1.9343628665856176, 0.801528830072348, -0.9501876133117463, 0.4245279496533968, -0.27220712424755467, -0.39208115500122026, 0.23216985559346448, -0.05656509310118065, -1.5045056737009206, 1.0406113581610705, 1.6566267356369133, 1.038380359363865, -0.3518616580220845, 0.7044194584612549, 0.09236040305897762, -1.5255026351911691, -0.29418361687819383 ], [ 0.7136367167845894, -0.16293698675921714, 0.602898658678855, 0.18271670585013552, -1.2194939067676611, -0.16494580773295786, -0.3860616800033368, 0.5171848111968462, -0.35417724232427183, 0.015313266661868906, 0.26309478356876725, -1.1385907577640118, -1.1751578767699502, 0.3941546560600952, -0.6821493089827344, -0.6215892321494333, -0.26555144170037054, 1.18613390487585, -1.0103234625683353, -0.5723930506740593, 0.9302956699544991, 1.0297208350448666, -1.6438005305835235, -0.12357737528025983, -1.0738287199887133, -0.5331126721992737, -0.5797595648002762, 0.052723518320322404, 0.7075354425111039, 0.30867869946258203 ], [ -0.15247924314136357, -1.2433771946129863, 1.5116620666495295, -0.7727582665525559, -1.302956808555717, 1.462132432776717, -0.4926726590031891, 0.10197973233297795, 1.676186334947194, -0.2714184733744414, -0.06428648907916462, -0.0887541368829985, -0.42827699379971135, -0.653956917636883, -0.46444656521971767, -0.8086842452724111, -1.0655042793998408, 0.637855273135719, 0.3661377601040842, 0.8266429966144379, -1.1576638417701877, 0.11176147382774404, 0.38405549754352325, 1.0391597501099432, -1.008439979579593, 1.1486413435074523, 0.18941639879978853, 0.33846780584752356, -0.29290975689806775, -0.2455674724176738 ], [ 0.7892042958055162, 0.7288845301739555, 0.028940459526561366, 2.735265231335227, 1.1532716375308478, -1.6415433006279527, 0.99883086522854, -0.13360820191292064, -0.06001960901159679, 0.02361712495590424, -0.25661142974547396, -0.7738668591095056, 0.2911765400798436, -1.0001919756443867, -0.09702740375538732, -0.5404296821776491, 0.03853845202933825, 2.071305697740748, 0.9213946916084604, 0.569631903701539, 0.8639545198390073, -0.3671585892396337, -1.9175478350279533, 0.6946826838761411, -1.6422748299258265, -1.595889009722696, 1.4142233293266275, -0.6681303678941888, 1.2505457819317685, -1.2743579365014897 ], [ 1.2408764875563765, -0.4349928188053959, 1.5995174085802002, -2.449513835849476, -0.1591283911177003, 1.4535998292004215, -1.9502319572744693, 0.1682897068262741, -0.009337842345030916, 0.24522153079074202, 0.4269652957873573, 1.0218577547901027, 1.1420618097580244, -0.04724428452995133, -1.7313196750111426, 0.7138963488777111, -1.0478816892295073, -1.4632987065039047, 0.2660271707938767, 0.05999126222084521, -0.4715228185826276, -0.9873451276126352, 2.027591676617527, 0.49129791810216805, 0.42575617500882695, 0.8370852042032658, -2.2991715054443715, -0.5306986891044441, -1.2046303377120318, -0.45742736838454423 ], [ -0.04998891264545526, 0.616189832982402, 1.012671819327505, -0.35284400348144607, -1.155135912375123, 1.837489029203171, 0.070430088292732, 0.39324898893832505, 0.574657193275528, -0.4759985524594222, -0.10111424573827926, -0.814897796204143, -0.45480197898235847, -1.7197448470661643, -0.9594456944174174, 0.05679800886467678, 0.7372751920822919, -0.23465420258742445, -0.5264461537556183, 0.6388505024106564, 0.2615754440519709, -0.2975722243117874, 2.6488516393706, 0.509287697330866, 0.09488343888949777, 1.8790355146160458, -1.7327259498132526, 1.8417548050760264, -1.4836051305203581, -0.4297943626569612 ], [ 0.06828499516102231, 0.4156207408573635, -0.34762530663456603, -0.23191541125274687, 0.6910348134962592, -0.021975167317271713, 1.0776896108599094, -0.1373730864374664, 3.0483986744560836, -0.18646385475311358, 0.03561429764940468, 0.5090331912429533, -0.1500522907760223, 0.5027371141161452, 0.16074183357821117, 0.8183499376846315, -1.077395796292064, 1.1120166813422498, -0.35262675909917457, -0.3703699715661334, 0.45722495410108044, 0.29154160295113435, -1.331374099576965, -0.8511179241022269, -0.22753722422966013, 0.17178763367440122, 1.607529001728039, -0.9277291328710666, 0.35869221212879254, 1.2163911013762645 ], [ -0.8013124524719657, -0.02086479194214228, 0.8316595340095628, 0.05149593573378968, -0.9708408225416773, 0.6450989489936098, -1.9041768457220172, 0.015837087486317288, -1.0939507175187413, -1.2935431417599266, -0.049318625414308946, 0.2214390075812981, -0.38861731322570336, 0.866362460776881, -0.39212016877243877, 0.12747935130139107, -0.6513611834832196, -0.8046275669222348, -0.2832505138666287, -0.4923207953902468, 0.3729335180163002, 0.7326828006192238, -0.19800539474044146, 0.032992320440729146, 1.0396783511238699, -0.040538506306002774, 2.8743573416920785, 0.5571611743923206, 0.17209539809003685, -0.011204762698222652 ], [ 1.7173039005866995, 0.6130989385568032, -0.13987749961486562, -0.5870296941665581, -0.041933189069602785, 1.054946052837678, -0.6430004097284553, 1.0850097576120508, 0.2601858754970871, 0.9285428753907341, -0.3918157896720922, 1.7436741013559005, 0.0795591547324907, 1.2334549002749253, 0.7426349776385891, -0.44591342743393475, -0.91453325355414, 0.04013045766911493, -1.2914274865512076, -1.0737712394757768, 1.9359701894765793, -0.8013632475442346, -0.8771286759865322, -0.6511718270799602, 1.062737936887948, -0.34522996688224183, -0.5446708759344403, -0.1242058520929336, 0.19004442914038622, 0.6570599166656957 ], [ 0.852641684107912, -0.874686581463811, 0.4142214066380154, 0.682333560250719, -0.4962430857211891, 1.037152303012495, 1.3535189361413216, 0.7432448444623724, -0.12406736586642607, -0.13764261631079933, -1.589006059856312, 0.7293321754690584, -0.17852022669255455, -0.48287189755162235, 0.4583754600432626, -0.9691121741491829, -0.7441959135701031, 0.1282412793558841, 0.7087296638839456, 2.0697095382961006, -1.0572563271320645, -0.3382112541614028, 0.45671919617903683, -1.1519144773461603, -1.5021273862183158, -0.47545810042569364, -1.8398145630878344, 2.222844169033927, 1.6595668457118693, 1.7684444373786006 ], [ 0.798205333915923, 0.8706968856237487, -0.49544263554689577, -0.42346929052002386, -1.0782904429932496, 0.4995414027746814, -1.4302668225606754, -0.016417860548676867, 0.9040515639990231, -0.18749561001688714, 1.0827014926888092, 0.6471167624777061, -0.5939546596978444, -1.1631361505364775, -0.6552582945644961, 0.16760578193741796, -0.6182361670238566, -0.1972845529642152, -0.09959752730670772, -0.028890870199302938, -1.33189119948242, 0.9586656021726295, -0.552788347499045, 0.32657952422239006, -1.3310137239052093, -0.36521391504670425, 1.785480813483826, 0.21617017096206795, -0.21963250763598324, -1.0842601616952245 ], [ 1.1872586572013777, -0.034807852750037144, 0.22183282003407423, -0.5206257821548642, 0.808928405823406, -0.03537537232597954, 0.17619847582847195, -0.6867683805056899, -1.1107459054994628, -0.19930313748070388, 0.056021852621631944, 0.30625069155200524, 1.5964559923965094, -0.6074033738795673, -0.17735584405198176, 0.21504829636357112, -0.2516024140679025, -0.2973700977662542, 0.15782994233126602, 0.32935186403104594, -0.8143539612119813, 0.13324849288166293, -0.32776835138823346, -0.17549342328277015, 0.15488360799940037, 0.32174062053703767, 0.6351452237890765, -0.6942701315020163, 0.9060402161137912, 0.31354564599737444 ], [ 0.4778730980469381, 1.069606594660907, 0.05377487095202521, 0.8050709887422087, -1.974806734513135, 0.5928314402650486, 0.2419315017383574, 1.0279134494552125, -1.1587595019103905, -0.4350437374329762, -0.453850988229809, 1.4842291156855232, 0.9125202092778224, -0.15270526681944713, 0.8110560296683713, 0.2837719435210199, 0.06221114678928569, 0.9855992826515942, -0.7218108660372097, -0.3315470165588586, 0.6533236167486505, 1.085144235498566, 0.8539558779794836, 0.10448876994865605, 0.06504307714699104, 0.24428846762390713, 0.009965159799003252, 1.2551063955277202, -0.607305973654446, -0.9458818695182795 ], [ 1.5221797501694756, 0.34010674764659576, 0.46034339972799526, 0.4280914312619888, -1.504636031684144, 0.46722447059840266, -3.266645467521611, 0.15580195410936898, -1.4386771719627651, 0.24594166553938596, -0.13486562626088006, -0.256385864314373, 0.37189841647715693, -1.050978851430015, 0.7146089060249988, 0.2919046068094172, 1.3802824635863786, -0.8438918006396321, 0.9357471961247901, -1.0429301881516106, -1.0833570962430321, 0.22098206400705492, 1.7804791965195752, -0.22611734935874986, 1.011189694745421, 0.166456830489875, 1.957393520786753, 0.3498831266064824, 0.19634410796782517, -0.03887912131032794 ], [ 0.45712298434885423, -1.5021425079580115, 0.25754380951708294, -0.09963083696148756, 1.1738869289390639, 0.09721000678467516, -0.017144817853863188, 0.527515213102344, 0.9301895514751025, 1.0419325173551344, 0.5251651246831168, 0.3762941005321052, 0.7119234319586067, 0.6543472357881893, -0.7178418619154902, 0.616203249334689, 0.5666125175465568, 0.9137374886467243, -0.6830976073160675, -0.4785260086946937, -0.9129723284099748, -0.009109858188485871, -1.802325539477462, 0.8853364939401737, -0.4134393178689521, -0.6791106124179327, 0.41563351449321484, 1.047802465463644, 0.5270560288017975, -0.5337910966444253 ], [ -0.09054470288205725, -1.185802224489105, -0.503320456473453, 0.09481383703615952, -0.622566319350411, 0.16886855259195271, -0.21973334448568974, -0.19831634522187874, -0.23045022367653184, 0.3990734353982271, -0.0854945484196618, -0.358160540812576, 0.7361152438519982, 2.1953277315148276, 0.7172562423166475, 1.656237129195393, 0.32840341353409563, 1.405148552587797, -0.2881412269695382, -0.5556354607409344, 1.2644804556503328, -1.074761673436993, -0.11413882039542768, -0.26301255093127335, -0.49233392075869026, 2.033201201857422, 0.543658134926038, -0.9629693741535666, -0.16343627972447747, 1.9266882798460645 ], [ -0.3470429303401778, -0.0786568257475785, 0.5548644498446343, -0.6946171334444154, -0.08787564051161044, 0.19203716531893184, -0.3144437791969876, -1.500353303370815, 1.8510287442903126, -1.4333063031821573, 0.3140647825238181, -0.6764850373971365, -1.7614262057675008, -0.45912614168999044, -0.29041120964902123, -0.27196322049994276, -0.749888535117352, -0.07976024439004585, 1.3704265926765187, -0.049033612334082134, 0.3613108857635535, 1.332721591017288, -0.2182228657515115, 1.1218021056084333, -0.6348142800325673, -0.3892771857048138, 0.3079484913318961, 0.5496608953248046, -0.1069734118826455, 0.06888982941114635 ], [ 0.5600143259802224, -0.5736663599900848, -0.9607843034902191, 0.23911473429620264, -2.184765759618613, -1.2078485613259164, -1.2794557307159289, 0.7940829502711779, 0.33566303176417167, 1.2435589138041956, 1.029369895160111, 0.3219789375127055, -1.013320428274534, 0.027577738379796275, 0.8624099413591582, -0.5147285881708431, 1.116141149877835, -0.3369276172105091, -0.08812319926750474, -0.2143226464795502, 0.040495345262529944, 1.9819062854620348, 0.5618884586481593, 0.7174661175297473, 0.19731927650769904, 0.026647363915232515, 1.9264901078686112, 1.4378215426205365, -0.8211851586157818, 0.03456949377258515 ], [ 0.44355057618192434, -0.9578747830591201, -0.3293935695233137, 0.3357788955875807, -0.09377172464334611, 0.809344028409592, 0.08097719967142206, -0.7093571647714481, 0.5697813259867938, -0.8476815814710447, -0.021899705512770457, -1.2900759052601705, 0.25556287266166944, 0.8975479207633986, -0.44677619615570036, -1.1080193155371474, 0.7781178590060119, 0.8696639677291698, 0.1586920520008259, 0.29411114489043383, 2.1109354124437143, 0.04028596100446544, -0.014317504392123882, 1.384275673315282, -0.08606024793580026, -0.3429777960300198, -0.9091354806318138, 1.7725134878009954, -0.03546162849869223, -0.16045520841290575 ], [ -0.49390196072816156, -1.1115043455442044, 0.10682555539489674, 0.5025227600219281, 1.1955923492226364, 0.18834496279550597, -1.4285151107071592, -0.2756218722114371, 0.32234653499884175, -0.16217524402959319, 0.12408003375008365, 0.8627966359381181, -0.23234429602178971, 1.2880002043193512, 1.957311919363142, 0.11595389025432684, -0.30102064816056184, 0.2101044400408527, -0.5932016029988757, 0.35383013323294593, 0.7037055331621768, -0.37429922569183793, 0.3897413585438544, -1.3197544217301111, -1.0173640691857895, 1.391634670262021, 1.2942181386536704, 0.5965115322548741, 1.7995463836340848, -0.0688505540751049 ], [ -0.9729904808250863, -0.6475376549318707, -0.8003087432370244, -0.8681944057769988, 0.4777544737798392, 0.011826501107634158, 1.2034236095072752, -0.38326791943931166, 0.3864231715314291, 0.426667059340516, -0.058041067313890665, 1.34171157428392, -0.5667835149366675, 1.709204278785041, 0.8264991797167377, -0.47855870189470395, 0.12882343079867906, -1.0830831699847583, -1.1712209941832858, -0.3035663366651553, 0.7383401053422477, -0.21963883312100588, 0.7290885796088633, -1.3182292326217673, -0.5669977418610899, 1.4409885559065423, 0.8042196334700016, -0.8005422894944585, 1.8300329419116896, 1.008171043416399 ], [ -0.3974868997776616, 0.47825078620657074, -1.326918032559874, 0.05824264010424316, 0.747038004695397, -1.9874946327930199, 1.24089479613307, -0.15979016406379004, -0.14144823136326332, -0.2868478184850026, 0.1063926796132121, 0.13426585139194713, 0.5957743524731405, 0.7691757819888418, 0.7205287737346798, 0.4739066206005375, -1.382911345630231, 0.23136592697392497, 0.671660895322146, -0.5624050162909894, 0.5946886328249911, 0.6818939023240373, -2.4371603527098262, -0.2650260675692094, -1.0103604775732953, 0.4987676929980386, 1.4175491521361316, -1.7278457076336227, -0.6748329065966427, 0.1863546006394588 ], [ -0.059376520635351246, -0.543084557762179, 0.3325492006835388, -0.8322650494752427, -0.29511311589054123, -0.39874511254345235, -1.9443094323495986, -0.1456083088780022, 0.5489818198811995, -0.3389711733306172, 0.13736320979288333, -0.18378268247327126, 0.7894155447469051, -1.588532138559193, 0.4325707319047889, -0.37524312729941695, 0.8529616598155507, -0.5372742637576262, -1.3703231343668203, 0.7825603553632821, -1.5286009920022166, -1.0069286656410188, 1.3823462247182041, -0.21336946041850793, -0.08816334735092503, 0.8550834155403224, 0.34603154572378586, 0.6153400389298246, -2.27782673014775, -1.8366937688221048 ], [ -1.180279604489313, -0.6804775296903194, -0.9788234938355584, 1.1891649781906226, 0.9711439400582088, 0.2708366224281056, -0.04216482211415834, -1.1980823643127854, 0.217685290869709, 0.6403633439922155, -0.08002302931090768, 0.4580537244385357, -0.3634646629430934, -0.9620135889080146, -1.6913993909063645, -1.1986982895599776, -0.7457017413552902, -0.01640688910472034, 0.20202278262205223, -0.09928048678949442, -0.28608240223931997, 0.9177273438710799, -0.8370308477088692, 1.5509146984764635, 0.8790779467943423, -0.6949859361962921, -0.9109419948490493, -1.4122959291621278, -1.7941271763982614, 0.12961812815242682 ], [ 0.1836284010374658, -0.2800453564467162, -1.0195952769114156, 1.8097584634440116, 1.7625260694314115, -1.1506801059310923, 1.0723179699642185, -0.12380322869924242, 0.3307333912050853, 0.07805181757299853, 0.03396139775712465, -1.280422577654191, -0.24956123637831873, 1.2860950841730014, 0.7203316917622073, -1.4377727134658767, -0.39208312988686345, -0.7651874180371226, -0.4307122507855606, 0.6592052137110156, 1.0392443222526921, 0.6437298514445794, -1.1328218275134208, -0.08495014450824645, 0.1264898587950086, -1.226773721622568, 1.8269988939516266, -0.6610202118375615, 1.5767431954901259, 0.7931512177261193 ], [ -1.1630978946993384, 0.3355207078277385, -0.6969903685729714, -0.3446441992111039, 0.06504026585870479, -0.3230717424591366, -0.953203558037792, 0.0898772676549941, -0.5292402366279606, -0.4878315653944252, 0.8284014977421827, 0.17318622673615636, -0.6567447944906187, 0.5197670663900928, 2.5915676896134006, -1.29064067090014, -1.435996456013111, -0.18986484624720928, -0.252841114036124, 0.156740836477148, -0.8304151930500435, -0.9168424572855501, -1.5822253303405438, -0.1871046469350064, 1.4250645395265438, -0.434847681173879, -2.0222122412833787, -1.3248500144544464, -1.076412201830416, -0.11196232902152145 ], [ -0.6627620524405207, -0.3887367623582811, -0.5074489507454677, 1.2237190052341336, -0.8003599691959463, -0.9119686792258654, -0.7056336696864008, 0.17176755124984278, -1.084607131635216, 0.00521796321688355, 0.12722489422272304, 0.2256111564666143, 0.5960250938647164, -1.3268195674379968, 1.9080960361883232, 1.213111956991333, 0.5233074684436317, -0.2705124713396124, -1.3833183837718335, 0.2783680344344467, -1.6582775626830428, 0.3559262183686228, 0.2198710300644989, -0.7514936199342943, 0.661990689086425, 0.13159348413807165, -1.593671323619884, -0.3168488852095478, 0.6203449253420144, 0.8005603552236603 ], [ -0.5423947090277658, 0.5532909770050674, 1.2041291967758934, 1.1753803343261044, 0.6177824597891528, -0.27989585998900196, 0.03213637876370149, -0.043184403781089994, -0.0028371118569098515, 1.4540758207329507, 0.7271585725690328, 0.7576792764055603, 0.13660847698854217, 1.1748792228241338, -0.5231658435607309, 1.7314662688654834, -0.4009101732553827, 0.8016393777252603, 0.4008023695914706, -0.726527700314965, 0.0018199000863285619, 1.332287454553276, -1.1676814101355735, 0.03557194065400058, -0.4682750112782884, 0.10164902858572167, -1.6790566886544376, -0.7933646071777795, 0.8444169657065829, -0.49828378582923877 ], [ -0.38512813003280666, 2.3102054436588944, -0.2910974423706696, 0.9785361723320977, 0.747508758784101, -0.37506874154929853, 0.5596959838877903, 0.6164668553662382, -0.32747836221077975, -0.3567265230405831, -0.5858003523442312, -0.18172145742069176, 0.130793013414837, 0.32323786817830125, -0.10855511555377238, 0.6268868862830308, -2.2933717172673584, -0.3412538204010524, -0.5880014138989089, -1.0083591223898303, -1.0303129446980397, -0.6012432745295799, -0.021161180904406197, 1.0492741578947196, 0.3578483908368071, -0.10821585353226129, 0.6996893520661343, 0.8816858741986044, -0.5742536412696071, 0.3174006454942345 ], [ -0.7719558686194873, -1.4025875741246685, -0.843101622899849, 0.07017647569882353, 0.20066681914474233, 1.2471336984396557, 1.078735930563093, -0.6283744518392376, -0.5012166301239139, -0.05373612616556212, 0.11972560406431954, -1.046262762981733, -0.3521824789807929, 0.40688892462693554, -1.638958104868132, -0.40673973532577967, -0.4852072988085553, -0.4385551425322891, -0.3946336340233983, -0.27712939388485147, 0.4585634988863748, -0.625530032313817, -1.2253192676279714, 0.28387580828331116, -0.23856252991806925, 0.9192849887567945, 1.7029733988037448, -0.17303444876249624, -1.2969093737835682, -1.4600100736553172 ], [ -0.5670954133820111, -0.35124267876708737, 0.9257744597614913, 0.46410617891043576, -2.3145861113585657, 2.0429058941773874, 2.101224578493025, -0.22270505691933648, -1.1988019055669599, 0.21239944172671132, 0.6265578652772753, 0.6839256277660244, -1.208035973942689, 0.534976224861338, -1.1055118357128535, 0.4283800226620496, -0.475608975285989, -0.41083335131065674, 0.2141731264211212, 0.9068496701375063, -1.523052522913315, 1.3475618798757807, 0.25049264701307294, 0.43371784629363574, -0.8092928589168431, -1.3792516455379231, 0.10048605026349536, -0.5632733934312526, 0.3643604595031537, -0.42180663103372146 ] ]
  }, {
    "Size" : 15,
    "ActivatorType" : "Tanh",
    "GradientAdjustmentParameters" : {
      "Type" : "Momentum",
      "LearningRate" : 0.01,
      "Momentum" : 0.9
    },
    "Type" : "StandardLayer",
    "L2Regularization" : 0.001,
    "Bias" : [ -4.501614132154202, -1.2206211278747772, -2.313044657061687, -2.655755747826578, 0.6408567250296997, -0.0810803634596958, 0.46459297751908885, 1.084852479864554, -2.288182449779393, 4.9225687082572565, 0.241843558746243, 0.6668889190453525, 0.6995699198602721, 0.10533535538789682, 4.241019692103891 ],
    "Weights" : [ [ 0.2650252913465921, -0.8905131324320686, -0.282871610068443, 0.059616995791789966, -0.393397708695591, 0.9125995596313612, 0.04755043075401405, 0.5345441532110804, -0.5805694139230352, -0.5154844810247243, 0.3338870577259411, -2.2750308493074836, -0.7428551224238146, 2.992742495193087, -0.3302431227294731 ], [ -0.013557891166450328, 0.14299566155227017, -2.6856395857412187, -0.9400474300829504, -0.37614562956647346, 0.05996201302182749, 0.5774324653049786, 3.8370472814286547, 1.034195009991206, 0.24716356264095338, 1.0651126177124468, 0.44750588856112206, 0.017805449830985677, -1.4102097029345617, -0.8576601976926722 ], [ 0.6359056537338532, -0.9756280652442272, 0.9302379053441953, 0.750626187449784, -0.3534635792844962, -0.49860091302275056, -0.1467224769619769, 1.4754505381403358, -0.3692417337527191, 0.0138880993509074, 0.456857818340557, -0.9434943910966543, 0.8356866982909229, 0.3699679030610372, 0.6324731988039285 ], [ 0.13863114519852285, 0.5899616110178408, -0.4326573968654696, 1.5093294996934965, -0.28797381854190274, -0.38079957688238125, 0.8484383228361775, -1.394876721834775, -0.37467793081040257, 1.5818485140055034, -0.514923502557038, 0.1260226166278852, -0.8638565906975506, -1.1999784198843708, -0.7075564480069314 ], [ -0.6273846437540719, -0.6246566375141758, -0.521919735421868, 0.2049067894008034, -0.2597246688180643, 0.7136438426126462, -2.8488809748076767E-4, -0.4836924876599068, -1.2861791477460836, 0.9267721201233922, -0.697233634857415, -0.7257506658815706, -0.22482319287823338, -1.0197058037416993, -0.5001127581447092 ], [ -0.37484851577404565, -0.24628662051814199, -0.0474847796285857, 0.8867361687941997, -0.1006969859016383, 0.9918362956682666, -1.3327478857256168, 1.3362950957546285, -0.33677814011084456, -0.0671713666502649, 0.6207712291937828, 0.08698483336738422, -0.66051869182649, 0.6050650638490538, -2.588351705102733 ], [ -0.44972072343469544, -0.8419924258504942, -0.5821316850206, -1.6728773046903813, -1.6921115311078196, 0.624230545086461, 1.35557263637017, -1.5228549326580114, -0.5767021849645743, -1.4554992667378308, -0.6832262505982302, -0.3305185790617372, 0.10652768547830202, 0.21430998643426874, -0.846023595116741 ], [ 0.48025005213821037, 0.8759697711082801, 0.2264466592653336, 0.19893343797014215, -1.2182036963053746, 0.35771922995223826, 0.22140277511311088, -0.27096837383336153, -0.06914374179229518, -0.1774882009252205, 0.2713290228922757, -0.868856772175955, -0.6443535937947468, -0.25928965794729514, 0.3475161472475594 ], [ 2.326379687356379, 0.6512679958664561, 0.45086195612571534, -0.6660109488929102, -0.31577017397587337, -0.5519762071714159, 0.7927904442602485, 0.7042397062459552, -1.1939582807704865, 1.1896691892302362, -0.7005946836025564, -0.6659709478375374, -0.42865853507708773, -2.872084423487354, -0.6136363679527572 ], [ -0.2112647422713086, 0.6673892447259359, -1.1323519403174915, 0.6897949116488965, 0.18659642063522083, 0.6096244700950794, 0.47263980166801484, 0.6574072961869457, 0.7998037805981659, -0.4949552720693249, 0.14997021708783773, -0.29926268605942824, 0.19047063935127703, -0.2786422299500644, -1.00888787073457 ], [ -0.04851728173124767, -0.9496234778210827, -0.8123590399838083, 0.5963026688610255, 0.44897895478399497, -0.26610207187567464, 0.2457433013958683, 0.46710215298189184, -0.9236803377178529, 0.3204297483379901, 0.8786463518388472, 0.4316554577914291, 0.44748215151539456, 0.2633507791713293, -0.6092168753768168 ], [ -0.09833312155686726, 0.7414790801209681, -0.430462385530436, 1.3847945518547016, -0.7812443811218812, 0.44008948628783606, 1.2202520026932309, -1.7430446813882912, -0.7326925412801731, 0.3770988642498281, -0.9271610574306591, -0.20848222842823627, 0.2572350178337435, -1.1708076999305854, 0.8996245277199589 ], [ -0.2758481653708852, 1.0124094253546767, -1.1417774371797875, 0.09579227690938209, -0.08209457936619019, 0.6773179271275735, -0.558744849831895, 0.3085824146749611, 0.6456056036901121, -0.25018534823916827, 0.36011893031419473, -0.22023624062541114, 0.615551822523826, -0.24825631860732397, -0.36940204898172235 ], [ -0.7075170652902156, 0.14218824473563954, -1.7256198777861012, 0.3469282663226233, -0.558872610956695, -0.26018099289595675, 1.139941502213773, -1.5156840053305607, -0.4048099620158529, -2.0634872859000644, -1.2194576245724957, 0.07244917204694175, 0.17822847564594882, -0.020889553050245015, 0.25066142040253403 ], [ 0.10493458590493002, 0.2548711127064962, 1.1466949608206385, 0.6240975957488211, 1.0728910742041278, 0.8097343187820992, 1.1789793648429703, 1.8420545680336136, 0.831760775687738, 0.07120197019319299, -0.07956083705468761, 0.17528136585458462, -1.025690253528086, -0.5698821195723069, 1.435786535507649 ], [ 0.2689272417126569, 0.7007689218872192, -0.6441903597622882, -0.6945335386741364, 0.0627842093447268, 0.3203019306175691, 0.23395988415995062, -0.9657739783178759, 1.4661422924193817, 0.03899963053145962, -1.4127603964995115, 0.16477501056965527, -0.1993798177213152, 0.30616612721925623, 0.3920642214524046 ], [ -0.0066021284574923345, -0.9324811563038814, -0.14842879881927465, 0.2947856436229247, -0.6723485804458084, 0.06397216042934019, 1.0352816904659592, -1.3560138594312223, 0.930721986932001, -0.7914020756543458, 1.1750996853374815, -0.7481368718837438, -0.301956998552084, 1.6664850711177146, -0.20050906969440183 ], [ 0.23591424393319677, 0.1791740434725104, 0.6492713077609096, 0.04010209550534993, 0.1371018282062926, -0.17037772276492585, -0.4620555981925566, -1.340020953309583, -2.205623112132611, -1.3967168661260725, -1.0562645497878198, 0.9302669632596346, -0.32203809368297676, -0.13461915545684602, 1.8597302147844854 ], [ -0.24785993093673736, -0.37584387967659677, 0.9007324261117315, 0.436567865963949, 0.7634318680348523, -0.33198977734222446, -0.6735266725866541, -0.08586241725335061, 0.609885305449012, 0.19901703568903417, 0.23450141242875044, 0.8257716867124957, 1.1405733938250167, 0.3420297406992695, -0.951342764453655 ], [ -1.528186011751661, -0.09880162745547928, 0.6891945682876267, -1.6540057368644294, -0.11738213284032133, 0.19323874428631288, -0.7862686640799008, -0.29520847255820803, -0.20758751018454294, -1.8748576203669889, -1.6955792759291866, 0.150997438205244, 1.0255996494538635, -0.6649528033372724, 1.062527183961608 ], [ -0.5930877205699108, 0.6805757153135894, 0.17439371915599028, -0.027687627504407012, -0.31575001130584057, 0.7501794377318655, 1.7404698191970243, -1.3489851708770293, -1.162924684256681, -0.37706816278693944, -0.9733473849964741, 1.7162517392243402, 0.23293977776307026, -0.3869630218116343, -0.4046992145453148 ], [ -0.19629466952142485, -0.5345616095242488, 0.7559706513065764, -0.5573043914504094, 0.6209381509216854, -0.6095996460550431, -0.45518040439532953, -1.4178845824064195, -0.6080563609986251, -0.538466601541264, 0.8639019219198678, 0.011672044771374967, 0.7891097908776264, 0.15646332049242573, -0.41305514545811045 ], [ -0.7029950774655935, 0.3238237321815634, 1.4972372546753077, -1.4699134200490682, -0.6494121262072899, 1.2258394568678603, -0.09144892880120259, 2.790767809769947, -1.0485535668672774, 1.4057472428270072, 0.2269931910538199, 0.2234682483585634, 0.8129417021426935, 2.0917546163892147, 1.141042083825829 ], [ -0.045138411522227806, -0.5740074474162594, 1.0655133993202417, -0.3373231489713452, -0.290050597209837, -0.6393684062352657, -1.2471247702347843, 0.2706699947134385, 0.5197960736017965, -0.11195115791111877, 1.150449203228888, 0.040311534257740214, 0.7828210147126636, 0.2580171174973312, 1.2762287503938492 ], [ 0.5158733753511906, -0.2481962930322511, 0.677632644491064, 0.3888485390768606, -0.2917867279555555, 0.3670254428764795, 0.6761913086504686, -0.8136985034903705, -0.46539153520665616, -0.804477035237128, -1.1698597856555768, -1.1896492345035223, -0.5380519481799074, 1.0793054078093256, -0.5361750742238742 ], [ 0.7876669125013558, -0.28365511172394164, 0.2828109117817073, 0.24327166199580966, 0.14378641760199554, 0.06076864154630416, -0.6740871333797736, 0.12367827758992164, 0.30100186855454497, -0.32586131514131506, 0.9506988619757716, -0.719536268570468, 1.2300406677482045, 0.03898915248057503, -0.6092778104475147 ], [ 1.3152373975709175, 0.2571923716538836, -0.7753088488470706, -3.0201199812085693, 0.11984313646608984, -0.11928437381359576, -0.49882262528899995, -0.5489772389516165, -0.9455679149825809, -0.043988990383798846, -0.8012946346703765, -0.6285983739792022, -0.3038459402401955, 0.4277958672129412, 5.811059949774509E-4 ], [ 0.7205386137570494, -0.2193369015252757, 0.36607846400280597, 2.0829237543145243, -0.41228309657080153, -0.8776745676663601, -1.8141585636428406, 1.2341964369145484, -1.1770401108021533, 0.023228455970050417, 0.7462218171824999, 0.45450943770256524, 0.5292406620760549, -0.16787074300880714, -0.4401212602386559 ], [ 0.09831868718654563, 0.08286516765387934, 1.954965898540588, -0.6784130871004418, -0.05539095022368374, -0.18267134768122806, 1.1681195805274742, 0.820772385300853, 0.6482804280511671, 1.7138947362319394, -0.7100274682869998, 0.4113640616675058, -1.0751512273645534, -1.1115403839626339, 0.1339526677259076 ], [ 0.0809772183167731, 0.18580279861360108, -0.5227533271054958, -0.28409171351925394, -0.5450012016837809, 0.24791201648727285, 0.9098517008157494, -0.8758041466624499, -1.1433422357199998, -0.15948951335093403, -1.3986396275031583, 0.37077819215537255, -0.42979870188757785, 0.4114116213907103, -0.6640609960391198 ] ]
  }, {
    "Size" : 1,
    "ActivatorType" : "Identity",
    "GradientAdjustmentParameters" : {
      "Type" : "Momentum",
      "LearningRate" : 0.01,
      "Momentum" : 0.9
    },
    "Type" : "StandardLayer",
    "L2Regularization" : 0.0,
    "Bias" : [ 12.635428543005412 ],
    "Weights" : [ [ -2.51641882522295 ], [ 2.198495673135078 ], [ -1.1811894717969553 ], [ -0.8280751756939522 ], [ -3.4268409635063355 ], [ 2.8920294647104043 ], [ 1.3934116023487984 ], [ -0.9561423708077371 ], [ -1.0594618201195563 ], [ 1.0994826866834815 ], [ -1.31621668324982 ], [ -2.98938181093519 ], [ -1.7176267223177721 ], [ -0.7897730426133803 ], [ 1.725698614503031 ] ]
  } ]
}