{
  "InputSize" : 7,
  "BatchSize" : 16,
  "Layers" : [ {
    "Size" : 50,
    "ActivatorType" : "Tanh",
    "GradientAdjustmentParameters" : {
      "Type" : "Momentum",
      "LearningRate" : 0.01,
      "Momentum" : 0.9
    },
    "Type" : "StandardLayer",
    "L2Regularization" : 0.001,
    "Bias" : [ 3.467124123673618, -3.4336170076482233, 4.3106129963729645, 6.180506272703694, 0.8447052325922052, 0.8605785199188779, -5.503565764814524, -1.5726350908984312, 1.333150978486092, 3.953205660418473, -0.2344280985402641, 1.622864207318213, 3.7485139888579027, -2.165806211008321, -5.961450154894221, -2.6250567931558577, 0.012101101811909737, -4.6688322759491365, 2.811587242113447, -1.3758562031059962, 3.4860167850487715, 0.3920975159091401, -6.775370813556784, -1.3970994490406843, -0.8722086356525756, 3.0052569504739086, 4.186985937307573, -3.481806022232629, 3.5309983326125893, -0.6448823988847899, -4.0939342383316655, 4.026311246532775, -1.7940771624473242, -6.700183895165918, -0.25401435861195965, -5.575846966954494, -0.731590561687713, -2.018439211875848, 4.208033989618788, -2.364024473854064, -1.099933177551043, -3.5281652924620537, -3.5722411769245546, 2.1656018494769724, -9.65783588124394, 2.6540379730722874, -3.8718645710705193, -4.63422541085819, -4.950557835541173, 2.0456326392892783 ],
    "Weights" : [ [ -0.3332796016832495, 0.2447841949215313, 1.2020926443610032, -1.431798281847754, -2.813026363668952, -2.356547586916445, 2.3307718340343753, 0.5214622621201664, -0.3066747198291724, -1.0616815293519557, -0.039686489405971886, 3.582168715331501, -1.8942420658857628, 1.7749507743799422, 1.804984281908868, 0.9666014578754886, -1.5139251991470601, 1.7050459103658466, -2.5120786378879867, -2.6817967958453504, -2.0527809949542086, -3.1540936615928006, 0.38913783802238266, -1.7895573143343821, 0.18016279444959546, -2.0226496387794004, -2.0718530820353926, -0.5396032638981764, -0.5481324108204565, -1.59201464263959, -1.2609826331799296, -3.1014022472440095, 2.310383658852433, 2.0763923213078517, 0.1970972195619577, 1.9342034434921227, 0.6126200887625045, 2.110158591266446, -2.3841726910233807, 0.020394174466467182, -2.4817437968401164, 1.7077016853485114, 1.4255771643232114, -0.5456208134970268, 1.4074959491141918, 1.3762677723853654, 1.7288321986394055, 2.6081698113340894, -3.171252066813371, -2.201689548420239 ], [ 2.876607232650594, -1.1644225618299187, 0.382316373183743, -2.115662464172365, -1.8179356892764942, -0.480442817475022, -0.2562662562588672, 0.25561441030366244, 0.12883339813738304, -0.09658284780913225, 0.7118931779772717, 1.2189461439626097, -1.6053019401241515, -0.3834512992897786, 0.5088525741628301, -0.5129945197297312, 2.134536045401089, -1.7356765645107946, -0.674678670559269, 1.3260451818793049, -0.40732660482738325, -0.16261856515186743, 0.29762472228892384, -0.10698333381574537, 0.15529514066902356, -0.43469260058500203, 0.4839954038751459, 0.047257743122700396, 0.8315494492482369, 0.5718957755568965, 1.0315878206544797, 0.06898465756945443, 3.40348489965644, -0.9872978631413539, -0.5459117888358229, 0.3620017150475092, 1.5880544593069754, -0.614337156844372, -1.2170125759873165, 2.172523432718639, -0.18545580702843278, 0.3468824341529907, 0.09429870051095982, 0.24227180913126373, -1.1174976726417607, 0.2784111726569389, 0.523274342565482, -0.05212728485121685, -0.53314911458254, 0.009077523100461955 ], [ 0.9556300107811604, 2.1197991416087154, -0.06339933783118576, -0.3677351755053193, -0.4858395812512277, 0.04568312184514767, 0.561058751700867, -0.823252134853787, -2.8623862982679826, 1.8844558572257692, 1.6831004263175953, 1.1938038592026523, 0.3935609747532803, 0.6358578554704196, 1.2270354196141173, -1.8956154916798136, 1.2687824461729098, -0.5249221594021339, 1.0990938821733167, -0.9613578207944339, -0.3708229216493982, 1.4407317270657034, 1.3571879534338813, -0.03407564919872505, -2.346534208494194, 1.8875555694826245, -2.134986801643784, 1.457040755802827, 0.3136966935734939, -0.48232565030979935, -0.11829638575537929, 0.8321446998786992, 0.1954802366733369, 1.4907414815900348, 1.0935180228614811, 1.2138918492918556, -0.9992762807400791, -1.434045168722251, -0.5686724582325412, -0.3129037916134011, 2.145909546523834, 0.6976945786874704, -0.31871743639991945, 2.1690427493076565, 0.687353939356218, 0.18833167465023135, -1.0966539814474543, -1.260962992910405, -1.4525273177358053, -0.4436615736748871 ], [ -0.774771321498998, 0.8119333341517199, 0.21484451898949133, -1.087900239327642, -2.2373126448724334, -3.1099135078327778, 2.597901663320657, 3.775952716920074, 2.2967020987071667, -3.0213659872527083, -1.802072733369372, 0.9219171858919285, 0.3635427764877605, 0.004813281313188204, 0.7854088306649182, 0.912458818034027, -1.354238181530808, 1.751068692877844, 0.40916125559260935, -1.7620036512227915, -3.5407889952595384, -1.296169565652652, 1.3082348890390743, -0.7525190485795658, 2.5032382634401804, -2.322971980956401, -0.821458158013204, -0.35510423424287774, -2.0030326777113783, 0.33595272042797525, 1.7053854447668015, -0.4880215463761229, 2.116678257551001, 0.8362865819226376, -1.3331592568864656, 1.7277338966379803, -0.116007520164617, 2.3889995938852655, -1.8724162819616545, 2.417334841936786, -2.922247974873231, 2.2387823925042722, 3.7194148717957427, -3.0867273650052613, 1.1816195476633893, 1.7216316242705545, 2.6584841387741225, 2.394058691417463, -0.15477406913066727, -1.5206658299162408 ], [ -0.9801291753307992, 1.617727182813201, 3.2261372352094515, -1.009198937389839, 1.5257669204595867, -2.4752871273078263, -1.3935531315734773, 3.057063886279582, 0.9865832300333958, -0.2871862965699433, -3.206753218163047, 0.21514600047957308, -1.530550546346774, 3.4796690351163675, 2.557468462064437, 0.5323247598945076, -2.11104655074971, 2.7590667107479554, -1.1955971322746477, -1.330450176710216, -0.6875443904657568, 1.7752946086171792, 0.6830218143101573, -3.211054597701842, 1.4548738961948966, -2.131475631922742, -2.5412284956100635, -3.0695262203309337, -2.428533682154258, 1.914672746951977, 2.755219155371718, -1.4108646925704784, 0.37320793701689386, 0.6892477990726187, -3.3251166255016638, 0.972008258135254, -0.804863116623515, -0.6829600520186271, 1.341938884940112, 0.5352752950820493, -1.3453849963188593, 3.187764605031991, 1.911408542215512, -0.2768765102580166, 2.6971541702775306, -1.617334517204308, 1.5283230701888304, -0.29980431302356364, -0.22241197415517375, -1.2681714953599441 ], [ 1.4448840581852938, -0.10991633563659725, -0.16331270685466667, 0.01185099633963211, 0.9084495320669408, -0.11210778529231717, 0.6912215478212845, -0.6397923367304581, 0.31838061156375197, 0.056324558858074913, -0.3125594466627631, -0.19127241778523663, -1.6825362155618104, -0.5061139908368295, -0.6040803746265708, -0.9371058138881386, 0.6816057904561393, -0.3857899072559931, -0.38930744767387715, 0.39772853437804, 0.7011811670740864, -0.6133164750106223, -0.3821813569385991, -0.07109553134127715, -0.9145157247723463, -0.1177479592299338, -1.3157978959747634, 0.04702416042342397, -0.2394074574200749, 2.1827916111692773, -0.8285008720657776, 0.40871386849266367, 1.139293306124878, 0.7732641777520038, 0.3653438676038696, 1.9166324448701155, -1.6571332747600767, -0.33824768502947444, -0.03627352712480202, 1.1757634456878718, 0.17118739094071386, -1.8798211055263159, -0.010798323930690534, -0.1511056897488071, -0.21399592697607378, 0.09681587249562304, 1.459740666317564, -0.45376389040174675, 0.19152403415362662, 0.037495298157897886 ], [ -1.7012189904993131, 1.8055638037971946, -1.3573392693754716, -0.3802996981336376, 0.4125314219628866, 0.3053671602737605, -0.09064115179613419, 0.835536246435222, 0.3761424976898738, 3.1950129785281245, 0.4212117540709258, -0.8769041870301761, -0.11181563816354753, -0.6849534333126197, 1.8730412024589813, -2.539384647627679, 0.18310738260632095, -0.7270238590488368, -2.775307778236388, 0.7614570710397394, 0.16397841401168836, -0.6582969046220744, 2.7058352285677274, 2.3073399756482686, -1.3187764580078287, 2.7869904630763176, -0.055480234581487355, -0.4047348725434183, -0.7749115304037112, 1.3383098085850111, 2.2919608158180513, 2.8241687555583015, -0.23158178678907437, 0.34122308061980233, -0.7719044850190068, 0.07667836587766293, -2.47755450910209, -2.510658554177695, -0.8152566485538946, -1.8576409321588128, -0.09058481032642635, -0.1931049196660813, -0.5682896269244624, 1.9159081657788732, 1.6223075894201073, -0.20813204601892038, -2.3760453968999635, -2.5769455244963364, 0.2836762108918755, 2.4839448654643808 ] ]
  }, {
    "Size" : 30,
    "ActivatorType" : "Tanh",
    "GradientAdjustmentParameters" : {
      "Type" : "Momentum",
      "LearningRate" : 0.01,
      "Momentum" : 0.9
    },
    "Type" : "StandardLayer",
    "L2Regularization" : 0.001,
    "Bias" : [ 4.271656395513055, 2.0906365773990094, 0.6353930964732518, -0.34867386054071187, 1.37160573152755, 1.3556172183233286, 3.3262461790079225, -0.31087839476896767, -3.535117685808009, 2.1804857611889465, -0.7075129597157326, -2.734444129205937, 0.37480599794403935, -2.350810884971654, -0.47498646682077045, -0.39684353226524427, -2.8630692356906655, 1.894118237003694, -1.5965632973045185, 4.330161390448684, 2.5200893108014717, -1.1960475358656617, 1.600152519236045, -2.276048393527577, 1.9514303812924716, 2.230022487054448, -0.6286913783229264, 2.5558150713408954, -1.7682913929869257, -1.9523637277548125 ],
    "Weights" : [ [ 0.5733669259336425, 1.4710056854274076, 0.5778464101763153, -0.24175010370204053, -0.2117074741411337, 0.3795721656625783, 0.6610566255319671, 0.48902241611669234, -0.2885753120397363, -0.28745127373150975, -0.32012025914391135, -0.5970629928415487, -0.6880640056665307, -0.050552876786256806, 0.9746568518097815, 0.8116596480746671, -0.38845439430645134, 0.01484291907182911, 0.2952250964689236, -0.1420390287334976, -0.2510342199741996, -1.4222532526947758, -0.2409380437719081, -1.3864883648986643, 0.9582100520071117, 0.23384433103167468, 0.0011628586574158766, 1.04535423341291, 1.4011115768485183, -0.41643424769996884 ], [ 0.9757307920958153, -0.09612678856969852, -0.6730863196861705, -0.3704424146226873, 0.316987511788739, -0.2167383100055528, 0.7273068681974671, 0.6785173770345043, 0.8316230028771652, -0.14596806188245162, 1.7151738649129222, 1.4991594989554557, -0.11741154412041592, 1.4452841064629207, 0.06944791416977335, 0.35337241343302256, 0.9335255006289692, -0.8918175189965061, 0.8835926526148292, 0.37034004178856816, -1.0973045915580177, -0.78716505434428, 0.6583601771431511, 0.324050139034144, -1.3089859637135162, -0.5171603847840329, -0.20542692405283475, 1.2177138072352405, 0.46666815343534856, 0.3879320160117728 ], [ -1.2159702197399984, -0.12266852775033404, -0.07405863500907499, -0.046847361781785654, -0.6844257293467023, -0.5563539851875026, -0.23684434311899497, 1.4136950600095775, -0.6242418505652318, 0.2756905389414848, -0.3018612974841397, 1.853921606311464, 0.5626832629589681, 2.310563337292568, 0.05631072210896904, -0.7864887338232202, 0.9043835340981622, -1.0921676585245688, 0.06551036170029602, -0.49238073081035266, -1.8435957072226918, -0.4213305897017255, -0.05477686638632259, 0.1326377155197357, 0.6511386599100341, 0.05488783542227362, 0.9317335230324757, -1.337062870057764, 0.4515896370708196, -1.1908538647890536 ], [ 0.1293992011795468, 1.8429030938365614, -0.020433006745346618, 0.36900013038201673, 1.0635023267441521, 0.27912300182598193, 0.25721503508112303, -0.5595804652348073, -0.6125366924309684, 0.46260031437630905, -0.33164097827963596, -0.995595649099999, -0.17267266843415885, -0.31569303058645504, 0.24503878593027886, -0.0042695733591117035, -0.1370346553736437, 0.2785738444014141, -0.2970534364577752, 0.27623271643120273, -0.2244464212937914, -1.0207074782643053, -0.3867042105923501, 0.22292073144206065, 0.846481027437043, 1.7049299405102727, 0.3947742588354921, -0.03320915013733063, 1.2146587585449988, -0.3738954559139031 ], [ -0.583071774353823, -0.25999616306790096, -0.6040946024000577, -0.6655357795240686, -0.09084523686598708, -0.1273185152738527, -1.4890629273120468, -1.3267656373496861, -0.8864055863741827, 1.2699844808121472, 0.43183011847839253, 0.6960475240556206, 1.218237199959105, -1.1702582673806714, -0.5349349409787485, -0.14803643570793196, -0.5570341763688332, 1.0708058595178578, 1.339470919817183, 0.6621193906470753, -1.1346248511022365, 0.6707866386343356, 0.2222526205540325, -0.27492226459935887, 1.1170562972707536, 0.4396866323247011, 0.24047871769020657, 0.014458715925530915, 0.6914772728527385, 1.6318968736990545 ], [ 0.7690926865761106, -0.822139939394555, 0.4715645322020325, -0.045056314328656775, 0.18464257613168863, -0.7141599060039411, -0.8322359998503155, -0.7679395625152383, -0.8228235268167295, -1.0002756580746792, 0.5705598220932678, -0.8563641733095257, -0.5865285619175923, -0.7276098878119948, 0.5523382359901856, 0.7321955051868363, -1.5983694896214293, 1.4314192157703463, -0.2266029649675956, 0.7085094978321164, 2.0651970581871244, 0.5754202973908566, -0.2194110885444481, -0.2433322655483424, -0.13861731507318048, 0.6084583052394112, -0.47999432821949806, 0.8328834426048541, -0.435435676226778, 0.43425587380026814 ], [ 0.42460632756928723, -0.8181558435576899, 0.04880166697944231, -0.5083037173527937, -1.0285740318315326, 1.1116620016758574, -0.46376347439017696, -0.13683857438423305, 0.29155805296517234, 0.09120881873732327, -0.6262936015876411, -1.336097836393486, -1.665498882410371, -1.5002077562647351, 0.782759968312748, -0.05300041611266907, 0.7022572068576592, 0.11400438036596497, 0.12416368370667899, 0.3700128086349792, -0.4200328471616407, -1.2291574731644754, -1.5888090568081494, 0.4737373894703898, 0.559537855326957, -0.3613942711374174, 0.09866438479241459, 1.1893059522030025, 0.49452151675926775, -0.20831503220090378 ], [ -1.8073830777347788, 0.13140655825623368, 0.7597106244228501, -0.8117302389298594, 0.26934210093306127, 0.8898044248717865, -0.5048263989975107, 1.0500027767057865, -0.5988600610220957, 0.2554616165802722, 0.9328110953872333, 0.11748711968095368, 0.3292092638037946, -0.28716766279340766, -0.8102311162565523, -0.9225491374786465, 0.5527997144588433, -2.3629095948474306, 0.6304992329445787, -0.7781878377517973, -0.24346342921345387, -1.004743508753854, 1.4245866762256143, -0.23078211651584862, 0.04858999366910058, -0.12256660452348705, 0.11051427956159897, 0.47254941835512165, -0.5612320225242899, 0.11046326943335077 ], [ 0.70761772525746, 0.16046802694341633, 0.6154729171524864, -0.5585840949603841, -0.7052497892379497, -1.2093496386419402, 0.15158326821496537, 0.673550028065013, 0.12225836363385126, -0.06013384597921987, -0.40627219915304014, -0.6911473676776734, -0.8800189182809859, 1.0287777597162981, -0.15829839333278195, -0.3440760569511969, 1.1553585351870255, -1.201823026079878, -0.2223779443366175, -0.18641286235927065, -0.8714138889410334, 2.1608366084258672, 1.054991963435857, -0.27125068301022975, -0.9926286622207132, 0.5943031302327044, -0.4559553450052269, -0.7577593747198429, 0.271886992143078, -1.152221232397318 ], [ -1.8115871002468976E-4, 0.5674217115862115, -0.2988460475394932, 1.1460162510292196, 1.2182848808081783, 1.1816303515197981, -0.029135626358374706, -0.3739923201230029, -0.23196834947022865, 0.4926402499328434, 0.07627828579730765, 0.19642747823965723, 0.7724508223562683, -0.5346919841696707, -0.8691800513490903, -0.7389576374876343, -0.8642950131666152, 0.48989427410607506, -0.0707484188854345, -0.39344334837598294, 1.2545819272191552, 0.8552398735853471, 0.8960092637197209, -1.6079608992928036, -0.603254972490539, -0.32027179826285895, 0.6915452992814539, -0.4136903410505418, -1.0105212702073758, 0.20125497604792866 ], [ 0.3018596266960646, -0.14302197495893043, -0.001810623344572027, -1.010954980158837, 1.1670164629753543, 1.3383610142073792, 0.04693550947892224, -2.0812281934127026, -0.20948026345358098, 0.41650304062870713, -0.5626002843782703, -0.2179652053890794, 0.3550251126424966, -1.3586049173413681, -0.14543233262544156, -0.014265538490705616, -1.4092214202933566, 2.3307452254328735, -0.2652658121159164, -0.8715981728369944, -0.48161282288338847, -0.9871611448532356, -0.8607845258068275, 0.8380740307327692, -0.10834141879357924, 0.7630411028900399, -0.40685272885996177, -0.8740658183889898, -0.7444264223779467, -1.3204336714668212 ], [ -0.35488496081973303, 0.9536368589304486, -0.09380149737487693, 1.2208745191746724, -1.1117328908187563, -1.5007789983832678, 0.19624520018258798, 0.3926136753807056, 0.6601958720535814, 0.19510819984827524, 1.0648872491820602, 1.1084753747800031, -0.26894414095458463, 0.5716903326053427, -0.3712187937061201, -1.159762637034391, 0.250970411651902, -1.4859776877041788, 0.6214519318702009, 1.9076914519042154, -0.43431924402109673, 0.08791110322627645, -0.28764980477305224, 0.912213226508786, -0.476515543487174, -0.3845287417426013, 0.37422912921834495, -1.777554835302486, 1.2388867761349596, -0.8882383340253733 ], [ 0.10188915493786652, 0.8107034167156585, -0.42956770180979026, -0.09414383085494177, -0.9208663964428049, 1.2444209359990557, 0.66691606695325, 0.22839777360814226, 0.6101472105193734, 0.051059006885127566, -1.1745503245046593, -0.9600547916520152, 1.392890706935737, -0.07462643772902804, 0.2756174268217729, -0.39685357722056347, -0.48861038131989226, 0.11165392806193242, -0.9891639118450091, 0.02729543879815381, -1.167218994114801, -1.7942921456585619, -0.1850703458564696, -0.9902621769225867, -0.7192117504448804, -0.14186392977360793, -0.2645984353294418, 1.261078422855752, -0.04326390256841224, 0.6089752760707843 ], [ 0.506527158643584, -0.4057486639408342, -0.06809724710220455, 1.141326495780171, 0.025134535355911886, -1.0762223568894795, 0.7081803194383642, 0.968282559174168, 0.08626968937969816, -1.3773391772322232, 0.47374070416503944, -0.6343577553118878, -1.6489535608315509, 0.11455772771547364, -0.7728764767196946, 1.4666537224489327, -0.16123256570553163, 0.5960689994522469, 0.5710501312968881, -0.2999945292098632, -0.10204617097759845, 0.35984411582881876, -0.8269352322935832, 0.21170472280479757, 0.06883228274856384, -1.8659225686654912, 0.9075082223963201, 0.3745349401015865, -1.1070740767396465, 0.9160180396199775 ], [ -2.0244787482194946, -0.24688088335624567, -0.34227614664774975, -0.8446481648386803, -1.0749412035316699, -0.7097510362406176, -0.7678149798498861, 0.02647381223313977, -0.27607113740989025, -1.11880572990325, -0.48280504818286735, -0.4280564060947145, 0.10427694873916417, -2.54900504404095, 0.4182564367713367, 0.48881949306668243, -0.6311918271829241, -0.7785974592822048, 0.037698500102085544, -0.3770720833943354, -0.42172034018231247, 0.7060678101672195, -1.4898483190009697, 0.31603168260728204, 0.4116185280469049, 0.30901884923439193, 0.44147401126715335, -0.6876534534699797, 0.3382983362085778, -0.39466371810544393 ], [ 0.08397953868597018, 0.2722209136106982, 0.03197036572821145, -0.9631238522130879, -0.29320793297208303, -0.6264842507420093, 0.0775941691958533, 0.29267023282199023, -0.4933155829780666, 0.20855218849347523, 0.9261400756446746, 1.1993147981701626, -0.7226209117236787, 0.7895001401243903, 0.4694542285885123, -0.39668975485732205, 0.10629063155091452, -0.35695315918135145, -1.291717305674303, 1.7526825233769878, -0.6867860705566163, 0.34681909034141783, -0.6967045069453531, -0.02605660671550824, -0.7403553562905508, 0.2829476439256075, 0.008698882811089236, 0.5568077843969669, -0.5689044418316568, -0.38900779316277256 ], [ 0.9804566652934854, 0.7625539348966811, -1.5369797929552798, 0.8420729617328735, 0.3825890332288066, -0.1518767085738006, -1.313409777887492, -1.4478124927701683, -0.6579196043088883, 0.9036381493709572, -0.5243292163537677, -0.7134890070843737, -0.7005708933038916, 0.21536920362696374, 0.27450881716161524, 0.6106500015176415, -0.403046667103268, 0.2092905924080292, -0.2921436856989081, 0.2076346576057201, 0.2933300854746502, 0.171974056547548, -0.169994716656142, 0.3477625649830708, 0.11710409473759706, 0.412274624333602, -0.40880848572728545, 1.0608284401695376, -0.2581705558485204, -0.8427374006464913 ], [ -0.8333450876733337, -0.36619909486419655, 0.9325281908850183, -0.9649601108757466, -0.674425829549834, 0.6633855471505603, 0.038825061847672704, 0.4818513034574188, 1.812743862363454, 0.7085178758935886, 0.381074106744781, -0.19722547189297923, 0.7372420292283491, 0.46764856126310483, 0.5924591963991633, 0.11941570354323323, 0.4615951025498202, -0.747999189445725, 0.03452942214279578, 0.361769368505146, -0.7173786802986399, 0.1339325798653084, -0.9469595799404453, 0.4123774494579167, -0.718993950059786, 0.6113020897350758, 0.20818105808598955, 1.833456219688313, 1.0780740108792504, 0.0033671009007063 ], [ 0.7904739813312813, 0.06624393019031734, -0.4551685734508146, -0.6124492947972929, 0.42394112864388467, 0.17637944465265132, -0.15058498210464702, -0.007413570292291654, -0.529632377727094, 0.09725275046028758, 0.41405724696852714, -0.8464099272472322, -0.11169527343502421, -0.48595208311182536, 0.08839513715707377, -0.013276752613082853, -0.8290909084680337, -0.807736939727628, 0.23370106849870767, 0.3285906329846713, 0.7472306553040153, -0.8747369332519477, 1.2453667968313602, -0.6119732490667591, -0.1102361348900466, -0.8991661912994495, 1.0649464692969073, 1.649320987373802, 0.060817004146529366, -0.40093358870880114 ], [ 1.5027068415073903, 0.14541373484492096, -0.05996427337124283, -0.797182322672689, 0.28293963158735874, 0.7833358224816981, -0.5249217511306378, -0.5523801498788863, -0.19634569870276153, 0.041794646660161784, 0.6814086812339315, -0.600344939187657, 0.04828184555526498, -1.66782633383972, -0.6870341725667405, 0.14204846751057365, 0.2353444342078503, 0.4309779488493287, -1.3362012439255302, 0.978464288729552, 0.9029652320196003, 0.4758094790745726, -0.3779791753241851, 0.10633540361638998, 0.46904239079650545, -0.05755360008616115, 0.5567918675412199, 1.5035954538274312, -0.8328089533392217, 1.0692151868694622 ], [ -0.05856135499235525, 0.4730163175802261, -0.6669784022807083, 0.7579179069824556, 0.23046444753100945, 0.8785860599219913, -0.2707003120386111, -1.2378860749524567, 0.3295468710527792, 0.12273739860148793, -0.5446054928364971, -2.2849513669088304, -0.5247643408033359, -0.14440361216629033, 0.5484223211612803, 0.11723901531232762, -0.8520288028274773, 1.0732329790497037, -0.5360333512604852, -0.19242193832994975, 0.7903249528008078, -0.5999328747896936, 0.08788611531779912, 0.14701839676409004, 0.8608519047060317, -0.20089054830866765, 0.07914625114248625, 0.09622329665410059, 1.8199935699498668, 0.3621009192786864 ], [ 1.2655524609618976, -0.16760164968178726, 0.14418688868783913, -0.35618480929219853, 0.7066194009274294, 0.1240272968366495, 0.2832961526773363, -0.7921961564228905, 0.08208251328336144, 0.558442459613315, -1.6925490340741274, -0.6641556600009506, 0.6215833735993325, -0.6327028532103915, -1.8993518787669552, -0.6567041784794319, -1.057544560585611, -0.19683734431092068, -0.8398281326840251, -0.4851046103014531, -0.04152989495825307, 1.102540124002827, 1.2666078097608786, -0.6309253001125908, -0.138456984708781, -0.7781561716278065, -0.03588031648774974, 1.6957403003554905, 0.9213722446662543, 0.27547058617249187 ], [ -0.9780747437689388, 0.06584153891144037, 1.2948915389661386, -0.7802764651481426, 0.0763153788502897, -0.25056568561133474, -0.12892434753240392, 0.5246170682248249, -0.6074906926045852, 0.11906967446368927, 0.11923219059541508, 0.518335873249686, 0.0509864510947305, 0.7127665694059846, 0.1598771628693318, 0.3648327836037149, 0.846384173202745, 1.034400070633637, 0.5969864555741097, 0.4562512688768592, 0.05117603987097902, 0.42940651063083607, 0.1062784803926116, 0.2615975859714422, -0.5426021015750901, -0.003077150154688932, -0.9711643390749323, 0.8207645825943434, 1.2495600988283804, 0.9942519758948367 ], [ 2.0387895576036072, 0.32758479797481077, 1.0618540041841524, -0.47639816997526435, 1.0354421948387265, -0.019333633677437574, 0.39554292931163354, -0.5655906225882413, -0.19975339759700605, 0.1285002016877104, 0.06068816263906306, -1.9000580863194754, -0.1957967934139063, -0.9803321405610042, 0.34798764312638986, 0.7956652041107438, -2.2323440352987416, 0.19204875443653244, -0.48623625572432005, 0.11818943750438904, 1.084523668183768, 0.062474882072930414, 1.00709220500233, -1.1742401437003849, 1.5484709393045675, 0.7409918933723635, 0.019815511662111394, 0.2717179054488253, 0.9182448618001172, -0.5855805827164259 ], [ -0.5515133284797331, 0.1459980073148591, 0.47216994779742727, -0.6956077397875791, -0.09788421517834699, -1.0304805676438138, -1.49697598812782, 0.1409836371538508, -0.23806111976771, 0.6602600351176275, 1.551286450152298, 1.2705684917802897, -0.17415418584451686, -0.44674769064766284, 1.1314536805176252, -0.9761008165217064, 0.967587389110664, -0.07028106029590882, 0.8755285106651682, 1.0016974392345197, -0.720335467419091, 0.547896656510234, -1.5178087950772985, -0.2567626253957142, -0.7576351128140774, -1.6330928140247876, -0.30374677155199703, -1.3922374793788024, 1.1868016684790061, -0.9158179566139163 ], [ 0.09384388001674643, -0.5270760483473633, -0.31592102665902144, 0.7713895212171605, 0.8713170842859109, 0.006035660075663392, 1.1043290435813156, -0.6202077513160561, 0.1893022244736511, 0.05106749252419084, -0.3398517480722836, -0.774164272565078, -0.8163677525407107, 0.084295735473498, -1.4750008247210364, -0.7141828504740746, -0.7983306173207476, 0.9059084300295045, -0.607665622849813, 0.2698272593560825, -1.3981137407982898, 0.5866518644920704, -0.7225472818034183, -0.6860394416090764, -0.042422167416858426, 1.0456939446229512, -0.671337471689444, 2.187390788081525, 0.08275868377611469, -0.6440990834724237 ], [ 0.28345150167768957, -0.4026692538324239, -0.0919832866635001, 1.5762648533864498, -0.31330901591801374, 1.4339459310610017, 0.9291791254119909, 0.5747793292168173, 0.8597810118786978, -0.03435732051254205, -0.35918691583831214, -0.6571553345887343, 0.6055276859102651, 1.0336997909477983, 1.2425467722288825, -1.0337149653715103, -0.6906964186337345, -0.4753142172809766, 0.09726196335856785, -0.8318238258978388, -0.01150263961011411, -1.1092511552345317, -0.40813456647734025, -0.4149908086500925, 1.8942386632137225, -0.5864208259774424, 0.444221542381216, 0.8552128912878211, -0.5935776411464635, 1.179765828863421 ], [ 0.9884009639844176, -0.2461559652490934, 0.2954232863506221, 0.02174337817046409, 0.5500090607795931, 0.4481882177292467, 0.29934094818657964, 0.26997329387831787, -0.39563236091357196, -0.18023643335685055, -0.06687177994269891, -1.834034363933049, -0.14579044383957798, -1.2905559610018382, 0.07047913615347558, -1.129136797232263, 0.4161500022751596, 0.31736619849478187, -0.25738376063884444, 0.8683520280171534, 1.99110083103408, 0.09289449604252197, 0.003199034931818664, -0.7928245150671404, -0.45698321096861305, 0.05321768848549027, -0.6302930224407562, 1.1953433737262285, -1.6172322056010289, -0.02557689487275159 ], [ 1.9505999309754802, -0.25026897844645063, -0.6523613243109366, 0.031532652988192515, 0.9444243566201297, -0.6477967129724788, 0.8313980555373354, 0.5616264788849606, 0.15294734130371168, 0.29855321593823547, -0.1412876497501888, 0.02016058553479438, -0.018901437674248657, 0.32069387714928566, 0.16953472670490874, -0.14714003545706694, -1.6045699674151812, -0.363418690406353, -0.6269749640921626, 1.1430373339132966, 0.5218437715576738, -0.45244455181542853, -0.40346555825313135, -0.597700205716881, -0.5374883728448681, 0.7894621591253186, 0.29285822475919215, 0.4794912595772501, -0.4478909202438686, -1.4575205818092818 ], [ 0.12968192860102548, 0.10849134045281043, 0.2218901491370543, 0.09412391298025499, -0.45543542166817974, -0.6775741415675133, -0.33082285442029025, -0.3620618604042679, 0.8173078259383528, 0.2534170620473307, -0.9981936143484589, -0.19894379846319193, -2.1253230853086924, 0.07473935987999915, 0.08009458497449329, 1.215529452599361, -0.752590723335699, 0.3848981542160099, -0.39607642243420604, -0.5460926086844893, -0.6411084118073364, 0.3555711894719895, -0.22997374908952095, -0.23943709117665885, -0.2824496527102978, 0.8914205928237128, 0.1739602037213499, -0.4571487448671291, 1.0717258873660298, -0.9889048763359969 ], [ 0.9231806340529327, 0.012511355891949006, 0.8847875751614207, -0.4033268911586803, -0.43111372524211294, -1.3235922428140028, 0.01585810356289543, 1.426088434560529, -0.027572903747243898, -0.3509824279399579, 0.24800127766181213, -1.0507295147862155, -0.610242158712633, 1.0371866962341547, -0.06325300659266703, -0.21723511093865192, 0.25309616414512515, 1.6332265438698423, -0.2830921031342191, 0.3767735180774399, -1.3930626075287609, 0.866816389614551, -0.31706985859492387, 0.7524015749947611, 0.18813164409379643, -1.4343673027662946, -0.6678656619589856, 1.1283623955000344, -0.5254911185733288, 0.9359643387178571 ], [ -1.1559077101463548, 1.0820257509518185, 0.26003195824910846, 0.035032100709996745, 0.30227189395017817, -0.7092788123089262, -0.0349628231357029, -0.9189332483515296, -0.5642688903383345, 0.7321606946549275, 0.8994521932615903, 0.29240218995763834, 0.7142708643968106, 0.16939862161655683, -0.33510188955388365, -1.0436880603870862, -0.6437966315995275, -1.6590348106930783, -1.5869060936147366, 1.210130922788407, 1.4757430880851135, -0.04655778224307563, -0.9272583853090565, -1.0679897878969284, 0.6553856090623978, 0.7198907170890991, 0.5909024596966156, -0.44212559333063073, -0.11838000540423116, -0.04967189164921102 ], [ -0.8359889396777281, 0.5355052814861969, -0.15701086822160815, -0.2117810176998271, -0.380887853662562, 0.8798865456305378, 0.6012326396551732, 0.6107412421895737, 0.658394265752129, 1.580183315734294, 0.4767970213610348, 0.06447113650858702, 0.8839775367413201, 0.09314425285715595, -0.5501534679244756, -0.9132078505757193, 0.6403198235692308, -1.3310163973553877, 0.20704987246748205, 0.6449487439299538, 0.45102446917917477, 0.970011272050841, 0.3776412887550198, 0.8028725390510243, -1.0552484172879733, 1.4968518055816367, 0.32552693359091117, 1.3267558356656883, 1.1185523068410521, 0.9105021709163332 ], [ 0.822320798161887, -0.2957306283177304, 1.7630950214831707, -0.56353161798793, -0.7637518647642579, 0.12415827236687006, 0.01437237263865503, 0.19384256861318297, 0.541613012338586, -0.0778358999875601, -0.02859358124630176, 0.18779121683847103, -0.5901263064864902, -0.09425234029166625, 1.8317629377835236, -0.3448734206600992, -0.7676206401762142, -0.3178409988311019, 0.5680042084306062, -0.573793527638727, -0.3916947209733191, 0.35979419571027876, 0.6043046883701784, 0.7066116223899283, 0.5568812631621656, -0.7926892519636173, -0.12314572966759207, -0.013239794586047699, -0.08727112179905572, -1.1090107215970089 ], [ 0.6798248105535125, -0.06341644445649763, -0.41714733551164185, 0.36565920831724175, -0.1400866667830957, -0.45930376948516066, -0.7129575556105031, -0.19771443066549932, 0.6410236014989048, 0.8420789810643334, -0.2870219902292876, 1.003117309735643, -0.14854627306042065, -0.8586329554759101, -0.2053681894723846, -0.5022129184424345, 0.1665593659783556, 1.3257203363805012, 0.08142168562927654, 0.9070977017892844, -0.4166575387757268, -0.5082888917352444, 0.5575072570750955, -0.8154347070128706, 0.37957572992963, 0.6235733621245155, 0.052235594060158874, 1.0246727129914315, -0.4812089034154625, -0.025860292000490167 ], [ -0.4213245322684114, 1.1926896732379775, 1.0984756431918947, -0.7571750438078901, 0.08051241897962652, -0.14594628218633487, 0.09315253620160037, 0.4502999874414854, 0.3817960846782934, 0.6591736307579104, 0.3031290502899166, 0.48591568628931503, 0.015221863062630289, 0.14190260295962298, 0.4035491024479573, -0.03228866767292685, -1.044218943508673, 0.510359779542074, 0.6908806627953994, 0.7547633175194874, 2.5693378127734188, 0.4082189005797668, -0.33916574433288965, -0.8478704222544943, 0.14431243136570082, -0.32971432045606885, -0.008015556910972804, -0.9114242916081963, -0.9825408716558102, -0.08847358472709423 ], [ -0.23746022880700873, 0.33692587461958834, 0.6329230410462021, 0.3253900404110134, 0.22789785047757913, 0.24863274646870087, 0.8486853798249586, -0.7413626703090214, 0.5248149815433599, 1.407393603294638, 0.5389920684668399, -0.019450549464335807, -0.6195920105881214, -0.2775076917085964, 0.4144780586546212, 0.18630155732864595, -0.3366031842776721, 0.6188987336160865, -0.8521521271378176, -1.3287046628414794, 0.09703663266535986, 1.2734896003872151, -0.05776993305522879, 0.5857128909625097, 0.04174686273048894, 0.48087226101850306, -0.658743992959818, -0.48446506412798196, -0.27983728674182556, -0.7448081456299437 ], [ -0.6912075188646002, 0.017696122687285258, 0.8580212306400198, -0.125695928442831, -0.6465941519137254, -1.1645040842887115, 0.19024764101686178, 0.8537563927423519, -1.2522450944790045, -1.7165179709287854, -0.6040295892607127, 0.8176436829687128, 0.5568374336971887, -0.5169781090380665, 0.8324530175692043, 0.4470313034899411, 0.22027681526624232, -0.8016170640261496, 1.2738466430119728, 1.498597841357813, -0.733952912652589, 0.5232380486356015, -0.7204835945860856, 0.26075311645039034, -0.5308348548186342, 0.2941525614003816, -1.2229501245770058, 0.5469925560033237, -0.39117710948493145, 0.17797364456231612 ], [ -1.4279111463157406, -0.868895880202756, 0.09847056815424139, 0.2084431571595206, 0.27369662174164433, 0.2112322699056475, 0.19516394034293152, -0.35809664028078, -1.5474203483955777, 1.4472843731527796, 1.1212766922932806, -1.0848327739483012, -0.3959389457906926, 0.12247344152570268, 1.0815960669761269, -0.12166770324464687, -0.4351009688957578, -0.08242343915334135, -0.4340118853132384, -0.08887532225081435, -0.8582585893863106, 0.025484412516489457, 0.8265939098400856, -0.25939574822549666, 0.23809310945434367, -0.22432537329927388, 0.9959172646957366, -0.5519722640600162, 1.1979375733033435, -0.7663713623396626 ], [ -0.5499731001600446, -1.6674823475968812, -0.9880813914846881, 0.5874379017452876, 1.020629111517989, -0.3430858359735267, -1.7126821549045983, 0.9457564690189041, -0.1878745842681, -0.6156763957456258, 0.3685239144032093, -0.37567803309218883, -0.246174246845572, 0.27165817330288655, 0.4246422313821413, 0.40352624749783167, -0.2592119980918441, 1.408712635024588, 0.18745459284175636, -0.23282240047609473, -0.5988647346768663, -0.26069255250989165, -0.6139059756640001, -0.27800684715378304, 0.33950868178049226, 0.1080491539068385, -0.7633019170471685, -2.5118413448575443, -1.2704030340706065, -0.05458874756390995 ], [ 1.8888845710546651, 1.5676901549165705, -0.3195462443438043, -0.07691417131037738, -0.48840200220448, -1.4222953658137731, 0.7145750857214065, -1.145395242303515, -0.12407467425009822, -0.8358998264363475, 0.8944286806073034, -0.3931715723701598, -0.03223800192308976, -1.5035908888419076, 0.89179439588336, -1.0746230915192112, -1.3137538707885588, -0.3849073050062934, 0.039884882546029045, 1.6301285943218156, 2.0514522764385794, -0.5936087487445484, 0.23393302914890066, 0.27499637879677097, -0.01155115004702153, -1.4857330963200825, -0.4304426792577132, -0.2198165718841705, -2.758407830010488, -0.5290633758900308 ], [ 0.49494615284387233, 0.6166017409209946, 0.9805684011533654, -0.60406863893173, 0.3089409398752064, -0.9283953217176619, -0.11356750664953702, -1.0521951880349698, 0.025374265451959404, -0.8078373655993795, -1.3186191794293578, 0.13467978452547913, 1.3191707257805747, -0.6704857748473214, -0.5058910933709518, 0.3229073420764836, -0.4176508180044608, -0.1804917830735324, 0.7332979703949747, 0.15262697752267929, 1.4527312214814925, 0.3859681832589744, -0.23900590349435158, 1.161732558758717, -0.051676542992344345, 0.6361986789762889, -0.37594583852337865, -1.8703557480742825, -0.14591140992871776, 0.20390155950177138 ], [ -1.228054907567658, 0.5609752318940474, 1.7076510097015576, -0.2743867227462701, -0.3388819825835504, -0.9595481960955058, -1.3585492483175734, -1.3261650690244935, -1.235328903034535, 0.4465895594082337, -0.3502971364176018, 0.84194710528712, 0.29573837848568496, -0.492094366938696, -0.456303247844235, 0.32328678585639475, 0.8708470060544166, -0.9314872620397318, 2.166221850204006, -0.5920205512211089, -0.7741974480244251, 0.4462760964961797, -0.1640188703311071, -1.3397326868743387, -1.2666897026599004, 0.08680046346291319, 0.47700123694594554, -0.9340988267488087, -1.5680369070246363, -0.44649370443495473 ], [ -0.27658796275829595, 0.5616690216410566, -0.6228777354332931, -0.11528617445578304, -0.9358259362298341, 0.6946762587790376, -0.8438064050455301, -1.2997469878347556, -0.5422320948334461, -0.9160641882902952, -1.3496101036863668, -0.252379907574177, 0.8623622069573845, -1.3961555261192302, -1.6112603159975782, 0.3583879382568902, -0.5333073720947624, 0.0917528802363063, -0.33197365789960304, 1.2268786976940311, 1.1126094897657886, -0.9515182845770723, 1.1451003621053117, -0.47516487724645823, 0.6856616044547782, -0.6127561327380683, 0.5471432278534349, -1.0150305544712956, 0.516608672119136, 2.0618728816534437 ], [ -0.31712091970859874, 0.05597568190212985, 0.08542991661117467, -0.4850831344022068, -0.4796487692821266, 0.12639734660779034, -0.10376867384825583, 0.2047902702424198, -0.22310625940973425, -0.38395875015395026, 0.7956427043763952, 0.16433814299975466, -0.40690699519226203, 0.2970634888839827, 1.134522793634842, 1.0436635067342768, 1.0980975023481878, 0.0024595106284172946, 0.6607906097337481, 0.034795779374711074, 0.04796794326628484, 0.24124070438519438, -0.4400338311116621, 0.33922391310930955, -0.5319107044089129, -2.2963596144836016, -1.2104994419229997, -0.05518914708386854, 0.06982841238105574, 1.449724151363814 ], [ -1.1760141204862455, -0.7376969423854158, -0.7279283612718883, -0.9708143863893193, 0.8205229327493347, -0.3999245032934562, 0.9310062421227261, 1.9893865963765014, 0.2153954585340846, -0.09868258159733576, -0.9610974261519943, 1.8438750681659886, 0.692697381305883, 1.6737232110465041, -0.5100166788043569, -0.39464639193232226, 0.6629401291867655, -0.6961731302860737, 0.731595248905612, -1.4652971895331497, -2.0246302679207293, -0.15700583958115327, 0.880836921254169, 0.10529274272315434, 0.08859297848256933, 0.5165478772603277, -0.12869254704574978, 0.2855791084200994, 1.0937186114136477, -0.7396197620715435 ], [ 0.007947149742344957, 0.5215039668001156, -0.1842210272848022, -0.06101801882062151, 0.1902826485877351, 0.7889219029673396, 0.7726856226693302, -0.11924227798260668, 1.39148903071082, -0.1450253836030437, 0.026221116359854052, 0.5267662569876124, 0.08154393354405087, -0.18711919457818615, 0.7065570707300918, 1.1436460419050523, -0.9571094802860752, 0.22372241574637597, 0.7935411596069172, -0.23913838380152014, -0.13024187735403472, 0.8617736288832366, -0.7187638393780373, 0.7334476867077017, -1.0097039279890654, 0.20025526497769558, -0.6441385136296442, -0.3649886343807212, 1.2465629534534448, -0.07958920588398499 ], [ -0.23080817338398926, -1.7137011070915984, 0.23003783757385196, 0.11635777277649222, -1.5217842273337472, -0.9992260720535814, 0.7285267029365262, 0.5688869734258287, -0.41214133260898794, -0.46014378494212466, 0.28126288568818164, 0.020057340746163017, -0.19140619439417347, -0.10158403779406423, 0.6120583039222399, 1.1524583054801827, -0.36509659676824385, 0.23478715937638908, 0.670463685197228, -1.0467323855079773, -0.06598523786541038, -0.5464928673795616, 0.8472602670927929, 0.7422151953773498, 0.2939115488148744, 0.2255115315474538, -1.3690906087760453, -0.09549648455891854, 0.8755911871858401, 0.4028322070672622 ], [ 0.6682995936262772, 1.1531331019023272, 0.9607411631582161, -0.9881706220812243, 0.2796784465892451, 0.8065031739093023, -1.8834843807059567, 0.5940782977400663, -0.027410996761727143, 0.05865579770214556, 0.3703571575104305, -0.42266700833888204, -0.47521056809602247, -0.6802597415172079, 1.9742910398728797, -1.3935914795017932, -1.3907277927870503, 1.2074162334990297, -0.6095694412627296, 1.461084237350404, 1.2017994200827207, 0.6168209846447533, 0.8079791950294304, 0.033855206916284575, -0.7618948153051123, 0.4998248575604453, -1.216238778723848, 1.5565341474117014, -1.054384130305273, -0.047977731268444505 ], [ 0.285864157440119, 0.08511250632266396, -1.6282640360913891, -0.4268316574520003, 0.6515020619215518, 0.741543648058883, -0.559306538407202, -0.4315697797297854, -0.18272895053359667, 0.22741390845659812, -0.8278336871452516, 0.363057558144236, 1.462423781576424, 0.6401127688474486, -1.0217719624378117, 1.368304061659498, -1.6111784819934685, -0.28830393619675915, -0.10008142477109892, 0.6804098843938757, 0.7124625565014787, -0.04316926930698681, 0.053303000611952235, 0.3669016329287814, -0.34689164835324393, 0.7241665355897213, 0.7248394385001053, -0.6195437822870146, -0.7745316358055111, -1.4292671304560323 ] ]
  }, {
    "Size" : 15,
    "ActivatorType" : "Tanh",
    "GradientAdjustmentParameters" : {
      "Type" : "Momentum",
      "LearningRate" : 0.01,
      "Momentum" : 0.9
    },
    "Type" : "StandardLayer",
    "L2Regularization" : 0.001,
    "Bias" : [ -1.1943762311331487, 0.6401734714369969, 0.6923946546891072, -2.7515985131484295, -1.785807736425555, 4.170816852300469, 0.18436639605535507, -3.4417148301105813, -1.8857099845236018, -2.7341242166453434, 3.5445179941934377, 0.6614284131199163, -4.042942498478159, 0.7294458814953786, 0.32757403174331196 ],
    "Weights" : [ [ 0.5666251537555077, 0.9289606907516827, 0.5515407458165328, -0.17637440033290944, -0.08324030704462798, 1.9400149473030528, 0.49698593679863834, 0.09090789912659075, -0.006621055134979362, -0.5203287710386937, -0.5214653342030676, 0.4141581378757239, -0.2234748608317228, -0.1133820648015686, 1.2774338944328167 ], [ 0.29927579182949765, 1.2518690193915676, -0.5953143943925913, 0.05032607715625589, -0.21318839784470078, -1.1525539186184994, 0.044706532197132144, -0.49812269195530673, -0.9641158915020903, -0.045891556903388885, -0.5907013569025249, -0.4953784519216559, 0.09650408172883157, -0.22413432509093753, -0.9465059658071779 ], [ -0.7793113383505045, -0.31373274790530775, 1.0617064299802592, 0.1324100999642725, -0.07665274732213244, 0.6313779621131552, -0.7326180326548388, -1.0498941181284374, -0.03459559802285563, -0.6875805268045148, 0.2912246575486487, -0.2359812621253092, 0.542566718952973, -0.8780915390055614, -1.5247327517174711 ], [ -1.0041461730326364, 0.03929445351001049, -0.6314312421421132, 0.49397152695233904, -0.7858353705591574, 0.8320218633044376, 0.7230511304890898, 0.6709435270437072, -0.3658644233900378, -0.2641245720862984, -0.07499817090730883, -1.1096954876135765, 0.09657042708017986, 0.24391954017979553, -1.0135060120416355 ], [ 0.6465900589337948, 0.2532627600983517, 0.04631696338773443, 0.43972899548425304, 0.00906808067827858, -0.06744629570165801, 0.9502000814755514, 0.367605710436734, 0.14906961572384111, -1.560979118364772, 0.5429842513419677, 0.1824007721629403, 0.25394662949797947, 0.20728891910825742, 1.1420032280521488 ], [ 0.8036277675115963, 0.5552622137971163, -0.5712189598990445, -0.18128231061917782, -0.0895470211340365, -1.2225586412933471, -0.37602167349909893, 0.3489481869350903, -0.02108944079002954, -0.6164256582165649, 0.5939773944354135, -0.014407680243037516, 0.6361241042926074, 0.05803248294090077, 0.6531519973865529 ], [ 0.5555207720930764, -1.6232932857509463, -0.6813210281594678, 0.19408456154834178, 0.10424196008210874, -0.3440734989652019, -0.4963254315132295, -0.371082744681284, -0.12364508117760356, 1.0105781641472469, 1.3522663085375375, 0.3753387613859423, 0.5310935274526463, -0.5452440826617628, -1.1184099912973056 ], [ 0.2840655484987306, -0.9491166377420899, -0.11636955706976518, 0.004751776237243529, 0.08093710681815859, -0.8203987193764481, -0.16084424958986862, 1.4701884239826601, -0.07724296152028276, 0.9403234529321327, 0.6846192863488917, -1.0026183118552847, -0.47510604805912, 0.12388942803951074, -1.3337532238741796 ], [ 8.577430630265941E-4, 0.3830958299204834, 0.3368681981053009, -0.050441844872431425, 0.44872183951537276, 0.8526520417328116, 0.4300455414163457, 0.6658053952192696, 0.3419707666375014, -0.7035456864451674, 0.8630855995858736, 0.774011839634764, -0.6080897940689459, -0.22318410734023925, -1.0559094129780713 ], [ -0.5871641105318725, -1.223024023745286, 1.1093230990049723, 0.6054877020282587, -0.1350700647466926, -1.4449063090540912, 0.8343810281913703, 1.3021535659284371, -0.09095411724707393, 0.13138110284538584, -0.8521086919133826, -0.16568052771838046, -0.4134173028396408, 0.7892557342636817, -0.1058309730283712 ], [ 0.029339636566160898, -0.6191645882101521, -0.7715359544552713, 0.2863613805314554, 0.8024929600272888, 1.3708223700443782, -0.4676258903722493, -0.699068389646911, 0.7059371002537805, 0.055221600814191224, 0.22486345827600165, 0.6253895245057975, -0.5907211429170095, -0.846475129045518, 0.4943209748033147 ], [ -0.498392100056277, -0.822840949656759, -0.17065801389581498, 0.4459114566073733, 0.08177365093391178, -1.5965839644077424, -0.4005423494376105, 0.5165546017734483, -0.08425827071749098, 1.3591518884036078, -0.5499850030996682, 0.9548794123527146, 0.26880201556217465, 0.11429547153141388, -0.1902296269966987 ], [ -0.16800933929698406, -0.36831564223812147, -0.7502056694427631, -0.002065222339397579, -0.6583204259091134, 0.8935797516388593, 0.6844283570655746, -0.5198342186496577, -0.3184071320801305, -0.7595142787671156, 0.4153420509796464, -0.3815695882337756, -0.5821536338304214, 0.290909678578593, -0.2758401544488989 ], [ 0.37757888822645286, 0.6720421563550057, -1.254980379613722, -0.8648826649913555, 0.07683971719271832, 0.9634563378077731, -0.038104066998010715, -1.7575756244678167, -0.1484002615128943, -0.1576704743021725, -0.5772650359450588, 0.37250471546946995, 0.04321717530369088, 0.10664224003263832, -1.1938375697647814 ], [ -0.7825502122407093, -0.22000577934423052, -1.9700334781051327, -0.0015632132077135598, 0.42351906229813563, -0.2922500832094901, -0.5188404120883121, -0.5080636444107621, 0.9738306191417013, -0.3365832163571563, -0.6537463241019095, 0.4456505804975907, 0.180894281041898, -0.29275278269332766, -1.2190171782006038 ], [ 0.11396178217648548, -0.04297129509306726, -0.5752275815461998, 0.6637577416449459, 0.2964580300136835, 1.4831009232701302, 0.3907461612659285, -0.5093473991315302, 0.28395207720868487, -0.4557997976527646, 0.20766827234977261, 0.6306285460164619, 0.02341082613012454, -0.18744812710450082, -0.5647059343117395 ], [ 1.657257445034284, -0.7940362759953628, -0.33050923059083437, 0.7054500359030311, 0.08058026902508796, 2.1592151120562044, -0.6480882571789393, -0.923472740415054, -0.09004983324814912, 0.505574909073481, 0.7110429477338028, -0.05168847317925526, 0.055188487296694774, 0.11506451245244181, 0.1009278707372499 ], [ 0.026225583822544033, -0.3756309934899551, 1.3975104612800655, 0.015931825787060514, -0.07797343904850104, -0.2568707636470505, 0.31477716520021354, 0.6218990666135757, 0.10250777485781085, -0.4193238199209287, -0.8535673256737594, 0.11857155618111126, 0.567848215486916, -0.11256671189821374, 0.3034592467045294 ], [ -0.598468881738809, 0.15159588636730437, 0.8618775825953575, -0.9569017006971059, 0.08990490445426282, 0.9401316811740809, 0.24076305687532157, 0.7933546629212987, 0.018342499533084484, 0.8615645109140083, -0.6957922316725723, 0.41248697293390296, 0.5664151434841105, 0.008890112366663098, -0.6473628545817324 ], [ -0.012512945878496936, 0.3189181597938224, -0.6090587813653184, 0.38971827006099247, 0.25963219193362097, -1.1281428490991134, 0.12304819512718516, -0.10948669114451053, -0.4040700995165335, -0.7979852627680069, 0.4662032182114879, -0.29495407276910773, 0.22985844643855624, 0.09708086488294335, -0.42235445045270076 ], [ 1.051540753834173, -0.10593622169015716, 1.4052006327965172, -0.2898786049263913, -0.07759496258096434, -0.29960383035193405, 0.013380781482233907, -0.06645572890061953, -0.008328151437553452, -0.34219907679356054, 0.8481691473661028, 0.5504343496951705, 0.004738002881647876, -0.12551051637925345, 1.0204342272400622 ], [ -0.6421583914943308, -0.957283300356107, 1.177500958207458, 0.631016096489486, 0.2809437157415407, -0.5626247993980668, -1.0340647471524793, 0.6205401428835916, 0.1293206029170913, -0.3888222161062145, -0.4765848506941417, -0.11943642986593006, -0.1653211365168647, -0.45439733508654456, 0.26434994926073857 ], [ 0.9408790420884083, -0.015970966489879966, 1.532704364051295, 0.06758243581762417, 0.2177541376368669, -1.7687282944807317, 0.6764398492903843, 0.02620437149544465, 0.05905689287857433, -0.2436805893145613, 0.6398523147385113, -0.2713576429031776, -0.10888322172045613, 0.4082448765115602, -1.1047187680782482 ], [ -1.2721395470793475, 0.57191484455398, -0.19797017727626207, 0.40991138633883306, 0.5600716451172842, -0.19306084386193922, -0.8182185380571054, -0.009972189627531138, 0.01004267497138136, 0.6598686740861526, -0.6789835404215838, 0.6193501392711187, 0.3682938994333195, -0.6425254502286366, -0.3406414175110944 ], [ 1.0415060224695714, -0.46187710039785623, -0.3789543974940863, -0.1345156831032758, 0.05450294309112303, -1.0171421567312613, 0.3488130816527907, -0.2692888832331738, 0.04265283407406531, -0.6779992285025505, -0.10556399145045267, 0.023648538017607384, 0.03929698566368096, 0.9428181482143209, -0.5085284278287897 ], [ -0.9734957129873362, 0.5993915899570598, -1.242024562384743, -1.4939376275482206, -0.9500391385875069, 0.4983836351151259, 0.5916195641878347, 1.2643519032608201, -0.24098643092727012, -1.0781692653097892, 0.059386888729058014, -0.5613606843174227, -0.07326655203440649, 0.20816135903129634, -0.19034158634348816 ], [ -0.9289812638544256, -0.29660926622764894, -1.145938241089128, 0.47005382754913566, -0.8416674004136198, 0.12067968591862901, -0.028483575437285497, -1.2401552276255021, -0.8039895897882178, 0.7792673558773783, -0.5036573694611767, -0.5405265152006958, -0.30285438640806067, 1.0302812447023628, -0.4047691560393678 ], [ -0.06338021423077315, 0.5399892275051634, 0.9901469951902553, -0.054868271713811805, -0.08868649737820776, -0.04660097986086617, -0.1171463742938039, -0.31616780129457656, 0.04772696546049532, -0.6348112365743853, 0.4670242371946947, 0.021602930694555322, 0.3666992299528238, 0.0416322733309893, 1.0903271733354691 ], [ 1.0028183412226674, -0.6306510049299537, -1.7996550732008152, -0.22697595006909413, 0.0818824507347165, 0.9425432983047335, 0.2674360154637346, -0.8827613216886526, -0.04588111725267922, -0.14850324597901013, 0.3629771622610623, -0.6197691918946612, 0.28902655127700405, -0.39276371473631594, -0.6471312605614251 ], [ -1.3335991839886103, -0.17096644605457567, -1.3343659131807086, 0.1797299738090811, 0.7529058342906478, 0.013357151823260152, 0.5194741183719136, -0.7003934970214124, 0.46880085812697647, -0.17057439850720962, 0.26902432666501047, -0.3062046286915336, -0.14711923008843297, -0.36014727045649436, -0.3471915183206933 ] ]
  }, {
    "Size" : 1,
    "ActivatorType" : "Identity",
    "GradientAdjustmentParameters" : {
      "Type" : "Momentum",
      "LearningRate" : 0.01,
      "Momentum" : 0.9
    },
    "Type" : "StandardLayer",
    "L2Regularization" : 0.0,
    "Bias" : [ 10.743580523645974 ],
    "Weights" : [ [ -1.3245233858227776 ], [ -1.4184355724854973 ], [ -0.9512098041208971 ], [ -1.320563067645836 ], [ 2.2142494590456065 ], [ 0.9104123971438904 ], [ -1.7587478638673926 ], [ -0.37095375166783895 ], [ 2.8119127323990876 ], [ 1.6668406744261914 ], [ 1.2805659353143508 ], [ 1.8507014398473265 ], [ -6.256035445194011 ], [ -2.1601209414122615 ], [ -1.3134813962441612 ] ]
  } ]
}