{
  "InputSize" : 7,
  "BatchSize" : 16,
  "Layers" : [ {
    "Size" : 50,
    "ActivatorType" : "Relu",
    "GradientAdjustmentParameters" : {
      "Type" : "Momentum",
      "LearningRate" : 0.01,
      "Momentum" : 0.9
    },
    "Type" : "StandardLayer",
    "L2Regularization" : 0.001,
    "Bias" : [ -1.1131098532448114, -1.2117058736120851, -2.080554645080817, -0.40448901821489197, -0.9663547460946403, -0.30308020853171824, -1.5330387609497445, -0.9934622167587053, -0.18476473341475552, -1.023994496827905, -3.1058752216943604, -1.4667906459868603, -3.304025278804998, -0.3158789955651791, -1.118401309145791, -0.6321108187034005, -1.1453073279684787, -0.7628628495156736, -0.3767494242348448, -2.487690789365612, -1.0840088585914331, -1.2177366190766077, -2.6615661229038525, -5.171781297914915, -0.14902538933860388, -0.97755529386695, -0.5841424401666024, -1.1893054422412712, -2.4051821974960927, -2.3789099763587958, -3.463657820540065, -6.669342329862897, -0.5904418448092739, -6.296723156503382, -0.786396251625035, -0.17602975852838848, -3.254166828140057, -1.3799030358474147, -4.709683154287961, -2.926405125028656, -1.0854634755429058, -1.075874370775534, -0.7715480753164999, -2.3963674296768485, -0.6894517937282915, -0.014107378000103891, -1.7816877423236566, -1.1065987338797496, -0.7755696458783833, -0.8129221050375329 ],
    "Weights" : [ [ 1.8310422874629132E-7, -1.9066540797929954E-7, -1.3303894975248263E-7, -0.0022648331254366814, -1.8690141066167667E-7, -0.0016350213449546833, -1.2333731538290877E-6, -2.7164004288694427E-6, -9.939963522775572E-4, -8.611077772894574E-8, 7.409810595791141E-7, 1.8845748587814456E-7, -4.824024977930243E-6, -5.228935612105736E-7, 2.3030088233513077E-7, -1.391482998689942E-7, -3.314710191215605E-6, -5.138776865106862E-7, 8.53440898722024E-8, -0.014388413404613703, -9.301950324435165E-7, 2.0018226562847668E-7, 7.085611872815209E-8, 1.8882074172882906E-7, -2.1304044916297095E-6, 5.98430827496442E-8, -7.559140456308736E-8, -1.039249793160484E-5, -1.0996346859991886E-5, 3.105386256635799E-7, -1.963580118552034E-6, -0.0360396621590154, -3.932012589691374E-8, 1.5287855840976444E-6, 3.7875077148917896E-7, -7.383342280139538E-6, -2.3305409285811686E-6, -1.108690231913317E-6, 4.852762719253601E-7, 8.40146627899054E-7, -1.1507624468447458E-7, 2.2567234072925505E-8, -9.732290907134166E-6, -4.405083834434919E-6, -4.790134366530448E-7, -1.5172126572134058E-4, 3.9211660545055627E-7, -1.3557512708376237E-6, 1.610772504355712E-8, -1.5630865284256353E-6 ], [ -1.9551583947638048E-7, -2.461358265262262E-7, 2.3133244744644627E-7, 0.0072622141287931145, -1.7517202284827007E-7, 0.005157708558857774, -7.765704323862484E-7, 1.470827624779803E-6, 0.0031130616031775113, -7.2719015637261166E-9, 8.221178914918038E-8, -2.9596274262831343E-7, 3.565920305070152E-6, -9.021744194084709E-8, 1.6856749342546698E-8, 2.175041520556413E-7, 2.7015598885962725E-6, -1.4220697305110988E-8, 2.353826718187565E-9, 0.04621190203456203, -7.760513154216575E-8, -3.079706873466008E-7, -4.3422083255626446E-7, 6.5994182340224E-7, 1.4205977002560597E-7, 1.8167938236106712E-7, -4.1871302784922915E-8, -5.563438080778517E-7, 7.192412225255433E-8, 3.916296251017958E-7, -2.423325657844301E-7, 0.11554274832469619, -2.5263112001308357E-8, 6.779532461605457E-8, 9.613956958354803E-9, 1.5173030417314707E-7, -3.526623343841428E-7, -3.2736456842391684E-7, 7.163640858530274E-7, -2.852228686349562E-8, 3.157532461453513E-7, 1.4220953552637609E-7, -2.6144425652425314E-6, -1.3550175991359316E-6, -7.806847858180015E-8, 4.822733302937088E-4, 2.0433250489693865E-7, -2.6958263674571287E-7, -3.5373898705115E-8, -3.388083473620223E-7 ], [ -5.106280403324031E-7, 5.885226844215837E-8, -5.481561130578686E-8, -0.0014158169403144314, -4.422100849411888E-8, -0.0010335436809863591, -1.1393804821131284E-6, 7.323754474688777E-7, -6.264031287337532E-4, -2.119531395092917E-8, -4.555873120815727E-7, 1.2556846734756813E-8, 1.990051742014233E-6, -2.8878738780772986E-7, 7.69858323066439E-8, -4.990466213429728E-8, -5.440671388600278E-7, 5.318903476416945E-8, -2.321268052550965E-7, -0.008995116128913145, 4.1842770146091985E-9, -7.4519583743745E-7, -1.7913912480089736E-6, -5.532316152715144E-7, -1.8257557673870718E-7, -7.422375451236059E-8, 1.2332899647082018E-7, 3.038124066383654E-6, -7.467322284833129E-7, -4.940540805290641E-7, -2.998602522116112E-6, -0.022626793026864836, -2.3132428898895888E-7, -1.8860096392139672E-6, -4.633137356415039E-7, 8.132378879246795E-7, 3.1272007396681115E-7, -4.3535956384809937E-7, -1.7752922415342786E-6, -4.257817318155568E-7, 5.829582655876046E-8, 1.6330809706119273E-7, -3.6498192124470293E-6, 2.0817790577580177E-6, -4.723379322400855E-8, -9.233513485759122E-5, -5.498110315712906E-7, -4.780343796970283E-7, 2.2343048084652325E-7, -4.945151920114907E-7 ], [ -1.2980132695632728E-7, 8.157260796412134E-8, -4.930963265550003E-7, 0.0014129365984717039, -6.763435835844495E-8, 9.864440375355556E-4, -8.424714182837199E-7, -4.483165931541748E-6, 5.887742558963835E-4, -2.5625789740067537E-7, -1.0218097101375836E-7, -2.1131929456261312E-7, -4.691606434537612E-6, -1.2428311193835646E-6, 1.0785175163327094E-7, -3.0599044892110337E-7, -4.4968612841302955E-6, -1.225678448023341E-6, -2.5115535291923164E-8, 0.008970047324348508, -1.6038350767388854E-6, 4.708881019263523E-8, -1.2837773029662857E-7, -7.134807037705399E-7, -2.9775238562369617E-6, -2.8946305915857243E-7, -1.1145833635434712E-7, -1.7065555592162443E-5, -5.642575634235443E-6, 2.2707010148174904E-7, -1.0288233497482146E-6, 0.022522543960555474, -1.7894087755298225E-7, 9.439668807957793E-7, -2.4863014361858966E-7, -7.911010560376207E-6, -2.4801930387049617E-6, -6.8253203719782E-7, 4.62104686080905E-7, -4.5683941416565256E-8, 1.2977857704083981E-7, -7.574988868997381E-8, -9.824254949254626E-6, -7.701685111573238E-6, -7.59070847398409E-7, 9.633994294911083E-5, -5.2076814752673805E-8, -7.563156528033708E-7, -3.972277618389889E-8, -1.6301015514198987E-6 ], [ 3.212968710963374E-8, 2.7083304194847183E-7, 2.8164765204943913E-7, 0.0022968916893527634, 9.537767905330734E-9, 0.0016212075238100706, -6.711411000311831E-7, -5.664833779341764E-6, 9.769578639387772E-4, 1.4527538883026113E-7, 4.4451383126299015E-7, 2.8152984999702045E-8, -3.1895560176707005E-6, -1.0359025262738787E-6, 3.853702238407134E-7, 1.1147420511426784E-7, -2.1081308407341385E-6, -1.0067570625938664E-6, 6.38221865829618E-8, 0.014645558513144271, -1.3196928169828496E-6, -1.258396418657051E-7, -8.360582648283125E-7, 1.8039261874121328E-6, -3.921105434737009E-6, 1.8666622958507352E-7, -4.264220766003909E-8, -1.2917247753593176E-5, -1.3828764678754354E-5, 2.5875692579008447E-7, -4.920531836461776E-6, 0.03663658182699312, -1.02054812636208E-7, 7.93470543575866E-7, 5.1656170737132E-8, -6.277701632681568E-6, -6.018002180578126E-6, -7.872834519656076E-7, 8.015392732711047E-8, 3.660166354783834E-7, 9.492911042158945E-8, -1.3866428665080337E-7, -4.833349944999742E-6, -1.0005668868482706E-6, -7.579027060021134E-7, 1.5083593258614548E-4, -5.528062843413158E-7, -5.814628942695079E-7, -1.1468949402737652E-7, -5.341636519138163E-7 ], [ 2.903853002022394E-7, 1.4654522720854345E-7, -2.0285565306845785E-7, -0.007370652689331995, 8.094157696518593E-8, -0.005247201945068635, -1.5346062916723644E-7, 1.5787005949482933E-6, -0.003169529185142286, 4.3862150448570674E-7, -3.082093930306426E-7, 1.3810093200396117E-7, -1.0498517126755395E-6, 2.3064916390384596E-7, -4.1102396815005513E-8, 5.3452652005888385E-8, 6.511482052542198E-7, -1.3186417914016477E-7, 5.833222177195023E-8, -0.046896709103173596, 2.797628743710656E-7, 1.3022500013706903E-7, -2.408446135112704E-7, -3.266989687559991E-7, 1.0450081855628495E-6, 2.38903435448318E-7, -1.3363664602984947E-7, -6.5816654100341334E-6, 2.087982647528871E-6, -1.6857533980828473E-7, -1.3375381312809956E-6, -0.11726085947596487, -1.0874160309560372E-7, 1.372376365560265E-6, 7.836080227487867E-8, 2.0107195521689738E-7, -3.2594585391296374E-7, 2.2828892280053287E-7, -5.135449831819189E-7, 2.7544752242064784E-7, 5.693658437323894E-8, 1.7220857627383665E-7, 2.3866092270275763E-6, -2.0562489733071934E-6, 1.19599638946413E-7, -4.8543478898396754E-4, 3.044315029853344E-8, -3.025187199027889E-7, 1.4069797296936551E-8, -1.3218315027129833E-7 ], [ -1.59774475998208E-7, -1.540511178792836E-7, -4.489392186107116E-7, 0.0031742784865180246, -2.5204644514613315E-7, 0.002231527518083091, -1.6443015238396597E-6, 1.6695661004430793E-6, 0.0013420431558177942, 1.1201213872169609E-7, -8.54255326635271E-7, -2.8731513718450865E-7, 2.7905035927657353E-6, 1.7924443620263694E-7, -8.714666577073439E-8, 3.342613167731014E-8, 1.1124265373881744E-6, 8.891672343599924E-8, 6.5324914300556296E-9, 0.020175449957143984, 2.1802816459063206E-7, -3.034508442318015E-7, -1.551494969734599E-6, -7.339344635248379E-7, -3.610096918158527E-7, 1.0784581298155739E-7, -3.849073998979603E-8, 5.166401577636064E-6, 8.58600174964718E-6, 2.0283585894394224E-7, -2.0590048507380593E-6, 0.05041856609021407, -9.620870857389314E-8, -1.0518029047697357E-6, -7.81078582366801E-8, 2.713203935048652E-6, 7.782260051005245E-7, -8.993788376515986E-7, -1.3755370509544754E-6, -6.349714111360299E-7, -1.8679391256230832E-7, -3.545226903660137E-7, -4.853259532595603E-7, -2.03030576020483E-6, 4.0343179580768086E-9, 2.1793464768754165E-4, -7.221086112720761E-7, 4.305900014713666E-7, -2.5910036007517763E-7, -1.9118842536207827E-7 ] ]
  }, {
    "Size" : 30,
    "ActivatorType" : "Relu",
    "GradientAdjustmentParameters" : {
      "Type" : "Momentum",
      "LearningRate" : 0.01,
      "Momentum" : 0.9
    },
    "Type" : "StandardLayer",
    "L2Regularization" : 0.001,
    "Bias" : [ -11.257977463477332, -0.5040318200047597, -8.774742729804329, -0.742346749112866, -0.9726249058718146, -0.5374920704984986, -0.6642524311979854, -3.4035232772192856, -0.3318645395487157, -0.8342772698166692, -0.3211225792726559, -0.2953126746856165, -1.0752253095875217, -0.3545505787140861, -0.5650285055788001, -0.9333805250850475, -8.037831582588367, -0.3837000308659962, -0.45356926108300694, -0.4988715117802306, -4.62523459623778, -0.7131329658897602, -0.31316500097785827, -0.5987812566888963, -0.2771030189411927, -0.3350018083902906, -0.6733579426030513, -2.3021588871862178, -5.489803044168158, -20.29235659039046 ],
    "Weights" : [ [ -1.2524531014378934E-7, -2.1197090995901872E-7, -1.2022968529631275E-7, -2.202418003547154E-8, -2.132330240152027E-7, -2.844196736606717E-7, -2.261639526144272E-7, 2.323127813483597E-7, 9.739447425330873E-9, 1.3717376747197087E-7, 9.661496931661045E-8, 2.6966443418070917E-7, 4.289113596053589E-8, -2.357170873439445E-7, 2.0513898864910588E-8, -8.571404559128321E-8, 1.5017951487448695E-7, 2.8387256548901155E-7, -3.6707040957944916E-8, -1.8036253472003048E-7, -1.56907556410953E-7, -1.2932633102327568E-7, 1.578749600861797E-7, -2.539374083917335E-7, -5.767277797429047E-8, 1.705528365400883E-7, 1.9948114342593706E-7, -2.2269950189248579E-7, -5.322951713535565E-8, -1.5516257429229933E-7 ], [ -3.644378235237189E-7, -5.8863864720193965E-8, -2.620909885915001E-7, -2.8722596199169834E-8, -1.6013581115901948E-7, -2.488154719843001E-7, -1.2940857482789927E-7, 2.0312496790743637E-8, -4.6936652199443655E-8, -1.2478061193403284E-7, -4.4243576298049677E-7, 1.1209531197057682E-7, -8.052004852044976E-8, -5.7243576268572406E-8, -2.365956100257837E-7, -2.364175397660096E-7, 1.7070295614949972E-7, -1.0944523092793946E-7, -1.9198284031332483E-7, 8.859005170068508E-8, -1.9092118599332533E-7, -2.0001086780402024E-7, 7.28176382693793E-8, 1.2501085349959758E-7, -2.3695145777999575E-7, 9.982715574455548E-8, 8.248013326022492E-8, -3.2186265415636153E-7, -5.8102765280132327E-8, -2.442562356105475E-7 ], [ 5.674288293013632E-7, -1.4243157338563515E-7, -1.4066913670194525E-7, 9.582032072121849E-8, -4.80313620657837E-7, 8.135135794751481E-8, -2.1029380400413883E-8, -4.917214768606788E-7, -2.535294262494093E-7, -1.3953199215541538E-7, -1.8289856868821588E-7, 1.3865667591282547E-7, -4.776511511724382E-7, 1.1101980866038526E-7, -5.189553797669638E-7, -5.302156661160493E-8, -2.507298797327618E-9, 2.7907486242051764E-7, -5.070618723195035E-7, 2.2036993036559893E-8, 9.110909995574826E-8, -1.3847714044232932E-7, 8.825538008900215E-8, -1.273865227692933E-7, 3.8040382038799025E-7, -2.1978651292081225E-7, -1.5050760091505778E-7, 3.6969321880074736E-7, -3.181228439096912E-7, -3.7130457586778533E-7 ], [ -3.306011690610773E-7, -1.5436772918636892E-7, 3.108658315741472E-6, -3.2043597820633156E-7, -3.979571293999043E-7, -3.9742025156211423E-7, -1.7931514384036627E-7, -1.98573508394947E-8, 4.6607733886150343E-7, -4.295142413013087E-7, -6.007815249838124E-7, 1.9102006055844708E-7, -5.222560755108936E-7, -1.72402178501468E-7, -2.621162399698718E-7, -3.284944644609124E-7, 5.294544568590651E-7, -2.515841728346033E-7, -4.489805363287023E-7, -2.6634597741945994E-7, 7.890805180618722E-7, 3.1010971880311284E-10, -1.0302572017636907E-8, 1.4555186741712378E-9, -9.216052091640487E-8, -1.3311490382190313E-9, 1.0144083802327442E-7, -4.725303994755255E-7, 5.914973667031143E-7, -0.2508166445521161 ], [ 2.2375740877776214E-8, 1.0714624031998671E-8, -2.583044731233341E-7, -1.1721783229704556E-7, -2.650579207101921E-7, -2.9098859580239767E-7, -3.92017905838097E-7, 1.2766789157676205E-7, 4.977150185213631E-10, 7.810759078353E-8, -3.334761345812515E-7, -5.052660239714327E-9, -9.000736922199691E-8, -3.354293387744396E-8, -2.2902095712391713E-7, -2.0417070599993184E-7, 7.693672211601334E-8, -2.9044945941003E-8, -5.504802289186225E-7, -3.5967075549835324E-7, 1.4261871168545803E-8, -1.2118631361299442E-7, -6.398579734185611E-8, 1.1697067081894335E-7, -1.958384518250926E-7, -1.365989295278938E-7, 2.6004904678320173E-8, -1.375997164163951E-9, -1.5649736439974285E-7, -2.3184664740711367E-7 ], [ 1.2998652685154221E-6, -7.776084299531422E-7, 1.524422058605706E-6, -2.7321620928782923E-7, -6.801999670127976E-7, -3.213259889358374E-7, -8.122603020361644E-7, 6.747721649599815E-7, -2.2338794048579752E-7, -5.624274239874917E-7, -1.1552956270433275E-7, -1.7257933023993143E-7, -1.8923858491231775E-6, -1.1985879700813355E-7, -1.4644429009922864E-7, -6.841151122030386E-7, 1.0161239116590095E-6, -1.3957712064499763E-7, -3.7451848532199413E-7, -3.154968350823354E-7, 1.9104592830413314E-6, -2.674444128899138E-7, -3.340996510284684E-7, -1.5481069087824466E-7, -5.927167147499796E-7, -2.2795446957565427E-7, -4.7164209323783433E-7, -3.514906684990351E-8, -2.4476771171845873E-6, -0.17142450507717844 ], [ -3.477342005229361E-7, -2.579478176966409E-7, -4.7502557487022405E-7, -2.3451867063541818E-7, -3.388229578559297E-7, -3.4390387486149045E-7, -2.2564762973297143E-7, -2.9860625288178905E-7, -2.0732447492817482E-7, -2.7663182901863703E-7, 4.3724613441173274E-7, -2.163455888172504E-8, -5.458047453335556E-7, -3.1052970619201105E-7, 9.051883898177504E-8, -7.755820133199824E-8, -1.4102620235956224E-6, -5.179396983596332E-7, -1.887192273518974E-7, 1.0086509330171325E-7, -1.9161391960830005E-7, 1.709909224003915E-7, -5.0670117252288833E-8, -4.379236785790609E-8, 1.4585484751910147E-7, -5.833533182375482E-7, -2.92111281106013E-7, -3.112314976931137E-7, -8.758648238576017E-7, -8.211283782197985E-8 ], [ 1.7784512037055813E-6, -5.17057152015765E-7, 1.9000914293747693E-6, -1.1841156442950089E-6, -5.614753534100332E-7, -2.763554953867611E-7, -5.840914307979844E-7, 6.531723718565507E-7, -8.057602721235005E-7, -3.898232972850463E-7, -2.7038993727007615E-7, -4.536736145628438E-7, -1.6896473430573363E-6, 4.206171881291813E-9, -4.0218331299476207E-7, -9.669018452943865E-7, 1.0907055695109927E-6, -7.051961425571053E-7, -8.731471261946689E-8, -4.843509766221459E-7, 1.1832121478327049E-7, -6.896308401727303E-7, -3.4480185223939863E-7, -5.645217450062916E-7, -1.432646441636889E-7, -3.6557898678272356E-7, -6.198995444975158E-7, -7.664120982281698E-7, 4.672766935924559E-7, 1.1381453835512587E-6 ], [ 1.9323856682220933E-6, -2.243937697693282E-7, -4.0243661773370323E-7, -2.582428399376575E-7, -2.9376546821784786E-7, -2.0232069258453296E-7, -1.2971077682207586E-7, 7.007749507414924E-7, 1.2156082060766482E-6, -2.5743744441286604E-7, -3.2723428843067056E-7, -2.256362153860891E-7, -2.187845693081094E-6, -1.2268685691368258E-7, -1.1919625172935709E-8, 3.477775163817819E-8, -1.0403708086149898E-6, -1.9934114562211357E-9, -2.786776376126256E-7, -8.532960684781841E-8, 1.5356051234915944E-6, -9.247868056394228E-8, -5.456788740928216E-8, 5.8861392843996155E-8, -1.6305983624027852E-7, -2.6416165315208124E-7, -1.3283280542090167E-7, -2.7947128401285245E-7, -1.5040531230474036E-6, -0.10269877624693477 ], [ -2.111515478290815E-8, 1.8968556253672645E-7, -2.9180733914800487E-7, 7.532726997226636E-8, -9.065729609259561E-8, 1.5056886948562295E-7, -1.3454747976191213E-7, 1.4584184939411381E-7, 1.9281583124349311E-7, -2.772581868645535E-7, -9.918622511073498E-8, -1.0888966058171581E-7, 2.6106467932966873E-7, 1.0233895835138353E-7, -1.150517185569744E-7, 9.2612628684974E-8, 2.3444263368773786E-7, 2.881791884548236E-7, 1.427261760410505E-7, -1.7589458745319835E-7, -2.118937749953963E-7, 7.873197789345084E-8, -2.2683493540064193E-7, -2.9928067696581855E-7, -1.22661148752189E-7, -6.370962186084244E-9, 1.297398256329755E-7, -1.8307847034341948E-7, -2.4154506420556556E-7, 3.247400577613612E-8 ], [ -7.762317727518598E-7, 2.111460031074274E-7, -1.833001152633525E-7, 1.1517507098118674E-7, -2.396391092607638E-7, -7.972417082728684E-8, 1.368096721252171E-7, -3.7423704904674535E-7, 7.2277550696552E-10, -7.312124739558661E-8, -5.4424783143213366E-8, 1.2234791079755719E-8, -2.8413669363799376E-7, -2.910770713856906E-7, -3.4284636041180694E-7, 3.463178382322709E-8, -1.096422724720828E-7, -3.3626785658504E-7, 6.153684618263883E-8, 1.1031848910826846E-7, 1.4927797295770696E-7, -7.604198117932117E-7, 5.250843078288688E-11, -2.070385520311775E-7, -3.4071855855830383E-7, -9.281269416543738E-8, -8.593519782879632E-8, -2.1033399311345798E-7, -3.0770922547261356E-7, -1.0711060343335921E-7 ], [ -2.591149206651662E-7, 1.1812644448316587E-7, 1.762112892167689E-8, -4.0128163628335455E-7, -1.5506189942691082E-7, -3.2661181966784177E-7, -3.0594223407734884E-8, 1.494897765696177E-7, 2.1790517931618716E-7, -1.0021166199240265E-7, -1.672663163607153E-7, -2.828565342143894E-7, -1.3614381434640063E-7, -1.9151256389300607E-8, -7.965345254926733E-10, -1.0529468177948986E-7, 1.7650460807710712E-7, -1.8591634387045612E-7, -2.0282926850727034E-7, 6.034069246849659E-8, -2.2065643521207405E-7, 1.1249182012294845E-7, -2.516348205534372E-7, 2.360356049766496E-7, -2.32544913907214E-7, -2.7734178313810065E-7, 3.691175394065728E-8, 1.3848322027194915E-7, -1.1554809295523074E-8, -3.149604776366762E-7 ], [ 2.970587146427374E-6, -3.1278757257668535E-7, 1.8277565229479069E-6, -9.022221165345994E-8, -2.077228622846887E-7, -5.8259644009397704E-8, -1.512384418426367E-7, 1.5439737422125563E-6, -6.436354311213942E-8, -1.4711559256145756E-6, -4.846939729284494E-7, -3.2681645098200674E-7, -7.824511567221659E-7, -3.189975360061834E-7, -4.1483330826270356E-7, -5.917450936235081E-7, 4.191870477638778E-7, -6.261425670568898E-7, -4.7004104445489854E-8, -3.91079112561205E-8, 8.892286374115803E-8, -3.4223530073253683E-7, -9.40913183278691E-8, -9.959622062566853E-8, -3.2383658552252416E-7, 1.4369392621052605E-7, -4.313071668909373E-7, 5.344798270040217E-7, 4.168172222229106E-7, -1.3988264220659995E-7 ], [ 1.6673034967336886E-7, 1.5293615900332575E-7, 1.8693232125193023E-7, -3.455831748805994E-7, 1.1197319175405319E-7, -3.774592506825424E-7, 1.222771152833236E-7, -3.8032041809688753E-7, 1.2874446117271442E-7, -4.893803010182888E-8, 1.9084027083191757E-7, -3.1388417762892785E-7, 1.1098961754018486E-7, -1.6553730171665837E-7, -2.202489728373212E-7, -3.5035288327920275E-7, 2.2356237712631865E-7, -2.463138252559868E-7, -7.729537757899898E-8, 1.6634496753499338E-7, -2.7342225628466207E-8, -2.4396747625367275E-7, -5.85972984868321E-8, -1.410114190106668E-7, 1.0112405894907496E-7, -3.373537528886468E-7, 1.4321777111165932E-7, -3.31297018097928E-7, 5.726661333394425E-8, 1.1442847362535936E-7 ], [ -2.915724319131267E-7, -3.4098473171099446E-7, -1.3597026260237255E-7, -3.058967819617208E-8, 6.047960430304453E-8, -2.8040276909469673E-7, -2.4379595669854515E-7, -2.9564262088893603E-7, -5.264727728820234E-8, -1.1085307657481496E-7, -2.460699638594972E-8, -6.148847163084865E-8, -5.268121642606493E-9, -1.1451433052196424E-7, -7.915710388401549E-7, 1.4699279058395315E-7, -4.9804241494353946E-8, 2.079749194546439E-7, -1.9036370537327158E-7, -3.2564244649646446E-7, 1.4734109162984385E-8, -3.8354952762894043E-7, -1.9065818471914862E-7, -3.3037853865311896E-8, -2.809440708708827E-7, -3.7315341533112337E-7, -1.1485216726450597E-7, -1.0017623842303666E-7, -3.026473670877929E-7, 7.412824683353972E-8 ], [ 6.504368418371769E-8, -2.163484919899809E-8, -4.806511028905482E-8, -2.9285394590758844E-7, 4.5283569337313926E-8, -1.4293240940784414E-7, -2.4372217468280354E-7, 1.5129385802247315E-7, 2.4862188697385626E-8, -3.2701849153055206E-7, 2.076947683367285E-8, 8.329449593766747E-8, -1.24235856965664E-7, -2.584461640000085E-7, -2.6554625565939245E-7, -9.598065354033305E-8, 2.0770506546264276E-8, 1.2810915124452228E-7, -1.2021251881407417E-7, 7.508957425435173E-8, -4.787836044281855E-8, -1.0084797827825724E-7, -4.022601525848218E-8, -2.3231962167266722E-7, 1.0881946862523889E-7, 2.0271735263303654E-7, -1.7284846113666577E-7, -8.08200762975027E-8, -2.9505126300131694E-7, -1.3419882775431882E-7 ], [ 1.1086344290734711E-6, -5.303883282328181E-7, 3.4709653811055153E-7, -2.202446574347986E-7, -2.665309190856998E-7, -3.245240596226571E-7, -2.803029464904907E-7, 1.0193189258933659E-7, -4.906924614733312E-7, -3.396145829892434E-7, -2.8340332173405663E-7, 2.025926741984457E-7, -5.695373948164557E-8, -3.4665747439397356E-7, -2.4659095298994736E-7, -2.922144940330177E-7, 1.2555459615565814E-7, -4.672521928301466E-7, -4.00593827402801E-7, -2.296518092692796E-7, -6.416422490257662E-7, -1.151108632527114E-6, -8.877702064023109E-8, -3.253614922262905E-7, -2.454105095397382E-7, -2.269431140741385E-7, -3.2274344169108193E-7, 4.9811747555517775E-8, 1.1038853741608916E-6, 6.264881115995381E-7 ], [ 5.472495454917671E-7, -5.230996107115406E-7, 2.5368685080099475E-7, -2.665547983235412E-7, -3.7043493713458345E-7, -1.3312306221895667E-7, -2.827519439792253E-8, -9.242513993241277E-8, -3.0963421440547027E-7, -2.1638472921166743E-7, -7.338531633610611E-8, 7.910031104519665E-8, -1.1426129047529075E-7, -4.061126405285062E-8, -3.231795847730672E-7, -5.734888608199751E-8, 1.8708595352579771E-7, -5.7743075000358696E-8, -2.955397034491067E-7, -4.275445465320644E-7, 2.659141751918374E-7, -4.4449599603673304E-7, -8.24349040206712E-8, -2.808109739287749E-7, -3.421737742396642E-8, -6.862529312364633E-8, -8.696020186144145E-8, -1.4072621082822562E-7, 3.737788337582842E-8, -2.4723735414374527E-7 ], [ 5.353170094965877E-10, -3.050061395303288E-10, -2.7660722887248617E-7, -3.4993733604660163E-7, -1.1718304627452228E-8, -2.557632804715169E-7, 4.6007165156097934E-8, -2.2981236001065247E-7, -1.8683071962547022E-7, 2.2252688081744792E-7, 8.679750150539927E-9, 2.651964192541247E-7, 7.558872930564926E-8, -1.233398546873062E-7, -3.3545145746575943E-7, -1.0258331665939157E-7, -1.0792377903854954E-7, -3.1690751582741787E-7, -2.6716598572047217E-7, -2.8069235844642005E-8, -3.8729709329391466E-8, -4.454674813694404E-7, -1.2505136544741411E-8, 2.2118912733433274E-7, -1.820653756715818E-7, -2.8338113897114857E-7, 3.331360212774798E-9, 3.932795856101491E-8, -1.0404219205481396E-7, 1.968918235729963E-7 ], [ -3.1272330231879277E-6, -5.513784412237757E-7, -6.565552029313368E-7, -9.557753310871946E-7, -4.913326723744684E-7, -5.901092272821392E-7, -6.798031004676067E-7, -4.117451835246622E-6, -5.852259719359008E-7, -9.419398772769118E-8, -3.069409601099148E-7, -3.5484786250722334E-7, -1.8063829080311926E-6, -2.968210021313917E-7, -1.9121198362018643E-7, -5.662648532554112E-7, -1.0777256499554106E-6, -7.002560056103828E-7, -2.174379801504329E-7, -1.4523386897651238E-7, 1.2883938915191092E-6, -9.056264767424701E-7, -3.65194258563737E-7, -4.906791342285585E-8, -2.7283102732220017E-7, -1.375914902857367E-7, -8.45367879421937E-7, 1.9071094661822913E-7, -3.0460304797233944E-6, -1.6310395474770782 ], [ -2.000439480690773E-6, -2.9271857751692405E-7, 3.2896487824435213E-7, 2.948632967880926E-7, -3.334257309424814E-7, 7.039690138540623E-8, 1.0873058562689729E-8, -2.2375944921634158E-7, -1.4179768733684278E-7, 1.4677236395877695E-7, 1.3990436640915745E-7, -7.207145430925299E-8, -3.192295598971725E-8, -1.853583695495398E-7, -7.033339622002749E-7, -4.4206959891659644E-7, -2.2776500261420798E-7, -8.479185198980742E-8, -2.0888006172947585E-7, -1.260071388361835E-7, -4.2213975517063936E-8, -2.805067851831107E-7, -3.0035485263158317E-7, -2.1498117278452337E-7, -1.8439715701686413E-7, -1.1559793890160474E-7, -2.8109576002580176E-7, -4.5817878553015515E-7, 5.827863937779907E-8, -4.34251592433743E-8 ], [ 2.0590763193037398E-7, -3.715318405086265E-8, -1.6810511730830507E-7, -7.938736857977909E-8, -2.6280396008867785E-7, 1.1168876339974304E-7, -2.042747577104821E-8, -1.3146704629488523E-7, 1.0564286102760753E-7, -3.8488912337607493E-8, 3.622908455685127E-7, -1.8634744914023095E-7, -1.6724561576824956E-7, -3.056723379304621E-7, -9.703639369844891E-8, 2.553124675010303E-7, 1.5298598978747955E-7, -3.4872270188214693E-7, 2.397262732991556E-7, 1.648646532854997E-7, 4.607299883955157E-8, 8.844453418849788E-8, -2.683606368183174E-7, -2.471877153325771E-7, 1.373405583772117E-7, -8.05605101328847E-8, -2.060571937417207E-7, -3.8554955586951705E-8, 1.4472892737454947E-7, -1.6715623692206097E-9 ], [ -9.610296346723393E-7, -2.305394354862676E-7, -2.22889542332665E-7, -4.260583665366948E-7, -2.3585824353555133E-7, -4.592573169061049E-7, -3.5912120314986594E-7, -1.5491539762691933E-7, 2.6602465064183713E-7, -3.661014097034993E-7, -9.824001472876666E-8, -3.092972224178941E-7, 2.8005731576674363E-7, -9.398001272070752E-9, -8.22009494865945E-7, -1.073239810811747E-8, -1.0582782316635358E-7, -6.351023246701958E-8, -1.8582846061676592E-7, 2.738203977413935E-7, 2.3621225545372455E-7, -3.962113869518434E-7, 1.832166198917149E-7, -7.41682686585062E-8, -2.0959719323865818E-7, -1.9329233103707994E-7, -2.925243238803884E-7, -8.069136601109131E-7, -4.913748717356355E-7, -5.216814784197671E-8 ], [ -2.6153457205691617E-6, -1.8716838108806446E-7, -1.8975772345452026E-7, -9.760007603776311E-8, -5.723301248976609E-7, -7.756591332437697E-8, -2.3834489103386444E-7, -1.3382440078727927E-6, -3.450887120573228E-8, -1.3624861845833844E-6, -1.7004341259801137E-7, -2.397721461461626E-7, -1.2161297783135465E-7, -1.1156265259215613E-7, -5.480670254222511E-7, -2.543210327637965E-7, -3.6770745031125344E-8, -2.664390079868768E-8, -1.199749128301173E-7, -3.214304603577586E-7, 1.1298652708393767E-7, 6.996890326212857E-8, -6.62248909243131E-8, -2.5826375559849924E-7, -2.726845344451131E-7, -1.6363241953769588E-7, -5.2707516335467864E-8, 3.9715598924709317E-7, -4.025963068832627E-7, 1.4104758950910918E-7 ], [ 1.8544280340795894E-6, -7.194274041549074E-7, 4.070521739353389E-7, -4.284131474157693E-7, -4.721126756747309E-7, -4.1692040703398624E-7, -7.646521437486199E-7, 3.1595853455968767E-7, -4.302642031919443E-7, -7.32583576784575E-7, -9.293926575028236E-8, 4.5398236317052064E-7, -1.0591540567006861E-6, -2.309994912673778E-7, -6.263009817171666E-7, -4.0179383225386094E-7, 1.2115623493510281E-6, -1.5841414337547808E-7, -4.1551396269428815E-7, -1.3770342991526327E-6, 3.047426474259759E-7, -2.8307692436821573E-7, -5.140742192276811E-7, -3.0289855861777226E-7, -4.5244963437678037E-7, -9.471746521603371E-8, -3.953668316789345E-7, 4.410410743092831E-7, -2.2981944850509248E-7, 2.2831955010130562E-7 ], [ -2.235717889495387E-7, -3.566657402789446E-7, -6.514657118089643E-8, 5.095142849627384E-8, 1.3395735737808746E-7, 8.772702737326031E-8, -3.3622148398315687E-7, 5.744552550606479E-8, -7.211453726880046E-8, -2.2354692418708938E-7, -1.96114165706875E-7, -3.009978378040986E-7, -2.7842118255819013E-7, -3.761543617270869E-7, -5.7900383706115115E-8, 6.977633376985482E-8, 5.751054449339182E-8, 7.072816768856701E-8, 2.3007410949090077E-7, -2.388355089923231E-7, -2.9457047159919697E-7, -2.2756884160663867E-7, -1.3684706887260153E-7, 3.445669456205619E-8, 1.7217471912573575E-7, 1.4828888290659552E-7, 1.0894297505321492E-7, 1.7355405174524605E-7, 1.240823128334303E-7, -7.365423099207203E-8 ], [ -5.054882351635605E-8, 3.992140113782143E-8, 7.176543595734105E-8, -4.0182876722999673E-7, -3.1169390142733984E-7, 1.8907137118593727E-7, 1.0475060795973096E-7, 1.9456239119232363E-7, -5.605414142439272E-7, 2.5605834074914584E-7, -2.570748136968175E-7, -1.7855953965153223E-8, -2.3097065820764196E-7, 1.229592992006666E-7, -3.568399786904271E-8, -4.36014241542928E-8, -1.4381559491565268E-7, -2.8174050701849435E-7, -3.4405813884667835E-7, -4.2192957150163853E-7, -2.0569388932411223E-8, -3.260115927399403E-7, -1.686837059901094E-7, 2.442938567629571E-7, -1.7437146566497085E-7, 2.7940429357019265E-7, -6.903470692851207E-8, -2.886303757620862E-7, 9.05338175266127E-8, 4.925002410579594E-8 ], [ 3.979422932743708E-6, -2.105300695328301E-7, -1.5395428281713825E-6, -3.4760849322748945E-7, -5.704437359171085E-7, -8.324823436382853E-7, -5.050026780419871E-7, 2.0828935228762057E-7, -4.554094871319627E-8, -1.3689726162435746E-6, -7.422170932610914E-7, -6.397577788043528E-7, -2.6739562125462466E-6, 1.572775688772224E-7, -7.634904720540028E-7, -2.08961006146205E-7, 1.2186136921830133E-6, -4.6383358200742886E-7, -3.078046572692275E-8, -1.0259064241755863E-6, -2.0008788805339116E-7, -2.2030518712260342E-7, -3.987242120672911E-8, -5.328986520307388E-7, -2.290322849223782E-7, -2.1009963979135228E-7, -4.3341698653794993E-7, -1.4386728127621407E-6, -3.580633925624958E-7, -9.476566201134958E-7 ], [ 2.088387059504669E-6, -1.7786723274661498E-7, 3.0357657659169543E-6, -5.143523069461395E-7, -5.956275537841765E-8, -4.131507311892942E-7, -4.40617015654329E-7, 1.4473025898793543E-6, 6.50954457441267E-7, -7.866167131969298E-7, -4.1441447528533744E-7, 1.558818848993603E-8, -2.542728368636164E-6, -4.620896617180627E-8, -1.9452537831620335E-7, -4.4683767337062416E-7, 1.3868772858787904E-6, -1.314738737181502E-7, -2.280757848665029E-7, -1.7011535626193348E-7, 2.776733744175017E-7, -3.9601740099291205E-7, -1.411136377639971E-7, -2.929095962204547E-7, -1.4754833358283732E-7, -3.2468237786544814E-7, -1.6749375230211852E-7, 8.042328307349846E-8, -9.387018463504817E-7, -3.622295998827757E-8 ], [ -6.32842888187403E-7, -2.645877383277183E-7, -1.6271889645127786E-7, 2.0237735230833648E-8, -4.818115736123764E-8, -3.9718943224566955E-7, -1.2520451984426142E-7, -6.360344676358991E-7, 2.321385591074517E-7, -2.2512796009487626E-7, -1.2051632764835167E-7, 1.3001279969862428E-9, 1.0353711136257899E-7, -1.9431433808384174E-7, -2.5570586296381923E-7, -3.081134731578169E-7, -2.7687110272079893E-7, -2.2878650012913908E-7, -4.516535566575776E-8, 3.0053171892453804E-7, -1.7327197181151767E-7, -1.0036181171017137E-7, -1.7509955663150176E-7, 7.507845303909575E-8, -2.748172950207679E-7, -2.638623725178538E-7, -6.330432431111866E-8, 6.203666173416188E-7, -4.421817246309381E-7, -1.7972716390153913E-7 ], [ -7.609741282459413E-7, 5.843301995504936E-8, -1.1545646244727879E-6, -1.204902580150089E-7, 8.415536407506505E-8, -5.393960042099926E-7, 6.382853654113673E-8, -3.7507505478992694E-7, -5.050950071705933E-8, -4.750073426088805E-8, -2.4644354512136026E-7, -1.3832015526109348E-7, -1.0044088763563983E-6, -2.732565332211842E-7, -1.2215829559549565E-7, 8.81405305954551E-9, -2.3096072742319864E-6, -1.1964138913494197E-7, 2.6536961699350062E-8, -4.2146509747661043E-7, -1.4960664789168252E-6, -6.945026785600881E-7, -2.1973525400340872E-7, 9.601419414462573E-8, 4.442292289993022E-8, -2.5508275869891806E-8, -2.4739119548386724E-7, 9.695478592653269E-8, -2.08715608081129E-6, 1.7692768504188197E-7 ], [ -2.856527891184238E-6, -6.616452382774695E-7, -2.0181889691361924E-6, -3.1437763135166264E-7, -2.072454368654079E-8, -1.9893697845468784E-7, -3.6337931946048394E-7, -1.5802951143928706E-6, -3.0615747435683865E-7, -2.200727659068158E-7, -4.6374584788229173E-7, -4.2877096141213096E-7, -1.4311668305765278E-6, -6.398748461212082E-8, -3.1166930767134673E-7, -3.232867834772604E-7, -1.1120921417252992E-6, -4.3780350265921203E-7, -5.684755517437556E-7, -1.570625755148152E-7, -1.032537614483308E-6, -2.7285708586675657E-7, -6.288329133069986E-9, -4.744399804787574E-7, -1.9425433356062242E-7, -3.369347322548917E-7, -4.202876359968719E-7, -5.925101793620397E-7, -3.1762647450584464E-6, -3.8893490285687347 ], [ -2.0906312033872317E-8, 1.733925297543479E-7, -2.389625329454954E-7, -2.572498260103893E-7, -1.782700279685993E-7, -2.8425497512066483E-7, -2.9988730162336355E-7, 4.054882066877773E-8, -1.0021299873028718E-7, -2.208189092810613E-7, -1.2644476023888555E-7, -1.320510698155745E-7, 4.7560612557753124E-8, 1.420135441925454E-7, -1.6402246109877703E-7, 1.2931885629926503E-7, 1.8527958991853038E-8, -6.052484453843925E-8, 1.1820019309678897E-7, 1.695897918389274E-7, 1.987009123311643E-7, 2.521679415718012E-7, 2.571238021938682E-7, -2.800390907343552E-7, 2.761842839323791E-7, 1.6016545673826454E-7, -2.2744122387344367E-7, -9.942062168371403E-8, -2.8073481110014724E-8, -3.7639191985395037E-7 ], [ -2.263644178725247E-6, -1.0220717371158666E-7, -1.438437835564836E-6, -7.005787870712202E-8, -1.4563508964882551E-8, -2.098374355206212E-8, 9.01476624209113E-8, 6.361377713234525E-7, -3.3656959805630384E-7, -8.703597713338056E-7, -3.0283601003459266E-8, -2.921793000242839E-8, -3.0406789712465496E-8, -1.8016326089487802E-8, -4.1682594949420913E-7, 4.849890432797828E-8, -5.824493467575819E-7, -2.787037516092332E-7, -2.708931554447358E-8, 1.7011752094759585E-8, -2.4165535006120885E-7, -1.0677396144483247E-6, -2.2007985724100677E-7, -2.0789044616688076E-7, -4.363290285983239E-7, -1.6240809307671808E-7, -3.143009860549286E-7, -1.3035061004298397E-7, -3.773952887715175E-7, -4.141461139248892E-7 ], [ -3.036348380244254E-7, -9.882020220770369E-8, -1.914616289636149E-7, 2.302872288467889E-7, -2.046080515645546E-7, -1.1631085572785572E-7, 7.696977300433026E-8, -1.759187462830283E-7, -1.5370572751313254E-7, -7.917173895347203E-8, 3.1125754558046896E-8, -2.806645410237696E-7, 2.5242376262742813E-9, 1.3238124872069512E-7, -3.944656379963807E-7, -6.875413457593766E-8, 9.635225942329363E-8, 3.4026352723437236E-7, -2.1348445145793807E-7, -1.4359620346040053E-7, -3.298822637611065E-7, -1.350665273544647E-7, 1.5629144111328533E-7, 2.814477029883273E-7, 4.720442405687802E-8, -1.57204157263553E-7, -1.8875210645149695E-7, -2.6356821477952493E-8, -2.2249763665881732E-7, 2.0265616699283885E-7 ], [ 6.843545871149096E-7, -8.086750960293579E-7, 3.113322997776072E-6, -6.343975378780456E-7, -5.663017287072261E-7, -1.2004324275030999E-6, -7.631696187761459E-7, -7.780871181119074E-7, -7.609087905141475E-7, 1.7289076863822826E-8, -9.182643582684913E-7, -2.5814707306943414E-7, -2.3297649751339792E-6, -2.7475657114950095E-7, -5.917492821444164E-7, -7.620630066785538E-7, 5.10273025337087E-7, -3.712292040280227E-7, -5.890439149955582E-7, -1.0027021986835527E-6, 2.7121867481303836E-7, -1.3835902200419017E-6, -4.045823044358564E-7, -4.6597849371618235E-8, 1.8419542229084665E-8, -4.5357344847994E-7, -5.963235154925352E-7, -1.3419586804576024E-6, -8.246608327042244E-8, -2.26418810201853E-6 ], [ 9.570689411314477E-7, -3.2442219739838307E-7, 1.539710552478698E-6, -3.827992621549962E-7, -4.997409240786626E-7, -6.270013169065189E-7, -6.441330058546509E-7, -5.585969733264647E-7, -1.348541109647859E-7, -1.938200694650011E-7, -4.9731388241985694E-8, -2.969803672423544E-7, -2.9006362894416404E-7, -2.082823795868326E-7, -1.9483492312890216E-7, -6.051070600306428E-7, 1.326930603613354E-6, -3.665245350042991E-7, -1.6592343672044587E-7, -5.559946836050337E-7, 4.1148290153979564E-7, -2.1912978389302735E-7, -3.589906961311134E-7, 4.09752071208787E-8, -7.115072475391069E-7, -7.930706718955217E-8, -4.3985791893504606E-7, 1.6708650850845716E-6, -1.1189544201654802E-7, 4.045582107436674E-7 ], [ 3.679313132533447E-8, -7.902977924792917E-8, 1.5096011471355902E-7, -4.404216861051062E-7, -6.926528369388316E-9, -1.582366649548556E-7, -3.813771313960401E-7, -2.439461261413715E-7, -4.2694852115482627E-7, -5.932764833899079E-7, -5.111175696412839E-8, -7.615692304863282E-8, -1.2467354286407935E-7, -9.062315010515635E-8, 3.487846202817274E-8, -4.592915220892896E-7, -5.728553476752866E-7, -6.459900012132675E-7, -3.7446180288462734E-7, 1.4474597363923046E-7, -6.045186402020418E-7, -5.11033817910072E-7, -3.2228555606310214E-7, -1.9267493349802974E-7, -2.651295213565632E-7, 1.4738159449536056E-8, -3.581633532535918E-7, -3.268209327223644E-7, 5.213253042344995E-7, -1.6862885694947277E-7 ], [ -1.0932111558787623E-6, -1.0872939005739313E-7, -1.0552117867759485E-6, -4.029026405243685E-7, 4.713444769024141E-8, -3.292364861553441E-8, -1.2168601907184707E-7, 1.623415855690524E-6, -5.7688799832875467E-8, -4.015506858807621E-7, -4.1738015296426473E-8, -1.2798066110326181E-7, -2.7288664371372917E-6, -2.9423816491868286E-7, -4.879809217602434E-7, -3.428099446707504E-7, -2.0254304936163004E-6, -2.5692646967197423E-7, 7.082724162786401E-8, -9.198639649764507E-8, 5.031170521686741E-7, -2.2139879894114346E-7, -1.738071922105009E-7, -8.330802340353576E-8, -7.147634914170781E-8, -1.8515187563721308E-7, -2.8388643269784674E-7, -1.0094509460596014E-6, -4.331500055734787E-7, -2.9332646932116127E-7 ], [ -7.249490234694199E-8, -2.5190332344866754E-7, -2.7721691232666857E-8, -2.0304515143051847E-7, -4.0975887898421765E-7, -4.518283101573808E-7, -9.919805272321971E-7, -3.1351667917681954E-7, -2.773852663829062E-7, -4.1498446623329895E-7, 1.784637870180961E-7, -2.5574677507580955E-7, -2.042477941641743E-7, -1.0554061002583374E-7, -5.572134169517041E-7, -1.4246299613614674E-7, -1.7383143753906758E-7, -6.727997298365448E-7, -4.1617428211527055E-8, -2.400564306843602E-7, -4.6238003992294766E-7, -6.108397044401185E-7, -1.8744471856651938E-7, -1.8398686143311303E-7, 6.726363335343474E-7, -4.0647936281484896E-7, -2.898122821163031E-7, 7.75553619548002E-8, -4.979581058845876E-7, -2.1868755344683366E-9 ], [ -2.2906148492121016E-7, 1.215637303152254E-7, 8.85942519622877E-8, 1.202985320252592E-7, -5.7986397949495014E-8, -2.0287166213949985E-7, -2.6467022594642638E-8, 1.8252930612524637E-7, 6.679252601873114E-8, 1.900515833803699E-7, -2.1506171097329444E-7, -1.4325992093819116E-7, 9.312795548405153E-8, -2.4906976406943812E-8, 8.833674436344617E-8, -3.3818389458782347E-7, -2.1333290379972773E-8, 4.068326116792308E-8, -1.6728951961291747E-7, -4.476022033822779E-7, 6.527817377992858E-8, -3.9305112410486166E-7, -8.584143394298799E-9, -2.5051653820144184E-7, 2.1496971754325846E-7, -1.255921598598873E-7, -4.1206596214195624E-7, 5.190391901177903E-8, -1.9439716672264003E-7, -3.288241492237026E-7 ], [ -1.98773994719031E-8, -1.1536961396148601E-8, 3.236231529007407E-7, 3.186267763464167E-8, -3.077779679061929E-8, -1.3125255956020505E-8, -1.866091620703262E-7, 3.019615374600281E-7, 8.75532433477333E-8, -2.4994478955114E-7, -2.78305306332544E-7, 2.2822686722966194E-7, -1.6270091662225693E-7, -1.3834524096261174E-7, -1.1066069848647536E-7, -1.0047257328114792E-7, -2.0713023572522072E-7, 4.693249159655005E-8, -9.736463034473397E-8, 1.7427970941892076E-7, 2.3570640548462058E-7, -2.408102434097992E-7, 1.6754137712679005E-7, 2.7026015482874307E-8, 1.1003661902919057E-7, 3.5948250849865495E-7, -1.68594609164075E-8, 1.341976064183977E-7, -2.401046166320217E-7, -2.3041338190943267E-7 ], [ 1.8677975758200648E-6, -6.522504561839408E-7, -2.438913287402384E-6, -3.6872902034397567E-7, -2.2775788003318395E-7, -5.716709118646468E-7, -2.577014596139005E-7, -5.955244295249711E-7, -5.054293973511362E-7, -2.3489267566799077E-7, -3.696609012028544E-7, -8.012084070569509E-8, -1.9610932281594317E-6, -6.446448001652892E-8, 2.5166311723987566E-8, -3.866378034670882E-7, -3.188245803647988E-7, -3.7510101832814936E-7, 1.2075813231768818E-7, -1.2995790602161248E-6, 5.648441162359855E-6, -4.308029553147217E-7, 2.4030186975381544E-9, -4.188356420834771E-8, -2.625237853665285E-7, -4.158685492254735E-8, -3.787508015237544E-7, -7.549760529089576E-7, -1.1495773426950248E-6, -1.4116527334902118E-6 ], [ 1.2314267917418406E-6, 3.0359735748622456E-8, 1.1639959342200393E-6, -1.9816239790751354E-7, -4.225275017884247E-7, -1.307747167227274E-7, -2.1106067401446724E-7, -9.204451929813627E-7, -2.996333109157262E-8, -9.68835556152987E-7, -3.794209002542787E-7, 2.466008870804081E-7, -7.707150733389156E-7, 1.23924031056281E-7, -2.2682245080389627E-7, -1.4866753733853274E-7, 4.4821560550675516E-8, -3.5968388372284804E-8, -9.400913217065946E-8, 2.8588580457425463E-8, 4.928597838330341E-8, -1.540757063769989E-7, -1.7443536360400107E-7, -8.997425056644608E-9, -2.7365744786512545E-7, -2.43960178923218E-7, -3.295678539596468E-7, 4.764896718677965E-7, -2.737923523301126E-7, 2.6833854649056935E-7 ], [ -9.595238550350918E-7, -2.4901034860688447E-7, 2.488019137092E-7, -1.0897722680025874E-7, 8.128966079819318E-8, -3.760170186458846E-8, -1.4625190507132748E-7, -3.588994528524649E-7, -2.0768305739434957E-7, 2.419723073557737E-7, -1.454982553962763E-7, 2.3033438179494398E-7, 1.5272732816127255E-7, 2.761370573935479E-7, -6.755926332874916E-8, 1.4650080615093328E-7, 8.269597997830972E-8, 2.046609270382805E-7, 1.318111873305566E-7, 1.8043915832295578E-7, -6.941402814132428E-8, -3.901152731877564E-8, -7.186427626402365E-8, 2.675862473961917E-7, -1.1922471563983247E-7, 7.3938786081015E-8, 1.5046876573562533E-8, -3.897113701231528E-7, 2.4516056916879586E-8, 2.8858314481970714E-8 ], [ 4.6025903243676005E-7, -1.711393530178694E-8, 2.115888586649865E-6, -2.4493378933021843E-7, -4.4162016452722726E-7, -1.3671823115348458E-7, -1.1633770687299141E-7, -4.981489284264009E-7, 2.2039383589382584E-7, -1.1747986298510286E-6, -3.1417606445684805E-7, -1.4613224728183232E-7, -4.210422432101788E-7, -6.004895330116187E-10, -2.2461883315508757E-8, -3.5265786578659685E-7, 8.892424611027786E-7, -3.127451147699421E-7, 8.65170958392388E-7, -1.4580622631598024E-7, -1.0021742482201205E-7, -9.924400645970297E-8, -3.2761366779876635E-9, 5.639603867249617E-8, -2.575829827814355E-8, -3.106018331017562E-7, -1.4053396365739826E-7, -3.931360405967905E-7, 7.122886563731332E-7, -0.02168614911831264 ], [ -4.835072930677064E-7, 2.650659413304839E-7, -4.424728356071976E-8, -5.7649514111740574E-8, 1.3485035249749675E-7, -3.848232532518887E-7, -2.1106815233467795E-7, -2.3635426859097083E-7, 4.004799556532564E-7, -7.220023097331577E-7, -1.3180567834063886E-7, 1.939141625324555E-7, 1.3972210844027275E-7, -2.882133029494645E-7, -7.296220932082861E-8, -3.031201837980644E-7, -2.585407757116505E-7, 2.2898151444353063E-7, -5.762743712929769E-8, 1.25528328707339E-7, -7.393496832593028E-8, 1.5468354245367425E-7, -1.673267267206954E-7, -1.1804330976358798E-7, -9.900155992023898E-8, 2.717149350864753E-7, 9.333805085108374E-8, -5.012824733015669E-7, 8.06825601691207E-8, -4.223445370537527E-8 ], [ 1.4163871733378222E-7, -3.148440224930883E-7, 9.065326398198951E-8, -8.844606436278E-7, 1.4127927361895343E-7, -3.758133761851768E-8, -2.34516028118648E-7, 3.5403844335966737E-7, -2.5748256094546905E-7, 1.4287812656538136E-7, -1.621288628511084E-7, -1.2362047249034367E-8, -5.678377862505281E-7, -1.5845059957144635E-7, -2.2062105060143717E-7, -5.026014095620177E-7, -1.4795854889584605E-9, -3.9823108272597997E-7, -5.11342525015669E-8, -3.7714249182141506E-7, 3.600299354609071E-7, -5.241307078102047E-7, -2.532095716517562E-7, -3.2888538421362045E-7, -1.621389519650406E-8, -2.1976367548785622E-7, -2.0678645674249502E-7, -3.5408025761838846E-7, -2.118042067052233E-8, -7.984872066729317E-8 ], [ -2.0374544816190708E-7, -2.1125034575136237E-7, -7.216209193264268E-8, -2.6352599154603867E-7, -2.2257867009370743E-7, -4.133763444895754E-7, 8.531753321338725E-8, -3.9404208975145826E-7, 7.440734876832052E-8, 2.165699959581021E-7, -8.01708700116095E-8, 6.10248019075029E-9, -3.770905849092106E-8, 5.5166115095488876E-8, -4.2331801103948316E-7, -2.827728844949285E-7, 4.346311679420763E-8, 8.996463498504877E-8, -1.3222203200292558E-8, -2.534323798653497E-7, -1.734241091187452E-7, -2.328599794417828E-7, -3.171282413452158E-7, -2.7807999423047462E-8, 7.63704800773763E-8, -6.335034460908888E-8, -1.0966860860105595E-7, -3.4676005009539375E-8, -2.6176275128551507E-7, -2.98213044181796E-7 ], [ 6.569908103315166E-7, 1.8102703105447097E-7, -1.4173615677516705E-7, -2.5422083912412345E-7, 1.7772726494263006E-8, -3.074323518625564E-7, -4.4143189235761256E-8, 4.744537238341226E-7, -1.9626152949711633E-7, -3.318937557798226E-7, -1.2727974003862753E-7, 3.355235705687356E-8, -8.88797627133972E-7, 4.7194073753877574E-7, -2.9934410337290836E-7, -3.4989318290444096E-8, -3.8517155221733856E-7, -1.8171955285578092E-8, -2.8116699148323723E-7, -3.892967671543017E-7, -1.7027527400837186E-7, -1.0476652063675796E-7, -3.812351354768889E-7, 1.782490099280871E-7, 3.725997859577366E-7, -1.6053078735265308E-7, 3.649596567071689E-8, 1.9731954020232332E-7, -6.367748297074789E-7, -1.6982149149861632E-7 ] ]
  }, {
    "Size" : 15,
    "ActivatorType" : "Relu",
    "GradientAdjustmentParameters" : {
      "Type" : "Momentum",
      "LearningRate" : 0.01,
      "Momentum" : 0.9
    },
    "Type" : "StandardLayer",
    "L2Regularization" : 0.001,
    "Bias" : [ -66.72958526167967, -0.01836323532334382, -1.0474051259651431, -0.3645816753785517, -0.01547806101598824, -0.7032890424867188, -0.3955308057585583, -1.7693684487716879, -0.2482368950256242, -1.0053451134434546, -0.12588918561410728, -1.9728567431138058, -0.05571198781022075, -0.39284250714321, -0.012312986525567986 ],
    "Weights" : [ [ -1.450658319850337E-5, -5.179425249071999E-6, -1.9791028026987577E-7, -1.1468865135765092E-7, -1.4015912080875878E-6, -1.4338472814670839E-7, -1.7110929744407023E-6, -7.796854838003375E-7, -2.7414528677557403E-6, -3.28734567597863E-7, -6.234338308341594E-7, -3.220150900425266E-6, -9.524665277644391E-7, -4.858434638968172E-7, -1.186204497894498E-6 ], [ 2.5248819776635224E-8, -3.1971801416006287E-7, -1.446251176004803E-7, -3.4997348530126697E-9, 2.571611692741627E-7, 8.47251376790178E-8, 3.784727984133061E-8, -1.5468683274494431E-7, -3.1210949000322734E-8, -2.778937052027309E-7, 2.447832862250701E-7, 1.3736924261008016E-7, -4.774585283334145E-7, 3.2902627829785726E-7, -3.1340832282743176E-7 ], [ -1.680672156708649E-6, -4.2600564697489146E-5, -2.4154957253405843E-7, -3.2149175422557124E-7, -7.130354398966294E-7, -1.0349097293195396E-7, -1.6573531701273738E-6, -3.8403219664173657E-7, -6.017605791702256E-7, -2.2078467979256622E-7, -1.6470157131244177E-5, -3.2212028914157278E-6, -7.62922453472616E-7, -6.71575952944378E-8, -2.9080377644728758E-6 ], [ -2.3211110540519416E-7, 4.242583608641911E-8, -4.526617784411905E-7, -3.4134327334616487E-7, 1.463435502889966E-7, 1.9414618470145604E-8, -3.4477652305512086E-7, -3.9513940625033423E-7, -2.1291556295733315E-7, -1.7088308123938605E-7, 2.927366393518189E-7, 3.32210154057378E-7, 3.252694501565547E-7, 2.745312609665281E-7, 2.0382048322278188E-7 ], [ -1.5857037918466985E-7, -4.576847404741283E-7, -4.200235857709535E-7, 2.0262232877207948E-7, -2.6986699918304614E-7, -6.622717073813188E-8, -2.409652261351586E-7, -1.2921908023227056E-7, -3.944261594129352E-7, -3.149270729969467E-7, 7.606434424052137E-8, -7.733628601761814E-8, -4.664708083652633E-9, -2.1341123010867816E-7, 1.2167138861744116E-7 ], [ -2.3307059918619268E-7, -3.3858216117853576E-7, -5.3730577763238804E-8, -1.6258838289552987E-8, -2.3712804814330288E-7, -5.415117713361657E-7, -2.890295543542401E-7, -2.1322792666051677E-7, -3.083300496084212E-7, -4.392235310911826E-7, -2.3721298057943264E-7, 3.8179596219066E-7, -4.1639015325621043E-7, -4.6552243337712473E-7, -2.4942424863637925E-8 ], [ -1.799417274963853E-7, -3.047275577464837E-7, -2.0048371272241073E-7, 1.9694538900073466E-8, -3.79270994976748E-8, 7.423954318406625E-8, 7.111920296058724E-8, -2.7935070990200507E-7, 7.32690432416807E-8, -3.5542006176740936E-7, -8.002549249959675E-8, 6.617126196682324E-7, -6.091920650778211E-8, 1.293718266511593E-7, 7.41107085742697E-8 ], [ -4.107783259335236E-6, -9.516259600024875E-6, -2.198857682103045E-7, -3.6442658663673446E-7, -4.4663754306585815E-7, -3.014178252431176E-7, -1.9680009093673843E-6, -6.225539472026587E-8, -8.613174002364201E-7, -8.606920096480328E-8, -1.1207212043016904E-6, -1.7108426905857105E-7, -6.003715277999189E-7, -8.676369702181735E-8, -4.3907934508113087E-7 ], [ -5.931875780685736E-7, -6.322230678618442E-7, 1.6162189018219924E-7, -3.582629201963526E-7, -2.414079697614729E-7, -6.913430556739276E-8, -4.357788655222941E-8, -4.208063677738333E-7, -9.329603346425961E-9, -2.9346148769600944E-7, 2.887962260378177E-7, -5.482899754298451E-7, -2.6697865667383516E-7, -3.0995453616676314E-7, -4.417198693877974E-7 ], [ -5.676446808898983E-7, -9.244947574762249E-7, 1.5303668500910268E-7, 3.432266075303294E-7, -1.8340962307536172E-7, -3.058965836646057E-7, -4.225521348089042E-7, -1.3581661055080723E-7, -3.9553932001225765E-7, 8.559924871333591E-8, -4.031232918059806E-9, -1.9594775873792973E-7, -1.150751141913168E-7, 8.369495866848147E-8, -3.743613479854809E-8 ], [ 1.7836864700025087E-7, -3.211579877078665E-7, -1.336687843823447E-7, -1.6812085441930762E-7, -9.01381632749565E-8, -5.6473417532601184E-8, 3.155249285036617E-8, 1.6243688727624532E-7, -3.8674958815947754E-7, -1.672672244960908E-9, -7.817262050556654E-8, -4.24212680030853E-7, 7.380856225739715E-8, 2.939271597951032E-8, -2.840181655228741E-7 ], [ 8.305551323720437E-8, 9.388878689078942E-8, -1.6620500291589353E-7, 8.04750953188771E-8, -2.0767486521809555E-7, 8.809027299709685E-9, -4.361261101730734E-7, -1.1903242556793454E-7, -3.103969071413132E-7, -5.070066190457906E-7, -6.345285122720647E-8, 7.725876111718089E-8, -1.9393125855016452E-7, 2.66428824040091E-7, 1.1152454365019669E-7 ], [ -1.533385770404536E-7, -2.282912286292458E-6, -1.2776966856715182E-7, 8.119735230852983E-8, -1.8717635371956205E-7, -7.44972482660054E-8, 2.5981370104920024E-8, 8.670043036244811E-8, 6.683097176137929E-7, -1.1583811144594027E-7, -3.5788570678689024E-7, -7.856318184342358E-7, -2.3474971780916161E-7, -2.0374215771021406E-7, 4.967903211104425E-7 ], [ 2.494404210863504E-7, -1.7855682177665934E-8, 5.393392338227651E-8, -2.240958091115266E-7, -2.5432363838608697E-7, -3.608074901171975E-8, 1.0536864749899607E-7, 1.165475202834113E-7, -1.5581574795360754E-7, 3.149251245729756E-7, -6.351068621894714E-8, -1.584522103708302E-7, -4.097478984809113E-8, -2.4450480023851595E-7, -1.465789448670106E-7 ], [ -3.343470115392728E-7, -7.061130530483333E-7, 8.005647320444987E-8, -5.89697459403181E-9, -9.423590900460127E-8, -4.707206400405263E-7, -1.251941869221183E-7, -3.9688872255304547E-7, -2.6246591634205356E-7, -5.230363360873205E-7, -1.3113196447296513E-7, -1.039654062595193E-6, 6.71541296137554E-8, -9.060148784454562E-8, -4.398383611874354E-9 ], [ 1.9577686033255955E-7, 1.70025531343188E-8, 3.4761861352732547E-8, -2.4322876515922235E-7, 7.098949732743679E-9, -2.8254694960748258E-8, -9.424333322235521E-8, 2.4255701960680795E-7, -1.7862730810223172E-7, 1.288247113422925E-7, 4.044489416555698E-7, -1.737686627197576E-7, 1.8091132782670547E-7, -3.559231398861701E-7, -7.831480842270665E-8 ], [ -2.296424621929434E-6, -2.742191986838275E-6, 2.4748121761703212E-8, -7.956170315437587E-8, -3.765131424991783E-7, 3.929143420208165E-9, -2.687137196888886E-6, -1.6322227163946332E-8, -6.181810704322982E-7, -1.4552892763548116E-8, -2.1877302592767894E-5, -3.2935504578184387E-6, -1.0117785701644562E-8, -1.5584953157841114E-7, -1.7359813392696635E-6 ], [ -1.1925525351588013E-7, -3.075802485461463E-7, 8.92069124401109E-8, -2.995150520214411E-7, -4.1817179577097536E-7, -1.663064683824095E-7, -6.045868539902091E-8, 1.393441143148838E-7, 5.155661717290168E-8, 1.800873511241553E-7, -2.567000827689619E-7, -1.533620694534121E-7, -2.10000773090432E-8, -4.563495970479673E-7, 5.51431958409703E-8 ], [ -6.398208374659112E-7, -1.4181073301157434E-7, 2.1088271031842092E-7, -4.210925816543503E-7, 1.1230388157176402E-7, 9.318383841986963E-8, 5.075682971606413E-8, -2.2659192677789499E-7, 1.5957242068998553E-7, -3.3911346975274696E-7, -2.8818792321924556E-7, 4.177162422698514E-8, -2.3540191235518877E-8, 1.2398575200779218E-7, -2.588581835673122E-7 ], [ 2.3200214149688253E-8, -7.667671305018377E-7, 6.63667185784485E-8, -3.1015275533007857E-7, -3.072559995271319E-7, -4.012461092897211E-7, -1.5874615136698913E-6, -4.6822958859087996E-7, -3.3755191712521695E-7, 8.43525673506534E-8, -2.4162857908208354E-7, -2.495520488872012E-7, -3.1742277331463017E-7, -3.041456338000025E-7, -1.8721747683193795E-7 ], [ -2.474050649115673E-6, -2.609134362697904E-6, -5.933468742637627E-8, -3.0413476033335407E-7, -9.243259205993215E-7, -5.00013227326026E-7, -1.0668217878910548E-6, -2.7112845494524453E-7, -3.9026425754821977E-7, -6.664533743470168E-8, -5.565876675018043E-6, -5.095300369430425E-6, -1.657913193640607E-7, -6.6035159866829E-8, -5.955702367571343E-7 ], [ -4.659642223998557E-7, -8.614673936997797E-7, -3.2009989556275165E-7, 3.457847135067557E-8, -1.91894607317748E-7, -4.0342568915271206E-8, -8.029610203539371E-7, -1.312387216943753E-7, 1.1717392990407481E-7, -2.565635775912127E-7, 7.648701602501141E-8, -1.0496761513271149E-6, 2.208494970916805E-8, 2.333463103601626E-7, -2.42217459748305E-7 ], [ -2.729073154901063E-9, -2.4603515233633967E-7, -1.2246826581078862E-8, -3.0455770472346233E-7, -3.000784698507152E-7, 3.811122133812866E-8, 1.7171075161833725E-7, 2.429347997508711E-7, 1.0888044044222983E-7, -6.783615185017761E-8, -1.6908974880046366E-7, -4.686329183728205E-8, 8.998704876578985E-8, -3.06847541324079E-7, 1.2947039434606617E-7 ], [ -6.547230269992547E-7, 1.755202541967811E-7, 2.700938511921331E-7, 4.1494765642685893E-7, 2.6062808850864844E-7, 1.1040938672745625E-7, -3.5917037851008896E-7, 1.2541150732549461E-7, -1.0485641598976072E-7, -3.703511192302141E-7, -2.301751648670986E-7, -3.210675123189814E-7, 1.6770074494628305E-7, 3.169998984905034E-7, 1.1029677057384601E-7 ], [ 1.341403809682091E-7, 2.410877042492548E-7, -2.864453233972415E-7, -2.9760834360908625E-7, 4.199697105513384E-8, -2.121847102316041E-7, -2.1935491392324383E-7, -6.043121713165682E-7, -1.0712011354641069E-7, -3.422689524828936E-7, -2.905185293687422E-7, -2.398753765679628E-7, 5.420944078761597E-8, 1.5867348527972275E-7, -1.3210243451241037E-7 ], [ -3.446174358526039E-7, -3.832998006637915E-7, -4.801368056487407E-7, -1.3409999342867069E-7, -6.267094121989975E-8, -3.868385633467533E-7, -1.0292088828619928E-7, -9.92554295922497E-9, 2.961732918757498E-7, -3.8000051322295275E-7, -3.820083284050087E-7, -9.114433998237896E-8, -1.7329723906531957E-7, -7.693395682322104E-8, -2.6399224801077127E-7 ], [ -7.289795190026515E-7, -6.938294311380732E-7, -4.843394584756584E-8, 1.1343286089662452E-7, 1.3426432688176488E-8, 1.8411234224352703E-7, -4.6489387205662584E-7, 3.2717157409957193E-7, -3.925931092437213E-7, 6.538213867689389E-7, -3.921943459048727E-7, -2.6638065459963167E-8, 3.848871803541143E-8, 9.422789406361883E-8, -2.6660648608583174E-8 ], [ -2.2112180703869448E-6, -7.041889515172253E-7, -7.500170992293269E-7, -1.704571276990716E-7, -5.468381963385517E-7, -2.898709747414697E-7, -1.554705783003037E-6, -4.822340815871623E-7, -1.7137363068805E-7, -7.122146211584164E-7, -5.486114929125208E-7, -1.243086971050909E-6, -4.0061313262201453E-7, -4.2562846978224195E-8, -2.506048485455258E-7 ], [ -1.571391406016612E-6, -1.305010110023754E-5, -1.0874049899760711E-7, -4.264290930859099E-7, -9.32777294728973E-8, -2.8561799721325905E-7, -5.562235497077941E-7, -1.9260474090808934E-8, -3.8116859519201104E-7, -3.7930438344555826E-7, -3.1288009401185783E-7, -1.5037133631220644E-6, -5.538706346471364E-7, -2.197427210138728E-7, -3.9951831062579427E-7 ], [ -13.758336076859873, -0.01860925461992415, -2.245445434486657E-7, -1.5671736791159464E-7, -7.844253203552719E-7, -7.509754786204185E-6, -8.148626613715648E-7, -6.548187132502084E-7, -5.15300716995448E-7, 1.0264388808657363E-9, -5.72603732532848E-7, -0.003067113600682209, -3.422816222791504E-7, -5.8952775156187644E-8, -1.0954469774108347E-6 ] ]
  }, {
    "Size" : 1,
    "ActivatorType" : "Identity",
    "GradientAdjustmentParameters" : {
      "Type" : "Momentum",
      "LearningRate" : 0.01,
      "Momentum" : 0.9
    },
    "Type" : "StandardLayer",
    "L2Regularization" : 0.0,
    "Bias" : [ 5.981758837112131 ],
    "Weights" : [ [ 34.38288136499721 ], [ 0.01836326061272104 ], [ 0.2811569357559886 ], [ -0.26830753450387584 ], [ -0.4179623393910813 ], [ 2.02582206737844 ], [ 0.8944758213267455 ], [ 0.3885422662249288 ], [ -0.8833268795133072 ], [ -0.2371671536402471 ], [ -0.8762280982931021 ], [ -1.122692048616678 ], [ 0.14587224922253822 ], [ 0.10031513420010763 ], [ 0.6735313662114468 ] ]
  } ]
}