{
  "InputSize" : 7,
  "BatchSize" : 32,
  "Layers" : [ {
    "Size" : 30,
    "ActivatorType" : "Tanh",
    "GradientAdjustmentParameters" : {
      "Type" : "Momentum",
      "LearningRate" : 0.01,
      "Momentum" : 0.9
    },
    "Type" : "StandardLayer",
    "L2Regularization" : 1.0E-4,
    "Bias" : [ -5.272330647748241, 1.7889962997223783, 10.722206093126932, -3.83378577098704, -0.21650539159654064, 2.9221519485499683, 2.361504964105062, 0.16808611844549498, -0.22992986466726786, 2.7066071301520194, 2.1288359531515364, -4.751287493962918, 0.670524600285961, 1.116979741622702, 4.413575576458505, -1.1586835664343103, 0.5217896573424704, 2.943044380631838, 3.480231272814486, 4.487267407942178, 1.1603782244416474, -5.258535657840246, -2.5247717144546558, 6.788207466141932, 6.857789708234373, -3.0148350882531925, 3.36503105689956, -3.3428710157689445, 0.6778758318477538, -1.8551747390696114 ],
    "Weights" : [ [ 1.6755971123803315, 1.229604920351177, -1.9955473503973085, 2.5368481239514287, 3.3557478898377537, -3.5611371633030053, -1.9106071000700955, 3.4830982651927407, 1.3406826080388323, -1.5844699923709118, 4.237511171954437, 1.6280016012067717, -2.305494063106186, 2.828597122691096, -3.1936410258535712, -2.904385006876606, -5.792188408631263, -4.416767664303626, -0.047883627505312235, -2.443011370291164, 1.5829002966611936, -1.113376679492904, 2.3680201845610025, -0.9571394943221938, -4.30564474027024, 4.821302863678226, -0.8952569669778071, 1.6377164617561295, -0.4425149063599113, 0.7755871345001842 ], [ 0.10431955905983388, -0.1928084751687553, -0.31686616512601534, 1.1039358226460747, -0.3428005752225493, 0.5028275911258837, 1.6105815219002775, 0.08551885775124984, -0.04978391896866884, 0.21602040108747175, -0.032992204508488304, 0.9474948608608554, 1.1468982701987518, -1.420199983399233, 1.1809699737409796, -0.03245289783842598, -3.418475205100889, 0.07181140625797529, 0.04376158239539427, 0.8664665417105819, 0.1852592549326565, -0.1298534179755361, 0.006362246179809317, 0.539722422911291, 0.12897008650711878, -0.13807826800501563, -0.3669300134126488, -0.06631592376735104, 0.05960390055572314, -1.164334745546674 ], [ -1.237785439456208, 0.4638472368054105, -0.015679841082247622, -1.5908332759744819, -0.4325871712115198, -0.7391874736715339, 1.8596463493769146, -3.8948546496816943, -0.8513090203850354, 2.1288378717983623, -1.8193659594323015, 1.6742339213125081, 2.020586812695213, -0.6950226907572957, 1.0285690628030775, 0.45197403801493835, -1.211027904808089, 2.2572515567529416, -0.914916239005262, 3.7288024210232087, -1.465843541092053, 0.8395874588345676, -0.9132899034272759, 3.1736365697703306, 1.0604252144422857, -3.6417263697949833, 2.3385789391119562, -0.3683936681604708, -1.1437685944503346, 2.9383586936918054 ], [ 3.8526917241142513, 2.939304405559088, -2.88258087860388, -0.5197898312998067, 0.8107617566109075, -2.2409910054736817, 0.03323388055075766, 1.1533176968520835, 2.680383566933717, -2.4147545638376515, 0.3423230650387138, 0.6834027141875066, 3.6143297688915825, 0.5728062012178562, -1.7465826588520101, -0.9705875447692237, -1.1010676202596306, 0.6482974087844134, -1.8702300337658628, 1.4637502197593422, -0.14527117789979965, -0.14874185101896967, 1.3976596752390669, -6.576896256393553, 1.518471217008074, 1.0526503716442748, -3.4578010886508332, 2.618476145755727, 2.3838118786315636, 0.4029174137333984 ], [ -0.10288780272632853, -1.4563986672608027, -2.7239651440988792, 1.7827701469862876, 2.48620296062073, 1.297346229319082, 1.671047914647847, 3.285714905523652, 1.1253514771763018, -1.8267469262101044, 0.34085346199865174, 2.521849386889705, -0.3781536088435742, 0.32815566784521877, -4.714460377146679, 0.6777062227389815, -7.182200450698311, -0.4885510080028228, -1.6617038309912708, -1.7948470414373696, 2.5853092943549503, -4.129383810943597, 1.5349903327002792, -1.0336214209094077, -2.132598340593429, -0.20341406386980376, -2.3724069043654468, 0.22405522254990132, 0.9753680431350823, 2.718697744756848 ], [ 0.03155870403057293, -0.3290313658619691, -0.10935662999338676, 1.8196261522584471, -0.2897241301494295, 0.17204686060617347, -0.6397135462976905, 0.36454829704448166, -0.2198846733205697, -0.36116262709112923, 0.012826739621413919, -0.08438266964591128, -3.240068952263227, -0.2884993520740032, 1.2711278932810945, 0.0514215143966896, -1.926525226257616, -0.9804680302490534, -0.769538913044622, 0.37186818023941165, -0.09671017061169424, 0.1501411310712557, -0.1384080267311392, 0.9077431513297376, 0.7094891363569975, 0.04829607827360392, 0.06112904140212644, -0.6593272953310945, 0.10228352261655048, -0.6855480101901059 ], [ -4.263896708578778, -0.538712791725049, -0.781030858645774, 0.7059446202722857, 2.105100269757355, 0.6491638203384955, -2.684513980896953, 1.0897651800006207, -0.4094767000389954, 1.8729093061551294, -0.1734099807504393, -1.4792148172248145, -1.5452032108405944, -3.85023128189125, 0.9652919222370637, 0.5914939964332234, 0.9883067268381217, -3.128858062933519, -0.7331686360513365, -4.339567122404847, -0.2404645685425024, 0.46731569362789377, -0.6387500317715472, 5.920259381132432, -3.3696318912437193, -1.8947653983960462, 0.9140258379945161, 0.3853454524027371, -0.313983807982982, 1.7241162525815308 ] ]
  }, {
    "Size" : 20,
    "ActivatorType" : "Tanh",
    "GradientAdjustmentParameters" : {
      "Type" : "Momentum",
      "LearningRate" : 0.01,
      "Momentum" : 0.9
    },
    "Type" : "StandardLayer",
    "L2Regularization" : 1.0E-4,
    "Bias" : [ 0.5941229359894745, 2.589516984001225, 6.8739142120877315, -3.8951881497573533, 2.249998012768293, -3.582085736331615, -2.7046951481201815, 0.8399659400395175, 0.9094844069479249, -1.2936856740391125, -4.756160775297913, 1.8511722648082058, 2.1498999850424103, -0.7512336175751142, -1.5382725032534632, -0.5280288650161313, -0.2998646796274925, 2.8964300333055415, 2.04137726520442, 2.5705940914554812 ],
    "Weights" : [ [ 1.220524853126559, 3.6409296369392115, -0.5370037015753738, 2.1324001843552485, 1.013215725837434, -1.513081739097107, -0.8434006402035782, -1.4012647368370998, -0.14280941705944478, 2.0194025869041177, 0.22453862136728675, -1.9471047706499083, -0.91877645556714, 0.1333278046713096, 1.7536116564612785, -2.2350202933454746, -0.34868619361241493, -1.9328791905911005, 0.06401258821557483, 0.18948967021818877 ], [ 0.013536194993600755, 2.9544717542776704, -5.6321737532671685, 0.7003621201227831, 3.0467337381039177, 2.974910571363786, -0.9804339983430927, 1.4181253736949904, 0.18343243141384244, 2.7241778462847024, -0.25453750823181237, -3.727152524829235, -0.198668412146604, 1.2719127107816293, -0.8288348437002305, -0.6605842823831275, -1.1230789346116978, -2.1560441978437, -4.057793437654882, 3.0013271653626448 ], [ 0.08848806753116455, 1.9676078416003595, 4.488378174381802, -2.7571845195331472, 1.3781838268931783, 2.7984307013819025, -1.8262440070908856, -1.913575408929937, 0.5458200988370222, -2.747786879831842, -0.5966328554463614, -3.9768459840788046, 6.476712013046289, -4.661789555286809, -1.908697785792149, 1.25503208874495, 1.146506796931419, 3.3359003114056542, 1.4719584121025904, -0.6470279793412524 ], [ 0.4786459214704941, -0.3897566243427775, -0.3039473496679375, -0.389756293350504, 1.6862899710048445, -1.205646157791554, 0.6778131651109973, 2.9999103706756096, 0.8800388933940672, 2.098971163428241, 1.6838976431557418, -1.7050913743882934, 0.26370848370605576, -0.7530945492367671, -1.4363217313388974, -1.5568101256274756, 0.09755269765201856, -0.3178467514530832, -1.2060631975636265, -2.227399543997154 ], [ 1.291296617349135, 1.1956284977121152, -0.08863218182047397, -0.45446552640462473, -1.1550933859979453, -0.03629477931314909, -2.2644189265452526, -4.260696066893185, 1.6888532083596368, -3.1280346725668697, 0.0337986998052574, -0.3235166392401128, 0.6229135051507312, -0.8284890440122193, -0.8774190308141836, 3.9451301719655274, 1.8099590238459045, -0.8091754352447923, 1.687465182085175, -1.6285127528302785 ], [ 1.3226434286920938, -0.7024926383210117, -0.7021690604483636, -0.19472651920106976, -0.22776309335889464, 0.021667181972481613, -0.4712526204215429, 3.405066111968377, -0.5397453090773705, -0.7932219717664036, 2.377039360692967, -1.1541703345746648, 4.356368213237028, -3.1434218298104053, -3.156623315355741, 2.7622074690110128, 1.6739710940881454, -0.7190516236617627, -0.8438677662789474, 0.9778419568743517 ], [ -0.4831680442285111, 1.4306067095917658, -1.279863176988858, 0.41575731368218105, -0.3108758693873155, -2.4845455986713176, 1.136171103838737, 1.0753105925541886, -0.8605218767174361, -0.42844640265227996, 0.49887218362443175, 2.7686869029085943, 1.5188644982667852, -1.550896782484291, -5.629303041448141, 0.34969181463217086, -0.5107692659783729, 0.5993820490121499, 1.937507825603308, 0.2442939965019029 ], [ 0.5438575810795299, 1.5526471264429753, -0.6556193594968398, 2.993302250562036, 2.3176843362760873, -0.8755007099540368, -0.7581542346085821, -3.1043115982820835, -0.0724836068599144, -0.8409189541029345, -2.588480396612276, 0.3106782512927657, 2.394860226873473, -0.4371072695730867, 0.46497950754139583, -1.491151704556202, 1.4705560435156597, -0.2561027295233003, -0.0300066164756166, -1.209925685976131 ], [ 1.3008132744660221, 0.5572889226743898, -4.316032103079909, 1.0753105610382279, 2.055334023922724, -2.744003015261611, -4.523210221083095, -0.07146485614750171, 1.8510337164498494, -3.114726097007456, -1.4097142374507512, -1.2004935100057226, 0.808498734540703, 3.1078072320678065, -0.4223629641343386, -2.041730438517456, 1.0672216330078514, 0.3973708527706517, -0.37690628446102603, -1.461697328086727 ], [ -0.6517049656021874, 1.1062009842571308, 0.7074670811677642, 1.4567443504378625, -2.6666835358848884, 1.9226493458932035, -0.852603136682361, -3.891766137691997, -1.6930051868372855, -2.7533072389338145, -1.5031854446468422, -2.4164126891786935, -1.7569578551076612, -2.2471912392128663, 3.5677312781178308, 1.066403180443558, 2.144560175040599, 0.4591921944374594, -0.32966209690233717, 2.2117055653382875 ], [ -0.3407438732875661, 2.0004866112160875, -0.8146716956097021, 2.2662658838531913, 3.2979397635295875, 2.680231048316334, -5.4403054504378145, -0.12205192447099603, 1.0837451218801686, -1.201266558994113, -2.155564358009466, 0.6147088196254639, 0.9947041337379022, -0.32312661164602335, -0.8741530360932472, -0.6264808965576463, 2.3593809774941277, -1.799478843653291, 1.1425048557577286, -2.918043761797795 ], [ -0.48483528252775604, -1.4345874554895488, -0.46075904577820703, 0.06447256132244468, -0.7343053543243235, 0.8385935560291632, -0.1158593181833111, -0.9311888319563152, -0.32601205647405607, 1.7530019447642733, 1.4461231890493509, 0.7331027153696943, -1.2936084974294089, 0.6361092965240027, 4.488465989331252, 3.0606207860199, 0.23444729617988078, -1.9576453665349893, -0.9421207739818397, 1.4985451333064408 ], [ 0.6695885336307354, -1.0053138805735233, -1.358094855014497, 0.183975812270623, -0.24615226152981567, -1.535965490861617, 0.6490249132252287, 1.9909250684554545, -0.30308608136289256, 0.2240123635605017, -0.8613033143378347, -1.2327846452310094, -0.005392736774350481, -0.04516766060907187, 0.7951059364623788, -1.1090733181025034, -0.1373501857746989, 0.9573585744389304, 1.4868731421134282, -1.5721135696403878 ], [ 0.1624637650786954, 1.0999064145333843, 1.4559883956822626, -0.056831986387183724, -0.3690385965439067, 1.6959717546585946, 1.2986375407174422, 0.6430046447626835, -1.223736226750972, 1.4253019811424477, 0.05230659046372628, -0.2130226395325691, 1.0834731927474046, -0.6756737258676823, -1.9468392937877774, -1.547752207714393, -0.3363879814898047, 0.654582109288346, -0.712323261288864, -3.296496056974603 ], [ 0.42080931022567536, 0.3619609820184242, 1.894796492632195, -0.907950537622335, -1.4982021313398466, -1.6179607961706035, -0.24944938879754222, 2.6243879092014315, 0.30740240462247337, 1.1003495737641455, -2.2532427224104006, -1.3229835815135553, 0.02029880238645921, -1.199296510498455, -2.0146766745194844, -2.7079103846448542, 1.3731520155593746, 1.0006958814262816, 0.19588344931461438, -0.4090162996113484 ], [ -2.7684370502452333, -0.9839616226742081, 2.44663932378718, -1.8970031037886037, -2.156731788289638, 0.8099834039214729, -2.334825007937277, 2.4538483574803376, 0.015099904381071096, 1.7918789014677, -0.5207853933576398, -1.889903975761456, -0.4819988134747333, -0.8982196898546593, 0.735310987040387, 1.3278132599200594, 1.3013283917734362, -1.7309748283223467, -1.5602145449899496, 2.359320441820292 ], [ -1.064994467275693, -1.4122465588466535, 0.5494988699935296, -1.1431197590715274, -0.03808693771258317, 0.9326327610488787, -0.8383703099235288, 0.4749971391020923, -0.25267008010526515, 2.2610438303038505, -0.9051222703974438, -1.1585091829097216, -2.0925646587588256, 1.5841467861984595, 2.620516846394026, -1.8715220207859542, 3.4079173216799283, 0.41368749554578527, 0.16066838952869233, -0.5974621820060327 ], [ -1.6121041421621833, 0.7703959486882821, 0.7945821121342874, -0.22554162126033894, 0.4015505593363333, 2.5081600402072337, -0.2664962924201539, 4.143736593969916, 0.9277135070843004, -0.09850703632236017, 0.2615049771714242, -0.7592560393619673, -0.3819557399692479, 0.08654493706887137, -0.5855528434092564, -1.8300995435009952, 1.2250087991629788, 0.5577254252620893, -0.3896792560208908, -0.6066745515760279 ], [ 0.7182336385669683, 1.1167515250109847, 1.218079715994156, -1.2116275136614807, -0.26474528706726425, 1.9567303600186716, 3.7454435205140975, -1.5194059944396134, -0.47557172208970594, 3.341018687585933, -1.1016135983401405, -1.6042126264157417, 4.3495897258808105, 0.8926956353893939, -2.793581659540359, 1.415209528675833, -0.8932540300743324, 0.1839174435799892, -0.9310004012633207, -0.17594706263222065 ], [ -2.8433570532097048, -0.3354879631209618, 0.5825907541792017, -0.12417042066777643, -3.4782746169495455, 3.3339343913392128, -2.3489985390166037, -1.8169573430802866, 0.00508739157596683, 1.4855228994435627, -1.6751173220613949, -0.6587260156460092, 2.6848860885913144, 1.8019785713814047, 0.9825809934650339, 0.1246377173616287, 0.4223137432580224, 0.037045150018142986, -0.22473946204241818, -0.11070058930109271 ], [ 2.9350806798236295, 1.1799744751153531, 0.0981991169278781, 0.03089249346264514, 3.916628881593057, -1.8667901816708787, -0.6453597429842638, -2.122246645574131, 1.180495723328845, 1.6120242076823554, -0.46756760959348437, 1.3074237725545164, 0.2838944485253104, 1.815415552121154, 1.1699844048333945, -1.2748462046690066, -0.2873588498449894, -0.6789569474055894, -1.0435209884000034, -2.6708887354127357 ], [ -1.6230554839911806, 2.03957394626958, 0.9272557746939007, -5.2711394206165165, -3.800528911303056, -0.5934128853589071, 3.7828485705137784, 0.8784529440598642, -5.52139662881482, 3.449702225524053, 2.691127248248655, -1.697806117718918, 0.809526814533513, 6.302365002195922, -0.7248631968644488, 2.0858280739869905, -8.313259074185154, 2.9576489221159954, -1.0114613567605957, 2.8622108190335913 ], [ -1.0352795809528699, -0.1308999832959424, -2.110515888129194, 0.06266132718532759, -0.12605231048021712, -2.4704012929563235, -0.4447321066387906, -5.280663888028694, 0.6127674183747653, 1.8948603878020744, 3.883597577705097, 1.493397439202309, 0.5107300073825118, 2.4677022168361056, 1.3434514391601418, -2.606958917403015, -3.1728301758733384, -1.1602704167366813, -1.0830874530169838, 0.049193636691224236 ], [ -0.7678514185746772, 0.8123633632729653, 0.5212994178683177, -0.27600983725452244, -1.2593218212250712, 1.4464829712117442, 3.396818157949993, -2.067695213027286, -1.0939426315879128, -4.671569773343754, -2.0383668957447063, 0.17844957441911274, 0.6694027318462187, 0.17900405787939486, 2.279343186296609, 0.6778212774918324, 0.49894189737568584, 0.5664503069691824, 0.17634607070375743, -0.8918897801088183 ], [ -0.9246403806634114, 0.9434374250691965, 1.0105672346455847, -1.0429624979682801, 1.9123162731991863, 0.6756930387555344, -0.5634220159492459, -1.202484883780612, -7.868373148506829, 0.7473586337946962, 0.7019663798263366, -2.2154412200798173, 2.6840228848349432, 2.019093384385325, -1.9300982860025047, 2.451063133640216, 0.19473104930692658, -1.160517026087874, 1.3862207129823199, 2.2506855541045967 ], [ 1.1675836936476198, 2.2323835654480324, -0.0023269830704216957, 1.1355986782121588, -1.2589565424228715, -0.3616093091017999, -0.4674609951569582, -2.326493105579536, 0.2516332729816196, 1.710958141218633, 2.261638024378658, 3.9552039259259546, -1.0288889094008158, 1.258526143335349, 1.2698506523938706, 0.5416230976807501, -0.6365507512787182, 0.8541961016862243, 0.2858511667960684, -1.9576944150763784 ], [ -0.5127671021303266, 0.48845261355547065, -0.15897410466054926, -3.012011212472704, -1.1747307735920665, 0.4856486280321262, -2.3945841131436416, -1.865099825936502, 0.5797117492852192, -0.480833798241448, -2.4717747776567442, -2.7479555104877966, -1.8595542186628162, -2.236173136272825, -0.5342550923643228, 1.2341993572748187, -0.5957069036936493, -0.07835224377629522, 0.37845383564014806, 1.1900029061183408 ], [ -0.6271332876654829, 0.9048923036917257, 0.014071075875576145, -0.8121510207684712, -1.5485791384076826, 0.9871099283036391, -1.4469727512769888, -0.28263778613237345, 0.15671890810073788, 1.483979353281039, 1.1849812490730243, -0.19894944035662335, 0.5014308147571632, 3.808318804942098, 0.03610727818312885, -1.2107556929588297, -2.5885588771160775, -2.099407470908456, -1.6254415415211885, 0.8182255873363757 ], [ 1.459722075945448, 2.464661223279407, -0.8611481193840076, 1.1247887472618485, 1.9866834776198188, 1.697271294960675, -2.3905956165359346, -2.0948187706787706, 0.04376270981817969, -1.4534105456871769, -0.9805414280736914, -2.0805943675446064, 4.220051754150456, 1.565572963656048, 0.3459164710335536, -2.331947824871818, 0.14299753884557942, -1.8535337720965102, -1.2059296685056082, 1.4110098056100502 ], [ -0.6367910696460586, 2.0106583943474976, 2.3568605762763233, -0.7674243015774319, 1.5846169747868475, 0.7564349317871163, 1.2479484190593273, 5.964460992359488, 1.2993991043418305, 3.1629619087563667, 3.7295781400279298, -1.0049057285833531, -0.14324860524370428, -2.4693540848530096, -1.2240097674327395, -1.0156145020618241, 0.5546656692731915, -2.526268982562268, -2.6090828327741185, -2.360891940804374 ] ]
  }, {
    "Size" : 10,
    "ActivatorType" : "Tanh",
    "GradientAdjustmentParameters" : {
      "Type" : "Momentum",
      "LearningRate" : 0.01,
      "Momentum" : 0.9
    },
    "Type" : "StandardLayer",
    "L2Regularization" : 1.0E-4,
    "Bias" : [ -6.157802655436575, 0.4751086390357614, -2.586205932120951, 2.1753946434716394, 1.8404631906322273, 0.8867202845304815, 0.9152829847759627, 3.871942960261889, 0.9159045532657699, -1.3128827658557198 ],
    "Weights" : [ [ -0.11245403907550511, -1.5999291813723542, 1.0714632938019046, 1.325284384246811, -0.5668282365776713, 0.6276517690666065, -0.4072087456644303, 0.047863061699845215, 4.636033073216845, -0.3485303694484965 ], [ 0.3953703197874691, -1.3229323294168969, 2.767249735668555, -0.36072469605277707, 0.8547249774100882, 0.24424458752780726, 1.623363839863255, 0.23436868039152384, -0.4616992455134468, -0.3778371031914498 ], [ -2.2127296278984185, 0.4642052323495973, -1.0016666943530383, -0.720964013257115, -0.5215928001005238, 2.2273787266476206, 0.909310895185455, 0.35352032792105187, 0.07269709301429396, 0.04327103544753373 ], [ 1.0761787567063574, -3.520504533640152, 0.5044346665849145, 0.19821064236221614, 0.27819857808091847, 2.202694227850123, 1.005934968854461, 0.02178052200134533, -0.852713300304556, -0.3425561401323883 ], [ -2.5286391304901326, 0.36599107051509433, 0.9947491808641541, 1.0211641811635344, -0.8546621869461729, 1.2037338973919403, 0.8978755848362612, 0.1613843766604137, 0.7050508675596477, -0.23357724016063353 ], [ -0.1805792517124769, 0.3395939780003365, -0.39277786832379574, 0.6907857887344828, -0.3330607198804748, 0.13268096684088906, 0.4490571973396622, -1.9795696134279608, 0.5810815583228655, -0.9081921256714786 ], [ 0.47146879322379, -0.627778155294534, -1.955271381510051, -0.7707400963926586, -0.19316914112609015, -1.177271944623013, -0.1857676576083945, -0.24367654800865213, -0.8100451070467395, 0.3636146957035517 ], [ 0.11609464125366398, 0.6342599112187762, -0.37007674996707624, -0.4474591775073849, -0.10714821260462351, -0.5411149274576466, 0.6736364168079866, 0.17407540373239702, -0.30571771006179005, 1.1050757914875742 ], [ -0.3206771575973635, -0.8085446000966012, 0.7205418979354403, 0.6148531421909657, 3.8538777335721837, 0.6870008219847782, -1.879506296027487, 0.36618150780644215, 0.8411441508365183, -0.14438437929005768 ], [ -0.2315866727173979, -0.9930775820350212, 0.8222120881794489, -0.2637785792230161, 3.6478263003379077, 2.0793433694150742, -0.5812692718236924, -0.9058305347349784, 2.9277489511108383, 0.31826100116683564 ], [ 0.9506347057455894, -3.704291693420968, 1.96542532656219, -0.37679704086723403, -3.7525040347209577, 0.07749582857013003, -0.6323854611940332, -0.599121806049045, -1.5793420773973423, 1.3341309408091209 ], [ -0.4218273277525926, -0.3523948019350434, 0.11287434176754381, -3.6749731233337033, 0.40021585540530563, -0.5013937289997294, -0.5680742529907152, -0.34093195945789984, -0.41553386063097025, 0.538823562585816 ], [ -0.938224110669728, 1.3182974187600853, -0.5827517078621829, 0.26374744593711424, 3.1699478724645926, -0.3158044062921359, 0.5246587232089748, 0.3630066350032199, 1.5148979270855514, -1.3202006276732245 ], [ 0.5377373148283062, -0.4720341740087781, 0.31111162878263604, -0.6628249162515362, 0.305794125090265, 0.6007115184444729, -0.48619106169209614, -0.17338922178732125, -0.18169863882846396, 0.23125100545811075 ], [ -1.6954493221430633, 0.12390728618366298, 0.9881036802856272, -0.33779829015182583, -1.58122006129852, 2.2307835087168457, -0.43901413737040873, -0.500864414695446, -0.442583853422442, 0.4394583102672794 ], [ 0.07285358410251849, 0.3414514213244776, -0.5446599602226707, 0.9943245417672317, -0.8562465565518754, -0.5665117279703085, 0.7174395130338476, 0.214969060281682, -0.5769389608311708, 0.17930567356936955 ], [ 0.19136019675012367, -0.5591744784713775, 1.1099949559341071, 0.7824692479242338, 0.5520521690544083, 1.425655190555568, 0.18885423812719607, 0.35774045580569724, 0.5502810965866852, -1.3971433087672087 ], [ -0.25046785678569045, 0.6172681509293494, -0.7031572066995084, 1.9270574513776786, -0.5626594620214634, -0.14265471773583605, 0.7480791347902169, -0.093676429383108, 0.024399347719084, -0.17731714897297227 ], [ 0.9797770466481847, 0.8624805745825289, 0.1722521934796811, 0.3591573342192137, 0.8557126279280888, 0.36131670387221515, 0.5303783394459891, -0.47264747217696984, 1.2390872888915012, -0.43566320185408813 ], [ 3.406310744253293, 0.4208714816629909, -0.5029446939086692, 0.25855859192053454, 0.3195765603288843, -0.4166981958187268, 1.2362053255671734, -2.884010314226202, -0.025219111144337062, -0.002391793600284391 ] ]
  }, {
    "Size" : 1,
    "ActivatorType" : "Identity",
    "GradientAdjustmentParameters" : {
      "Type" : "Momentum",
      "LearningRate" : 0.01,
      "Momentum" : 0.9
    },
    "Type" : "StandardLayer",
    "L2Regularization" : 0.0,
    "Bias" : [ 11.745252696592203 ],
    "Weights" : [ [ -4.335235756103538 ], [ -2.150094988933665 ], [ 1.920394403451276 ], [ -3.2624361258329033 ], [ 0.9876576670510626 ], [ 1.3586415227879924 ], [ -2.8160957309673766 ], [ 1.7721873068002654 ], [ 0.9307040839972238 ], [ 5.054068524188924 ] ]
  } ]
}