{
  "InputSize" : 7,
  "BatchSize" : 16,
  "Layers" : [ {
    "Size" : 15,
    "ActivatorType" : "Tanh",
    "GradientAdjustmentParameters" : {
      "Type" : "Momentum",
      "LearningRate" : 0.01,
      "Momentum" : 0.9
    },
    "Type" : "StandardLayer",
    "L2Regularization" : 0.001,
    "Bias" : [ 0.7958285068512275, -3.763948966346523, 7.026628560113481, 5.596154990480795, 4.0766806177239845, -0.962751047586441, -10.127368885635146, -3.4705108804437557, -0.41805962479525843, -0.9845675965656724, 3.6964149821284775, 2.794637928986959, 1.000107303784349, 6.2082078264917975, 0.7095062457429542 ],
    "Weights" : [ [ 0.4177312438379271, 3.294987569833047, -3.925870663002169, -1.4381459698541326, 2.131069676889556, 1.0610447841804216, 3.9492663669687382, 4.1838003257082645, -1.5301427608950422, 2.524469698777491, 1.1559640960020947, -0.6031057734117033, -2.369466416686433, -3.97783001932899, 0.6299285774328894 ], [ 0.00928942421512786, 0.018742207830516534, 0.07201734626089024, -0.061364435759822665, 0.05563603388153407, 0.007947676429891488, -0.07002762045588093, -0.1375786248100053, 0.1047413966178914, -0.06749345329894495, 0.06200607115308872, -0.046653187753715276, 0.008031275439978877, 0.13601069062802135, 0.12342682763957386 ], [ -0.4197399618840599, -1.7034112137591406, 1.6568047403050181, 1.1523730932395515, -0.42300017653030986, 0.3834420493620233, -1.4905536756342654, -4.904825300329794, 0.013884188288884082, -1.5310599720344087, -0.46566553482541934, 0.6456192580616583, 2.4724713397217473, 4.735983430925412, -0.0941794992861079 ], [ 0.8515309289576166, 0.5221151463291299, -0.46685183387171125, -0.3849968374830777, -0.935670294665433, -0.6915906400929911, 0.6632113051106662, 1.1088692414192962, -0.2505391448998118, 0.4383129429639466, 2.7034667390133578, 1.3447464942759855, -1.5027952937971918, -1.886021225970222, 0.8015542635906108 ], [ 1.798240430233204, 2.2605911709689077, -2.4254458738628997, 1.9812461034171582, -0.958441376323611, -0.6828207017660233, 2.4126717288631045, 1.0455591870937335, -0.07384183233893868, 1.7514912796833435, 0.11755973994838717, -1.4870397781869773, -1.292194248504999, -0.6208927374270278, -1.5213794557510139 ], [ 0.10659047022829003, -0.030070601509992984, 0.055986658401601365, 0.1371972183907577, 0.10648365535882065, 0.03375138202641368, 0.040800514403778125, 0.08575135599338048, -0.03616264552225467, -0.04989712760566027, 0.14313894310374117, 0.09647142159579385, 0.1506846100807094, 0.0891456099521548, -0.010063054117736175 ], [ -0.3343674249668562, 1.4949414048344143, -1.6581022323394445, -0.2555313918712185, -0.09056715211556388, -7.753351609356657E-4, 1.5974613486399232, -0.6966688287735014, 0.28269335730349815, 1.0473280498898958, -0.35504669813666334, 0.09314262262803354, 0.8015727191595233, 1.6855048310650298, 0.09403653632892292 ] ]
  }, {
    "Size" : 1,
    "ActivatorType" : "Identity",
    "GradientAdjustmentParameters" : {
      "Type" : "Momentum",
      "LearningRate" : 0.01,
      "Momentum" : 0.9
    },
    "Type" : "StandardLayer",
    "L2Regularization" : 0.0,
    "Bias" : [ 11.06076120439959 ],
    "Weights" : [ [ 1.2207125269922363 ], [ 1.9752909707685917 ], [ -2.786853926818112 ], [ 3.6258265639404748 ], [ 1.9064237747009511 ], [ -0.8467528527985375 ], [ 4.067319506959059 ], [ 1.9683166382404729 ], [ -0.824064663381782 ], [ 1.6193840867440465 ], [ -0.5904371464423981 ], [ 0.9463223797459316 ], [ -1.1945423314286923 ], [ -2.692924727732358 ], [ 0.8858881749826605 ] ]
  } ]
}