{
  "InputSize" : 7,
  "BatchSize" : 16,
  "Layers" : [ {
    "Size" : 30,
    "ActivatorType" : "Tanh",
    "GradientAdjustmentParameters" : {
      "Type" : "Momentum",
      "LearningRate" : 0.01,
      "Momentum" : 0.9
    },
    "Type" : "StandardLayer",
    "L2Regularization" : 0.001,
    "Bias" : [ 5.1181206306423, 1.9169879004288597, -1.415566221598227, -12.346829899545705, -8.11333426331276, 3.708246634325363, 5.893709917320043, -1.7798339020892988, 3.2772774090831533, -5.011585575378244, -1.62181314222506, -0.8621368396763235, -0.9400726139775842, -2.741743749733396, 2.977829631960348, -1.2181250755653565, 6.24329862196768, 1.3284013308658824, 3.0323448936286006, 0.7761664362968278, 3.0155871877513727, 3.040701110956626, -5.930964757138539, 0.8984999545087807, -2.7375062862676516, 0.32535085262567465, -8.709530772906295, 0.7616810834555983, 3.739743949717159, 2.212111280515896 ],
    "Weights" : [ [ -2.638092717549391, -0.6156933577462652, 0.9901197936201327, 2.4697423110556445, 2.083896354126883, -1.6203100716941388, -1.9448230635400023, 1.243134764250723, 0.8379904369327554, -1.3412346365782069, -0.07728380833930576, 2.7464299870868136, -2.396436623105541, -0.3730040563043178, -0.861123350250346, -1.8331591948929518, -2.1036482057186965, -2.7068147906607263, -1.808102680145656, 1.990546794711342, -1.059365683022875, -2.9494652721681476, -3.0937756261834264, -1.0118003283102401, 2.7632817406238788, -1.4168744958338455, 4.268895958810251, 0.8415793161206326, -2.72986409610034, 0.4763116515367556 ], [ 0.03694879997732543, 0.26103637240006583, 0.5194687200594397, 0.2679133031443567, -0.9780753616636823, -0.6170238297992066, -0.5498816426158577, -0.2568425884071435, -0.292303754933277, 0.12466905516008263, 1.8893119740976638, 0.02892180784312016, -0.17246631145577768, -0.02732659091586672, 1.0008611232219113, 0.013293017022349609, 0.1958275921117708, 0.5491053669980372, -0.01587201321393851, -0.10531666338871452, -0.13400810625512824, 0.009586195818721853, 0.08642215068871295, -0.14506416609408343, 0.2007109203830933, 0.2531866506627268, -0.3075362712042938, -0.01419939494736844, 0.41365341043071063, 6.691717857356833E-4 ], [ 0.5883651562007043, 1.333161591935696, -1.4468124049419948, 0.9815472286830736, 2.4517007871768306, 0.30010121163067505, 1.931750185182651, -1.02382857754194, 1.0791592312613392, 1.2779948611214071, 0.07453604950979277, -1.062508329306061, 1.9131057040989692, 2.0592301478198864, -0.45743618289525684, 0.6432599309861171, 2.3389039944943373, 1.8254359329562264, -2.0109407390924843, 0.6972651613382871, 0.8112480054624477, 0.964433135579431, -1.8424349281608325, 2.840045942127994, -0.24577854200423024, -0.5300292062354983, -0.2647364017420238, 0.12027099308138411, 0.25762889314513776, -0.9865744335645453 ], [ -2.0463391822478743, -2.7248893968223107, 2.3282801953249805, 1.1121485557375155, 1.109715977334834, -0.07225192775733405, -2.920915260703586, 1.846190705599306, -1.9162294529851744, -0.8728076174551014, 0.6479880521351761, 0.9058667747165696, -0.3787440539831652, -1.2481780192588934, -1.659467227252095, -1.321100566687248, -3.2791796439427316, -1.538885827807666, 0.18171953223666612, 0.5551430267751379, -2.6456862095122253, -1.9283868173666376, -0.07111999868250886, -1.6017822850983023, 2.0000546533503414, 2.2305108669207416, 1.1079952861025428, 1.002681605144114, -0.5797861098533512, 2.940051487742016 ], [ -2.8033288266070917, -0.2512665609218876, 0.7055145443772539, 3.073205396543853, 1.1799256885827938, -2.0394939514149657, -1.3570158863592268, 0.2629518507952009, -2.5189361972265623, -4.809814986209262, 1.1055817943832322, -0.9747654926592619, -2.7036994929275937, -2.155475800358641, -2.1932406932380606, 0.5306899313577695, -0.006937052854128237, -1.994684943844719, -2.27064359164634, 0.5946267263855187, -0.1894870942577221, 1.3183261618258049, -0.5544063564202413, -2.5598070136210005, 2.8934553437367705, 2.172197350807329, 2.9073316760478645, 2.378883138199545, -1.9954787885079395, 0.3365484321431952 ], [ -0.43377251678881124, -0.06696795861396258, -0.2738290470990002, 0.14568562536310461, -0.4908131000005912, -0.5189255999158657, -0.7479716078981047, 0.04085922538374036, 0.3172058745420238, 0.11516962177262781, 1.4843446784280794, 0.008766385235754308, 0.151363633710429, -0.16532121961207744, 1.2385030778635584, -0.1395990100601742, 0.25707912163690116, 0.4990701541733389, -0.1251363497441456, 0.06996175425628988, 0.25414135092433204, -0.11760866848455538, 0.3262169993539204, -0.48812635871676285, -0.3189540955485064, -0.21734785083788435, -0.5524273822238299, 0.40213631147530743, 0.39850772299792164, 0.002074081178907263 ], [ 2.5222671975035924, 2.0049595519018952, -1.5055184259185195, 2.6982395697976926, 1.0237370873478653, -1.7307055425951359, 2.077452602142106, 0.6776679665428674, -0.8121009148536704, 0.39319246257409335, -1.408800544313619, 0.7215823049214009, -0.3073888799685072, -0.5709958603232299, 1.3188212062440945, -0.055185887201382636, 3.8289863486567026, -0.49108322791563913, -0.1309467953575726, -0.3728560834912326, 3.1896338976613614, 0.7637577559742981, 0.09525979976200495, 0.6156952936903466, -0.56162495586599, -0.19178009726952663, 1.859781343481475, -1.5868365670362217, -1.605444999883869, -0.17073159117466674 ] ]
  }, {
    "Size" : 15,
    "ActivatorType" : "Tanh",
    "GradientAdjustmentParameters" : {
      "Type" : "Momentum",
      "LearningRate" : 0.01,
      "Momentum" : 0.9
    },
    "Type" : "StandardLayer",
    "L2Regularization" : 0.001,
    "Bias" : [ -3.405146093224071, 2.616226406324478, 1.4386730979105133, 0.7600112344941506, -4.660984574886155, -3.9884787799360746, 2.6679882355722886, 0.5384026537737451, -3.9714466203290546, -4.068337885862342, -5.400152643457729, -0.07946830736893688, 3.657019828886496, -3.8205014282399135, -2.1749725940674924 ],
    "Weights" : [ [ -0.93883855229898, -0.4468632994438799, 2.0418928799720373, -1.3243384475655213, 0.9851924789674028, -0.5050007388581293, 0.7528612122778655, -0.46450217118786596, -0.6954331227563839, -0.6898599002830722, -0.9787222172285881, -1.4384782218740875, 1.0144578767325168, -0.6245063624419895, 1.8334485497353918 ], [ -0.22791275978373343, 0.973984741069047, 0.8703006386561652, 0.3846162479908421, -0.7383444373263429, 0.05167523916869892, 0.8529409834709273, -0.4110372648087241, -0.3278081191180229, -0.39953138296810214, -0.8798878934373416, 1.2481625783290242, 0.4189765040261093, -1.2817501654947108, -0.23306670663185508 ], [ 0.43831439257177457, -0.20639774609408368, -0.2281756948611256, -0.4275554287374446, 0.16371040829946173, 0.20694007100191783, -0.808854231515951, 0.9307456592647975, 0.38489911225228063, 0.5674678979779687, 0.24479215964385326, 0.13602899470033156, 0.4161420778953408, 0.6000457667762299, 0.7485064074097183 ], [ 1.1048500684246312, -1.7575936685718547, -0.6398048803554311, 0.5066646070537083, -0.14019785784938765, -0.12219931334837039, -1.098406900537863, 0.05911253371566084, 1.0519706434459668, 0.10472219031990253, 1.2701195739645375, 0.17783815803016892, 0.1346714227522622, 1.0207378801604072, 0.19150529209882822 ], [ 1.5442270814449752, -1.0574890283530038, 0.3534992031473481, -0.684595246417988, 0.10811387478501563, -0.2264783567827148, -0.7557434962661982, -0.9422007511055469, 0.3664328126135276, 0.10484752167451293, -0.7237276370938962, -0.4643780913274609, -0.484415854100067, 0.42735644078581736, 0.08254541509267685 ], [ -0.41896382914464864, 0.7845989143760057, 0.07163218293645093, -0.17540234067833538, -0.9730212090154959, 0.5092111395642022, 0.6767430255904142, -1.932557845449781, -0.42670249189413284, 0.3376984645481967, -0.15278578293169168, -0.525320735165553, -1.5677379847092123, -0.608532523572598, -1.0289061981441858 ], [ -1.1251547098153658, 0.41350862383416176, -0.5403391787322408, 1.6314680732116082, 0.33985637199165486, -0.4939020989677063, 0.8701053593533603, 1.5134724776783877, -0.720358847732592, 1.0957747705044734, -0.2787379287168583, 0.13756491486032474, 1.7701914293481251, -0.5452221736847751, -1.0644891360310804 ], [ -0.9836990883630572, 0.2857020535496228, -0.28515729884983154, -1.20175116489949, 1.035173469874547, 0.26144946783721945, -1.3115192848072843, 0.025521139770472483, 0.8182990419692194, 0.9907949818392252, 0.24358169282018055, -1.3403195898317932, -0.8511418629610588, 0.6467767949746217, 0.29720842598943875 ], [ -1.2160839509941057, -0.9226120107469775, 1.1613880139938078, -1.0941843306186334, 1.324326252882605, -0.7221238300528537, 0.5311613830581937, -0.8162202264374799, -0.7039465701705193, -1.0983108531714907, -0.5975660889294971, -0.3458265545517796, 1.1731375217337259, -0.6359780629319738, -0.313973970412597 ], [ -0.00734570430679878, 0.5081206212138952, 1.04422833069172, 0.49944811147298623, 2.669145165934569, -0.4166907142115425, -0.530040012582298, -1.1451472782791319, -0.04619070158834265, -0.3142786270754992, -0.7153076313444567, 1.3582322654711128, -1.782433188909176, 0.06274154954620449, -2.659707340482577 ], [ 0.6946948128192445, 0.2893656145266794, -0.845694791658252, -0.012832391304197706, -0.4363981473981101, -0.2059933164936403, 0.3828388379540291, -0.39264606472804703, 0.024869575337026495, 0.3459370698536912, 0.10957013000130894, -0.02134292213733642, -0.2290729466309679, 0.1866972530810752, -0.21330370491357292 ], [ 0.42474345655917295, -0.08546321196224532, -0.39587295289390356, -0.8136119383938638, 0.9912634063972305, -0.007733215879084316, -1.3988041161257976, 0.7612910521061782, 1.0215183818564357, -0.4716241095442976, 1.0406145856754734, -0.2237721196016865, 0.4151169636720598, 0.44254304479082696, 0.5072559948400314 ], [ -0.0060265166606639, 0.1575005754882186, 1.455366611568361, 1.074274692071418, -0.0209507173464435, 1.2318921588930616, -0.6003617342894392, -0.7491433846973325, -0.2246250010136346, 1.2548180709463812, -0.4584472026697807, 0.7739902751956106, -1.0427271656937445, -0.0969963973118024, -0.4839436373551431 ], [ 0.0022094059555447, -0.22011107485972042, 0.7389257789674617, 1.7911180213614937, -0.3563523022043208, 0.4362997238869412, 0.14119496194864684, -0.6854228607141568, 0.19495680388024744, 0.3255184797709088, -0.8012152302995434, 1.0438681027259487, 0.4449122008340948, 0.16960229389506593, -2.063292467074028 ], [ -0.15293036689140382, -0.09003057402555621, -0.1871722315972467, -0.13465424301618595, 0.7616058185014506, -0.002623073737460436, 0.14377591561352548, 0.03132961643688013, -0.6164226192311911, 0.554998003079765, -0.1950572861559799, -0.5874438472314011, -1.448448389218217, -0.034480625546875136, 0.4629201461441022 ], [ -0.26611882485438765, 0.12840586913266178, 0.6775554006768185, 1.02369419910044, 0.009872716960883815, -0.15419797005457495, 0.007753207798976432, -1.1255815668279894, -0.8108337854126054, 1.023395964043403, -1.6357083963281591, 1.2458477421326053, 0.09631834174761293, -0.04170417484919216, -0.7400644151488843 ], [ -0.2598884583029207, 1.0790534870483648, 0.08756224557939975, 1.572074118644832, -0.9607579702895791, -0.2628193569898666, 1.2742950310453216, -2.255979803043364, -0.8125878624026664, 0.3229799741254372, -0.6101525003868913, 0.3369132092920897, -1.377019397070825, -0.9184109818687982, -1.9641477810747623 ], [ -0.22040087073103493, -0.07631928403523462, 1.8038303586279576, 0.35886550763328445, 0.23558180703403284, 0.6703089242840617, -0.5376235602890731, -0.4624532584535894, -1.0310746538721451, -1.340867982401289, -0.6210679985364002, 0.24352405765939403, 1.4342024211333764, -0.37716201719208203, -0.7559919013548664 ], [ 0.3527177297891491, 0.29337700400782935, -0.734348934258337, 1.0358963374423464, 0.16705836795197346, 1.2854161773054715, 0.024902847888853274, -0.5194743606214152, -0.49039934468759894, -0.10201178009527696, -0.2920182118374101, 0.070140002143854, -1.8924437714883804, -0.6761862261901452, 1.1500223822789015 ], [ 0.1352889675413389, -0.4403701798119301, -0.7991444937348979, -1.0764335079575176, 0.9991804035408701, 0.006325358254200663, -0.6079551518826717, 0.4458652147369636, 0.8192675290205861, -1.763825588599874, 1.1293432517814812, -1.552321001824668, -0.3360108434297461, 1.708463323343531, 0.9332956018107457 ], [ -0.8106663390616708, 1.6407436597648015, 1.1231665373302275, 0.4139202398462768, -0.22027927353654653, -0.39172864795377216, 0.46346957676197403, -1.2221815201347241, -0.8810793152966636, 0.034336405031173814, -0.4887337256716765, -0.11356909859908541, 0.05224397640568613, -0.4040596020610373, -0.16469974907032672 ], [ -1.1532456643593594, -0.12490820707260386, 1.4638937525005546, 0.752182824207285, -0.04896521069852549, 0.9770147940264934, 0.5177673224736714, 0.642626990705866, -0.7759053607524646, -0.007628327620617691, -0.47667501963869013, -0.37937550410659004, 0.39737727430674646, -0.8966208800075894, 1.8597434027332445 ], [ -0.007540567601305431, -0.27478154780935177, 1.758420560657057, 0.2138534046327104, 0.16164600411374172, -0.5798564900776838, 0.06905120778720894, -2.671730507105878, -0.49290941675220623, 0.711419311707264, -1.5188925556492177, 0.18440416157728148, 0.14253307901973164, 0.033253841416681786, 0.6170926622196068 ], [ -0.2370284657735346, -0.064917999283314, -0.42716160705605094, 1.0630672994204389, -0.16520816152737863, 0.6182544599704244, 0.1925400020120761, 0.11698047362859325, -0.6239459002690397, -0.33603632254112004, -0.3093565334107901, 0.3241414995859023, -1.6804642338942375, -0.6683305745261323, 0.042743560758793195 ], [ 0.022932843810043513, -0.08972798901262034, -0.28594244674749275, -0.42843245951540276, 1.2531425833663625, 0.9401889219446435, 0.4748990877049055, 0.09235191428100598, 1.4453424525039789, -0.2295003641789861, 0.8345576860113908, -0.7760248083751432, -0.5238104068310825, 0.7188843639640469, 1.3012034003164972 ], [ -0.10961952610920554, -0.22719555230632418, -0.4522623003391278, 0.5185943683561562, 0.3611573426161005, 0.18613260120727196, -0.5328093146979737, 1.147099410889846, 0.5063895235417615, 0.04419846106602814, 0.5966211574777416, -0.2551214015168567, -0.148711108104361, 0.7567337064968535, 0.898722706054359 ], [ 0.9037400594476324, 0.1047278610998577, -1.345730735471746, 0.7131911436595879, 0.1781632502899259, 1.2946958330328164, -1.555447753454351, -0.3179101125257985, 0.467568818503243, 0.10463665283951841, 0.9456073740629174, 0.01619397644102869, -0.48370576173594976, 0.9841595243676476, 2.1394940942537315 ], [ 0.0406044706039521, -0.22052066387000177, -1.097872519075992, -0.27123119680411906, -0.46372203966589454, -0.2073574659640078, -0.10380743768758495, 0.5930886036114631, 0.6201004863975418, 0.6000657558957987, 1.0169587519575345, 0.2765813652171173, 0.3698490692915631, 1.0938309155578487, 0.6448405933447628 ], [ 0.6784491201417154, -0.20739609976014542, 0.7045019560083983, 0.407560700929621, -0.754266228824728, 0.1962371269251706, 0.043961637554965474, -0.9668275461039089, -0.7335040965838652, 0.7159955786398374, -0.6502482646955183, 0.8554528920603487, 0.35346754414431997, -0.8975253323258124, -0.6207353272533852 ], [ 0.003533478276384406, 0.598287432868328, -0.6672902704385419, -0.4707565502541576, -1.2686075690176761, 0.1748483640853357, 0.011834394093040245, 0.9372665843032549, 0.9632764923507708, -1.198565028861999, 1.4133906617696947, -1.1776245519909174, 0.17917978878017188, -0.04094892233537242, 1.1108524925766556 ] ]
  }, {
    "Size" : 1,
    "ActivatorType" : "Identity",
    "GradientAdjustmentParameters" : {
      "Type" : "Momentum",
      "LearningRate" : 0.01,
      "Momentum" : 0.9
    },
    "Type" : "StandardLayer",
    "L2Regularization" : 0.0,
    "Bias" : [ 12.650637448109636 ],
    "Weights" : [ [ 2.971538081731888 ], [ -2.7943771911786985 ], [ -1.1761553197921863 ], [ -0.9065534712204846 ], [ -1.689398468451645 ], [ -3.341384387794861 ], [ -2.5145617925286374 ], [ 0.7959798670146528 ], [ 1.8483763477878667 ], [ -0.6867445571262157 ], [ 1.591892439290178 ], [ -0.5452594141861304 ], [ 0.7209067174702489 ], [ 2.0678532438626682 ], [ 0.9617792835608413 ] ]
  } ]
}