{
  "InputSize" : 7,
  "BatchSize" : 16,
  "Layers" : [ {
    "Size" : 30,
    "ActivatorType" : "Tanh",
    "GradientAdjustmentParameters" : {
      "Type" : "Momentum",
      "LearningRate" : 0.01,
      "Momentum" : 0.9
    },
    "Type" : "StandardLayer",
    "L2Regularization" : 1.0E-4,
    "Bias" : [ -79.54493913124051, 19.272179973899267, 26.52858770287645, -66.78066281027941, -15.660666726890001, -65.87399422318173, 117.13788973258703, -21.5522268819949, -64.75749855583278, 75.77103571409339, -152.25038016063064, -12.70799161257883, -18.255012681784255, 68.41244318380733, -11.443247975442118, -127.10771187508088, -49.3069645098388, -37.17158048491081, -7.386257612455426, 36.84704312449608, 80.28968503870055, -17.80757097033307, 12.281104192245897, -22.79241283713132, 16.692040460263197, -29.18354080644474, 23.440496407272402, 98.42025028942876, -54.17195237456598, 30.953241189782695 ],
    "Weights" : [ [ 5.433291095386158, -0.7183297083692566, 65.42552145187763, -2.8256035613586143, 45.90065178111185, -10.377723618497653, -48.817135279401946, -40.994485495450164, -42.21398984268732, 13.37158197842844, 96.2248929924934, 96.51867178144398, -65.40909517387735, 61.583032143349065, -4.832786282885657, 66.15503339363201, -4.34785881077177, 0.8820346562992805, 0.12293217867052286, -12.259643568508135, 12.978847696510522, 32.03140552920045, -0.3118084383166192, 115.93522205300903, -0.176002507466546, 127.6365166572318, 74.62785958091663, 8.096361069658204, 87.45570903463296, -0.40945302883166895 ], [ 51.540935761158494, 0.35451712889812614, 9.872446007143976, 3.521275183016316, -55.22158955982513, -18.795696768609528, 0.8141389021437352, -11.094369958710214, 10.023636490212322, 13.922843584464523, -11.944572107525213, -14.287958120801505, 23.852132457541174, 65.28494501619997, -40.75160602479752, -63.61337714259049, -3.2579430422650457, -0.7143563075521634, -0.505947730594978, 4.425766673355036, -58.79646492693874, -2.2770298845376495, -0.17003155175246973, -1.9180809487216566, 0.3840302403082448, 13.552637126158205, 3.8872397469130893, -1.610930507642996, 5.6440990490038345, 0.5229127366803742 ], [ -11.836349528190196, 1.2644088493149344, -2.6320242364724575, -4.833552113871152, 137.5375246688979, -6.701478311341925, 10.987616255257212, -2.2287840123853933, 48.62267687225159, 68.3239175250715, 10.802433785306206, 45.98586635411226, -1.5012305596615485, 5.750288452428239, -46.802177759040035, 78.5391505832085, -7.262988997162982, -2.2133180660400975, -0.26100403878811507, 59.325903462876525, 58.81731510777079, -16.474534291061257, 0.7595155309248575, 67.61190595453508, 0.88744139160889, 69.05909797503467, 40.03809117304383, 5.051837779683373, 13.622006715447556, 2.1862764343574614 ], [ 21.53188035685038, -0.44026050122507004, 81.513310427203, -2.349977965678379, -122.72214734315222, -15.593183958997516, -96.19547630135536, -22.62522780299608, -97.7470408291758, -78.13712475504411, 135.729186830502, 59.96593157265408, -91.15048373269401, 10.232265631315801, 63.630885802833056, 15.95393906401246, 0.41809967936149417, 0.23517786189585912, -0.08919044006929257, -77.73044574516473, -55.41874159908273, -19.571312647937596, -0.29034217624915976, 84.79516316776125, 0.4961515024059025, 39.16490555634792, 22.496761316270288, 5.988280306971143, 98.86922919049476, -0.2194013252475257 ], [ -28.602214228336923, 0.20641818983766005, 72.33743669254153, -1.606104539535589, -177.24464376606457, 13.433357059678578, -81.4008578239131, -86.13025531513215, -48.226380170215464, 0.34034213447022704, 28.230888486646567, -18.647541321053367, -62.432573702427746, 125.071938686068, 24.479165239821793, 32.27455986884833, -10.006187249347315, -0.22661519557625975, -0.25841971969777794, -41.439959833571805, -35.19412245691041, 25.778330806098666, 0.25471168787924237, 93.25156079327198, 1.0449161674081697, 16.07978084739536, -15.827087310344147, -5.235568144726662, 94.9937876687993, 1.5993433529850212 ], [ 9.075702598017182, 0.06231345597666879, 21.165518756782216, -5.646656205235555, -21.57664127113418, 19.138554968458454, 72.12426776139944, 56.117636202240746, 17.35028040928187, 39.99396916526238, 16.57003050168682, 18.661197153815923, -48.58257198360501, 16.20635176452049, -14.23770695412529, 38.2098364273774, 1.0833739514482243, 2.3085766407016237, -0.011145334155379315, 47.642997655494526, 2.9423172856342497, 47.79132883897765, -0.459775892672114, 8.370358074198048, 0.06464718720100748, -44.133593208765824, -12.117682270354853, -6.04954239436116, 30.41616770156706, 1.266176695706692 ], [ -7.925561053800123, 1.511462909519707, -18.09067086307353, -6.03138282827206, 70.73434487856616, -14.136390467012685, -8.232347429382902, 20.792563426261864, 3.129561402355956, 12.544412394887564, 26.182936058986424, 4.976518301589593, -31.920377421714612, -59.8963833622693, 6.384374996520478, 62.80417994422715, -5.979264072301418, -1.770719229917754, -0.15144650862539888, 33.78087599634178, 26.610974682605622, -100.92237695399957, 0.2920150864435526, 25.37290311103291, 1.0747398760416549, -35.36204788961078, -14.854699586810387, -3.3775862501449736, 9.654021224840966, 1.472139966117223 ] ]
  }, {
    "Size" : 20,
    "ActivatorType" : "Tanh",
    "GradientAdjustmentParameters" : {
      "Type" : "Momentum",
      "LearningRate" : 0.01,
      "Momentum" : 0.9
    },
    "Type" : "StandardLayer",
    "L2Regularization" : 1.0E-4,
    "Bias" : [ 15.082667897764459, -11.041879838662629, -5.848130724594394, -37.06109506920487, 19.302512199370003, 14.308611909374012, -23.83559024467493, 10.377696103638641, -8.513189182554674, 27.60270723564692, 18.372083806555374, 9.079712675070965, 21.586249622018542, -8.383985428992837, -20.41642093838595, -6.569836931893973, 5.779815995392581, -0.6494194756268531, 36.232571780262006, -6.465096272918392 ],
    "Weights" : [ [ -2.3572406531922923, 6.585713458555583, -0.5286588089069248, 5.858555471991707, 0.8284942952665258, 2.2874072622052135, 9.694108487311595, -0.009938229209509876, -0.031542232949657856, 2.5671462812192285, 1.5198184172387785, 11.26196779036271, -0.37361906305035697, 0.47491864138507156, 4.030240346143269, 0.16638656230494528, -0.3785123757030335, -5.307306088798697, 0.2927367609999382, -0.7755581129181369 ], [ 4.605645412059151, -10.31280891477292, -1.9564581102039273, -15.220152505017817, 6.9899407303403995, 4.347587701590194, -7.588819270379652, 1.9333339157550786, -2.138033067009754, 17.597918707402744, 5.523331219049281, 3.5189515155644067, 7.694123336827025, -3.02146367825118, -6.201208380207461, -2.423057470732491, 2.381232744916399, -2.0969151149699408, 21.814778384832206, -1.6329474062846854 ], [ -0.7474326973651974, 28.721772911337073, -0.8261551949621987, 1.140209597815146, -4.067914993496617, -1.7294280736979752, 0.04660890327591916, -0.8853613124128499, 1.2477579663060832, -0.6169779361381273, -7.540212369685135, -1.2044639760473097, -5.601208093376878, 0.062497815099996135, 1.0061289986551067, 0.12854568395673455, -0.42247171792290245, -4.449263318614736, -2.1042241451604475, 0.6049828891545673 ], [ -0.39403868575240286, 9.596155369468777, -0.4323376748402661, 11.847307497215132, -4.187715956900493, -0.5850982621603913, 2.7351492824900294, 0.9546106060750181, -1.0859268950967527, -15.013762211235651, -0.3979121610944032, -6.896572600091205, -3.803666252698653, -0.04194473146352051, 3.5079130694903213, 1.0768881936992016, -0.5572107924311862, 2.205015945395971, -16.460771123455753, 0.9916495133020347 ], [ 2.7227231456481307, -29.8301974475942, -0.5310551020529399, -11.481503556595971, 2.0650624105007025, -1.825777386580324, -0.37441669885253037, 0.9397518277105567, -1.0533486583105487, 22.394585979226488, -7.3442908051931095, -2.8193076899117107, 7.890985546091061, -0.08845868802135697, -3.1387352702836067, -0.9402202680340774, 1.479021214276015, 1.4066198164132004, 9.562023674725861, 0.9996848002893557 ], [ -5.510871347368205, -2.6628375149527725, 2.2329730031012107, 8.013784921050885, -3.750915857240475, -1.4529714756277978, 0.7416768996836055, -0.592222166249773, 0.08907172761033338, -13.789453193181998, -7.481110696355424, -10.994248077762823, -2.302510966117819, 0.47509242342960023, -0.4041112098108332, 0.3010572173363271, -0.16789179452949754, 3.3022660734330453, -3.112158336734753, 0.6526897442688603 ], [ 0.014493470334305026, -20.317250163531305, -0.41711941246127787, -20.060952085731046, 3.059806409731688, -0.3383648475760689, 2.725070547374293, -0.39265801462779176, -0.06328508700931171, 25.634347639699655, -3.2488374172630508, 0.7451072240331406, 1.4055121248398148, -1.5341765791154232, -3.5906354538713554, -0.24145217962720114, 0.9468644592436152, 5.05055640049135, 12.839266155633073, -0.6925746014536865 ], [ -2.186313357222781, -19.311133131730905, 1.8429560262119784, -6.402052648917376, 4.162551995004058, 3.0463194659807837, 6.102606834287936, -0.9553690933585582, -0.21261451930240785, 15.364988593112772, 5.2248766770829365, 2.175699639614657, 2.9214764716048145, 0.9149820389968372, 1.2081877030539647, -1.3849465668490095, 0.4854484059071847, -1.0857064626241302, 11.740635210647733, 1.5481219989137673 ], [ 0.8802386011438535, -37.12182275946213, 0.3695568539068088, -6.339091902517979, -0.673124005882584, 3.7638650663867343, -3.090872416506565, -1.6777140851791283, 0.16736190066777848, 15.975109618138442, -1.5168238009778297, -8.88974998958884, -2.032536693239538, -0.7703813356655881, -5.365248254601624, -1.2300668699352937, 0.557743415479864, 2.49859709825121, 4.2443746735507855, -0.5263537731573088 ], [ 1.7978737018891982, -1.8268397596898769, 0.3534246574608235, -7.486824884040362, 5.756069279665497, 1.6308955633966273, 4.031414387725436, 3.7924829134930627, -1.0846089947302586, 6.966244629343483, -2.8063584921596747, 0.984217334319924, 6.570485151173907, 0.1430288551877947, -1.2765645573698985, 0.9478283231317329, 0.195621121721516, 5.646693444307191, 3.6835517868176146, -0.4346836142456933 ], [ -1.8261416535810042, 18.115221632139328, 3.934491495733074, 17.622502275706317, -12.060194584557467, -4.548977110931141, 12.429570955212993, -1.412226041005974, 2.0510178439550764, -26.626654212361895, 2.5999290961025125, 10.387405229994961, 3.137052098799898, 2.0283902862930456, 6.190700440158643, 1.5523526410903945, -0.8371896543153927, 0.7273473870539964, -26.497315122738765, 1.5885701159823404 ], [ -2.872523279223434, 18.629788306432587, -0.7296789323091748, 3.963574470619037, -2.3229711637632744, 0.17330333695749006, 6.401371242832917, 0.655236732475595, -1.0126473161305445, -23.173435141056792, -1.5923022464179275, 5.352150592632076, -1.9520141092616952, -0.6853705548848098, -2.317604128593358, -0.1328608439420593, 0.8665474366279342, -1.200770396338345, -8.502840646607003, 1.1482203702258145 ], [ 0.8834790184493732, -12.857224703544958, -1.1424476893699933, 4.179122456449701, 0.5860793337388629, 2.237920594382199, 5.183400797653007, 0.43620716987991565, 0.14543055167239935, 2.870962392026871, 2.887696266517108, -1.6830683865944307, 10.54151735447763, -1.243131685027304, -2.5600385050416326, -0.7706478298159017, 0.1334835156658567, 4.273096114848161, -1.9749765706344529, -0.525155166785263 ], [ -2.370865444832561, 27.706017260526846, 0.24059870065887684, 18.761580248373622, -0.8983055857113871, 2.2871296942883452, 4.458583685823247, -1.2699137487876566, 1.0264606801176996, -30.065608543100357, -0.7025102794791924, -1.2221464075028374, -2.7292962944518364, 1.2232138368496477, 0.7694381814106201, 0.07834932902569164, -0.15702017568204968, -1.3564648473315395, -18.16700378521431, 0.9929697378404589 ], [ -2.831839646848344, 27.01448676882719, 1.0626833044797916, 6.696606823042395, -0.8828362797179498, 1.4505532693179384, 0.9952067912341229, -2.3311236995557385, 2.1753740213283663, -15.826174082999962, -0.3467385958478425, 10.099329949182236, -4.14203021540208, 2.020769490864015, 4.51484387291815, 0.7734005428206164, -0.595600168611094, -3.8064111761444925, -5.821204988201294, 1.7957453232407463 ], [ 0.3611015219657025, 5.56107084986384, 0.45832266049825054, 15.671866833211531, -2.8050122197598153, -5.1162930499491, 1.3170905089234675, -1.0158055717562038, 1.3060177743743369, -7.522351142593526, -4.227038415117846, 8.440168860063084, -3.609431792982373, 0.5597432733884068, 4.871673784203941, 0.7425843440731649, 0.12088941284657072, 4.554498442512179, -15.681169114577651, 0.2653358634163029 ], [ -1.8379552404263324, 7.958601074471418, -0.35349135133825016, 9.148543626624633, -5.568384502612398, -5.01899149944485, 0.7281173805781869, 0.7358175752160938, -0.5912131835426881, -16.326731616810758, -1.3395464815374052, -1.2816008881909624, -5.731428383718297, -0.19722114437719654, 4.562200894799565, 0.6649336860019447, -0.5942201670494267, 2.1815554020391876, -15.161683348150165, 0.8970364271761165 ], [ -3.650549735300691, 10.142995011116355, 1.89624716311605, 15.925200247254025, -6.345100768647719, -3.0950619097000103, 10.450844233118548, -1.20820243551744, 1.7789756792593108, -15.310956793049872, -4.181272255532772, -4.146428295335722, -7.231996141155358, 0.9773576728219695, 5.813846983723588, 1.3113233753479288, -0.8200510108081933, 2.2922429235611466, -19.235304001390944, 2.4592917756558332 ], [ -4.364068579662547, 9.407718861343028, 1.4527050235734351, 16.280351859474425, -6.698604322350142, -4.12396287128452, 7.5384330193115705, -2.6597838728833127, 2.1270669831611264, -17.59057542238479, -6.163141504528283, -4.2604791666761015, -7.473541520582072, 1.9890722393923066, 6.364837551766623, 2.024801591363308, -1.9059683248582862, 2.018478195386651, -20.99488005463798, 1.9205327140990855 ], [ 0.9392184702010129, -23.517789906768556, -1.126348326364329, -7.366048491881189, 4.9114858968732795, 0.85091648045425, -1.2348961274040378, 0.21239718991268508, 0.8435838194806589, 20.287702836659108, -2.597259561700195, -2.7741436504414563, 6.9414331198254775, 0.09142491394185899, 0.4302201923578463, -0.5017210303977467, 0.7031870417749895, 2.050398630706847, 16.637355086668265, -0.9537274215562488 ], [ -0.023838367051690658, -6.602388625066872, -1.0118408744137661, -16.436855101871643, -2.5883009358016955, -1.9218069386591656, -2.1836305105607314, -0.4234554889798615, 0.26584256301928477, 21.57872123143892, 1.9943399298997484, -0.26485413604513697, 4.932530857686265, -0.577301520949369, -3.407659847610288, -2.031372649697087, 0.19957455736705956, -1.643810437227191, 16.768951959238994, -1.8995608501799521 ], [ -1.6683593050537202, 23.605047405821843, 0.2687073039577064, 8.572934011567542, -1.8186486662617614, 1.6476163037238745, -1.1438518806082294, 0.12459391416358509, -0.210578851555505, -13.930137769233777, -2.68665924160345, 6.129873962495873, 3.374535576095435, 1.2867271070538338, 3.181737243302668, 0.10768366471098091, -0.7392506484507454, 2.7359977963024296, -0.29132892907673474, 0.10457551724234818 ], [ 4.408270322085921, -9.628181622765638, -1.306992776806842, -15.104004734348873, 6.365555307011367, 4.235036688938954, -7.696817955776183, 2.960986544006579, -1.4391274291775817, 17.548751607114255, 6.309648144274911, 4.19098847849046, 7.942857118474656, -1.7420357655296326, -6.274115803738561, -2.0463082746687165, 1.7522031148020087, -2.090351366396655, 20.669882567051836, -1.5297958015863742 ], [ -3.2445265675234563, 6.668987424251206, 1.323047336799602, 8.072915339406999, -6.686707303506722, -5.545250854449674, 11.654981313334277, 1.0068664221648742, 1.2500435933446228, -7.235251164518753, -2.835872823192983, 2.2109272132073734, -0.9401351151896741, 1.664004424144074, 6.589052026682346, -0.027273968648663962, -1.2643855801979509, -0.1902787332481805, -0.14902131426035375, 1.4343011958552716 ], [ 4.178990618125794, -10.443588017453685, -1.1895413620830257, -13.813241266190643, 6.0793743139726155, 4.713901583602271, -8.150297890932029, 1.5780080526535134, -2.38530789372395, 17.354149325505155, 5.253111263187446, 3.3572207561841125, 7.403687362689436, -1.108174890625553, -6.149461930131787, -0.9187152233806103, 2.063511872900574, -2.312635385818612, 19.85098687007789, -1.431745232238672 ], [ -0.3715277239936352, 33.264369719050364, -1.1675022260731547, 15.35396815275229, -4.574322706311909, 1.6237003414332085, 1.63568261823353, 1.7490735226829461, -1.0609577267117052, -18.171910780568968, -0.29601439982841066, -1.271599559331976, -4.050654288019185, -0.07234169176396885, 6.76378592920632, -0.7074868405966516, -0.5986893965359685, -1.238962971522895, -13.86355854690318, -0.10875036038355033 ], [ 2.012870718075155, 16.618400115929827, 0.06600573446143425, 11.940908352002053, -0.4391015496076682, -0.6285328849569742, -6.814313647221941, 1.7706522602353072, -0.8859592223367176, -15.602242722664748, 1.394632101455393, 2.088352840766212, -3.5654715039421316, -1.640844451063702, -1.406950698836931, -0.9118801541800893, 0.7153905569834798, 1.6974309299853578, -12.626708126818158, -2.0672224373942645 ], [ 1.411168322573237, -11.393261286984195, 0.6919237173271937, -10.442378414157517, 2.651867962580761, 3.4003907315030677, -5.899225673261102, 0.19367935703395192, -1.1713809439793994, 13.537709672096419, 0.9978353478112977, 8.324366806934707, 3.351579910550309, -1.5934096952922592, 0.35974298935637067, -1.026622051177958, 1.2326140704484077, -2.70524205901338, 10.311665045538637, -1.9655837842457804 ], [ -1.6511518065200879, 26.037430477907073, -0.3413061375455799, 3.1921700307621896, -0.11963901093767319, 1.4063218076752704, 1.8641936445472278, -1.0728072115019767, -0.18519024618822816, -15.911931424587562, 13.433861606741525, -0.48515347724022756, -7.811422940187247, -0.8472110025816058, 1.1061222277343534, -1.7431618585667497, -1.7491288255253192, 1.6934787928218888, -14.97235670087967, -0.4577426157244396 ], [ 4.079983242932986, -10.236427893042004, -2.1044277577578967, -15.334331537986548, 5.394642684000993, 5.126985470942309, -9.250959449550022, 2.916078135520579, -0.3202555372562867, 18.76525467289189, 6.115640378403052, 4.1493129729315665, 7.352440669530969, -1.7601865777852808, -6.003952875518205, -1.0088983523004031, 2.8324421079739057, -2.4938716767487428, 20.980970211809378, -3.425316048427062 ] ]
  }, {
    "Size" : 10,
    "ActivatorType" : "Tanh",
    "GradientAdjustmentParameters" : {
      "Type" : "Momentum",
      "LearningRate" : 0.01,
      "Momentum" : 0.9
    },
    "Type" : "StandardLayer",
    "L2Regularization" : 1.0E-4,
    "Bias" : [ -2.8904901416127906, -3.365597784133552, 0.1398460121480447, 2.953979066014071, 4.580843217076104, -5.850415748505677, -3.9097512112832136, 2.140962321951505, -3.9699714724155637, 1.9282974279458485 ],
    "Weights" : [ [ -1.214651548862043, -0.35988731468766905, 2.3826006708909615, 0.9720458931993738, -0.2160937990220958, -3.6270806994863736, -0.48425993428959274, -0.0888885583149392, -1.555524508420143, -0.4622903662592819 ], [ -0.436429997676977, 0.029114777157442123, 10.452171027824836, 0.5351854301516454, 4.211845763873603, -1.1412748547401321, -0.05344833472844999, 0.32738545095642013, -1.2526064947075777, -2.43788394420018 ], [ 1.212725956548701, 0.6262067827305475, -0.5053148456042224, -0.8067518955129439, -0.5022465139733975, 0.7722892956754708, 0.6743751509984642, -0.424390817300319, 1.6785374241608315, 0.3221154727273227 ], [ 0.9892697824133494, 0.12923350073048198, 2.195334986859113, -1.345363399901101, 7.6574189777956, 1.956924273371377, 0.41657152047101464, -0.29339470170470483, 1.2345288744770215, -6.82221365541782 ], [ 0.03254576756508166, -0.3320466662263947, 0.4129195230290609, 1.0809238768826728, -4.427172680789527, -0.9737912640819059, 0.06994739385697875, 0.2572267249284557, -0.6726081372652448, 0.37412545141260134 ], [ 0.15710192711174947, -0.21263203406004916, -0.1313256012812158, -0.7828711875268083, 0.37529229376150697, -2.604345985201138, 0.05610941509801116, -0.1932039529036533, 0.375929236663781, -1.5318651415062727 ], [ 0.16963579539582907, 0.024581975355416535, -6.144891114586784, 0.10393830277803762, 3.4029533759585786, 1.3557903397618993, -0.17167211689249878, -0.3592910120951068, 0.6528473154905081, 2.2831283942393235 ], [ -0.4751038660781429, -0.40688552716089754, 1.156306310811302, 1.4613704021878509, 1.6744283955958834, -0.8322317679264147, -0.24248976051038004, 0.37133079045573714, -1.8234142215814124, 0.04820387308346282 ], [ 2.0236273950969044, 0.528443304428743, -0.6563684149480363, -0.8901176153852538, -2.4967190934518855, 1.4678316196773518, 0.2290311214071287, -0.15484779992074169, 0.11985481278686091, 0.4877577504869203 ], [ -0.6400303785694753, -0.2839317022061084, -4.799224077033944, -0.6038636229770247, -5.3882449738404326, -1.1633529737525456, -0.7539918007225939, -0.3836372497784999, -0.6652981060663059, 9.104103237282592 ], [ -0.12841635496981277, -0.02880116118805709, -1.3072230694839286, -0.015138371049830401, -2.0897878133730217, -1.2909917792528844, -0.032602247042299595, 0.05401515906178724, -0.5555744617751095, -6.9459755801320755 ], [ 0.5172219921113227, -0.037881640614956705, 3.0770606409994463, -0.14702446612182787, -1.4428052069380772, -1.7277569568312272, 0.011577472412352772, -0.11604066989272453, -1.1245183200608295, -7.097661356467971 ], [ -0.11854022085031914, -0.2520344910337922, -1.0870562070696694, 0.5686898938147483, -1.8526360947975542, -1.2324512393860287, -0.22681984821546078, 0.4191609717002187, -0.7839041963707561, 3.468084371399656 ], [ 0.8083248961927803, 0.471376878230727, -0.5981593222056749, -0.7848620426002615, -0.7812289349837648, 1.4459097850856095, 0.642658321555614, -1.2344544919653055, 1.071850058113198, 0.29945365637936616 ], [ -0.07304475858140964, 0.2532847762150406, -0.5449068631732082, -0.7063627152349783, 0.7352213122604287, 1.687740017078814, 0.2596603462227075, -0.336879870030445, 0.4388166145941387, -1.5815150902121133 ], [ 0.7158245739969569, 0.28614195218685445, -0.8455646752775362, -0.8536393651203008, -2.13363772051874, 1.2625101162626808, 0.7374909472080783, -0.2829857121936386, 1.3697846938958649, 1.140056654447445 ], [ -0.6238424759825903, -0.1685946370274319, 0.5313540240367541, 0.37182667559892346, 1.7504958108543833, -1.3322473857116708, -0.25503700648993216, 0.5300109225602194, -1.041090417258773, 0.1775702890070141 ], [ -1.0119594000496972, -0.5256909066299819, -1.336091347165475, 0.5354569252681828, 1.9772604929878017, -0.951703440059699, -0.4918942753657825, 0.48676870534292166, -0.7132230064225663, 0.34034509749292924 ], [ 0.3187541057119728, 0.029728690864577703, -5.313960839358745, 0.2381569034260652, -8.83023202999356, -0.7544865823789426, 0.34606635785503564, -0.08441904297474141, -1.2340246338012348, 8.15092711973058 ], [ -0.919158081509983, 0.32824098326072126, -0.7693108097862558, -0.47434381070329684, -0.7468428435323515, 1.4296662929796218, 0.33683757477558546, -0.8287672101529016, 0.5516754445165416, 1.709194795900272 ] ]
  }, {
    "Size" : 1,
    "ActivatorType" : "Identity",
    "GradientAdjustmentParameters" : {
      "Type" : "Momentum",
      "LearningRate" : 0.01,
      "Momentum" : 0.9
    },
    "Type" : "StandardLayer",
    "L2Regularization" : 0.0,
    "Bias" : [ 12.404930658157989 ],
    "Weights" : [ [ 3.9914248145911935 ], [ -9.191584234577942 ], [ 3.5266723456606366 ], [ -1.9274697381201398 ], [ 5.460670629508512 ], [ 4.143699172593375 ], [ -9.681374306990898 ], [ -3.0561629323181974 ], [ 1.9996196583414276 ], [ -5.581005932177434 ] ]
  } ]
}