{
  "InputSize" : 7,
  "BatchSize" : 16,
  "Layers" : [ {
    "Size" : 30,
    "ActivatorType" : "Tanh",
    "GradientAdjustmentParameters" : {
      "Type" : "Momentum",
      "LearningRate" : 0.01,
      "Momentum" : 0.9
    },
    "Type" : "StandardLayer",
    "L2Regularization" : 0.001,
    "Bias" : [ 2.25156669913464, 4.893671363807778, 1.6756162512436474, -1.471918679940248, -5.815838427700058, 2.39210558824671, 1.2416607957222747, 2.7803431992184655, 5.481897433773474, -3.640176994066245, 10.443085207964984, -9.53264151917812, 2.6738610482024545, 7.276085333701113, -4.774400131774493, -1.2374227130918474, 5.270995390522601, -8.741440601644173, 2.4240499955231063, 0.125796291283536, 2.009377681176827, -10.160475473972763, 1.3914409215458596, 6.412361453958778, -4.556236839403985, 3.324470074054459, 9.2018622206501, 0.051899754872884396, -0.16287914516382138, -3.974403333127147 ],
    "Weights" : [ [ 0.10406355267855605, -0.5230720027071891, -3.2552230727714044, 1.9940412445933022, 1.799518300580449, -3.011189901679264, -1.6276670895402836, 1.5119603354933127, -2.3405157465158575, 1.2483617724364917, -2.418587368623043, 3.1752064357723957, -1.0813551344708472, 0.08285664435910209, 2.8108153395949738, -1.9751296852771112, -1.4400713442910875, 0.2859973808037185, -3.0865212696152646, -0.14805898655032323, 2.366898442291765, 0.9047585748108514, 2.582906267248633, 2.9683437865244726, 2.4979514615186917, -2.004182551621201, -1.896613994553581, 1.9320716445645563, 0.9373983572216354, 0.8205050381446951 ], [ -0.053468545955477634, 0.8971333354455384, 0.1752797476147035, 0.5003939713390637, -0.3769968021521545, -0.5129378973099501, 0.20594770134141177, 0.11741901733063187, -0.784967469880801, 0.1603085147724982, -1.6555386396182732, -1.3640986993360484, -0.12952978654805414, 0.09899656374206184, -0.18255142920489908, -0.6334774127988321, -0.44580182612982694, -0.17521515017818484, 0.4239405701423935, -0.6455707486711036, -0.7590576655387505, 1.7000207436681598, 0.03398815954117772, -0.165795639430597, -0.21703328222221274, 0.05085207608850786, 1.0179799737960555, -0.0025782176369111955, -0.036919411691712534, -1.0149065364962628 ], [ -0.18078816269862233, -1.2171247331707298, 0.5621384230826033, -1.0341384051358855, -2.2669997023214288, 1.05410402454759, 0.9252497049444762, -1.7521609595050376, -1.158893480714368, -0.3955854182109864, -1.0023430208516584, 0.5503797773555625, 1.4709734033139057, -0.5005135917125803, -1.464855839367962, -0.5855007181101237, 1.396480020470245, 1.3324404780012586, 2.0452479151530043, -2.4647636559268524, 2.4188906889502406, 1.821410916093621, 0.4797442656491462, 1.5516301377728137, -1.761134971550544, 1.9877782782323916, -0.9229820366917418, -1.2271499702385162, -0.6553080489900326, -0.9797166791243365 ], [ 3.185169658285876, -1.2062236342353554, 0.08769233807678962, 1.9958319201592523, 3.0250591222084586, -1.6844974819479426, -2.780287642842688, 0.5384653725526003, -2.4099335713630445, -0.16391628076441928, -2.096062734905454, 1.6278674427345545, -3.5577178029879106, 1.1870178928118942, 3.082656595474544, -2.5210426656207914, -2.7346467643560604, 1.6539826496268446, -2.2064875455030415, 1.5937173367694528, 0.8432969340537204, 1.7482825727372904, 0.38152454927744944, -0.09972140847475217, 2.6417407952835084, -2.303809719299117, -1.8099522258873668, 3.103426758632471, 0.7189817446415943, 2.9637637378012744 ], [ 0.652738193016712, -2.10709476208438, -1.5769992413776768, 3.626698961210562, 0.02851754597398624, 0.47345769108646885, -1.5281326834467077, 3.986255051402128, -2.650078012765706, 1.9987828356487796, -1.9619143066994624, 1.2858955723114847, -0.680319649873376, 5.310224086185409, 2.931884474516533, 0.7225320042780089, -1.6003507735325826, 1.6598146953522377, 1.6303116041291532, 2.6048283448600635, -1.1208372535469204, 2.440569944979802, 0.6333857427867249, -0.2760887626283387, 1.9885725501454259, -0.29389415625086046, -2.4874020320958996, 0.8662628745681915, 3.2449433364392, -0.6664283250376228 ], [ 0.12931956225682117, 0.7949319934187942, 0.33776127768950776, -0.37854724511807597, -0.13899958191736428, 0.20900361943158072, -0.1625236892916962, -0.25352194604826367, 1.2410482243580845, 0.7225325866790044, 1.5806387333626146, -0.6730343383922371, 0.20557744477120043, -0.16527972840924976, -0.276750401254107, 0.2992559937348534, -0.7339664673284972, -0.2483351203672195, 1.0637713183256876, 0.17702329577432319, 1.609994548308765, 1.4337669576405594, -0.1322350128563388, -0.11086958313883408, 0.016032590662742083, 0.02393737201555567, -1.164375764074688, -0.4385446605125282, 0.47309416890115535, 1.166803886945097 ], [ -0.10904275744651844, -1.731056059811665, 0.23073701023906684, -1.4127809891835588, -3.7070353510995053, -0.3004598052332057, -0.1878779844601407, -0.2743588125944054, 1.8222605937179195, 1.9620198227766872, 0.27967703222912554, 0.3373723625832742, 1.9782443773620422, -0.8481758489778957, -2.058824645525917, 0.9065939505324425, 1.9799263482056906, 3.055089476009234, 1.7025541925225876, -0.7855137127769554, -0.29856732867929936, 1.8421424918990932, -0.6692087775916105, -0.4805720658920689, 0.9059543828252826, 3.1773922751611203, -0.5993234887791214, -0.5122704970135719, 0.18857290591596293, -0.7193893819596622 ] ]
  }, {
    "Size" : 20,
    "ActivatorType" : "Tanh",
    "GradientAdjustmentParameters" : {
      "Type" : "Momentum",
      "LearningRate" : 0.01,
      "Momentum" : 0.9
    },
    "Type" : "StandardLayer",
    "L2Regularization" : 0.001,
    "Bias" : [ -1.285272464466173, 1.18901521901963, 2.3442327140820587, -3.471055730727652, 2.7220387585685537, -3.3629427671098577, -3.4532777955635248, 2.6284193556337736, 0.7127382982801347, -5.16150531324309, -3.0684807224920423, -2.7850683364631137, 2.684888665785607, -3.451709291022369, 0.6581857550479805, -4.632701944140411, 1.6018131192506984, -2.326559489870398, 1.381110769318634, -0.43810380070073773 ],
    "Weights" : [ [ 1.8386681672597986, -0.03875460761375161, 0.11731910496780147, -0.03228977765937322, 1.6361275215498603, 1.2861887073853286, 0.2235055848426107, 0.02518401073277213, 1.543933721380163, -0.1710219605621344, -0.4822115858700319, 0.033782471704062456, 1.7349305295809008, -0.508451812465177, -0.09031377060413895, -0.06935984307239935, -0.3265632721248841, 0.10737883053432139, 2.8265538610525556, -1.563521258786341 ], [ -1.0778300293897134, 0.9255800090716515, -0.7844765683662919, -0.7103472771996862, 2.3190047331985038, -0.22910263614345097, -0.47114962155123735, 0.22540143571271024, -1.225460132343913, -0.2808014373200276, -0.1543445123454241, 0.870332859925196, -0.6332845084968002, -0.8146394024828955, 0.33197268998068014, -0.7016625633479303, -0.07844308120300342, 0.01429718120148737, -1.5123330059019957, 0.6751055469781388 ], [ -0.7418776213678431, -1.3255734615871964, 1.6733845756144095, -0.006765824070519679, 1.2676301371315133, -0.6852614367210638, -0.8914696969608674, 0.0555768494597078, 1.5277625039436884, -1.8312436317674698, -0.43030139972047166, -1.6618318644474144, -0.310524989390274, -0.2829787454631571, -0.8549911538648821, -1.3813507206564244, 0.6680856243271133, -0.4453432050613613, 0.19095727646598987, 0.11475928124202298 ], [ -0.6303080405840747, 0.5477893261788361, 0.297747996277854, -0.025904878920149265, -1.195413359606069, 0.5153940226675745, 1.3588402574248015, 0.025909620261588617, -0.6694791835167367, -0.18737529472527317, 1.5900857212349995, -1.0568109112293238, -0.9217101641114155, 2.7588610904636752, -1.0807873831292438, 0.7364614937767888, -0.5423478671220494, -0.2501963059156331, 0.13132276247617625, -1.8199371331452476 ], [ 2.428767863886271, -1.5489435593391812, -0.026407993303884263, 0.23858853204776065, -1.012322405839481, 1.0174876926959109, 1.1980015596929712, -0.8910316646615594, -0.4822171132845643, 0.7403106185164415, -0.028502873770487505, 0.7192991116059338, 1.3102663352710295, -0.5255177026990704, -0.895634918427773, 1.4605382712298134, 1.6253582064739354, -0.24762054858932075, 1.6829550171658165, -0.46802881091408866 ], [ -1.098973363755422, 0.5605814318190263, 0.003103976002227545, -0.046648739947153156, 0.4736220635914641, -0.1072197180906051, -1.5325316170709844, -0.01658713643643976, 0.44880137224673866, -2.708294830220995, -1.1404621063365028, 0.8176021301405242, 0.6091349043243285, -0.6879287750230979, 1.1068396135054817, -1.1712008504043137, 0.08565262766050238, 0.39080221851516506, 0.15404273529621243, -0.2802000199754182 ], [ -0.4762176651614432, 0.7631255454983916, 1.4396434744623707, 0.03227563255943076, -0.8943765596425106, -0.018765749009215127, -1.3294013502105957, -0.02545878339069327, -0.4977913514359977, 0.008512639244680752, -1.859127003774557, 0.5938080630062755, -1.0188966791231993, -1.2830110047668604, 0.1420500508142257, 0.503820847165488, -1.3063582140208017, 0.06552204860759311, -0.22994648506288, 1.0900207391901493 ], [ 2.105999565814594, -0.026855174689860595, -0.035612231074654374, -0.03173444876387195, -0.11287898187446918, 0.46598593799232285, 0.4132046499693021, 0.025518577829458027, 1.0630050879077029, 0.03663477495322193, 1.522725773608027, 0.6185759023075882, -0.5341183247702208, -0.2646160976287294, 0.7472525965950326, 0.05296181292496855, 0.991051138850388, 0.0759645345640041, 1.1920376782955213, -2.221174510436345 ], [ -1.0574339479748003, 1.141134662968973, -0.3407838657820316, -1.513525390080855, 0.4377547200722035, -0.6391067167738091, -0.6398576931073447, 0.10703559608963203, 0.03320637651973385, -0.6039101926589372, 0.2242341923896719, -1.009723733823063, 2.0565729352823876, 0.3883382808812172, -1.0703494104327647, -0.6574521828425862, 2.330164699079258, -0.6795287771390645, -0.7454320907580922, -0.06339122155445165 ], [ -0.029839008414169126, 0.24644869112482873, -2.3187788205504156, 0.06470217376005741, -1.8032413112496908, 1.041884626888916, 0.6846791684001245, 0.21910701409186725, 2.2016006253909195, 0.766681394578919, 0.44168267415617346, -0.4562986323514543, -0.17371654978262568, 0.28260736633220473, 0.26316433829070734, 0.18331987689641333, 0.4369537590809847, 0.5728898122397953, 0.0870573315218671, -0.18362361282947243 ], [ 0.0020556153348146354, 1.1125243604953647, 0.1260932206656686, -0.8374396910625134, -0.5696382504553855, -1.2685206294807663, -0.320070910020328, 0.797323189590006, -1.8121638802571582, -0.8365215523686945, 0.2146450517608053, -1.0971607891642503, 0.2050628555608792, 0.7524353989573198, -1.3615929499226695, -0.41829286545829697, 0.19059357923534262, -0.4561954791878941, 0.028894544974769062, 0.1017761316681146 ], [ -0.34089616561765973, -0.14778025176187431, 0.09545360705558595, 1.2356776934759497, 0.4712373715605729, 0.14700589211467502, 1.2825892641934138, -1.6773000322461447, 0.5630860738228528, 1.0439965990385154, -0.0473616104343275, 1.1388766941361992, -1.0876340449210529, -0.42341594260377363, 0.7305404063926487, 0.4693231125338915, 0.6879007710423948, 1.121180342250896, 0.3295319844487864, 0.5402909605503204 ], [ -1.0209125622122073, 2.8798992227147764, 0.8461354079965824, -0.21784172673263608, 1.0590931727008268, -1.2379472465311125, -0.20785116850171562, -0.013030719433093054, -1.11646191623338, -0.11720075010585579, 0.4623832174752126, -0.4580037033325239, 0.8204598546838923, 0.34422190338725245, 0.5468171396379589, -0.6669568365090016, -1.7583919549861442, -0.15807587845901483, -0.6507522688677858, 0.08705410046264149 ], [ 0.5682147628957089, 0.060571830532413794, -1.7674757534899668, -0.0323065899652233, -0.113506804128642, 1.162548332600889, 0.12615193571506575, 0.025134219506224163, 2.277172316760236, -0.1916813446232521, 1.0365671326505101, 0.06489170932364885, 0.0045325538797749716, -0.06370797332605203, -2.5362460131327222, -0.13637897191791631, 0.5420503006640708, 0.06274391446929947, 1.811961197217209, -1.5524974261109916 ], [ 0.1223232668839987, 0.9857153943293241, 0.4160184160910605, 0.00432303299642685, 0.39782717863006556, 1.2962210638853837, 1.306616659778246, 0.024817442636257344, -0.9412566101323425, 0.4208981200365001, 1.7794604681008115, 0.7180654511416188, -1.9873255174375133, 0.44232904144854174, -1.2992357457463366, 0.5704489634506552, 0.2293156026898428, -0.5144549028653879, -0.303868037911419, -0.6308751010819341 ], [ 0.009788024076679712, -0.15660890530155194, 2.2402705746663836, 0.03171322760251591, -1.1410565829164883, -2.5929613969192835, -1.007232598111158, -0.024937819870072618, -1.0516933036316705, 0.18687106564201936, -0.7757712691919767, -0.2065991080155421, 1.0460573541031712, -1.1423417603823267, -0.709212746538947, -0.7275894574793255, 0.4229218010555107, -0.02813332836937885, -0.01988210265634248, 0.08061931644582604 ], [ 0.47867602100313267, 0.7939134375140664, -0.3039641843997025, -0.6833696495154897, 0.5018483454586041, 0.6519152556898717, -0.6424564332205167, 0.7437848078784727, 1.3767916009065095, -1.2997849877439744, -0.9057654359406587, -1.0445351997367378, -0.36801718422302554, -0.566998136734837, -0.9084667767213049, -1.1923639695109831, -0.34446330429106714, 0.48813721795549886, 0.12462279655911895, 1.2221399564597195 ], [ 0.49553226954701723, -0.5692484824289037, 0.2803902329044928, 0.6517667005072998, 0.30966776611274166, 0.26397959447826747, 0.8107684183928371, 0.45271442822703545, -0.3657574973777742, -1.2738592773551347, 1.463106550436431, 0.7215123474057448, 1.01231763233288, -0.004168440138714845, 1.3117328519964828, 1.1869197559205311, 1.6213930017167066, 1.1060457306343372, 0.14211026561040846, -0.8209832882231612 ], [ 1.0494375663131235, 1.515543470606848, -0.4033010345366622, -0.6401100730747055, -1.3028867265817472, 0.21655611351242815, -0.26238118533742055, 0.291135667786583, 0.7639683594768327, 0.001952845726016974, -1.1304429470561348, -0.7838982690605704, -0.21493005705181434, -0.346649007462036, -0.8984465595335481, -0.3790381825184306, -0.0055226768404892995, 0.0530951913480266, 0.6792041537322971, 1.887879227510871 ], [ -0.07926531278724018, 0.7308741367223702, -1.5497734858059753, 1.6077679374492002, -1.6260526056478994, 0.21237473205269264, 1.0691258998761086, -0.015949885473303036, 0.009998800449694435, -0.984130327995509, 0.5790064478245998, 0.5138590661744131, -0.14818165494975669, 0.089204923550784, 1.6840464434959965, 1.2155221052504295, -0.542906632154136, -0.19506543042813354, 0.7206842658161525, -0.15165076077776182 ], [ 0.22933897784946403, -1.2729947289682935, 0.44313092606371796, 0.018941348931791505, -1.2765256208225415, 0.19883121151868557, 0.05049910404977752, 0.015657072726449995, -1.3431702651224822, 1.9329115123579634, 0.2032999871302455, 0.30228907797986065, -0.713274498221263, 0.4505447931360635, 0.5554679980985014, 0.7987153303467023, 0.6708706682567326, 0.07474013653464588, 1.1319426374904795, -1.5440109049041575 ], [ -0.9319935537726894, -0.5485384067699767, -0.1577854153626069, 1.719115790460458, 0.6501776579547812, 0.07180209370928714, 1.3188580483878596, -1.329819332428486, -0.013016455868460881, -0.032995191255670145, 0.45173643547099446, -0.01550231989781513, -0.49095175447806366, 0.017217477359506638, 0.8781787243652363, 1.341417234727008, 0.409314332541476, 1.4828084696224995, -0.1043679569820453, -0.9954936250225352 ], [ 0.4498439774698337, -0.581177659795065, -0.9300729249638686, -0.019118632274107254, -0.252308314476975, 2.557489318174207, 1.5983963307160416, 0.024337250964288695, -0.07620251232284869, -0.15887322868196474, 0.5433822669296174, -0.032889982788939814, -0.940406563817282, 0.5681567683244907, 0.7928084801033497, 1.834700503773428, 1.7137774878839336, 0.06846383854149965, 1.6860266395746006, -0.25935484566615613 ], [ 1.8962546531611293, 0.050781025903180094, -1.2117019536397193, -0.031875701001351106, 1.493115070549633, 0.35074961227463325, 1.327365280297817, 0.02514313681377161, 0.758321401922599, -0.20020296842746352, 3.0534535925582045, 0.12065713938020059, -0.06440367240790607, 1.7463858144409676, 1.0741950655034707, -0.11398982576889498, 1.2680513762324164, 0.06283124767537185, 0.9963595084293606, -1.4664478234079752 ], [ -1.2777093203808592, 0.11738403216099577, -0.6074377129163485, -0.029709092792742194, -2.1236759908541356, 2.270780530757985, 1.5402956199719884, 0.02835187950472132, 0.5354470403066682, 0.8377799021212838, 0.8610225963422184, -0.6196696004660438, -1.5533676892072945, -0.748386624617367, -0.9950601821604548, 1.3795207529855762, 2.2461819107621426, -0.3853566073412295, -0.9216809087135479, -0.26134476090080994 ], [ -0.7219337896797625, 0.18367959826851496, 0.44490624627869335, -1.2096644615120082, 0.3425919555585044, -0.19707404762718117, -0.41613699915440805, 1.383235813071673, -1.1031250805632742, -0.08381262565896067, 0.23116744907059378, -1.263814863775806, 0.00527155391151494, -1.3674132726361852, -1.0546553960800047, -0.8782968586690343, -0.871609641241769, -0.20731051812264548, -1.713881037469122, 0.019038573574022433 ], [ -0.6382823236840566, 1.047928115629064, 0.013261189959669168, -0.7425938759943367, -0.5644195746997597, 0.08763900485606127, -0.8460852427204982, 0.29906580873035754, -0.7388186292059996, 0.3399693849272389, -0.47807245153681704, 0.01883788433569691, 0.9921468954343401, -0.6162026131736453, -0.8428543940196946, -0.77581770478539, 0.8105463257330007, -1.9422542466764423, 0.0671184965138909, 1.2627594875401698 ], [ 1.9917884093409806, -0.15004637242491145, 0.8439941284409725, -0.03224368732534377, 2.268539893436431, 1.2102637203359266, 1.0825252680398887, 0.025131381317370874, 1.6691839033861626, -0.20108081549491857, 0.9690610846567175, 0.1756637907844967, 1.9243769383703366, 0.26512461238484053, 1.0280954281211854, 0.015091010347925978, 0.4380391013591545, -0.30258028069471665, 1.6663821256952258, -1.004236329996843 ], [ 1.4316802882336621, -1.2861807579395776, -0.5868922431037905, 0.02077392974996356, -0.11498873903377874, -0.13969575527774708, 0.1499470817835076, 0.02701279937908629, 0.5200533488188287, 0.5458561990479772, 0.7484609982656609, -0.9673337277931388, -0.716170876738329, 0.24321675327842676, -0.016824637071941782, 1.8446274872754016, -0.28222817781545984, 0.07756302748095364, 0.5462867462113054, -0.40504613542959716 ], [ -0.6334941256060385, 0.22397563612560914, 1.8594527718109417, -0.3796620104632479, -0.19703145232320954, 0.6180651869518172, 0.10678931776262154, 0.1299707297238267, -0.6125488627190655, -0.3497378721304757, 0.559335280865694, 0.27175341356703603, -0.9066894578220238, 1.0524270786157406, 1.2283599107502658, 0.7605615645837551, 0.8177302726748176, -0.046294694069566024, 0.2018844112777425, -0.34697227353516763 ] ]
  }, {
    "Size" : 10,
    "ActivatorType" : "Tanh",
    "GradientAdjustmentParameters" : {
      "Type" : "Momentum",
      "LearningRate" : 0.01,
      "Momentum" : 0.9
    },
    "Type" : "StandardLayer",
    "L2Regularization" : 0.001,
    "Bias" : [ 4.194674231388566, 0.5048734092831354, -0.9760230714218712, 0.1643459184186167, 0.876619080141909, -0.7533131889688957, 0.8504686808570879, 0.7546407257849123, 2.929024241787223, -1.5505782179187435 ],
    "Weights" : [ [ -0.09003973034658552, 0.024849115303688087, 0.6845547847387874, 0.43841906724944896, 0.9377094545508617, 0.8023616451568389, 0.8716426288693276, -0.29104381794809986, -0.0166151018752975, 0.49579396947697985 ], [ 0.09117215825335527, 0.3866771445621357, 0.3558000992212599, 0.5792373524027273, 0.7696491818910748, -0.5761782515891093, 0.7052860250075436, 0.1956864568943294, -0.08086828773847354, -0.39706109787667726 ], [ -0.12035711802389759, -0.12951436699855762, 0.919383856561447, -0.46137841270862856, -0.7038844153003961, 0.17373491890112425, -0.5751680897346899, 1.3057777521152196, -1.1640774508456424, -0.5158977633433708 ], [ -0.09307400200927515, 0.13999208458019907, 0.7490129181835917, -0.9168426834793693, 0.021535038563022704, 0.41011443708396444, -0.026790608947737004, -0.04721351272878117, 0.19005547225019878, 0.22528010873288468 ], [ -0.06229251577957716, 0.2638398508908248, -0.552487162851673, 0.5205440082183262, 1.2318704189060132, -0.6056644900533688, 1.3374535397004288, 0.7171925279128151, -0.11761622327229011, 0.6570923712613814 ], [ -0.08893709313980659, -0.12225626969459968, -1.0619834930426633, 0.38573050467765146, 0.7214537648203679, 0.8133004465222763, 1.101436658016998, -1.1093696208928785, -0.7093520789699062, 0.7757122899337455 ], [ -0.09269374557276709, -1.0469613062117586, -0.34490107738585984, 0.6222208090451268, 0.03283622311284668, -0.11830010536971468, 0.0015649380705066653, 0.8900393646773247, -0.11748070735395992, 2.208774512921966 ], [ 0.0935751133684642, -0.14388208568486138, -0.820575720024371, -0.19637940775002152, -0.01365186465614142, -0.10855423943236484, 0.04700699141884462, 0.04496529691236976, -0.15654205527421713, -0.17531148188511184 ], [ 0.27504236573220736, -0.07348813419688621, -0.6229196856593527, -1.2702860025598592, 0.6118924350344567, 0.28288418921748704, 0.7684956869342867, -0.4615191257967621, 0.531172683153159, 0.711605872085132 ], [ -0.0932949017526245, -0.632527051485088, 0.16514401655533817, -0.571704664442248, 0.013021268926899527, 0.6081166224119191, -0.04604331621235474, -1.0001581916201947, 0.18995702576411735, -0.1834574012080103 ], [ -0.08587459818033541, -0.2544493951270103, 0.6711959926476564, -1.0014992751428917, 0.22737098499104794, -0.821658693844395, 0.9941028314859113, -0.6341915104063593, -0.04848786338250283, 0.971126721484658 ], [ -0.11026135861342216, -0.30016534503169173, 0.5827388210068851, -0.4750695895332058, 0.4010941419162494, 0.37643931941433856, 0.8803892438510595, -0.34926650650798396, 0.1863225181479365, 0.9106246359810469 ], [ 0.49754561029571825, 0.8875150508487726, -0.24148672158642076, 0.19906929380402308, 0.6768713625790409, -0.47864640408647424, 0.2613576330922676, -1.4301979096203408, 0.8587204251261984, 0.4241586349288046 ], [ -0.07462461514074356, -1.5362566853834114, 0.3250330916437254, 0.04784297460600057, -0.3002764289821917, -0.3331732836332747, 0.8720030859523822, -0.3248992587612692, -0.011922248350042628, 0.4545788295029506 ], [ 0.28013915274000306, -0.013212195083678676, -0.17900086835191367, -0.5819673778122352, -0.5357821873704833, 0.6175221864971153, -0.851798239867056, 0.12269212209975898, -0.36563405528679765, -0.6737781478703961 ], [ -0.0924851289163092, -1.0124376022915953, 0.16459272676183295, 0.13747185624055172, 0.032760049811789566, 0.8034831828648421, 7.103433857967966E-4, -1.1871471619212746, 0.3811048914241133, 0.004741239313270035 ], [ 0.6708402413126708, -0.41165416484250966, 0.8004591162315134, -0.021811952527103887, 0.6045321533993377, 0.970429271944775, 0.9125853980135749, -0.4125659628956498, -0.2923778429694775, 0.28063475618841016 ], [ -0.09329106269736187, -0.32226494469161004, 0.48878373967476324, -0.6441366213305716, 0.022633186138783318, 0.5504875254648726, 0.07939242307398497, 0.11893393122965852, 0.19355185445487172, 0.2682307869874511 ], [ 2.0505880428585153, -0.14351875390345084, 0.3373409095436141, 0.41365642543319203, 1.2716927724118288, -0.0799636252680555, -0.11348944479400158, 0.0524744033072546, 0.7365629069004292, -0.11779662919000856 ], [ 0.0353417710851082, 0.15478685720970964, -0.23941331885768907, 0.23391269834712375, -2.0168984438130115, -0.6119632186825026, -0.7461878547770802, 1.7443976987990233, -0.006973666263628636, -0.02705893637505225 ] ]
  }, {
    "Size" : 1,
    "ActivatorType" : "Identity",
    "GradientAdjustmentParameters" : {
      "Type" : "Momentum",
      "LearningRate" : 0.01,
      "Momentum" : 0.9
    },
    "Type" : "StandardLayer",
    "L2Regularization" : 0.0,
    "Bias" : [ 11.248529083816296 ],
    "Weights" : [ [ 5.771865440400463 ], [ -2.549903457705338 ], [ 3.561408888046408 ], [ -2.8030766620265677 ], [ 1.2095712262734912 ], [ 2.809512104843649 ], [ 1.4151981574195251 ], [ -1.4649647358654319 ], [ 1.9454950478993087 ], [ 2.077981102832719 ] ]
  } ]
}