{
  "InputSize" : 7,
  "BatchSize" : 16,
  "Layers" : [ {
    "Size" : 30,
    "ActivatorType" : "Relu",
    "GradientAdjustmentParameters" : {
      "Type" : "Momentum",
      "LearningRate" : 0.01,
      "Momentum" : 0.9
    },
    "Type" : "StandardLayer",
    "L2Regularization" : 0.001,
    "Bias" : [ -5.399017100741147, -5.757655783931136, 3.3725114502844944, -4.2879540680915, -4.9382554014908955, -4.563287212770392, -4.9484569460791725, -7.6720256162926015, -3.0353657224144435, -6.374032448328558, -8.037463160663421, 2.4628475411011754, -2.84688544995808, -3.407316789697678, -8.472426307128003, -8.23193452652202, 0.4583251685227275, -6.300598077434537, -1.9166150384473344, -0.6092864416432574, 2.007940749449122, -0.9130913272400697, -2.997950897333545, -2.9318953769292126, -6.3920601709871585, -3.875337823125283, -5.897921264417885, -2.072268625657876, -0.21885462391599514, -5.414050813416287 ],
    "Weights" : [ [ 1.0815914772398207E-5, -0.1545100285204837, -1.7738626697763307, -2.538131478706072, 3.7237407220384605E-6, 0.21535546153315396, -1.7639377871450104, 5.220086336257257, -0.08426946417541402, 0.46484841533692356, 5.851105224291692E-4, -0.7581862975619988, 1.1041013592290823E-6, -1.3407624888262628, 0.05725357983869822, 1.2386728187673959, 1.2226490083790764, 9.15647569464707E-6, 0.23943679361263606, -1.0681572415732183, 0.329208758863359, -0.5345449034302591, -1.4531493710759087, 6.488287287732016E-7, 1.0364957742877252, -1.8345427825191174, 2.3463693946480434E-5, 3.9768266643171755, -0.15707993858671854, -0.6129250731641421 ], [ -1.5207868930186103E-6, 2.88305740693465, 0.09448191246619213, -0.10709423750674806, -8.582402193666435E-7, -0.04957050742232359, -0.2425826021637877, 0.024240761393848204, 0.12417967335857091, 0.16343969331970296, 7.1925196328625E-5, -0.10517196832351865, -6.552897438482709E-7, 0.27725154122417156, -0.017427843269330775, 0.059995681937900336, 0.1262326468162723, -9.648115103285966E-7, -0.0869869061119519, -0.048826259681750334, 0.09396137951487926, -0.2834449359493589, -0.0760473954486282, -6.558954228345286E-7, -0.0987831155976786, 0.1569357007896825, -1.6642617731025725E-6, 0.08412786016146911, 0.154990175007224, 1.573990810892201 ], [ -8.456638678055502E-6, -0.309266917824665, 0.2410629913630358, -1.8883887983109036, -1.381020051124744E-6, -0.030680999560173946, -0.83886574365158, -3.0358666384013553, 0.542686806014804, 0.5608872284268839, -5.472295980806162E-4, -0.3372861547194866, -2.4157500748988554E-7, -1.1554868306056338, -0.0503548653183041, -1.0607278706676362, -1.019548192752856, -8.857396594012314E-6, 0.4365580610138244, -1.2013333083354367, -0.7045189800526671, 0.7347858665038859, 0.6749520530897927, -1.896749780364149E-7, -1.2079873028418748, -1.3499559911300805, -1.8756446131776315E-5, -4.671870995855262, 0.7913185309730545, -0.7781563896798958 ], [ -6.894527740191473E-7, 0.1342084371434189, -1.7228939109530161, -0.4726011928344217, 1.4096280218980027E-6, -0.23610901036521445, -1.3858920132609611, 2.004973311869039, -1.1416001496992092, -1.1426001137723774, 1.4714716098545447E-4, -1.664345758433799, -1.136359039819624E-9, 0.5801528048607155, 0.016336227622592094, 0.14946149447843457, -1.8243668748652275, 5.304634463784088E-6, -0.12544859984667447, -0.2745095031211293, -2.4115648348019816, -3.3378920391154736, -3.886342183909128, 4.947145762494365E-7, -0.026785948691076845, -0.9384869119527997, -8.039545421234607E-6, 1.0254101666379256, -2.3619986265725172, -0.5612306707273089 ], [ 5.106070965408356E-6, -0.5297253739484737, -1.3944058899860576, -0.3445951721376377, 1.1445750468454142E-6, 0.18057404229743726, 0.18333503561780692, 2.909035739082519, 1.9612011469817179, -5.28968440884963, 1.804914253469209E-4, -1.3133765838493605, 3.024563755082952E-7, -1.7075433476637794, 0.027663199932285908, 0.7092382433607229, 0.2456924722186778, 2.2083102922878694E-6, -3.4521932674958227, 0.8519925492446713, -1.579567110354458, -0.19840048241425734, -2.023200806975945, 1.1795420140503138E-6, 0.19958004510961588, 1.0515339209073824, 1.8639109805347878E-5, 0.2724994499009692, -2.03072898875034, 1.606134329578766 ], [ 9.545231303806206E-7, -0.864539392522694, -0.01614808483155385, 0.3479270542210679, 5.2468514998928284E-8, 0.09472734863800089, -0.18120498184447648, 0.016974233132730717, 0.15847359980389497, 0.16679015177610362, 6.67915324319519E-5, 0.1258674300431557, 2.0637879062942E-7, -0.29374919678329076, 0.013764297160829242, -0.0681968761279929, 0.055187979391794484, -7.057664058944166E-7, 0.11633231261351236, -0.07811627218793772, 0.19033607061311858, -0.13298038893104325, 0.0836013013451836, 2.8743039436427915E-7, 0.14056408604929096, -0.3472624675785706, -1.5580778273452488E-6, 0.010160746819839535, -0.03180812586889951, -1.8051720612283175 ], [ 9.86143480006298E-7, -0.46304985793888664, -2.834664050111197E-4, 0.31099631411748974, -8.775158688655982E-7, 0.1820843557001062, -0.25413663509765216, 0.7574449483629794, -0.8925964602204512, 0.8442044688053064, -3.3271294149434547E-4, 0.6760612594827301, -2.1510397082013368E-7, 0.3191922296142074, -0.024181701131402823, -0.0945843617541668, 0.12153921534807259, -7.125579678475073E-6, 0.6325627308544456, 0.2876022192155095, 0.9983437729798044, 0.12420185914272412, 0.576232830777487, -1.2912921405119123E-7, -0.1582585940692168, 0.07473693822759532, 4.125320438435747E-6, -1.5805753866813395, 0.15578246685011615, 0.35127510303346965 ] ]
  }, {
    "Size" : 15,
    "ActivatorType" : "Relu",
    "GradientAdjustmentParameters" : {
      "Type" : "Momentum",
      "LearningRate" : 0.01,
      "Momentum" : 0.9
    },
    "Type" : "StandardLayer",
    "L2Regularization" : 0.001,
    "Bias" : [ -2.8458223746054214, -2.6421520912925636, -2.151001855846156, 2.150807836635091, -0.6211755207835198, -2.610832479514423, -2.7796951535753207, 2.8183398845002285, 1.2516361736241683, 2.8985493504608466, 4.392356942288841, -2.8810108465422766, -2.150102079989086, -3.0540886321293335, 0.6690437486194424 ],
    "Weights" : [ [ 2.1183181492869995E-6, -3.767200043904927E-7, -2.3782070341857073E-7, -1.6738005582378302E-6, -3.152637923257334E-7, -3.0871553871875365E-8, -3.43472052707877E-7, 1.6287396108152202E-6, -9.885130035581426E-7, -1.9444060574152992E-6, -2.987897105435193E-6, -2.2137798327871612E-7, -4.025443510880678E-7, -3.0688931738068464E-6, -4.7968926730145586E-6 ], [ -0.0753057503781621, -0.8293918299573383, -0.029987214994748754, 0.2904278018824274, -3.0972951101277467E-7, -0.6964590602416552, -0.21996405603341243, 0.2641555891584713, 0.42606434322634484, -0.5207966142383655, -0.7978430363328852, -0.48532250108237723, 0.19958811548988512, -0.007369456788511502, 0.05159445755791082 ], [ -0.21517301292658542, 0.014312123855610146, 0.3379290447706415, -0.750612479732046, -3.410024983927698E-7, 0.30052148864208655, -0.18055380532422002, -0.46298481368684113, -2.2717888083381093, 0.15633143438851466, -0.6638723243007727, 0.5486041353369603, -0.15508701547391537, -0.18077606529339774, -0.17992954623115345 ], [ -0.00285068218019495, 0.3548099208714312, 0.6016388167876812, -0.1700510415099332, -6.831752541664057E-8, -1.0281881672498085, 0.12078724843507005, -1.2334909772949603, -0.6503862452253306, -0.7257352463202184, -0.2180249411442316, -0.041068012185054, -0.46723735478415046, 0.022875756248787515, 0.30081209408912296 ], [ -1.4579809818302658E-8, -1.3893107171465973E-7, -2.2949657209335607E-7, 2.611774178859964E-7, -3.6344951517466496E-8, -3.377485446651733E-7, -2.679600160099595E-7, 7.016949799795044E-8, -7.991376399532742E-8, 5.343784575849128E-7, -3.785794593719439E-7, 8.688615781014419E-8, -2.6302464941284726E-7, -4.960698294129893E-7, 3.8714922707849626E-7 ], [ 0.2074764594551987, -0.11393916903576051, -0.19332592814196314, 0.02931084531054329, -6.019864980973155E-8, -0.28814765515781954, -0.015500032374765218, -0.038496240505546946, -0.19421564859435472, -0.007575332620482447, 0.0012063531316936404, -0.17332724899529592, -0.04339885434715907, 0.11810683999798416, -0.22795693089675284 ], [ -1.826498066724001E-6, -0.006631354122389258, -0.5883653448605672, -2.660916555864218E-6, -1.4267514858741947E-7, 0.6996495503533792, 0.17485185890426064, -5.165203583071225E-4, -5.564852248701979E-7, -0.002442371013569561, -0.15048670905317083, -0.6046073569110587, -5.317046892853706E-7, -1.8123400724510708E-4, -0.014552040031645433 ], [ -0.1944660492733048, 0.0613326727891557, -0.2853312372364536, 0.9045489264921838, -4.3019162509954986E-7, -0.3509892844836602, -0.1703660104248542, 0.2482888132650996, 0.5859586955758553, 0.28331820378869893, -0.021106470806483542, -0.8000458318047946, 0.012380396838195185, -0.0943260864818781, -1.6237752914905543 ], [ -0.10167513965838479, -0.006630091424262064, 0.07825336016050992, 0.35696141925742436, 1.3109643965125362E-7, -1.280993451490647, -0.1735643284996222, -0.4912321739968559, -0.7784351753379104, -0.4351475723266952, -0.16307755658430212, 0.5018135367019289, -0.027668740585892953, 0.048203767427127814, -1.3480704283122964 ], [ -0.010984869587755308, 0.010883521596361774, -0.47548088244696374, -0.23229646219369757, 1.5623036132186246E-8, -1.05771629030283, 0.7034860636528197, -0.46085806647526784, -0.884522512264443, -0.5672844868695814, -1.1149951216326746, -0.5941908346238214, 0.7189378898636224, -2.4895281466721453E-7, -0.014185151563240739 ], [ -1.578471648419188E-5, -6.941318173903946E-6, -4.13588932514721E-5, -1.2941085836235848E-4, 9.102399422200715E-8, 6.419802329562274E-8, -2.9021162688599517E-4, -4.14912295974026E-5, -3.257871464591106E-5, -2.449338470864981E-4, -9.300033959814426E-6, 1.648726818261766E-4, -1.5773633274369437E-4, -9.891101771309319E-5, -3.253915918152584E-4 ], [ -0.026416450010931777, 0.0038421466611816097, 0.4262992770858198, -0.5607696801796405, -1.6203608212786673E-7, 0.6079475055679153, -0.25233663999329115, -0.33630795883413667, -1.0206973297532014, -0.13459801592632162, -0.4696826800539345, 0.23427703097027347, -0.05168622042846063, 0.1376316557623097, -0.4052759812955738 ], [ 3.9204321541473426E-8, -2.298856274939E-7, -3.205875088027141E-7, -4.387724549709715E-7, -5.990732577890267E-7, -3.0471731289848483E-7, 7.6840369815156E-8, 2.127365016877257E-7, 1.603166411149384E-7, 3.661644522743483E-7, 3.1394838913362004E-7, -4.722393889710381E-7, -2.657177717776728E-7, -3.174174674178527E-8, 1.8756223176454918E-7 ], [ -0.002031042399355209, 1.3111315441730191, -0.387304260275698, -1.2491760511541037, -1.1042827210033007E-7, 0.7284750994552623, -0.32391435044328043, -0.428421420916364, -0.5439589548691673, -0.10041419902707628, -0.2637878649636379, -0.12183889049003319, 0.3348945420145263, -0.047337304011217385, 0.06272088108044355 ], [ -0.005258621481289662, -7.932856587735659E-4, 2.9544563473154804E-6, -0.004391200657623241, -2.636337754438125E-7, -3.245092081497168E-4, -0.02015321270724326, -0.010540686410286416, -8.483713838789484E-4, -0.006394255333131311, -0.009297475896886103, 2.6315428881501697E-4, -1.083139802016885E-4, -0.010469393123707503, -0.04020719259764681 ], [ 0.09878949427536145, 0.010724303860795256, -0.02398988184340659, 0.03069339186249599, 3.3174105071868043E-7, -0.026430851409563916, -0.014700953121286178, 0.07156629917147649, -0.0722169748998355, 0.07794483924698985, -0.1091688873105298, -0.017425914717374775, 0.050866025237578334, -0.06940835702451499, -0.6595685332592847 ], [ -0.060321424818603205, -0.19896224853272587, -0.15158174003294156, -0.24229626279272806, 3.38538701595301E-8, -0.4180006030983665, -0.4826472778653387, -0.12578233382773493, -0.5802648254150019, -1.426635711487645, 0.15571395167645813, 0.0673271121924596, 0.1963774823537011, -0.1396165209600711, 0.09750194542988448 ], [ -2.6708841047710702E-6, 9.332530346006713E-8, 2.826114911092578E-7, -9.875678487376583E-7, 1.6223929869489315E-7, -1.1260703623870377E-6, -2.4864402485294637E-6, -7.441186151633741E-9, 4.873317533280396E-7, -2.512388914381258E-6, 1.6270147339837716E-7, -7.623826865726364E-7, -7.689222303595481E-8, -2.3564108464563087E-6, -6.83193236148163E-6 ], [ -0.1237702302468073, -0.7410138381002864, -1.4501631755709614, -1.2501385461492687, 5.072602644940341E-8, -0.5311567634171646, 0.4649129640897648, -0.48274832915969074, -0.3504570153822414, -0.056292961491759795, -0.15677784370992426, 0.954546599815423, 1.0519568737148743, -0.002689696369202652, -0.16929036834345892 ], [ -0.020949386793517974, 0.17468411189072922, -0.3411961082119961, -0.35573574087413945, -3.242923236961257E-7, -0.35517896845062225, -0.22191610543831275, -0.4225982411177046, -0.3939859084963153, 0.338414263439151, -0.42684811485978197, 0.4459580977370378, -0.1969925638695598, 0.11140217970943789, -0.8738750228437533 ], [ -0.11386139449105166, -0.6341076416440059, 0.11127854707110785, -1.0249942670723422, -1.8930967418165792E-7, 0.4934468246418396, -0.1312683708953216, -0.5781427647311436, -0.8361590107549013, -0.7753800059742626, -0.12268014434049901, 0.4843876854342335, -0.1239663016633337, -0.07045162135993227, -0.2557340930618091 ], [ 0.01744999292826014, -0.037750833780509654, 0.7541009592985021, -0.6744960212055781, 1.8858206521454358E-7, 0.8977725318670945, -0.13639625187528573, -0.512273519754007, -0.640695558023319, 0.6914810706870381, -0.5682765495939455, 0.2346373779642094, -0.04048899306679796, 4.185774509893295E-4, -0.1598067335137924 ], [ -3.8379442592858723E-4, -0.04674412697857245, -0.6498343632516814, -0.001342394539040732, -1.3383228230564074E-7, -0.6141781040523259, -0.49696592397409395, 3.531007479150648E-4, -7.103308177491458E-4, -0.12110262337214163, -0.07872508051800783, -1.0685293714096007, -1.4952141013242215, -1.8050769966993813E-8, -2.8792085934561853E-4 ], [ -3.845892430302537E-7, -1.3669449614430571E-7, -3.245743700315317E-7, 7.743623550912888E-7, -1.7217998731491558E-7, -3.782626738598186E-7, -6.009839107174476E-8, -1.38148943189102E-7, -3.645450270720463E-7, 1.3574102327061862E-6, -3.986295766744796E-7, -5.1158034230398E-7, -6.500209156637185E-7, -5.525726406984957E-7, 3.803541540032975E-8 ], [ -0.11322458350678427, -0.22291500093743802, -0.06859188874085938, -0.04411999944767203, 1.4384975051885142E-8, -0.28434048840298504, 0.058155937348744705, -0.07653961117004647, 0.09267048770607292, 0.002827543533182162, -0.046702143141528124, -0.5121937697583009, 0.042946247444385174, -0.045909735865869196, -0.40480204496227973 ], [ -0.008541923011436341, -0.8534875022441797, -0.11101134487445063, -0.7591434077262346, -1.8297791338812375E-7, -0.33912781451930696, 0.27148514943943347, -0.2241954212465186, -0.27943692237701045, -0.7399244285114857, 0.013729607064667616, 0.36777447214578557, -0.09822628859008167, -0.14778699999901837, 0.3286998050325963 ], [ -3.851005465426208E-6, 2.362134600667243E-6, 1.4743887097223034E-6, 1.0304168917987548E-5, -2.0802092276390822E-7, 2.187130310814428E-7, -3.4783147663369295E-7, 5.951211520407459E-6, -7.651015801276211E-7, 7.891996953324387E-6, -3.137862242702689E-6, 1.629878563070646E-7, -7.674249977003111E-7, 8.986362786874984E-7, -6.028634001897087E-6 ], [ -0.022296377009745853, -0.35930983355411056, -1.3268966634567791, -0.6274470913771176, 1.8070666015827E-7, -0.6165811981925821, 0.7333154210865759, 0.7531120216165206, 0.31467942896029305, -0.8985750582764945, 1.2037619935811361, -1.1283791864411052, 0.2913315188600287, 0.11129534515319875, -0.4999778642893085 ], [ 0.03156777093451622, -0.08610804656464806, 0.06902812285737116, 0.1209075515175646, -8.81552452946133E-8, -0.9302292023658533, -0.29427579285742683, -1.3270382248572865, -0.364258118011597, -0.23314708026980446, -0.4148364240951459, 0.6713517898240532, -1.2632193890505172, -0.010036387003495654, -0.5453363541461851 ], [ -0.07696678315210895, -0.20064778612610776, 0.6501944534949629, 0.6421927851571807, -7.308798838283435E-8, -0.8296863231840725, 0.22955061247321162, -1.0448268092620718, -1.5638994998482318, 0.07981857319119426, -7.805777565294066E-4, -0.2780511386770232, 0.0018216528442236114, 0.004684210387065966, 0.9241484724061865 ] ]
  }, {
    "Size" : 1,
    "ActivatorType" : "Identity",
    "GradientAdjustmentParameters" : {
      "Type" : "Momentum",
      "LearningRate" : 0.01,
      "Momentum" : 0.9
    },
    "Type" : "StandardLayer",
    "L2Regularization" : 0.0,
    "Bias" : [ 4.104389480893953 ],
    "Weights" : [ [ 0.208792517504447 ], [ -0.41094956968209756 ], [ -0.23923679748031362 ], [ 0.9924421141496589 ], [ 0.41974013556205186 ], [ -0.14748384023764607 ], [ -0.5924061689309057 ], [ 0.9912581502819116 ], [ 0.9310653019847825 ], [ 0.4979494655427607 ], [ 0.9677327450348195 ], [ -0.44340281377239976 ], [ -0.3985948015617591 ], [ -0.8085659051389397 ], [ -0.6563790601844907 ] ]
  } ]
}