{
  "InputSize" : 7,
  "BatchSize" : 16,
  "Layers" : [ {
    "Size" : 15,
    "ActivatorType" : "Relu",
    "GradientAdjustmentParameters" : {
      "Type" : "Momentum",
      "LearningRate" : 0.01,
      "Momentum" : 0.9
    },
    "Type" : "StandardLayer",
    "L2Regularization" : 0.001,
    "Bias" : [ -2.3724107058043313, 0.20201091734262608, -1.9620663172959962, 0.4438592352102496, -1.3356903882483813, -2.426655519572328, -3.3326139767226595, -4.4271790624622165, -2.104160898203261, 0.00234532885074134, -3.1159429998602595, -9.617853988326564, -2.584521752102255, -4.075463986270587, 1.097508216362456 ],
    "Weights" : [ [ 1.3508129063741108, 3.5740203861636535, -1.9045828893035453E-7, 0.7402710637901427, -1.038868928754105, 1.1915592724156783, 2.322263179856916, -1.7937683227741934, 4.6093103715046935, 3.020857613664851, 2.915187141579216, 2.1578766748192093, -1.4983673758716982, 2.7092271573854343, -2.2794498097422626 ], [ -0.18477034733738623, 0.03909012074593523, 3.437916408672932E-7, -0.13877082502174887, -0.16702716744291615, -0.07828142824115034, 0.14214572662708452, -0.036793889457764156, 0.06678353522437071, 0.042095441988105796, 0.009334712064751761, 0.14735004599703908, -0.06349935759226125, -0.17305457690399254, 0.011082178597830429 ], [ -0.09756161370004683, -2.750148480042954, -8.845969298705753E-8, -0.18961345539895633, 1.0528195296827645, -1.1001388718627847, -0.3912960094873064, -0.15985824039540264, -5.672470719200265, -3.1306487516041894, -1.2578927021972097, -0.7000466061788203, 0.6538911762299864, -3.26669187702266, 0.7802261118822652 ], [ -0.2211369308362865, 0.559090621821935, -2.3437739108372476E-8, -1.7459150791036557, 1.0552023320529151, 1.2295255151324993, 2.0103916409972964, 1.9484461468867025, 0.9450995034234392, 0.9638972094175898, -0.6212969826077822, 2.417016450845563, -2.330596973387258, 2.3978154101804026, -0.7195156630463028 ], [ 1.8252692334591256, 1.720372729125691, 3.0792309175206066E-7, -1.954880849771614, -0.05594681681108394, -1.6563314737301624, 1.5850737782623519, 2.5267862241412318, 0.6943569456092331, 1.1413825479325528, 1.8441693130036192, -4.10424408040574, -1.8259217775553116, 0.09858264193027072, 0.057790116081426764 ], [ -0.23324977653933493, -0.06737428913444395, 4.1508017846404984E-8, -0.048214403238059866, -0.31057595696823603, -0.0179017377964048, -0.013683156612854904, -0.18814419595116702, 0.09645135208683499, -0.08980162881258036, 0.2294536991227282, 0.1288013408340566, 0.0679602057852553, 0.04522493627090211, 0.02914427904837897 ], [ -1.074926488817688, 1.144384762050947, -4.4317303667331805E-7, 0.4530819221127594, -1.8646010897308187, 0.30595712959341037, 0.11504391382060575, 0.20259759630521676, -0.5644552734694971, -0.24301790167261808, 2.5469369549065806, -0.635781109023602, 0.36785390784559246, -2.6634067878688423, -0.05157165549536918 ] ]
  }, {
    "Size" : 1,
    "ActivatorType" : "Identity",
    "GradientAdjustmentParameters" : {
      "Type" : "Momentum",
      "LearningRate" : 0.01,
      "Momentum" : 0.9
    },
    "Type" : "StandardLayer",
    "L2Regularization" : 0.0,
    "Bias" : [ 4.700520389904617 ],
    "Weights" : [ [ -0.6571365521297448 ], [ 1.2261930933847482 ], [ 1.1215840276293907 ], [ -0.8912387914250772 ], [ 0.4330874115697329 ], [ -0.5949929212872854 ], [ 0.8455996309960772 ], [ -0.9147435038220196 ], [ 0.9533474830676795 ], [ 0.9675892938848943 ], [ 0.7984094147156044 ], [ -1.1959838230704125 ], [ 0.8392196798832617 ], [ 0.8536634806792381 ], [ -0.8193214248802554 ] ]
  } ]
}