{
  "InputSize" : 7,
  "BatchSize" : 32,
  "Layers" : [ {
    "Size" : 30,
    "ActivatorType" : "Relu",
    "GradientAdjustmentParameters" : {
      "Type" : "Momentum",
      "LearningRate" : 0.01,
      "Momentum" : 0.9
    },
    "Type" : "StandardLayer",
    "L2Regularization" : 0.001,
    "Bias" : [ -4.14624246385231, -3.9900061026028824, -2.318907655179653, -4.081189500556929, -3.951873256036176, -3.018620256094939, 0.21330491561878812, -0.5956925380688547, -2.159049217298935, -0.4241722060009474, 3.7154739617325117, -3.494888769613424, 0.9738475242711669, -3.5891966721766795, 0.49783434297311774, -3.2691394938588045, -1.184733980353459, -7.433736195144995E-4, -3.722735198995875, 0.11582580915203919, 1.364471529846641, -2.8403995044657138, -2.5080145157425657, -4.296317041124305, 1.1988769142272067, -1.9614553073954655, -2.168415598999494, -2.855386589819881, 0.28830023946239086, -3.5388291084222914 ],
    "Weights" : [ [ -0.9085251606933714, 2.1748927400518157, 2.712077683998823, 1.504768077831202, -3.523666040730416, 0.027170922550690153, -1.4789185626770827, -1.5920783558470206, 0.14668457385429595, -1.5448179199803411, -2.1094363761173254, 3.1362475752124537, -0.9923604265688956, -0.28165442975441873, -1.0381099395071305, -1.9336594958674875, -1.6076653416454068, -1.5733378290998674, 1.187882220558085, 1.2465425654737892, 0.06625476115026947, -1.993292329073795, 1.597894952873112, 0.6881444929525841, 0.028572948012189965, -1.3531154130538052, -0.656928108308153, 1.3557331703615323, 1.1205591086372064, -1.1824603511763767 ], [ 0.768989699996771, -0.012905473741690172, -0.14027113372572025, 1.1726377709172844, -0.5659075817378781, -0.00981684569609251, 0.26923331203871725, -0.5184765021209579, 0.42415435129880885, 0.39428225318105214, 0.0376896750290692, -0.1151177896362541, 0.5007160967609071, -1.0027581286827119, -0.8507391423065384, -0.4676212575470692, 0.8224338595848832, 0.7714852236445596, -0.46732048861452474, 0.47323937159637397, -0.21494336425210858, 0.5714559352184484, -0.3768932210067207, 0.800003707246756, -0.011737736326375902, -0.8746745238701993, 1.1350258337433679, 0.7009840666608754, -0.07985506203184017, -1.0329590962321884 ], [ 0.989482761702501, -1.1236289426533859, -2.252391494490011, -2.3409754891478585, -1.7868890953668997, -0.021738828931104442, -0.45909844921359383, 0.9063923183425465, 0.8603752884523214, -0.7660092633202267, 0.8335818707813559, -2.0313350646482946, 0.2251864077365801, -1.7908149747210915, 1.125427969807028, 1.4107358787593771, 0.49551354625695165, 0.2593764516704898, -2.654512809742375, -0.23632483090745926, -0.19056694074921604, 1.707356612582858, -0.2881614480758458, -1.224500833499647, -0.07414446956491363, -0.727994903463274, 0.4587487228410522, -0.270953493009552, -0.79395246664431, -0.996703793241288 ], [ -1.5331565552510285, 2.36611038280102, 1.1741486117615023, 1.639386473127275, -0.7603057998115891, 0.018013366458379882, -0.5183274551010013, -1.2608235569267667, 0.33388136555417103, -0.507095914558842, -2.644216778255244, 1.0186967935494853, -3.923892999147531, -0.6660237763537621, -1.1036552290539374, -3.081677446464868, 0.8190676727917322, 0.17813583569728683, 0.43707026103814633, -1.871386189404217, -1.3048836901335095, 0.6650126021325561, -0.8878567804376571, 0.3726824021039908, -1.7530232889096993, 0.21564672649583946, -3.074266147710978, 0.5657316282771482, -2.898860576497749, 1.6610656976754794 ], [ 2.4920116780010613, 1.6771537114471406, 0.3272307054402324, -0.9380631025966522, -0.21292950011823622, 0.017598222834016772, -0.533562097389674, -3.6915851031636655, -2.8850423570512014, 0.056644991137002415, -1.6916099097359085, 1.1397841029577054, -1.1848711708468826, -2.8831628307364685, -0.31188524559189473, -2.9287646526337934, -1.0820439611981656, -0.5312997766274686, -0.1489797674578802, -1.2452111320655292, -1.9588318999681322, 0.08839045821097055, 0.7335166138582082, -3.3519797120334958, -0.07423890942310382, 1.1871745218750374, -1.1549127666210524, 1.22154574522111, -0.13577659540715598, -1.1494455552493754 ], [ -1.4407044144650945, -0.38863584950633695, -0.17853793533815668, 0.275678204597464, 0.5344835194459244, -7.952396173078029E-4, 0.4048029592211205, -0.3716261837817613, 0.7808043328509772, -1.1951141237280385, 0.013560179316690537, 0.6050086110486449, 0.4490486590307743, 0.39383652819173465, -0.4299152133750316, -0.09333175778401565, -0.10981443496394218, 0.785257940558698, -0.553279109965419, -0.2826191341910771, 0.220596656433669, -2.121438725328217, -1.386545651396717E-4, -0.4230689328850554, 0.21639204201174192, 0.003212846537432339, 0.6663389760129609, -0.19008309265746556, 0.4870823342651517, -0.29784653672824274 ], [ -0.7858363413773001, -0.57219749384054, -1.7992743216318365, -2.433734191618207, 0.4309075774273837, -0.016369695321548593, 0.6272853878196514, 0.5721551367843518, 0.06956448965818253, 0.2620382427585639, 0.6012678616486762, 0.3219403153587097, 0.7825853118691064, -1.4882862549922637, -0.5776529249815685, 0.5416480050138527, -2.4032658582796658, 0.051502184629829945, -2.5525182135532387, 0.802702227065923, 0.8140742623208134, -0.20525743441483452, 2.4577507635705422, 0.23071060681971942, -0.3226771562404342, -0.04360740567711496, 1.8784071901765176, 0.5987027539382864, 1.3168364533708898, -0.7546772002797817 ] ]
  }, {
    "Size" : 20,
    "ActivatorType" : "Relu",
    "GradientAdjustmentParameters" : {
      "Type" : "Momentum",
      "LearningRate" : 0.01,
      "Momentum" : 0.9
    },
    "Type" : "StandardLayer",
    "L2Regularization" : 0.001,
    "Bias" : [ -0.004257177592158554, -0.11891386855243426, -4.261911738473275, -5.683108401586576, 0.3689272172364788, -0.048089760030524974, -4.364481659919171, -0.9347509405697532, -0.4474049705662242, -2.929562717118077, 0.834438135342449, -0.8083688741907153, 1.0363975873798312, -0.13819104068821778, 0.6078164890777611, -0.3553549095051789, -0.813259661166928, -0.07236135449011846, 0.2998312487604276, -6.685450009399545 ],
    "Weights" : [ [ -0.6734187606583426, -0.1538860700881773, 0.1830316479577851, 0.16295210149501876, 0.5275021911057176, 0.5293701239800936, -1.8878921959107895, -0.12041906662607647, 0.35885633492262436, -0.2344826290628303, 0.42409358905460964, -1.1751599986754553, -0.590022262964978, -0.00890701969653791, -0.9893670501823418, 0.007561355708647515, -0.003982648988840879, -1.8648052084706377, -1.4662199529539968, 0.22726849264691765 ], [ -0.5965166923854319, -1.5566417212355843, -1.8783755074605166, 0.34457398815763807, 0.4472341556333592, -0.2536775341659157, 0.19623680737676832, -0.181232337678583, -1.2217141587104416, -0.04155615558283623, -1.2341114955053356, -2.2327380369151824, 0.6073131610118442, -0.008357427804290203, -0.8693415083401047, 5.660683151520505E-5, 1.73193483515266E-4, -0.006405622339938806, 0.42153263741470154, 1.0682629124313991 ], [ -0.176277468473521, 0.33181104258822725, -0.35654711495090174, 0.0045237828984009965, 0.6068870823498876, 0.4849010447453653, 1.1704512737182362, -1.588929674119288, -0.399960374680165, -1.1327337585999893, 0.49440922442948687, -1.2295613191627812, -0.6962078603662245, -0.008960093093810694, -0.10502674913409225, 2.1648757230413234E-5, -1.3523051607823775E-4, -0.5865266891929839, 0.6845546887695362, -1.001640070433168 ], [ 0.01060983534145733, -0.05411228166415517, 0.43346070449180607, -0.9471261278116818, 0.19198464991682615, 0.388443211018699, 0.39811135913309853, -0.14071999943645225, -0.28576183090918855, -0.48248600881581194, 0.6198802968687126, -1.851391027711322, 0.1763881338480593, -8.307503410528736E-4, 0.2592119271072458, 0.004889232378573497, 0.010196414210937544, 1.2303394240508858, 0.6404251500366984, -0.04682223283297544 ], [ -1.1281639319063106, -0.3443291330826731, 0.29748500010599616, 1.12055934719693, -0.009396076078274926, -0.11879518501425837, -0.8417906754995214, 0.7954819095815577, 0.4583545584881222, -0.6455236285763957, 1.2741306017846905, -0.5465145570387359, -0.857203520797386, -0.007869669952232225, -0.15707869958255632, -0.009091375041536193, -0.013455899837108827, 0.27675795712680257, -0.41225017437943756, 1.361326923768304 ], [ -0.019927730415311463, -0.0016507256000225373, 0.0023397852085999147, -0.008311609606271557, 0.006742961812594285, 0.0015456179538190706, 0.0012907084940791066, -0.008326217976858447, -0.024209546206172005, -0.01610989217559297, -0.0048538721207169394, -0.008708379218793397, -0.006283190071882782, 0.0028863427225969073, -0.006173507925250462, -0.002317944595792523, -0.0054633158630185185, 0.0054000271550828744, -2.147002851199074E-4, -0.0024720124727862793 ], [ 0.6099298420253939, -0.3462637886178981, -0.5795850156650326, -0.3557225880244737, -0.6398108709249851, 0.7227458959874485, -0.06965882219659152, 0.4518285240662961, -0.15135243089414896, 0.6159995766610505, -0.10422324479797615, 0.933921553919924, -0.4630757738597983, 0.003438703721853481, 0.051000802764224334, -0.00888926010094491, 0.005500310866027681, 0.6282762556582058, -0.43569308355925557, 0.21399255237524303 ], [ -0.5409945625394844, -0.5247588525809262, 0.8181876664893017, -1.2660135613925885, -0.2692199465332442, 0.42142467172026155, 0.2685682057401021, -0.35443318026308107, 0.6956492030006003, 0.5847900662886127, 0.6675154231337067, 0.8723487088667325, -1.055858420938139, -0.0032989739331906634, -0.43831232935128545, -0.006870496280380341, -0.006248575659207247, -0.5390953581358521, -0.34096089652512246, 1.0314892844658847 ], [ 0.16289300058218828, -2.4435793188550345, -0.1773269914185695, -1.5628073017692556, -0.9859973037074632, 0.7173210895640619, -0.8273728591892963, 0.006967037767364862, 0.5639306266499944, 0.27445762833672543, -0.46038988182865753, 0.3122990351736106, 0.19643371050006558, -0.006336342703902355, -1.0363702488792996, 8.926025880338435E-4, -0.014872744907107377, -0.013263070414974942, -0.029354037448275964, 1.4154100637575813 ], [ -0.474129085243972, -2.534961281071091, 0.7252756904656807, 0.9935997609696501, -0.9577823425881825, 0.5294510254780295, 1.1962837603175474, 0.3275375760597261, 0.11457116169531882, 0.005822107283273566, -1.9189785751207293, 0.22739842565853954, -0.42152852064982727, -0.022744307686444733, -0.1322130061476015, -0.018393944842153988, -0.0119054785369049, -0.3026869812702744, 0.015059362385387113, -0.9309079711771473 ], [ 0.8119087270662395, 0.25505087903878404, 0.4307548220854246, 0.3291294679487355, -0.6855729328391996, -0.7349484083793655, 0.03270722847980773, 0.6368317143019656, 0.2477937724764397, 0.6536913277283526, -0.42969216507580155, -1.4156741315670458, -1.4912064879036782, -0.007518747930883161, -1.2664165327280128, -0.00634119032886012, -0.013782286283906098, -0.4207967378270215, -0.19007739139735058, 0.3326721314342201 ], [ 0.4829157325069359, -0.16787310963469806, 1.0699606219076574, -0.004746027253633017, 0.07722933389890857, -0.5566967242786083, 0.4008762451927147, -0.8210929504776187, -0.7858723533885453, -0.5089598229748887, -1.7792705416169121, -2.1469463980254884, 0.7527987992989037, -0.006027114361810211, -1.5056345775228241, -0.0023559804126205572, 0.0037647030794795075, -0.69051782547801, 0.21792017724523263, 0.03908662196583306 ], [ -1.3700155024859486, -0.7873508265376401, 0.10103950079834872, 0.02197957161593821, -0.624460299961256, 0.8445972800349321, 0.7724071817941763, -0.5440319429751487, 1.0989713628994087, 0.6333275835994433, -0.6635695680619258, 2.672227049122169, -0.377731055427433, 7.351805775148728E-4, -0.019947977481822966, -0.013381700220361508, -0.018247289698097323, 0.9830107643089506, -1.027521789470973, 0.2053064645512997 ], [ -0.5940697599482879, 1.419557071399943, -2.072458123225518, 0.5056109127346913, -0.11183842457153322, 0.17135035159948137, 0.4889328756426738, 0.5605545369049312, 0.3258234234170329, 0.07600214883250281, -1.2516640430987493, 0.6834950728933376, 0.005772177895007346, -0.006187256664927664, -0.01366066150308207, 0.0017964828452684393, 0.003888451000857027, -0.07223378527761169, 0.9055571070059857, -1.7380618834753077 ], [ 0.45119237230575204, 0.750944619739516, 0.6972010858397355, -1.2917531902548374, -1.1617899820695878, 0.14264975953536577, 0.18446289443625263, -0.33857884736850646, 0.052885258047898426, 0.5656644749841324, -0.004953520081241429, 0.9479847042978804, 0.5595352169981451, -0.00329254505368812, -0.09273253032019523, -0.001983310241500742, -0.01879549710864178, -0.23890087299107582, -0.2707312942248953, 0.05851829534716549 ], [ -0.7642511706704622, -0.6091736385495726, -3.318979878418428, -0.7976150690822676, -8.275046451969094E-4, -1.3091367029317424, -0.42219572504422903, -0.34904689841223174, -1.7343814671712598, -0.5839926571024019, 0.9691350400769917, -0.13134413475690748, 3.805354551151163E-4, 0.0030115204535448876, -0.011604541985083674, 0.005795365222563969, -0.015219172398276913, -0.15429249790319072, -0.009743117612115599, -1.7089437574292734 ], [ 0.8678871224309647, 0.25182801221061546, 0.043917328695926926, 0.9886652452243584, 0.761814293874013, 0.04159375427563121, -0.4635088931105118, -0.9125786846506625, -0.5337831668102452, -0.4384140428388038, -0.7427832401892, -0.7592483212349175, -0.3858389905199718, -0.0045704119852820165, 0.2941181427693964, -0.003937893311602216, -0.006254245033457755, -1.4604438929295127, -0.3915945089311285, -0.19595717401139884 ], [ -0.6843982800717555, 0.1759919868362516, 1.2378635961390794, -0.1340737047657324, -0.9196288728031256, -1.141230160687233, -0.5238784837512822, 0.4274614769842156, -0.22841715272420351, -0.1693562702771268, -1.8812645730525728, -0.17872971129091067, 0.039633242643828136, -0.0022326902516365825, 0.24346547068524307, -0.014569455735689945, -0.021553742143667134, 0.5427665760716517, -0.08639035079842293, -1.1545750939357302 ], [ -0.2086625680710029, -1.0806630574436586, 0.3508757358413596, -2.670499542209143, 0.12391873655926688, -0.597286673179798, 0.46707443250792097, 0.6895059827493446, -0.3783137885111638, -0.8244754825630022, -1.0180567865859749, -0.5771474555662768, -0.06831184946208786, 0.004265113117045195, 0.23246089592493993, -0.013162748455532008, 0.0027736294182537057, 0.059191922047618556, 0.30460610509357283, 0.46962295054273284 ], [ -0.00543993873495271, -0.20698885277045947, 0.030164535629357732, -1.3539907285907158, -0.13435540734476148, -0.5762435233795821, -0.8381969556532773, 0.0715815616512978, 0.2598200673814393, 0.5595330531478321, -0.6744771507074906, 0.07905313184039145, -0.05498482389692816, -0.007490568976029155, 0.6832263115528536, -0.0058253007697297915, 0.004685337705352571, 0.6335528183591455, -0.8608979627900052, 0.3979196919157773 ], [ 0.3032794784071908, 0.36050246318085344, -0.21104665949837778, 0.7021108579902943, -0.5542215876267765, 0.4331780712739495, -0.7026871544502827, -0.05717012777963813, 0.3273793378372021, 0.42372889355657073, 0.4363873505228851, -0.40208289733792635, -0.7155395511190337, -0.02888007974949669, -0.5012309917869308, -0.02358818519386577, -0.012191133573636596, -0.6026677217386381, -0.1596355712464297, 0.3929220477422779 ], [ 0.1696871276229392, 0.6797759331204047, -0.2102282656321132, 0.4546988212269358, -1.0689229190539145, -0.18420781942296827, 0.23007574650922272, 0.13120569841786245, -0.1433836951263885, -0.7254066203883207, -0.2253555545069804, 0.8317059776491476, 0.29719742606868343, 0.008920300689388694, -0.4101129236682397, 0.0012927080415750297, -0.003840512049225593, 1.1733752184930943, -0.14507280558776323, -0.16105457509956148 ], [ -0.8988200164706066, -0.3613356711708207, -1.7437553111397424, 0.01790626708508823, 0.7915400333131173, 0.2609818720131915, 1.5698933041816918, -1.3692230319111904, 0.13838937925411146, -0.3652553180988027, 0.0686519930426298, -0.8496559813503324, -0.4775302155199167, -0.006466062129067646, -0.8272267730775791, 0.001370926141900089, 0.005192626012007565, -0.3667879933226183, 0.2684667998088868, -0.3116390293850195 ], [ -0.270896732348159, -0.3261615158432564, 1.2039800221407775, 0.7841492277697113, -0.3350336646106506, 0.07642569678988807, -0.20994628356818765, 0.4432618790679577, 0.019438507148313935, 0.3489146678146551, -1.014191685201634, 0.6675081075439956, -1.1247044277671603, -0.0032218180186389125, -0.6755339312980824, -0.0011894838078200835, -0.009815219836401589, -0.3529185451101422, -0.09332137529878685, 0.30719874532693964 ], [ 0.14085460610183653, -1.3533988765935956, 0.6651744120689851, 0.5243964673337155, -0.6786434318766622, -0.6313696659383584, 0.22213660481383168, 0.3885569965277082, 0.2077778915698167, 0.4947570413909968, -0.4201628116099447, -1.0367689549048413, -0.45274568356682, -0.0034511985594160286, -1.1062560817897686, -0.005148249927355976, -0.009396811527138909, -0.5564203301916805, 0.23999164652032695, 0.6087789193866612 ], [ 0.1075687750811045, 0.9116062862992903, -0.4581930007242486, -0.051510460809757894, -0.48456885094215035, -2.9335568098815132, -0.35787667439809084, -0.4466646071184069, 0.4572518987459125, 0.3806826698318428, 0.030706360412227785, 0.6938740348315262, -0.008346762659376367, -0.008357840125830676, -1.0370907822542474, 0.001842648664653105, -0.013341909093041447, -0.9378361845672946, -0.40701868143687314, -0.40343266917764775 ], [ 0.531553979618769, -0.02761634284222341, -1.6596289814139096, -1.2007760420339484, 0.2360117735585225, -0.1966196201427709, -1.808962559202578, -0.48965940395121393, -0.3555499175010944, -0.06102695754767492, 0.13223089246734393, -0.16099791171216593, -0.03583216797647223, -0.005434021263857955, -0.019874441508770834, -0.014550364224195592, -0.005543611545942803, 0.24291371137220671, 0.0034906461796875717, -1.4909690243086278 ], [ -0.642487712700908, -0.23764107259803233, 0.7042088681773507, 9.319737985670388E-4, 0.10636465070110762, 0.7028027753922432, -0.29855995622631154, 0.030468740574603352, -0.77947523883112, -0.2609755913952124, -0.17062045434551001, 1.2015001893889588, 0.2224169319803395, -0.005812106962811779, 0.3939435534180921, 0.0019710473499040104, -0.001483390116081723, 0.48601117109953224, 0.16275069719527857, -0.6878907929154789 ], [ 0.39096916116265207, -1.073600119486979, 0.9836210591322475, -0.6916359853027481, 0.03665050797263077, -0.5200580498998457, 0.3372592822557359, -0.7022233521812176, -0.08540738817822234, -0.471224861039834, 0.264973013080541, -0.9462979755686752, 0.4486932543717583, -0.012164090871364976, 0.6009113046436038, -0.009323967399570844, -0.010107329848055546, -1.4629738610841412, -0.8220541683172128, 1.0401257896367664 ], [ -0.3366002588001805, -0.509450469227959, -0.4475588779878338, -0.03306611077284351, -2.119783622653476, 0.06300623664287888, -0.6222498058073856, 0.16416637011354304, -0.7048611434865982, 0.41654349773590327, 0.5189648150757586, -0.8981780702689749, 0.11137437568192589, -0.010133560383941958, -0.249804425194988, -0.015619351550481319, -0.015764679154944342, -0.8503968717848893, -0.06340818265461534, -0.9463311489102005 ] ]
  }, {
    "Size" : 10,
    "ActivatorType" : "Relu",
    "GradientAdjustmentParameters" : {
      "Type" : "Momentum",
      "LearningRate" : 0.01,
      "Momentum" : 0.9
    },
    "Type" : "StandardLayer",
    "L2Regularization" : 0.001,
    "Bias" : [ -3.7078499825944067, 2.901309356300408, -2.7032189773153723, 4.1278740711833635, 1.0686776043849195, -0.33208429239004306, 2.2333330048563, 0.015300896474003126, -1.3603530868261295, -0.3993061297343172 ],
    "Weights" : [ [ -0.16557901464881492, -0.25264001990840995, -0.45153338776010776, -0.1257861561018448, -0.42960954718363836, 0.002243537726677024, -0.7441090527784262, -1.164176407352592, 0.13881566928533356, -0.010700966780137862 ], [ 1.2835249008257774, -0.1041453434885496, -0.36460981616699256, 1.3925904039847554, -1.0629831690321172, -0.012844311633223525, -0.48489145809031114, 0.32200078427696316, 0.061726016917343404, -0.0021985324644060683 ], [ 0.35807780179161625, -0.300614323992689, 0.001934393226852446, -0.3132356331911981, 0.18132503981905707, -0.011129370952007932, -1.3396743725473286, -0.39516377818532367, 0.5418053886680675, 0.0022286662162101815 ], [ -0.16098800688078077, -0.9652624074806836, 0.5454905125805698, -0.3455355037069432, -0.6047171856067843, -0.007195014745767678, 0.5350213132652802, 0.06435388913722077, -1.7386621005740504, -0.008016296772790267 ], [ -0.5755923876763928, 0.12365549971702113, -0.4986194714495067, 0.3738195412251679, -2.2210670512590496, -0.005143743998846057, 0.5488350762538968, -1.4178964997753356, -0.2759184154626769, -0.009739082521023295 ], [ 0.8120166131275905, -0.12803919764027558, 0.4422883716632739, 0.5084322264442823, -1.1943884097582647, -0.01196210622542305, 0.3303451847357098, 1.169713136543787, 0.7802524869217102, -0.0075009644124846946 ], [ -0.5651233115981462, 0.7168683413686363, 0.8168996927190442, -0.003941073127846373, -0.0805239293390818, 0.007826663059027822, -0.1586711632548354, -0.007663260177920846, 0.36537752156223363, -0.0013802276906577367 ], [ -0.37222386978617905, -0.3915811616066161, -0.01149545173645309, -0.16094788076332597, -0.2545810209164918, -0.005400142376849264, -0.7460891027231954, 0.18099606532111115, -0.11162915249368273, -0.0011202471528628049 ], [ -0.0633722108809104, -0.3991134752300811, 0.29252526492806175, -0.18454954888013145, -0.3934824778735434, 0.001472729944084667, -0.9414632741706127, -1.3315987745676678, -0.09385179446761449, -0.0015713762950290745 ], [ -0.041582425232891296, -0.32934796998400995, 0.5362340291084443, -0.45378344379285046, -0.5068875367800799, -0.014330191095806457, -0.6922829818263797, -1.4095951277445915, 0.15852288142004384, -0.0019202495080100203 ], [ -0.45085877720413237, 0.8242878852302422, -0.13679375110933845, -1.4583506211374384, -0.34886043700076796, -0.0096212288407429, -0.29126554603162547, -0.9598989274151699, 0.619579631838626, -0.010738259630728766 ], [ 0.06901127897781009, 0.3672740676547386, -0.46654181842516496, 0.06218673695803917, -0.41472617857414273, -0.002767435347718818, -0.9391195230244278, -0.3629050525096802, -2.1897741273515154, -0.015902797361231475 ], [ 0.12402301387641625, 0.3397702026188276, 0.6013576565425441, 0.012218304157907658, -0.7826016911793512, -0.004590584272906447, 0.8064229333182488, 0.22407641337976772, -0.1308263705515137, -0.012965314917478113 ], [ -0.011288024472645753, -0.007776040271128585, -0.0017788781209226406, -0.007834256929941307, 0.0021214229975287167, 0.002910848669301138, -0.014402674841017815, -0.012758000103588876, -0.014317030473526135, 0.008442231985358017 ], [ -0.015080832833144642, -0.7870473584176174, -0.020851825397325736, -0.943723680190168, 0.7714872350052994, -0.010637370944195576, -0.03972263396230386, 0.06439846708112501, -0.014108106002978038, -0.008317681734417368 ], [ -0.0038848936571615933, -0.001727812149027183, -0.008729267299381666, -0.004307694763268772, -0.013459355219463584, -0.011049984304211044, -0.014108746478952945, -0.003594547657037472, -0.012915369620258752, -0.008903392683144754 ], [ 0.0035074312985347847, -0.016212775317409923, -0.006230079378173065, 0.010016523792303621, -0.011778898545186016, 0.0016112808786334556, -2.2583949312701416E-5, -0.004071194708815277, 0.0037377700190482192, -0.014640252910798958 ], [ -0.7195792543766548, 0.7067391192844699, -0.70152054041808, -0.565052982619627, -1.8616363565897296, -0.0031554915752507093, 0.27712378728310877, -0.6034946539517584, -0.13493924162136647, 0.007000905167190592 ], [ 1.2971271448665374, 0.1720025115620786, 0.5267625583268157, -0.5833167355282853, -1.146472141907758, -0.010280893000705595, 0.8573155428196869, -0.9279564277282178, -0.38975804990917506, 0.0028021626859203114 ], [ 0.023786769360612622, -0.2597584716969826, -0.05500779026355352, -0.8272209581426266, -0.04996174407058791, -0.0084021630030538, -0.9603155343587801, -1.162171446386611, 0.19008545318201522, -3.2321764094909213E-4 ] ]
  }, {
    "Size" : 1,
    "ActivatorType" : "Identity",
    "GradientAdjustmentParameters" : {
      "Type" : "Momentum",
      "LearningRate" : 0.01,
      "Momentum" : 0.9
    },
    "Type" : "StandardLayer",
    "L2Regularization" : 0.0,
    "Bias" : [ 2.4635483619316267 ],
    "Weights" : [ [ -0.6261156941516615 ], [ 0.9334732221937359 ], [ -0.32235474494077854 ], [ 0.8228791570656894 ], [ -1.0775938365630602 ], [ -0.4841320264685454 ], [ 1.5948201177463732 ], [ -1.0747614968206813 ], [ -0.1767884489520749 ], [ -0.6001130721588438 ] ]
  } ]
}