{
  "InputSize" : 7,
  "BatchSize" : 16,
  "Layers" : [ {
    "Size" : 7,
    "ActivatorType" : "Tanh",
    "GradientAdjustmentParameters" : {
      "Type" : "Momentum",
      "LearningRate" : 0.01,
      "Momentum" : 0.9
    },
    "Type" : "StandardLayer",
    "L2Regularization" : 0.001,
    "Bias" : [ -2.4903582892590928, -5.7566842018236, -2.4318690996036825, 1.479930265084066, -1.90068901808147, -5.8722231409862, 0.5079388341575385 ],
    "Weights" : [ [ 2.356449883388446, 5.035714943957888, 1.3289249187768568, 2.1344670188827335, 2.904688128032422, 3.491084747179687, 0.9417580300819207 ], [ -0.0684670469647764, 0.1260488207622453, 0.06565814072679414, -0.05250527573929039, -0.2988331680216546, 0.039839018085848936, -0.06685433112348861 ], [ -1.2889000745638246, -5.894385466437049, -0.7580153230974979, -1.007760190286782, -3.002286522237972, -1.7550083420455087, -0.956010300578219 ], [ -0.1858527069137145, 1.2246073567288396, -0.9257055870164054, -0.44443222474916455, 1.2187233677513762, -0.017152340614331345, 0.9438284462322637 ], [ 1.4759637263487382, 1.2856834952854037, 1.0437349250734018, -1.3089900277492712, 1.1485667793353012, 1.6550031858170047, 1.6635576632980413 ], [ -0.07895183837299732, 0.03125970293595076, -0.013353610142890347, -0.021797112513712746, -0.08983299048479686, 0.1177201599043299, -0.013630605158241136 ], [ 1.580693202525404, -0.6898503084311365, -0.605279543986095, 0.40363342311006206, -0.5307992827460797, 1.9055291451142358, -0.15497825440190688 ] ]
  }, {
    "Size" : 1,
    "ActivatorType" : "Identity",
    "GradientAdjustmentParameters" : {
      "Type" : "Momentum",
      "LearningRate" : 0.01,
      "Momentum" : 0.9
    },
    "Type" : "StandardLayer",
    "L2Regularization" : 0.0,
    "Bias" : [ 13.543670253536211 ],
    "Weights" : [ [ 2.6265913652355293 ], [ 3.837176985246392 ], [ -1.6413759377575499 ], [ 2.060553978866852 ], [ 2.7579588955817047 ], [ 4.3854245235568685 ], [ 2.3208173488087462 ] ]
  } ]
}