{
  "InputSize" : 7,
  "BatchSize" : 16,
  "Layers" : [ {
    "Size" : 7,
    "ActivatorType" : "Tanh",
    "GradientAdjustmentParameters" : {
      "Type" : "Momentum",
      "LearningRate" : 0.01,
      "Momentum" : 0.9
    },
    "Type" : "StandardLayer",
    "L2Regularization" : 1.0E-4,
    "Bias" : [ 3.352066559152235, -0.9966203141489485, 0.730336817717597, 3.5667841524758868, 4.777455669489634, -7.280982688216221, -1.2221987716687086 ],
    "Weights" : [ [ -4.459985266042863, -0.28748399550196896, 0.9351120443173582, 2.4360614202053568, -3.005259374949554, 4.0639866060987275, 2.2224660323461705 ], [ 0.14243586827535526, 0.07610303818570052, -0.018519186116857003, 0.02654059009639928, -0.05757904465304203, -0.29313291130764174, -0.08383607253176736 ], [ 5.830033589363153, 0.023126906352556355, -0.6488056733746186, -1.279578339646903, 1.557308537918518, -2.9617773474665494, -1.4841978898264354 ], [ -0.40262522027272035, -1.1693006546984996, 0.24769066023998088, -1.0306257582702234, -0.9498749534992513, 0.12681606170384105, 0.8093152102820763 ], [ -0.5750802192867934, -1.8790373374756228, -1.4028101419169212, -0.8761859942906706, -2.3918655099225457, 1.9892718404855243, 1.6460585728502626 ], [ 0.055711960824547595, 0.02815079119011774, -0.029261506651263897, 0.08218833958000903, -0.08372213126827509, 0.07687094900276245, 0.03845747607663255 ], [ 0.4533657698482753, 0.5940087026413094, 0.2550527153073929, -0.3121459224270204, -1.0519405961778872, 1.608088891455161, 0.5370273693502325 ] ]
  }, {
    "Size" : 1,
    "ActivatorType" : "Identity",
    "GradientAdjustmentParameters" : {
      "Type" : "Momentum",
      "LearningRate" : 0.01,
      "Momentum" : 0.9
    },
    "Type" : "StandardLayer",
    "L2Regularization" : 0.0,
    "Bias" : [ 13.699489474250827 ],
    "Weights" : [ [ -2.835714227012406 ], [ -1.9251545021475176 ], [ 1.705519542190167 ], [ 1.911930250595513 ], [ -3.544145934038997 ], [ 5.215622787666585 ], [ 2.9144719922334956 ] ]
  } ]
}