{
  "InputSize" : 7,
  "BatchSize" : 16,
  "Layers" : [ {
    "Size" : 10,
    "ActivatorType" : "Relu",
    "GradientAdjustmentParameters" : {
      "Type" : "Momentum",
      "LearningRate" : 0.01,
      "Momentum" : 0.9
    },
    "Type" : "StandardLayer",
    "L2Regularization" : 0.001,
    "Bias" : [ -8.679014085046811, -2.2878213806860273, -3.749909877738638, 0.665511536226122, 0.4513740631903411, -1.8227752566500128, 0.716425824032125, -0.4068359133455288, -3.3117276507117013, -2.981907721055042 ],
    "Weights" : [ [ 3.983210202303364, 2.440346038057353, -2.525119712765801, 3.5733219889311405, 2.8549874172699075, 1.8045522529387412, -1.1947751021481394, 0.4666901831483109, 2.787528112524265, 6.33122909704992 ], [ 0.1170931603921508, 0.030204486919162898, -0.024576077469209832, -0.03344474140715398, 0.06826378650056414, -0.04314617344002101, 0.06436667899232835, 0.017606897413950485, -0.051040770249162176, -0.07140432133171984 ], [ -2.8215600347088663, -0.841828879920746, 0.7647406733581085, -2.577603383802185, -2.771017888141514, -0.5579561661033404, 0.13803978467933445, 0.40175583012285393, -1.1529584333257048, -8.000857821528735 ], [ 1.0840841857796457, 1.3910387719164308, 2.2610346903374863, 0.559757874087918, 1.3457741668400784, -0.3401075428218624, -1.168547008106701, 0.4443258267189954, -0.585549898232016, 0.6165515215698587 ], [ -3.9358210180318327, 1.3508254303557148, 2.4034885234648597, 1.7342901400588828, 1.1150007704419842, 0.9967176469444924, 0.10594827946777031, -1.7153896994447808, 2.0179677395173674, 0.6417719517220102 ], [ 0.18313149700467346, 0.05125370101804726, -0.14047088467991026, -0.011481307897137208, -0.036745337006183786, -0.08679146973038845, -0.095720150965634, 0.026712190127815047, 0.11873559124973342, 0.12465036218895666 ], [ 0.8146487649827046, 0.31025824831567433, 0.0412584740458668, 1.4262190423394754, -0.510673709508078, -0.9316786991259678, 0.26189939699100145, 0.013999869189465119, 2.518179703613808, -0.3047076389209467 ] ]
  }, {
    "Size" : 1,
    "ActivatorType" : "Identity",
    "GradientAdjustmentParameters" : {
      "Type" : "Momentum",
      "LearningRate" : 0.01,
      "Momentum" : 0.9
    },
    "Type" : "StandardLayer",
    "L2Regularization" : 0.0,
    "Bias" : [ 2.8994231662625634 ],
    "Weights" : [ [ -1.2167527263175977 ], [ 0.6731407580972931 ], [ -0.8816158132512524 ], [ 1.3175047298373268 ], [ 0.9431269185307657 ], [ -0.5461230621521006 ], [ -0.5953938278426751 ], [ -0.731444639974357 ], [ 0.8207690449063159 ], [ 1.0397366026866859 ] ]
  } ]
}