{
  "InputSize" : 7,
  "BatchSize" : 16,
  "Layers" : [ {
    "Size" : 20,
    "ActivatorType" : "Tanh",
    "GradientAdjustmentParameters" : {
      "Type" : "Momentum",
      "LearningRate" : 0.01,
      "Momentum" : 0.9
    },
    "Type" : "StandardLayer",
    "L2Regularization" : 0.001,
    "Bias" : [ -2.398608406643441, 0.8164740639978055, -1.8662411113459831, 6.585278412102681, 0.8147765893679512, 1.7037957232371772, 6.0731317926134345, 0.983957762050761, -0.8651220027295046, 2.950126554249334, 2.977214143965828, -0.3074497066484178, -1.698364406857239, -3.381949046399788, 10.827282013073047, 15.81756918957393, 7.421864176415476, 4.813625272101753, -6.91927453907655, 5.711409861149173 ],
    "Weights" : [ [ -1.0434311980044326, 1.8419727440905853, 1.4214721619912767, 0.2339718121700153, -4.023970753076884, -0.10955102628906921, -4.010413773787925, -0.30130202302209597, -2.6498488513841, -2.263199833454493, -3.1036386518595376, -0.2734143283313012, 0.43694780914081865, 0.9186804745898514, -4.692836600219836, -4.497539767134315, -1.1359081557530974, 3.1263320240596517, 1.7455237226555227, -2.689354916611947 ], [ -0.17482876198270758, -0.05304637168991225, -0.7817250843106387, 0.1830520502579114, 0.0628829230921999, 0.02778042094402608, -0.3139306525426647, 0.15172647922183316, -0.16684886202421276, -0.035297550617329206, -0.13388823347890363, 0.04279276516899597, 0.012621524115472979, -0.11498823864402805, -0.19218469555339854, -0.026510269743483944, -0.12671217758797504, 0.09545954832137679, -0.02491264555803544, 0.09184890277510199 ], [ 1.093469805224962, -1.069376239527612, -1.3216492406656177, -0.8572082093753869, 3.1799611142288873, 0.23988066444199313, 0.9055261259865766, -0.1274952666846806, 0.4116258748438727, 1.1679523657966235, 2.411406944440971, 0.6841229442836799, -1.206800217324343, 0.9288365680447666, 0.7201714230912727, -0.07779047389500458, -0.7514168887450902, 0.4425899234520271, 5.3231352634639935, 3.245114532008279 ], [ -0.7538198203787592, 0.6131531331315788, 1.1685126374403847, 0.9025488010936552, -0.4485823833980436, -2.327156462255075, -1.5012724400189268, 2.966345029645046, -0.3100531344752589, -1.553878304218135, -1.3932744021103993, 1.5005007586598476, 2.5263280941878685, 0.991949890954114, -2.113918174315606, -3.037930140326256, -1.0299619276371723, 0.0027288928392825334, -2.3832729877657775, -2.670660829828192 ], [ -3.6409131692456116, -0.09416430479113833, 1.367831114885757, 5.191068848001282, -1.1848496000176532, -1.132355115399921, -2.3111502340356456, 1.2663572079017364, -0.1342836707600651, -0.8545438158943477, -1.314089349755496, 2.5683303806122675, -0.3752863777220816, 1.2900932260185725, -2.6167433423129944, -3.827457911118721, -1.416350736159351, 0.04176295946097318, 1.0020654649098468, -0.09553025194964077 ], [ 0.06184467471278304, 0.06275284549211377, -0.30103082970293327, -0.068074538738741, 0.10605756875050366, 0.015747035664370093, -0.25515143728268347, -0.10503207782361727, -0.06117271712233448, 0.16785287433102708, 0.10659779496126762, 0.04243030316015652, -0.1621194035419413, -0.0774209688323691, -0.1744058509640462, -0.11709126011357088, 0.26718011761217514, -0.035698225143134164, 0.25507443813565595, 0.20327762539471264 ], [ 0.5497922367494091, 0.7153281511768094, -1.2788097962328304, -0.9094611863836937, -1.0797074302734448, 0.4183650088765941, -0.3397666355053962, -0.2577580965664199, 0.09439288370090503, -0.5531182266462196, 0.5312557557014211, -1.0973745040474772, -2.1745109743741238, 1.3934347752702416, -0.1971112235188687, 0.44991977954863893, -2.5981003450837017, -0.10885514723908801, -0.3011140318235261, 3.128792526520568 ] ]
  }, {
    "Size" : 10,
    "ActivatorType" : "Tanh",
    "GradientAdjustmentParameters" : {
      "Type" : "Momentum",
      "LearningRate" : 0.01,
      "Momentum" : 0.9
    },
    "Type" : "StandardLayer",
    "L2Regularization" : 0.001,
    "Bias" : [ -2.713311330973498, -1.1767126542672182, -5.5474039418895424, 4.556294068116531, 5.433268173971975, 6.435735622556199, 1.647852302259424, -5.904696679528366, -1.7301620723403943, 2.6402710207761895 ],
    "Weights" : [ [ 0.8433969544709585, 0.993650662396007, -2.1146067953294634, 1.6849880618186575, -0.02067859524910447, 0.2151419586763573, -1.2913188531637056, 0.05820440228799992, -0.34513688755273086, 1.6116779447514362 ], [ 0.5428262038673112, -0.9415000536537953, 1.2549756745762308, -0.9734310500214141, 0.11580001228557978, -0.34755631096384404, 0.4454944317919593, -0.05484297055239026, -0.20862284631174666, -0.6631697542359485 ], [ -0.9855453348313482, -0.3383091692414805, 0.3148075984381134, -0.4346879646058913, -0.45060177383797534, -0.5616106954984748, -0.0932813336582982, 0.08243360202751221, 0.16692312949949414, 0.005778135861109956 ], [ -2.446424692265779, -1.1954413745895787, -0.021166391014423285, -0.09707868496512981, 0.1228504976293226, 0.053739367412942766, 1.6370922433579116, -0.07443983950005668, -0.663260444900353, -1.3101619820234867 ], [ -0.20993590516854274, 0.5598134389221532, -1.0418462806485294, 1.2358861088271462, -0.7801344437277816, 0.06300195563013125, -0.8303357418025024, 0.07100458043430771, 0.3638570962762646, 0.7419802817386162 ], [ -0.2685938213161167, 0.3409276800781077, -0.2516529087857512, 0.5674726189370454, -0.1168154933561576, 0.315503099803391, -0.9228967210691892, -0.2920537450540004, -0.3087603692653374, 0.7281732180267934 ], [ -0.8567170601773522, -0.8734641806146842, -0.8618416767057971, 0.45580164759472486, -1.1114724598610266, 1.6053525916019828, -0.29794080129642725, 0.02558917406810743, 2.299048522343902, 1.1064760265185 ], [ 0.04745323523475906, -0.7506082177106063, -0.6366127857862675, -1.0964245112833844, 3.506509814835373, 0.1940985787745903, 0.9182874552357179, -0.07403030375482912, -0.6019880889685735, -0.759268510793297 ], [ 0.08937376230460943, 0.6483581602044295, -1.6858654273408644, 1.0474429149690974, -0.044353779766373405, 1.558079562862642, -0.7463618155795851, -0.24381440819583636, 0.0405295687504609, 0.7962903973812037 ], [ 0.12198479809790216, -0.0839148176427636, -0.8067045499350884, 0.5836008432202501, 0.058106198869824294, 0.6293108296119222, 0.12975454121996954, -0.008286209888627384, 0.3049348794219345, 0.46197838808628444 ], [ -0.7290806438838526, -1.053688216759109, -0.592014883579598, 0.2818506581279018, -0.8745380272422263, 1.136742379612041, -2.2889549914171003, -0.20009169058933907, 1.4709672168360657, 0.42708633042618094 ], [ -0.14101975652766524, -0.5196445183481752, 1.1287534773350283, -0.8216301172566736, 0.014866154389756862, -1.4823525912373123, 0.4149813651262698, 1.5292419916680038, 0.015650294571467084, -0.5574677106371259 ], [ 0.18917320223921238, -0.784301586534391, 0.8064051791207868, -0.6544270368440098, 0.09033741681864821, -0.6317646525836388, 0.78336060375713, 0.5541225398046026, 0.5767011668816215, -0.7109401805948954 ], [ 0.5412868448106344, -0.5244794345166702, 0.35785229636273136, -0.22319497494053536, 0.39524737365903084, -0.7894714372918258, 1.0200817188957754, 0.6020963169206839, -0.38647384741154744, -0.5479649304304693 ], [ -0.11456010850161281, 0.21152912609544683, -1.2031446498358742, 0.026984848750150798, 0.05886850371966763, 1.0609300650810345, 0.0018715802679133394, -2.521809227400838, 0.08511948011117548, 1.180247162349386 ], [ 0.19222230764894935, 0.007559442930439662, -0.4393520983422327, 0.01629503713914144, 0.06111702675750927, 1.670738996070443, 0.0033092807031275305, -1.1311001791531496, 0.0819496872228683, -0.006657191489334942 ], [ 0.24035107448746323, 0.3571494810582093, -0.7416781178344808, 0.7879952218452432, 0.09109160773668663, 0.4601227071290054, -0.8018801895625323, -0.8249500251896724, 0.1562838622650862, 0.6061723755382021 ], [ -0.26439267801322397, -0.6741697481005524, 0.01983247377751364, -1.6967713922066014, -0.04847221957959069, 0.04003763574886671, 1.3234284867658985, -0.07411939266239703, -1.5655930561957605, -1.6326792597963078 ], [ -0.013174532312398608, 0.3614600084581832, -0.49117854633927954, -1.0911955438050225, -1.0524513982694668, 1.0245433978941678, -0.6766034752163779, -1.0064373046851995, -1.8670604747323032, 2.0226527815745654 ], [ -1.1548542172544927, 3.277401412362455, -0.9074743503705047, 1.2843216871269871, 0.8181796444570051, 0.8401794454613922, -2.0646913792732713, -0.8519661069787512, -0.5515242865625801, 1.6138528683085065 ] ]
  }, {
    "Size" : 1,
    "ActivatorType" : "Identity",
    "GradientAdjustmentParameters" : {
      "Type" : "Momentum",
      "LearningRate" : 0.01,
      "Momentum" : 0.9
    },
    "Type" : "StandardLayer",
    "L2Regularization" : 0.0,
    "Bias" : [ 15.28087937044689 ],
    "Weights" : [ [ -2.225515272705181 ], [ -1.02338885865864 ], [ 2.737473823376689 ], [ -1.997067062770929 ], [ 0.7490826342524267 ], [ -3.384722034395737 ], [ 1.4550176663036962 ], [ 4.297802353335392 ], [ -0.7023036492520432 ], [ -1.6299475873761387 ] ]
  } ]
}