{
  "InputSize" : 7,
  "BatchSize" : 16,
  "Layers" : [ {
    "Size" : 30,
    "ActivatorType" : "Relu",
    "GradientAdjustmentParameters" : {
      "Type" : "Momentum",
      "LearningRate" : 0.01,
      "Momentum" : 0.9
    },
    "Type" : "StandardLayer",
    "L2Regularization" : 1.0E-4,
    "Bias" : [ 1.6396496682726704, -0.6789760312486, -2.206826910369224, 2.981467732213991, -0.5302814500071047, 0.4595340345907062, 0.31079886661334855, -0.6377740348303589, -2.012412831998685, -0.4994215173364968, -0.4593710646051519, 1.1809343434185402, -1.2765333243899364, -0.9021937963305412, -0.9040818715840095, 1.499012474146121, -2.993190307789597, -2.771748775367724, -0.6511001817685406, 0.718469357908377, -1.4351012412283375, -0.7016676144610481, 0.27016877848049253, 2.563248564346038, -2.054479683633666, -6.002117772571055, -2.805689023565072, -0.87280953117015, 1.5892148576384852, -0.610302160543447 ],
    "Weights" : [ [ -0.7775797365005398, -0.014305903346305054, 0.2102304774570931, -0.8538680789407979, -0.0461169126289715, -0.8686692392246749, -0.43204779634752677, -0.13857762633799686, 0.1717845394045247, -0.025695338286227252, -0.05703493340974279, -0.2347809273367736, 0.09267984187739704, -0.043645810939702656, 0.056505831233328675, -0.9154178305556923, 0.252137999317148, 0.13529450838656823, -0.04404949638384608, 0.9837606888647387, -0.04724219350493979, 0.4074466835270814, -0.09360392953573876, -0.2823780754418581, -0.33163458732972645, 0.6131411422165776, 0.1495887431339667, -0.0837389355577586, -0.33424952063278524, -0.10354161320629328 ], [ -0.23456786978959948, -0.01544471662247284, -0.42699435988828943, 0.19557717261060845, -7.184784107430041E-4, 0.08848016429293121, -0.046962209687788484, -0.17562938625828836, 0.036715578229769646, 0.018785146379667023, -0.00836876920150032, -0.02449327070733606, 0.03191374046022031, -0.052119046255273645, -0.15528415855434685, 0.42111493297519964, 0.11949683560947114, 0.09788256865032076, 0.007662918742175654, -0.33714279927833957, 0.011484562363568068, -0.3050134349887968, -0.016229221836950556, 0.23845576213574526, -0.20036778548859852, -0.21654740226263086, -0.10859939708508956, -0.06991577687637185, 0.34593482061529446, 0.023213138035716608 ], [ 0.2955139190556503, 0.019002816571671653, -0.3519130173497692, -0.5751551414111488, 0.026142690771366873, -0.3154002453290046, -0.2730768684335868, 0.3157832452092086, -0.18054983791571, 0.01690702668271384, 0.0012834357252916177, 0.5359013269810409, -0.0641131481184069, -0.11190057473181161, -0.04902976931411725, 0.025404438588688866, -0.11231572684183924, -0.16227458898913888, -0.029090145075197298, 0.351784333104217, 0.02115138157685628, -0.26903791456511905, 0.23721323769036765, 0.4088411143435382, -0.09427177678803478, -1.1447008399038137, -0.2332928869433846, 0.08366068412527232, 0.10015968673619785, 0.08333134649839385 ], [ -1.2476603305879599, 0.0029463666534737545, 0.43761005057783453, -0.8731198068395273, -0.2221314267206674, -0.5921837422227971, -0.14210582111916417, -0.7652506716630361, 0.08826534936544635, -0.019139755687914067, -0.06822945693335815, -0.779508069531907, -0.017423526638143328, -0.14990289402243867, 0.2471293998449119, -2.0372684786495387, 0.18983671876347918, 9.054570268075562E-4, -0.009218073265406818, 0.9755008061918863, 0.008869977840378523, 0.578331456651896, -0.4915247615052551, -0.32409632474481337, -0.16544737277362298, 0.9660502231965498, 0.20291179417942615, 0.01613471845131596, -0.649973254028082, 0.025488447690568003 ], [ -0.778401211964465, -0.002926190520877423, 0.035305029539082065, 0.012482843853095275, -0.08202473585357477, 0.07264090035485915, -0.16782158562221483, -0.480569807772823, 0.15020724363752272, 0.01794295434666021, -0.016039173844936198, -0.8923391044006026, 0.01634431933670062, 0.04349107973985698, -0.015320964585436646, 0.4953257236647826, -0.03552261468712877, -0.01110945727929547, -0.009470912110755373, 0.7763255317934465, 0.15465901736275597, 0.14090372500183657, 0.04711162270750064, -1.2275226291524934, -0.011386463347863217, 0.4421423472918474, 0.0837905348880429, 0.007277853525955483, -0.47562542260568497, 0.031530911317887954 ], [ 0.0065639706572765315, 0.028566139224183062, -0.09031798173487082, 0.43458557539834763, -0.1099417818682938, 0.12020679227980867, 0.20142888279560064, 0.284928829750342, 0.04126293320057279, 0.025945885367187123, 0.01583233092564671, 0.0392028035225778, -0.05717225265915912, -0.03717360367043379, 0.05594901179498238, -0.23918803524403323, -0.14355895313764747, 0.12236673524652662, 0.006744881994739203, -0.009982678390873863, 0.00179952104847627, 0.25672123801864044, -0.03920428917083231, 0.05599683077447355, 0.021087186167586723, 0.3538826569470534, 0.0820860837597222, 0.029985987568121278, -0.018220375587003887, 0.0035870751904508243 ], [ -0.24856646171272448, 0.02849550489302059, -0.18578372668229318, -0.21511968890419655, -0.028086283259650895, 0.5189442605132458, 0.26617085089954545, 0.13164430450086728, -0.22918798985854905, 0.013144303028978132, 0.021780243457443796, -0.07479094408370106, -0.034658050147857104, -0.1518369910938365, -0.1577561193678162, -0.4809379821065735, -0.32513102056023263, -0.18041313862439406, -0.045225221748776155, 0.29075427550953653, -0.0778769774633389, -0.1221369855825417, -0.293760075553088, 0.761210253801288, -0.008485839972131924, -0.6067050502648852, -0.19730539458424828, 0.016811060152255378, -0.19598206901980117, -0.06185409225689825 ] ]
  }, {
    "Size" : 20,
    "ActivatorType" : "Relu",
    "GradientAdjustmentParameters" : {
      "Type" : "Momentum",
      "LearningRate" : 0.01,
      "Momentum" : 0.9
    },
    "Type" : "StandardLayer",
    "L2Regularization" : 1.0E-4,
    "Bias" : [ -1.2819450572148303, -0.9611090267746976, -0.7763173554323791, -0.5272167422263088, -1.200592718916039, -0.4259734735322837, -0.36540718971426556, -1.7623460200139265, 1.2345244772390327, -0.3574742691494882, -0.39941492120984906, -0.29917333425771536, -0.2419090671107809, -0.31664556156681195, -0.7251912879141112, -0.4330783307822844, -0.826756727366427, -0.5540508792741834, -0.2755359545201157, -0.2085737643693944 ],
    "Weights" : [ [ -0.011631298475584778, 0.7463928182542842, -0.13925182579710493, -0.07864401996069031, -0.14777494594570664, -0.12729951585162905, -0.0684477237747984, -0.18335266289541466, 0.03211754543117918, 1.183988766657533, -0.12311773662783188, 0.061608111910161946, -0.06876602681650423, 0.007079025823018896, 0.6333775694429883, -0.0017254535074335423, -0.16882002579007202, -0.029182820839853, -0.07921714016215166, -0.02916050734689913 ], [ -0.08275022185053099, -0.011694263042111887, 0.0012519469514041866, -0.07793129035980101, -0.07747346641697475, -0.08537547669793814, 0.051535131771182796, 0.03584337639603766, -0.02285117022489906, -0.0327778469718034, -0.04774270813029513, -0.06738567624491446, -0.057902270690901834, 0.06182152746182417, -0.02223172951045301, -0.06701671064185337, -0.06288434588060607, 0.024612071704522953, -0.05112939532368189, -0.007256520607059376 ], [ 0.15341528775125374, -0.15699225194173272, 0.12150948648722026, 0.005425456621090161, -0.004394617591456379, 0.008703714319360905, -0.07914569156782778, -0.04439987436941514, -0.25601206953414374, -0.10894773351953184, -0.021830204089080783, -0.31119474659448565, -0.026583848483810343, -0.08824094793453793, -5.224031074852692E-4, -0.12366771279375145, 0.0206530190716698, -0.03748934343598962, 0.004904901402595854, -0.10081135093301559 ], [ -0.28209255436883335, 0.3160001450867078, -0.18684824738817418, -0.17044406264674164, -0.15044266779542426, -0.007367294966968193, 0.01347321155116609, -0.27907060406574336, -0.060898733473976036, 0.9301250107481397, -0.062185436357832406, 0.30144005883466995, -0.09526528999217902, -0.0462099972801499, 0.1996196097462411, 0.045663177710094, -0.09830686507959316, 0.04502388925669731, 0.008389446298565681, -0.0493660569526171 ], [ -0.09991498692445737, 0.06774157321607488, -0.05023337281695256, -0.08458149433998693, 0.004535057345604306, 0.0705813152559355, -0.04454058382098311, 0.008976093067212762, 0.04534026240773452, 0.1361397319682926, -0.02192356305613936, -0.05787438237231047, -0.08952928243722098, -0.07154110050489619, 0.037469862846180924, -0.0071291716747674235, -0.027073495333980773, 0.03127041411578252, -0.03971646246497567, 0.019674149245368356 ], [ -0.10173605464310156, 0.36412614026656764, -0.12000107729982971, -0.19083983773958418, -0.12214756943071722, -0.1296074760866701, -0.07898086862297159, -0.2566832371250128, -0.16286139591679072, 0.48679534908248256, -0.04034175963309974, 0.3475731095923168, -0.017372208887507196, -0.04770371963690234, 0.17622597118220545, -0.11804552248611686, -0.09208894658239891, -0.09337659680125918, -0.09170557338701492, -0.10183307518172782 ], [ -0.05287054482240506, 0.16996718340651457, -0.11810623927715476, -0.1923771064542308, -0.14948351751562405, -0.07113765286769214, -0.07655821421049004, -0.13620667006803006, -0.016130389821283148, 0.3446787878184047, -0.03082041660476489, 0.11548777901229562, 0.07347226777170272, -0.01434458294415089, 0.04863793518871728, 0.00923866868535448, -2.401442788291015E-4, 0.0017395782363582022, -0.09226778110146847, 6.400237299547126E-4 ], [ 0.008203356139529536, 0.2190975192161203, -0.11346727486628162, -0.13614769149903366, -0.13853129413361678, -0.013782183057664274, 0.01855510887473545, -0.04243599342172756, 0.15497642109492316, 0.3968679628284115, -0.054537074823646656, 0.07266886120672932, -0.08142269225757452, -0.015250879631267488, 0.3391390527352763, -0.014934086239437339, -0.0794287050242319, -0.0625693176536944, 0.014677785664511653, 0.07009318227198776 ], [ -0.06988498212970862, -0.1064695206505562, -0.02704045914916897, -0.02677537530837004, 0.0753955683149949, -0.04068360431464025, -0.05556208990516299, -0.06986604124117071, -0.0516256149473846, -0.058694386743411875, -0.005728378831182983, -0.07582915791589723, -0.05076741030587431, -0.08784370487848639, -0.09813924677801182, -0.0975050252036033, -0.014396334371860492, -0.02952961404895673, -0.030054131953399506, -0.0099459553838455 ], [ 0.0015656852624735386, -0.08225849521850939, -0.0019075210610640012, -0.03599461813600297, -0.12061908129209056, 0.02790313380332074, -0.08028999918911572, -0.0372237910841615, -0.07937686683268627, 0.024566850710264775, -0.033746860227882224, 0.03202813236233708, -0.07448767157145754, -0.06361375874309516, -0.050313689043193985, -0.008407865535770687, -0.07702764068039644, -0.02478804659226317, -0.057548970088180953, 0.019478996412681252 ], [ 0.07490926919060013, -0.019731205981809895, -0.06990789336350367, -0.02198589359412265, 0.022255519916465214, -0.04286159148398766, -0.06145048119024907, -0.08821014768629006, -0.05684063103963054, -0.01488274046510478, 0.015769150374501287, 0.001465135539685554, -0.01395149497765362, -0.03403091433088033, -0.029299814929656626, 0.04445808788225669, -0.08495075260151895, -0.04030437315558753, 0.06353339012679697, -0.01634058863517344 ], [ 0.004802608136227309, 0.3317374987157238, -0.21347723798372345, -0.12389147559973633, -0.19041428754401737, -0.10046974933151849, -0.08434536067613091, -0.24060110210602617, -0.18457843087835768, 0.8666237529024289, -0.012853463132281672, -0.22470897854926908, -0.04664800419697998, 0.10987483300263945, 0.4384946342571477, 0.042967584755380005, -0.0544642632680959, -0.026734794250229153, -0.06069248297378775, 0.016753830159151238 ], [ 0.026865375819453582, -0.101161731629991, 0.016544135521677026, -0.026256179971296197, 0.052145090085200546, 0.038534320951922635, -0.03683889359956776, -0.07292210245441236, -0.03260677439422255, -0.10757952028269478, 0.07213468528516635, -0.0380870824962867, -0.03805253053871903, 0.014506815445570245, -0.008375494264237704, 0.004695583062689571, -0.08017722706370536, 0.0016545734092753073, -0.05122615044365049, -0.08312089431767837 ], [ -0.007287935479489153, 0.045196713961663304, 0.036438725565758424, -0.0942689403780832, -0.04523996103621179, 0.04960959904452878, 0.036658590738421336, -0.06441262037919641, -0.014084955115762104, -0.0024745619805372904, -0.039302818573228995, 0.05087754261180486, 0.07672925607586671, -0.08402682563043387, 0.056188976562686635, -0.04970931569702115, -4.1855260803138445E-4, 0.027666028282743636, -0.06747820744663685, -0.08089969166316079 ], [ 0.08675787491334282, -0.041268563347998145, -0.014531517088197712, -0.01894103433057823, -0.08097761086447273, 0.03087777319021913, -0.02395720764711651, 0.028328840123529802, -0.024402668532463617, -0.06586423620295076, -0.014814420028610319, -0.13949316859477787, 0.07125085487809688, -0.04827550261961788, 0.002935317023404588, -0.061076288701909794, -0.03758614004828801, -0.02222104516512199, 0.07451045131709447, -0.07559287923359236 ], [ -0.2114864265068083, -0.11098828686130466, -0.03961074425219438, -0.13750992437240095, -0.05478465282725224, -0.14622334557210828, 0.008330186861489512, -0.11865409469450716, -0.1854612334795549, 0.3696088592328844, 0.06246718686118388, 0.10878168193381599, -0.014580821818935911, 0.01442730745521765, 0.7089210587446566, -0.047646574603605274, -0.039288343564773676, -0.018710567421339735, 7.849167316394873E-4, -0.08867777363264387 ], [ 0.12062740050377123, -0.059153249485701845, 0.017282350288040375, -0.1074045517495558, -0.07805728737273254, 0.005230562013146354, -0.03453688904754129, -0.13070494318146927, -0.3475596995186343, -0.07675214133157705, -0.07525855163126241, -0.2213385716561615, -0.029167970245284742, -0.08769710087137676, -0.33505466129312234, -0.09975301308194649, 0.09479692450077237, 0.024391892137171425, -0.07304987065260697, -0.0026387731791573557 ], [ 0.007331280830735296, 0.010474386197465366, -0.08687413391533905, -0.01263110102907872, -0.04615880892311553, -0.04227578300022228, -0.05176734305720135, -0.15050150622878677, -0.13000852646054836, 0.0686139716471733, -0.0028493353897396656, -0.10437841067976593, -0.01010313882421458, -0.0958557088204222, -0.06179088725130158, 0.015172890510096942, 0.08885631845065087, -0.005499085374667358, -0.06956785900893905, -0.012784236836588341 ], [ -0.014378786671887961, -0.08975362762338225, -0.10093023372396764, -0.21977434884283975, -0.0107376911088008, -0.06918765643405979, 0.08434689032810376, 0.03015197830320727, 0.042111699189993856, -0.008292522162948207, -0.06848190514062154, 0.031949370764544745, 0.03577913341701533, -0.024910530951729123, -0.04427927148631125, -0.055045455666043824, 0.0241557937867983, -0.05188447392246648, 0.0830957333280746, 0.013602348872207948 ], [ -0.021958222408907085, -0.42901834455179305, -0.074877931193251, -0.06712004476382172, -0.01708615664894438, -0.0029236360243932403, -0.025370898697308037, -0.010581765188401692, -0.36446537921990124, 1.731187472863147, -0.08677164271394278, -0.939228135794739, 0.04120107422813244, -0.683774717000044, -0.989147275594356, -0.05309930622453298, -0.03021961604446676, -0.043506574941060125, 0.05181383884934825, -0.11352877716747856 ], [ -0.012261275214153995, -0.11151732796184617, -0.1407765314472964, -0.08259919005469217, 0.03271424500468214, 0.028108163416545054, 0.031656778697021784, -0.017471095344935284, -0.03193307577040302, -0.026617724915650263, -0.09612774102689328, -0.08693027934591072, -0.0019765937318323257, -0.07751592582391928, 0.058285429158554995, 0.02460996679528883, 0.0830924315911814, -0.07195359935458784, -0.030090229568404195, -0.06401452370628051 ], [ 0.05186999580142072, -0.14388880988278538, -0.02996043154193249, -0.058507281416977745, -0.03497005977808692, 0.01853340241585019, 0.05220428975776312, 0.01819226201899271, -0.1412330142164807, -0.05829251833520273, -0.02110259788204351, -0.4062201226857829, 0.017810512261815598, -0.3583146286167949, 0.028431942129647458, 0.06453590061180174, 0.06420827132420953, -0.022545531818597735, -0.05623258864310769, -0.01299157715983714 ], [ 0.03989886718552377, 0.038454731707676534, -0.03612870264771648, -0.03197666834427458, -0.004880240089750075, -0.06642824020438888, 0.03411438270804435, -0.04295048689397678, -0.06302275325270328, 0.2882254436580211, 0.07227438008630854, 0.164658851780337, -0.04912065560983487, -0.083855087207624, 0.25864884318619713, 0.001180536330914361, -0.028477213583100985, 0.04915636187620334, 0.06280415474551501, 0.04858296975090466 ], [ -0.15622056579791763, 0.24169383642293152, -0.10369274739168223, -0.11866612092499547, -0.28966998668526633, -0.11957538104346366, 0.029372777432644596, -0.15135431894185564, 0.01563987178398401, 1.478933944269831, -0.09730595026968641, 0.10879609934968264, 0.055085649262675965, 0.18175414685612842, -0.14772054649076352, -0.0703299645525227, -0.051175412866465875, -0.061475038333870725, -0.11627581718793378, -0.08859165774488251 ], [ -0.7029374049042421, 0.04056112308714486, -0.03045251438412306, -0.060369683466345726, -0.08827938494970863, -0.019842627021312502, -0.0059276189571130415, -0.11635222503950701, -0.36631417692909857, -0.036757349794200804, -0.02248828769847112, 0.07531055338526546, -0.07420387462832731, -0.13715443231821578, 0.25591015208979934, -0.04065535363557099, -0.02249341660185064, -0.10251289717710207, -0.08651696014497746, -0.00230425541547535 ], [ -0.2739846702559875, -0.19202050146841973, -0.047069119955000294, -0.0704168680784035, -0.36062405654209706, -0.033035459829359, -0.017345015192830174, -0.5781660470663498, -0.47807100814285725, -0.5452250801833971, -0.03341671353152352, -0.6951198977056111, -0.14228824369857723, -0.2817812611143195, -0.443167483027035, -0.026487592713685355, -0.30298598491056367, -0.01610334725344757, -0.012232502067850138, -0.06897160649029775 ], [ -0.062474270243161115, 0.05676386577252114, -0.14114811092420232, 0.0038898397878473845, 0.007719326354915804, -0.011980192062072993, 0.006428532379777873, -0.20237958028550465, -0.05459432836642493, -0.112672880459517, -0.08662033532507513, -0.03849537663032819, -0.09247109889956752, 0.04067683285708038, -0.01271315965077293, -0.004677029193049651, 0.013765602423620205, -0.022179080546939848, -0.0016181737332961474, 0.027593250575234093 ], [ -0.07056020709171276, 0.00814841844457655, 0.037259034158460505, -0.03671147843770277, -0.012406235299560368, -0.039018648290371924, -0.05139100654014817, -0.13411461693663393, 0.020882911431413007, -0.07396252482673818, -0.0682757092012775, 0.018990414205913506, -0.029229607976424824, -0.08997190635531425, -0.10420734109194678, -0.05475698591169045, -0.08057688748504525, -0.05778823147947437, 0.040541797231986455, -0.018660530803819006 ], [ -0.18232895697899737, 0.20240060990138597, -0.12023175004785153, -0.21638835136801404, -0.11344805859137434, -0.07746403222102528, -0.0146924068405135, -0.09823297418715171, -0.11073650759505793, 0.5120528263619496, 0.023146263376583084, -0.1695302996923026, -0.05328058287693016, -0.09192026126491544, 0.2190581148090321, -0.03982031762432697, -0.11527966269604795, 0.02694561548676416, -0.0012800808801856417, -0.008032111750485169 ], [ -0.06486598416469488, -0.02578891514511281, -0.03288922794996837, -0.002164667214603646, -0.0027443563797130252, 0.04112929671251407, 0.04029204841109858, -0.05866353145707912, 0.018480061947414583, 0.06541723330857675, -0.0016577139751948636, -0.052191382606175306, -0.03414010038100938, 0.06737913035493415, 0.00917952626167901, 0.04728442903413319, 0.0341436111962935, -0.07730334852217555, 0.059317153955016536, 0.06433837958449942 ] ]
  }, {
    "Size" : 10,
    "ActivatorType" : "Relu",
    "GradientAdjustmentParameters" : {
      "Type" : "Momentum",
      "LearningRate" : 0.01,
      "Momentum" : 0.9
    },
    "Type" : "StandardLayer",
    "L2Regularization" : 1.0E-4,
    "Bias" : [ -0.225198312736209, -0.5439975910177737, -0.23410740151379208, -1.2461111355275956, 4.969545531983345, -0.3512888247324424, 4.374093667159186, -0.40341220498019525, -0.44655991416139823, -0.4440510088738285 ],
    "Weights" : [ [ -0.08776890594181057, 0.0792598376133315, -0.11805156824222411, -0.09503646795946787, -0.09818960254970271, 0.010824814057898386, -0.010056116049128717, 0.01191467901505128, -0.08689605706760963, -0.11999835203149371 ], [ -0.02971142340584887, -0.045515395956178255, -0.06783885377798204, -0.019769996502494516, -0.46764074261599026, -0.02194025548110662, -1.0971649159101344, -0.007252917194384286, -0.0834586093876743, -0.21372212908528315 ], [ 0.003297373380121817, -0.010963144556582939, -0.032061494760870446, 6.401823058220906E-4, -0.05593799192617254, -0.07966463951471008, 0.0284792286152686, 0.01158938186445191, -0.04398901679967168, -0.08890064860328209 ], [ -0.03929024460911055, 0.014828748319628616, -0.007533072632542849, -0.12664761985510678, -0.042762944867365565, -0.06827175927984519, -0.07939923160137795, -0.0615661011328415, -0.02806913212040453, -0.08897978633518233 ], [ -0.0441537914453096, -0.04876219218457586, -0.12560653624693932, -0.12223956907469945, -0.21719300086859533, -0.058054574712740704, -0.31862947414115395, 0.010828746028307292, 0.05617329957987739, 0.04560577078623124 ], [ -0.06489338539458232, -0.06682675676156448, -0.03883692192505099, -0.0070637044260015444, -0.03871823849580139, -0.04340097605163217, -0.05550513073037609, -0.07212612022157724, -0.09868253825175673, -0.06764697430624665 ], [ -0.00957615118566827, -0.0024298591281732944, 0.04295016631002391, -0.00966228740215713, -0.07508535109595321, -0.11177449910684387, -0.012251885730873569, 0.052656431983235344, -0.08648865188350759, -0.09245395945265299 ], [ -0.013462884979618069, -0.14011245572164546, -0.08561219524168387, -0.034043291377627335, -0.42353823957239506, -0.06103747485807468, -0.46942270718223666, -0.06728365670813208, 0.14366662344027964, -0.0442580106388268 ], [ -0.037347303199350916, -0.08830753376249684, -0.0591785696328956, -0.07362926283992563, -0.4956820656848206, -0.04624966611276615, -1.0844491191329417, -0.04428128736166548, 0.02200880480411978, -0.029605004682383626 ], [ -0.09781933714350129, -0.014689303655782205, -0.027204831148877763, -0.03532557134573832, -1.1807144431629777, -0.23646460162127833, -1.3419769425343167, -0.09098479865087895, -0.0599592323943202, -0.061797378973706636 ], [ 0.04527464853199276, -0.010924502847380063, 0.022578279400548285, -0.017200813147062847, 0.048109695383301496, -0.08435175860204625, 0.09640840447917172, -0.0185089185940346, 0.04883468284133139, 0.08428054960178243 ], [ -0.04470201174296581, -0.02689376177656521, 0.001790163202049894, -0.08563157664429609, -0.2850393313886548, -0.01961488587874969, -2.371784244235041, 0.002372437055085921, -0.029877668891174165, -0.1642668002441323 ], [ -2.0317974373678876E-4, 0.028433408753815795, -0.05745823806531426, 0.14353336749816115, -0.025545083090059397, -0.023029894626458696, -0.09028937786401144, 0.01060802767105269, -0.10562780845334829, -0.0803894281377368 ], [ -0.07468564441466434, -0.062385764810892204, -0.03153701745389215, 0.006494154730905803, 0.3948180100589469, -0.04054887701446079, -0.16902631329830511, 0.030344045705428452, -0.08823461042404501, 0.1652918603502106 ], [ -0.07164336401708016, -0.09701837350190122, -0.035598933166619606, -0.14364848308508676, -1.5762781495517357, -0.29210823779827244, -1.9378231353560902, -0.07193459210815263, -0.02318108330731307, -0.14407577103928385 ], [ 0.04538009631953008, 0.028303329791925163, 0.06213075727515301, -0.06872552204048854, 0.00554094814448891, 0.02555527810544019, 0.008176177867636003, 0.04251522669751033, 0.0422338818601891, -0.005995394173946324 ], [ 0.029854526872348026, -0.09382929450709074, 0.03962431461584854, 0.023084930991019176, -0.09280061990631011, -0.02402122203526477, -0.07387090594469362, -0.08981512799595329, -0.08028706076720651, 0.02103007915140628 ], [ -0.02389396314169901, 0.023387602546983473, -0.04312146377613407, -0.0700553994771974, 0.012882693805558893, 0.06472176666425576, 0.034586577063339924, -0.07556166830491974, 0.02780391102661202, 0.036436543670348084 ], [ -0.11492009557080307, -0.0975625748248067, 0.040879922895819244, 0.01791875086956867, 0.007857510805692436, -0.08344042980088955, -0.03771316185644514, -0.09084177490169808, -0.09538656453738481, -0.011532730353915908 ], [ 0.02631551596280555, -0.03330832195492106, 3.7423978361810124E-4, 0.01093000360634164, -0.02194727921724962, 0.07992249990027296, -0.10649470270180773, -0.048134605455934384, -0.07418288275826894, 0.06312490496043774 ] ]
  }, {
    "Size" : 1,
    "ActivatorType" : "Identity",
    "GradientAdjustmentParameters" : {
      "Type" : "Momentum",
      "LearningRate" : 0.01,
      "Momentum" : 0.9
    },
    "Type" : "StandardLayer",
    "L2Regularization" : 0.0,
    "Bias" : [ 5.499320217079199 ],
    "Weights" : [ [ -0.1218460019363463 ], [ 0.13198151606157857 ], [ -0.29657463722454913 ], [ 0.733200114147387 ], [ 1.6626676773116298 ], [ 0.024749194262891728 ], [ -4.025989066692089 ], [ 0.03820232412768978 ], [ 0.025976139490756493 ], [ 0.7223716850107545 ] ]
  } ]
}