{
  "InputSize" : 7,
  "BatchSize" : 16,
  "Layers" : [ {
    "Size" : 15,
    "ActivatorType" : "Relu",
    "GradientAdjustmentParameters" : {
      "Type" : "Momentum",
      "LearningRate" : 0.01,
      "Momentum" : 0.9
    },
    "Type" : "StandardLayer",
    "L2Regularization" : 1.0E-4,
    "Bias" : [ -6.7557242852562736, -5.77443123760673, -4.1694102578810535, -2.7952426035976257, 0.14444612818100708, 0.17647576386474195, -1.7216730153006334, 0.7512242518126897, -4.09320746132756, -0.684891106194358, -1.920119355960455, -3.205192154439232, 1.0030570651996646, -10.940613932579213, -3.2642529004606833 ],
    "Weights" : [ [ 3.984767274393343, 2.6725113213518537, 4.895681968264126, 2.493832460939986, 3.2322341209344096, 3.035795780833737, 1.276956165715713, -0.24806640338739894, -3.3192657644075023, 3.107316450625915, 5.121172920604647, 3.1141149328505446, -1.7845961554465515, 5.408500606013096, 0.3085003794403533 ], [ 0.19086874348680102, -0.1680498601101459, -0.038143628509273525, -0.04115496123123245, 0.0359182745165897, -0.047457473039577425, 0.06925313034182351, 0.03763750283004246, 0.07180603026903987, -0.034751627101689914, 0.0030821698005251805, 0.03818127226170433, -0.04385167932925552, -0.09697601105073408, -0.1430851072572828 ], [ -2.36505422600223, -4.258907203432627, -6.693776531896509, -1.0975117981013076, -3.058169765125863, -2.2056953170747717, -0.1987003945136611, 0.003863044139250784, 1.5083973547351803, -2.1814922653324733, -6.145367485348171, -2.6837311712733922, 0.8352957737557333, -4.467462779507329, -0.7409174034261121 ], [ -1.2009800509510922, 2.3329222766442728, 1.2374877925359251, 0.31655355438147786, 0.8746439157016171, 0.658287568083317, 0.2173978716095268, -0.9119559063744169, 2.202458968284002, -3.1562488692107262, 0.6449850832486759, 1.3645260108927144, -0.8821971497951469, 0.7319662417355143, -3.9869148645569976 ], [ 2.183460822801684, -0.004090243254451049, 0.23433277545138775, 1.7871326017907359, 1.1619765566335387, 1.7958267787800344, 1.6946549775490334, -2.202035129440595, 2.191613100845264, -0.69848237340588, 0.7077944816665985, 0.6582175328961669, 0.9406104051769721, -4.754099390801551, -1.935528138016745 ], [ 0.3455496171381238, -0.15145673889210962, 0.049519411277805195, -0.27918899194834484, -0.0641725440430043, -0.13009865224510433, 0.25988598887587594, -0.08031494452455819, -0.0663055926472816, 0.2153033585160494, 0.09093050495048993, 0.22008950839217553, 0.05956023667532474, 0.2979880943282819, -0.05035840682393052 ], [ 3.698009816933406, -3.2795774181148527, -1.342562274704241, 1.4465688920917594, -0.19176906871529062, 0.9861464011053895, 1.2369758955704413, 0.6682961381638473, 0.5896377940036298, 0.9202346216033191, -0.2205074634956964, -0.23094483054327963, -0.17933197650685082, 1.2816613107105277, 1.2242118505436212 ] ]
  }, {
    "Size" : 1,
    "ActivatorType" : "Identity",
    "GradientAdjustmentParameters" : {
      "Type" : "Momentum",
      "LearningRate" : 0.01,
      "Momentum" : 0.9
    },
    "Type" : "StandardLayer",
    "L2Regularization" : 0.0,
    "Bias" : [ 4.908923215668058 ],
    "Weights" : [ [ 0.6612577221510632 ], [ 0.41918215509701356 ], [ 0.4785604571328995 ], [ 0.6705896527031632 ], [ 0.9592465943273584 ], [ 1.2216754748589236 ], [ 0.6090990868974229 ], [ -0.9887931864881597 ], [ -0.8657648434639034 ], [ -0.6065287648642509 ], [ 0.764752885202733 ], [ 0.5049287348440278 ], [ -0.7986947350781389 ], [ -0.951107642056735 ], [ 0.7293410221698818 ] ]
  } ]
}