{
  "InputSize" : 7,
  "BatchSize" : 32,
  "Layers" : [ {
    "Size" : 20,
    "ActivatorType" : "Tanh",
    "GradientAdjustmentParameters" : {
      "Type" : "Momentum",
      "LearningRate" : 0.1,
      "Momentum" : 0.9
    },
    "Type" : "StandardLayer",
    "L2Regularization" : 1.0E-4,
    "Bias" : [ -3.915796782677604E-4, 0.6011881716532191, 4.336570914981158E-4, -5.055156405551559E-4, -3.7203619886958406E-4, -4.4964232980032766E-4, -0.0211106764519016, 2.1997780775834193E-4, 6.305094164332893E-4, 6.672099081441004E-4, -3.9967025256726905E-4, -0.05127580665525139, -3.57593114893107E-4, -3.4546636306253246E-4, 5.722758149746609E-4, 0.014177325194597953, -0.47341509362905926, -3.645389965113447E-4, -3.875399481825928E-4, -3.5645041137221783E-4 ],
    "Weights" : [ [ -0.002319220933073716, 1.613867703099377, 0.021123988709766096, -0.011842465531237092, -0.005953507433310755, 5.821499401035565E-4, -0.047021487814739096, 0.01824842203563889, 0.013627252009274535, 0.02164026444824454, -0.018675292735941318, -0.06149271141308566, -0.003952521649997424, -0.012384729624351597, 0.008289581656598518, 0.008148624398292914, -1.7704939449476638, -0.008179822226612772, -0.020578611838280244, -0.019477732930414115 ], [ -0.0018495946508793582, 0.12478258707253641, -0.011721036600882391, 0.008847560486398476, 0.006027746755726545, -0.007051694582465652, 0.0018428107626814313, -0.007603210363828662, 0.008280067029985946, -0.004195401560407163, 0.007375388121652034, -0.01969838498155973, -0.016691933954934478, -0.00899274898972566, -0.005562553705490857, 0.0029500770874712804, -0.06976980392317163, 0.008587239146492776, -3.1353074459465597E-4, 0.004219169504583256 ], [ -0.01691577143765846, 1.6968762502213806, 0.006960126829614772, -0.01732505687945465, -0.015169309994307129, -0.01899995426549388, -0.02932701961651628, 0.019007010769237893, 0.010440051056442374, 0.006785661970056122, -0.004718818352656298, -0.11300580299032137, -0.014532314856796461, -0.010893850074659473, 0.01984491835509123, 0.025165366405838198, -1.9211317061913733, -0.02048923930188165, -0.0022551025259254904, -0.005281196095748752 ], [ -0.011940989736434987, 5.025860915877294E-4, 0.005815162642904642, 0.010651248112867325, 5.494699476998131E-4, -0.003984464579037921, -0.006880588054119902, -0.015112908193566357, 0.011571962408330173, 0.005196284726921691, -4.2875669141711054E-5, -0.0058093050400896745, -0.004818899902461597, 0.0073432329296931895, 0.012344422415554775, -0.01013076596798046, 0.00866435924865889, -0.013780385609624888, 0.001688921590480813, -0.005380667338383615 ], [ 0.014789802492705843, 0.01128067652308947, -0.015026819462405527, -0.008434366064159423, 0.008241863215475025, 0.0031277188010887724, -0.011562583616314449, -0.013812166825409125, 0.014507995097980057, 0.010086143290786977, -0.012119983046678292, -0.011334338550611677, -0.013622021647716056, -1.545817902368665E-4, -0.014640094572374184, 0.010634618680260582, -0.029278262263640262, 0.005678072175562321, -0.006706464019289164, 0.0031149451626532976 ], [ -0.010950999867052386, -0.008787399088648165, -0.006021674167615928, 0.010219092524535742, -0.011161751628212152, -0.005352057114830962, -1.065505254298502E-4, -0.011189063892615338, 0.015031227112465547, 0.006323089684373092, 0.0014821946575291243, -0.009038149489935102, 0.0064545300711710656, 0.014144179997901728, -0.002543700090386252, 0.006154662791669895, -0.0061459887478383735, -0.01093581711585187, -0.010502828729905843, 0.014899579903458544 ], [ -0.007419041143509988, 0.003352654186368454, -0.0026798233999519566, 0.00478265307521797, 0.0042455019349426784, -0.011212674088780596, 0.004398305497038352, -0.011063064958628051, 0.0017575657773514137, 0.0031877711854280807, 0.005590041004187284, 0.004539468515815264, 0.005671506552808264, -0.013446396947805441, -0.005264283775083737, -0.00334073676611119, 0.002945159088679702, 0.0018030286488906133, 0.012902248912261204, 0.006459739001392144 ] ]
  }, {
    "Size" : 10,
    "ActivatorType" : "Tanh",
    "GradientAdjustmentParameters" : {
      "Type" : "Momentum",
      "LearningRate" : 0.1,
      "Momentum" : 0.9
    },
    "Type" : "StandardLayer",
    "L2Regularization" : 0.0,
    "Bias" : [ -0.7106423133092132, -1.405237311144428, -1.5733713008908596, 3.52560008885603, 4.334083154591322, 2.5421645233899732, -3.454078236224918, 2.9795770612130186, -1.026783191014371, 3.6373975250764237 ],
    "Weights" : [ [ 0.8924425455740341, 1.0874857904186468, 1.3169214433730463, -3.2702287870284645, -4.35182803775791, -2.1025134371528162, 3.8009293945079037, -2.743340117344752, 1.039075171472079, -3.3659985389625215 ], [ -0.7449189876494665, -1.4666600589530674, -1.118922969264161, 3.5260746958141578, 4.064168595052696, 2.637480891619144, -3.031897886270054, 2.810355328222377, -0.5373226119161992, 2.942747973743377 ], [ -0.7647101175291966, -1.2396300121234918, -1.6830862408644298, 3.2482680559280794, 4.05531206877108, 2.5764263977521864, -3.4672342228711073, 3.245834822605357, -0.5885824399511574, 3.9685992237896106 ], [ 0.4425418673164885, 1.6020386333591303, 1.9703824448907294, -3.8645842994134676, -4.376563665626536, -2.8388336117382793, 3.528881908317299, -2.962386898167669, 0.8017054752667256, -3.275357005220895 ], [ 0.6398777086923233, 1.0060417016324166, 1.5180537772703435, -3.3322361631636674, -4.117554375050147, -2.9754143527718413, 3.0620519564088338, -3.1777742547881216, 0.6064983429310814, -3.4738628924388144 ], [ 1.0030636002471027, 1.2856735455066217, 1.1599059428477154, -3.2295086910702775, -4.662243522605135, -2.2859546408560463, 3.7659247844378188, -2.763293330221871, 0.6360423012971369, -3.8732143670062933 ], [ 1.9420513274159592, -2.121953058938914, -1.1880714569795983, 3.561337303263199, 4.044610086842, 2.6349755729038704, -3.5682702512100795, 2.88875380026028, 0.8569779542744846, 3.3978733662167167 ], [ -1.0595291419035513, -1.2232786906439057, -1.5081691524992524, 3.7929262620092565, 3.8994149911441944, 2.14187110866083, -3.3918902681231793, 2.821802889821747, -1.0209664315616869, 3.285203787720643 ], [ -0.997338542176085, -1.8343763870955918, -1.340585279747566, 3.271253165766539, 4.305369355553473, 2.577673673116607, -3.6992186260864255, 3.4073201092200716, -1.366068816145235, 3.3116953353664504 ], [ -0.4917492549280056, -1.7380547771526247, -1.6250153097391247, 3.2458435048841414, 4.605556466884616, 2.774282231605947, -3.807642574906096, 3.1303324092096605, -1.405375312177711, 3.885898206716511 ], [ 0.8891447624827893, 1.0586607600939983, 1.2440613908236722, -3.3049555473685848, -4.483584103942437, -2.549812022864297, 3.06404609636646, -3.3899532720165193, 0.884767619799719, -3.882979298360034 ], [ 2.017261630877387, -1.9158339064773908, -0.8706938693066038, 2.602229796838911, 3.498980586583532, 2.299351717437641, -2.7631624057398607, 2.4922685736319745, 0.32337030124346067, 3.063714250045687 ], [ 0.8697893733992897, 1.1850786971174185, 1.9557637536807113, -3.65464153367446, -3.986264016476357, -2.0994129001705, 3.199060916903084, -2.612564068717814, 0.8713929356575055, -3.7694674401317263 ], [ 1.089868638002547, 1.151720540090941, 1.6859519027015053, -3.5054088068136218, -4.296933926343092, -2.2908015473671464, 3.4461450890476435, -2.9879353121130023, 1.44681202194307, -3.633904407068814 ], [ -0.5346137778676635, -1.7392793017792316, -1.3768060488956007, 3.6549137837747048, 3.927459267615788, 2.2995947876416425, -3.117465898924704, 2.8308330575328373, -0.7066642804923976, 3.581817979831893 ], [ -0.5601843712356908, -1.7322586009260943, -1.433355471942326, 3.6725306211654454, 4.109748638601559, 2.7053643916348555, -3.632013724273162, 2.9587740587694165, -1.1930618305936833, 3.760516283352998 ], [ 1.039700604428937, -0.39332541116700576, 1.2510630535102996, -2.232946215989268, -2.1849641688199943, -0.8885057397739072, 1.2778779204424946, -0.9994207550096628, 0.36296245450496467, -1.5863242532965818 ], [ 1.0416626298128948, 1.2602168043364492, 1.5835210179885295, -3.7371885942424097, -4.72243177758782, -2.540659518404759, 3.790535020896901, -3.060373455767315, 0.9471175879802933, -3.9517912105021664 ], [ 0.9912907443429428, 1.0862460294038534, 1.4933905748607137, -3.4183709739663337, -4.74164135168204, -2.7289692398115757, 3.4556605899322856, -2.986502024893569, 0.7157279012489051, -3.940873223189627 ], [ 0.4010984888010683, 1.0415207691174304, 1.6356573024300662, -3.622379602489853, -4.29020227694343, -2.675214392262948, 3.366864413993898, -2.759152324100287, 0.7121845191628329, -3.8398722318941103 ] ]
  }, {
    "Size" : 1,
    "ActivatorType" : "Identity",
    "GradientAdjustmentParameters" : {
      "Type" : "Momentum",
      "LearningRate" : 0.1,
      "Momentum" : 0.9
    },
    "Type" : "StandardLayer",
    "L2Regularization" : 0.0,
    "Bias" : [ 8.7166590523352 ],
    "Weights" : [ [ -5.360783604298281 ], [ 5.574317950539788 ], [ 6.139160883962024 ], [ -0.8889754938228498 ], [ -2.0639390399053705 ], [ 0.8356410571843031 ], [ -3.718728182735806 ], [ 4.674660478613181 ], [ 5.244652497718815 ], [ 2.943034334205245 ] ]
  } ]
}