{
  "InputSize" : 7,
  "BatchSize" : 32,
  "Layers" : [ {
    "Size" : 20,
    "ActivatorType" : "Tanh",
    "GradientAdjustmentParameters" : {
      "Type" : "Momentum",
      "LearningRate" : 0.1,
      "Momentum" : 0.9
    },
    "Type" : "StandardLayer",
    "L2Regularization" : 1.0E-4,
    "Bias" : [ 167.14698082654687, -113.10098406749832, 1.6819096610713993, -12.01444149473864, 27.440377612344925, 18.09242083724028, 3.8047717902423996, -6.470559440748969, -32.536257966566474, 113.69470143929539, 45.230726254423104, -297.1534443420739, 173.18292059496403, 62.70394892438718, -406.4754486508915, 142.6311580060652, -231.375054569661, -172.56578521171193, 69.39913132873811, 30.482216972205094 ],
    "Weights" : [ [ -106.76710191097673, 1.7742591550837736, 51.58886046446515, -0.06568414362613487, -0.00842125064620276, -100.28989776021962, 14.08070488374347, 0.002953029788999302, 138.40798311206134, 164.50075805676082, -0.06243434358567611, 30.173657030054272, -2.9932630389760932, -96.01470219438522, 47.52364948157203, -180.83522811792201, 124.80185525871883, 1.4324276604209956, 13.44684415719182, -24.340371255754196 ], [ -59.23573905185746, -0.46821771452800637, -41.05864261969088, -0.0025857196714031043, -0.046067131559680945, 48.450371331445574, 384.5751169069933, 1.1909215283639051E-4, -54.04440160993258, 15.547242975077193, 0.15935703992224087, 27.6033628414047, 1.055432910999971, -70.2514843335763, -39.81834722401778, 5.231577778867298, 39.19054460676804, 1.0280505985199913, 41.21469436818996, 33.012969151532076 ], [ 22.60883610367808, -2.7190190486110044, -89.62219797239105, -0.057178653607263624, 0.034415210804493834, 4.054838298557524, 20.833626474522386, -0.038316552188022684, 20.703011168457717, 77.84073360432845, 0.10739930053286675, -19.656532475564383, 1.9094377141177572, 5.30978261680122, -16.15667248414184, 60.37396902008762, -93.32706041155421, -0.026661677843431007, 75.7600776168625, -63.53168448878844 ], [ -124.12557769049789, 1.884195299322036, 173.92969835403798, -0.1723860888338857, -0.07346494974346197, -48.06025753101292, -202.1544251333169, -0.021090048029783218, 61.67388459584285, 49.32851163792707, -0.05922214441660938, 14.412040983556611, -2.7031921614974523, -125.65393460145384, 19.047478471456802, -196.5787239838817, 238.65724849684324, 1.643724398009864, -71.58890405847775, 17.83678783097095 ], [ -127.70546304516024, -0.1394787845009092, 43.89912974273937, -0.1579672822405954, -0.20019426507981034, -132.23569480358893, -211.57105198781832, -0.04344553972276672, 116.16969665111314, -36.58526854053375, 0.20050161537959865, 78.95139169479476, -0.039630548217011265, 4.168644643206099, 57.222469828353546, -132.6263555594414, 91.22652048651697, 1.2137280055785205, -91.81551988645953, 59.51974392206537 ], [ -14.964219565080787, -0.37830008649599334, 52.53860449869268, 0.02370105597018906, -0.03531353813227833, 0.5992641247799901, 87.69830507903355, -0.02886678921623635, -62.08948183728609, -52.28397011295079, 0.3790633772024722, 7.9994014907709525, 0.8764878160783405, 55.59196465852559, 25.028179719784227, 92.04481283180154, 107.2915106895062, -0.7137986493374839, -49.559304620770206, -62.555610124574336 ], [ 24.700645577772768, -2.900743907330334, 40.67869689147251, -0.06463675095731627, -0.06712887816513073, 67.5875867646249, -168.96544297140662, -0.02342671262619653, -46.94508711594194, -30.20427144359903, 0.06528693633620157, -36.68875190687921, 3.0791892336030933, 7.791164648015311, -15.725073911842195, 92.2097025889199, -38.508521959293624, -0.4928799169235153, 49.031670210471326, -23.636010638493683 ] ]
  }, {
    "Size" : 10,
    "ActivatorType" : "Tanh",
    "GradientAdjustmentParameters" : {
      "Type" : "Momentum",
      "LearningRate" : 0.1,
      "Momentum" : 0.9
    },
    "Type" : "StandardLayer",
    "L2Regularization" : 0.0,
    "Bias" : [ -35.25321680433248, -38.71713205183925, -29.844140018935665, -11.959421789904848, -14.279736906066873, -12.807652485656853, -22.134402422394952, -35.119631819423944, 13.476514121914256, 7.576223835059349 ],
    "Weights" : [ [ -49.315211928582286, -18.80076169929161, -15.727301168819391, -1.7552299619306218, -3.0868599885733135, 54.886298936301, -3.285623554948815, -17.705159529630055, 1.4265854535413716, -0.03325146440905654 ], [ 30.029635184138904, 1.2865706772257541, -0.40950615062799417, -1.3224441773376792, 1.2568719846433969, -13.192303244628896, -4.212084693503289, 37.0156098023826, 2.6716398882196013, -0.3212997645931541 ], [ 28.728830538247667, 16.350993783639492, 14.949342291388612, 3.1357837461895075, 3.9208855512257252, -63.61147466671536, 1.8018856699984027, 36.99872144883298, -1.2925919546967872, -1.7393832127600601 ], [ 34.79712213551302, 33.71616098527728, 31.26666885570697, 11.91471640944121, 10.752774789432227, 17.46071563172797, 19.734018843125185, 28.40594731196342, -12.59037098322552, -3.7515531439709005 ], [ -33.38821726493866, -36.43880664190615, -30.258170341668162, -4.658740796267418, -8.044794510420507, -16.270042659179392, -13.467901872241603, -34.59121530498285, 9.168493969989381, 3.84134454997322 ], [ -38.49509129260306, -5.285400099327399, -4.100018929767332, 2.0905714204672274, -1.3221495198317315, 49.40900213135607, -5.928358209783459, -27.405870902661366, 3.8751798669488227, 1.2584758175292343 ], [ -91.93011210373255, -15.983616923699461, -1.9571076963217584, -1.4329757286375044, -3.3913711167939122, 10.589685596130588, -2.9059008935590107, 83.15858194463377, 5.019445992868765, 2.5255057580506763 ], [ 32.98649258519284, 33.838005899625706, 31.278129829166602, 7.383911037071815, 8.837177403831085, 17.905543279849798, 19.66304428772649, 29.790033231371456, -12.605251567634978, -3.5779137182012666 ], [ 25.026552148439215, 18.90838305210643, 3.9393340450538203, -2.555894098254948, -7.337574876026671, -43.32518022650299, 4.051645937556483, 39.06902583394283, -0.36098317581120715, -0.44064937144352356 ], [ 41.600705552299225, -20.056624699765923, -15.112685246723267, -0.4242749790377402, -4.5850634414369, -64.71579151705251, -11.170765272581551, 18.274243417712437, 3.7188094006100743, 1.074627434448729 ], [ -39.15910168094875, -34.678877488460046, -14.585111553119544, -4.364890198520857, -5.086534545336285, -21.52064020284772, -12.6065133730562, -21.98877395948655, 5.010615844234233, 2.2680993024039275 ], [ 27.568525282536108, 17.21939108964313, 7.723226297277135, 2.0340841837021557, 1.6538808375168823, -21.44055927812605, 11.087829437401803, 11.55639590597879, -4.347154581443525, 0.9324462499468746 ], [ -24.556929459022733, -22.276546073009623, 1.0131647186384931, -2.8322839690954975, 3.7177015049990456, 11.313244288779945, -10.099248161206887, -41.8382957786428, 1.0054567874693574, 2.627424874111452 ], [ -30.954140576928438, -5.855262924006738, 1.396300359714757, -2.186285802686699, 1.0182241248499393, 19.12297473964528, 0.17644997492668985, -40.526476656140645, -5.210776415010626, -0.2982320687655636 ], [ 45.79208475828297, 8.313250125369743, 12.226824431627374, 2.139559054529345, 4.0810372497404, -23.17204316637972, -3.8979862842093227, 47.60771227370685, -1.894301414972285, -0.7473013199818438 ], [ -49.335781417299, -17.955901442174646, -16.448497253328718, -1.3707183984176872, -5.810578848520012, 41.14850227132917, -4.351116204309469, -43.48178433623289, 3.3805702036218075, -0.9431164057770537 ], [ 44.14440024329878, 24.168222974297937, 9.784797527437867, -0.7558963426845066, -0.5938668558163533, -42.68134521364493, 7.122128574599308, 56.282172443462635, -3.846826164605501, 1.2938042142332198 ], [ 16.111307905402, 36.58476211748236, 18.60087843623207, 2.1944887977701333, 4.6441525658168, 17.43284038044207, 7.770826279919793, 21.56583531059102, -13.051485923137129, 1.2132480506110428 ], [ -28.808653857947967, -8.051017298489638, -0.013260082082168449, -4.386849046477058, -4.783681459176371, 45.28186126665576, -3.8694978452340334, -21.093626261712277, -0.4419896835091683, 0.4764742004110929 ], [ 5.2388658709222655, -8.08590915863088, -8.505449456477638, 4.129182342881576, 2.864884415142691, -32.595309206221124, -2.630665587618586, 11.731405987047154, -0.9743206654816522, -2.0592992395405005 ] ]
  }, {
    "Size" : 1,
    "ActivatorType" : "Identity",
    "GradientAdjustmentParameters" : {
      "Type" : "Momentum",
      "LearningRate" : 0.1,
      "Momentum" : 0.9
    },
    "Type" : "StandardLayer",
    "L2Regularization" : 0.0,
    "Bias" : [ 13.7828081224928 ],
    "Weights" : [ [ 4.1959980881501595 ], [ 6.836745284179397 ], [ 2.3822418143092268 ], [ 1.8554232401269153 ], [ -2.7843628024747735 ], [ -3.4935101582255657 ], [ -5.180311878967888 ], [ 4.51151589022223 ], [ 2.635566338260052 ], [ 0.9685544683446988 ] ]
  } ]
}