{
  "InputSize" : 7,
  "BatchSize" : 32,
  "Layers" : [ {
    "Size" : 20,
    "ActivatorType" : "Tanh",
    "GradientAdjustmentParameters" : {
      "Type" : "Momentum",
      "LearningRate" : 0.01,
      "Momentum" : 0.9
    },
    "Type" : "StandardLayer",
    "L2Regularization" : 1.0E-4,
    "Bias" : [ 2.0573665049635004, -4.265748647324436, -0.6806233540240079, -3.4511077533816894, -1.7263803970083031, 10.78416940637991, 1.5679126241318777, -2.8571640045820987, 3.656618486145512, 1.7095428666941133, 1.8453929082878355, 5.461722274887216, -3.044102114415802, 3.2391461760535623, 4.835391138049515, 1.3078193280190546, 0.1354757806895376, 1.920604506653072, 0.20472843685373765, -0.9383839869113759 ],
    "Weights" : [ [ -2.5235300282269226, 0.29061618152973534, -2.386669376653878, 0.21687349572139877, 1.0022428457731851, -4.606138715779304, -0.3464797348106345, 2.2789984047797973, 1.5651644884834275, -0.28411704607049454, 3.0025067591210255, -2.968151599387322, -3.212682600846962, -4.27506566494983, -2.7291771742286235, -3.853702408577919, -0.9640224677716636, -1.313572219727169, -4.953536534453568, -2.194060703187343 ], [ -0.420481922119194, 1.030383689241001, -0.15541756693948802, 0.3215461572382105, 0.09707241219632613, 0.21395940709013245, 0.14682630096729127, -0.1446435379442654, 0.15481969109393823, 0.24013553497997334, 0.15014167386291435, 0.14199680075274218, 0.010672960380653237, 0.07331004281654013, -0.03869808959917464, 0.2664434330002271, 0.08077285359800992, 0.031047960195386304, -0.13455616113354257, 0.06634934718960708 ], [ 1.55588337993592, 0.7728015247545529, 1.0394910505136166, 2.265892537928244, -2.2740817115220513, 2.3079685532341636, 0.6291786305972196, -3.703611183149029, -2.2667594096785573, -2.211875996047693, -0.9174396615129137, 1.5857920070580533, 1.940337571097523, 4.131974136042228, 3.6080721306501307, 2.9962236096461328, 2.4046021552156005, 0.4704458409091988, 5.612022544857244, 0.0642696270207274 ], [ -2.617760941782974, 2.3721803240316626, -0.10708136847120729, 2.6762306979846655, -2.9622009128722784, 0.13976996847399384, 3.414251882069971, 1.4539097881558831, 0.30515809092943846, -1.3627657986317543, -0.18216954067860452, 0.022711796726177357, -0.6583482264742081, -1.0442095803782532, -1.9203969153961855, -0.02296768807467435, -0.8099317136352805, -0.14441187006025452, 0.06007498370214115, -1.546574345228185 ], [ -2.023334826332768, 0.36493965337835127, 1.8655475160382107, 1.0873862292201484, -3.3745983649001094, -2.658345431284724, 1.1854870645627191, 0.3683179390707249, 3.663940004927123, -2.293670613411861, 0.08738105915391048, -2.053030607415904, 0.7571026763616199, -0.8862367538584826, -0.35065163130397065, -0.5098116012672893, -0.9619298900463029, -1.4993225277364959, -4.177064654798709, -1.0165890808675304 ], [ 0.07908573645300607, -0.17545393190311978, -0.1287396841565521, 0.3301706342296264, 0.10342215162927523, -0.14125042814237213, -0.045522365434358385, -0.14231533644997277, 0.031322023416170276, 0.6037359640856893, 0.06516881581986482, -0.058672248829958404, -0.00887017775806429, -0.05285080829725128, 0.044858292874204994, 0.057738155143853484, 0.02727580680353943, -0.12123387037368198, 0.02689064541407556, -0.0037461693597510355 ], [ 0.351035997271806, -0.31091112298807216, -0.8440620351977083, -2.124972770436301, 3.295736445791763, -2.7057466743777514, -0.7582805264594088, -0.8742702942066062, 0.5706726136064555, 1.4991242956928852, -0.01180248245068884, -2.3423882898991244, -0.9255319495690144, 0.7431295386640859, 2.372429140630257, -0.5793810938576311, -0.20034353263215235, -1.6623736022775308, -2.1850481764457443, 1.162253034427124 ] ]
  }, {
    "Size" : 10,
    "ActivatorType" : "Tanh",
    "GradientAdjustmentParameters" : {
      "Type" : "Momentum",
      "LearningRate" : 0.01,
      "Momentum" : 0.9
    },
    "Type" : "StandardLayer",
    "L2Regularization" : 0.0,
    "Bias" : [ 1.8054384575516687, 4.562889499412446, -3.9886782228653748, -2.511138700506215, -5.721345275083202, 5.397283921525213, -2.3071870978478257, -3.3111548112966718, -6.478796938481708, 4.830398174493961 ],
    "Weights" : [ [ -0.6457686222038889, 0.9724303908257205, -0.9613516771818384, -1.994152030282532, 1.0370089134393692, 1.7567290574301104, 0.6982712631017767, -0.4305934521150763, -1.3783213898073254, -0.2971938079133302 ], [ -1.1129619493765028, 0.6617394330582225, 0.13217790659455833, 0.08043256482420474, 0.4060014563720586, -0.08003136755772068, 1.1403683213916538, 0.28907070874890217, -1.7797802927035697, 0.08578891240023423 ], [ -0.40309351329104576, 0.20333373841477517, -0.6870680510452022, -3.379438150973345, -0.5741884181651755, 0.4074499655475119, 0.13530809088718865, -0.10715757043315892, 0.06358622509003557, -0.5104787151505076 ], [ -0.34132166090400406, -2.7889429072216307, 0.5633883212090937, 3.4188205017169566, 0.3925405875810916, -0.29194396126314226, 0.11242890774308145, 0.1272826109660656, 0.33359281132660634, -0.6805186685288332 ], [ -0.0751731418702328, -0.24559158443896517, -2.432915783837706, 0.7653819606060681, -6.0668035208006, 1.1954739074769765, 0.2244341115972719, -0.7821505949882012, 0.01662182624396425, -3.7436622729773066 ], [ 0.3024980799483201, 2.880835195978427, -1.0657347667312518, -0.965796230069511, -2.884888990775318, 8.695798152417783, -1.1354274915175606, -4.762738494994202, -0.07528434002494917, 1.642516595324525 ], [ 1.4051186392093935, -0.7408462435228464, -2.1529247907222446, -0.34706216567583, 0.288379101061373, -1.8531643118827437, -0.6856984103075551, 6.302833692171316, -1.2286585614114451, 0.25526835160500466 ], [ 0.03115148908299261, -0.6406839489871448, 0.4074430427197577, 0.4059027739592476, 0.7318213419639842, -0.4217121890650052, -1.0120910087982038, 0.8005967570307085, -4.004451611105664, 0.30887426972986937 ], [ 1.6448682962378742, -1.2147324189176263, -2.394567568340128, -0.562633429325843, -0.4029921968333183, -1.25201523493864, -1.1389954894868317, 0.6330435552012013, -0.022254228748110474, 0.6533963067726944 ], [ -0.11228472603016108, -0.36562853243232274, -0.6166667190413332, -0.4446503755084731, -0.5163454257188154, 0.25476436808840247, -0.23807999994515508, 0.12041959076100565, 0.222346803476301, -1.8038982970436521 ], [ -0.48450897238618135, 4.605285962521815, 2.504206028765581, -0.5901719685612149, 4.961731338424728, -0.7335056516874725, -0.6514133760302276, 0.76076505354238, 0.06252545982739713, -0.23542263689135606 ], [ -4.472891432222743, -4.045139661311254, -0.9433675204653698, -1.100007533144867, -1.065083143471352, 0.7541765102597691, 0.24484769528011904, -1.2191479176809272, -0.5135488170266107, -1.2669051186136782 ], [ -1.7431334128161693, -0.050377330249316135, 2.72214565506601, 1.6261801181910958, 0.5543247678946224, 2.240893757732794, 0.39893382981688624, -1.0394900425565483, 0.08224346248728583, 0.8642419119337538 ], [ -1.3939610129589988, 0.8559114502873073, -0.5281039442400771, -0.38590135651832563, -0.7684076109227032, 0.6250041806602719, 0.1795176232993454, -0.7406280698077053, -0.6388725180358725, 0.7861307722833804 ], [ -1.9588580250898695, 0.9838073688702719, -0.7945680754314584, -0.8571426155312954, -0.5188726401058688, 0.26125076361135935, 3.159326384524401, -0.020309311961452022, 0.1444461182694162, 0.9040686613065224 ], [ -0.32727657213560213, -2.7465896755023422, -4.39191038305134, 0.2187276572139629, -0.678584654182446, 0.12341260776282818, 0.7464586999230579, -0.7640401991330079, 0.3833441835111052, 0.783921689469596 ], [ -0.33554763132574233, -1.1181609808569297, -1.632879022389847, 1.1291666193176604, -0.9829213012947312, 0.572066228452874, 0.3513059230179045, -0.18874420924071628, 0.10987233619470549, 0.7464791906303563 ], [ -0.4673918916763722, 1.042341273842505, -0.47026331030860075, 0.7690604741462229, -0.905658541880036, 0.6932948993720986, 0.9037046097357357, -0.6603395351836628, 0.3586456279358642, 0.6350559562333674 ], [ -0.46555220331103403, 0.16454202789242534, -0.3600341148487698, 0.7994450867392565, 0.654749762716472, 0.3141469626897812, 0.3472663146734487, -0.9367078796547633, -0.16754474851445159, -0.5412006705875461 ], [ -1.0944270476779034, -0.5557818656464357, 2.696219075105997, 1.450971713603775, 1.4228321738755296, 5.597618201814934, 0.3551235618816161, -0.5967501264118269, -0.10429552641886496, -0.24732516589899894 ] ]
  }, {
    "Size" : 1,
    "ActivatorType" : "Identity",
    "GradientAdjustmentParameters" : {
      "Type" : "Momentum",
      "LearningRate" : 0.01,
      "Momentum" : 0.9
    },
    "Type" : "StandardLayer",
    "L2Regularization" : 0.0,
    "Bias" : [ 11.87095876133921 ],
    "Weights" : [ [ 1.5555075301078143 ], [ 1.0088830674269649 ], [ 3.4069812143001528 ], [ 4.991829582405527 ], [ 2.353189354777516 ], [ -2.304303586272764 ], [ -1.217180322234347 ], [ 1.7122317299412195 ], [ -3.4670763703379306 ], [ 2.6968133195267256 ] ]
  } ]
}