{
  "InputSize" : 7,
  "BatchSize" : 32,
  "Layers" : [ {
    "Size" : 20,
    "ActivatorType" : "Tanh",
    "GradientAdjustmentParameters" : {
      "Type" : "Momentum",
      "LearningRate" : 0.01,
      "Momentum" : 0.9
    },
    "Type" : "StandardLayer",
    "L2Regularization" : 0.0,
    "Bias" : [ 2.0376028054615754, 11.40248591732927, -2.8551382741326727, -8.160109339374031, -2.9870118862843333, 6.578960115370072, -1.77488571234298, -1.0707786996908444, 1.7581168558135571, 0.47281361024811736, 0.7403090706703604, 2.498093632341096, 5.925138909762853, 0.5318825695084933, -5.52318922253766, 3.599778359268958, 3.475938748285457, -0.07827372655179696, 2.260385622480866, 5.158717796604501 ],
    "Weights" : [ [ -0.38674441196466913, -5.797440319827934, -7.677669639125003, 3.0167343572159084, 1.0188447293664207, -2.762479058440434, -2.0894077068795256, 0.8458440480180038, 3.0896905389579814, -2.4784797464765416, 1.6772202772873728, -1.6363757259323204, 1.6570542457730773, -2.7361413012396314, 7.8828322294441024, -2.690793859656771, -2.1375248952251527, 2.5526664784261603, -2.0480165480517076, 1.3260975719236625 ], [ -0.08524189001546717, 1.0012568811686526, 0.017109889974260314, 0.30485786418777855, 0.22886667140849434, -0.00329411736757345, 0.0020089310682425534, -0.15177864392189713, -0.05876122622993775, 0.015428839663666004, 0.03176021056143283, 0.1570145965910347, -0.2393607813947941, -0.08704137294231616, 0.02838716994440094, -0.6420579524602664, 0.3718759142086683, -0.18376181670142894, -0.19892457727693513, 0.20516310667938695 ], [ 1.1698416578777378, 3.22213720714327, 4.559789886769725, -1.3697301535248787, -0.34729559334029814, 4.274302138713684, 2.2406367378132344, -0.6980019385524766, -2.504366670915837, 1.362621189808691, -1.7954906910330042, -0.6584450646377571, -1.9096528769310732, 3.241241096543356, -8.100996666264491, 2.2903614737385216, 0.33926814725445625, 0.07940169455081907, 3.621174711536118, -3.8902304117403825 ], [ -2.8279978396451195, -1.092387394411131, 0.40514365016308257, -0.061080096258131315, 0.18720073078331836, -3.234045178142094, -0.04720932234746352, 3.0420813224584995, -0.25892730687543986, -0.04425628936303898, 2.454449527094091, -1.2196511154064689, -0.09567785688224846, 0.5410303357555373, -0.4712335344892501, -4.043834216198453, 0.8431745311644785, 1.0909141245183798, -0.6083675617716087, -6.399490140317832 ], [ 0.0421919854431051, -1.4890423094547405, -0.803037651260893, 2.0925190521824164, 1.8088669344202633, 0.06805375335252078, -3.1810246804185622, 1.2152207974848217, -0.14070877964512926, 0.6359186466404682, 1.1808800468600609, -1.2997537106085648, 5.294153275619466, -3.1315272349596777, 0.9140542414981297, -2.833767415323556, -0.770201384022561, 1.0337245497182581, -1.893618383747034, -1.8641040872662749 ], [ 0.19880899905474514, -0.11772714565762615, -0.05515246588074097, 0.23353852506127354, 0.10950009856271617, 0.14593353667538142, -0.034677653584328075, -0.12455574628941118, 0.1854896280688794, -0.2054170758135702, -0.11142886250957414, 0.10658538685193888, 0.08961776782292674, -0.1297096757158989, 0.19406508527385077, 0.21517039731744148, 0.21532402931111988, 0.013209210862372636, -0.07818579024084016, 0.2560416803327658 ], [ 2.57906001166321, 0.03932420137477714, -0.6742697053843995, 2.3982729351076038, 1.3249982182737703, 3.474889527787853, -0.3791231788394198, -0.8564960481190083, 1.4660129944172862, -1.0438326249376462, -0.19079682363833522, 1.13464494994605, 0.4235523784473238, -1.29771699140424, 1.6296134137575597, 0.03355292907092514, -2.0105761555246064, -0.4836455304562875, -0.37096440136605713, 2.0173895021864587 ] ]
  }, {
    "Size" : 10,
    "ActivatorType" : "Tanh",
    "GradientAdjustmentParameters" : {
      "Type" : "Momentum",
      "LearningRate" : 0.01,
      "Momentum" : 0.9
    },
    "Type" : "StandardLayer",
    "L2Regularization" : 0.0,
    "Bias" : [ -1.2006301872782565, -3.3358532798510736, -3.2909426532306174, -0.7343049297283695, -1.0635719722434596, -7.49701326218839, 1.563676184019725, 2.1734656274049726, -3.8301048630167704, 3.4779598286889106 ],
    "Weights" : [ [ 0.7611643040127513, 1.0728803813984955, 0.8365312060285083, -0.6005247514520179, -0.4907288270318278, -0.5625414065118224, 0.7783876062424929, 0.31905594070307236, -0.4455392410592962, 0.34088329259603467 ], [ 0.2383715653298324, -1.4461369798951116, -1.463603847989293, -1.5848574102915023, 0.21474039609363535, -2.934334663062035, 1.5410425501218104, 0.535110027203368, -1.740048101597605, 2.508185104808312 ], [ 0.6430940500859514, 5.961370735221593, 0.46204567464450363, -1.9663495907986552, -1.3866798556345368, 1.7900177424981178, -1.0884348339397527, -2.748079084794849, 0.08948559398793055, -0.8138090348405761 ], [ 0.5292160861750151, 1.0200731308918936, 1.3796945766605977, 5.840194582831822, 1.8623749650942936, 2.6227641072875, -0.8151051264948573, -0.7303117103896756, 1.5231324657309284, -0.9866558563093998 ], [ -0.43238979373917313, 0.3112143891023553, -5.641196422760907, 0.37250473133515044, 0.6683384771705121, -0.4628981116642392, -1.0980809448189295, -0.835786718237974, 3.215429765803236, -0.4586592700667984 ], [ 1.915400541002273, -0.475810856007578, 1.1024950885204983, -0.5864859523678039, -1.0723350459652305, 5.806849860469733, 0.8089427899007957, 0.6353911142959218, -0.41053675723976113, 0.33881763915811614 ], [ 1.1758600676355644, 0.3970476881943723, 0.6179190570662588, -0.45878810556436933, -1.3039800150105756, -0.6763348259444105, -0.4026910816390771, -1.1882098514854118, 2.365234698335973, 1.7357948946187924 ], [ -0.405652241838905, 1.4747771950502175, -0.017355367153997638, 0.5006474571105474, 0.6288633664380976, -1.7519585908122768, 0.5528247597667518, 0.620636164882744, 0.14902554659382913, -1.5028154793337583 ], [ -0.8522096531595701, -1.6067825991886098, -0.5308559061160157, 2.376856725153378, 0.9776933618263169, 0.5131580448022884, 0.5805020826576832, 1.7817553264902422, -0.7512757919428954, -1.0142955987016862 ], [ 0.5352830433324087, 0.7676715029438032, 0.24799118218915447, -0.33361024599780004, -0.18834282528269475, 0.31093090781285776, 1.3219771916229697, 5.316588310962862, -1.074530977939533, 0.3650387647237159 ], [ -0.789592942599154, 1.3874966379682978, -0.7456643479286973, 0.3326693461376169, 0.7034344421402647, 0.45800349395648515, -1.2997152859224503, 1.9873547690822178, 0.23879265030231034, -0.9391976737423894 ], [ -0.13326793775463394, -0.9000324653127949, -0.14243475833389035, -0.4621752389966194, -0.18906815179367262, 0.751557089198837, 1.1174361722600163, 2.99005540084366, -0.3721581601520006, 0.44805446362539214 ], [ -0.7798340624620258, -0.7068891410807561, -0.9257272258687643, 1.778744822228747, 0.9158211072552431, 0.21876020356955475, 1.5718510290171528, 2.322904836862866, -6.729259086517948, 1.150421898293741 ], [ 0.5823474812259487, 1.6707049703778873, 0.27545101891713686, -0.6843185500469354, -0.30222564239980115, 0.2592811315023731, 1.6219966420508718, 0.3507539490866294, -0.26996349637215594, 0.5571721899999733 ], [ -0.7831379886524065, 0.9515406269936005, -0.19044979060381423, 0.29708610998681223, 0.33792429002560015, -1.187297819558829, -0.9506179010185337, -2.559268357995732, 0.3540654477716424, -0.7795018726657967 ], [ 0.5265452247092406, -0.791540761332604, 1.8394950496644369, -0.322534938744127, -0.14811842165590075, -0.9123025970097248, -0.3941447309276921, -1.6024807876888219, -0.4583391802247303, 0.010608043746118226 ], [ 0.561716550344661, -1.014070282499282, 0.2881959322173858, -0.11196136042755775, -0.3133811162409775, 2.2547734989180626, 0.3660528878594273, 0.2574742169152211, 0.11182367046259609, 0.4670058346082748 ], [ -0.6971946717594993, -1.5123873336012588, -0.13199110198129635, 1.8280101271225377, 0.9350294857386724, 2.30111646847717, -2.021674284075851, 1.2940611212779956, 0.16067057034956092, -2.931962296767654 ], [ -0.2730517126515139, -2.350875831776345, 0.07726484924252858, -0.2285802899763819, -0.13051804849784196, -0.605982426395711, 0.20272682383097132, 4.077782976060397, 1.4982831420162166, 0.5320427145338638 ], [ 0.2322735426956469, 0.1660150954911043, -2.3595324117703638, -0.25135147025337956, -0.4611549266410186, 0.10030022776302673, 0.19533556157239576, 0.09294183200174642, 0.31145912257558245, 0.47506791850196184 ] ]
  }, {
    "Size" : 1,
    "ActivatorType" : "Identity",
    "GradientAdjustmentParameters" : {
      "Type" : "Momentum",
      "LearningRate" : 0.01,
      "Momentum" : 0.9
    },
    "Type" : "StandardLayer",
    "L2Regularization" : 0.0,
    "Bias" : [ 11.767923253883547 ],
    "Weights" : [ [ -1.4131333943972 ], [ -1.1103346589142096 ], [ -1.1499303664043086 ], [ 2.258038565981602 ], [ 1.803902060076832 ], [ -3.0690359778582925 ], [ -3.3486378846998006 ], [ -5.159124533538706 ], [ -3.078981158499877 ], [ -2.985826429669367 ] ]
  } ]
}