{
  "InputSize" : 7,
  "BatchSize" : 32,
  "Layers" : [ {
    "Size" : 20,
    "ActivatorType" : "Tanh",
    "GradientAdjustmentParameters" : {
      "Type" : "Momentum",
      "LearningRate" : 0.01,
      "Momentum" : 0.9
    },
    "Type" : "StandardLayer",
    "L2Regularization" : 0.0,
    "Bias" : [ 2.1832515277726586E-4, 3.015407095946667E-15, 9.250865974627884E-15, -2.7936649896522093E-7, -1.8079838051263305E-5, 1.8569735685004243E-11, 0.007492671316848913, -5.514836285507314E-6, -0.005220078312672283, -1.2147764801020808E-6, -1.0729180563132514E-9, -2.136641428939774E-5, -0.017978205813242998, 0.0037179704451138634, 0.009783918170238706, -7.504104146892496E-4, -0.006401214684719449, 0.0013313334003579396, 2.4507173977386793E-9, -0.008519556629333187 ],
    "Weights" : [ [ 0.08246072974003804, -0.41417002089012966, -0.3992111001758137, 0.1553718914829695, 0.1864520961945961, -0.39183544572140355, 0.898673556548229, 0.45735678638302, 0.1492565698538472, -0.3282626204576154, 0.37615504202253, 0.40562682752959217, -1.119300832632061, -0.16735934891544874, -0.13244054463282257, -0.025286474093903204, 0.48644172177984546, -0.5416156046118604, -0.3436092954922982, -1.0251172773461283 ], [ 0.28744192974100513, 0.11607649355498036, 0.2823537342698856, -0.0064465510912979015, -0.13596500891343336, -0.2668927605552819, 0.47879905819338864, -0.0016928205233891738, -0.21757367032016053, -0.21301552175231533, 0.2671674446283087, -0.285700957747143, -0.49225010087676546, 0.24379817685648317, 0.044218951811344546, -0.005398139585495285, -0.22038342231635444, 0.15078627117005705, -0.22625322059722497, -0.2946330576381352 ], [ -0.3960159605753681, -0.39635621273333854, -0.4607729634372212, 0.22266463075883514, 0.15618573408283126, -0.15045640226473173, 0.49969823854690004, -0.058292178284784626, 0.30406688072283744, 0.023467249133545944, 0.09641855492870399, 0.02552605505628369, -1.0461157974409159, -0.4656113214547012, 1.1866843395127797, 0.2794449284555178, 0.5711719146418761, -0.613860474150843, -0.11329962854360544, -0.6131419766370061 ], [ 0.22472245578629943, -0.14488020882827646, -0.286566190860311, 0.013471503111473155, 0.3599377317905976, 0.4529948813593246, 0.06420831002226739, 0.37602792413582137, 0.14143977403039218, 0.026045243232128666, -0.2751981383464714, 0.06488031239538458, 0.14482997464430566, -0.28204076229542807, 0.3970038300048114, -0.2001917325109498, -0.1433528897082149, -0.05047089532567161, 0.24171140668232693, -0.4512827757770827 ], [ 0.18314145382366184, -0.21603969692712577, -0.1552733862152355, -0.30197839692501555, -0.3263406317076707, -0.3227842917545283, 0.12176267720833847, 0.19279549398424384, 0.06312154651641129, -0.3624427495157332, 0.10855944472090436, -0.32951633804748853, 0.2775007370441133, -0.17073136345250783, 0.4126341662152632, 0.12363015818515107, -0.428800179632644, 0.4095640166157006, 0.22547389404468499, -0.4206270322957053 ], [ 0.4142557098342595, 0.1673109759226299, 0.2460673261752342, -0.3943780046139892, 0.4628072083538397, 0.37588292729921574, -0.346523022479734, -0.10992629730093982, -0.33857895283714556, -0.4527646822057104, 0.017589563453778483, -0.002923388098012977, -0.43024207035131673, -0.17868766746725556, 0.2206119739202074, -0.20109200518410797, -0.29609907407114827, -0.22603567508065567, -0.2949671863874746, 0.2535849367009383 ], [ 0.14734835886672815, 0.44321786158727217, 0.3754416129203366, -0.1421732380415847, 0.27665907994839994, -0.22228860833884315, -0.021510588231368942, 0.24438077646857756, -0.36481313381843394, 0.015541995171910173, -0.08117119629937522, 0.15287030128980586, 0.3726091179266873, 0.001934107184158624, -0.16157942281966817, -0.3882416436441348, 0.07014250261779427, 0.40952052261176786, -0.308668934304749, 0.11300203858734911 ] ]
  }, {
    "Size" : 10,
    "ActivatorType" : "Tanh",
    "GradientAdjustmentParameters" : {
      "Type" : "Momentum",
      "LearningRate" : 0.01,
      "Momentum" : 0.9
    },
    "Type" : "StandardLayer",
    "L2Regularization" : 0.0,
    "Bias" : [ 0.001515399092880066, -0.028550948105604823, 0.007566635530216342, -0.07761477930888039, -0.06755504036735027, 0.07097929885651531, -0.024806370711376115, 0.5852235699434931, -0.02389458887155816, 0.12871876291477816 ],
    "Weights" : [ [ 0.012926769340259077, 0.2548658787252576, -0.05270412507096704, 0.10582798040942804, -0.10376054356423163, 0.011188618297540134, -0.17363931269385938, -0.29608110774721047, 3.094660484189544E-4, -0.2360308312502623 ], [ 0.2373782792251765, 0.09551650766323694, 0.11517789924058583, 0.012979676899062629, 0.180781610522445, 0.133357273494842, 0.23395439834199572, -0.21782198216618692, 0.4218992649755214, 0.2743401511015688 ], [ -0.19081496973762796, -0.2523825939838597, -0.2349655708964903, -0.28872337576851903, -0.34913004509405854, 0.32549960708041975, -0.043656622462421614, -0.8304877761092909, -0.3078981823916345, 0.14564592339698204 ], [ 0.38252321446497034, -0.22126920203174036, -0.4282059611897374, 0.03485611635979597, 0.020234741183109025, 0.2940033322911772, -0.014050416932837586, 0.4664399920744903, 0.3610308757542786, -0.30738228471727685 ], [ -0.31616472473835827, -0.2855753127734329, -0.3800646619182476, -0.04888934289402799, 0.11303811686169311, -0.2035003440290783, 0.2595121148311407, 0.1934305836712152, -0.3912729929866023, 0.0866623750307032 ], [ -0.3597895798708868, 0.3617441441504535, -0.3606344304168516, -0.34795498412945397, 0.21519164735141855, -0.45930203877612685, -0.158353860319711, -0.30449388230642555, 0.24415650081440418, 0.13593389620421592 ], [ -0.14287567447774757, 0.12443883793353322, -0.2782309218058375, -0.13895828544315483, 0.3057951878121988, 0.3437588264296322, -0.2290610938178459, 0.5281477939247441, 0.41398046862672483, -0.0076424545538608364 ], [ 0.254634720048243, -0.46290130956086123, 0.2029964469317477, 0.21639285192252564, 0.009856345419962692, -0.16781651933081632, -0.1195307684262748, 1.0032099073833864, 0.2638123860368067, 0.42763069939171755 ], [ 0.06051377418965007, 0.012723858807145376, 0.07085674106613875, 0.23054136929820293, -0.22492993575459702, -0.36179545957114606, 0.11043412016593415, 0.5212416420757259, -0.450068158087301, 0.012699762881935037 ], [ -0.03581868841024139, -0.0959607004030251, -0.007746526988539452, 0.20921820004006736, 0.21892260901415803, -0.17656606342817255, 0.004111200938860745, -0.3803263772220345, -0.21857527506061797, -0.007444663153142223 ], [ -0.3746586258199063, -0.28393948914878475, 0.41754103205837034, 0.2487892645874337, -0.3860128152393679, -0.03798254074378121, -0.4271027732676244, 0.2908193397179765, 0.13656554047978706, 0.06885464474507687 ], [ -0.19398972127751044, 0.1873181240887154, -0.23710918543130877, -0.008074274682723351, -0.19797871844270293, -0.27490109760700643, -0.42366891090945896, 0.6762832763142826, 0.20586854564607826, -0.13341681212540554 ], [ -0.5785195905047505, -0.8018431654574945, 0.5798023124563366, 0.25154593820012033, -0.006668882142117028, -0.5035760133110908, -0.15714185189994584, 0.26846781673783715, -0.1842735939107577, 0.028234491665376525 ], [ 0.13688070960939452, 0.19763328662542376, -0.4475951536728166, -0.2771248452905774, 0.2948256347794096, 0.07767760721606885, -0.34176425442859, -0.9917354473580247, -0.3492136215956207, 0.06429271695509015 ], [ -0.21577480116298442, 0.013811393287465454, -0.1892790602661644, -0.14958235101582487, 0.3752703820037761, -0.32375212586665636, -0.054336412027041224, 0.49464957652356983, -0.5320845915646437, 0.17342625514276125 ], [ -0.1045871941312982, 0.3576832908034597, -0.10616768318058845, -0.5072314673512557, 0.11548028297828572, -0.07017585302951056, 0.2387734677743505, 0.6633080503217467, -0.34015073838425475, 0.1271859541658227 ], [ -0.3756210869064743, 0.398388802127632, 0.13841744589499635, 0.1653094665938816, 0.1925799923038975, 0.3063725971675879, -0.4171678000252897, 0.15025207954426165, -0.03329684464955165, -0.09714323900751495 ], [ -0.31508574871753686, -0.14788805686051767, -0.29914415529228394, 0.29119473041699784, -0.260261414248296, -0.015676230699673045, 0.004318771632925186, -1.0187744696447345, -0.04106808131187553, 0.01656181085109489 ], [ 0.28501435752530946, 0.13721866364429058, -0.18477051167233485, -0.19112371174235648, -0.11108192286449992, -0.010656998732878148, -0.24628181621745507, -1.002196852531531, -0.3226715255292528, -0.012552319202782936 ], [ -0.22251722697838738, 0.08280980591647923, 0.10272246075173447, 0.19085421910427164, 0.17939776116495526, 0.1791457448567209, -0.2425798791124158, -0.2748319369475602, 0.3827803734999619, 0.07844251184150744 ] ]
  }, {
    "Size" : 1,
    "ActivatorType" : "Identity",
    "GradientAdjustmentParameters" : {
      "Type" : "Momentum",
      "LearningRate" : 0.01,
      "Momentum" : 0.9
    },
    "Type" : "StandardLayer",
    "L2Regularization" : 0.0,
    "Bias" : [ 3.3689429513909186 ],
    "Weights" : [ [ 0.006742636505731091 ], [ 0.0010838239927039189 ], [ -0.002269413785780913 ], [ -0.006048122224258309 ], [ 0.0010109070885044235 ], [ 0.007945944565702431 ], [ -0.0038341469365856876 ], [ 2.5491483747028862 ], [ 0.003024774666374335 ], [ -0.006644134954370879 ] ]
  } ]
}