{
  "InputSize" : 7,
  "BatchSize" : 32,
  "Layers" : [ {
    "Size" : 20,
    "ActivatorType" : "Relu",
    "GradientAdjustmentParameters" : {
      "Type" : "Momentum",
      "LearningRate" : 0.01,
      "Momentum" : 0.9
    },
    "Type" : "StandardLayer",
    "L2Regularization" : 1.0E-4,
    "Bias" : [ 0.0, 0.0, 0.0, -1.3710903995658574, -3.247193881171657E9, -1.0010848833817487, -1.8819458028260663, 0.0, -3.484657860199881, -1.7063358936961649E10, -3.234308553961265, 0.0, -4.780558990410413E9, 0.0, -3327487.1379217873, -2.11302328347392, 0.0, -0.6372347069867929, -0.7681799106231901, -5.333590146372415 ],
    "Weights" : [ [ 0.30198103428366196, -0.1415751894420906, -0.13653561029783903, -102.64299553151875, -2.4886938657750906E11, -77.16305267775303, -138.29734751614959, -0.146128902890222, -261.91345757168176, -1.3077591997546597E12, -240.82550319505586, -0.5835237963334272, -3.6638858871889624E11, -0.4107956132406555, -2.8345378396777195E8, -163.14019818846018, 0.06478607777873979, -52.42718542852683, -54.842371802232, -403.7526927247155 ], [ -0.5833902622534266, 0.14006367440806028, 0.054912612515590466, -6.20900243683487, -1.6668455632317514E10, -4.67771739346623, -9.200955259393169, 0.09865596690049291, -16.715189126903105, -8.758942391263347E10, -15.79557305858673, 0.13503705919010164, -2.4539506522430984E10, 0.47859816214475553, -1.2553073467830544E7, -10.041384403782263, -0.616237773619175, -2.6252299638784686, -4.137113339044948, -25.983745174561317 ], [ -0.49429627814801674, -0.0386025420536668, -0.07861092927535365, -158.46880580249504, -3.899748510144059E11, -113.99602000339678, -218.6191547599298, -0.2975196160353985, -401.1470009895145, -2.0492403912013784E12, -374.85743536023364, 0.0247149545883412, -5.741257985416316E11, -0.1756888886756744, -4.378249825786728E8, -240.43337516920064, -0.5353257671964022, -70.17313592625516, -90.18128942036523, -613.4655039702232 ], [ -0.3825771590298071, -0.05556618380052598, 0.3050749150643669, -0.5419117906186819, -5.471805015093524E8, -0.6161804982876571, -0.24869488929504646, -0.6058287093717828, -0.35335009877073686, -2.8753248616743546E9, 0.5418441843121292, -0.4678132825897003, -8.055659011084827E8, -0.5344287255292058, -630436.4122908092, -0.6678790945875187, 0.3384383169880772, -0.21131190270086914, 0.505904231841633, -1.6220739700845304 ], [ 0.07111863805568118, -0.5408412782492918, -0.06681831669679208, -1.300512939272515, -2.7507442302883654E9, -0.5190085713622031, -2.1045774960890893, -0.2114282964942374, -3.4079471136648456, -1.4454614622752869E10, -3.166892699036574, -0.5887422640969421, -4.0496796767299457E9, 0.02187377555775508, -2884968.946663689, -1.5232512454996874, 0.36670412703304406, -0.49639040716025623, -1.085371486732913, -4.399764603103557 ], [ 0.0753259964271901, -0.39063805632186815, 0.36063370170466474, 0.18906884444082406, -6.386917053723676E7, -0.3218479746404064, 0.22810704156724582, 0.14993753491572817, 0.04202157449712382, -3.356198048702784E8, -0.21263229432808717, 0.884991539511249, -9.402898248430224E7, -0.7850751701170784, -64804.075714070255, 0.1984635314215316, 0.2358042726783239, -0.050130600302270095, -0.39083087599714345, -0.2954940865044311 ], [ -0.6738122943035483, 0.0028528704358882565, 0.43016905197691724, 0.01925325791146719, -7.577199540839322E8, 0.039708229611860206, -0.5717030129979922, 0.3009190655907502, -0.6352075683721878, -3.981667872823458E9, -0.7899924493565686, 0.3427890272564664, -1.115524687473909E9, 0.10807388792998696, -908135.5198133398, -1.0149523393101039, -0.20443701255099972, 0.059420605953981326, -0.26859916948360907, -1.618026400968174 ] ]
  }, {
    "Size" : 10,
    "ActivatorType" : "Relu",
    "GradientAdjustmentParameters" : {
      "Type" : "Momentum",
      "LearningRate" : 0.01,
      "Momentum" : 0.9
    },
    "Type" : "StandardLayer",
    "L2Regularization" : 0.0,
    "Bias" : [ 0.0, -4.8196553497061765E8, -136162.26860960422, -1.8207795729887334E8, 0.0, -2470.851306745139, -1.0358246900104363E8, -7.056068108054324, -2.3248191996205166E8, 0.0 ],
    "Weights" : [ [ 0.35250213762290805, 0.31192937509026036, -0.27272729372467364, -0.3375875398905371, 0.12270189667948457, 0.10428820553936127, 0.2103300556742019, 0.06476559025681214, 0.10181728684989497, -0.2992289585924426 ], [ -0.16807805808214624, -0.047491024209186876, -0.3471772866286536, -0.001870355255782438, 0.4175352829763833, 0.1027808397546858, -0.5360323350805541, -0.20888938794218123, 0.28028008352678424, -0.31046140110337267 ], [ 0.17352731097788393, 0.2132403423398462, -0.5633192817195747, -0.12522238329194035, 0.04202992174949765, 0.13340275456950393, -0.19880087772953756, 0.18675748109259227, 0.24873583367003882, -0.21623019691748263 ], [ -0.6780961902665888, 73.81222572891292, 0.26012596597360876, 87.4090416445326, 0.39582484089855, -0.50700636839465, 127.04382469448312, -163.05124739685382, -127.26988619102582, -0.1508115240746213 ], [ -0.5554592166065129, -1.7926369467568086E12, -0.3076995144659915, -6.772261797232188E11, 0.059120250940286896, 0.18615045749820092, -3.85267731243853E11, -90.97265809182545, -70.86157920160475, 0.15954360016020494 ], [ -0.04487954341821786, 191.25079526372562, -0.1884521664696715, 224.43465382687293, 0.04510863231581371, 0.5667717956879136, 260.72329949950444, -420.9471074348276, -329.3891154586483, 0.2117177649926531 ], [ 0.44517819662916774, 612.0744069260164, -0.13403123494227615, 718.3691217708767, -0.35551072725585436, -0.22192060956129378, 905.1955198113262, -1344.838421377892, -1051.4309649302293, -0.21447561102657636 ], [ 0.8332368498419749, -0.5531087631885679, 0.001500778123402536, -0.2068194790028827, 0.3090814695823177, -0.13836873242721295, -0.23486934627885347, 0.5614714161865602, -0.542024121836885, 0.17472606017747927 ], [ -0.4363323271774369, 829.2592683321656, 0.017242533536009942, 971.682805884028, 0.03663083655263048, -0.2482642687906095, 1221.9357038003452, -1819.9870524850683, -1423.0627483163955, -0.18621371626287012 ], [ -0.20191820156260926, -1.2553699576202342E13, -0.059508984278896386, -4.742563194903086E12, -0.19455039111432337, -0.3613232317189541, -2.698000486523712E12, -432.12971414630954, -338.10731081032924, -0.4054166005633299 ], [ -0.07259287650339924, 86.45171484970378, -0.705568004088662, 102.06528612103061, 0.11340648542539189, -0.2917252908434321, 132.74619896615292, -191.16001261325115, -149.09096696933145, 0.026064904703556747 ], [ -0.2968666525667638, 0.4742857645753743, -0.3044400022255971, 0.6576812918279238, -0.06260969897069253, 0.04230960568569889, 0.24710772760809938, 0.2907216835063359, -0.08001612798013594, -0.0772936692258412 ], [ -0.6997929221818008, -4.500809751101067E11, -0.10275944642451254, -1.7003254330087045E11, 0.30634360871128835, 0.04062639685436735, -9.672994655183055E10, -127.40460640853414, -99.65943886988804, -0.08363420279576858 ], [ 0.15848851574272213, -0.22182022834369067, 0.571988385187002, 0.13668050446127825, -0.09558343533531448, -0.7093392317036268, -0.3189798967264445, 0.47655573971286763, 0.010991379140971501, 0.21168087587355497 ], [ -0.36922959823078516, 0.3241768320382182, -6.3502078533439896E10, 0.29249686279193726, -0.18469396377407168, -2.7072764887544234, -0.08341788112834261, -0.2713496722470318, -1.0538492417257084E14, -0.021677313011970435 ], [ -0.06296500953292888, 370.7983958751434, -0.6807382100257144, 434.7638847578768, 0.23111718869223866, -0.30955414526287856, 521.3634161161899, -813.7206801389069, -636.0757756920602, -0.2386712170600228 ], [ 0.8255426322093524, 0.2924705095142984, -0.04979332427722556, 0.3506585967544012, 0.4006826378733471, 0.2908979697598363, 0.008010947236473366, 0.07136227089585612, 0.05412381568061901, 0.027153125642676804 ], [ 0.20678817720374765, 162.23929469654001, -0.01555084433237879, 189.72707535615652, 0.3528637060829064, -0.135237238653541, 242.0391342016245, -355.9593727113568, -278.61115734704686, 0.22449899338036944 ], [ -0.5662592322549073, 371.08435515770014, 0.017703827537086006, 435.47313776622497, -0.21486828907221678, 0.08931183340271526, 548.504760856346, -815.3527931512142, -637.8114839095336, -0.3359598935206669 ], [ 0.2812817879287771, 206.52362716583954, -0.4153175358630639, 242.37028561132854, -0.07737123622715116, -0.443082438951595, 286.5251786808502, -452.74587627504013, -354.1024643508031, -0.23051028042135427 ] ]
  }, {
    "Size" : 1,
    "ActivatorType" : "Identity",
    "GradientAdjustmentParameters" : {
      "Type" : "Momentum",
      "LearningRate" : 0.01,
      "Momentum" : 0.9
    },
    "Type" : "StandardLayer",
    "L2Regularization" : 0.0,
    "Bias" : [ 5.507796598794093 ],
    "Weights" : [ [ -0.29364490800810883 ], [ -3.357357733106209E12 ], [ -6.314861037303343E10 ], [ -3.9519821879888804E12 ], [ 0.40773610343644284 ], [ 0.780130597304229 ], [ -5.175274912047492E12 ], [ 1921.9061026985241 ], [ -1.270745084641162E9 ], [ -0.12220825041109232 ] ]
  } ]
}