{
  "InputSize" : 7,
  "BatchSize" : 32,
  "Layers" : [ {
    "Size" : 20,
    "ActivatorType" : "Relu",
    "GradientAdjustmentParameters" : {
      "Type" : "Momentum",
      "LearningRate" : 0.01,
      "Momentum" : 0.9
    },
    "Type" : "StandardLayer",
    "L2Regularization" : 1.0E-4,
    "Bias" : [ -2.6893139435201383E9, -1.1781097505111648E7, 0.0, -5.947871628355677E9, -1.8923804748557982, -0.8466927671875882, -1.6024028430492894, -4.216268736347653E8, -0.8750381554087826, 0.0, 0.0, -5.471950257915437E8, 0.0, -0.29240982271290794, -0.007080868417277509, -6.466743188685174E8, 0.0, 0.0, -2.480116529746309, -5.974791221647726E8 ],
    "Weights" : [ [ -2.1828723515997855E11, -9.562525066748673E8, -0.38044242561012775, -4.8277905819205585E11, -152.36531414988525, -68.12297231266707, -128.6183873250837, -6.077335819469386E9, -70.52610076555503, -0.032093145013029706, -0.07003967465453573, -4.441492952594947E10, 0.24112257719557897, -23.481698164232863, 0.06643285208096547, -5.248950181398883E10, -0.3942411190226667, -0.35498902086432943, -200.33534153742016, -4.849640777693706E10 ], [ -1.1792018817581001E10, -5.1657384369475566E7, 0.33080077749554976, -2.608003960742415E10, -8.078003359200332, -3.5581276549628202, -6.650004916710009, -3.23674443313065E9, -3.7665344571397537, -0.02397046093345859, 0.4860850128160193, -2.3993234619303265E9, -0.3356200426973113, -0.8326108992573162, 0.26463482475374156, -2.8355171233218007E9, 0.16614267091997545, 0.13104491243204697, -10.795506722365028, -2.619807579240452E9 ], [ -3.351296021894597E11, -1.4681047308528144E9, 0.0648293787278175, -7.411956709172263E11, -232.5215732639179, -103.4565948481942, -196.13286492970343, -7.544452316983538E9, -107.47964764096422, -0.2832043489139871, -0.2951835072636662, -6.818885974462868E10, -0.8353746061599941, -35.96867049719121, -0.4105485746533925, -8.058549941994266E10, 0.11591718823538012, -0.11886211596832232, -304.3778365728366, -7.445502635215054E10 ], [ -5.2318670551906157E8, -2291927.8968750797, 0.2149903136696158, -1.1571156897380557E9, -0.6119202679366086, -0.4587920289275345, -0.111238112190032, -6.73930467734495E7, 0.048284483433575866, 0.5045696336587997, 1.0062161524798368, -1.06452860680193E8, -0.2870721797130582, -0.8537274367324083, -0.35767227854603356, -1.2580584279256855E8, 0.4776427198981308, 0.048710749234466416, -0.8280574518408781, -1.1623527022125177E8 ], [ -1.9008346224564471E9, -8326999.7467301795, -0.29206111340488605, -4.204016548933616E9, -1.793457975645547, -0.7078282876780932, -1.4585830719247257, -2.727216954635676E8, -0.6441065290160402, 0.013095599363861054, 0.23372219837896227, -3.8676304473991317E8, 0.32476489295134686, -0.5893851832846025, 0.5866538894421659, -4.570760276031975E8, 0.1292272687643426, -0.2908371841287647, -2.529171142682359, -4.223043587657615E8 ], [ -5.603855467092196E7, -245488.146105772, -0.05294641427220615, -1.239387190637927E8, -0.27351744851601545, 0.03264160567125259, -0.306702376015824, -1.0880112835736033E7, -0.5281127617580929, 0.15561227938537336, -0.09394428861463039, -1.1402171472828789E7, -0.5017872227819369, 0.0772895105566175, 0.12588771268370347, -1.3475069847581038E7, -0.28044654110727696, -0.15883794731522802, -0.760102008221515, -1.2449965341990035E7 ], [ -7.200980701358998E8, -3154538.8328289906, -0.5130087931516362, -1.5926184040032196E9, -0.6318268005018578, -0.17690780349728402, -0.7855312097927757, -7.580642029220524E7, -0.4028542433015363, -0.09630124562837786, -0.2109926217780039, -1.4651843929556817E8, 0.19447631759601947, -0.11298567289604605, -0.26517608460407194, -1.7315528712768438E8, -0.1089156192979241, 0.08893758388664906, -0.43659493893491086, -1.5998264682588258E8 ] ]
  }, {
    "Size" : 10,
    "ActivatorType" : "Relu",
    "GradientAdjustmentParameters" : {
      "Type" : "Momentum",
      "LearningRate" : 0.01,
      "Momentum" : 0.9
    },
    "Type" : "StandardLayer",
    "L2Regularization" : 0.0,
    "Bias" : [ 0.0, -0.6631644354353372, -6.135095712504465E7, 0.0, -0.5865981950334017, -1.731629348400618E7, -3.5918298686972503, -2.411067613927644E21, -9.441471784533975E8, -8.307267284854313E8 ],
    "Weights" : [ [ -0.31875552174815813, -60.99663146868449, -4.144791098524935E11, -0.3361909875343361, -54.313899248334145, -1.1698664570701102E11, -332.98672236568717, 3.824146389808578E9, -0.38924976249412857, -0.4892981572307973 ], [ -0.200662324499916, -0.14463577811168046, -6.39912338507583E9, -0.5757245629614802, 0.4281876036098428, -1.806151294808763E9, -2.259420272028161, 5.904081515715774E7, 0.14373857646920282, 0.5001696501905117 ], [ -0.28069114405898477, -0.2673342301423226, 0.38480814847151484, -0.1129886859179472, -0.4806372857175526, -0.16915190860816068, 0.24258008208791643, -0.005903596173169101, -0.8212449968572849, 0.1195626328997376 ], [ -0.1497305787484023, -137.00320081589678, -2.536972662241531E11, -0.10425418208414161, -120.5332497256077, -7.160600227546486E10, -738.5510479330062, 2.340710216083872E9, -0.5868323119407913, 0.006906981949877348 ], [ -0.04135230411866396, -41.74695348672073, 242.2173799899289, 0.03709347192974638, -36.19211026223021, 188.03965980070825, -227.23597340047587, 0.015305279053906181, 0.6763585488943139, 0.47384190455663644 ], [ -0.04266580488286705, -117.54561122505584, 682.3418906774901, 0.12513418698872245, -104.52479959852856, 530.1053566931655, -638.4847621434661, -0.08088741628409003, -0.21407415366618318, 0.12264923650933116 ], [ 0.11646843818136884, -201.5329196588721, 1167.0717628731913, -0.41542673988379825, -178.07326179805497, 906.7032903216234, -1092.3186758365966, -0.43090399545749714, 0.27603807644626865, -0.19108773437918877 ], [ -0.01945922533315023, 0.21591239649558028, -0.18612759098582735, -0.24048471963032966, -0.11412129409555705, -0.567465613863019, 0.3492421390267617, -0.12353768472111837, -2.0288285398288953E8, -1.7851052579025665E8 ], [ 0.4414506727595741, -18.388429049301475, 103.82844739446642, -0.07637072183274639, -15.24319369269694, 80.81735133274466, -97.50541195669052, 0.11800924906167644, -0.19865150457025454, -0.01847951878869629 ], [ 0.031368561253036664, -0.3064262565987509, -0.23506156652282378, 0.18276657045735772, -0.022041119104983423, -0.026600358053629748, -0.16025925281004258, -0.06571960900188437, -0.6284045522286602, -0.4036679512839749 ], [ -0.28068905561763824, 0.23409430945345583, 0.18659515479092095, 0.16613811861688998, -0.0934035149484362, -0.17619585694298986, -0.17441441420666898, 0.6151947051527943, -0.12414805801119107, 0.02958383706041466 ], [ -0.010958661085209348, -12.172225326337118, -8.217179718769568E10, 0.5034712330911084, -10.770490198276345, -2.3192973291444466E10, -65.91479931980592, 7.581491426874838E8, 0.7180415050374607, 0.2769084446787281 ], [ 0.039172268075719344, 0.01873701684415221, -0.46134300216827767, 0.2719591957219921, 0.38427593194890153, -0.131403021359495, 0.11217743404762562, 0.04136354298386431, -0.2815968430261419, 0.7778910897844828 ], [ -0.1457406449237087, -8.532765206579548, 48.56085307586326, 0.23674937503341364, -8.091419032209977, 38.408396547259464, -45.41443331464582, -0.26382095251883936, 0.3408687046216197, -0.17872629602478127 ], [ 0.3144169018156344, 0.1319396831083544, -0.29599017788561294, 0.3935769766967, -0.20179910757815184, -0.020778371731612216, -0.07943588211373467, 0.28031717618299573, 0.01962518847244555, -0.15848596647750335 ], [ -0.5917523653078105, -14.693031957508145, -5.0653803670798E11, 0.06096709643738874, -13.042151400023618, -1.4297025953726556E11, -81.52585230230811, 4.673518053927182E9, -0.07215130861120339, -0.011961751906215517 ], [ 0.2079603449157665, 0.2728106027523898, -0.14497656338473702, -0.07356822928108661, 0.1263454543596658, 0.1701364279505968, -0.4224980325091819, 0.14953061173504073, -0.19553604077142595, -0.0879513633088448 ], [ 0.42310813892317, -0.5425223087760492, 0.5310772041319975, 0.48835005247560964, 0.22163192696098513, -0.17633088706827355, 0.10093082588365096, 0.7425595824405916, 0.4259214719006162, -0.5493746194859961 ], [ -0.6810858068743006, -42.92650989083458, 249.14040698292274, 0.45478023562243564, -37.90715624031622, 193.39463598053203, -232.9078757027672, -0.032156190838770644, -0.13891796308610377, 0.04016645666452587 ], [ -0.30256071213898594, -13.571178797487045, -4.689242316945929E11, 0.07221736231594374, -12.420778718649151, -1.3235377059750551E11, -74.71579513885614, 4.326478376858227E9, -0.06171731169857185, -0.5145591024288579 ] ]
  }, {
    "Size" : 1,
    "ActivatorType" : "Identity",
    "GradientAdjustmentParameters" : {
      "Type" : "Momentum",
      "LearningRate" : 0.01,
      "Momentum" : 0.9
    },
    "Type" : "StandardLayer",
    "L2Regularization" : 0.0,
    "Bias" : [ 5.584138269821977 ],
    "Weights" : [ [ 0.19423896748924216 ], [ 442.75331185913404 ], [ -1.5178073057827056E12 ], [ 0.1453404631403639 ], [ 1240.8044427474854 ], [ -1.1643488052315662E12 ], [ 1102.397203922737 ], [ 2.0911468389596867E17 ], [ -4.268116058902585E7 ], [ -1.8945949394796106E8 ] ]
  } ]
}