{
  "InputSize" : 7,
  "BatchSize" : 32,
  "Layers" : [ {
    "Size" : 20,
    "ActivatorType" : "Relu",
    "GradientAdjustmentParameters" : {
      "Type" : "Momentum",
      "LearningRate" : 0.01,
      "Momentum" : 0.9
    },
    "Type" : "StandardLayer",
    "L2Regularization" : 1.0E-4,
    "Bias" : [ -1.5177625166975075, -3.007975959420704, -2.5129035411049587, 0.3141285419674076, 2.8506622867852065, -0.8195436558456258, -0.2543681617324402, -3.6040949162172966, -1.1677522906178517, -1.3480464073273615, -0.027037492829628626, -1.3950666657154034, -2.462714178062539, -8.722586225360818, -0.8273798625222515, -2.358284172551458, -1.9528188411494547, -1.171028539948171, -1.5953532031039819, -3.283378717497494 ],
    "Weights" : [ [ 2.2593959589940176, -3.765579900044064, 1.9735479669922444, 0.3996119834300789, -2.2887766898439867, -0.4584997271109609, 1.4579329908599385, -0.7717555284902325, 0.174860132099799, -3.13435925243878, 1.2420978472472242, -2.79419914800447, 2.0973451779212455, -1.548639065900647, 1.8485506773167089, 3.74222391694053, -0.8018473432629114, 0.6037570179904193, 1.8860554747863305, 3.063926049115948 ], [ -0.27932278016689693, -0.07860217442392378, -0.32729008041563024, 0.02145152085592817, -0.01698626625205356, -0.031012984528900372, -0.035595061150036335, 0.02806609090885167, 0.29814566032470624, 0.47624323389066237, 0.4105238146327694, -0.447301399458269, 0.0865808961043954, 0.3532012158592406, -0.09307100952938438, 0.0737383893332441, -0.03548631689729078, 0.38482813743639427, 0.38633623775444365, -0.013296161177044769 ], [ -2.1664813907440656, 3.196587168432457, -0.6293489768685272, 0.7694203933064112, 1.207499495189897, -0.35174370739742744, -0.8937946754842898, 1.8250087650175721, 0.21630554332049973, 1.4589609413613178, -1.2141294880301432, 0.8985797648118713, -0.8786188905917861, 3.8989192816450764, -0.6968240760339712, -4.805794980260706, 2.105764240969202, -0.7428001085944625, -1.0014770924457923, -1.9394810168078531 ], [ 0.5807906870277706, 2.910126584039455, -0.49443884332203264, -1.0331572515438947, -2.2341373286753745, -0.5203422075322007, -0.7628766897675149, -1.186901098379364, -0.22756129401449302, -0.5086175413633797, -1.0694398973959172, 0.5093338214647224, 0.8107448486698786, 0.5022335132882823, -2.3191773193111755, 0.7252317319389014, 0.8691221081364113, -0.5523485035303757, 0.31940953216580337, 2.440057151834487 ], [ 0.9072721979412387, 1.4275056333294653, 1.144185478733375, -0.7987032691221251, -1.6497474877906013, 1.6673818152333282, 0.5934474996772359, 0.7801647124656685, 1.1905166731673096, -0.4313936615127429, -0.6018873723249768, -0.8402180996422213, 1.5492951186252093, -6.161445530276023, 0.35466593210150815, 0.11633249550871505, -2.8479172879848518, -0.6618813099842368, 0.49183846174649987, 1.8979069106919266 ], [ -0.09120265615052996, -0.18675187760186962, 0.053650205550359306, 0.018229103283247165, 0.061870550449318926, 0.01607143862244368, 0.10859663958470511, -0.03421086526688244, 0.011070904579980239, -0.286703293086261, -0.105622285716685, 0.5110520746577257, 0.3694718575901196, -0.04900807484530191, 0.15340362661650606, 0.1029317537066457, -0.04657439243891334, -1.0735875204773937, -0.2513039754337391, -0.18585221776906724 ], [ -0.36368276365983704, -1.2067977274774608, 1.9588928701545163, 0.15634754919151045, 0.6363089699749745, -0.08150756089515944, 1.3534776952186844, -1.91370397918346, 0.9639466362798824, 1.3081018636442328, -0.009732261628337955, -1.1089616146882117, -0.06358597657378579, -0.34311857053664063, 0.8987853067714171, -1.2105416404861855, 0.040932377926472835, 0.7100393782186039, 0.5612273774546268, -0.46350735996457854 ] ]
  }, {
    "Size" : 10,
    "ActivatorType" : "Relu",
    "GradientAdjustmentParameters" : {
      "Type" : "Momentum",
      "LearningRate" : 0.01,
      "Momentum" : 0.9
    },
    "Type" : "StandardLayer",
    "L2Regularization" : 0.0,
    "Bias" : [ -0.2741560713531813, 2.4500346097672496, -0.19788719642873506, -0.44438147211076795, -0.3155661462427351, 4.332259175306018, -2.992027997885372, 0.7653630105595332, 1.1533640768863915, 0.31389180047964715 ],
    "Weights" : [ [ 0.09507531347550047, 1.5945314887224926, -0.11676760069266225, -0.10968070520826564, -1.3997389784191603, -0.6834061309791211, 0.4251302984140527, 0.21332572887295365, -0.18448270958585805, -1.311397633861243 ], [ -0.04759152792666024, 0.40810156584379886, -0.4195180148447945, -0.8618138953405003, 0.10777039624986037, -1.174492538445472, -0.5544181077214441, -0.2490160498768442, 0.3035247841531221, 0.14435812266806686 ], [ -0.0998711628539791, 0.3293985630136354, 0.061475930127299926, 0.11928647105028245, -0.6106383312690221, 0.8651931508745939, 0.21890990970752008, -0.49774048425122414, -0.2728949849229705, -0.15238250758063218 ], [ -0.16884638825196044, -0.4163109952681045, -0.20476688865135595, -0.052140290788590005, -0.8847746829239052, -0.7749468895618968, -0.9957702961257984, 0.0886811070185022, 0.7776919344057373, -0.09196331371311373 ], [ -0.2355361477072969, -0.649251420881174, -0.30055451766213487, -0.34861198977611696, -0.5282962348638738, -0.7887801605214682, -0.1657614563324239, -0.3715702964170659, -0.3068351608669847, 0.4098167024001032 ], [ -0.0796981415003317, -0.28259948199754803, -0.3671894985706495, -0.36110944520012206, 0.5501881207615089, -0.29454305677242504, -0.349858475050059, -0.5025010243196101, -0.12484656621534876, 0.19812096181744912 ], [ -0.10063339663199738, -0.7975194829647243, -0.45614832706066394, -0.09737482336744786, 0.6922310639369335, 0.406528370493896, 0.27538684373633115, -0.28068194894443493, 0.8960911529070436, -1.4013925509543301 ], [ -0.3878153910273013, -0.5999369233478543, -0.14290195339834855, -0.2801514501487941, 0.2779164727397197, -0.2842710832944607, -0.4634602758257872, 0.26799075081279633, -0.19115795951888245, 0.15811691748726697 ], [ -0.09251690446933375, 0.3234906786679429, 0.031108695163005982, -0.49790813456583854, -3.2522294454937115, -0.6561269614669704, -0.38582848704406586, -0.4670239940633165, 1.4441730152942867, -1.8235264302270455 ], [ -0.05519886366128754, -0.20659321135609346, 0.08415600669758627, -0.15424274659022066, -0.34238505080476406, -0.11648337983628182, 0.09229074586564151, -4.006218244936644, -0.6774393021224401, -0.06808351274824238 ], [ -0.1793075276118273, 0.5488875861214602, 0.002866198819119816, -0.017178860035500742, -0.19379929950910704, -0.01659911612533142, -0.2752907018571518, -0.17933190250769815, -1.6081931710815998, 0.09802967061309788 ], [ 0.03891234215291384, -0.17491324658527715, -0.18462168435647877, -0.7243487523575224, -0.35854322292384205, -0.06306218135758324, -0.06425553460278861, 0.027173902246658797, -2.61016292717542, -0.159127146591686 ], [ -0.2998326641403381, 0.6137072174169385, 0.2985449308793109, -0.4034281078890059, 1.0528852627313945, 0.17158544317017507, -1.104864647997848, 0.3045778170666925, 0.04314651800286413, -2.9796854265366464 ], [ 0.4564198450697921, -0.04597568297131133, -0.24512792975951345, 0.31145999927736734, -0.8050392527360767, -0.9836138340920164, 0.002710913180802042, -0.7273811732813581, -1.1905338711803497, -0.08547099381537493 ], [ -0.20496542615497798, 0.16608218886311127, 0.17811831601144326, -0.12288438784580874, -1.672157634729761, 0.22666136888130198, -1.234568369876953, -1.6496175306780911, -1.2068967730536335, -0.006899247216283232 ], [ -0.2615443224746956, -0.5397437578113423, -0.45274064830494265, -0.4595243235497926, 0.48996423696065633, 0.7859231007904026, 0.579466287891614, 1.1898857410649983, -0.6836652142303532, 0.38550363750748523 ], [ -0.23689667442580306, -0.10405759537605878, -0.10964756006159124, -0.5903408786151838, -0.8249179277443253, -0.4232555181835415, 1.456070190980389, -0.27493752943541727, -0.33551253623693134, 0.3218778839110633 ], [ -0.024260793127500135, -0.9307533020438775, -0.4806134974063211, 0.22658679516968766, -1.0224137666483735, -0.08203285913485467, -0.5909218334631989, 0.14682414246566594, 0.8939919167720262, -0.1138282872339923 ], [ -0.18415811986657468, 1.1417391429831716, 0.26355164341714654, -0.5781614283390195, -0.034160008869580136, -0.3537681154932614, 0.6113069044878344, -0.29891423920286336, 0.06790650175068086, -4.098463226028758 ], [ -0.5108169660264767, -0.046633228967464246, -0.3355187025034094, -0.014897991778016859, -2.734378457851701, 0.9282656249447825, -0.2066451130224271, 0.7723830720195278, 0.5440773729903469, -3.5851290671635714 ] ]
  }, {
    "Size" : 1,
    "ActivatorType" : "Identity",
    "GradientAdjustmentParameters" : {
      "Type" : "Momentum",
      "LearningRate" : 0.01,
      "Momentum" : 0.9
    },
    "Type" : "StandardLayer",
    "L2Regularization" : 0.0,
    "Bias" : [ 2.2077523761208853 ],
    "Weights" : [ [ -0.3722455577460306 ], [ 0.949973390696821 ], [ 0.4766449965495348 ], [ 0.28517343590298216 ], [ 1.0238401026902055 ], [ 1.0886169006813786 ], [ -0.4148377928029826 ], [ 0.6964345718657832 ], [ 0.6707437655663057 ], [ -0.3733002944270873 ] ]
  } ]
}