{
  "InputSize" : 7,
  "BatchSize" : 32,
  "Layers" : [ {
    "Size" : 7,
    "ActivatorType" : "Tanh",
    "GradientAdjustmentParameters" : {
      "Type" : "Momentum",
      "LearningRate" : 0.01,
      "Momentum" : 0.9
    },
    "Type" : "StandardLayer",
    "L2Regularization" : 1.0E-4,
    "Bias" : [ -8.332797935866859E-8, -0.01094819782542028, 8.795780889310392E-15, -0.0023832438802681684, 8.758317621125999E-7, -0.04888039349213489, -4.427808006693987E-12 ],
    "Weights" : [ [ 0.24895038119140112, -0.2880256636417178, -0.3816646966088981, -0.15839406642021212, -0.26625874772563707, -0.9331083171576222, 0.4338097718243813 ], [ 0.24959334099968952, 0.24608924539284238, -0.28274119894215644, -0.3375959955489789, -0.37625446805112245, -0.6077618678839937, -0.3959899478007999 ], [ 0.19770085446903238, -1.086590492649787, -0.38549347715089893, -0.6916263354744382, -0.13081641084223192, -1.7783693681306656, 0.4250394425705012 ], [ -0.06822647784213921, -0.26021627224258764, 0.1530533472757628, 0.07732839370645696, -0.4239192399995392, 0.10364833728944588, -0.05604817230128714 ], [ 0.3813256102702021, 0.1440238511383478, -0.33723348276699594, 0.4207604545309962, 0.08101963354805221, 0.09400585077626722, 0.1506916110695271 ], [ -0.12990991519363682, 0.10434262309937267, -0.41947304485912085, 0.28251510664520324, 0.3459749594671458, 0.2764785917999833, 0.25824054063529095 ], [ 0.04434199138643805, 0.34278780225813615, -0.010967714248464686, -0.0016582616765419796, -0.3111644992865048, 0.11962293044289028, 0.24779364903671564 ] ]
  }, {
    "Size" : 1,
    "ActivatorType" : "Identity",
    "GradientAdjustmentParameters" : {
      "Type" : "Momentum",
      "LearningRate" : 0.01,
      "Momentum" : 0.9
    },
    "Type" : "StandardLayer",
    "L2Regularization" : 0.0,
    "Bias" : [ 0.6759954487625424 ],
    "Weights" : [ [ 1.0071832655917836 ], [ -0.25917298142558154 ], [ -0.40059735737990293 ], [ -0.8531210345641704 ], [ -1.4741338851158186 ], [ 0.9214976898470597 ], [ 0.4728551700666532 ] ]
  } ]
}