{
  "InputSize" : 7,
  "BatchSize" : 32,
  "Layers" : [ {
    "Size" : 7,
    "ActivatorType" : "Tanh",
    "GradientAdjustmentParameters" : {
      "Type" : "Momentum",
      "LearningRate" : 0.01,
      "Momentum" : 0.9
    },
    "Type" : "StandardLayer",
    "L2Regularization" : 1.0E-4,
    "Bias" : [ 1.720935458003751, 0.30360680747597896, -1.2103292235713485, 4.335771589792326, -4.1063059019051344, 2.523785982550577, -1.5191988950700535 ],
    "Weights" : [ [ -2.3724195778775927, 0.920108388259419, -1.4450497729808984, -3.6918445540589597, 2.5257220675633345, -2.123671137641665, 1.7919898851014666 ], [ 0.012972523543847453, 0.03619931457055231, -0.02469948399189653, 0.05617847342598913, -0.08790646626046332, -0.029230960705848116, 0.019613681598050804 ], [ 2.4006255786301214, -1.09443092403423, 0.6839642506152751, 4.304277392573371, -1.5121727227699275, 1.5563933342891654, -0.9384041326491179 ], [ -1.0820529691483491, 0.5692956356055805, 0.14925303355546157, -0.6233474030755758, -0.1700833063976545, 1.26539482675335, 0.09094971059325359 ], [ -1.0178000009468828, 1.521904307288478, 0.994859235975823, -0.9294726536194117, 1.2293553022539132, -0.7318841195004191, 1.235371840529864 ], [ 0.03198913285924906, 0.05013443771951899, 0.012886570558218943, -0.07872368988252812, -0.0033692907175941877, -0.10119887558684935, 0.0037392025224665055 ], [ 0.6321770248283057, -0.05536759189942415, -0.19190404135051295, 0.45515809312394606, 1.409942897379106, -0.18360515845733372, 0.9475241881545365 ] ]
  }, {
    "Size" : 1,
    "ActivatorType" : "Identity",
    "GradientAdjustmentParameters" : {
      "Type" : "Momentum",
      "LearningRate" : 0.01,
      "Momentum" : 0.9
    },
    "Type" : "StandardLayer",
    "L2Regularization" : 0.0,
    "Bias" : [ 13.641475590347193 ],
    "Weights" : [ [ -2.749480838824107 ], [ 2.4069458094804683 ], [ -2.356422093473442 ], [ -4.425378004473248 ], [ 5.081287119632707 ], [ 2.2024002234737927 ], [ 2.749905005495496 ] ]
  } ]
}