{
  "InputSize" : 7,
  "BatchSize" : 32,
  "Layers" : [ {
    "Size" : 7,
    "ActivatorType" : "Tanh",
    "GradientAdjustmentParameters" : {
      "Type" : "Momentum",
      "LearningRate" : 0.01,
      "Momentum" : 0.9
    },
    "Type" : "StandardLayer",
    "L2Regularization" : 1.0E-4,
    "Bias" : [ 0.011225112832310199, -0.012930448941079852, 0.0025678406071754185, 4.63089627973933E-9, 0.009083703511634586, 8.651245184121741E-13, 1.1578433381245126E-7 ],
    "Weights" : [ [ 6.35873474554515, 0.6988924803856295, 0.5676437913349601, -0.06799876377728702, 0.9391023234821637, -0.25210967329947276, -0.11136672550996941 ], [ 0.2785783376686097, -0.30616103803175737, -0.18844428408795857, -0.34378976498275776, 0.18094236030927346, -0.2807146978637581, 0.2051728759787378 ], [ 6.9078785204856334, 0.5490092299203058, 1.1340304687612777, -0.3897729953656193, 1.354781799170558, -0.4091142503520188, -0.37941248342352507 ], [ -0.08300015638278958, -0.07321878418704267, -0.12786349279968348, 0.3381619001649885, -0.13794884721364167, -0.32156888906021824, 0.22774046081949748 ], [ 0.22017105036111426, -0.23416892701064565, -0.13351645208524604, -0.3671855807706831, -0.2827266318195172, -0.25110051308569636, -0.3756182427484323 ], [ 0.4005857600743757, 0.16116121902564767, -0.1268942462347653, -0.44133991760892854, 0.4040947102421055, -0.19361067854795255, -0.16889921776864106 ], [ 0.20582297649298845, 0.0872885512498169, 0.20017132635925708, -0.1532594102947246, -0.4046555720351988, -0.4501934117184483, 0.218446986307476 ] ]
  }, {
    "Size" : 1,
    "ActivatorType" : "Identity",
    "GradientAdjustmentParameters" : {
      "Type" : "Momentum",
      "LearningRate" : 0.01,
      "Momentum" : 0.9
    },
    "Type" : "StandardLayer",
    "L2Regularization" : 0.0,
    "Bias" : [ 0.5758916582995667 ],
    "Weights" : [ [ 1.2006762647841374 ], [ 0.42560838039920196 ], [ 0.5773580203075311 ], [ -0.2774149809005087 ], [ 0.7981289197985922 ], [ -0.5638051039921178 ], [ 0.09515735437223867 ] ]
  } ]
}