{
  "InputSize" : 1,
  "BatchSize" : 10,
  "Layers" : [ {
    "Size" : 20,
    "ActivatorType" : "Tanh",
    "GradientAdjustmentParameters" : {
      "Type" : "Momentum",
      "LearningRate" : 0.01,
      "Momentum" : 0.9
    },
    "Type" : "StandardLayer",
    "L2Regularization" : 1.0E-4,
    "Bias" : [ 0.34448150462529176, 0.6470473330763541, 1.1244009704106523, 0.14063742909016871, -0.07930094060579304, -0.45429917107528955, -0.02749781515921513, -0.8621733727370332, -0.05984867026419653, 2.5975070938785554, 2.5238641801385584, 0.4192833839427231, 0.8406404303735002, -0.532402806105381, -0.37518597817404914, -0.043575953761409734, -0.7901070874098299, 0.12998716456787712, -0.4860435394541761, 0.6687720672511797 ],
    "Weights" : [ [ 0.0037933131501646416, 0.0025260923051436826, 0.0018452804710296182, -0.2951747333271515, -0.30260044205208236, -1.7083928443932321, 0.30274630176791767, -0.0021060369441966223, -0.3977619857725236, 0.8062300822512223, -0.7700231298850355, -0.707008943566255, -0.3578094649380341, 1.756435925476477, -0.8490655591494599, -0.3544837236166218, -0.0022178464775922655, -0.49194295270600086, -0.0032602991333770736, 0.3925876948021288 ] ]
  }, {
    "Size" : 1,
    "ActivatorType" : "Tanh",
    "GradientAdjustmentParameters" : {
      "Type" : "Momentum",
      "LearningRate" : 0.01,
      "Momentum" : 0.9
    },
    "Type" : "StandardLayer",
    "L2Regularization" : 0.0,
    "Bias" : [ -1.8706659380293458 ],
    "Weights" : [ [ -0.36094912827712994 ], [ -0.7245622364895284 ], [ -1.475550127201824 ], [ 0.2479034359251774 ], [ -0.06523646953370783 ], [ -1.4463265378305048 ], [ -0.10186738372553585 ], [ 1.0177717126401986 ], [ -0.08442551211009086 ], [ 2.104552922977835 ], [ 2.019426250172241 ], [ 0.41802311817170007 ], [ 1.1244263374778167 ], [ -1.5659320508858077 ], [ -0.5349031592190158 ], [ -0.023920364480638324 ], [ 0.9193986564507365 ], [ 0.077289996685573 ], [ 0.6419326291835953 ], [ 1.1393717593575654 ] ]
  } ]
}