{
  "InputSize" : 1,
  "BatchSize" : 10,
  "Layers" : [ {
    "Size" : 20,
    "ActivatorType" : "Tanh",
    "GradientAdjustmentParameters" : {
      "Type" : "Momentum",
      "LearningRate" : 0.01,
      "Momentum" : 0.9
    },
    "Type" : "StandardLayer",
    "L2Regularization" : 1.0E-4,
    "Bias" : [ -0.041169979561682425, 0.06414566399757166, 1.935224607402614, 1.0759044345953834, 0.02626959900344557, -2.0884257992195447, -0.08763600879302241, 0.054263944218910364, -0.03995931246765753, -0.020454933919339266, 0.06537909607373528, 0.03927323122693336, -0.06809493792427261, 0.005830773806669023, -0.016019803929555272, 0.04192596542196493, 1.2860313316147638, -0.11685081772218466, 0.054596849236643444, -0.03477842854280214 ],
    "Weights" : [ [ 0.5291629041066122, -0.5540831414225329, 1.7079063258014002, 0.9866009694355258, -1.0729216725791533, 1.9322599235005675, 1.1718616100246555, -0.5494430001279552, 0.5344210823990047, 0.5726442269310053, -1.1534694849951876, -0.5332322677417735, 0.5591547769123738, -0.8967886940647098, 1.0495356322417537, -0.5317500524497012, 1.3999036909959115, 1.2021495330592977, -0.5478437954093589, 0.5172688513347472 ] ]
  }, {
    "Size" : 1,
    "ActivatorType" : "Tanh",
    "GradientAdjustmentParameters" : {
      "Type" : "Momentum",
      "LearningRate" : 0.01,
      "Momentum" : 0.9
    },
    "Type" : "StandardLayer",
    "L2Regularization" : 0.0,
    "Bias" : [ -0.03567328605072401 ],
    "Weights" : [ [ -0.8526586319386581 ], [ 1.371198389041352 ], [ 2.278831120305441 ], [ -2.0357616616049654 ], [ -0.9594014864877585 ], [ 2.4979940939453393 ], [ 1.311450406404954 ], [ 1.2356913685256812 ], [ -0.9282391357026498 ], [ -1.8901699985982596 ], [ -1.2477508714927608 ], [ 0.9094837456479635 ], [ -1.533638494675647 ], [ -0.16361840136486255 ], [ 0.8911141032461095 ], [ 0.8896781147811342 ], [ 2.0401441637591504 ], [ 1.4435150311768934 ], [ 1.198504787079782 ], [ -0.7092232619966531 ] ]
  } ]
}